svm_type c_svc
kernel_type linear
nr_class 2
total_sv 980
rho -0.469369
label 1 -1
probA -3.55777
probB 0.228057
nr_sv 535 445
SV
0.004429832921500205 1:7 2:1 3:2 6:1 17:2 27:1 33:2 35:1 45:1 49:3 50:1 52:1 61:1 71:1 75:1 90:2 107:1 110:1 111:1 136:2 161:1 164:5 225:1 234:2 236:1 262:1 275:1 287:1 309:1 313:2 345:1 368:1 410:1 411:1 434:2 486:1 497:1 537:1 589:1 753:1 976:1 1033:1 1055:1 1185:1 1187:1 1219:1 1289:1 1527:2 1547:1 1608:1 1657:3 1687:1 1689:1 1758:2 1902:1 1926:1 1969:1 2052:4 2211:1 2220:1 2280:1 2365:1 2479:2 2483:1 2601:1 2865:1 2887:1 3008:1 3334:2 3367:1 3430:1 3556:1 3734:1 3759:2 3852:1 3893:1 4138:1 4374:1 4553:1 4674:1 4705:1 4951:1 5001:1 5377:1 5396:1 5791:1 5930:1 6060:1 7034:1 7036:1 7045:1 7157:2 7513:1 8119:1 8526:3 8704:1 8781:1 10654:1 11260:1 12672:1 12678:1 13354:1 16016:1 17134:1 17434:1 17559:1 19486:1 19989:1 20236:1 20603:1 21211:1 23734:1 24678:1 26150:1 28937:1 30014:1 30339:1 32221:1 32605:1 34240:1 35243:1 35310:1 
0.001011887382262545 1:13 2:4 3:4 4:1 5:4 8:4 9:1 13:1 17:2 18:1 19:3 22:1 24:1 34:1 36:1 37:1 38:1 40:3 46:1 47:2 48:1 49:2 52:2 55:1 56:1 68:1 71:2 78:2 79:2 81:1 82:1 91:1 95:1 100:2 107:2 109:1 110:1 113:1 121:1 122:2 127:1 129:1 136:2 139:1 149:1 162:1 168:1 170:1 179:1 188:1 193:1 201:1 208:1 214:6 232:1 233:1 251:1 255:1 266:1 268:1 281:1 289:1 300:1 315:2 319:1 328:1 336:3 341:1 353:1 362:1 371:1 380:1 389:2 390:1 397:1 416:1 435:1 444:2 445:4 470:1 519:1 524:1 548:1 562:1 566:1 570:1 588:1 603:1 605:1 609:1 610:2 634:1 659:3 668:1 675:1 702:1 709:1 737:1 745:2 803:1 814:1 819:1 867:3 868:1 904:1 915:1 957:1 966:1 967:1 1000:1 1046:1 1053:1 1058:1 1064:2 1068:1 1082:1 1086:1 1140:1 1145:3 1153:2 1193:1 1217:1 1225:16 1255:1 1289:5 1290:1 1329:1 1370:1 1371:1 1403:1 1436:1 1448:5 1489:1 1545:1 1547:1 1551:1 1555:1 1556:1 1600:1 1720:1 1823:1 1859:4 1871:1 1975:1 2056:1 2062:1 2067:1 2074:2 2225:1 2283:1 2315:1 2520:1 2589:1 2626:3 2643:1 2752:4 2839:1 2846:2 2849:1 2850:1 2853:1 2922:2 2945:1 3010:5 3047:1 3057:1 3206:5 3251:1 3265:1 3277:1 3347:1 3431:2 3432:1 3526:1 3798:2 3863:1 3865:1 3867:1 3922:1 4116:1 4157:1 4251:1 4261:1 4447:1 4713:1 4743:1 4773:1 4845:1 4908:2 4976:3 5096:1 5198:1 5249:1 5366:1 5399:1 5402:1 5505:1 5696:1 5819:1 5901:1 6082:1 6083:1 6754:1 6899:2 7007:1 7106:1 7355:1 7617:1 7666:2 7692:1 7752:1 8010:1 8018:1 8038:1 8177:1 8404:1 8502:1 8683:1 8808:1 8848:1 8907:1 9006:1 9125:1 9358:1 9483:1 9798:1 10000:1 10147:1 10516:2 11031:1 11284:1 11638:1 11699:1 11940:1 11980:1 12519:1 12542:1 12547:1 13092:2 13093:2 13832:1 14933:1 15221:1 15277:1 15566:1 15889:1 15978:1 16161:1 16197:1 16383:1 19177:1 19220:1 19702:1 19925:1 21081:1 22303:1 23234:1 23570:1 23841:1 25622:3 26026:1 26283:1 26359:1 28395:1 30252:1 32110:1 32752:1 32825:1 35576:1 35911:1 36503:1 37132:1 39351:1 40594:1 
0.001392808612338868 1:5 2:1 4:2 28:1 30:1 47:2 49:1 52:1 64:1 121:1 132:1 136:3 149:2 164:2 178:1 179:1 251:1 257:1 267:2 268:1 288:3 387:2 441:1 466:1 523:1 572:1 610:1 674:2 745:1 883:5 954:1 977:1 1062:1 1066:1 1086:1 1107:1 1145:1 1186:1 1319:1 1340:1 1389:1 1505:1 1549:1 1578:1 1760:2 2059:1 2068:1 2263:2 2593:1 2830:1 2955:1 3534:1 3614:1 3709:1 3712:1 3863:1 3881:1 3895:1 3933:1 4123:1 6330:1 6429:1 6823:1 7003:1 7400:1 7801:1 8638:1 9235:1 9310:1 10489:1 10523:1 10903:1 12093:1 12840:1 15638:2 15797:1 15907:1 23734:1 26951:1 42615:1 
0.0002635843409138192 1:9 2:3 4:1 9:1 13:3 20:1 28:1 30:1 36:1 38:1 39:2 45:1 50:1 56:2 57:1 70:3 71:1 82:1 114:1 121:1 132:1 144:1 168:1 171:2 202:1 209:1 221:1 266:1 268:1 337:1 371:1 397:1 450:1 500:1 528:3 549:2 552:1 612:1 626:1 627:2 646:1 694:1 701:1 752:1 810:1 819:1 825:1 936:1 947:1 973:1 1204:1 1260:1 1295:1 1333:1 1412:3 1464:1 1484:1 1486:1 1559:1 1720:1 1744:6 1787:1 1850:1 1888:1 1920:1 2108:1 2113:1 2304:1 2320:1 2346:1 2534:2 2566:1 2685:1 2891:1 2918:1 3314:1 3444:1 3689:3 3890:1 4075:1 4259:1 4520:1 4699:2 4809:1 4920:6 5250:2 5386:1 5393:1 5403:1 5566:1 5567:1 5616:1 6033:4 6812:2 7290:1 8134:1 8382:1 8778:1 8795:1 10096:1 10243:1 11695:1 12347:3 12385:1 12507:1 12611:1 12692:2 13203:2 13482:1 13790:1 15036:1 15310:1 15568:1 15627:1 16502:1 16726:1 17947:1 18155:1 20354:1 21246:1 23029:2 23500:1 24007:1 24198:1 24640:1 26201:1 26699:2 27833:1 28010:1 28422:1 28844:1 29739:1 30180:1 31035:1 31366:1 31439:1 35994:2 38206:1 38306:1 39492:1 41765:1 
0.002718987725254184 1:4 2:2 4:1 9:1 24:2 44:2 47:1 64:1 89:2 98:1 99:1 100:1 113:1 121:1 160:9 188:1 192:1 204:1 236:1 294:1 340:1 404:1 420:2 446:4 523:1 538:1 578:1 612:2 675:1 783:1 813:1 1009:1 1065:3 1071:1 1225:1 1338:2 1439:1 1501:1 1756:3 1818:4 1847:1 2037:1 2136:1 2271:1 2331:1 3038:1 3139:1 3145:1 3212:1 3895:1 4390:2 5175:1 5300:1 5622:1 5728:1 5776:1 5836:1 6002:1 6009:4 6151:1 6276:1 6657:1 6829:1 6923:1 7228:1 7471:1 7600:1 7655:2 7922:1 8142:1 8311:1 10137:1 10307:1 11015:1 11806:1 11954:1 12362:1 13864:1 13957:1 14907:1 15199:1 15440:1 17642:1 17710:1 21609:1 25049:1 25922:1 26719:1 26752:1 26777:1 28615:1 32817:1 
0.005461019954853813 1:6 2:2 4:1 7:1 12:1 21:1 28:2 34:1 45:1 49:1 53:2 56:2 57:1 60:1 82:1 85:1 109:1 117:1 149:2 179:1 193:3 204:1 221:1 246:1 284:2 299:1 309:1 327:3 523:1 538:1 549:1 563:1 587:1 674:1 682:1 692:1 752:1 968:1 982:1 999:2 1019:1 1044:1 1107:1 1342:2 1412:1 1455:7 1507:1 1566:1 1630:1 1680:1 1936:1 1990:1 1991:1 2009:1 2019:1 2020:1 2236:1 2240:1 2271:1 2324:1 2419:1 2597:1 2708:1 2752:1 2861:1 2985:1 3580:1 3710:2 4424:1 4749:1 6404:1 9447:1 9458:1 9750:1 10759:1 11402:1 11484:1 13286:1 14547:1 14587:1 17508:1 17710:1 18587:1 21561:1 23583:1 34946:1 39229:1 
0.009328285913823616 1:5 2:2 3:1 4:1 5:2 6:2 8:1 19:1 35:1 39:2 40:1 46:1 47:1 57:1 60:2 64:1 70:1 78:1 92:1 101:2 110:1 117:5 120:5 127:2 132:2 133:2 167:1 176:1 177:3 180:1 238:1 241:1 283:1 299:1 307:1 337:1 363:1 394:1 395:2 410:1 455:1 469:4 478:2 503:1 545:1 548:1 558:1 581:2 589:3 625:1 646:3 693:1 752:2 942:1 988:1 996:2 997:1 1041:1 1106:1 1280:2 1299:1 1333:1 1412:1 1455:1 1477:1 1599:1 1621:1 1640:1 1672:1 1679:1 1703:1 1744:3 1895:1 2026:1 2155:1 2610:1 2619:1 2684:5 2714:1 2865:1 2887:1 2925:1 3011:2 3556:1 3790:1 3795:1 3862:1 3995:1 4002:1 4041:1 4810:1 4837:2 5010:1 5085:1 5113:1 5239:1 5247:1 5456:3 5991:2 7003:1 7358:1 7457:1 8712:1 8741:2 9137:1 9227:1 9911:1 10280:1 11693:1 12662:1 13524:1 14247:4 15211:1 15566:1 15713:1 17605:1 17743:1 18118:1 21567:1 23123:1 24398:2 25223:1 27220:3 28018:1 28241:1 28798:1 31469:1 32099:1 32958:1 36873:1 
0.003041965450354357 1:3 2:1 8:1 32:1 60:2 68:1 70:1 109:3 127:1 143:1 184:1 392:1 407:1 492:3 627:2 817:2 825:1 879:1 955:6 976:1 1004:1 1132:1 1211:1 1248:1 1796:2 2282:1 2483:1 2849:1 3176:1 4014:2 4262:1 4418:1 4603:3 4688:3 6177:1 7342:2 9535:1 11131:1 11748:1 11793:1 12426:1 12809:2 15588:1 17355:3 18401:1 27570:1 29296:1 32877:1 
0.001978526841803665 1:2 3:1 4:2 9:1 13:3 17:1 28:2 32:1 34:1 38:1 46:3 48:2 49:1 84:1 86:1 102:1 105:3 119:1 121:1 145:1 156:1 166:2 168:1 185:1 198:1 202:1 223:1 238:1 255:1 269:1 283:1 299:2 309:1 315:2 331:1 362:3 369:1 445:1 522:1 566:1 629:1 636:1 682:1 780:1 843:2 947:1 957:2 958:1 966:1 975:1 977:1 1046:2 1053:1 1140:1 1174:1 1202:1 1207:1 1225:1 1326:1 1331:1 1447:1 1545:1 1718:1 1859:1 2004:5 2046:1 2061:1 2147:1 2159:1 2192:1 2428:1 2556:1 2580:1 3015:1 3033:1 3200:6 3232:1 3273:1 3341:1 3385:1 3463:2 3529:1 3648:1 3656:1 4203:2 4270:1 4347:1 4353:1 4458:1 4715:1 4795:1 5007:1 5351:2 5468:1 5522:1 5605:1 5759:1 5873:1 6090:1 6395:1 6512:1 6566:2 6594:1 6603:1 6689:1 6864:2 6973:1 7952:1 8374:1 8994:1 9368:1 9780:1 9920:1 9939:1 11687:1 12288:1 12863:1 12891:1 13027:1 13123:1 14609:1 15981:1 16221:1 16802:1 17273:1 21104:1 21386:1 21799:1 22583:1 22868:1 24854:1 26202:1 32270:1 40057:2 42370:1 
0.004178766046636528 1:7 2:2 3:3 4:1 8:2 9:1 10:1 18:1 23:2 27:5 35:2 36:1 46:2 52:1 60:3 63:1 66:2 87:4 100:1 107:1 113:1 117:1 125:1 136:1 137:1 144:2 147:1 175:1 221:1 223:2 246:1 255:1 260:1 263:1 264:1 299:1 331:2 337:1 349:1 354:1 369:1 470:1 486:1 532:1 567:1 576:2 617:1 632:2 646:1 672:1 674:3 685:1 721:1 723:1 745:1 773:1 802:1 831:3 844:1 906:3 938:2 973:2 975:1 983:2 1092:1 1128:1 1132:1 1222:1 1227:1 1273:1 1303:1 1321:1 1455:1 1484:1 1509:1 1628:1 1715:1 1720:1 1936:1 2058:1 2084:1 2085:2 2309:1 2441:1 2664:1 2666:1 2859:1 3033:2 3085:1 3416:1 3451:1 3529:1 3625:1 3742:4 4157:1 4301:1 4408:1 4596:1 4686:1 4699:1 4797:1 5169:1 5292:1 5457:2 5777:1 5798:1 6128:1 6481:1 6984:1 7503:2 7593:2 7977:1 8426:1 8632:1 9229:1 9526:1 9529:1 9584:1 9780:2 10363:1 10630:1 10981:1 11597:5 12014:1 12621:1 13716:1 14495:1 14749:1 15493:1 15512:1 15841:1 16072:5 16549:1 19435:1 19635:1 20407:1 20642:2 20938:1 22595:1 24197:1 26358:1 27520:2 27973:2 31867:1 32452:1 33096:1 33716:1 33910:1 34160:1 37831:1 39384:1 40700:1 42370:1 
0.003395607601493317 1:6 2:1 3:1 4:1 5:1 7:1 10:1 11:1 14:1 17:1 21:1 27:3 30:1 31:1 33:1 34:1 35:1 45:1 52:1 54:1 57:1 87:1 99:1 135:1 137:1 147:1 156:1 160:2 212:1 233:1 264:2 265:1 276:1 285:2 319:1 333:1 347:1 367:1 369:1 414:1 486:1 503:1 534:1 558:1 570:1 605:1 627:2 633:1 712:1 728:1 758:3 789:1 798:1 820:1 831:1 926:1 974:1 1016:2 1128:1 1211:1 1258:1 1269:1 1329:2 1377:1 1387:1 1422:1 1439:1 1443:1 1495:1 1755:1 1796:1 1879:1 1946:1 2118:1 2203:1 2308:1 2315:2 2325:1 2370:1 2663:1 2955:1 3010:1 3906:1 4239:1 4678:1 5108:1 5649:1 5889:1 5991:1 6108:1 6473:1 6581:1 7379:1 7622:1 7637:1 9255:1 9454:1 9920:1 9990:1 10378:1 11123:1 13152:1 13366:1 15986:1 16593:1 16671:1 17852:1 17870:1 20682:1 21575:1 27391:1 38483:1 38910:1 
0.0006184840675861663 1:7 2:1 5:2 8:2 15:1 23:1 28:1 31:1 35:2 60:1 83:1 108:1 110:2 132:1 144:1 156:1 167:1 229:1 266:1 361:1 432:1 436:1 498:1 510:1 522:1 558:1 566:1 603:1 624:5 627:1 645:1 648:1 668:1 706:1 799:2 804:1 872:1 910:1 953:2 1017:1 1038:1 1056:1 1068:1 1140:4 1329:1 1342:1 1481:1 1710:1 1718:1 1862:1 1950:3 2085:1 2258:3 2309:1 2315:1 2417:1 2441:1 2824:2 2865:1 2870:2 3057:1 3085:1 3151:1 3318:1 3442:1 3495:1 3632:2 3663:1 3794:1 4002:1 4315:1 4781:1 5392:1 6520:2 6874:1 7255:1 7318:2 8864:1 9520:1 9680:1 9769:1 10085:1 10396:1 11374:1 13793:2 13951:1 14117:1 14237:1 15945:1 17359:1 17638:1 18090:1 19633:3 19752:1 21714:1 22161:1 23256:1 23943:3 24277:1 25874:1 26671:1 31647:2 34002:1 35987:1 36065:1 36733:1 
0.004501619340406338 1:11 28:1 30:1 44:1 49:2 55:1 77:1 79:1 100:1 101:1 121:1 139:1 160:4 164:4 174:1 216:1 220:1 236:2 258:2 313:1 330:1 390:2 404:1 444:1 475:1 525:1 549:1 998:1 1123:1 1155:1 1280:1 1289:1 1311:1 1334:1 1415:1 1463:1 2122:1 2252:2 2277:1 2651:1 2846:1 3273:1 3492:1 3671:1 4086:2 4127:1 4239:1 5510:1 6214:1 6642:1 6970:1 7210:1 7855:2 8156:2 9065:1 9508:1 9547:1 10063:3 10305:2 10730:1 10888:1 12803:1 15655:1 19593:1 19889:1 20500:1 20729:1 21989:1 22496:1 23777:1 24241:1 26547:1 27215:1 27951:1 28841:2 31011:1 32631:1 34342:1 35936:1 38429:1 38695:1 40072:1 42904:1 
0.005533522292731072 1:13 2:4 3:1 10:1 14:1 17:1 23:1 24:3 28:1 30:1 32:1 35:1 49:1 56:1 62:1 67:1 76:1 79:1 83:1 84:1 111:1 122:1 128:3 160:2 195:1 237:1 238:6 270:1 275:1 309:1 368:1 380:1 393:1 399:1 430:1 441:1 449:1 462:3 491:1 495:1 500:1 516:1 549:2 618:2 619:2 646:1 777:1 789:1 806:2 843:1 863:1 901:1 939:1 959:1 994:3 1122:3 1134:1 1177:1 1197:1 1203:1 1216:1 1217:4 1402:1 1405:2 1493:1 1494:2 1543:1 1605:1 1700:1 1729:1 1825:1 1991:1 2086:1 2145:1 2210:1 2250:1 2302:1 2365:1 2368:1 2443:13 2461:1 2506:1 2610:1 2666:1 2710:1 2730:1 2896:1 2918:1 2920:1 3124:1 3215:1 3233:1 3300:1 3360:1 3536:1 3733:1 4011:1 4027:1 4107:1 4179:2 4270:1 4458:4 4474:2 4601:1 4846:1 5018:1 5073:1 5138:1 5267:1 5325:1 5356:1 5502:3 5899:1 5921:1 6037:2 6076:1 6116:1 6204:1 6922:1 6963:2 6981:1 7543:1 7796:1 8043:2 8407:2 8529:1 8733:1 8807:1 8949:1 10465:1 10513:1 11186:1 11443:1 12021:1 12352:1 12555:1 12944:2 13111:1 13210:1 13309:2 13344:1 13776:1 14042:1 14119:1 14474:2 15996:1 16150:1 16668:1 16769:1 16921:1 17361:1 17661:1 17924:3 18296:2 18513:1 19418:2 19729:1 21745:1 23206:1 23276:2 23291:1 25085:1 28057:1 29472:6 29923:1 31001:1 31121:1 32951:1 33713:1 34160:1 36711:1 38469:2 40535:1 
0.003113922217511925 1:2 3:2 5:1 18:1 22:1 33:2 36:1 46:1 60:1 64:1 96:1 99:1 130:1 178:2 229:1 230:1 266:2 284:1 307:1 313:2 355:1 520:1 646:1 717:1 745:1 879:1 884:1 904:1 1204:1 1493:1 1826:1 1893:1 2043:1 2524:1 2592:3 2607:1 2659:1 2693:1 2824:2 2955:1 3318:1 3503:1 3632:2 3906:1 5382:1 6352:1 6531:1 6540:1 7316:2 8424:1 8452:2 10085:2 11687:1 11978:1 12894:1 14218:1 14800:2 18360:1 19338:1 23472:1 23581:1 25874:2 27028:1 28376:1 39551:1 42892:1 
0.0006349398730828149 1:16 2:6 3:2 4:2 7:3 8:4 9:6 11:1 12:2 13:1 17:1 26:2 28:1 30:1 35:1 40:2 44:2 46:6 49:1 55:1 57:1 59:1 60:3 69:2 72:6 81:1 83:1 86:1 91:1 94:2 101:1 107:1 113:1 121:2 124:2 126:2 136:2 145:1 150:2 162:1 170:2 192:1 193:2 204:1 208:2 218:1 223:3 229:1 238:3 240:1 248:1 261:1 266:1 278:1 284:2 289:1 337:1 338:1 370:1 383:1 404:1 422:3 423:1 437:1 459:1 474:2 525:2 537:1 540:3 545:1 552:1 586:1 591:3 593:1 595:1 608:1 610:1 617:1 624:1 662:1 669:1 719:3 746:1 753:1 775:1 777:1 801:1 815:1 861:1 862:1 895:1 897:2 900:1 952:1 974:1 996:1 1001:1 1008:1 1017:1 1037:4 1045:2 1052:3 1060:1 1067:2 1078:4 1107:2 1154:1 1173:1 1174:1 1318:1 1338:1 1340:1 1354:1 1377:4 1387:1 1401:1 1425:1 1426:1 1478:1 1567:1 1577:1 1599:1 1647:1 1678:1 1685:1 1694:1 1715:5 1723:1 1844:2 1862:1 1879:14 1924:2 2000:1 2016:1 2155:1 2197:1 2257:1 2294:1 2325:1 2350:4 2370:1 2387:1 2426:1 2439:1 2478:1 2564:1 2572:3 2634:2 2654:1 2684:1 2695:1 2805:1 2849:1 2904:1 3034:1 3079:2 3282:2 3344:1 3524:1 3542:2 3700:1 3709:2 3710:2 3875:1 3975:1 4035:1 4063:3 4301:1 4547:1 4598:1 4743:1 4780:1 4822:1 4944:1 4979:1 5049:1 5216:1 5248:1 5360:1 5454:1 5544:3 5617:1 5628:1 5836:1 5894:2 6043:1 6051:1 6078:1 6120:1 6285:1 6304:2 6430:1 6743:1 7194:1 7213:1 7400:1 7761:1 8035:1 8037:1 8311:1 8438:1 8717:1 8760:1 8818:1 9239:1 9895:1 10007:1 10296:1 10364:1 10629:1 10638:1 11084:1 11272:1 11515:1 12838:1 13608:1 13707:1 13833:1 13975:1 14898:1 14936:7 14984:2 15838:1 15913:1 15982:3 16065:1 16454:1 16657:1 16773:1 17645:1 17841:1 18385:1 18647:2 19757:1 19896:2 22963:1 23325:1 23350:1 23949:1 25178:1 26193:1 28244:1 30935:1 32728:1 33394:1 33874:1 34181:1 34614:1 37139:1 37774:2 38171:1 41131:1 
0.001483444710652953 1:7 2:4 3:1 4:2 6:1 12:1 15:2 16:2 21:1 39:4 40:2 44:1 50:1 73:2 122:1 178:4 196:1 232:1 253:1 329:1 416:2 462:2 506:1 542:2 646:4 745:4 810:1 828:1 877:1 969:1 1005:3 1006:2 1062:1 1078:1 1091:2 1173:1 1282:1 1370:1 1545:1 1629:2 1654:1 1797:1 1998:1 2387:1 2585:1 2793:2 2836:4 3055:1 3283:1 3378:1 3422:3 3477:2 3962:1 4278:1 4912:1 5616:1 5800:1 6514:1 6781:2 7672:1 7830:1 8074:1 8520:1 8549:2 8900:1 8923:1 9094:1 9395:1 10103:1 10182:1 11146:1 12435:1 14943:1 15284:1 16035:1 18779:1 20315:1 21610:1 24370:2 26458:1 28150:2 29287:2 39738:1 
0.00242682655231605 1:4 2:1 3:1 5:2 18:1 23:1 24:1 25:4 31:1 33:1 45:1 52:1 54:1 62:1 66:1 81:1 99:1 111:1 114:1 141:1 144:1 275:1 300:1 344:1 392:3 406:1 432:2 441:1 472:3 478:1 509:2 523:1 526:1 528:1 585:1 623:5 630:1 655:1 728:1 906:1 941:2 972:1 1256:1 1283:1 1310:1 1443:1 1551:1 1681:1 1902:1 1903:3 1934:1 1954:1 2209:2 2815:1 3184:1 3187:1 3367:1 3457:1 3593:1 3688:1 4283:2 4458:1 4553:1 4747:1 6253:1 6376:1 6913:1 7128:1 7491:2 8644:1 8797:1 8999:1 9292:1 9829:1 10106:1 10212:2 10729:1 11181:1 12267:1 13451:1 13596:1 13667:1 13689:1 14785:1 15644:1 15761:1 18301:1 20250:1 21469:1 21858:1 23361:1 24308:1 27353:1 29117:1 30422:1 31694:1 37232:1 37373:1 38275:1 
0.0001959272502551678 32:1 35:1 61:1 70:1 72:1 84:1 99:2 111:1 124:1 440:2 578:2 591:1 668:1 773:1 822:1 1318:1 1556:1 1610:1 1862:1 2056:1 2417:2 2445:1 2479:2 2711:3 2854:1 2970:1 3464:1 3514:1 3648:2 3931:1 4713:2 6315:1 9406:1 9523:1 11282:1 12039:1 12236:4 13286:1 14664:1 17102:1 18653:1 19526:1 24127:1 24488:1 26672:1 28115:1 
0.001028506784271976 1:18 2:4 5:1 7:1 8:1 12:1 13:1 28:1 31:1 37:2 45:2 46:3 47:1 50:1 52:1 53:1 54:2 55:1 56:3 71:1 73:3 87:1 91:1 101:1 103:1 105:5 113:2 126:1 131:1 138:2 139:1 150:1 168:1 188:5 195:1 202:1 208:1 222:2 223:2 229:2 230:1 243:1 255:1 257:2 266:2 268:1 273:1 275:1 289:1 315:2 327:3 329:1 349:2 363:1 369:1 412:1 432:1 464:1 471:1 515:6 521:2 532:1 536:2 544:1 545:1 557:1 582:1 587:1 599:1 600:1 710:1 745:4 767:2 772:1 779:2 798:1 813:1 868:1 877:1 923:1 926:1 941:1 1035:1 1060:1 1068:1 1103:1 1109:1 1255:1 1262:1 1282:1 1302:1 1411:1 1425:1 1442:1 1466:1 1490:1 1543:1 1585:1 1591:1 1614:1 1694:1 1718:3 1802:1 1823:1 1855:1 1859:1 1972:1 1995:2 2051:1 2068:1 2181:1 2227:1 2261:2 2298:3 2314:2 2363:1 2405:1 2411:1 2459:1 2667:1 2670:1 2691:1 2793:1 2853:1 2933:1 3193:2 3200:1 3249:1 3456:1 3492:1 3553:1 3683:4 3689:1 3790:1 3822:1 3913:1 3938:1 3990:5 4005:1 4077:2 4094:1 4120:1 4128:1 4305:1 4330:1 4371:2 4420:1 4460:1 4463:1 4980:1 4994:1 5110:1 5119:1 5234:1 5351:1 5425:1 5509:1 5645:1 5675:1 5698:1 5783:1 5954:1 5998:1 6083:1 6349:1 6430:1 6480:1 6885:1 6904:1 6947:1 7286:1 7349:2 8775:1 9134:1 9288:2 9876:6 10268:1 10425:2 10902:1 11113:1 11205:1 11829:1 11977:2 11994:1 12084:1 13784:1 14007:1 14158:6 14637:1 15858:2 15880:1 15904:1 16462:1 16611:1 16997:1 17102:1 17141:1 17480:2 17686:1 18065:1 18155:1 18827:1 19649:1 20438:2 20914:1 20947:1 21017:2 21858:1 22467:1 22649:2 23346:1 23446:1 25079:1 25334:3 25890:1 26169:5 27833:1 28078:1 29212:2 31212:1 31269:1 32494:1 36268:2 37045:1 38818:1 39381:1 40239:1 
0.0003525477080800945 1:3 2:2 4:1 36:1 44:1 46:1 50:1 71:1 79:1 105:1 118:1 146:2 160:3 168:1 171:1 197:1 217:1 236:1 324:2 331:1 336:3 369:1 375:1 445:3 460:1 523:1 533:1 538:2 721:1 724:3 789:2 883:1 992:1 998:1 1001:1 1041:1 1080:1 1168:1 1191:1 1365:2 1439:2 1600:1 1675:1 1720:1 1805:1 2118:1 2198:1 2287:1 2508:1 2666:1 2938:1 2974:1 3085:1 3107:1 3156:2 3535:1 3638:2 3868:1 4029:2 4147:1 4168:1 4305:1 5675:1 6259:1 7631:1 7855:2 8042:1 8156:1 8366:1 9622:1 10122:1 10171:1 10193:1 10852:1 12237:1 14631:1 15150:1 15903:2 18525:1 19310:1 19953:1 23404:1 27074:1 29820:1 31671:1 32038:1 
0.004587552384404371 1:7 2:1 3:1 4:1 9:2 23:1 28:3 33:1 38:1 46:1 60:1 62:1 72:2 91:1 94:2 99:1 101:1 121:1 124:1 126:1 150:1 153:1 170:2 171:1 198:1 229:1 285:1 299:1 336:1 404:1 418:1 445:1 455:1 535:2 536:1 627:1 689:2 721:1 758:2 820:3 1042:1 1120:1 1249:1 1318:1 1453:1 1481:1 1511:1 1514:2 1549:1 1633:1 1635:1 1948:1 1953:1 2022:1 2156:1 2432:1 2755:1 3107:1 3151:1 3223:1 3470:1 4239:1 4715:1 4884:1 4919:1 5118:1 5353:1 7013:1 7129:1 7372:2 7446:1 8923:1 8968:1 9029:3 9165:2 9526:1 10410:2 10474:2 11381:1 12276:1 16294:1 22811:1 24421:1 26782:1 33042:4 34306:1 
0.01977556222918971 2:2 3:1 7:2 11:2 12:1 17:1 23:1 26:2 38:1 39:3 55:1 72:1 107:1 129:1 188:1 194:1 260:1 295:2 329:1 404:1 418:1 437:1 523:1 636:1 723:1 922:1 1064:1 1289:1 1311:1 1425:1 1433:1 1445:1 1498:1 1670:1 1744:1 1761:1 1884:1 1901:1 1924:1 1950:1 2022:1 2205:1 2232:1 2338:1 2348:1 2637:1 2755:1 2773:1 2870:1 3067:1 3926:1 4280:1 4315:1 4897:1 5543:1 5997:1 7930:1 8418:1 8739:1 9039:1 10408:1 10759:1 12650:1 12965:1 16323:2 28381:1 30067:1 35045:1 35405:1 
0.004569982005247096 1:8 2:3 4:1 7:1 11:1 13:1 28:3 40:1 49:1 50:1 58:1 68:1 70:1 71:1 79:1 86:1 109:1 110:1 116:1 117:1 127:2 130:1 164:1 169:1 195:1 208:1 225:1 229:1 230:2 236:1 238:1 271:1 287:1 288:1 305:1 375:1 401:1 417:1 423:1 424:1 464:1 497:1 521:1 535:6 558:1 599:1 613:1 624:3 638:1 649:1 716:2 734:1 868:1 875:1 918:1 990:1 1003:1 1109:1 1285:1 1300:1 1392:6 1427:1 1448:1 1635:1 1639:1 1719:1 1776:2 1875:1 1907:1 2157:1 2209:1 2356:1 2548:1 2575:1 2625:1 2846:1 2974:1 3057:1 3152:1 3301:1 3327:1 3409:1 3424:1 3477:1 3575:12 3710:1 3846:1 4007:1 4057:1 4205:1 4288:1 4454:2 4582:1 4957:1 5445:2 5634:1 6275:1 6328:1 6447:2 6516:1 6605:1 6711:1 6753:4 6881:1 7210:1 7902:1 7970:1 8094:2 8700:1 8776:1 8966:1 9614:1 9978:1 9980:1 10008:2 10206:1 11287:1 11923:1 12191:1 12740:2 13991:1 14731:1 15700:4 16302:1 16547:1 16841:1 17342:1 18328:1 19566:1 20084:1 20918:1 21729:1 21952:1 23135:1 23655:1 24499:1 25410:1 26273:1 26399:1 27837:1 29016:1 30425:2 32174:2 37307:1 40311:1 40782:2 
0.002716817283930017 1:3 2:1 4:1 7:1 11:1 13:1 17:1 23:1 28:2 31:1 39:2 40:1 44:1 46:1 54:1 60:1 72:2 105:1 107:2 140:1 145:1 194:1 202:1 208:1 260:1 295:1 299:1 329:1 331:1 351:1 362:1 418:1 435:1 437:2 582:1 636:3 646:1 668:2 702:1 744:1 773:1 796:1 882:1 996:1 1178:1 1304:1 1311:1 1406:1 1433:1 1445:1 1545:1 1662:1 1715:1 1884:2 1950:3 1977:1 2022:1 2176:1 2205:1 2232:1 2314:1 2348:1 2637:1 2755:1 2762:1 2773:1 2815:2 2846:1 2866:1 3067:1 3507:1 3926:1 4383:1 4573:2 4720:2 5037:1 5107:1 5199:1 5292:1 7234:1 7761:1 7930:2 8418:1 8733:1 9227:2 9369:1 10124:1 11113:1 11335:1 12916:1 13636:1 15346:1 16323:4 16560:1 19028:1 19730:1 26939:1 30641:1 33874:1 
0.00269301453787621 1:1 2:1 5:1 11:1 21:1 23:1 31:1 33:2 34:2 55:1 62:2 111:2 148:2 229:1 326:1 344:1 371:1 429:4 510:1 619:1 636:1 725:1 744:1 902:1 1016:1 1100:1 1269:1 1284:2 1334:1 1397:1 1446:1 1555:1 1595:1 1687:1 1734:1 2006:2 2355:2 2360:1 2597:1 2600:1 4029:2 4236:1 4531:1 4765:1 4869:1 4990:1 5061:2 5909:1 6411:1 9565:1 9722:1 10350:1 10513:1 12103:1 12884:1 13188:1 13699:1 15253:1 15607:1 15810:1 18776:1 19629:1 20721:1 21490:1 21719:1 24306:1 24833:1 30571:1 34876:1 38898:1 
0.002951524067870442 1:4 26:1 28:2 33:1 40:1 73:2 74:1 82:1 111:1 121:1 139:2 140:1 146:1 186:3 202:1 229:1 238:1 255:1 266:1 269:2 299:1 366:1 477:1 523:1 625:3 789:1 888:1 1081:1 1093:1 1153:2 1229:1 1629:1 1757:1 1802:1 1895:1 1945:1 1969:2 2008:1 2042:1 2108:2 2195:1 2483:1 2986:1 3153:1 3484:1 3547:1 3863:2 4549:1 6210:2 6420:2 7484:1 7850:1 9370:2 9476:1 9598:2 9634:1 9861:1 10360:4 10942:1 12062:1 12415:2 13593:1 13804:3 14858:1 14960:1 15963:1 18925:1 20556:1 21018:1 21254:1 24583:1 26146:1 26834:1 27477:1 28007:2 29352:1 30663:1 34271:1 34475:1 35882:1 36710:1 39755:1 
0.001079616932119718 1:9 4:1 7:1 19:1 20:4 44:1 45:2 60:1 75:2 81:1 108:1 113:1 139:1 145:2 183:1 218:1 223:1 267:2 284:2 290:1 331:1 344:1 357:1 412:1 492:3 601:2 627:1 737:1 741:1 766:1 825:1 1089:1 1115:1 1140:1 1163:1 1174:1 1325:1 1435:2 1455:1 1533:2 1610:1 1663:1 1733:1 1826:2 1874:2 1904:2 2298:2 2564:4 2805:1 3004:1 3051:1 3144:1 3318:1 3373:1 3397:1 3441:1 3564:1 3872:1 4229:1 4286:1 4543:1 4886:1 5322:1 5863:1 6714:1 6936:1 7188:1 7366:1 8144:1 8424:2 9238:2 9461:3 9630:1 9774:1 9858:1 10387:1 10596:1 10686:1 10823:1 11309:1 11618:1 11797:1 11964:1 13921:2 14116:3 14237:1 14418:1 15256:1 15275:1 17680:1 18292:1 19073:1 19816:1 23695:2 23937:1 25488:3 25971:1 26394:1 29108:1 33146:1 
0.00781301149114939 1:7 2:3 4:2 8:1 21:1 23:1 46:1 50:1 54:1 64:1 95:1 99:2 101:1 102:1 116:1 124:1 158:1 161:3 179:1 194:1 203:1 233:1 258:1 359:1 399:1 414:2 435:2 444:1 501:1 566:1 567:1 617:1 686:1 699:1 773:1 794:1 858:1 909:1 999:1 1016:1 1099:2 1128:1 1191:1 1298:4 1308:1 1342:1 1387:1 1429:1 1444:1 1563:1 1831:1 1912:1 2009:1 2194:1 2402:1 2432:1 2489:1 2492:1 2637:3 3049:1 3212:1 3287:2 3482:1 3495:2 3542:1 3715:1 3758:1 3761:3 3855:1 3933:1 3960:1 3970:1 4845:1 5084:1 5478:1 5629:1 5948:1 6030:1 6690:1 7049:1 7259:1 7547:1 7711:1 8040:1 10341:1 11288:1 11476:1 14058:1 15943:1 16573:1 20193:1 20379:1 20545:2 21195:1 22068:1 23069:1 25374:1 28114:1 28835:1 33703:1 39499:1 
0.008536456155580911 1:1 2:2 4:1 28:3 35:1 40:1 48:1 99:2 111:1 127:1 193:1 229:1 232:1 238:1 242:1 255:1 297:1 380:1 493:1 586:1 795:2 1056:2 1242:3 1406:1 1730:1 1804:1 1954:1 2000:1 2045:1 2126:2 2176:1 2205:1 2598:2 2627:1 2772:1 3074:1 3131:1 3229:1 3273:1 3358:1 3892:1 4815:1 4860:1 5061:2 5581:1 5732:1 6042:1 6139:1 6616:1 7129:1 7544:1 7950:2 8721:1 11286:1 12004:1 12533:1 15175:1 15525:1 16092:1 16947:1 18915:1 22282:1 29343:1 42668:1 
0.001950667483534543 1:15 2:2 4:1 5:3 7:1 8:1 10:1 28:2 36:1 40:1 47:2 52:1 68:1 70:3 71:1 87:1 97:1 116:1 124:1 125:1 135:1 136:1 138:4 166:1 171:1 182:1 184:3 195:2 218:1 225:1 229:1 257:1 266:1 288:1 353:1 365:1 400:1 435:1 472:2 488:1 505:1 532:1 572:1 616:2 703:1 713:1 728:1 841:6 847:2 881:1 926:1 933:1 1086:2 1089:2 1111:1 1153:1 1249:1 1282:1 1345:1 1445:1 1591:2 1666:3 1708:1 1735:1 1785:3 1972:1 2062:1 2119:1 2225:2 2280:2 2319:1 2363:1 2985:4 3216:1 3259:1 3400:4 3736:1 3890:1 3990:1 4023:1 4033:1 4051:1 4175:1 4264:1 4424:1 4532:1 4707:1 4787:5 4859:1 5149:1 5456:1 5566:1 6421:1 6664:1 6804:1 7170:1 7276:1 7349:1 7487:1 7687:3 7947:1 8924:1 9103:3 9147:1 9694:1 9891:1 10095:2 10903:1 10932:1 11330:1 11427:1 12362:3 12436:1 14104:1 14183:1 15143:1 16128:1 19545:1 21557:1 22250:1 22446:3 23160:1 24146:1 24175:1 25244:1 25353:1 25409:2 25820:1 26223:1 27656:1 29939:1 31972:2 39502:1 
0.01079176291101778 1:3 17:1 25:1 65:1 69:1 78:2 178:1 195:1 371:1 384:1 845:1 1360:1 1528:1 2694:1 2702:1 2812:1 3059:1 3465:1 4446:1 4838:1 5591:3 5821:1 5908:2 8260:1 8659:1 8790:1 9836:1 13572:1 14183:1 16683:1 16888:1 28451:1 28789:1 31530:1 31731:1 36594:1 38616:1 42312:2 
0.002651603107018598 1:1 2:1 22:1 34:1 57:1 159:1 268:1 328:1 406:1 445:1 557:1 768:1 1044:2 1139:1 1175:1 1189:1 1371:1 1566:4 2162:1 2686:1 2836:2 2846:1 2918:3 3181:1 3207:1 4151:1 4248:1 4298:4 4446:1 4528:1 4723:1 4952:1 6300:1 6800:1 7290:1 7907:1 9532:1 10090:1 10483:1 10825:1 12353:1 13466:2 13746:1 14173:1 14681:1 14979:1 15621:1 15652:1 16718:1 17134:1 25440:1 26417:3 26850:1 27097:1 31592:1 36460:1 39332:2 
0.002699357477129633 1:5 3:1 4:2 5:1 17:2 25:1 54:1 57:1 58:1 61:1 100:1 101:1 185:3 221:1 227:2 253:1 258:1 288:1 305:1 359:1 364:1 392:2 422:2 437:2 470:1 479:4 602:1 753:1 811:1 825:1 1435:1 1456:1 1495:1 1729:1 1802:1 1815:1 1947:1 2090:1 2108:1 2178:1 2231:1 2234:1 2274:1 2459:1 2847:1 3081:2 3216:2 3598:1 3742:1 4249:2 4405:1 4780:1 5010:1 5114:1 5308:1 5712:1 5848:1 6377:1 6817:1 6868:1 7347:1 7761:1 7786:1 9409:1 10129:1 10571:1 12136:1 14151:1 14868:1 18694:1 20001:1 22685:1 25110:1 35983:1 
1.581239075528884e-005 1:39 2:5 3:1 5:1 7:1 9:3 10:1 11:4 12:1 13:2 15:4 17:2 18:2 19:1 20:1 21:2 26:2 28:7 30:1 31:2 34:1 37:2 39:4 40:7 44:1 45:1 46:1 47:1 49:1 53:1 54:2 55:1 56:1 57:1 62:1 64:1 68:1 71:3 78:1 80:6 86:1 87:2 89:3 102:4 103:1 107:1 121:1 124:1 129:1 131:3 132:1 135:1 136:1 138:3 141:1 154:1 164:2 186:1 187:1 188:5 193:1 202:1 204:1 208:1 209:1 217:2 218:1 221:1 225:1 229:1 253:1 255:2 258:1 262:1 263:1 267:1 269:2 272:1 277:2 281:1 284:1 291:2 295:1 297:1 299:1 309:2 316:1 334:1 336:1 351:1 352:1 358:4 360:1 362:3 370:1 375:1 376:1 385:1 386:1 389:1 398:1 407:5 423:1 425:1 432:1 445:1 452:1 453:1 454:1 459:1 462:7 470:1 475:2 476:1 488:1 492:2 506:1 513:2 523:1 524:1 536:1 546:2 557:2 559:1 562:2 594:1 600:1 602:1 604:1 617:1 631:1 641:1 658:1 661:1 666:1 692:2 706:4 717:1 727:1 732:2 737:1 746:1 753:1 779:2 780:1 793:1 801:1 802:1 815:2 830:2 842:2 869:1 877:1 881:1 889:1 894:1 898:1 900:1 906:1 918:1 954:1 957:1 973:2 992:2 1006:2 1007:2 1008:1 1009:1 1010:2 1012:1 1034:1 1038:1 1060:1 1068:2 1078:2 1084:1 1088:1 1099:1 1114:1 1119:1 1130:1 1135:1 1139:1 1140:2 1174:1 1246:1 1260:1 1264:1 1277:1 1282:1 1295:1 1301:1 1310:1 1325:2 1327:1 1339:1 1382:1 1389:1 1392:3 1406:1 1408:1 1411:1 1413:1 1414:1 1417:1 1426:2 1439:2 1454:1 1504:1 1528:1 1530:1 1534:1 1548:1 1573:1 1599:1 1601:2 1605:1 1639:1 1674:1 1692:1 1693:1 1720:1 1729:1 1823:1 1835:1 1854:1 1915:2 1944:1 1945:1 1970:1 1990:2 2062:2 2074:1 2094:1 2117:1 2142:1 2154:5 2156:4 2161:1 2173:1 2182:1 2206:1 2224:1 2236:3 2271:1 2302:1 2320:2 2350:1 2379:3 2430:1 2454:1 2459:1 2484:1 2488:2 2504:1 2514:1 2516:2 2520:1 2525:1 2535:1 2541:1 2545:1 2582:1 2613:1 2618:2 2654:1 2665:1 2674:1 2682:1 2711:2 2731:1 2734:1 2737:1 2750:1 2789:1 2825:2 2832:1 2845:1 2853:1 2931:1 2945:1 2950:1 3008:1 3050:1 3074:1 3130:1 3142:1 3149:1 3163:1 3190:1 3217:1 3234:3 3241:1 3242:1 3246:1 3277:1 3310:1 3324:1 3328:1 3379:1 3389:1 3430:1 3456:3 3495:1 3499:1 3504:1 3526:1 3556:1 3564:1 3575:2 3588:1 3632:2 3661:53 3710:1 3773:1 3822:2 3830:1 3890:1 3914:1 3988:1 4040:1 4101:2 4106:1 4131:1 4164:3 4168:1 4199:1 4213:9 4215:1 4241:1 4434:1 4438:3 4454:1 4485:3 4489:1 4493:1 4606:1 4611:1 4646:2 4659:1 4667:1 4705:1 4719:1 4785:1 4838:1 4932:1 4938:1 4976:1 4980:2 5031:2 5056:2 5083:1 5130:1 5235:1 5284:1 5372:1 5402:1 5500:1 5561:1 5618:1 5638:2 5643:1 5656:2 5719:5 5729:2 5886:1 5937:2 5997:1 6012:1 6094:1 6271:1 6320:1 6328:1 6345:1 6356:1 6396:1 6416:1 6457:1 6507:1 6587:1 6646:2 6675:1 6780:1 6900:1 6901:1 6934:1 6935:2 6936:1 7031:1 7036:1 7054:1 7101:1 7116:3 7293:1 7294:1 7314:1 7325:1 7415:2 7419:6 7435:1 7625:1 7687:1 7690:1 7952:1 7980:1 8009:1 8076:2 8112:1 8120:1 8121:1 8152:1 8165:1 8235:1 8283:1 8338:1 8564:1 8624:1 8626:1 8638:1 8742:2 8924:1 9066:4 9184:1 9526:1 9576:1 9579:1 9689:5 9924:1 9935:1 9941:1 10060:1 10071:1 10077:1 10169:1 10180:1 10200:2 10232:1 10273:1 10301:1 10604:1 10615:1 10703:1 10784:1 10819:1 10874:1 10917:1 11214:1 11491:1 11543:1 11814:1 12072:1 12139:1 12184:1 12283:1 12691:1 12697:1 12742:1 12890:1 12941:1 13198:2 13322:1 13608:1 13642:1 13873:1 13874:1 14131:1 14183:1 14364:1 14620:1 14690:1 15139:1 15150:1 15306:1 15452:1 15986:1 16809:1 17080:1 17531:1 17900:1 17972:1 18466:1 18473:4 18479:1 18676:1 18765:1 18775:1 18843:2 18952:1 19311:1 19328:1 20194:1 20299:1 20311:1 20351:1 20570:1 20943:2 21630:1 22422:1 22445:1 22665:1 22851:1 23883:1 24117:1 24190:1 24489:1 24526:3 24593:1 24824:1 24828:1 24931:1 25094:1 25277:3 26123:1 26188:1 26334:1 26952:1 27586:1 27776:1 27947:2 28165:2 28237:1 28274:1 28899:2 29837:1 29840:1 31358:1 31517:1 31608:1 31697:2 31999:1 32233:1 32483:1 32774:1 32826:8 33200:2 33983:1 35214:1 35233:1 35384:1 35640:1 35965:1 36028:1 36149:2 36175:1 36757:1 37043:1 38489:3 38807:1 38982:2 40604:1 41190:1 42509:3 43282:1 
0.004808708808735006 1:1 2:1 13:1 14:1 17:1 32:1 49:1 110:2 136:1 140:1 231:1 236:1 273:1 276:1 288:2 437:1 604:1 613:1 659:1 841:1 962:1 1270:1 1433:1 1505:1 1532:1 1592:1 1634:1 1657:1 1934:2 2059:2 2240:1 2261:1 2631:1 2686:1 3158:1 3546:1 5026:1 5118:1 5174:1 5878:1 6320:1 6646:1 7761:1 7856:1 8961:1 9816:1 10625:1 11082:1 11546:1 12568:1 15471:1 20430:1 23950:2 25470:1 31972:1 42855:1 42873:1 
0.003557540487789051 1:5 2:3 3:2 10:3 12:1 17:1 26:1 37:1 44:1 47:1 87:1 93:1 101:2 129:1 130:1 136:1 144:1 222:1 266:1 287:1 293:1 299:1 362:2 380:1 403:1 436:1 445:1 450:1 497:1 539:1 576:1 587:1 622:1 738:1 793:1 819:2 844:7 868:1 909:1 919:1 951:1 1002:1 1223:1 1247:1 1262:1 1308:1 1403:1 1462:1 1610:1 1698:1 1718:1 1961:1 1971:1 2039:1 2053:1 2116:1 2149:1 2183:1 2261:1 2314:1 2579:1 2724:1 2736:1 2835:3 2937:1 3009:1 3209:1 3525:2 3658:1 4047:1 4319:2 4385:1 4522:1 4822:1 4908:1 5003:1 5118:1 5198:1 5332:1 5369:1 5829:1 6884:1 7402:3 7748:1 7910:1 8003:1 9011:1 9643:1 9783:1 9896:1 11567:1 11852:1 12029:1 13390:1 14403:1 15637:1 17294:1 19938:1 23181:1 23640:1 25304:1 25759:4 25785:1 26452:1 28945:1 30600:2 32082:1 33643:1 34554:1 34566:1 35425:1 36512:1 36849:1 37161:1 39973:1 41052:1 42529:1 
0.002315046860954873 1:4 2:2 4:1 7:2 8:1 14:1 17:1 39:1 47:1 49:1 54:1 57:1 62:2 65:1 81:1 84:1 86:1 96:1 111:1 121:1 125:1 138:1 154:1 160:1 170:1 236:1 237:1 251:1 268:1 333:1 352:3 355:1 364:2 383:1 422:1 444:3 624:1 804:1 885:4 1061:1 1082:1 1105:1 1265:1 1323:1 1414:1 1546:1 1556:1 1590:1 1677:1 2139:1 2246:1 2418:1 2572:1 2820:1 3278:1 3378:1 3670:1 4458:2 4623:1 4839:1 5367:1 5861:1 6082:1 7270:1 7400:1 7538:1 8036:1 8082:1 8453:3 9211:1 9294:1 9436:1 9668:1 11929:1 12219:1 12492:1 12991:1 14249:1 15265:1 16029:1 16098:2 16127:1 16166:1 18160:1 18845:1 21061:1 21523:1 23468:1 25584:1 26987:1 28691:1 31513:1 37939:1 38477:1 38933:8 
0.01912716160153937 1:3 99:1 162:1 261:1 454:1 480:1 564:1 578:2 694:1 1128:1 2090:1 2996:1 3103:1 3365:1 3455:1 4084:1 4102:1 6175:1 6662:2 8862:1 10057:1 16306:1 16940:1 22583:1 28860:1 32256:1 37161:2 
0.003776219111394118 1:5 3:1 8:1 22:1 48:1 62:2 73:1 108:1 111:1 116:1 139:3 145:1 162:1 183:1 221:2 227:1 259:1 340:1 381:1 384:1 420:2 480:1 541:2 569:1 573:1 582:1 589:1 714:1 780:1 801:1 958:1 965:1 1046:1 1049:1 1130:1 1214:2 1479:1 1501:1 1506:1 1598:2 1644:1 1660:1 1661:1 1673:1 1687:1 1701:1 1765:1 1793:1 1810:3 1886:1 1987:1 2043:1 2139:1 2206:2 2479:1 2542:6 2562:1 2820:1 2921:1 3014:1 3324:1 3574:1 3794:1 3831:1 3884:1 3893:1 4306:1 4487:1 4572:1 4633:1 4749:1 4753:1 4819:1 4826:1 4931:1 4933:1 5440:1 5676:1 6082:1 6090:1 6232:1 6438:1 6811:1 6937:1 7042:1 7050:1 7097:1 7233:1 7295:1 7312:1 7528:1 7601:1 8088:1 8331:1 9815:1 10416:1 10566:1 11090:1 11510:1 12250:1 12617:1 14249:1 15406:1 15597:1 15868:1 16605:1 20531:1 21156:1 21843:1 21865:1 27733:1 28853:1 29987:1 30767:1 33644:1 33855:1 37703:1 37832:1 39930:1 40542:1 42060:1 
0.00444918362516315 1:2 2:1 3:1 7:1 8:2 15:1 22:1 23:1 50:1 57:1 78:1 86:3 107:1 127:1 192:1 215:3 266:2 390:1 421:4 422:1 445:1 573:2 696:1 712:1 817:1 1009:1 1106:3 1110:2 1153:1 1363:1 1402:1 1428:1 1448:3 1775:2 2007:5 2044:1 2155:1 2681:1 2922:1 3014:1 3619:1 3659:1 4038:1 4912:1 4959:1 5137:1 5371:1 5623:1 5629:1 5919:1 5957:2 6310:1 6570:5 7878:1 8131:1 8722:1 8756:2 8999:1 10276:1 10944:1 11465:1 11566:1 13450:1 13998:1 14777:1 16415:1 17210:3 21912:1 22621:1 22763:1 23678:1 30745:1 37773:1 
0.002770121126183308 1:6 10:1 15:1 38:1 49:2 73:1 84:2 103:1 113:1 121:2 175:1 249:1 338:1 440:1 462:1 483:1 771:1 822:2 884:2 1020:1 1123:1 1130:1 1203:1 1578:1 1700:1 1704:1 1788:1 2025:1 2219:1 2257:1 2513:1 2530:1 2547:1 2570:1 2642:1 2709:1 2732:2 3378:1 3391:1 3404:1 3412:1 3425:1 3464:1 3468:2 3671:1 4025:1 4477:1 4539:1 4900:1 4918:1 4969:2 5010:2 5201:1 5336:1 5361:1 5459:1 5511:1 5513:3 5549:1 5669:1 6513:1 6654:1 6746:2 7535:1 8097:1 9240:1 9480:1 9487:1 9900:1 10188:1 10410:2 10884:1 12182:2 12742:1 13625:1 14050:1 14946:1 15152:2 15590:1 15757:1 15994:1 19838:1 19888:1 20235:2 20351:1 21297:1 22042:3 23218:1 24806:1 24958:1 25344:1 26431:1 30328:1 30811:1 31636:1 32890:2 32925:1 33610:1 36848:2 37272:1 41191:2 
0.0100140339951007 1:2 3:2 4:1 19:1 32:1 35:1 38:2 46:1 60:1 136:1 278:1 281:2 299:1 401:1 443:1 808:1 996:1 1042:1 1055:3 1397:1 1493:1 1698:2 1995:2 2093:1 2205:1 2592:4 3175:1 3596:1 3648:3 4442:1 5749:1 6565:1 6728:1 7593:1 7813:1 8459:1 10491:1 10711:1 11159:2 19821:1 22111:1 26939:1 32773:2 37732:1 
0.002119971634398212 73:1 462:2 3009:1 3844:1 4839:1 8349:2 12695:1 18774:1 25869:1 29416:1 31487:1 
0.01500071964964898 40:1 74:1 78:1 79:1 158:2 169:1 185:1 225:1 245:1 675:1 737:1 774:1 794:1 819:1 836:1 1011:1 1528:1 1582:1 1657:3 3407:1 4487:1 4606:1 4613:1 5863:1 6152:1 6595:1 7057:1 7147:1 7295:1 7848:1 8999:1 9018:1 9030:1 9106:2 9957:1 10450:1 10625:1 12208:1 13877:1 18670:1 21839:1 32806:1 42689:1 
0.00407648845444966 1:1 14:1 84:2 124:1 262:1 353:1 410:1 414:1 506:1 510:1 611:1 643:2 667:1 1679:2 1917:1 1994:1 2225:1 3594:1 4159:1 5457:1 6531:1 8558:1 8618:1 8872:1 9992:1 10121:1 11889:2 16125:1 26956:1 
0.0007104342170127239 1:1 2:2 15:1 40:1 44:1 47:1 84:3 170:1 229:1 255:1 295:1 336:1 352:1 445:1 459:1 470:1 491:1 517:4 519:1 523:1 538:1 668:1 787:7 819:1 828:1 1599:1 1841:1 1952:1 1991:2 2016:2 2118:1 2271:1 2331:2 2339:2 2564:1 2592:2 2934:1 2947:7 3175:1 4207:1 4390:2 4806:1 5275:1 5371:1 5418:1 6102:2 7037:2 7966:1 8631:2 9213:1 11550:1 11700:1 13163:1 14076:1 19412:1 19731:1 20409:1 20655:1 21188:2 25311:1 27371:1 27427:1 38429:1 
0.08141210849244389 5:1 15:1 73:1 167:1 388:1 822:1 932:1 1953:1 6097:1 8628:1 9606:2 
0.007383217449454517 1:4 2:3 8:1 10:1 20:2 23:2 34:1 36:1 49:1 50:1 70:1 84:1 91:1 99:1 110:1 111:2 122:1 142:1 153:1 175:1 202:1 227:2 236:1 270:1 277:1 301:1 303:1 311:1 341:1 440:2 461:1 483:1 660:1 696:1 699:1 899:1 945:1 1022:1 1038:2 1129:1 1148:1 1489:1 1559:1 1633:1 2075:1 2337:1 2445:3 2513:2 2535:1 2556:1 2570:1 2578:1 3155:1 3208:1 3373:1 3412:2 3455:1 3802:1 3819:5 3929:1 4026:1 4419:1 4902:1 4992:1 5157:1 5201:1 5224:1 5459:1 6315:1 7128:1 7161:2 8051:1 9976:1 10397:1 11328:1 11419:1 11530:2 11855:1 12039:1 13651:1 14238:1 16963:1 18917:1 20351:1 20885:1 24291:1 26754:1 26803:1 28115:1 28947:1 31654:1 32863:1 33709:1 39125:1 39170:1 42291:1 
0.00230585453454382 1:1 2:1 8:1 36:1 44:2 52:1 71:1 80:1 100:7 156:1 168:1 222:1 229:1 255:1 299:2 331:1 480:1 558:1 689:1 819:2 998:1 1062:1 1225:1 1249:1 1348:1 1419:1 1448:2 2125:1 2258:1 2711:1 3175:1 3416:1 3454:1 3953:1 4029:1 4219:2 4908:1 5287:1 5404:3 5589:1 6390:1 6565:1 6834:1 6865:1 7371:2 7690:1 8198:1 8511:1 8921:1 9567:1 10681:4 11218:1 12385:2 12566:1 13015:1 13642:1 15277:1 16505:1 20482:1 23519:1 24007:1 35986:1 39439:1 41485:1 
0.002094321892049812 1:2 57:1 85:2 107:2 121:1 129:2 185:1 295:3 305:1 353:1 359:1 432:1 454:1 479:1 734:1 771:1 789:1 822:2 825:1 1144:2 1148:1 1189:1 1289:2 1323:1 1599:1 1802:1 2348:1 2522:3 2611:2 3378:1 3394:2 4283:1 4304:1 4753:1 4916:1 4971:1 5909:1 8862:1 12726:1 14119:1 14699:1 16127:1 23793:1 26646:1 33233:1 35287:1 
0.001239516346335391 1:1 38:1 122:1 203:1 227:1 289:1 601:2 771:1 917:1 1022:1 1509:1 1785:1 3216:1 4358:1 4991:2 5271:1 5487:1 5529:1 6745:1 7545:1 8209:1 8242:4 8792:1 9340:5 13618:2 14319:1 15249:2 18096:2 24739:1 32445:2 
0.0115564750306311 73:2 462:2 1335:1 1509:1 2222:1 8349:1 8792:1 9783:1 16808:1 25242:1 
0.009312758962375657 1:1 3:1 8:1 11:5 15:1 17:2 25:1 40:3 54:2 86:2 88:1 107:1 110:1 125:1 130:1 183:1 185:1 186:1 227:2 250:1 288:4 297:1 346:1 509:1 572:1 588:1 694:1 696:1 709:1 811:2 841:1 1240:1 1258:1 1535:1 1546:1 1867:1 1901:1 2534:1 2872:3 2926:1 3096:1 3305:1 3333:2 3365:1 3378:1 3778:1 3863:1 3936:1 4336:2 5137:1 6375:1 6581:2 6662:1 6998:1 7171:1 8908:1 9337:1 10669:1 12105:1 12904:1 14119:1 27440:1 39532:1 
0.01852421558705441 4:1 7:1 16:1 60:1 91:1 130:1 176:1 235:1 553:1 786:1 897:1 1017:1 1276:1 1723:1 1974:1 1991:1 2474:1 2534:1 3318:1 3373:1 3601:1 3632:1 4079:1 5191:1 6090:1 6238:1 8230:1 10002:1 10608:1 14168:1 16278:1 18097:1 19191:1 27216:1 
0.01460012103901498 1:1 6:1 15:2 73:1 90:2 164:1 249:1 370:1 462:2 643:1 1976:2 2222:1 2330:1 2444:1 2642:1 2709:1 2959:2 3243:1 3524:1 3786:1 4522:1 5717:1 5944:1 5954:1 6746:1 7399:1 7663:1 8349:2 9365:1 9456:1 10983:1 12182:2 18360:1 28149:1 29416:1 31487:1 36336:1 36848:1 39924:1 
0.001320847299874992 1:1 6:1 12:1 17:3 90:1 96:1 129:1 180:1 310:1 315:1 422:1 523:1 811:1 889:1 962:1 1425:2 1740:1 1802:1 2481:1 2572:1 2844:1 2912:1 3378:2 3637:1 3748:1 4403:1 4777:1 5003:1 12641:1 16951:1 20786:5 30612:1 
0.001053716675105102 1:2 2:1 5:1 35:1 52:1 89:1 90:1 114:1 157:3 177:2 233:1 242:1 250:1 337:1 395:4 414:2 434:4 456:1 592:1 707:1 791:1 1177:2 1229:1 1241:1 1492:1 1749:1 1804:4 1842:3 2115:1 2431:1 2532:1 2904:1 2957:1 3404:1 4044:1 4046:1 5192:1 5232:1 5315:1 7210:1 7241:1 7773:1 8061:1 9760:1 12966:2 12986:3 15135:1 15486:2 35738:1 
0.008559378634137638 1:1 2:3 3:1 15:1 17:1 19:1 45:1 49:1 108:2 110:1 154:1 164:3 236:1 274:1 308:1 357:1 417:1 469:1 799:2 972:1 1102:1 1122:1 1189:1 1556:1 1634:1 1657:1 1802:1 1914:1 2138:1 2240:1 2243:1 2358:1 2591:1 2865:1 3240:1 3730:2 3802:1 3955:1 4029:1 4918:1 5030:2 5191:1 6383:1 7707:1 7739:1 8315:1 8957:1 9011:1 9032:1 9864:1 11408:1 12041:1 13143:1 13562:1 16080:1 16804:1 17642:1 20701:1 23530:1 29166:1 32478:2 42925:1 
0.0003638034096141662 1:2 2:1 4:1 20:1 49:3 71:1 102:1 103:1 111:2 124:1 160:1 214:1 249:1 299:2 362:1 366:1 380:1 399:1 453:1 461:1 539:1 574:1 589:1 651:2 669:1 819:4 828:1 1139:1 1141:1 1345:1 1384:1 1748:1 1916:1 2093:1 2170:1 2204:1 2346:1 2721:1 2835:3 3116:2 3142:1 4084:1 4193:1 4704:1 4929:1 5003:1 5999:1 7402:1 7657:1 7946:1 8069:1 8260:1 8843:1 9330:1 10939:1 11912:1 12072:1 12371:1 16951:1 20535:3 21138:1 21224:5 22455:1 22638:1 24700:1 25510:1 25876:1 25889:3 26452:1 26778:1 27173:1 31673:1 32434:1 32969:2 38705:1 
0.0007720979777309462 1:6 2:1 3:2 17:1 35:1 51:1 87:1 109:1 164:1 192:1 197:3 240:1 300:1 342:2 347:1 355:1 384:3 440:3 444:1 464:1 470:1 523:2 541:1 602:1 660:1 923:1 962:2 1082:1 1187:1 1528:1 1848:1 1876:2 1917:1 2006:1 2045:1 2236:1 2307:1 2376:1 2481:1 2657:1 2762:1 2793:1 2864:1 2865:1 3014:1 3414:1 3514:1 3587:1 3794:1 4036:1 4353:1 4715:1 4769:1 4822:1 4929:1 4971:1 5422:1 5525:1 5544:1 5856:1 7204:1 8040:1 8095:1 8460:1 8465:1 8472:1 8613:1 9028:1 10076:1 10114:1 10142:1 10241:1 11139:1 11726:1 13416:1 13428:1 13564:2 13884:1 20102:1 21704:1 21878:1 21903:1 22248:1 23013:1 23245:1 24077:1 28021:1 28475:2 29384:1 35169:1 35348:1 35984:1 37188:1 
0.004921153620284285 1:2 25:1 34:1 40:1 60:1 102:1 124:1 127:1 132:1 136:1 183:1 204:1 283:2 378:2 454:1 466:1 576:1 614:1 811:1 844:2 848:2 1363:1 1397:2 1585:3 2205:1 3145:1 3648:1 3802:1 3827:1 3936:1 4168:1 4210:1 4258:1 4441:1 4442:1 4685:1 4912:1 5137:1 5302:1 5618:1 5791:1 5896:1 6632:1 8523:1 9004:1 9783:3 11179:1 11800:1 17086:1 18146:1 28782:1 30612:1 34498:1 38954:1 
0.001631582674827295 1:4 4:1 21:1 36:2 102:1 124:1 136:1 229:1 257:1 267:2 387:2 414:1 416:1 435:1 452:1 500:1 516:1 586:1 706:1 799:1 812:2 881:2 906:1 1135:1 1167:1 1169:1 1248:1 1282:1 1505:1 1912:1 1953:1 2950:1 3092:1 3138:2 3857:1 4526:1 4638:1 4720:1 5083:1 5162:4 5549:1 5738:1 7184:1 7634:2 7750:1 10747:1 11519:1 11610:1 14290:1 24506:1 25160:1 27514:1 34596:1 37686:1 41768:1 42863:1 
0.008691285162964855 1:2 2:1 8:1 17:1 49:1 79:1 110:2 222:1 305:1 827:2 886:1 1044:1 1315:1 1917:1 2425:1 2444:1 2850:1 2900:1 2945:1 6684:1 7175:1 7509:1 8615:2 8792:1 13747:2 15563:1 18351:1 18582:1 22161:2 34498:1 36428:1 38237:2 41637:1 
0.007645897612106004 1:3 15:1 17:1 21:1 40:2 90:1 107:1 111:1 170:1 273:1 288:2 352:1 487:1 572:1 614:1 624:1 653:1 819:1 842:1 1028:1 1304:1 1441:1 1463:1 1740:1 1794:1 1827:1 1879:1 2125:1 2163:1 2205:2 2850:1 2984:1 3081:2 3323:1 3333:3 3492:1 3703:1 3914:1 4258:1 4422:1 6346:1 7171:1 7585:1 7748:1 11740:1 14119:1 18714:1 33233:1 
0.0509852864230901 371:1 510:1 528:1 1236:1 21900:1 31914:1 
0.01418453732212528 371:1 440:1 773:1 822:1 1105:1 1556:1 2865:1 3514:1 4159:1 5549:1 11936:1 20099:1 23245:1 34448:1 
0.003237261381721538 1:5 2:2 44:1 141:1 227:1 295:1 330:1 358:1 362:1 450:2 498:1 518:1 534:1 547:1 598:1 638:1 737:2 794:1 813:2 843:1 871:1 1109:1 1738:1 1739:1 2108:1 2242:1 2474:1 2600:1 3081:2 3139:1 3553:1 3630:1 4305:1 6480:1 6868:2 6991:1 7037:1 8184:1 8521:1 9110:1 9367:1 9403:1 9816:1 10055:1 10057:1 10596:1 11755:1 13153:1 14771:1 15512:1 16122:1 16725:1 16855:1 17212:1 19173:1 20438:1 23723:1 24386:1 26541:1 32863:1 39444:1 
0.008553491351280064 1:5 12:1 16:3 34:1 51:1 54:1 89:1 140:1 341:1 416:1 450:1 458:1 474:1 518:1 527:1 600:1 662:1 712:1 823:1 963:1 972:1 1031:1 1064:1 1198:1 1289:1 1618:2 1635:1 1972:1 2016:1 2118:2 2236:1 2277:1 2338:1 2631:1 2801:1 2955:1 3406:1 3526:1 3585:1 4909:1 5278:1 5422:2 5873:1 6377:1 6719:2 6968:1 7890:1 8166:1 8442:1 9245:1 9709:1 10104:1 13853:1 14731:1 16341:1 19248:1 21103:1 22074:1 22445:1 23327:1 30586:1 
0.002815112215534715 15:1 78:2 110:1 416:1 462:1 544:1 624:1 630:1 773:1 972:1 1509:1 1610:1 1740:1 2555:1 2642:2 2709:1 2865:1 3259:1 4721:2 5062:1 5560:1 5717:1 6068:1 6143:1 8349:1 8713:1 8792:1 8957:1 8959:1 9208:1 10305:1 11393:1 12182:2 15644:1 18360:1 25537:1 32270:1 36848:1 
0.001752083774306808 1:7 2:1 3:1 4:1 8:1 15:1 17:2 47:1 57:1 65:1 84:1 164:1 253:1 266:1 346:1 488:1 685:1 696:1 857:1 883:1 1041:1 1063:1 1078:1 1098:1 1139:1 1417:1 1426:2 1469:1 1677:1 1724:1 2045:1 2050:1 2084:1 2114:1 2125:3 2338:1 2579:1 2657:1 2711:1 2719:1 3199:5 3201:1 3240:1 3395:1 3488:1 3870:1 3952:1 4398:1 4783:1 5003:2 5969:1 6082:1 6119:1 6624:1 6723:1 7402:1 8547:1 8582:1 8728:1 11164:1 12364:1 13883:1 14154:1 14190:1 15180:1 17709:1 20143:1 21555:1 22354:1 23476:1 26589:1 28401:1 40314:1 40689:1 42095:1 
0.005734629571038114 1:3 2:2 7:2 12:1 45:1 62:2 113:2 119:1 126:1 141:1 150:1 272:1 289:1 301:1 329:1 470:1 573:1 696:1 922:1 1006:1 1442:1 1463:1 1484:1 1865:1 2854:3 2945:1 3038:1 3419:1 3564:1 3936:2 4426:1 4475:1 4923:1 5099:1 5702:2 6484:1 7458:1 10198:1 15632:1 16251:1 17302:1 17773:1 18395:1 18803:1 18994:1 20381:1 20805:1 22728:1 23663:1 24260:1 29357:1 31145:1 32295:3 
0.005761385809011825 1:2 3:1 12:1 17:1 25:1 39:1 44:1 101:1 117:1 185:3 202:1 214:1 220:1 227:2 306:1 479:1 542:1 753:1 1031:1 1041:1 1102:1 1104:1 1556:1 1826:1 2844:1 3109:1 3318:1 3365:1 4392:1 4441:1 5981:1 6234:1 6247:1 6488:1 7578:1 7748:1 7759:1 7791:1 9135:1 9639:1 9781:1 11769:1 14237:1 15181:1 15903:1 18268:1 19105:1 23641:1 
0.01862120497610714 1:1 4:1 5:1 8:2 9:1 30:1 49:1 52:1 65:1 84:1 709:1 828:1 889:1 1104:1 1137:1 2141:1 2155:1 2812:1 3143:2 4753:1 5672:2 6803:1 7006:1 11653:1 16343:1 
0.02044072937136076 3:1 4:1 8:2 17:1 25:2 44:1 117:1 258:1 455:2 549:1 811:1 2730:1 2940:1 3625:1 4727:1 5010:1 5797:1 14533:1 16343:1 32448:1 37114:1 
0.00406014750984182 8:1 12:2 40:1 114:1 204:1 238:1 359:1 422:1 445:2 635:1 709:1 737:1 771:1 1031:1 1125:1 1187:1 1426:2 1698:1 1740:1 2330:1 3063:1 3531:1 4613:1 5304:1 5406:1 5875:1 6624:1 6905:1 7017:1 9223:1 10400:1 14854:1 16343:2 29918:2 
0.009897374771273303 1:4 2:1 73:1 150:1 313:1 353:1 548:1 1530:1 1701:1 1740:1 2711:2 2869:1 2923:1 3027:1 3219:1 3271:1 3648:1 3952:1 4363:1 4524:1 4694:1 4753:1 6728:1 7625:1 8155:1 9783:3 11913:1 12405:1 16051:1 16152:1 20966:1 21062:2 28769:1 
0.002967767754635943 1:3 8:1 61:1 160:1 227:1 282:2 300:1 414:1 444:1 537:1 932:1 1354:1 1439:1 1610:2 1740:1 1775:1 1820:1 2106:1 2955:1 3470:1 3481:2 3904:1 4355:1 4422:1 4784:1 4991:1 5224:1 5257:1 5744:1 6097:1 6391:1 8278:1 8453:1 10767:2 11430:1 11665:1 12219:1 12479:1 12934:1 14868:1 19410:1 21523:1 25967:1 30902:1 36389:1 
1.516531363623565e-005 1:2 2:3 3:1 4:1 5:1 8:1 17:1 22:2 40:2 46:2 47:2 51:1 60:2 65:2 77:1 107:1 109:1 110:1 129:7 140:1 144:2 145:1 202:1 207:1 218:1 222:1 223:1 227:1 231:2 257:1 294:1 306:1 307:1 336:1 355:1 359:1 367:1 436:1 438:1 444:1 445:1 516:1 634:1 718:1 771:1 821:1 822:2 904:2 906:1 1043:1 1046:1 1063:1 1087:1 1122:1 1145:1 1191:1 1200:2 1216:1 1333:1 1382:1 1434:1 1467:1 1507:1 1533:1 1619:2 1846:2 1850:3 1853:1 2008:1 2039:1 2211:1 2219:1 2334:1 2344:1 2385:6 2666:2 2702:1 2843:1 2866:1 2872:1 3011:2 3050:1 3381:1 3663:1 4175:1 4197:1 4613:1 4952:1 5406:1 6429:1 6684:1 6746:1 6803:1 7290:1 7316:1 7523:1 8080:1 8380:1 8424:1 10034:2 10298:1 10995:1 11216:1 12375:1 12436:1 12934:4 13405:1 14354:1 14470:1 14593:1 14640:1 15021:1 16394:7 17708:2 17769:1 19513:1 24671:1 25062:1 27213:1 27540:1 40244:1 40723:1 
0.00165975582426073 1:2 2:1 6:1 35:1 49:2 73:1 108:1 158:1 203:1 214:2 216:1 227:1 249:1 462:1 648:1 1030:2 1274:1 1437:1 1509:1 1537:1 1556:2 1914:1 2555:1 2654:1 2709:1 2770:3 2893:1 3365:1 4685:1 5717:1 5981:1 6175:2 10421:2 10757:1 10916:1 12182:2 12522:3 12952:1 15097:1 16720:1 17447:1 17767:1 19063:1 22166:1 26884:1 27677:1 31097:1 36848:1 43279:1 
0.003784698046942514 1:7 2:4 3:1 4:1 8:1 10:1 14:1 17:1 25:1 31:1 32:1 51:1 60:1 71:1 80:1 82:1 93:1 97:1 102:5 121:1 124:1 136:1 171:1 178:1 209:1 223:1 268:1 289:1 291:1 355:1 425:1 457:1 503:1 508:1 514:1 540:1 561:2 562:1 605:1 614:1 638:2 643:1 659:1 674:2 761:1 784:1 805:1 824:1 884:1 888:1 984:2 989:1 1122:1 1142:2 1201:1 1262:1 1295:1 1306:1 1345:1 1349:1 1364:1 1486:1 1555:1 1669:1 1706:1 1795:1 2000:1 2162:1 2186:1 2202:1 2233:1 2367:1 2447:1 2458:1 2484:1 2579:1 2618:1 2625:1 2639:1 2642:1 2652:1 2659:1 3016:1 3085:1 3099:2 3183:1 3200:1 3265:1 3343:1 3413:1 3470:1 3545:1 3669:1 4068:1 4084:1 4319:1 4369:1 4401:1 4548:1 4929:2 4959:1 5079:1 5174:1 5175:1 5316:1 5402:1 5472:1 5720:1 5981:1 6010:1 6344:1 6435:1 6518:1 6664:1 6683:1 6869:1 6964:1 7293:1 7359:1 7497:1 7735:1 7826:1 7866:1 7948:1 8035:1 8224:1 8353:1 8547:2 8685:1 8953:1 9310:1 9783:1 9860:1 10475:1 10531:1 10577:1 10996:1 11949:1 11980:1 12641:1 13103:1 14124:1 14154:1 14607:1 15587:1 15717:1 15761:1 16018:1 16145:1 16592:1 16646:1 16739:2 16958:1 17419:1 20062:1 20434:1 20882:1 21589:1 21900:1 23699:1 23706:1 24543:1 25092:1 25281:1 25413:1 25440:1 25787:1 26489:2 27476:1 27806:1 27820:1 27969:1 30221:1 31673:1 32997:1 33334:1 36772:2 36910:1 38362:1 40700:1 40740:1 41022:1 
0.003437258729028124 1:4 3:1 8:5 11:2 15:2 32:1 49:1 54:1 82:1 86:1 116:1 133:2 136:1 162:1 175:1 214:4 227:1 229:1 230:1 305:1 421:1 444:1 473:1 538:1 602:1 614:1 641:1 662:1 696:4 709:1 1031:1 1145:1 1204:1 1213:1 1240:1 1258:1 1336:1 1399:1 1535:1 1580:1 1590:1 1687:1 1740:1 1766:2 1867:1 1895:1 2288:1 2412:1 2762:1 2867:1 2887:1 2933:1 3334:1 3434:1 3445:1 3648:1 3694:1 3844:1 3906:1 4762:1 4766:2 4837:1 5191:1 5623:4 6267:1 6375:1 6578:1 6582:2 11548:1 12128:1 12197:3 12327:1 13283:1 13319:1 14024:1 15912:1 16224:1 16390:1 17295:1 18162:1 20079:1 20648:1 21074:2 21555:1 22713:1 30143:1 36987:1 37735:1 
0.00426078661419269 1:1 2:1 8:1 10:1 17:1 46:1 47:1 49:1 110:1 143:1 305:1 371:1 536:1 873:1 886:1 1197:1 1718:1 2039:1 2391:1 2444:1 2562:1 2900:1 2910:1 6861:1 7175:1 7509:1 7748:1 8279:1 8795:1 13266:1 14593:1 14833:1 15563:2 18713:1 20362:1 20994:2 21565:1 22279:1 25710:1 33831:1 41637:1 
0.007688845923365424 1:2 2:1 6:1 7:1 8:2 9:1 12:1 17:1 34:1 35:1 46:1 49:1 57:1 73:1 84:1 89:1 96:2 114:1 235:3 255:1 307:1 319:2 416:1 603:1 823:1 857:1 904:1 1031:1 1060:1 1068:1 1248:1 1624:1 2342:1 2412:1 2836:1 2950:1 3024:1 3247:1 3624:1 3677:1 3819:1 4163:1 4231:1 4234:1 4361:1 4612:1 4669:1 4913:1 6404:1 6580:1 7316:3 7410:1 8409:1 10584:1 12589:2 14531:2 15316:1 19224:1 21583:2 28164:1 29761:1 31127:1 37501:1 
0.001842778759672962 1:2 2:2 3:2 8:1 11:2 21:2 46:1 52:1 60:1 62:1 65:1 82:1 86:1 111:1 116:1 185:1 202:1 227:1 299:1 307:1 346:1 359:1 362:3 365:1 464:1 504:1 509:1 510:1 567:1 573:1 636:1 642:1 744:1 745:1 771:4 793:1 913:1 1046:1 1063:1 1092:1 1606:1 1926:1 2025:1 2158:1 2160:1 2258:1 2370:1 2388:1 2441:1 2591:1 2850:1 3311:1 3324:2 3378:1 3794:1 3880:1 3990:1 4234:1 4441:3 4464:1 4822:1 4946:1 5605:2 6689:1 6914:1 8379:1 10090:1 10396:1 10792:1 11526:1 14771:1 16860:1 21104:1 21569:1 21890:1 22595:1 22634:1 22908:1 24534:1 24614:1 26142:1 30307:1 36940:1 
0.007439968128152044 4:1 52:1 100:2 1657:1 1698:1 2539:1 3525:1 5856:1 6997:1 7887:2 11408:1 13322:1 16901:2 22633:1 25594:1 29316:1 
0.003083659123167507 1:2 2:1 3:1 8:1 17:1 40:1 49:2 73:1 78:1 84:3 99:1 107:1 110:1 121:1 129:2 136:1 170:1 178:4 268:1 275:1 299:1 305:1 311:1 422:1 450:1 481:1 549:1 696:1 724:1 787:4 799:1 828:1 990:1 1063:1 1078:2 1145:1 1166:1 1289:2 1303:1 1426:1 1606:1 1774:1 1883:1 1948:1 1960:1 1996:1 2106:3 2246:1 2331:1 2481:1 2534:1 2555:1 2611:3 2865:1 2947:4 3394:2 3407:1 4075:1 4422:1 4469:1 4836:1 5634:1 6581:1 8618:3 8631:1 9870:1 11803:1 12041:1 12353:1 14579:1 16647:1 17008:1 17767:1 18572:1 19509:1 21528:1 25967:1 26462:1 36715:1 40689:1 43054:3 
0.0006404948133502208 1:11 2:3 3:1 4:1 15:1 17:3 20:1 22:2 26:1 30:1 46:1 49:2 50:1 60:1 71:2 78:3 83:1 84:1 90:1 94:1 107:2 116:1 121:1 131:1 142:1 158:1 162:1 164:2 175:1 195:1 200:3 202:1 215:1 216:1 227:1 230:1 234:1 236:3 266:1 272:1 300:1 309:1 327:1 333:1 336:2 341:2 343:1 375:1 382:1 399:2 420:1 440:7 449:1 462:1 466:2 472:2 478:1 503:1 521:1 534:1 539:1 548:1 576:1 635:1 674:1 736:1 763:1 771:2 794:1 805:1 817:1 819:2 829:1 923:1 928:1 977:1 1011:1 1046:1 1088:1 1231:1 1243:1 1264:1 1514:1 1545:1 1589:1 1597:1 1637:1 1689:1 1848:1 1884:1 1903:1 1908:2 1933:1 1957:1 1967:1 1994:1 2032:1 2036:1 2094:1 2233:1 2274:2 2385:1 2444:1 2445:5 2478:1 2484:1 2534:1 2553:1 2618:2 2812:2 2853:1 2937:1 2969:1 3002:1 3357:1 3365:1 3576:1 3588:1 3617:1 3740:1 3766:1 3795:1 3819:6 3843:1 3852:1 3929:1 3940:2 3958:1 4056:5 4061:1 4084:1 4112:1 4261:1 4270:1 4769:2 4959:1 5036:1 5297:1 5303:1 5310:1 5320:1 5395:1 5449:1 5618:1 5881:1 5892:1 5948:1 6113:1 6151:1 6186:1 6271:1 6568:1 6582:1 6735:1 6823:1 6859:1 7084:1 7183:2 7205:3 7274:1 7509:3 7657:1 7745:1 7853:1 8146:1 8188:1 8814:1 8947:1 9127:1 9183:1 9320:1 9411:1 10346:1 10450:1 11328:1 11338:1 11966:1 12039:1 12046:1 12682:1 13614:1 14186:1 14501:1 15434:1 15875:1 16018:2 16451:1 17159:1 19025:1 19412:1 19974:1 20567:1 20676:1 21006:1 21709:1 22708:1 22949:1 23527:1 25580:1 26512:1 27340:1 28080:1 28373:1 31084:1 32863:1 33306:1 34498:1 34999:1 37384:1 37407:1 38394:1 39045:1 39170:1 
0.002996872315801228 1:9 2:3 4:1 7:1 9:1 12:1 36:1 48:1 51:1 55:1 97:1 112:1 124:1 131:1 159:1 171:1 227:1 244:2 335:1 374:1 396:1 458:1 502:1 528:1 559:1 561:1 637:1 659:1 670:1 677:2 682:1 750:1 755:1 762:2 894:1 931:3 933:1 1086:1 1115:1 1216:1 1219:1 1236:1 1243:1 1538:1 1647:1 1694:1 1724:1 1751:1 1780:1 2181:1 2219:1 2261:1 2391:1 2444:1 2521:1 2735:1 2765:1 2825:1 3030:1 3065:1 3201:1 3279:1 3281:1 3410:1 3565:1 3686:2 3695:1 3901:1 4001:1 4114:2 4136:1 4434:1 4611:1 5175:1 5226:1 5592:1 5840:1 6277:1 6646:1 6991:1 7304:1 7425:1 7687:1 8074:1 8404:1 8745:1 8752:2 9166:1 9341:1 9359:1 9735:1 9976:1 10248:1 10386:1 13178:1 13612:1 13674:1 13836:1 13875:1 14760:1 15587:1 15904:1 16015:1 17037:1 18044:4 19984:1 20591:1 20786:4 20824:1 21498:1 22690:1 23740:1 23943:1 24109:1 24539:1 26064:1 29678:1 31460:1 33760:1 38977:1 
0.001431747455607554 1:6 2:2 8:2 10:1 25:6 30:1 36:1 37:2 44:1 49:2 55:1 57:1 79:1 82:1 84:1 100:1 107:1 158:3 169:1 214:1 227:1 234:1 236:1 245:1 296:1 307:1 335:1 341:1 353:1 373:1 384:4 387:1 444:1 498:2 648:1 691:2 700:1 750:1 759:1 794:1 799:1 811:1 863:1 977:1 1039:1 1081:1 1103:1 1104:1 1123:1 1129:1 1188:2 1323:1 1325:1 1327:1 1433:1 1458:1 1474:1 1556:1 1685:2 1687:1 1693:1 1749:1 1768:1 1914:1 1934:1 1973:1 1998:1 2046:1 2137:1 2170:2 2224:2 2619:1 2654:1 2727:1 2738:1 2740:2 2781:1 2812:3 2839:1 2887:1 2933:1 3143:1 3297:1 3308:1 3405:1 3495:2 3549:1 3572:1 3712:1 3764:1 3825:1 4077:1 4084:1 4089:1 4185:1 4210:1 4272:1 4517:1 5238:1 5309:1 5418:1 5992:2 6259:2 6320:1 6357:2 6429:1 6635:1 6803:5 7360:2 7449:2 7693:3 7796:2 7858:1 8260:1 8349:1 8408:1 8578:1 9048:1 9284:1 9596:1 10240:1 10315:1 10480:1 10709:1 10992:2 11082:1 11238:1 11568:1 11913:2 12095:1 12593:3 12753:1 13235:2 14312:3 14377:1 15350:1 15864:1 16149:1 16234:1 16763:1 18009:2 18034:1 18671:2 18802:1 19150:2 19595:2 20348:1 21854:4 23721:1 24282:1 24611:1 24667:2 25412:1 25687:1 26559:1 29537:1 30298:1 30740:1 31530:1 33504:1 34024:1 34670:1 36029:1 36587:1 41971:1 42665:1 
0.01177196951045356 1:4 3:2 4:2 23:3 28:1 35:1 37:1 49:1 56:1 72:3 160:2 193:4 204:1 219:1 231:2 333:2 398:1 447:2 509:1 523:1 538:1 567:3 618:1 699:1 708:2 758:1 820:1 886:1 956:1 981:1 994:1 1076:1 1095:1 1185:2 1381:1 1411:1 1682:1 1731:4 1740:1 1748:1 1826:1 1888:1 2022:1 2044:1 2145:1 2331:1 2607:1 2651:4 2691:1 2711:1 3334:1 3636:1 3660:1 3881:1 4422:1 4928:1 5195:1 5656:1 6432:1 6778:1 7359:2 8579:1 11687:1 15394:1 15406:1 16320:2 16889:1 17944:1 20085:1 20437:1 25844:1 
0.006077878868054301 2:1 5:1 24:1 45:1 49:1 61:1 62:2 107:1 125:1 129:1 141:1 162:1 237:1 299:1 305:1 307:1 326:1 357:1 371:1 397:1 460:1 464:1 498:1 626:1 693:1 757:1 873:1 910:2 982:1 1063:2 1106:1 1117:1 1684:1 3197:1 4261:2 4500:1 4826:1 5064:1 5471:1 6037:1 6148:1 6429:1 7777:4 7949:1 8061:1 8131:1 9528:1 13261:1 14560:1 14877:1 15934:1 16243:1 16804:1 19412:1 25546:1 31047:1 31998:1 36398:1 37384:2 41373:1 42209:1 
0.02133241208684575 1:3 22:1 40:1 59:1 73:2 90:1 227:2 307:1 1699:1 1775:1 2039:1 2719:1 4284:1 4624:2 4784:2 5257:1 6391:1 8627:1 8691:1 31927:1 33708:1 34386:1 
0.005926354111260374 1:2 6:1 8:1 15:2 17:1 25:2 32:1 40:2 49:1 107:1 110:1 229:1 234:1 276:1 288:1 338:1 346:1 388:1 495:1 572:1 630:1 659:1 771:1 789:1 822:1 1546:1 1556:1 1657:1 1672:1 1890:1 2163:1 2194:1 2231:1 2588:1 2868:1 3045:1 3221:1 3333:3 3546:1 4091:1 4475:1 4583:1 5010:1 5317:1 6004:1 6346:3 7171:1 7761:1 8961:1 10635:1 10681:1 16343:2 19746:1 21443:1 26175:1 36288:1 
0.004365760922382811 1:2 3:1 28:1 44:1 45:2 56:1 107:1 114:1 154:1 255:2 453:1 486:1 559:2 685:1 821:1 901:1 906:1 965:1 1243:1 1303:1 1406:1 1411:1 1415:2 1436:1 1665:2 1888:1 1903:1 2147:1 2161:3 2400:2 2429:1 2471:1 2483:1 2580:1 2947:1 2957:1 3181:1 3734:1 4262:1 4474:1 4961:1 5125:1 5350:1 6162:1 6388:1 6400:1 6410:1 6454:1 6661:1 6861:1 7796:1 7846:1 8424:1 9890:1 10089:1 10358:1 12335:1 14820:1 15915:1 18021:1 18182:1 20376:1 21466:1 32008:1 32756:1 32832:1 33683:2 
0.00357198083894709 1:1 2:1 48:1 77:1 102:1 121:1 130:1 131:1 252:1 255:1 371:1 449:1 450:3 523:2 539:1 626:1 694:2 828:1 889:1 938:1 978:1 1262:1 2300:1 2640:1 3009:2 3193:1 3582:1 3683:1 5160:1 5396:1 5705:1 6483:1 8224:1 8613:1 8726:1 9863:1 10868:1 11302:1 11316:1 13674:1 15864:1 17376:1 17492:1 21825:1 25582:1 25876:1 27201:1 29342:1 33760:1 39596:1 41816:1 42117:1 
0.01843445191542723 1:3 2:1 17:1 42:1 49:1 146:3 185:1 258:1 311:1 340:1 359:1 900:1 1063:1 1148:1 1187:1 1331:1 1489:1 2256:1 2387:1 2463:1 3378:1 4003:1 4099:1 5041:1 5123:1 6306:1 6377:1 6662:1 7169:1 7782:1 9522:1 10316:1 11354:3 15135:1 17787:1 20056:1 20535:1 25889:1 27904:1 30487:1 40361:1 
0.001947016223849795 1:6 2:3 4:1 5:1 10:1 17:1 20:1 44:3 57:1 61:1 90:1 110:1 158:3 162:1 164:1 208:1 214:2 245:1 252:2 294:1 406:1 424:1 472:1 609:1 669:1 779:1 1001:1 1187:1 1283:1 1331:1 1365:1 1396:1 1487:1 1528:1 1778:1 1811:1 2087:1 2160:1 2553:1 2694:1 2812:2 2872:1 3140:1 3205:1 3301:1 3407:1 3488:1 3621:1 3643:1 3768:1 3783:1 4054:1 4457:2 4727:2 4765:1 4819:1 5003:2 5129:1 5246:1 5279:1 5661:1 6119:2 6175:2 6659:1 7882:1 8651:1 9450:1 11109:1 12371:4 12559:1 13004:1 13796:1 13926:2 15095:1 16894:1 17795:1 18275:1 19150:1 20687:3 23145:1 24032:1 24952:1 25889:1 28045:3 29912:1 31406:1 35879:1 42671:1 
0.006761299144431923 1:2 17:3 40:2 49:1 57:1 65:1 117:1 129:1 146:1 204:2 414:1 440:1 747:1 771:1 1063:1 1177:1 1187:2 1427:1 1439:1 1740:1 2118:1 2243:1 2310:3 2415:1 2572:1 2882:1 2955:1 3168:1 3862:1 4618:1 4750:1 4871:1 5284:1 5303:1 5725:1 6377:1 6674:1 9613:1 10916:1 11696:1 13300:1 16037:1 16888:1 17210:1 17375:1 23501:1 26818:1 37171:1 
0.00539737240245735 1:1 44:1 107:1 127:1 143:1 202:1 214:1 227:1 423:1 460:1 469:2 539:1 936:1 1039:1 1153:1 1466:1 1672:1 1687:1 1835:1 2242:1 2263:1 2414:1 2900:1 3064:1 3526:1 4084:1 4500:1 4816:1 5471:1 5587:1 8613:1 9738:1 10042:1 11726:1 11765:2 11802:1 17431:1 19955:1 20102:1 21762:1 24738:1 27460:1 29988:1 31061:1 32448:1 39661:1 
0.003154250606214255 1:4 4:1 7:1 34:1 36:1 45:1 50:1 60:3 81:1 86:1 91:1 96:2 162:1 174:1 218:1 223:3 235:1 257:1 268:1 271:4 369:1 387:1 400:1 497:1 546:1 653:1 662:2 692:1 728:1 812:1 858:1 969:1 1023:3 1089:1 1119:1 1226:1 1404:1 1453:1 1534:1 1715:1 1801:1 2314:2 2388:1 2399:2 2574:1 2596:1 3107:1 4042:4 4155:2 4164:1 4209:1 4553:1 4638:1 5191:1 5230:4 5452:1 6232:3 6883:1 7708:1 7879:1 7977:1 8499:1 8509:1 9529:1 10343:1 10615:1 11643:1 11963:1 12275:2 15283:1 15520:2 16294:1 16315:1 16687:1 17702:1 27329:1 32529:1 33100:4 34742:1 
0.003472017445055944 1:1 2:1 15:1 17:1 26:1 49:1 60:1 81:1 125:1 175:1 218:1 234:1 261:1 307:1 603:1 714:1 904:1 926:1 958:2 1061:1 1547:2 1606:1 1826:1 1909:2 1964:1 2417:1 2693:1 2708:1 2868:1 2898:1 3146:1 3839:1 3868:1 3880:1 4107:1 4169:1 4271:1 4340:1 4502:1 4917:1 4992:1 5099:3 7316:2 8253:1 10416:1 11684:1 11873:1 12642:1 14237:1 14470:1 14632:1 14918:1 15249:1 16022:1 17243:1 18097:1 27667:1 35732:1 40533:1 
0.02083648451578498 1:2 48:1 62:1 143:1 287:1 359:1 519:1 521:1 636:1 801:3 1063:1 1370:1 1415:1 1876:1 2006:1 2091:1 2206:1 3311:1 3507:1 3574:1 4066:1 4774:1 4839:1 9947:1 18982:1 19094:1 19344:1 20648:1 22264:1 33635:1 
0.00148211924710993 49:1 61:1 90:2 227:1 453:1 1020:1 1265:1 1549:1 1610:1 1740:1 1794:1 2384:1 2642:1 2709:1 3259:1 3365:1 3425:2 5010:1 5311:1 5717:1 5825:1 5875:1 6383:3 6683:1 7085:2 7540:1 10429:1 10983:1 12182:2 12219:1 12695:1 16079:2 17985:1 18360:1 20865:1 21523:1 22042:2 27677:1 31381:2 32341:1 32890:2 36848:1 41814:1 
0.006637998880209818 1:1 17:1 101:1 160:1 202:1 258:1 333:2 1396:1 1657:1 1678:1 1700:1 2194:1 2935:1 3281:1 3514:1 7158:1 8249:1 13342:1 18227:3 29206:1 35045:1 
0.007638238162213365 1:4 2:1 8:1 10:1 38:1 47:1 52:1 81:1 91:1 124:1 148:1 154:1 162:1 173:1 198:1 209:1 259:1 301:1 302:1 309:1 315:1 342:1 454:1 461:1 557:1 905:1 1131:1 1229:1 1232:1 1385:1 1611:1 1952:1 2227:1 2415:3 2481:1 2568:1 2618:1 2711:1 3525:1 4106:1 4214:1 4221:1 4270:1 5293:1 5910:1 6437:1 6457:1 8345:1 9071:1 9438:2 11365:1 11499:1 12863:2 17899:1 18620:1 21695:1 25281:2 25899:1 27078:1 33333:1 36209:1 
0.003505213353186644 1:7 9:1 34:1 50:2 53:2 64:1 81:1 90:2 102:1 114:1 191:1 198:1 204:1 252:1 258:1 375:1 400:1 506:1 539:2 569:1 576:1 624:1 670:1 767:1 850:1 877:1 888:1 1009:1 1256:2 1290:1 1345:1 1356:1 1504:1 1557:1 1781:1 1831:1 1908:1 1961:1 1994:1 2096:1 2126:2 2198:1 2264:1 2314:1 2461:1 2579:1 2600:1 2695:1 2825:1 3410:1 3599:2 3932:1 4046:1 4178:1 4202:1 4401:1 4677:3 4816:1 4902:1 4931:1 4992:1 5195:1 6352:1 6699:1 6991:1 7455:1 7642:1 7745:1 8253:1 8803:2 8885:1 9069:1 9913:1 9956:1 10138:1 10640:1 11159:1 11843:1 12268:1 14238:1 14837:1 15587:1 15864:1 20051:1 20786:4 21743:1 23515:1 24786:1 30163:1 39258:1 39292:1 39312:1 
0.01624653321828503 2:1 3:1 17:1 27:2 147:1 227:1 388:1 390:1 598:1 691:1 694:1 771:1 1250:1 1385:1 1406:1 1432:1 1439:1 1599:1 1739:1 1840:1 2187:1 2195:1 2518:2 2906:1 4297:1 5380:1 5969:1 7806:1 8350:1 8631:1 10852:1 11271:1 13507:1 19501:1 22601:1 23067:1 23864:1 24357:1 34140:1 39985:1 
0.0200825933587764 1:1 52:1 136:1 295:1 371:1 450:1 626:1 906:1 1145:1 1544:1 1630:1 1766:1 4147:1 4396:1 5047:1 5095:1 5419:1 10222:1 13797:1 17212:1 22161:1 32706:1 41002:1 
1.412935331424435e-005 1:6 2:1 3:1 8:2 12:1 22:1 26:1 38:1 42:1 59:1 71:1 82:1 85:1 97:1 103:1 110:1 125:1 129:1 146:1 179:1 185:1 202:1 227:2 234:1 245:1 253:1 266:1 295:1 299:1 308:1 315:1 341:2 359:1 362:1 444:1 445:1 453:1 458:1 476:1 504:1 533:1 576:1 602:1 693:1 748:1 753:1 819:1 919:1 941:1 1063:1 1144:1 1188:1 1289:1 1464:1 1489:2 1546:1 1547:1 1556:1 1654:1 1657:1 1680:1 1734:1 1745:1 1797:1 1806:1 1820:1 1848:1 1883:1 1981:1 1986:1 2053:2 2103:1 2106:1 2125:1 2246:1 2256:2 2261:1 2274:1 2315:2 2426:1 2463:1 2481:1 2553:1 2611:1 2657:1 2770:1 2902:1 3135:2 3173:1 3378:1 3381:1 3521:1 3572:1 3670:1 3736:1 3947:1 3980:1 3985:1 3998:1 4026:1 4062:1 4099:1 4297:1 4405:1 4476:1 5508:1 6121:1 6148:1 6578:1 6693:1 6902:1 6997:1 7126:1 7175:1 8194:1 8618:1 8756:1 9436:1 9522:3 10306:1 10352:2 10429:1 11354:1 11621:1 11981:1 12738:1 12991:1 12994:1 14412:1 15135:3 17073:1 18882:1 19270:1 19294:1 19307:1 20056:1 20613:1 20806:1 21277:1 22467:1 24745:1 30487:1 32134:1 32409:1 39814:1 
0.0627415847770474 1:1 371:1 510:1 533:1 750:1 1675:1 3990:1 10121:1 
0.02479719523657343 8:1 19:1 82:1 90:1 227:1 296:1 337:1 503:1 539:1 709:1 889:1 1024:1 1619:1 3755:1 4044:2 5174:1 8932:1 9208:1 12554:1 13493:1 19558:1 30594:1 
0.003147198890602759 1:2 53:1 102:1 227:1 272:1 311:1 528:2 762:1 931:4 1780:1 1815:2 2772:1 4192:1 5183:1 5840:1 6132:1 6833:1 13674:1 20786:1 39126:1 40027:1 
0.005024654647580304 227:1 359:1 510:1 528:1 3311:1 3365:1 4727:1 5840:1 23852:1 
0.001710338573389769 1:5 2:4 17:1 28:3 40:1 48:1 131:1 141:1 188:2 193:1 238:1 255:1 303:1 307:1 341:1 358:2 445:2 464:1 488:1 600:1 693:1 706:1 724:2 862:1 1074:1 1109:1 1110:1 1140:1 1321:1 1338:1 1426:1 1517:1 1590:1 1652:1 1675:1 1690:1 1914:1 2042:1 2155:1 2173:1 2229:1 2236:1 2309:2 2331:1 2388:1 2731:1 2762:1 2793:1 3201:1 3307:1 3309:1 3508:1 3661:6 3687:1 3767:2 3869:1 4218:1 4305:1 4350:1 4406:1 4500:1 4674:1 4691:1 5015:1 5318:1 5514:1 5614:1 5635:1 5638:2 5873:1 6488:1 6506:1 6794:1 6935:1 7255:1 7471:1 8133:1 8155:3 8358:1 8513:1 8542:1 8933:1 9054:1 9579:1 10200:2 10496:2 10509:1 11557:1 11880:1 12676:1 13975:1 17171:1 17920:1 25872:1 32826:1 33950:1 43208:1 
0.01661781771630183 1020:2 1687:1 1727:1 2579:1 3365:1 4250:1 7337:1 34670:1 41814:1 
0.0129636442997609 44:1 84:1 227:1 294:1 841:1 1835:2 1890:1 2384:1 2867:1 2959:1 3365:2 4225:1 6624:1 6746:1 11011:1 11796:1 42665:1 
0.003073777832276049 1:4 2:2 9:1 24:2 55:1 73:1 80:1 92:1 124:1 144:1 146:1 154:1 204:4 214:1 266:1 328:1 335:1 386:1 502:1 561:1 575:1 597:1 674:1 794:3 819:1 913:1 962:1 1021:1 1063:1 1080:2 1102:3 1206:1 1246:1 1414:1 1425:2 1506:2 1523:1 1678:1 1813:1 1885:1 1920:1 1961:1 1994:1 2261:1 2552:1 2563:2 2894:1 2921:1 2944:1 3017:1 3023:1 3407:1 3525:1 3643:1 3986:1 4048:1 4299:1 4845:1 4929:1 5327:1 5461:1 5786:1 5856:1 6206:1 6565:1 6803:4 6864:1 6924:1 6982:1 7249:1 7498:1 7530:1 7531:1 9366:2 9613:1 9668:1 9681:1 10076:1 10090:1 10883:1 11570:1 11587:1 11744:1 11780:1 12072:1 12371:1 12903:1 13796:1 13875:1 15383:1 15532:1 16201:1 17086:1 18503:1 18538:1 18937:1 19460:1 21313:1 21443:3 22519:1 22616:1 24007:1 24271:1 25166:1 26314:1 28352:1 28475:1 28759:1 32256:2 33566:1 35835:1 36069:1 36249:1 36254:1 38053:1 40359:1 40861:1 41143:1 
0.01954654743982757 1:1 30:1 49:1 65:1 214:1 458:1 469:1 513:1 693:1 771:1 799:2 1137:1 1239:1 1359:1 1469:1 1800:1 1970:1 4451:1 4646:1 5003:1 6033:1 6038:2 6756:1 12825:1 14500:3 16234:1 17715:1 17979:1 18125:1 19591:1 26924:1 27405:1 29243:1 33063:1 36460:1 
0.002755911352456385 1:1 2:1 12:1 15:1 17:1 57:1 84:2 143:1 214:1 488:1 562:1 696:1 706:1 871:1 883:1 1161:1 1187:1 1230:1 1426:1 1687:1 1740:1 1823:2 1877:1 2415:1 2534:1 2671:1 2680:1 2963:1 3199:5 3381:1 3936:1 4439:1 5031:2 6175:2 6624:1 7318:2 7744:1 8092:1 9783:1 14154:1 17378:1 20421:1 24291:1 30451:1 39895:2 40651:1 41385:1 
0.007939848188736085 1:2 16:2 40:1 61:1 81:1 108:1 186:2 243:1 437:1 822:1 1028:1 1319:1 1426:2 1599:1 1802:1 2385:4 2389:2 3197:1 3347:1 3395:1 3676:1 4457:1 4857:1 5137:1 5204:1 5252:1 5284:1 5317:1 6312:1 6375:1 9461:1 9781:1 15895:1 16464:1 25014:1 35727:4 35982:1 41373:2 42048:1 
0.002966096888958481 1:16 2:3 19:1 20:1 22:1 24:1 43:1 47:1 48:1 77:1 82:2 107:1 110:1 154:1 162:1 234:1 236:1 304:1 312:1 329:1 330:1 418:2 498:1 500:1 613:1 741:1 768:1 770:3 799:1 823:1 999:1 1089:2 1106:1 1107:1 1123:1 1408:1 1429:1 1437:1 1455:1 1456:1 1509:1 1525:1 1574:1 1611:1 1681:1 1813:1 1845:1 1907:1 1944:1 2053:1 2199:1 2240:1 2389:1 2467:1 2772:3 2894:1 3288:4 3348:1 3393:1 3895:1 4112:1 4157:1 4419:1 4549:1 4737:1 4819:1 4857:1 4983:1 5086:1 5205:1 5377:1 5401:1 6255:1 6660:1 7290:1 7520:1 7854:4 7900:1 7988:1 8120:1 8140:1 8268:1 8494:1 8652:2 8695:1 8748:3 9071:2 9126:1 9149:1 9438:1 9465:1 9629:4 9694:1 9783:1 10085:1 10086:1 10215:1 10385:1 10440:1 12383:1 12423:1 13289:1 13673:1 14079:1 14124:1 14217:1 14303:1 14587:1 14635:1 14701:1 14833:1 14849:1 15652:1 15693:1 15751:1 17864:1 17873:1 18201:1 18713:3 18738:1 19022:1 20415:3 22354:1 23251:1 25431:1 26372:1 29603:1 30336:1 30444:1 30454:1 34238:1 34402:2 36099:1 37998:1 39371:5 
0.0442525723059492 136:1 371:1 460:1 1213:1 1557:1 2126:1 13870:1 21029:1 33828:1 
0.0009492124752814667 1:1 15:1 54:1 86:1 110:1 114:1 121:1 130:1 132:1 164:1 236:1 257:1 276:1 296:1 337:1 341:2 353:1 436:1 449:1 533:2 561:1 685:1 762:1 793:1 819:1 867:1 888:1 919:1 1214:2 1556:1 1630:1 1657:1 1660:3 1669:1 1677:2 1841:1 1914:1 1921:1 1951:1 2005:1 2165:1 2240:1 2260:2 2459:1 2538:1 2865:1 2984:1 3533:1 3622:1 3730:1 4044:1 4524:1 4597:1 5160:1 5573:1 5893:1 6555:1 6646:1 7232:1 7290:1 7979:1 8046:1 8859:1 8933:1 8957:1 9011:1 9032:1 9395:1 9737:1 9864:1 10586:3 11408:1 11568:1 11701:1 13293:2 13836:1 17877:2 21509:1 22068:1 23000:1 25379:1 25802:1 29170:1 30540:1 30768:1 31725:1 32522:1 35235:1 
0.00607696200588437 1:3 2:1 8:1 11:2 28:1 54:1 87:1 89:1 127:1 143:1 156:1 186:1 253:2 269:1 309:2 319:1 327:1 421:1 473:4 525:1 573:1 579:1 615:1 659:1 694:1 709:1 904:1 948:1 1030:1 1064:1 1110:2 1136:1 1387:1 1479:1 1599:1 1610:1 1677:1 1687:1 1703:1 1775:1 1815:1 1872:1 1985:1 2073:1 2236:1 2865:1 3111:1 3131:1 3549:1 3712:1 3819:1 4410:1 4991:1 5623:1 5825:1 5957:1 6067:1 6261:1 6991:1 8613:1 9867:1 10421:3 10433:1 10988:1 11430:1 11558:1 13045:1 13185:3 13653:1 14435:1 15926:1 16172:2 18384:1 19687:1 19897:1 22329:1 25869:2 30227:1 33414:1 40386:1 41950:1 
0.002200600274524371 2:1 8:2 11:1 12:1 15:2 17:3 25:1 39:1 40:1 49:3 72:2 84:1 89:4 90:1 114:1 143:1 202:1 249:1 294:1 305:2 313:5 318:1 359:1 414:2 503:1 582:1 583:2 709:1 737:1 828:1 1031:1 1055:1 1104:1 1148:2 1187:1 1189:1 1439:3 1455:1 1549:2 1593:1 1835:2 1955:2 1995:1 2118:1 2122:3 2246:1 2315:1 2369:1 2807:3 2955:2 3061:2 3259:1 3311:1 3425:1 3564:1 3594:1 3650:1 3663:1 3944:1 4000:1 4782:1 4801:1 4919:1 5378:1 5751:5 6683:1 7293:1 7343:1 7548:1 7920:1 7997:1 8008:1 10894:2 12277:1 14775:1 16637:1 17634:3 20187:1 22496:1 24812:1 31467:1 33166:1 35108:1 40512:1 42629:1 
0.006873421851259575 1:3 2:1 4:1 8:1 11:7 12:2 28:1 47:1 49:1 54:1 78:7 99:1 121:1 180:1 193:1 227:1 253:1 276:1 287:1 295:1 305:1 409:1 421:4 439:7 459:2 650:1 701:1 714:1 724:1 771:1 853:2 1010:1 1035:1 1078:1 1137:1 1189:1 1399:1 1426:1 1693:1 1823:1 1948:1 2074:1 2276:1 2356:1 2357:1 2556:1 2611:3 2626:1 2657:1 2794:1 2801:1 2966:1 3027:1 3101:1 3187:1 3219:1 3240:1 3250:1 3271:1 3648:3 3734:1 3873:1 4546:1 4573:1 4594:1 5015:3 6147:1 6195:1 7617:1 7896:1 7906:1 8079:1 8121:1 8502:2 8542:1 9048:1 9310:1 9807:1 10387:1 11282:1 11763:1 15582:1 17857:1 19526:1 21153:1 21822:1 31227:1 35444:1 37382:1 43261:1 
0.01915651579777478 1:1 2:1 3:1 15:2 107:1 110:1 158:2 1546:1 1559:2 1657:1 1749:1 3068:1 3572:1 5791:1 8278:1 9032:1 11408:1 14777:3 16706:1 18003:1 22614:1 30612:1 37298:1 
0.009519096693678541 1:3 2:1 3:4 5:1 9:2 24:1 35:1 47:1 51:1 52:1 59:1 63:1 79:1 89:1 100:1 102:1 111:2 124:1 151:1 180:1 200:1 215:2 242:1 266:2 287:1 333:1 340:1 347:1 379:1 410:1 456:1 500:2 516:1 533:1 582:1 694:1 757:1 803:1 804:1 821:1 828:1 848:1 861:1 919:1 962:1 1047:1 1283:1 1350:1 1484:1 1789:1 1842:1 1973:1 2061:1 2199:1 2236:1 2445:2 2479:1 2625:1 2803:1 2997:1 3065:1 3381:1 3525:1 3833:1 3958:1 4318:1 5118:1 5133:1 5899:1 6076:1 6343:1 6472:1 6638:1 6858:1 6899:1 7063:1 7239:1 7643:1 8221:1 8278:1 8989:1 9023:1 9613:1 10057:1 12578:1 12641:2 13096:1 14464:1 14807:1 16940:1 17153:1 17472:1 17570:1 20693:1 20864:2 21420:1 26646:1 28217:1 28352:2 28475:2 30096:1 32089:1 32118:1 32256:1 32916:1 33029:2 34123:1 36148:1 38786:1 39030:1 40861:1 41825:1 42058:1 
0.002775853195960571 1:2 8:1 69:1 140:1 231:1 294:2 309:1 341:1 368:1 384:2 444:1 517:1 546:1 592:1 660:1 952:1 1096:1 1189:1 1433:1 1557:1 1685:1 1703:1 1839:1 1947:1 2138:1 3188:1 3533:1 3764:1 3799:1 3843:1 4280:1 4446:1 4555:1 4613:1 5304:1 5406:1 5753:1 6432:1 7017:1 7657:1 7795:1 10599:1 10775:1 11164:1 14231:1 16343:2 18039:1 21277:1 21854:4 22362:1 23101:1 25066:1 28152:1 28749:1 29009:1 32054:1 
0.01121422466035381 1:1 2:1 3:1 8:1 15:1 86:1 184:1 207:1 227:1 253:1 266:1 389:1 460:1 696:1 1033:1 1068:1 1883:1 2657:1 3181:1 5056:1 5168:1 6991:1 9351:1 10630:1 10843:1 11958:1 12934:1 13417:1 16231:3 16243:1 
0.0004667612915889217 1:6 4:3 5:2 8:3 12:1 15:1 17:2 25:2 31:1 36:1 40:4 86:3 107:1 110:1 130:2 150:1 185:2 199:1 218:2 224:1 227:2 236:1 251:1 284:2 288:3 297:1 304:1 315:1 359:1 421:1 440:4 445:1 458:1 481:1 487:1 533:1 610:1 624:1 696:3 731:1 746:1 854:2 883:1 910:1 1063:3 1104:1 1145:4 1247:1 1288:1 1315:1 1350:1 1386:1 1491:1 1546:2 1556:1 1729:1 1740:1 1827:1 1852:1 1878:2 1999:1 2059:3 2160:1 2176:2 2205:2 2211:1 2231:1 2261:1 2553:1 2555:1 2600:2 2611:1 2681:1 2731:1 2795:2 2940:1 2959:1 2963:1 2975:1 3230:1 3234:1 3311:1 3333:5 3381:2 3524:1 3727:1 3926:1 4278:1 4606:2 4618:1 5317:1 5957:1 6516:1 6868:1 7003:1 7127:1 7158:1 7171:2 7224:1 7334:1 8278:1 8379:1 10100:1 10105:1 10318:2 10937:1 11841:2 11971:1 12439:1 14333:1 15868:1 15912:2 18268:1 20312:1 21912:1 22773:1 31998:1 33891:1 34338:1 35982:1 36298:1 36526:1 
0.04882197494352009 31:1 440:1 510:1 822:1 1675:1 2419:1 3360:1 4543:1 10022:1 26543:1 
0.0004833043777933332 1:10 2:1 4:4 5:1 6:1 8:1 11:2 12:2 17:2 20:1 22:1 27:1 39:2 40:4 49:2 50:1 54:2 57:1 77:1 78:1 89:1 90:1 99:1 107:1 109:2 110:1 129:3 136:5 160:1 174:1 229:1 234:1 272:1 313:1 337:2 347:1 422:3 462:1 470:2 571:1 636:1 651:1 718:1 741:2 745:1 746:1 773:1 851:1 862:1 904:5 1008:1 1063:1 1086:1 1114:1 1136:1 1188:3 1189:1 1277:1 1289:2 1351:1 1365:1 1463:1 1466:1 1507:1 1514:2 1546:1 1551:1 1723:1 1740:1 1806:1 1952:1 2020:1 2056:1 2065:1 2087:1 2106:7 2211:1 2257:1 2261:1 2572:1 2593:2 2611:2 2761:1 2793:1 2847:3 2963:1 3106:1 3297:1 3333:1 3378:1 3394:1 3405:1 3445:1 3472:1 3497:1 3524:1 3596:2 3598:1 3715:1 3786:1 3865:1 3931:1 3933:1 4032:1 4154:1 4378:1 4380:1 4469:1 4950:1 5224:1 5275:1 5422:1 5873:1 5895:1 6148:1 6429:1 6557:1 6581:1 6644:1 6746:1 6809:2 7103:1 7687:1 7974:1 8110:1 8578:1 8672:1 9464:1 9588:1 10523:1 10890:2 10995:3 11084:3 12288:1 12568:1 12607:1 14709:1 14851:1 15713:1 15921:1 16252:1 17278:1 20490:1 21315:1 22213:1 22268:2 23101:1 23367:1 23526:1 25334:1 25415:1 25551:1 27068:1 31254:1 31975:1 32409:1 33321:1 36271:1 
0.01384979475622018 1:2 8:1 52:2 62:1 266:1 306:1 371:1 540:1 610:1 626:2 634:1 1213:1 1388:1 1986:1 2304:1 2445:1 2854:1 3318:1 3550:1 4643:1 6119:1 8481:1 8511:1 8926:1 9672:1 13711:1 14207:1 24412:1 27005:1 32396:1 37696:1 
0.004902308432318319 1:9 3:1 9:1 21:1 44:1 45:1 51:2 64:1 80:2 129:3 136:1 151:1 183:1 209:1 221:1 229:1 246:2 309:1 317:1 318:1 329:1 357:1 430:1 505:1 515:1 561:2 582:1 600:1 664:1 771:1 802:1 828:2 850:1 870:1 893:1 1006:1 1029:1 1063:1 1080:1 1139:1 1259:1 1289:1 1290:1 1308:1 1673:1 1679:1 1720:2 1813:2 1815:1 1848:1 1970:1 2103:2 2571:1 2583:1 2591:1 2611:1 2622:1 2683:1 2847:2 2860:1 3275:1 3312:1 3527:1 3594:1 4026:1 4142:2 4992:1 5198:1 5204:3 5696:1 5700:1 5856:1 6860:1 6923:1 7286:1 7449:2 8224:1 8253:2 8430:1 8964:1 9913:3 11956:1 12004:1 13039:1 15237:1 16018:2 16170:1 17138:1 17248:2 18227:1 18348:1 18728:1 20779:1 21502:1 22694:1 24291:3 24656:1 24786:7 28349:1 30461:1 31795:1 39900:1 42301:1 
0.001085700936141229 1:5 2:1 4:2 8:2 17:2 24:1 25:3 55:1 195:1 202:1 227:1 371:1 434:1 491:1 533:2 626:1 694:1 700:1 1012:1 1062:1 1086:1 1187:1 1189:1 1214:2 1322:1 1448:1 1467:1 1606:1 1660:1 2141:1 2445:1 2538:1 2722:1 2807:1 2812:1 3018:1 3312:1 3555:1 3622:1 3712:1 3730:2 3950:2 4012:1 4138:1 4793:1 4895:1 5471:2 6035:1 6343:1 7042:1 7160:1 7295:1 8080:1 8342:1 8918:1 10440:1 11913:3 13542:1 14560:1 16080:1 16343:1 17787:2 18670:1 20410:1 20864:1 21693:1 23641:1 28789:1 32759:1 34805:1 36554:1 40805:1 
0.003856999226814908 1:1 2:4 3:1 5:1 8:1 9:1 25:2 31:2 35:1 37:1 54:1 70:2 73:1 78:3 127:2 143:1 249:1 297:1 392:5 406:1 433:1 469:1 510:1 653:1 697:1 737:1 773:1 810:1 942:1 943:1 953:1 984:2 986:1 1104:2 1122:1 1276:1 1483:1 1532:1 1603:1 1693:2 1715:1 1718:1 2092:1 2137:1 2240:1 2466:1 2515:1 2844:2 3124:1 3230:1 3301:4 3495:1 3873:1 4014:1 4046:1 4268:1 4342:1 4446:1 4809:1 4959:1 5204:1 5304:1 5684:1 6154:1 6794:1 6887:1 6986:1 7016:1 7271:1 7561:1 8130:1 8292:1 9232:1 9237:1 9464:1 9906:1 11008:1 11802:1 12008:1 12080:3 12744:2 14813:2 15224:1 17359:2 17851:1 19189:1 19439:1 19672:1 21250:1 22188:1 22314:1 22373:1 23255:1 23316:1 23741:1 25711:1 27415:1 36349:1 38108:1 40093:1 
0.01490381853748727 1:5 3:1 8:1 22:1 23:2 31:1 50:1 62:1 66:2 100:1 227:1 243:1 249:1 297:1 378:3 479:1 504:1 510:1 565:1 650:1 694:1 743:1 753:1 820:3 1109:4 1125:1 1189:1 1637:1 1675:1 1699:1 1727:1 1811:1 2062:1 2397:1 2591:1 2663:1 2779:1 2922:1 3129:2 3365:1 3762:1 4063:1 5215:1 6175:2 11583:2 15958:1 16504:1 21251:1 30794:1 32532:1 
0.008414366993811739 49:1 122:1 214:2 249:1 307:2 453:1 454:1 483:1 825:1 972:1 1020:2 1105:1 1619:1 1687:1 1727:1 2071:1 2389:1 4457:2 5224:1 6817:1 11250:1 11277:1 12024:1 18713:1 19839:1 32448:1 34670:1 41814:1 
0.005420660264832713 1:8 2:2 3:2 9:1 20:2 34:1 36:1 44:1 82:1 87:1 93:1 153:1 154:1 169:1 207:1 363:1 574:1 622:1 651:1 662:3 672:1 818:3 826:1 931:1 949:1 963:1 973:1 1054:1 1093:1 1099:1 1247:1 1270:1 1309:4 1383:1 1439:1 1473:1 1548:1 1663:1 1845:1 1907:1 2182:1 2408:1 2475:1 2591:1 3213:1 3249:1 3525:1 3770:1 3951:1 4095:1 4492:1 4537:1 4610:1 5228:1 5241:1 5691:1 5725:3 5878:1 6734:1 6965:1 7402:2 7519:1 7862:1 8547:1 8695:1 8887:2 8978:1 9564:1 10078:9 10168:1 10640:2 12077:1 12121:1 12371:5 12451:1 12671:1 12681:1 13148:1 13214:1 13883:1 13910:1 14408:1 14585:1 15468:1 16882:1 18967:1 19475:1 20143:1 20872:1 21534:1 22113:1 24122:1 26502:1 27140:3 28029:1 28546:1 30153:1 30156:1 31308:1 32370:1 32619:1 34086:1 37513:1 37815:1 39805:1 42065:1 
0.02350082667218976 5:2 17:1 236:1 288:1 445:1 1657:1 1827:2 1992:1 2211:2 2231:1 3621:2 11011:2 11568:1 29477:1 
0.005348746469287023 1:7 2:4 3:3 10:1 14:1 15:1 19:1 21:1 26:3 30:1 34:1 38:1 52:2 55:1 61:1 78:2 100:1 109:1 124:1 131:1 141:1 148:1 154:1 158:1 178:1 225:1 227:2 231:1 233:1 294:1 319:1 325:1 389:4 412:1 422:1 480:1 544:1 561:1 562:1 604:4 658:1 789:1 1006:1 1103:1 1183:1 1189:1 1236:1 1289:1 1311:1 1400:1 1491:1 1526:1 1657:1 1749:1 1753:1 1817:2 1845:1 1851:1 2091:1 2125:1 2130:1 2528:1 2657:1 2659:1 2725:1 2868:9 2880:1 3049:5 3076:1 3364:1 3389:1 3518:2 3525:1 3541:2 3944:1 4036:2 4475:4 5137:1 6254:1 6638:1 7048:1 7163:1 7708:1 7922:1 8212:1 8278:1 8314:1 9137:1 9299:1 9476:3 9669:5 9742:1 9781:1 10917:1 11532:1 12348:1 12505:1 13060:1 13223:2 13377:1 13408:1 15102:1 15178:1 15265:1 16037:1 16285:1 16951:1 17855:2 18058:2 18571:1 18684:1 20240:1 20429:1 21428:1 21593:1 21731:1 24998:1 25889:1 26929:1 27541:1 27851:2 28200:1 28840:1 29686:2 30259:1 30612:1 32379:1 35754:1 40689:1 40791:1 41830:1 41849:2 42214:1 
0.001130969253743836 4:2 8:1 15:1 40:1 65:1 229:2 444:1 640:2 737:2 930:1 938:1 1257:2 1417:1 1593:2 1679:2 1749:1 1828:1 2106:2 2415:2 2654:1 2662:1 2807:1 2874:1 3259:1 3546:1 3967:1 4723:2 4837:1 4919:1 6291:1 6306:1 6429:1 6744:1 7213:1 9653:1 10046:2 11011:1 12111:1 13083:1 14253:1 14727:1 14760:1 20008:1 21555:1 24463:1 
0.001273104817984809 1:1 2:1 25:1 69:1 78:1 202:2 214:1 225:1 227:1 352:1 389:1 437:3 603:1 699:1 1350:1 1592:1 1619:1 1687:1 1749:2 1780:1 2654:1 2812:2 2840:1 2922:1 3514:1 4140:1 4164:1 4727:1 5195:1 5246:1 5521:1 7768:1 7858:1 7976:1 8543:2 13417:1 15875:1 16243:1 20740:1 22366:1 22899:1 23101:1 23641:1 25066:1 28789:2 29766:1 31530:1 36422:1 
0.001772412746016384 1:1 2:1 6:1 17:2 44:1 85:1 101:1 125:1 192:1 238:1 253:1 299:1 444:1 462:1 539:1 709:1 820:1 842:2 1088:1 1144:1 1323:1 1411:1 1571:1 1593:1 1657:1 1749:1 1876:1 2365:1 2547:1 2632:1 4091:1 4457:5 4477:1 4661:1 4767:1 5003:2 7330:1 9320:1 12606:1 14134:1 18235:1 20023:1 25753:1 26512:1 40327:1 
0.01219995808262624 3:1 107:1 231:1 273:1 299:2 724:1 758:2 1546:1 1766:1 1926:1 2633:2 3346:1 4232:3 4457:1 5617:1 6097:1 6346:1 8628:1 13905:1 14868:1 42194:1 
0.001797305803569891 24:1 36:1 110:1 309:2 430:1 450:1 705:1 750:1 984:1 1195:1 1505:1 2425:1 3009:3 3933:1 4446:1 4638:1 6331:1 8279:2 8924:1 9089:1 14231:1 15818:1 26803:1 28381:1 30388:1 
0.03353411954761641 1:1 26:1 77:1 164:1 175:1 179:1 340:1 773:1 799:1 1365:1 1679:1 2127:1 2460:1 2976:1 3464:1 3514:1 3715:1 4674:1 9264:1 15229:1 17171:1 17642:1 18003:1 19150:2 30354:1 34670:1 37188:1 
0.006274659592330866 1:4 2:2 3:2 4:1 17:1 24:1 47:1 49:1 62:1 68:1 83:1 89:1 97:1 101:1 111:1 131:1 160:1 202:1 211:1 229:1 236:2 238:1 299:1 736:1 819:1 828:1 944:1 1082:1 1086:1 1916:1 2224:1 2231:1 2261:1 2313:1 2702:1 2895:1 3206:2 3209:1 3329:1 3622:1 3635:1 3955:1 4056:1 4261:1 4342:1 5003:1 5705:1 7449:2 8043:1 8438:1 8572:1 8740:1 9913:1 10073:1 10586:1 11011:5 11408:1 14472:1 15291:1 15951:1 17395:1 18137:1 18295:1 20535:1 22432:1 24478:1 25889:1 26010:2 26723:1 26791:1 32586:1 32969:1 35883:1 42529:1 42580:1 
0.01402413693940463 8:2 25:2 26:1 57:1 141:1 227:1 359:1 564:1 1038:1 1189:1 3311:1 3594:1 4543:2 10621:1 14437:2 15383:1 15937:1 16343:2 21799:1 42986:1 
0.004690312660390817 1:2 2:2 3:5 4:1 7:1 8:1 11:3 14:1 44:1 46:1 51:3 59:1 60:1 62:2 64:1 73:1 79:1 89:1 101:1 109:1 111:2 121:1 124:1 126:1 134:2 143:1 150:1 162:1 233:1 258:1 267:2 299:2 339:1 345:1 362:1 376:1 424:1 471:1 492:3 510:1 513:1 548:1 819:1 825:2 979:2 1063:2 1131:1 1424:1 1440:1 1482:1 1630:1 1800:1 2104:1 2170:1 2258:2 2386:1 3378:1 3463:2 4039:1 4159:1 4627:1 5589:1 5951:1 6792:1 7355:1 7424:1 8564:1 10631:1 10734:1 10849:1 11381:1 13435:1 13491:1 13716:1 14239:1 14733:1 15841:1 17834:1 20212:1 20276:1 20488:1 23404:1 24534:1 24961:1 25132:1 29120:1 30136:4 32825:1 35911:1 
0.006065041696949323 1:3 6:1 15:1 46:1 73:1 92:2 114:1 153:1 157:2 160:2 223:1 232:1 328:1 399:2 478:1 648:1 727:1 729:1 783:1 910:1 951:2 1010:1 1217:1 1279:1 1427:1 1744:1 1954:1 1998:1 2385:1 3301:1 3748:1 4253:2 4837:1 4848:1 5404:1 8225:1 8549:1 9215:4 10727:1 12916:1 14270:2 14665:1 19488:1 25000:1 29967:1 30781:1 40815:1 43021:1 
0.001881759944445975 3:2 90:1 129:1 178:1 227:1 433:1 761:1 863:1 1236:1 1241:1 1379:1 1556:2 1626:1 1657:1 1677:1 2415:1 2487:1 2553:1 2770:1 3365:2 3425:1 3438:2 3546:1 4026:1 4089:1 4329:1 6175:1 6346:1 7854:1 7915:1 8790:1 8881:1 9036:1 9269:1 11011:1 11065:1 11913:1 12012:1 12105:1 12522:2 14064:1 19882:1 20774:1 23852:1 24738:1 30451:1 32297:1 38292:1 38982:1 
0.005864245775741918 1:3 2:1 11:1 17:1 57:1 99:1 110:1 140:1 203:1 241:2 278:1 319:1 331:1 414:1 444:1 457:1 613:1 737:1 740:1 764:1 811:1 1096:1 1243:1 1272:1 1322:1 1438:1 1542:1 1608:1 1634:1 1749:1 2220:1 2356:1 2444:1 2632:1 2804:1 2844:1 2955:1 3259:1 3304:2 3470:1 3716:1 4284:1 4464:1 5660:1 6010:1 6819:1 7293:1 7509:1 9619:1 10250:1 10801:1 12666:1 12903:1 12925:1 13035:1 13745:1 13939:1 17160:1 17634:3 20272:1 21681:1 21831:1 22054:1 24548:1 25505:1 28096:1 29477:1 35775:1 39435:1 
0.001587027091883616 1:23 2:7 3:1 8:1 9:1 10:2 11:1 13:2 17:2 18:1 21:1 24:2 31:1 34:3 36:1 47:1 51:1 54:1 70:3 71:1 77:1 80:1 82:1 88:1 90:1 91:1 93:2 102:2 103:1 121:1 129:3 130:1 135:5 162:1 171:1 204:2 207:2 212:1 222:2 238:1 243:1 251:2 257:1 277:1 287:1 308:1 310:1 312:1 318:1 321:2 363:1 376:1 387:1 435:1 440:2 452:1 480:1 488:3 505:1 508:2 513:1 535:1 561:1 562:2 576:2 581:2 586:1 599:2 605:1 617:1 620:1 638:2 670:1 672:1 674:1 690:1 706:7 732:2 752:1 797:1 798:1 805:1 868:1 874:2 895:1 929:1 931:1 951:1 979:2 986:1 1012:1 1019:2 1039:1 1060:1 1073:1 1074:1 1119:1 1145:1 1166:1 1226:1 1232:1 1256:1 1295:1 1327:1 1340:1 1348:1 1353:1 1389:1 1440:1 1448:1 1504:1 1505:1 1548:2 1591:1 1655:3 1663:1 1684:1 1695:1 1723:1 1792:1 1848:1 1907:1 1909:1 1933:1 1936:1 2039:1 2045:2 2096:1 2117:1 2125:3 2154:1 2236:1 2276:1 2278:1 2300:1 2303:1 2335:1 2411:1 2430:1 2481:1 2514:1 2524:1 2555:1 2579:1 2586:1 2612:1 2618:2 2628:1 2711:3 2734:1 2821:1 2839:1 2845:1 2864:1 2869:1 2998:1 3051:1 3183:2 3236:1 3242:1 3247:1 3396:1 3448:1 3488:2 3515:1 3525:1 3812:1 3890:2 3950:1 3952:5 3963:1 4034:1 4221:1 4275:1 4335:3 4371:1 4378:4 4388:2 4457:1 4465:1 4638:2 4768:1 4837:1 4840:1 4959:1 4964:2 4976:1 5051:1 5173:1 5332:1 5425:1 5435:1 5738:2 5892:2 5905:1 6075:1 6081:1 6257:1 6268:1 6273:1 6291:1 6565:1 6734:1 6761:1 6894:1 6964:1 6992:2 7031:1 7056:1 7332:2 7359:2 7441:1 7678:1 7748:1 7854:10 7933:1 8015:1 8193:1 8208:1 8235:2 8691:1 8699:1 8790:1 8980:1 8995:1 9071:2 9263:1 9399:1 9438:4 9694:1 10165:1 10457:3 10490:1 10617:1 10759:1 10765:1 10874:2 10891:1 10910:1 11158:4 11600:1 11700:1 11841:1 11894:1 12241:1 12375:1 12383:1 12615:1 12764:1 13014:1 14058:1 14113:1 14329:1 15031:1 16018:2 16035:1 16519:1 16640:1 16739:1 17088:1 17183:1 18180:1 18473:1 18513:1 18624:1 18656:1 18952:1 19297:1 19603:1 20018:1 20258:1 20317:1 20820:1 20865:2 21529:1 22026:1 22113:1 24533:1 24607:1 24677:1 25281:7 26679:1 26979:2 27243:1 27381:1 27476:1 28020:1 28398:1 29811:2 30233:1 32018:1 34073:1 34245:1 35259:5 37107:1 37153:1 37441:1 38503:1 38682:1 38689:1 39331:1 40030:1 42033:1 42986:1 43102:1 
0.01485964838990946 17:1 371:1 440:1 537:1 771:1 822:1 1528:1 5010:1 5549:1 5987:1 8876:1 23153:1 41191:1 
0.005677645285613979 1:2 8:1 17:1 25:1 70:1 78:1 159:1 162:1 202:1 207:1 227:1 342:1 461:1 526:1 539:1 561:1 636:1 682:1 706:1 978:1 1017:1 1063:1 1166:1 1377:1 1395:1 1465:1 2039:1 2288:1 2618:1 2779:1 2945:1 3199:1 3270:1 4487:1 4493:1 4699:1 5241:1 5255:1 6646:1 7126:1 8267:1 9071:3 9216:1 11988:1 12219:1 12322:1 13428:1 13442:1 18780:1 23450:1 23720:1 24122:1 24871:1 25092:2 25492:1 28789:1 37815:1 40021:1 
0.006662443928965139 15:2 17:1 50:1 61:1 90:1 110:1 115:1 139:2 176:1 249:1 388:1 462:1 537:1 624:2 721:1 738:1 842:1 884:1 932:2 1105:1 1437:1 1509:1 1813:1 2592:1 2611:2 2642:2 3259:1 3414:1 3425:1 3973:1 4109:1 4159:2 4836:1 5549:1 6167:1 6731:1 8349:1 9208:1 11696:1 12629:1 14096:1 14134:1 20819:1 25858:1 27646:1 28860:1 34448:2 34470:1 
0.003974944957117834 1:2 8:2 12:1 17:1 25:4 44:1 46:1 47:1 50:1 60:1 69:1 78:2 100:1 124:1 129:1 136:1 151:1 373:1 397:1 445:1 454:1 537:1 575:1 742:1 771:1 871:1 1021:1 1424:1 1528:1 1583:1 1606:1 1636:1 1671:1 1800:1 2141:1 2270:1 2274:1 2379:1 2467:1 2636:1 2737:1 3365:1 3712:1 3939:1 4026:2 4159:1 4368:1 4380:1 4670:1 4723:2 4956:1 5118:1 5204:1 5456:1 5566:1 7051:1 7643:1 7748:1 8870:1 10280:1 10298:1 10769:1 12849:1 13235:1 13564:1 13833:1 14802:1 15848:1 16049:1 16343:1 16683:1 20260:1 23955:1 24289:1 25974:1 26023:1 27772:1 29988:1 30123:1 33618:1 34498:1 34995:1 41500:1 
0.002188257624742973 1:3 2:5 12:1 22:1 24:1 26:1 49:3 50:1 54:3 86:1 97:1 127:2 130:1 131:1 214:3 236:1 243:1 260:1 276:1 313:2 390:3 417:1 548:1 592:1 610:2 660:2 667:1 675:1 693:1 811:1 819:1 868:1 945:1 972:2 989:1 1009:1 1106:1 1229:1 1296:1 1333:1 1394:1 1448:1 1624:1 1682:1 1776:1 1895:1 1998:1 2007:3 2124:1 2279:1 2339:2 2454:2 2564:1 2601:1 2911:1 2925:3 3175:1 3413:1 3464:1 3758:2 4157:1 4170:1 4193:1 4250:1 4261:1 4594:1 4606:1 4642:1 4860:1 5808:2 5865:1 5896:1 6115:1 6310:4 6410:1 7620:1 7878:5 8827:1 9270:1 9708:1 12266:1 13163:1 13268:1 13714:1 14155:1 16692:1 17182:1 17352:1 17782:1 18813:1 20233:1 21502:1 21522:1 21589:1 23332:1 23850:3 23985:1 25167:1 27630:1 28288:1 29688:1 32476:1 37357:1 38830:1 
0.002658230721086616 1:3 2:2 3:1 9:1 17:1 35:1 49:1 62:1 84:2 98:4 122:1 160:1 170:1 222:1 227:3 255:1 340:1 456:1 743:1 771:1 926:1 1385:4 1549:1 2124:4 2174:1 3038:1 3436:3 5137:1 5241:1 7273:1 7735:2 8959:1 9086:1 9368:4 10090:1 12447:1 15006:1 15249:2 22735:4 22771:1 32693:1 40677:1 
0.003140743087434972 1:2 2:1 11:1 17:1 40:2 46:2 49:1 60:2 61:1 84:1 92:3 108:1 167:1 295:1 352:1 414:2 517:2 536:1 646:1 1679:2 1687:1 1842:1 2205:2 2273:1 2461:2 2666:2 3629:1 3662:1 3854:1 4258:1 4865:1 5510:1 5683:1 6166:1 8549:3 9199:1 9396:1 11713:1 12526:1 15880:1 19224:1 20011:1 24370:2 24464:1 25669:1 41104:1 
0.03300686468043772 1:1 3:1 25:1 253:1 307:1 371:1 758:1 811:1 822:1 1150:1 1385:1 1534:1 2274:1 2389:1 2403:1 2633:1 2900:1 4084:1 7772:1 8338:1 13174:1 16951:1 
0.009997290225844717 1:1 3:1 4:1 5:1 7:2 8:1 18:1 33:2 35:1 44:1 57:1 59:1 71:1 78:1 79:1 107:1 146:2 156:1 174:1 220:1 221:1 248:1 461:1 510:1 528:1 676:2 702:2 737:2 750:1 785:1 1044:1 1407:1 1507:1 1769:1 1783:1 1981:2 2195:1 2222:1 2717:2 3566:1 3931:2 4243:1 4388:1 4446:1 5008:1 5507:1 5831:1 6110:4 6197:1 6235:2 6599:1 6627:1 7620:2 7770:4 7878:1 8359:1 9022:1 13475:1 13563:1 14457:1 15594:2 20085:1 21867:1 23634:1 37528:1 38062:1 
0.0003037276872144697 1:5 2:3 3:2 8:2 17:1 19:4 34:1 35:1 45:1 46:1 47:2 49:4 50:2 60:1 79:1 107:4 110:2 121:1 125:1 129:5 136:2 214:1 217:1 227:2 248:1 268:1 299:1 305:4 307:1 328:3 334:1 362:2 460:5 462:2 526:1 556:1 570:1 614:2 691:2 696:1 886:1 910:1 914:1 962:1 984:1 1039:3 1046:1 1048:1 1063:4 1122:1 1171:2 1173:1 1219:1 1322:1 1546:3 1566:1 1639:1 1850:1 1932:1 1935:3 1962:1 1994:1 2240:1 2243:1 2486:1 2560:1 2687:1 2802:1 2803:1 2900:1 3103:1 3172:1 3205:1 3495:1 3537:1 3593:1 3846:2 3880:1 4068:1 4081:1 4225:1 4502:4 4642:1 4871:1 5157:1 5348:1 5377:3 5454:1 5899:1 6060:2 6077:2 6294:1 6404:1 6806:1 6949:2 7200:1 7397:3 7478:1 7673:1 7777:2 7787:1 8465:1 8467:1 9805:1 9893:1 10599:1 10764:3 10801:1 11844:1 12375:1 12740:2 13759:1 13764:1 13793:1 13861:1 14085:2 14474:1 14521:2 14582:1 14704:1 14756:1 14965:1 15649:1 15912:1 16243:1 17359:1 18301:2 18374:1 19175:1 19874:1 20037:1 23083:1 23292:1 23501:1 23841:1 24401:1 24764:1 24985:1 25148:1 27064:1 27826:1 28448:1 32286:1 32471:1 33366:1 
0.006172989612863813 1:2 3:1 11:1 110:1 127:1 135:1 140:1 143:1 220:1 231:3 273:1 306:2 313:3 390:1 564:1 653:1 660:2 688:1 764:1 771:1 783:1 1293:1 1379:1 1479:1 2052:2 2309:1 2344:1 2945:1 2976:1 3106:3 3167:1 3596:2 3601:1 3614:1 4950:1 5385:1 5634:1 5651:2 5976:1 7959:1 9036:1 9320:1 10348:1 13628:1 15713:2 16272:1 17462:1 22628:1 29267:1 30697:1 36271:1 36899:1 38711:2 
0.003747825614287365 1:1 11:3 22:1 54:2 57:1 72:3 88:1 99:1 124:1 220:1 236:3 258:1 336:3 352:1 404:1 418:1 441:1 445:3 493:2 523:1 591:1 624:1 642:1 660:1 773:1 777:1 869:1 932:1 1240:1 1249:1 1318:1 1425:1 1626:1 1740:1 1802:1 1879:1 1919:2 2022:1 2080:1 2118:1 2370:1 2755:1 3391:1 3395:1 4894:1 5375:1 5894:2 7372:1 7453:1 7657:1 7948:1 7993:1 9165:1 10099:1 10423:1 13707:1 16127:1 16500:1 16947:1 17564:1 22248:1 25374:1 41104:1 
0.005012115277483616 1:1 8:1 22:1 116:1 178:1 187:1 249:1 267:1 389:1 444:1 462:1 473:1 771:2 1098:1 1250:2 1259:1 1548:1 1563:1 2780:1 2839:1 2898:1 3365:1 3407:1 5168:2 8871:1 9476:2 12522:1 13223:1 13647:1 18549:1 27566:1 41849:2 
0.006627542814701399 1:6 2:1 3:1 24:1 26:1 31:1 45:1 50:1 60:1 102:1 114:1 124:1 144:1 148:1 164:1 212:1 229:1 236:1 308:1 358:1 366:1 369:1 396:1 425:1 503:1 514:1 539:1 558:1 576:1 637:1 674:1 804:1 844:1 887:1 927:1 962:1 1116:1 1265:1 1514:1 1672:1 1718:1 1804:1 1846:2 1848:1 1961:1 2389:1 2396:1 2600:1 2835:3 2984:1 2990:1 3410:1 3525:1 4086:1 4136:1 4319:2 4537:1 5013:1 5057:3 5198:1 5202:1 5480:1 5634:1 5724:1 5732:1 6744:1 6771:1 7031:1 7402:1 8119:1 8194:1 9149:1 11122:1 11654:1 11740:1 12576:1 13807:1 14124:1 16225:1 16232:1 17570:1 18832:2 19245:1 20437:1 22166:2 22634:1 22750:1 25281:1 26452:1 26632:1 30853:1 32969:2 36900:1 40977:2 41111:1 
0.002049183395436199 1:4 2:2 3:1 5:1 8:1 12:2 22:2 40:1 58:1 73:1 77:1 86:1 103:1 107:2 117:1 121:1 129:1 160:2 170:1 185:4 204:1 212:1 220:1 227:2 233:1 234:2 253:2 254:1 282:2 300:1 311:1 329:1 336:1 359:1 376:1 380:1 422:3 444:1 445:1 477:1 493:1 542:2 695:1 696:1 718:1 731:1 740:1 741:1 747:1 897:1 904:2 913:1 958:4 1031:1 1188:1 1241:1 1452:1 1479:1 1532:1 1546:1 1576:1 1672:1 1740:1 1820:2 1844:1 1909:4 1960:1 1990:1 2106:1 2107:1 2158:1 2170:1 2195:1 2246:1 2256:1 2274:1 2315:1 2353:1 2392:1 2408:1 2717:1 3236:1 3256:2 3351:1 3366:1 3778:1 3865:1 4134:1 4203:1 4228:1 4380:1 4422:1 4625:2 4649:1 4706:1 4753:1 4774:1 4780:1 4783:1 4784:1 4839:1 4971:1 5015:1 5171:1 5272:1 5429:1 5618:1 5635:1 5994:1 6096:1 6247:2 6374:1 6432:2 6746:1 7472:1 7694:1 7850:1 8329:2 8397:2 8453:2 8614:1 8872:1 9089:1 9490:1 10211:1 10273:1 10775:1 10843:1 10995:3 11214:1 11224:1 11665:1 11712:1 12792:1 12957:1 12994:1 13022:1 13335:1 13587:1 13750:1 14033:1 14036:1 15761:1 15868:1 20053:1 21221:1 21523:1 21948:1 25967:1 26359:1 29908:1 33827:1 37309:1 
0.003472088927211672 1:1 6:2 15:2 17:6 22:1 49:3 78:1 110:1 136:1 214:1 227:2 236:5 255:1 338:2 416:1 462:1 466:1 624:1 643:1 706:2 718:1 771:1 932:7 1127:1 1566:1 1626:5 1845:1 1879:1 1896:1 1934:5 2056:1 2141:1 2222:2 2389:1 2530:2 2642:1 2709:2 2984:1 3259:1 3528:1 3831:1 3906:2 4056:1 4335:2 4725:1 5038:1 5307:1 5717:2 6582:1 8628:1 9071:1 9783:1 11393:1 12182:2 12481:1 13064:1 14218:1 14704:1 16306:1 22023:1 24108:1 27175:2 29416:3 31487:1 34498:1 35178:1 36848:1 39985:2 43145:1 
0.018344551403975 5:1 6:1 8:1 12:1 25:2 30:1 44:1 72:2 214:1 262:1 306:1 737:1 1213:1 1557:1 1660:1 2812:1 2882:1 3525:1 3864:1 4112:1 4780:1 5121:1 5137:1 5490:2 7090:1 7092:1 10057:1 11632:1 16343:1 20552:1 
0.01099323694051919 1:3 4:2 11:1 25:1 35:1 38:1 54:1 55:1 121:1 143:1 171:1 173:2 227:1 236:1 300:1 301:1 307:1 354:1 362:1 389:1 392:1 455:1 458:1 497:2 571:1 695:1 718:1 921:1 958:1 996:1 1179:2 1250:1 1490:1 1576:1 1754:1 1815:1 1909:2 2156:1 2628:1 2716:1 2850:2 2945:2 3128:1 3537:1 3898:1 4135:1 4489:1 4806:2 4839:1 5641:1 6016:1 6286:1 12126:1 16030:1 17447:1 22430:1 23449:1 27840:1 30822:1 32578:1 33608:1 
0.007570079891924232 1:2 2:1 5:2 17:1 78:3 81:1 109:2 110:1 116:1 145:2 218:5 290:1 305:1 352:1 417:1 449:1 469:2 525:1 567:1 569:1 745:1 943:1 996:1 1086:2 1139:1 1144:1 1166:1 1280:1 1333:1 1395:1 1474:1 1490:1 1794:1 1991:2 2112:2 2258:1 2345:1 2582:1 2637:1 2684:1 3074:1 3297:1 3764:1 3847:1 4026:1 4427:1 4428:1 4878:2 5633:1 6227:1 6935:1 7960:1 10406:1 10658:4 11239:2 11684:1 12701:1 13364:1 13374:1 13789:1 14011:1 14044:1 14741:1 16049:1 16168:1 16323:1 16355:2 17214:1 17222:1 17742:1 18968:1 19492:1 21831:1 22379:1 23101:1 24815:1 25075:1 35341:2 42266:1 
0.002265151591403506 2:2 3:2 4:1 5:1 8:1 12:2 49:3 61:1 84:1 125:1 234:2 249:1 272:1 289:1 311:1 312:1 340:1 359:1 440:1 445:1 538:1 630:1 709:1 822:3 900:1 984:1 1001:1 1139:1 1556:1 1586:1 1835:1 1882:1 2139:1 2963:1 3135:4 3141:1 3212:1 3281:1 3311:1 3357:1 4307:1 4439:1 5459:1 6047:2 6082:2 6121:1 6568:1 7514:1 8268:1 8628:3 8858:1 9036:1 9781:1 10695:1 11525:1 12617:1 13061:1 13853:1 14249:1 15097:6 15218:1 17012:1 17893:1 19228:1 22348:2 22476:1 23226:1 24806:1 36225:1 38922:1 
0.007032443457705295 1:3 2:1 20:1 26:1 38:1 57:1 84:1 103:1 122:1 227:2 294:1 456:1 562:1 771:1 825:1 917:1 1439:1 1740:1 2195:1 2348:1 2592:1 3464:1 3762:1 4551:2 4746:1 6607:1 10253:1 13831:2 15908:1 16790:1 16804:1 17605:1 18181:1 24739:1 38716:1 38942:1 
0.003113917853244063 1:1 2:1 6:1 8:1 17:1 25:1 40:1 65:2 102:1 115:1 186:2 192:1 227:1 233:1 253:1 268:1 295:1 299:1 309:1 362:3 392:1 437:1 535:1 573:1 636:1 671:1 688:1 696:1 737:2 793:1 811:1 905:1 962:1 1289:1 1479:1 1517:1 1654:1 1662:1 1700:1 1740:1 1823:1 1883:1 2000:1 2481:1 2654:1 3243:1 3395:1 3864:1 4386:2 5003:1 5137:1 5307:1 7354:1 7620:4 8016:2 8781:1 8908:2 9569:1 10327:1 12443:1 25281:2 28063:1 30612:1 33549:1 35411:1 42329:2 43074:1 
0.00457627979279144 3:1 11:1 17:1 117:1 204:1 284:1 737:2 811:1 849:1 1258:1 2418:1 3212:1 3259:1 3347:1 3881:1 10847:2 17634:2 23626:1 
0.004588159525710485 8:1 12:3 101:2 107:1 126:1 150:1 362:1 418:1 422:3 696:1 962:1 965:1 1546:1 1879:1 1883:1 2125:1 2572:2 2968:1 4469:1 4822:1 5714:1 6016:1 6247:1 6581:1 6594:1 9368:1 13542:1 15181:3 15399:3 17954:1 22042:1 37505:1 
0.002697287834340492 1:2 3:2 8:1 11:5 14:1 17:1 40:1 57:1 87:1 117:1 127:2 129:1 185:2 258:1 359:1 388:2 432:1 539:1 542:1 578:1 610:1 642:1 753:1 811:2 822:1 825:1 900:1 1177:1 1258:1 1298:4 1815:1 1862:1 2107:1 2132:1 2211:1 2249:1 2331:1 2385:3 2672:1 2836:3 2949:1 3109:1 3165:3 3240:1 3378:1 3437:3 3845:1 3929:1 4524:1 4674:1 4952:1 6429:1 6827:1 10000:1 12322:1 12891:1 14361:1 17240:1 20072:1 21064:1 22042:1 25822:1 29799:1 34384:1 34638:1 37540:2 
0.005611241961053711 1:1 3:1 4:1 10:1 15:1 17:1 49:1 84:1 106:1 107:1 175:1 202:1 227:1 273:1 407:1 422:2 497:1 542:1 932:1 962:1 1236:1 1288:1 1528:1 1546:3 1970:1 2759:1 2882:1 4114:1 5118:1 5840:1 6377:1 8781:1 9011:1 13417:1 15206:5 38765:2 
0.01136481405986774 1:1 8:1 15:1 40:1 116:1 139:1 178:2 696:1 794:2 886:1 1137:1 1758:2 2176:2 2391:1 2592:1 2722:1 2872:2 4502:1 8022:1 15563:1 16569:1 18360:1 24853:1 25148:1 32481:2 34786:1 41329:1 
0.001126040685705903 1:3 8:1 46:4 60:1 62:3 78:1 91:1 96:1 99:1 101:2 120:2 122:1 135:1 136:1 156:1 221:1 223:1 235:1 328:1 372:1 395:3 567:1 653:1 682:1 728:1 774:1 844:1 958:1 959:1 975:1 1009:1 1250:1 1397:4 1510:1 1534:1 1543:2 1858:1 2286:1 2441:1 2479:2 2835:3 3248:1 3469:1 3671:1 3692:1 4185:1 4458:1 5404:1 5683:1 6288:1 6592:1 6860:1 8421:3 9680:1 10444:1 11121:1 11749:1 12089:1 13941:1 15578:1 16317:3 17342:1 19382:1 20161:1 21390:1 22449:1 22844:1 23167:1 23206:1 30193:2 38844:1 38938:1 40464:1 
0.000863015421559578 1:2 2:1 5:1 8:1 17:1 31:1 35:1 46:2 49:1 60:1 62:2 86:6 90:1 91:1 101:2 125:1 130:1 204:1 285:2 326:1 344:1 357:1 360:1 362:1 372:1 393:1 443:1 468:3 483:1 569:1 591:1 653:1 728:1 1140:1 1195:1 1297:1 1447:1 1571:1 2092:1 2258:1 2331:1 2595:1 2650:1 2663:1 2770:1 2915:1 3200:1 3309:1 3330:1 3648:1 3861:1 3973:1 4229:1 4250:1 4282:1 4441:1 4451:1 4470:1 5157:1 6904:1 6946:1 7406:1 8099:1 8349:1 9680:1 9780:1 10444:1 10760:1 12059:1 12089:1 12830:1 14123:1 14314:1 14357:1 14851:1 16624:1 17789:2 19730:1 20542:1 22207:1 23561:1 25424:1 29598:2 30501:1 33363:1 33585:2 37598:1 
0.0003063241376877739 1:6 2:3 9:1 12:1 28:3 35:1 48:1 83:1 101:1 110:1 114:1 122:3 130:1 135:2 148:1 170:1 179:1 183:1 188:2 204:2 243:2 250:1 253:2 269:1 341:2 350:1 360:2 369:1 387:1 389:2 390:1 417:1 437:1 453:1 456:1 462:1 470:1 500:2 506:1 602:1 624:1 717:1 724:1 727:1 735:1 745:1 770:1 777:1 780:1 809:1 826:1 843:5 1038:3 1086:1 1135:2 1250:1 1277:1 1319:1 1370:1 1388:2 1425:1 1426:3 1446:1 1447:1 1464:1 1502:1 1514:1 1517:1 1610:1 1630:1 1644:1 1675:1 1677:1 1689:1 1750:1 1765:1 1873:1 1951:1 1985:2 2016:1 2024:3 2102:1 2142:2 2271:2 2485:1 2566:1 2666:1 2688:1 2922:1 2934:1 3329:1 3440:1 3442:1 3596:1 3621:1 3684:1 3687:1 3869:1 4185:1 4203:1 4206:1 4305:1 5015:1 5139:2 5205:1 5289:1 5348:1 5530:1 5588:1 5597:1 5605:3 5618:1 5748:1 5808:1 6274:1 6393:2 6449:1 6547:1 6675:1 6689:1 6878:1 6924:1 7382:1 7695:1 7702:1 7881:1 7924:1 8564:1 8681:1 8911:1 9029:1 9295:1 9448:2 9780:1 10000:1 10975:1 11145:1 11173:1 11193:1 11407:1 11597:8 11653:1 11687:1 11918:1 12242:1 12311:1 12322:1 12435:1 13041:1 13431:1 13608:1 13886:1 14178:1 14203:1 14300:1 14851:2 14857:1 14899:2 15565:1 16044:1 17392:3 17410:1 17754:1 17770:1 18429:3 18625:1 20701:1 21283:1 22238:1 22868:1 23020:1 23039:1 23583:1 23887:1 24988:1 25701:1 25726:1 29543:1 32181:1 34040:1 34351:1 35792:1 35901:7 36020:1 39419:1 
0.007557943831656434 1:4 2:1 3:1 9:2 13:1 19:1 22:3 27:2 31:1 46:2 60:1 62:3 63:1 111:3 114:1 133:1 171:1 174:1 183:1 356:1 357:1 372:1 436:1 443:1 510:1 627:1 630:1 653:1 1009:1 1090:1 1124:1 1192:1 1273:1 1365:1 1414:1 1456:1 1699:1 1893:1 2108:1 2195:2 2357:1 2438:1 2580:1 3128:1 3170:2 3176:1 3235:1 3469:1 3973:1 4444:1 4960:1 5026:1 5274:1 5468:1 5983:1 6677:1 6991:1 8365:1 8424:1 8876:2 8943:1 9802:1 10222:1 13282:1 20737:1 20950:3 
0.0006691749919849498 1:13 2:3 3:1 4:1 5:2 8:4 9:2 18:1 20:2 28:2 35:1 51:1 52:1 56:2 62:2 79:2 80:1 87:1 101:1 105:5 107:1 108:1 121:1 130:1 135:1 136:2 141:1 143:1 144:1 154:1 156:1 167:2 180:1 192:1 193:2 220:2 221:2 230:1 250:1 251:1 252:1 255:1 257:1 274:1 276:1 283:1 295:3 307:1 315:1 328:1 329:1 358:1 361:1 369:2 389:1 435:1 436:1 444:1 445:1 454:1 458:1 467:3 492:1 526:1 528:1 545:1 566:1 570:1 583:1 597:1 613:1 622:1 667:1 682:2 687:1 688:1 721:2 723:1 731:1 745:1 767:1 770:3 795:2 926:2 932:1 956:2 958:1 992:1 1017:2 1022:1 1053:1 1076:2 1095:1 1114:2 1122:2 1131:1 1145:3 1153:1 1249:1 1257:1 1259:1 1340:1 1342:1 1350:1 1448:1 1451:1 1458:1 1467:1 1545:1 1551:1 1672:1 1694:1 1755:1 1789:1 2045:1 2162:1 2287:1 2352:1 2358:2 2440:1 2514:1 2524:1 2556:4 2657:1 2789:1 2805:2 2922:2 2935:1 3362:1 3503:1 3549:2 3582:1 3614:1 3906:2 3951:1 4011:1 4107:1 4185:1 4362:1 4425:1 4594:1 4609:1 4819:1 4952:1 5086:1 5187:1 5188:1 5645:1 5722:9 5789:2 6046:1 6314:2 6352:1 6601:1 6779:2 7115:1 7635:2 7744:1 7796:1 7816:1 8280:2 8289:1 8409:1 8431:1 8607:1 8776:1 8917:1 8979:2 9465:2 9622:1 10144:1 10371:1 10503:2 10784:1 10944:1 11139:1 11277:1 11528:1 11905:1 12879:1 13235:1 13387:10 13525:1 13747:1 13757:1 13834:1 14110:1 15215:2 18831:1 19079:1 19767:1 20032:1 20771:1 21162:1 21913:1 23720:1 24896:1 25178:1 26386:1 28078:1 28204:1 28461:1 34491:1 35453:5 36841:1 37075:1 38079:1 38664:1 39071:1 41833:1 42175:2 
0.004597938235491603 1:3 2:1 52:1 60:1 61:1 62:1 99:1 223:1 226:1 329:1 345:1 372:1 387:1 443:1 498:1 536:1 653:1 721:1 849:1 901:1 1042:1 1046:1 1100:1 1108:1 1558:1 1632:3 1824:1 1847:1 2078:1 2089:1 2253:1 2691:1 2727:1 3012:1 4239:1 4460:1 4512:4 6751:2 6913:1 6999:1 7491:1 7555:3 8881:1 9221:1 9631:2 9920:1 11129:1 11582:1 12055:1 13278:1 13588:1 14781:1 14802:2 21469:1 22111:1 23494:1 26395:1 26715:1 27355:1 33426:1 38317:1 38877:1 
0.009695872182768838 1:4 2:1 3:2 5:3 31:1 62:1 82:1 101:1 142:1 148:1 154:1 174:2 198:1 271:1 281:2 317:1 327:1 372:1 408:1 456:1 475:1 507:1 508:1 564:2 572:1 611:1 653:1 685:1 692:1 707:1 789:2 830:1 860:1 1006:1 1009:1 1033:1 1044:1 2092:1 2103:1 2122:1 2159:1 2184:2 2360:1 2460:1 2478:1 2812:1 3103:1 3509:1 3590:1 3769:3 4287:1 4534:1 4727:3 4754:2 4858:1 5039:1 5169:1 6947:1 8099:1 8247:1 9748:1 11021:1 11309:1 13738:1 13994:1 14876:1 15253:5 16086:1 17072:1 17237:1 17749:1 18138:1 20168:1 22232:1 23560:1 25131:5 25619:1 30105:1 31373:2 31549:1 32448:1 34813:1 35257:1 35491:1 40407:2 40862:1 42799:1 
0.002697626728307602 1:5 5:1 10:1 13:1 22:1 26:1 37:1 45:1 47:1 55:1 59:1 70:1 107:2 109:1 290:1 372:2 456:1 767:1 849:1 901:1 1103:1 1192:1 1303:1 1368:3 1505:1 1546:1 1632:4 1719:1 1824:3 1907:1 2023:3 2357:1 2461:1 2818:1 3474:1 3668:1 3893:2 4212:1 6999:1 7555:3 7596:1 7623:3 8695:1 9864:2 11592:2 11829:1 14802:1 15235:1 19429:2 20834:1 22474:2 24604:1 27600:1 42102:1 
0.005056042522159191 1:1 7:1 9:1 22:1 23:1 60:4 66:1 75:2 91:1 372:1 456:1 486:1 686:1 743:2 823:1 1124:1 1192:1 2471:2 3503:1 4358:2 4688:1 5673:1 6101:1 7388:1 8705:1 10508:1 12764:2 12809:1 15656:1 16310:1 23803:1 25677:1 30150:1 31862:1 
