svm_type c_svc
kernel_type linear
nr_class 2
total_sv 1189
rho 0.672906
label 1 -1
probA -3.00333
probB -0.0500362
nr_sv 505 684
SV
5.548291649218188e-005 1:66 2:15 3:12 4:3 5:1 6:2 8:1 9:2 10:6 12:2 13:5 14:1 19:4 20:3 21:4 24:5 26:6 30:1 32:1 34:1 36:1 37:1 38:1 44:1 47:1 48:1 49:4 51:1 52:1 53:1 55:2 63:2 65:1 68:2 73:1 77:1 80:3 82:1 83:5 84:1 87:1 91:1 94:4 100:1 108:1 113:1 115:2 132:1 134:1 135:1 141:1 143:1 153:1 154:1 164:3 169:1 175:2 176:2 183:2 191:1 192:1 198:2 200:1 201:3 208:1 214:2 217:2 230:3 231:1 234:1 236:1 237:1 244:1 250:1 252:1 259:1 273:4 276:1 280:1 286:1 287:2 308:2 317:2 321:1 329:1 333:2 339:1 343:1 349:2 357:2 363:1 374:2 379:2 382:1 391:1 395:4 398:1 403:2 406:1 422:1 433:2 438:3 447:1 452:1 453:1 457:2 461:1 466:1 471:1 472:1 476:1 501:1 502:1 507:1 514:1 526:1 551:2 560:1 570:1 574:1 586:2 598:1 615:1 648:2 651:2 659:3 707:1 710:1 713:1 716:1 725:1 730:1 748:1 752:1 756:4 757:3 760:2 762:3 763:1 780:1 785:1 789:1 790:1 793:1 817:1 824:1 826:1 828:1 839:1 840:1 858:1 865:2 875:1 886:1 888:1 894:2 896:1 905:2 906:1 910:2 927:1 930:2 949:2 965:1 1000:2 1012:1 1015:1 1034:2 1054:2 1059:1 1061:1 1081:1 1090:1 1106:1 1111:1 1115:1 1129:1 1133:1 1148:1 1159:1 1169:2 1176:1 1183:3 1201:1 1216:1 1217:3 1222:1 1224:1 1230:2 1252:1 1259:1 1268:1 1288:1 1310:1 1316:1 1322:1 1340:1 1341:1 1356:1 1358:1 1361:1 1393:1 1396:1 1409:1 1424:2 1427:1 1429:1 1437:4 1442:1 1469:1 1486:1 1489:1 1497:1 1500:1 1523:1 1527:12 1533:1 1536:2 1547:1 1627:1 1647:1 1726:1 1728:1 1732:1 1736:1 1738:1 1741:1 1756:1 1759:1 1797:1 1817:3 1834:1 1838:1 1853:2 1866:1 1872:1 1875:1 1880:4 1882:1 1898:1 1914:1 1923:1 1926:1 1940:5 1954:1 1986:1 1995:1 2003:8 2019:1 2020:1 2064:1 2076:1 2084:1 2102:2 2103:2 2123:10 2130:1 2182:1 2227:3 2228:1 2232:1 2242:1 2243:1 2244:2 2254:1 2273:1 2275:1 2299:1 2308:1 2321:1 2387:2 2396:1 2408:2 2420:2 2421:1 2462:2 2468:1 2498:2 2500:1 2509:1 2521:1 2571:1 2586:1 2588:4 2608:1 2611:1 2622:1 2649:1 2679:3 2680:1 2681:1 2688:1 2697:2 2707:1 2725:1 2750:1 2752:4 2762:1 2775:1 2786:1 2788:2 2843:1 2857:1 2880:1 2980:1 2987:2 2994:1 3034:1 3086:1 3117:1 3118:1 3127:1 3141:2 3174:1 3210:1 3223:1 3296:3 3298:4 3320:1 3339:9 3349:1 3370:1 3379:1 3408:1 3459:1 3515:1 3548:1 3573:1 3598:1 3656:1 3665:1 3689:2 3691:1 3708:1 3740:1 3745:1 3765:1 3805:1 3852:1 3881:1 3890:1 3916:1 3920:1 3925:1 3927:3 3942:1 4020:2 4028:1 4032:2 4039:1 4092:4 4127:1 4153:6 4166:1 4201:1 4226:2 4256:1 4258:1 4272:1 4282:1 4509:1 4629:1 4636:1 4642:1 4662:1 4676:1 4692:1 4753:1 4781:1 4799:1 4804:1 4812:1 4821:1 4860:1 4871:1 4876:2 4907:1 4924:1 4967:1 4989:1 4998:2 5015:1 5024:1 5057:1 5086:1 5141:1 5142:1 5212:1 5222:1 5227:1 5235:1 5279:1 5327:1 5328:2 5338:1 5346:1 5365:2 5366:1 5394:1 5424:1 5426:1 5592:1 5656:1 5756:1 5763:1 5827:1 5920:1 6009:1 6024:1 6065:1 6121:1 6144:1 6156:1 6204:1 6225:1 6386:1 6414:1 6436:1 6437:1 6449:2 6452:1 6506:1 6513:2 6639:1 6670:1 6741:1 6839:1 6842:2 6899:1 6900:1 6951:1 6979:1 7033:1 7072:1 7083:1 7120:1 7130:1 7278:1 7300:1 7383:1 7416:1 7417:1 7425:1 7468:1 7522:1 7571:1 7576:1 7598:1 7624:1 7626:1 7743:1 7747:1 7752:1 7804:1 7844:1 7884:1 7922:1 7940:1 7942:1 7971:2 8071:1 8079:1 8086:9 8106:3 8111:1 8123:3 8124:3 8237:1 8271:1 8332:1 8361:2 8436:2 8439:1 8460:1 8530:1 8580:1 8634:1 8638:1 8876:1 8939:1 9016:1 9027:1 9058:1 9117:1 9138:2 9217:1 9233:2 9304:1 9329:1 9473:1 9498:3 9568:1 9635:1 9674:1 9722:1 9848:1 9884:2 9895:1 9899:1 9914:1 9977:1 10001:1 10137:1 10180:1 10181:1 10205:1 10261:1 10295:1 10367:1 10384:1 10447:1 10486:1 10489:1 10611:1 10675:1 10714:1 10945:1 10994:1 11027:1 11029:2 11038:3 11055:1 11162:1 11211:1 11228:1 11237:1 11243:1 11414:2 11456:1 11493:2 11587:1 11621:1 11623:1 11632:1 11645:1 11656:2 11784:1 11809:1 11821:1 11847:2 11876:6 11976:1 12038:1 12046:1 12063:1 12081:2 12123:1 12344:1 12438:1 12577:2 12594:1 12661:1 12740:1 12742:1 12757:1 12800:2 12904:1 12968:1 13067:1 13087:1 13100:1 13122:1 13180:6 13201:1 13345:1 13368:1 13475:1 13498:1 13623:1 13645:1 13792:1 13887:9 13977:1 14009:1 14102:1 14196:1 14197:1 14252:1 14261:2 14317:2 14346:1 14350:1 14390:1 14469:1 14614:1 14652:1 14897:1 15227:1 15258:1 15267:1 15287:4 15329:2 15336:1 15340:1 15341:1 15447:1 15469:1 15470:1 15489:1 15521:1 15536:1 15751:1 15995:1 16585:2 16707:1 16821:1 16848:1 17071:1 17139:1 17191:2 17201:2 17258:1 17264:1 17279:1 17675:1 17686:1 17724:1 17740:2 18050:1 18227:1 18410:1 18491:1 18559:1 18588:2 18740:1 18764:1 18803:1 18924:1 19042:1 19070:1 19109:1 19187:1 19257:1 19717:1 19858:1 19877:1 19956:1 20124:1 20280:1 20352:1 20376:1 20469:2 20522:1 20534:1 20571:1 20705:1 20818:1 21134:1 21242:1 21297:1 21478:1 21500:1 21656:2 21684:1 21702:1 21834:1 21842:1 21884:1 22004:1 22233:1 22325:2 22391:1 22691:1 22717:1 22850:1 23107:2 23277:1 23312:1 23373:1 23474:1 23646:1 23693:1 23821:1 23839:4 23872:1 24124:1 24281:1 24549:1 24558:1 24606:1 24636:1 24720:1 25199:1 25468:1 25563:1 25646:2 25904:1 25959:1 26109:1 26210:2 26584:1 26614:1 26822:1 26827:1 26838:1 26842:1 26921:1 26932:1 26949:1 27298:1 27335:1 27365:1 27485:1 27549:1 27743:1 27757:1 27811:1 27827:1 28233:1 28306:1 28321:1 28577:2 28728:1 28937:1 28963:1 29024:1 29124:1 29388:1 30065:1 30184:1 30269:1 30338:1 30677:1 30738:2 31132:1 31328:1 32037:1 32325:1 32345:1 32644:1 32911:1 33000:1 33297:1 33511:1 33747:1 33763:1 34300:1 34324:1 34410:1 34618:1 34623:1 34655:1 34739:1 34746:2 34831:1 35022:1 35093:1 35879:1 36532:1 36678:1 36701:1 36809:1 36938:1 37050:1 37070:1 37145:2 37870:1 37902:1 38186:1 38189:1 38272:1 38330:1 38539:2 38629:1 38809:1 39125:1 39139:1 39757:1 40895:1 41095:1 41459:1 41490:1 41492:1 41724:2 41794:1 41982:1 42600:1 42753:1 42971:1 43218:1 
0.001314287738975813 1:17 2:8 3:1 7:2 11:3 14:1 18:1 21:1 28:2 30:2 31:2 36:2 37:4 38:1 39:1 47:2 48:5 50:1 57:1 62:2 65:1 67:3 77:1 80:2 85:1 87:1 96:1 97:1 98:1 103:1 111:1 126:1 132:4 135:1 137:1 142:1 143:1 144:1 156:1 159:1 170:1 181:6 192:1 206:1 211:1 217:3 239:4 243:1 251:1 256:1 259:2 268:2 289:2 300:2 303:1 308:2 309:5 330:4 334:1 343:1 349:1 361:1 369:1 379:1 380:2 412:1 418:1 422:1 426:1 427:1 431:4 442:1 459:1 475:1 532:1 545:3 548:2 553:2 563:1 565:1 566:1 569:1 574:1 589:1 592:1 607:16 620:2 627:1 648:1 650:2 656:1 671:1 692:1 710:1 711:5 712:1 725:1 760:1 761:1 775:1 779:1 802:1 835:1 838:1 840:1 861:1 887:1 898:1 918:1 926:1 952:1 985:1 990:1 996:2 1024:1 1058:1 1072:1 1077:1 1120:1 1129:1 1133:1 1152:1 1155:2 1172:1 1202:1 1220:1 1253:2 1254:1 1271:1 1284:1 1287:1 1290:2 1300:1 1305:1 1351:2 1386:1 1388:1 1443:1 1450:1 1469:1 1485:5 1487:1 1499:1 1522:1 1524:1 1610:1 1614:1 1622:1 1669:2 1742:1 1767:1 1772:2 1817:1 1844:3 1902:1 1910:1 1949:1 1993:1 2014:5 2044:1 2069:1 2078:1 2172:3 2175:1 2181:1 2224:1 2264:1 2268:1 2347:1 2386:1 2392:1 2396:1 2521:2 2530:1 2549:1 2563:1 2613:1 2635:1 2653:1 2682:1 2684:1 2688:1 2737:1 2742:1 2769:1 2860:2 2972:1 2978:1 3146:1 3150:1 3223:1 3288:1 3323:1 3476:1 3498:1 3537:1 3665:1 3745:1 3871:1 3876:1 3895:1 3958:2 4016:1 4055:1 4097:1 4114:1 4226:1 4255:2 4310:1 4324:1 4349:1 4393:1 4438:1 4597:1 4645:1 4710:2 4722:1 4914:1 4923:1 4935:1 5040:1 5044:1 5045:1 5143:1 5221:1 5228:1 5358:1 5418:2 5532:1 5554:1 5557:1 5621:1 5858:1 5913:1 5982:1 6194:2 6223:1 6290:1 6414:1 6457:1 6497:1 6505:1 6542:1 6593:1 6663:1 6764:1 6871:1 7090:1 7175:1 7458:1 7547:2 7561:1 7648:1 8045:1 8153:1 8290:1 8980:1 9104:1 9288:1 9518:1 9790:1 10133:1 10231:1 10458:1 10641:1 10955:2 10964:1 10988:1 11022:1 11041:1 11066:1 11144:1 11326:1 11522:1 11555:2 11677:1 11856:1 11970:1 12198:1 12314:1 12341:1 12430:1 12431:1 12456:1 12494:1 12591:2 12622:1 12860:1 13013:1 13030:1 13204:2 13343:1 13548:1 13963:1 14105:1 14164:1 14220:1 14315:1 14328:1 14389:1 14418:1 14761:1 14910:1 14958:1 15030:1 15576:1 15672:1 15744:1 15879:1 15902:1 16008:1 16100:1 16246:2 16557:1 16688:1 16746:1 16795:1 17772:1 17942:2 17950:1 17995:2 19783:1 19854:3 20279:1 20912:1 21129:1 21542:1 22090:1 22537:1 22668:1 24446:1 24611:1 25272:1 25290:1 25333:1 26225:1 26332:1 26607:1 26619:1 26730:1 26908:2 26937:2 28500:1 29393:1 29435:1 31705:1 32117:1 32160:1 32273:1 32591:1 32862:2 34868:1 34987:1 35625:8 35896:1 36040:1 36552:1 37106:1 37163:1 37341:1 37587:1 37602:1 41142:1 41552:1 41974:1 42576:1 43212:1 
0.003016794408975409 1:5 2:1 3:1 4:3 6:1 7:1 11:1 14:1 16:1 22:1 23:2 33:1 43:6 45:1 59:1 72:1 74:5 79:1 87:1 90:2 98:1 108:1 151:2 167:1 182:1 205:1 301:1 329:1 335:1 338:1 379:1 548:1 614:2 659:1 661:1 662:1 712:1 715:1 734:1 741:1 773:1 832:2 855:3 885:1 896:1 952:1 1024:1 1102:1 1137:1 1292:1 1390:1 1424:1 1481:1 1511:1 1552:2 1581:1 1612:1 1667:1 1704:1 1762:4 1862:1 2084:1 2139:1 2214:4 2278:1 2280:2 2296:1 2446:1 2494:1 2554:1 2583:1 2844:1 2999:1 3099:1 3148:1 3177:1 3225:1 3288:1 3379:1 3484:1 3624:1 3866:1 4483:1 4842:1 4883:1 5190:1 5310:1 5374:3 5610:2 5646:2 5706:1 6059:1 6062:5 6382:1 6559:1 6809:1 6918:1 7055:1 7110:1 7132:1 7725:1 7734:1 7771:1 8056:3 8118:1 8561:1 9033:1 9421:3 10207:1 10423:1 10605:2 12021:1 12130:1 12200:1 12232:1 12855:1 13860:1 14427:1 14436:1 14668:2 14801:1 15788:1 15907:1 16327:2 16661:1 18492:1 18621:1 19280:1 19342:1 20740:1 21083:2 21652:1 22061:1 23442:1 24358:1 24404:1 24422:1 29355:1 31884:2 32673:1 33649:1 34674:3 34684:2 34692:1 36131:1 37334:1 37440:1 38517:1 42545:1 
0.001644386866205179 1:16 2:4 3:8 9:1 11:1 12:1 14:2 15:1 16:3 19:1 23:1 29:1 31:1 33:3 37:1 40:1 41:2 42:3 43:9 44:1 45:1 51:1 53:1 58:1 64:1 65:1 66:1 74:4 75:4 83:2 85:2 86:1 90:1 91:1 94:1 96:1 98:1 116:1 126:1 135:1 136:1 144:2 150:1 161:5 163:1 165:1 167:2 168:1 170:1 173:1 192:1 198:1 200:1 229:1 249:3 262:2 269:2 285:1 295:1 306:1 314:1 325:1 326:2 336:1 347:1 349:1 358:1 363:2 367:1 373:1 380:1 388:1 409:3 410:1 423:1 436:1 437:1 452:1 461:1 465:1 477:1 480:1 536:2 547:1 557:1 574:1 579:1 610:1 611:2 624:1 641:1 655:2 658:1 659:1 679:2 777:1 788:1 824:1 832:5 836:1 838:1 853:1 855:3 868:1 869:1 882:1 884:1 904:1 950:1 961:1 971:1 983:1 1016:1 1042:1 1263:1 1291:1 1314:1 1330:1 1349:1 1444:2 1501:1 1503:1 1577:1 1588:1 1633:1 1642:2 1686:1 1692:1 1743:2 1761:1 1762:3 1767:1 1810:1 1818:3 1835:1 1838:1 1881:1 1902:1 1915:1 1965:1 1987:1 2075:1 2105:1 2143:1 2157:1 2214:1 2278:1 2301:1 2302:1 2309:1 2378:1 2420:1 2438:1 2451:1 2494:2 2501:2 2547:1 2574:1 2640:1 2729:1 2769:1 2798:1 2856:2 2867:1 2874:1 2883:1 2910:1 2963:1 2978:1 2994:1 3100:1 3252:1 3283:1 3315:1 3329:1 3371:2 3545:1 3656:1 3789:1 3791:2 3839:1 4022:1 4061:1 4083:1 4152:1 4173:1 4263:1 4296:1 4483:1 4504:1 4844:1 4968:1 5168:2 5190:1 5224:1 5310:1 5352:1 5428:1 5556:1 5620:1 5658:1 5686:1 5749:1 5798:1 5969:2 6062:5 6214:1 6245:1 6307:1 6643:2 6739:1 6860:1 6949:1 7055:1 7132:1 7215:1 7331:1 7406:1 7453:1 7909:1 7924:1 8053:1 8148:1 8270:1 8291:1 8869:1 8939:1 8953:1 9347:1 9349:1 9397:1 9533:1 9565:1 9852:1 10108:1 10289:1 10457:1 10500:1 10673:1 10705:1 10767:1 10771:1 10789:1 10978:1 11111:1 11366:1 11405:1 11466:1 11584:1 11630:1 11631:1 11641:1 11689:1 11925:2 12310:1 13285:1 13519:1 13575:1 13606:1 14094:1 14260:5 14349:1 14350:1 14411:1 14583:2 14587:1 15250:1 15451:1 15572:1 16070:1 16737:1 17091:1 17874:1 18090:1 18177:1 18536:1 18545:1 18844:1 18873:1 19345:1 19398:1 19764:1 20768:1 20776:1 21618:1 22386:1 22874:1 22960:1 23002:1 23150:1 24019:1 26263:1 26439:4 27702:1 27766:1 27777:1 28189:1 28269:1 28493:1 28582:2 28941:1 29483:1 29608:1 31181:1 31282:1 31476:1 31642:1 32000:1 32721:1 32802:1 33310:1 33620:1 37026:1 37808:1 39577:1 40989:2 41890:1 
0.0001198001574086312 1:11 2:7 3:2 9:3 12:4 13:1 19:2 20:3 24:1 44:1 45:2 47:2 55:3 68:1 81:1 83:1 93:1 95:1 115:1 118:2 148:1 174:1 182:2 191:1 232:1 262:1 314:1 326:1 334:1 338:8 343:1 377:1 385:1 400:1 438:1 507:1 520:2 531:1 534:2 560:1 563:2 585:1 665:1 704:1 734:1 738:4 801:1 813:1 844:1 914:1 919:1 967:1 1000:1 1043:1 1058:1 1224:1 1244:3 1248:1 1281:1 1321:1 1359:1 1408:1 1419:1 1450:1 1501:1 1503:2 1543:1 1551:1 1604:1 1649:1 1711:1 1728:1 1732:1 1746:1 1752:1 1792:1 1834:1 2025:1 2264:1 2334:1 2345:2 2351:2 2531:2 2772:1 2787:1 2835:1 2857:2 2902:1 2942:1 2985:1 3211:1 3350:1 3497:1 3756:1 3794:1 3976:1 4085:1 4277:1 4416:2 4430:1 4467:1 4526:1 4643:1 5007:1 5032:1 5172:1 5406:1 5533:1 5547:1 5570:1 5650:1 5668:5 5749:1 5755:1 5876:1 5928:1 6025:1 6055:2 6123:1 6205:2 6300:1 6343:1 6412:1 6417:1 6659:7 6757:1 6894:1 7020:1 7046:1 7109:1 7266:1 7327:1 7340:1 7552:1 7595:1 7648:1 7696:3 7735:1 7762:1 7845:1 8099:1 8153:1 8247:1 8417:1 8501:1 8563:1 8582:1 8622:1 8915:1 9095:1 9493:1 9551:1 9658:1 9753:1 10209:1 10384:1 10827:1 10895:1 11031:2 11107:1 11370:1 11792:1 11805:1 11833:1 12216:4 12222:1 12246:1 12451:1 12783:1 12801:1 12877:1 12891:1 12922:1 13022:1 13126:2 13176:1 13194:2 13343:1 13492:1 13503:1 14166:1 14252:1 14270:1 14363:1 14783:1 15529:1 15571:1 15601:2 15639:1 16073:1 16136:1 16436:1 16635:1 17180:1 17409:1 17507:1 18127:2 18550:1 18580:2 18701:1 19090:1 20368:1 20442:1 20676:1 20714:1 20872:1 20894:1 21185:1 21500:1 21559:1 21640:1 21780:1 22130:2 22538:2 22545:1 22855:1 23006:1 23177:1 23341:1 23465:2 23676:1 23721:1 23766:1 24037:1 24603:1 24734:1 25240:1 25288:1 25394:1 26115:2 26122:1 26489:1 26904:3 27234:1 27345:1 27421:1 27577:1 27704:1 27910:1 28323:1 28637:1 28720:1 28740:1 28996:1 29121:1 29389:1 29407:1 30032:1 30863:1 30992:1 31582:1 31699:2 31991:4 32016:2 32661:1 32859:1 33373:1 33806:1 34270:1 34454:1 35061:1 35655:1 36067:1 36262:1 36550:1 36869:1 37168:1 37413:1 38549:1 38838:1 38878:1 38988:1 39978:1 40328:1 40494:1 41320:1 41639:1 41911:1 42631:1 42660:1 42896:1 
0.0006317975427516226 1:28 2:12 3:1 4:8 7:8 8:1 9:5 10:2 11:4 13:3 14:4 15:1 17:1 18:3 19:2 21:2 22:1 23:1 24:1 26:3 28:2 31:2 32:1 34:3 35:3 36:1 39:3 45:1 46:10 47:2 48:7 50:1 51:1 53:1 54:2 57:2 62:2 64:2 67:2 69:3 70:2 73:1 80:2 81:1 82:1 83:1 86:1 95:1 98:3 100:3 103:1 108:4 109:2 111:1 113:2 114:1 115:3 116:1 121:1 124:1 126:2 130:3 131:1 132:2 135:1 138:1 139:1 143:2 144:1 145:1 150:1 154:1 158:1 160:1 161:1 162:1 170:1 171:1 172:1 173:3 193:1 201:1 203:1 204:1 211:2 216:1 217:2 218:1 220:2 222:1 223:2 239:1 244:2 250:1 252:1 253:1 259:1 260:1 261:2 271:4 274:3 275:2 276:2 277:5 283:3 285:5 287:1 289:1 309:4 339:1 347:2 349:1 353:1 355:1 356:1 366:1 374:1 388:1 396:3 407:1 414:1 420:1 425:1 427:1 428:1 437:1 439:1 446:1 456:1 459:1 460:1 465:2 475:1 476:1 481:2 485:1 500:3 505:1 508:1 510:1 515:2 516:1 532:1 540:3 541:1 546:1 547:15 559:3 570:1 598:1 617:1 620:1 627:2 634:1 648:1 656:1 671:2 677:1 684:1 698:2 699:1 700:1 702:1 708:4 712:1 725:1 728:1 744:1 746:3 760:1 762:1 767:3 779:1 800:1 808:2 810:1 813:1 822:2 831:1 838:2 850:4 891:1 894:1 895:1 896:1 901:1 918:1 922:2 927:2 950:3 953:1 966:1 996:1 1006:1 1014:1 1038:1 1048:2 1049:1 1058:1 1090:5 1116:3 1117:1 1120:1 1124:1 1131:2 1135:2 1155:2 1195:1 1207:1 1211:1 1225:2 1226:1 1227:1 1237:2 1238:2 1260:1 1283:1 1327:1 1329:1 1337:1 1344:1 1359:2 1361:1 1362:1 1386:1 1388:1 1422:9 1443:1 1450:1 1455:1 1464:1 1466:1 1481:1 1492:1 1526:1 1536:2 1555:1 1565:1 1567:1 1569:1 1572:34 1604:1 1609:1 1622:2 1623:1 1633:1 1641:1 1650:4 1651:3 1667:2 1674:1 1713:1 1733:1 1737:2 1761:1 1764:1 1772:2 1795:1 1797:1 1856:1 1868:1 1906:1 1920:1 1925:1 1933:1 1936:2 1937:1 1973:1 1975:1 2005:1 2020:1 2024:1 2032:4 2042:1 2051:1 2060:1 2068:1 2070:1 2085:2 2090:1 2095:2 2108:2 2135:1 2148:1 2159:1 2233:1 2285:1 2297:1 2320:1 2322:1 2327:1 2335:1 2346:1 2349:1 2374:7 2395:2 2426:1 2451:1 2478:1 2490:1 2500:1 2502:3 2517:1 2540:1 2583:1 2597:1 2599:1 2603:2 2623:2 2627:1 2655:2 2729:1 2766:1 2777:2 2786:1 2794:1 2814:2 2825:1 2858:1 2864:2 2880:1 2883:1 2891:2 2892:1 3019:1 3036:5 3073:1 3106:2 3110:1 3148:1 3149:1 3150:1 3170:12 3246:1 3283:1 3290:1 3388:1 3419:1 3499:1 3527:1 3544:1 3556:1 3662:1 3685:1 3689:1 3765:1 3773:1 3814:1 3858:5 3859:1 3867:1 3871:1 3931:1 3998:1 4113:1 4169:1 4285:1 4400:1 4406:1 4418:1 4420:1 4427:1 4440:1 4467:1 4563:1 4601:1 4648:1 4669:1 4712:1 4732:1 4742:1 4802:1 4844:1 4858:1 4937:1 5016:1 5023:1 5025:1 5100:1 5134:1 5211:1 5216:1 5248:1 5326:1 5329:1 5330:1 5357:1 5358:1 5401:1 5516:1 5518:1 5598:1 5668:1 5760:2 5784:1 5841:1 6081:1 6101:1 6103:2 6122:1 6171:1 6223:1 6239:1 6272:1 6291:1 6300:1 6343:1 6345:2 6434:1 6448:1 6452:1 6477:1 6481:1 6523:1 6593:1 6615:1 6618:1 6649:1 6658:1 6763:1 6782:1 6808:1 6895:1 6931:1 6949:1 6991:1 7115:1 7136:1 7190:1 7206:2 7306:1 7322:1 7326:1 7365:1 7367:1 7475:1 7532:1 7547:1 7560:1 7574:1 7755:1 7869:1 7895:1 7928:1 7998:1 8138:1 8267:1 8373:1 8395:1 8430:1 8452:1 8644:1 8650:2 8655:2 8661:1 8671:1 8793:1 8898:1 9064:1 9075:1 9222:1 9267:1 9270:1 9316:2 9437:1 9475:1 9574:1 9765:1 9814:2 9915:1 9922:1 9973:1 10045:1 10124:1 10217:1 10278:1 10340:1 10535:1 10546:1 10660:1 10806:2 10829:1 10890:1 11169:1 11216:1 11334:1 11355:18 11414:1 11431:1 11688:1 11994:1 12049:1 12146:1 12198:1 12229:1 12289:1 12766:1 12783:1 12789:1 12816:1 12849:1 13011:1 13050:1 13071:1 13178:2 13187:1 13229:1 13345:1 13502:1 13696:1 13753:1 13790:1 13925:2 13956:1 14026:1 14175:2 14210:1 14220:1 14328:1 14355:1 14503:1 14519:1 14855:3 16246:1 16310:1 16964:1 17081:1 17148:1 17194:1 17300:1 17397:1 17869:1 18025:1 18106:1 18490:1 18656:3 18762:1 18873:1 19178:1 19312:1 19595:1 19824:1 19947:1 20047:1 20172:1 20195:1 20748:1 20818:1 20889:1 21287:1 21873:1 22216:1 22646:1 22649:1 22656:1 22766:1 22906:1 23035:1 23110:1 23325:1 23357:1 23403:1 23579:1 23663:1 24012:1 24045:1 24121:1 24189:1 24953:1 25200:1 25308:1 25312:2 25413:1 25890:1 26295:1 26360:2 26466:1 27583:1 27957:1 28118:1 28672:1 29295:1 29652:1 29925:1 30116:1 30205:1 30470:1 30929:1 30964:1 31877:1 31940:1 32311:1 32418:1 33558:1 34414:1 34514:1 34827:1 34876:1 34877:1 35651:1 35687:1 36238:2 37247:2 37427:1 37895:1 38043:1 39105:1 39214:1 40584:1 41723:2 41890:1 42379:1 
0.001568666815532791 1:3 2:2 3:1 4:1 8:1 59:1 68:1 80:1 99:3 118:6 143:1 149:1 178:3 185:1 187:3 197:2 202:2 203:1 204:1 231:3 243:2 248:2 269:2 308:1 404:2 437:3 464:1 474:4 493:1 525:3 570:1 660:1 709:1 727:1 745:1 773:1 783:1 825:1 868:1 899:1 900:1 926:1 962:1 998:1 1025:1 1056:2 1091:2 1152:1 1171:1 1246:2 1323:1 1333:1 1433:1 1451:2 1457:1 1490:2 1519:5 1592:1 1765:2 2008:1 2036:1 2239:3 2281:1 2441:1 2584:4 2813:1 2817:2 2934:1 3267:2 3971:2 3972:1 3992:1 4035:1 4350:2 4550:1 4685:1 4765:1 4803:1 4951:1 5113:1 5219:1 5249:1 5287:1 5317:1 5353:1 6049:1 6121:1 6329:1 6536:3 6543:2 6562:1 6661:1 7396:1 7635:1 7900:1 8076:1 8426:1 9054:1 9453:4 9842:1 11786:2 13440:2 13714:1 16027:1 16366:3 16692:1 18635:2 21629:1 21648:1 21785:1 22456:1 23904:1 32036:1 39781:1 41667:1 
0.0001685728191369388 1:24 2:5 3:7 7:2 9:1 11:3 12:1 14:1 15:1 19:1 27:1 30:1 32:2 34:1 39:2 45:2 47:1 50:1 57:3 64:1 65:1 79:1 88:3 90:1 113:1 114:1 151:1 162:1 166:1 170:1 171:2 183:1 192:1 195:1 239:1 240:2 244:1 252:1 274:1 282:1 291:1 300:1 321:1 336:1 349:1 367:1 425:1 427:1 448:1 471:1 482:1 491:1 508:1 511:3 513:1 531:2 552:1 557:1 573:1 603:1 613:1 617:1 629:1 649:1 651:1 662:6 670:1 712:1 719:1 832:5 836:1 845:2 848:2 905:1 964:1 967:1 983:1 1025:1 1059:2 1093:1 1131:1 1134:2 1287:2 1317:1 1404:1 1431:1 1468:1 1485:2 1563:1 1565:1 1612:2 1690:1 1766:1 1789:1 1811:1 1817:1 1927:1 1932:1 1937:1 1979:1 1994:1 2035:2 2051:1 2054:1 2058:1 2107:1 2154:1 2335:1 2369:1 2381:1 2451:2 2519:1 2602:1 2644:1 2645:1 2648:1 2696:1 2741:1 2834:1 2911:1 3016:1 3077:1 3162:2 3255:1 3489:1 3638:1 3716:1 3730:1 3749:1 3755:1 3770:1 3787:3 3837:1 3839:1 3915:1 4008:2 4025:1 4050:1 4278:1 4383:1 4389:1 4610:1 4701:1 4813:2 4847:1 5032:1 5052:3 5139:1 5181:1 5221:1 5228:1 5235:1 5288:1 5313:4 5343:1 5362:1 5401:1 5620:2 5697:2 5770:2 5821:1 5925:1 5947:1 5956:1 5970:1 6092:1 6132:1 6145:1 6246:1 6499:1 6506:1 6550:1 6645:1 7074:1 7132:1 7302:1 7545:3 7636:1 7803:1 7862:2 7887:1 7899:1 7910:1 8377:1 8563:1 8569:1 9062:1 9161:1 9459:1 9490:1 9530:21 9571:1 10029:1 10101:1 10377:1 10390:1 10517:1 10626:3 11792:1 11896:1 11965:1 12087:1 12268:1 12498:1 12721:2 13042:1 13328:2 14334:1 14388:1 14713:1 14871:1 14993:1 15339:1 15793:1 15856:1 16069:1 16747:6 16925:1 17403:1 17476:1 17699:1 17999:1 18200:1 18495:1 19357:1 20494:5 21054:1 21113:1 22193:1 22204:1 22352:2 22539:1 23454:1 24090:1 24415:1 24549:1 24599:1 24957:1 25312:2 25806:1 25879:1 25997:2 26004:1 26454:1 26913:1 27295:1 27437:1 30372:1 30686:1 30859:1 31628:1 32204:1 32360:2 32391:1 32853:2 32921:1 33046:1 33774:1 34336:1 35825:1 37439:4 37817:1 37925:1 38908:1 38909:1 38924:1 39581:1 40587:1 40881:1 41348:3 42060:1 42380:1 42882:1 
0.002138285012627048 1:8 2:1 4:1 6:1 8:1 10:1 11:1 12:1 17:2 26:1 28:3 32:1 35:2 38:1 40:2 56:1 57:1 65:1 81:1 99:3 106:1 114:1 118:4 121:1 132:1 192:1 203:1 240:1 266:1 270:1 295:2 299:1 301:1 306:1 340:1 342:2 382:2 383:1 419:1 441:1 447:1 454:1 578:1 613:1 630:1 744:1 920:1 939:4 945:2 952:4 968:1 970:1 1018:2 1028:2 1101:1 1157:3 1185:1 1201:1 1217:1 1274:1 1293:1 1387:1 1413:1 1489:1 1494:2 1563:1 1568:2 1590:1 1681:1 1704:5 1710:1 1731:2 1777:2 1914:1 1927:1 2004:1 2180:1 2297:1 2423:1 2585:1 2603:1 2688:1 2727:1 2741:1 2773:1 2889:1 2892:1 2962:1 3051:1 3086:2 3102:1 3156:2 3226:1 3255:1 3425:1 3500:1 3521:1 3563:2 3655:1 3696:1 3735:1 3817:1 3838:1 3849:1 4081:1 4915:1 4940:1 5198:1 5403:1 5455:1 5525:1 5743:1 6210:1 6249:1 6778:1 6786:1 7181:2 7221:1 7852:1 7988:1 8040:1 8295:1 9204:1 9412:1 9700:1 10063:2 10652:1 10774:1 11564:1 11688:1 11710:4 11734:1 11777:1 12126:1 12475:1 12529:1 12637:1 12718:1 12772:1 12895:1 12896:1 13045:1 13165:1 13232:1 13512:1 13942:1 13981:1 14040:1 14102:1 14404:1 15098:1 15499:1 15949:1 17070:1 17507:1 19098:1 19751:1 20182:1 21339:1 21392:1 21518:3 23179:1 24192:1 25463:1 26105:1 26309:1 26464:2 27220:1 27785:1 29157:1 31567:1 34995:1 35642:1 36475:1 36980:1 38949:1 
8.217299034871933e-005 1:38 2:10 3:3 4:4 6:1 9:2 10:3 13:1 15:1 18:6 19:1 24:2 25:1 30:2 31:4 32:1 34:4 37:6 39:1 45:3 48:2 50:1 53:2 55:3 63:1 70:1 73:1 77:1 79:1 80:1 83:3 87:2 96:1 98:2 113:1 124:1 132:2 135:1 137:1 138:3 148:1 152:1 153:1 159:1 168:1 173:1 180:4 190:1 191:2 192:6 201:1 217:2 224:1 228:1 230:1 240:1 247:3 259:1 269:4 276:1 292:1 302:1 309:3 322:2 325:1 326:1 335:1 343:1 347:1 349:1 351:1 365:1 367:1 368:13 385:1 386:2 424:1 425:1 430:1 438:1 446:1 447:2 449:1 451:1 455:1 458:1 475:4 485:1 492:1 501:1 507:3 530:1 540:1 541:1 546:1 550:1 557:4 569:1 577:1 585:1 587:1 599:1 605:2 607:3 615:1 620:2 645:1 648:2 661:1 672:1 689:1 697:2 710:2 711:1 714:1 717:1 718:1 727:1 740:1 774:1 793:1 796:1 800:1 807:1 811:1 813:1 826:1 875:3 894:1 898:1 903:1 905:1 908:2 931:1 933:1 934:3 935:1 940:2 963:1 969:1 971:2 981:1 1002:1 1003:1 1057:1 1059:2 1064:1 1068:1 1072:2 1084:1 1086:1 1087:1 1094:1 1097:12 1112:1 1115:1 1133:2 1158:1 1184:2 1215:6 1225:1 1229:1 1230:1 1253:1 1287:5 1346:1 1361:3 1391:1 1396:1 1413:4 1415:1 1429:1 1430:10 1440:1 1450:1 1470:1 1471:2 1481:2 1488:1 1496:1 1518:1 1526:1 1555:1 1561:1 1600:1 1680:1 1697:2 1721:1 1767:1 1771:1 1794:1 1801:1 1841:1 1848:2 1854:1 1882:1 1886:1 1906:1 1921:1 1939:1 1961:1 1963:1 2077:2 2086:1 2100:5 2121:3 2165:1 2179:1 2201:1 2207:2 2227:1 2268:1 2273:1 2299:2 2319:1 2325:1 2363:1 2380:1 2403:1 2436:1 2459:1 2466:1 2469:2 2481:1 2510:1 2563:1 2574:2 2617:2 2618:1 2621:1 2643:1 2670:1 2843:2 2869:4 2920:1 2967:1 2978:1 2985:1 3043:1 3064:1 3087:1 3099:1 3139:1 3143:2 3153:1 3175:1 3226:1 3244:1 3317:1 3342:1 3364:2 3432:1 3446:1 3448:1 3497:1 3599:1 3608:2 3642:1 3654:1 3658:2 3667:1 3691:1 3704:1 3720:2 3721:4 3810:1 3913:1 3925:1 4002:1 4007:1 4092:1 4123:1 4133:1 4140:1 4174:1 4190:3 4255:3 4292:1 4316:1 4319:2 4329:2 4348:1 4382:1 4478:2 4483:1 4489:1 4578:1 4587:1 4767:1 4790:1 4817:1 4819:1 4962:1 4967:1 5052:1 5066:1 5179:1 5211:1 5257:1 5503:1 5708:1 5829:1 5903:2 5916:2 6063:1 6171:1 6279:1 6289:1 6437:1 6448:1 6529:1 6648:1 6653:1 6726:1 6741:1 6790:1 6811:1 7111:1 7121:1 7232:1 7249:1 7274:1 7310:1 7519:1 7591:1 7605:1 7701:5 7724:1 7785:1 7811:1 7815:1 7959:1 7974:1 8042:2 8148:1 8216:1 8237:1 8254:1 8519:1 8547:2 8631:1 8661:1 8712:1 8736:3 8758:2 9070:2 9077:1 9121:1 9249:1 9655:1 9663:1 9770:1 9807:1 9821:1 10144:1 10250:1 10303:1 10848:1 11219:6 11297:1 11418:1 11467:1 11522:1 11866:2 11874:1 11880:1 11934:1 12030:1 12084:1 12409:1 12471:2 12681:1 12693:1 13528:1 13619:1 13682:1 13757:1 14252:1 14263:2 14386:1 14467:1 14551:1 14703:1 14753:1 14817:1 14836:1 14845:1 14921:1 15145:1 15342:1 15421:3 15431:2 15565:1 15620:1 15664:1 15744:1 15877:1 15918:1 16209:1 16285:1 16793:1 17025:1 17318:1 17359:1 17463:1 17704:1 17820:1 18511:1 18523:1 18708:28 19320:1 19376:2 19511:1 19802:1 19941:1 20237:1 20388:4 20581:1 20813:4 21113:1 21376:1 21975:1 22377:1 22626:1 22736:1 22758:2 22769:1 23181:1 23552:2 23562:1 24662:1 25295:1 25426:1 25547:1 25575:1 26709:1 26800:1 27044:1 27366:1 27433:1 28018:1 28124:1 28171:1 28801:1 29006:1 29037:1 29431:1 29495:1 30709:1 31145:1 31229:1 31264:1 31396:1 31887:1 32142:1 32633:1 33277:1 33403:1 33674:1 34074:1 35036:1 37792:1 38562:1 38959:1 39092:1 39397:1 41337:1 42499:1 42715:3 43153:1 
0.001299989547274218 1:20 2:5 4:1 6:1 7:4 9:1 12:4 14:1 16:7 19:1 21:1 29:9 30:1 34:1 36:1 41:6 42:1 44:2 45:1 48:2 58:2 64:1 65:1 67:2 69:9 77:1 86:1 100:1 109:4 115:2 118:1 127:1 158:1 169:1 170:3 172:1 175:2 180:1 191:2 194:1 198:1 208:3 217:1 226:1 233:1 256:1 257:1 272:1 275:1 276:1 277:3 293:1 299:1 308:3 309:2 310:1 324:1 325:1 326:1 329:1 361:1 365:1 370:1 373:1 376:1 377:4 388:1 390:1 398:1 406:2 407:2 411:1 416:1 422:1 437:1 446:1 458:1 464:1 481:1 491:1 499:2 500:2 518:4 520:1 534:2 536:1 545:1 547:3 556:1 569:2 593:1 608:1 611:4 634:2 640:1 661:2 662:1 671:1 674:1 679:1 690:1 691:3 699:1 718:1 720:1 725:2 729:2 745:1 759:1 764:1 773:1 786:1 787:2 792:1 794:2 796:1 812:2 813:1 834:2 853:2 873:1 875:1 887:2 891:1 908:1 935:2 953:1 968:1 970:2 1021:1 1024:2 1038:1 1045:1 1060:1 1064:2 1091:1 1096:1 1097:1 1101:1 1152:2 1175:2 1188:1 1201:1 1213:1 1219:7 1224:1 1235:1 1237:2 1239:1 1245:1 1246:1 1250:1 1286:1 1289:1 1290:1 1310:1 1332:3 1343:1 1362:1 1366:1 1369:1 1377:1 1385:2 1433:1 1447:1 1453:1 1468:1 1473:1 1479:1 1482:1 1486:1 1491:1 1504:1 1509:1 1511:1 1516:1 1517:4 1552:2 1561:1 1577:1 1618:2 1641:3 1644:1 1645:1 1703:2 1704:4 1714:1 1739:2 1745:1 1782:1 1793:1 1809:1 1840:1 1849:1 1863:1 1887:2 1935:1 1945:1 1995:1 1999:1 2040:1 2060:2 2062:1 2069:1 2084:1 2116:5 2167:1 2187:1 2189:1 2190:1 2232:1 2244:1 2345:1 2371:1 2373:1 2375:1 2376:1 2386:1 2392:1 2399:1 2403:1 2411:1 2423:1 2449:1 2453:1 2463:1 2472:1 2478:2 2631:1 2634:1 2654:1 2677:1 2732:1 2736:1 2752:1 2761:1 2762:1 2781:1 2817:2 2856:1 2862:1 2906:2 2913:2 2934:1 2977:4 2995:1 3033:1 3039:1 3076:1 3082:3 3119:1 3125:1 3130:1 3146:1 3178:1 3217:2 3252:1 3281:1 3283:2 3312:1 3324:1 3346:1 3379:2 3406:1 3487:1 3493:1 3508:1 3518:1 3535:2 3657:1 3739:1 3740:1 3745:1 3784:1 3803:2 3855:1 3910:1 3912:2 3976:1 3994:1 4031:1 4134:1 4145:1 4194:1 4305:2 4323:1 4415:1 4416:1 4448:1 4455:1 4500:1 4506:1 4644:1 4656:1 4696:1 4731:1 4806:1 4823:1 4895:1 4972:1 4980:1 5004:1 5046:1 5048:2 5060:1 5098:1 5150:1 5162:1 5197:2 5226:1 5247:1 5351:2 5433:1 5447:1 5521:3 5522:1 5567:1 5595:3 5625:1 5655:3 5706:1 5718:1 5724:1 5768:1 5769:1 5787:1 5866:1 5885:1 5891:1 5895:2 6007:1 6018:2 6171:1 6197:1 6213:1 6225:1 6337:1 6349:1 6361:2 6401:1 6450:1 6509:1 6774:1 6777:1 6789:1 6911:1 6918:2 6920:1 6927:1 6968:1 7013:1 7014:1 7030:1 7064:3 7082:1 7268:1 7280:1 7317:1 7374:1 7437:2 7438:1 7472:1 7618:1 7724:1 7743:1 7751:1 7900:1 7937:3 7983:1 8080:1 8109:1 8175:2 8233:1 8292:2 8429:1 8436:1 8461:2 8516:1 8550:1 8553:2 8614:1 8621:1 8626:1 8638:1 8650:1 8712:1 8777:2 8844:3 8935:1 9054:2 9064:1 9068:1 9087:1 9142:1 9256:1 9278:1 9336:1 9430:1 9435:1 9495:1 9581:1 9602:1 9791:1 9805:1 9874:2 9950:1 10005:2 10139:1 10140:1 10154:1 10466:1 10504:1 10608:1 10624:1 10710:1 10756:1 10797:1 10798:1 10923:1 10964:1 11007:1 11178:1 11198:2 11222:1 11234:1 11380:1 11388:1 11397:1 11433:1 11434:1 11546:1 11779:1 11798:1 11858:1 11917:1 12002:1 12065:1 12144:1 12173:2 12232:1 12369:1 12473:1 12552:1 12566:1 12577:1 12649:1 12870:1 12954:1 13019:1 13027:1 13034:1 13168:1 13251:1 13343:1 13409:1 13676:1 13716:1 13795:1 13848:1 13964:1 14033:1 14039:1 14045:1 14049:1 14111:1 14138:1 14208:1 14415:3 14455:1 14637:1 14648:1 14691:1 15050:2 15125:1 15195:1 15214:1 15278:1 15407:1 15563:1 15605:1 15616:1 15686:1 15848:1 15921:1 15993:1 16144:1 16239:1 16304:1 16465:1 16479:1 16591:1 16627:1 16651:1 16681:1 16682:1 16754:1 16846:1 16856:2 17028:1 17073:1 17099:1 17173:1 17239:1 17410:1 17437:1 17627:1 17817:1 17934:1 17966:1 17983:1 18513:1 18561:1 18572:1 18683:1 18905:1 18908:1 19205:1 19372:1 19374:2 19508:1 19570:1 19723:1 19929:1 20009:1 20277:1 20334:1 20433:1 20499:1 20506:1 20528:1 21006:1 21013:1 21403:1 21424:1 21525:1 21743:1 21996:1 22274:1 22478:1 22485:1 22826:1 23025:1 23447:1 23572:1 23801:2 23976:1 24107:1 24161:1 24192:1 24432:1 24829:1 24839:1 25216:1 25485:1 25610:1 25691:1 25901:1 26078:1 26125:1 26490:1 26620:1 27611:1 27830:1 27902:1 28039:1 28282:1 28494:1 28526:1 28545:1 28889:1 29558:1 29884:1 29915:1 30073:1 30285:1 30293:1 30797:1 30819:1 30952:1 31172:1 31175:1 31269:1 31596:1 31659:2 32206:1 33125:1 33240:1 33316:1 33659:1 33943:1 34132:1 34223:1 34265:1 34276:1 34402:1 34686:1 34954:1 35611:1 35627:1 36531:1 36658:1 36859:1 36988:1 37068:1 37098:1 37388:1 37591:1 37642:1 38640:2 39092:1 39157:2 39446:1 40285:1 40759:1 41581:1 41912:1 
0.0004035676274422417 1:25 2:7 3:4 4:1 6:18 10:2 12:1 14:1 15:2 16:1 19:6 21:1 36:1 45:1 47:1 48:1 50:2 51:1 55:1 63:1 67:1 69:1 72:1 73:2 74:2 77:1 80:1 82:1 93:1 96:1 97:1 110:1 113:1 130:1 135:3 168:1 176:1 180:3 197:1 217:3 242:1 244:1 256:1 259:1 274:1 279:5 306:1 309:1 314:1 317:1 321:2 326:1 332:7 335:1 346:2 349:1 355:2 377:1 396:1 448:1 452:1 464:1 471:2 482:1 490:1 495:1 516:2 530:3 534:1 546:1 547:1 563:2 570:1 585:1 586:1 592:2 595:1 614:1 628:1 632:1 659:1 670:2 678:1 691:1 704:11 715:1 716:1 725:1 739:1 740:1 768:1 776:1 796:1 800:2 805:1 861:1 865:1 892:3 908:1 919:1 923:1 932:1 945:1 971:1 995:11 1012:1 1025:1 1035:1 1064:1 1079:2 1081:1 1127:1 1154:1 1182:1 1204:3 1210:1 1237:1 1242:1 1244:9 1317:1 1344:1 1345:1 1390:2 1428:1 1440:1 1441:2 1450:1 1451:1 1458:1 1523:1 1535:1 1537:1 1552:1 1579:2 1592:1 1622:1 1644:1 1651:1 1793:1 1807:1 1838:1 1927:1 1941:17 1979:1 2013:1 2050:1 2071:1 2080:1 2113:4 2115:1 2121:1 2158:1 2180:1 2251:1 2260:1 2265:1 2324:1 2365:1 2375:1 2378:1 2381:1 2400:2 2409:1 2442:4 2451:1 2565:1 2623:1 2664:1 2674:1 2680:1 2727:3 2753:1 2768:2 2783:1 2793:1 2813:2 2853:1 2857:2 2884:1 2891:1 2892:2 2896:1 2897:2 2901:1 2939:1 2975:1 2994:1 3052:1 3100:1 3114:2 3115:2 3119:1 3149:1 3164:1 3203:1 3219:1 3262:1 3280:2 3300:1 3361:1 3370:1 3380:2 3500:2 3627:3 3637:1 3721:1 3766:1 3885:1 3892:1 3912:1 3913:1 3959:1 4007:1 4013:2 4027:1 4080:1 4121:1 4125:2 4186:1 4222:1 4282:1 4292:1 4310:1 4323:1 4365:1 4490:2 4522:1 4536:1 4656:1 4684:2 4791:1 4850:1 4879:1 5017:1 5021:1 5027:1 5040:1 5049:1 5133:1 5171:1 5190:1 5244:1 5282:1 5480:1 5545:1 5550:2 5620:1 5682:1 5743:1 5866:1 5885:1 6062:1 6149:1 6190:2 6203:2 6210:2 6222:1 6279:2 6295:1 6382:1 6411:1 6428:1 6587:2 6688:1 6754:1 6814:1 6865:3 6920:1 7053:1 7062:1 7077:1 7099:1 7171:1 7174:2 7207:1 7252:1 7284:3 7327:1 7334:1 7471:1 7562:1 7703:1 7776:5 7783:1 7837:1 7910:1 8132:1 8233:1 8516:1 8536:1 8623:1 8678:1 8731:1 8732:1 8783:4 8939:13 8942:3 9040:2 9091:1 9282:1 9311:1 9435:1 9480:1 9494:1 9533:1 9714:1 9720:1 9743:1 9845:1 9891:1 10059:2 10072:1 10174:1 10184:1 10193:1 10269:1 10297:1 10300:1 10487:1 10641:1 10665:2 10683:1 10731:1 10794:2 10827:2 10842:1 11030:1 11094:1 11174:1 11276:1 11283:2 11417:1 11601:4 11695:1 11804:1 11862:1 11996:1 12069:1 12090:1 12127:1 12193:1 12218:1 12333:1 12428:1 12429:1 12438:1 12684:1 12776:1 12997:1 13122:1 13161:1 13522:1 13988:1 14108:2 14382:1 14455:1 14698:3 14801:3 14829:1 14902:1 14903:1 14969:4 15098:1 15158:1 15192:1 15227:1 15258:1 15419:1 15739:1 15758:1 15881:1 15888:1 16180:1 16189:1 16286:1 16348:1 16439:1 16568:1 16747:1 16789:1 16894:1 17185:1 17276:1 17699:1 17714:2 18026:1 18032:1 18106:1 18117:1 18464:1 18623:1 18877:1 18982:1 19023:1 19171:1 19350:1 19598:1 19744:1 20083:1 20292:1 20322:1 20550:1 20563:3 21222:1 21303:1 21354:1 21384:1 21806:1 22281:1 22751:1 22830:1 23230:1 23342:2 23493:1 23595:1 23680:1 24119:1 24342:1 24344:1 24355:1 24919:1 24938:1 24989:1 25011:6 25147:1 25182:1 25599:1 25882:1 26018:1 26028:1 26151:1 26327:1 26895:1 27044:1 27057:2 27111:1 27237:1 27629:1 28072:1 28256:1 28806:1 29591:1 29978:1 30582:3 31448:1 32178:1 32550:1 32573:1 32872:1 32896:1 33070:1 33875:1 34665:1 34835:1 35206:1 35571:1 35989:1 36143:1 36423:1 36649:1 36923:1 37168:1 37453:1 37746:1 38314:1 38434:1 38638:1 39171:1 39770:1 39981:1 40249:1 40954:1 41192:2 41474:1 41526:1 41973:1 41991:1 42000:1 42151:1 42668:1 43179:1 
0.0003287470938271773 1:18 2:2 3:1 4:3 8:2 9:3 11:4 12:1 14:2 27:1 28:3 31:1 35:1 39:1 46:2 47:1 48:2 50:1 53:1 54:1 56:1 60:5 62:1 65:1 73:1 89:5 93:1 98:1 114:1 126:1 142:2 144:1 150:1 153:1 166:1 193:1 204:1 234:1 235:5 245:1 257:1 283:1 290:1 295:2 325:1 339:1 362:1 372:1 387:1 397:1 416:1 424:1 435:1 463:1 464:1 477:1 513:1 523:1 565:1 590:1 604:1 618:1 631:1 637:1 651:1 661:1 682:1 698:1 721:1 740:1 746:3 761:1 794:2 817:1 823:1 825:1 899:2 990:1 1017:1 1063:1 1071:2 1129:1 1189:1 1197:1 1204:1 1207:4 1258:1 1272:1 1315:1 1369:2 1389:1 1397:1 1413:3 1512:1 1522:1 1542:1 1748:1 1802:1 1818:1 1826:1 1931:1 1948:1 2048:1 2075:1 2098:1 2128:1 2134:2 2156:1 2182:1 2217:1 2253:1 2494:1 2499:1 2555:4 2580:2 2603:1 2668:1 2713:1 2765:1 2803:1 2814:1 3014:3 3050:1 3051:1 3107:1 3124:1 3145:1 3184:1 3369:1 3398:1 3456:1 3677:1 3692:1 3738:1 3894:1 3939:1 4196:1 4203:1 4370:1 4373:1 4378:1 4412:1 4442:1 4531:2 4565:1 4586:1 4820:1 4935:1 5330:1 5349:1 5724:1 5735:1 5837:2 5858:1 6097:1 6435:1 6479:3 6618:1 6856:1 7008:3 7030:1 7039:1 7193:1 7215:1 7441:1 7752:1 7914:1 8095:1 8398:2 8452:1 8724:1 8751:1 8780:2 9105:1 9260:1 9472:1 9562:1 9705:1 9708:1 9785:1 10253:1 10448:1 10849:1 11540:1 11612:1 12219:1 12262:1 12292:1 12295:1 13054:2 13103:1 13228:1 13391:1 13563:1 13785:1 13893:1 14649:1 15223:1 16061:1 16082:1 17390:1 17847:2 18346:1 18896:1 18938:4 19170:1 19623:1 19751:1 20689:1 20714:1 21598:1 22212:1 22953:1 24054:1 24198:1 24649:1 24783:1 25163:1 25661:1 26446:1 26784:5 27333:1 27980:1 28055:1 28715:1 29403:1 29792:1 32389:1 36883:1 38020:1 39796:1 40926:1 41792:1 43012:1 43208:1 
0.003730530946159636 1:14 2:2 3:5 4:1 6:8 9:1 18:1 19:3 21:1 22:2 24:2 30:3 38:3 45:1 58:10 70:1 80:1 82:3 95:1 115:6 122:2 124:1 140:3 148:1 173:1 272:1 277:1 278:2 296:1 312:1 330:1 485:2 492:1 495:1 513:1 559:1 561:1 569:1 690:1 703:4 796:3 798:1 824:2 919:1 966:1 1003:1 1043:1 1053:2 1058:1 1082:1 1092:1 1133:1 1141:6 1146:1 1182:1 1222:1 1237:2 1268:1 1283:1 1286:1 1300:1 1311:1 1360:1 1501:5 1600:1 1621:6 1631:1 1663:2 1728:2 1778:1 1868:2 1926:1 2029:2 2031:3 2037:2 2088:1 2194:1 2226:1 2254:1 2265:2 2332:1 2349:1 2381:1 2780:1 2819:3 2848:1 2994:1 3033:1 3095:1 3122:1 3164:1 3183:2 3208:2 3262:2 3320:2 3383:1 3430:1 3651:1 3666:1 3777:1 3892:1 3941:1 4071:1 4217:1 4490:1 4645:1 4668:1 4676:1 4885:1 4911:1 5222:1 5378:1 5436:2 5612:4 5634:1 5937:1 6013:1 6015:1 6312:2 6452:1 6659:1 6814:3 6867:1 7080:2 7108:2 7152:1 7304:1 7609:1 7814:1 7852:2 8068:1 8165:1 8277:1 8346:1 8497:1 8723:1 8877:1 8946:1 8958:1 9005:1 9346:1 9473:1 9676:1 10015:1 10460:1 10483:1 10501:1 11014:1 11532:1 11632:1 11823:3 11853:1 12056:1 12144:1 12227:1 12436:1 12590:2 12616:1 13040:1 13113:1 13134:1 13138:1 13186:1 13431:1 13516:2 13751:1 13925:1 14029:2 15166:1 15243:3 15859:1 15892:1 16192:1 16349:1 16754:3 16788:1 16845:1 17018:1 17038:1 17145:2 17322:1 17327:1 17660:1 18176:1 19000:2 19141:1 19613:1 20064:1 20097:1 20188:1 21162:1 21608:1 22589:1 22971:1 23480:1 23778:1 24907:1 25901:1 25994:1 25995:1 26048:1 26152:1 26953:1 27062:1 27132:1 27541:1 27717:1 28784:1 29039:1 29138:1 29609:1 30053:1 30491:1 30935:1 31246:1 31276:1 31582:1 31771:1 32612:1 33581:1 33608:1 33620:1 33630:1 33647:1 33898:1 34370:1 37867:1 39290:2 39787:1 41047:1 41254:1 41445:1 41572:1 42449:1 42803:1 42917:1 
0.009108001199238965 1:4 219:1 279:1 418:1 451:3 625:1 658:1 739:1 823:1 858:1 894:1 1148:1 1178:1 1200:1 1210:1 1219:1 1303:1 1344:1 1642:2 1986:1 2421:1 2616:1 3003:3 3100:1 3352:1 3502:1 3637:1 3666:1 4450:1 4605:1 4725:3 6047:1 6679:1 6737:1 7180:1 7327:1 7357:2 7728:1 7746:1 8140:1 8298:1 10867:3 11043:1 11374:2 11400:1 12216:1 12317:1 13201:1 14801:1 15245:1 16254:2 16259:1 16653:1 16977:1 19088:1 19594:1 21315:1 24574:1 24660:1 24796:1 25378:1 25718:1 26056:1 26560:3 26758:3 27753:2 28676:1 30809:1 30966:1 31295:1 31854:2 32696:2 34395:1 34644:1 34918:2 36067:1 37127:1 37870:1 
0.005039051625985094 1:9 2:1 3:1 4:1 8:2 12:1 15:1 16:2 17:1 21:1 25:1 26:2 29:4 40:4 42:1 45:1 54:2 101:1 122:1 139:2 186:2 282:1 340:1 348:3 352:1 361:1 365:1 392:3 404:1 422:1 432:2 433:1 466:1 479:1 495:1 503:1 508:1 564:1 602:1 668:2 734:1 896:1 972:1 1007:1 1078:2 1127:1 1258:1 1285:1 1332:2 1426:3 1642:1 1702:1 1729:1 1740:1 1789:1 1917:2 2119:1 2132:2 2170:1 2251:1 2472:1 2600:1 2772:1 2848:1 2924:1 3054:1 3076:1 3123:1 3179:1 3212:1 3278:3 3464:1 4102:1 4287:1 4368:2 4637:1 4916:1 4945:1 5041:1 5170:1 5623:1 5640:1 6082:2 6170:1 6200:1 6234:1 6328:1 6662:1 6789:1 6913:1 7665:1 7938:1 8380:1 9272:1 9614:1 9873:1 10495:3 10593:2 12479:1 13165:1 13971:1 14112:1 14396:1 15022:2 15837:1 16415:1 16446:1 16887:1 16904:1 17218:1 19343:1 20209:1 20964:1 22260:1 22523:2 24079:1 24987:1 25384:1 25500:1 25839:2 25935:1 29461:1 31118:1 33570:2 36685:1 37361:1 39328:1 39594:1 42153:1 
0.0009599266367899892 1:37 2:14 3:7 4:5 7:4 8:1 9:4 10:1 13:2 14:2 16:1 17:2 18:3 19:2 20:4 23:8 26:4 27:1 29:1 33:3 36:3 37:3 41:7 42:1 44:2 50:1 51:3 55:1 57:2 58:3 59:1 61:5 64:2 66:6 75:8 79:1 83:1 88:1 97:1 104:1 114:1 115:1 122:3 124:1 127:1 132:1 135:1 136:1 137:1 161:3 166:2 167:1 172:1 180:1 186:1 187:1 191:1 205:1 208:2 209:1 218:1 219:5 233:1 234:2 252:1 254:2 258:1 262:1 272:2 289:1 293:1 296:1 297:1 317:1 329:3 330:1 336:1 337:1 343:1 352:2 356:4 361:3 369:1 373:4 374:1 393:1 396:1 400:1 401:1 415:1 417:1 427:1 435:2 442:1 447:1 449:2 452:1 457:1 465:4 469:1 472:1 481:1 490:2 495:4 499:1 505:1 510:1 526:1 529:1 545:1 569:1 605:1 617:1 619:1 621:8 643:1 649:1 674:1 677:1 679:2 690:1 700:1 702:1 712:2 728:1 730:2 736:2 740:2 756:2 761:1 763:1 796:1 799:2 816:1 824:2 829:2 831:1 852:1 861:1 870:1 874:1 876:1 884:1 893:1 901:2 924:1 927:1 934:1 977:1 983:1 1019:1 1022:1 1024:1 1054:2 1057:1 1086:5 1088:1 1089:1 1091:2 1096:1 1116:1 1117:1 1138:1 1150:1 1153:1 1192:1 1198:1 1222:1 1231:1 1237:1 1246:1 1250:1 1254:1 1270:1 1281:1 1293:1 1314:5 1317:3 1321:1 1330:1 1335:1 1360:1 1363:1 1370:1 1375:1 1379:2 1403:1 1405:1 1412:1 1414:1 1424:2 1432:1 1436:2 1462:1 1467:1 1470:3 1474:1 1496:2 1527:1 1551:1 1554:1 1577:2 1608:1 1609:1 1620:1 1674:1 1700:1 1704:1 1706:1 1717:1 1733:1 1749:1 1759:1 1775:1 1821:1 1822:1 1829:1 1851:3 1866:1 1908:1 1940:2 1945:1 1951:1 1957:1 2020:1 2026:2 2060:1 2069:1 2116:1 2166:1 2175:1 2189:1 2198:1 2207:1 2217:1 2232:3 2265:1 2300:3 2312:1 2319:2 2325:1 2352:2 2457:1 2496:1 2537:1 2649:1 2665:1 2724:1 2767:3 2788:1 2809:1 2928:1 2930:1 2981:1 3006:1 3035:1 3040:1 3044:1 3063:1 3070:1 3073:1 3076:1 3132:1 3134:1 3137:1 3148:1 3261:1 3294:1 3321:1 3393:1 3405:1 3416:1 3484:1 3530:1 3593:1 3635:1 3756:1 3830:1 3855:1 3968:1 3994:1 4014:2 4030:2 4032:1 4082:1 4095:1 4105:1 4112:1 4117:1 4207:1 4223:1 4247:2 4269:1 4274:1 4285:2 4290:2 4298:1 4393:1 4408:1 4429:1 4447:1 4451:1 4493:1 4505:1 4548:1 4589:1 4629:1 4649:2 4657:1 4672:1 4681:1 4706:2 4722:1 4754:2 4864:1 4870:4 4876:1 4927:1 4945:1 4967:2 5033:1 5093:1 5143:1 5279:1 5342:1 5381:1 5398:1 5439:1 5481:1 5551:3 5615:1 5704:1 5741:1 5764:1 5775:1 5776:1 5836:1 5995:1 6192:1 6237:1 6254:1 6459:1 6462:2 6487:1 6548:1 6596:1 6602:1 6784:1 6835:1 7072:4 7098:1 7134:1 7234:1 7236:1 7338:1 7393:4 7425:1 7468:1 7637:1 7645:1 8030:1 8061:1 8091:1 8106:1 8323:1 8369:1 8436:1 8636:1 8643:3 8665:1 8678:1 8708:1 8797:1 8845:1 8898:1 9082:1 9162:1 9353:1 9358:1 9541:1 9629:1 9796:1 9926:1 9936:1 10018:1 10026:1 10280:1 10286:1 10295:1 10313:1 10349:1 10384:1 10505:1 10701:1 10793:1 10932:2 11196:1 11396:1 11528:4 11644:1 11645:1 11655:1 11984:1 11997:1 12065:1 12154:1 12181:1 12255:3 12269:1 12351:1 12545:1 12674:1 12716:1 12751:1 12800:2 13004:1 13023:1 13113:1 13189:1 13246:1 13466:1 13544:1 13647:1 13770:1 13891:1 13937:1 14179:1 14605:1 14706:3 14842:2 14849:1 14958:2 15132:1 15145:1 15432:1 15630:1 15950:1 16240:1 16393:1 16796:1 16970:1 17686:1 17749:1 17961:1 17974:1 18174:1 18532:1 18720:1 18807:1 18878:1 18920:1 19184:1 19805:1 19825:1 20280:1 20436:1 20776:1 20838:1 21038:1 21126:1 21146:1 21227:1 21469:1 21874:1 21922:1 22175:1 22573:1 22840:1 22935:1 23097:1 23467:1 23491:1 23558:1 24281:1 24487:1 24539:1 25435:1 25481:1 25809:1 26298:1 26404:1 27050:1 27550:1 27797:1 27915:1 28805:1 29601:1 29602:1 29852:1 30026:1 30092:1 30481:1 30882:1 30905:1 31132:1 31519:1 31545:1 32135:1 32401:1 32416:1 32581:1 32779:1 32813:1 33157:1 33220:1 33508:1 33576:1 34036:1 34556:1 35019:1 35736:1 36329:1 36990:1 37480:1 38593:1 40168:1 40226:1 40301:1 41202:1 41375:1 41852:6 42431:1 
0.005797297043414207 1:5 2:1 7:1 10:1 11:3 12:2 14:1 17:1 28:2 38:1 46:2 47:1 50:1 56:1 60:2 63:1 73:1 88:1 89:3 96:1 101:1 105:2 111:2 126:1 142:1 145:1 150:1 157:1 160:1 204:1 223:1 225:1 258:1 287:1 299:1 322:1 362:1 380:1 389:1 393:1 416:3 435:1 447:1 506:1 528:1 541:1 549:1 563:1 593:1 617:1 618:1 656:2 706:1 746:1 780:1 810:1 823:3 882:2 947:1 1023:1 1140:1 1168:1 1213:4 1272:1 1284:1 1397:2 1450:1 1482:1 1614:1 1617:1 1671:1 1712:1 1755:1 1799:1 1826:1 1888:2 1927:1 2075:1 2107:1 2108:1 2555:1 2583:1 3437:1 3443:1 3495:1 3554:2 3624:1 3902:1 3947:1 4119:1 4180:1 4192:1 4196:1 4468:1 4602:1 5034:1 5116:1 5157:1 5180:1 5386:1 5418:1 5571:2 5979:1 6550:1 6618:1 6961:1 7115:1 7146:2 7370:1 7441:3 8095:1 8407:1 9169:1 9976:1 10040:1 10090:1 10109:1 10450:1 10902:1 11472:1 11552:1 11654:1 11785:1 12447:1 12589:1 13228:1 13366:1 14083:1 14470:1 14855:1 16074:1 16154:1 16884:1 18255:1 18938:2 19401:2 19884:1 19986:1 20003:1 20203:1 21381:1 21583:1 23698:1 24719:1 25198:1 26784:1 26939:1 27863:1 28034:1 28994:1 29526:1 29761:1 30688:1 35058:1 36883:1 36917:1 40705:1 
0.0002428335316192508 1:37 2:7 3:2 4:4 9:4 10:3 11:3 12:1 13:1 14:2 16:3 19:1 20:4 21:2 24:1 25:5 29:6 30:4 31:1 32:2 35:1 37:1 41:2 42:2 44:1 45:1 47:6 48:2 55:2 64:1 65:1 67:1 68:3 69:6 78:1 79:1 80:3 81:2 85:1 87:1 88:1 90:1 91:2 95:1 99:1 101:1 114:1 115:1 118:1 122:2 138:1 144:1 148:1 153:1 154:2 162:1 163:2 168:1 171:2 172:3 175:1 181:1 183:2 191:1 197:1 200:1 214:2 218:1 219:1 220:2 222:1 224:1 226:1 230:1 234:1 237:5 250:4 251:2 256:1 259:1 273:3 276:1 277:1 278:2 301:1 314:1 317:2 318:1 324:1 327:1 332:1 334:1 343:2 345:1 349:2 357:1 377:7 380:1 383:1 386:1 396:1 413:5 423:1 427:1 428:1 437:1 442:1 450:1 457:1 471:2 474:1 491:1 494:1 503:1 504:1 511:1 514:1 519:1 539:1 540:1 546:1 548:1 560:1 566:1 567:1 569:1 581:1 583:1 589:1 594:1 604:2 612:1 630:1 640:1 642:1 656:1 657:1 658:1 669:2 670:2 681:3 685:1 690:1 692:2 698:1 699:2 703:1 704:1 730:1 732:1 735:1 752:1 766:1 768:1 774:1 775:1 789:2 805:1 807:2 817:1 823:1 826:1 830:1 843:1 849:3 851:1 852:1 865:1 872:2 875:1 882:1 896:1 898:1 908:1 910:1 922:1 927:1 961:1 969:1 1013:1 1018:2 1025:1 1046:1 1099:2 1104:1 1113:1 1130:1 1169:2 1204:2 1212:5 1220:1 1224:1 1225:1 1230:1 1259:1 1309:1 1317:1 1329:1 1337:1 1347:1 1349:2 1354:2 1400:1 1414:1 1424:1 1444:1 1454:1 1480:1 1495:1 1504:1 1523:2 1542:1 1552:1 1557:1 1565:1 1587:2 1588:1 1591:1 1598:1 1600:1 1618:1 1643:1 1645:1 1671:1 1684:1 1686:1 1749:1 1761:1 1778:2 1800:1 1808:1 1829:1 1836:2 1858:1 1892:1 1901:1 1906:2 1920:1 1937:2 1943:1 1962:1 1963:1 1965:2 1971:1 2089:1 2106:1 2139:2 2203:1 2204:1 2210:1 2216:1 2301:1 2361:1 2363:1 2397:1 2424:2 2452:1 2453:1 2462:1 2466:1 2476:1 2521:1 2522:1 2527:1 2542:2 2544:1 2563:1 2565:2 2574:1 2644:1 2654:1 2670:1 2674:2 2689:1 2713:2 2736:1 2742:2 2792:3 2794:1 2842:1 2851:1 2875:1 2890:1 2910:1 2927:2 2975:1 2977:1 3015:1 3016:1 3065:3 3082:1 3094:5 3118:1 3139:1 3172:1 3181:2 3225:1 3241:1 3268:1 3324:1 3374:5 3444:1 3462:2 3504:3 3517:4 3554:1 3591:1 3652:1 3658:3 3711:1 3720:1 3725:1 3784:1 3990:1 4022:1 4029:1 4066:1 4102:1 4121:1 4152:1 4189:1 4196:1 4213:1 4281:1 4366:1 4423:1 4450:1 4471:1 4541:1 4652:1 4783:1 4790:2 4836:1 4842:1 4849:1 4867:2 4919:1 5101:1 5114:1 5161:1 5231:1 5234:1 5464:1 5480:1 5519:1 5533:1 5545:1 5677:1 5683:1 5691:1 5696:1 5824:1 5881:2 5886:1 5965:1 6025:1 6047:1 6063:1 6082:1 6145:1 6273:1 6290:1 6364:1 6423:1 6496:1 6505:1 6519:1 6522:1 6604:1 6651:1 6667:1 6680:1 6731:4 6739:1 6752:1 6763:2 6777:1 6854:1 7017:2 7164:2 7211:1 7219:1 7235:4 7238:1 7553:1 7580:1 7623:1 7631:1 7651:1 7669:2 7725:1 7731:1 7862:1 7870:1 7920:1 7947:1 7976:1 8075:1 8081:1 8136:1 8185:1 8269:1 8298:1 8307:2 8352:1 8416:1 8419:1 8463:1 8488:1 8678:1 8701:1 8730:1 8734:1 8771:3 8787:1 8848:1 8868:2 8874:2 8903:1 9315:1 9334:1 9454:1 9487:1 9679:1 9832:1 9946:1 9954:2 10096:1 10246:1 10288:1 10291:1 10294:1 10396:1 10399:1 10400:1 10435:3 10449:1 10531:1 10621:1 10815:1 10822:1 10865:1 10952:1 11139:1 11144:1 11195:1 11428:1 11527:1 11629:1 11662:1 11717:1 11744:2 11755:2 11782:1 11839:1 11897:1 11954:1 11986:3 11992:1 11995:1 12045:1 12385:1 12396:1 12420:1 12695:1 12962:1 12993:1 13062:1 13247:1 13505:1 13559:1 13656:1 13734:1 13748:1 13798:2 14059:2 14122:1 14153:1 14154:2 14328:1 14536:1 14710:1 14747:1 15086:1 15158:1 15401:1 15455:1 15766:4 15834:1 16224:1 16253:2 16411:1 16495:1 16594:1 16854:1 17094:1 17192:1 17263:1 17264:1 17272:1 17354:1 17488:1 17639:1 17795:1 17874:1 18005:1 18070:1 18183:1 18191:6 18427:1 18431:1 18463:1 18768:1 18793:1 18818:1 19155:1 19176:1 19188:1 19469:1 19651:1 19962:1 20076:1 20093:1 20134:1 20170:1 20193:1 20281:1 21246:1 21355:1 21893:1 21898:1 22138:1 22228:1 22481:1 22510:1 22694:1 22974:1 23028:1 23040:1 23133:1 23423:1 23526:1 23709:1 23833:2 23994:6 24151:2 24338:1 24359:1 24490:1 24570:1 24623:1 24645:1 25369:1 25377:1 25712:1 25912:1 25980:2 26346:1 26411:2 26447:1 26564:1 26567:1 26926:2 27435:1 27721:1 27749:3 28004:1 28162:1 28343:1 28898:1 29395:1 29469:1 29642:1 29809:1 29965:2 30191:1 30498:1 30670:1 30783:1 30809:1 30837:2 31013:1 31202:1 31449:1 31685:1 32042:1 32063:1 32105:1 32147:1 32394:1 33248:1 33271:1 33296:1 33338:1 33685:3 33761:1 34040:1 34138:10 34346:1 34603:1 34691:1 34876:1 34991:1 35372:1 35384:1 35565:1 35740:1 35969:1 36908:1 37570:1 37666:1 38003:1 38239:1 38628:1 38779:1 39027:1 39308:1 39483:1 39704:1 40160:1 41381:1 41821:1 42182:1 42412:1 42594:1 43221:1 
0.005006400612755113 1:8 2:1 6:1 11:1 14:1 15:1 30:1 42:1 65:1 90:2 153:1 163:1 180:1 187:1 188:2 191:1 220:1 249:1 264:3 272:1 301:1 349:1 375:1 383:1 427:1 547:1 657:1 750:1 765:1 849:1 1085:1 1170:1 1237:1 1281:1 1291:1 1431:1 1492:1 1549:1 1570:1 1742:1 1795:1 1824:1 1837:1 1889:1 1956:1 2117:1 2197:1 2294:1 2389:1 2531:1 2690:1 2699:1 2837:2 2874:2 2889:1 2941:1 3145:1 3374:1 3459:1 3473:1 3487:1 3680:1 3862:1 3927:1 3930:1 4043:2 4099:1 4281:1 4460:1 4502:2 4883:1 4963:1 5061:1 5195:1 5850:1 7363:1 7541:1 7898:1 8792:1 8956:1 9273:1 9566:1 9752:1 10345:1 11836:1 11986:4 12083:2 12763:1 12784:1 13051:1 13564:1 16303:1 16862:1 18162:1 18200:1 18463:1 18603:1 18616:1 20076:1 20386:1 20422:1 20869:1 21662:1 23207:1 24497:1 25056:1 27601:1 27805:1 30253:1 31907:1 31984:1 33616:1 34138:1 35249:1 35262:1 37056:1 38628:1 39507:1 39999:1 40622:1 42345:1 43131:1 
0.005521121151864357 1:8 2:2 6:1 9:1 11:1 20:1 28:1 29:1 30:1 33:2 41:1 42:1 47:1 58:1 69:1 78:1 79:1 86:1 95:2 114:1 115:1 137:2 140:1 161:1 172:1 180:1 193:1 194:1 204:1 225:1 254:1 274:1 371:2 463:1 470:1 556:1 567:1 575:1 605:1 621:1 628:1 674:1 699:1 702:1 730:1 749:4 760:1 774:3 807:1 821:1 877:1 917:1 934:1 947:1 951:1 956:1 990:1 1003:1 1012:1 1024:3 1071:1 1100:1 1193:1 1300:1 1316:1 1344:1 1345:1 1346:1 1396:1 1400:2 1432:1 1440:1 1600:1 1691:1 1693:1 1720:1 1747:1 1896:1 1908:1 1917:1 1946:1 1972:1 2108:1 2157:1 2344:1 2658:1 2668:1 2670:1 2737:1 2767:2 2830:1 2905:1 3032:1 3143:1 3147:1 3148:1 3493:1 3544:1 3555:1 3728:1 3815:1 3927:1 4003:2 4113:1 4513:1 4656:1 4680:2 4706:1 4799:1 4937:1 5060:1 5255:1 5406:2 5652:1 5911:1 6491:1 6741:1 6762:1 6841:1 7098:1 7245:1 7588:1 7618:1 7707:1 7889:1 7965:1 7968:1 8110:1 8217:1 8230:1 8314:1 8559:1 8667:1 8787:1 8929:1 8981:1 9004:1 9025:1 9747:1 9805:1 9933:1 11666:1 11789:1 12344:1 12631:1 12635:1 12846:1 13251:1 13937:1 14428:1 16955:1 17857:1 18031:1 18852:1 18876:1 19061:1 19260:1 19337:1 19347:3 19676:1 19887:1 22317:1 22490:1 22673:1 23165:1 25212:1 28103:1 28429:1 29139:1 32518:1 32962:1 34175:1 34683:1 34874:1 35207:1 37307:1 38738:1 42551:1 
0.0009856370566396278 1:6 2:2 3:1 9:2 13:1 18:1 19:1 21:1 34:1 37:2 39:1 48:1 57:1 77:1 90:6 115:1 119:1 138:1 147:1 159:1 205:2 245:1 308:3 349:1 360:1 361:1 374:3 418:1 440:1 442:3 540:4 574:1 612:1 678:2 688:1 701:1 715:1 732:1 738:2 755:1 896:1 949:1 959:1 997:1 1083:2 1167:24 1175:1 1201:1 1210:1 1222:1 1246:3 1347:1 1367:1 1371:1 1488:1 1497:2 1509:1 1513:1 1612:2 1659:1 1891:1 1931:1 1944:1 2016:1 2082:1 2129:2 2168:1 2201:1 2220:1 2297:1 2312:1 2345:1 2356:1 2384:1 2453:1 2553:1 2643:1 2760:1 2829:1 2985:1 3121:1 3207:1 3288:1 3315:1 3444:3 3600:1 3684:1 3735:1 3797:1 4195:1 4251:1 4324:4 4476:1 4617:1 4799:1 4879:1 5005:1 5075:1 5142:1 5290:2 5568:1 5589:1 5680:1 5795:1 6080:1 6354:1 6417:1 6649:1 6712:1 6964:1 7122:1 7320:1 7496:1 7554:1 7870:1 7995:1 8032:1 8550:1 8574:1 8687:1 8950:1 8989:1 9070:1 9300:1 9597:1 9647:2 9849:2 10131:1 10712:1 11349:1 11539:1 12163:1 13505:1 14106:1 14533:1 14843:1 14854:1 15004:1 15411:1 15456:1 15549:1 16131:1 16275:1 17449:1 17880:1 18554:1 19016:1 19292:3 20270:1 20465:1 20684:1 21235:1 21478:1 21779:1 22183:1 23131:5 23525:1 24636:2 25272:1 25705:1 25782:1 26779:5 27083:1 27766:1 29888:1 31288:1 32881:1 33098:1 33458:1 34074:1 34185:1 34443:1 34892:1 34893:1 36642:1 38392:1 38662:2 40650:1 40925:1 43179:1 
0.0008433852976035725 1:5 2:3 3:3 4:1 7:1 8:3 10:1 13:1 31:1 34:1 37:1 44:2 50:1 51:2 65:1 85:4 93:1 95:1 120:1 123:5 134:1 135:1 142:1 153:1 159:1 191:1 192:1 239:1 241:3 251:1 259:1 279:1 284:3 296:1 303:1 314:2 325:1 330:1 333:1 373:1 385:1 403:1 412:1 419:1 427:1 442:1 455:1 458:1 490:1 522:1 608:1 634:3 659:1 678:1 688:1 703:1 787:1 813:1 821:1 848:2 888:1 902:1 905:1 907:2 911:1 970:2 1025:1 1034:1 1107:1 1178:1 1197:1 1238:1 1310:1 1322:2 1334:1 1424:1 1443:1 1522:1 1537:1 1543:1 1545:1 1552:1 1553:1 1655:1 1658:1 1672:1 1736:1 1778:1 1829:1 1835:1 1847:1 1959:1 2043:1 2132:1 2197:1 2264:1 2286:1 2311:3 2368:1 2452:1 2456:1 2540:1 2616:1 2624:1 2714:1 2725:2 2769:1 2788:1 3207:1 3211:1 3367:1 3428:1 3429:1 3518:1 3535:1 3802:1 3912:1 4005:1 4030:1 4345:1 4614:1 4790:1 4795:1 4868:1 5005:1 5225:1 5258:1 5348:1 5727:1 5772:1 5905:1 6099:1 6209:1 6253:1 6407:1 6442:1 6505:1 6841:1 7618:2 7956:1 8351:1 8391:1 9104:1 9408:1 9475:1 9931:1 10291:1 10297:1 10500:1 10926:1 10958:1 11768:1 11992:1 12064:1 12183:1 12249:1 12631:1 12634:1 12763:1 12781:1 13178:1 14590:1 14759:1 15026:1 15174:1 15744:1 15761:1 15803:1 15838:1 16484:1 16997:1 17318:1 17687:2 17708:1 17762:1 17924:1 18258:1 18506:1 19395:1 19966:1 20565:1 22773:1 22828:2 23059:1 23377:1 24105:1 24384:1 24540:1 25279:1 26822:1 27156:1 27200:1 27878:1 31782:1 33811:1 33935:1 35589:1 36649:1 36681:1 37007:1 39966:1 41070:1 41721:1 42405:1 
0.00246410524001942 1:5 27:1 41:1 63:1 88:2 119:1 219:1 263:1 264:4 279:1 324:1 427:1 441:1 547:1 566:1 859:1 873:1 876:8 896:1 1137:1 1152:1 1538:4 1754:1 2104:2 2496:3 3428:1 3627:1 3685:1 3927:1 4416:1 4471:1 4702:1 5161:1 5233:4 5321:1 5696:1 5789:1 5801:1 6006:1 6047:1 6673:1 6737:1 7067:1 7818:2 8264:2 8848:1 9710:1 11498:1 12928:1 13292:1 13469:1 14841:2 15026:1 15419:1 15817:1 16277:1 17158:1 20875:1 21278:1 21770:1 22022:1 24682:1 25358:1 25396:1 25473:2 26910:1 27079:1 27111:1 28421:1 28755:1 29465:2 30310:1 31358:1 33955:2 34689:1 35125:5 35493:1 35529:1 36694:1 37444:1 37818:1 41248:2 42351:1 
0.0009144654566499862 1:30 2:7 3:1 6:11 10:1 11:1 14:6 19:5 20:4 21:1 29:5 30:4 32:2 34:2 37:2 47:1 55:1 58:3 63:1 64:1 69:1 73:1 80:1 85:1 93:2 95:4 100:1 110:2 112:1 115:2 120:1 121:1 135:1 138:1 154:1 163:8 176:3 201:2 217:1 224:1 244:1 258:1 259:1 262:1 274:2 277:1 287:2 314:1 317:3 324:1 334:1 338:2 351:8 355:1 360:1 363:1 365:1 386:1 396:1 427:1 433:1 437:2 440:1 441:1 442:1 451:1 452:1 473:1 477:1 482:4 485:1 499:1 501:1 507:2 518:1 524:1 530:3 557:2 570:3 602:1 628:1 650:1 660:1 661:1 665:1 672:3 680:1 746:1 753:1 764:1 774:2 776:2 777:1 785:2 794:1 802:1 816:1 835:2 836:2 857:2 873:2 894:1 896:1 920:1 923:2 939:1 969:1 1003:1 1025:1 1039:1 1043:1 1045:1 1071:1 1077:1 1081:1 1097:4 1101:1 1108:1 1146:1 1147:2 1150:1 1157:1 1160:1 1169:1 1176:1 1178:1 1265:1 1320:1 1330:1 1338:1 1344:1 1378:1 1382:1 1437:1 1438:1 1450:1 1478:1 1495:2 1500:1 1521:1 1522:1 1526:2 1612:1 1615:1 1616:1 1620:1 1621:1 1622:1 1641:2 1645:1 1653:1 1685:1 1726:1 1752:1 1770:3 1791:1 1808:2 1817:1 1846:1 1854:2 1857:1 1918:1 1922:1 1964:1 2019:1 2099:1 2138:1 2224:1 2234:1 2254:1 2269:1 2275:1 2322:2 2327:1 2340:1 2343:2 2359:3 2396:1 2411:1 2436:1 2510:1 2533:1 2564:1 2613:1 2620:1 2706:1 2729:1 2771:1 2792:2 2826:1 3048:1 3062:1 3149:1 3164:1 3177:1 3268:1 3321:1 3346:1 3396:1 3480:2 3489:1 3564:1 3599:1 3617:1 3695:1 3728:1 3744:1 3782:1 3799:1 3938:1 4050:1 4162:1 4198:1 4265:1 4279:1 4365:1 4430:1 4510:1 4514:1 4577:1 4652:1 4666:1 4707:1 4726:1 4751:1 4827:1 5037:1 5114:1 5134:1 5189:1 5210:1 5265:1 5290:1 5301:1 5332:1 5379:1 5542:22 5569:1 5582:1 5669:1 5714:1 5723:1 5815:1 5821:1 5942:1 6174:1 6287:1 6289:1 6319:1 6507:1 6571:1 6851:1 6911:1 6966:1 6990:1 6996:1 7102:1 7265:1 7311:1 7497:1 7588:1 7641:1 7664:1 7726:1 7728:1 7771:1 7942:1 7985:1 8017:1 8045:1 8058:1 8138:4 8160:1 8268:1 8372:1 8419:1 8604:2 8647:1 8771:1 8817:1 8880:1 9093:1 9153:1 9234:1 9459:1 9473:1 9657:1 9931:1 9989:1 9999:1 10881:1 11075:4 11329:1 11379:1 11493:1 11514:1 11752:1 11882:1 11915:1 12313:1 12330:1 12466:1 12680:1 12952:1 13217:1 13248:1 13723:1 14036:1 14064:1 14155:1 14220:1 14236:3 14362:1 14480:1 14515:1 14663:1 14722:1 14809:1 15301:1 15404:1 15420:1 15572:1 15652:1 15723:1 16001:1 16088:1 16228:1 16614:1 16707:2 16818:1 16822:1 16829:1 16831:1 16923:1 17170:1 17350:1 17366:1 17859:1 18194:1 18970:1 19052:1 19171:1 19433:1 19476:1 19883:1 20433:1 20825:1 21440:1 21997:1 22056:1 22082:1 22396:1 22521:1 22875:1 23136:1 23585:1 23847:1 23853:1 25106:1 25719:1 25882:1 26223:1 26369:1 26620:1 26796:1 27188:1 27422:1 27449:1 27583:1 27847:1 28005:1 28061:3 28479:1 28603:1 29759:1 29861:1 30205:2 30285:1 31221:1 31295:2 31298:1 31456:1 31558:1 32035:1 32307:2 32335:1 33020:1 34033:2 34164:1 34701:1 34741:1 34829:1 34996:1 34997:1 35442:1 36138:1 36566:1 36659:1 36902:1 37555:4 37710:1 37843:1 37925:3 39154:1 39468:1 39673:1 39932:1 39990:1 40122:1 40295:1 40646:1 42186:1 42440:1 42521:1 42742:1 42836:1 42899:1 
0.002024050893112864 1:7 2:6 3:1 11:1 12:1 14:3 20:1 22:1 24:2 32:2 33:1 38:1 39:1 47:1 50:2 59:3 62:1 69:4 73:1 77:1 78:2 81:1 92:2 97:1 98:1 120:3 123:3 129:2 137:1 138:1 144:1 157:1 160:1 176:1 183:1 192:1 198:1 205:1 231:1 241:1 275:1 289:1 308:1 323:1 325:1 335:1 339:1 350:1 379:2 381:3 386:3 424:1 425:1 452:1 478:1 480:1 492:1 498:3 513:1 514:1 518:2 520:1 544:1 547:2 569:2 597:1 600:1 625:1 661:1 681:1 688:1 693:1 701:1 703:1 720:1 788:1 794:1 796:1 804:1 809:1 814:1 873:1 894:1 900:1 918:1 977:1 1023:2 1029:1 1035:2 1068:1 1081:1 1111:1 1133:1 1151:1 1171:1 1173:1 1200:1 1256:1 1316:1 1361:1 1363:1 1391:1 1503:1 1704:1 1728:1 1749:3 1796:1 1834:1 1842:1 1847:1 1882:1 1927:1 1951:1 2027:1 2086:1 2101:1 2151:1 2159:1 2228:1 2279:1 2298:1 2309:1 2311:4 2312:1 2456:1 2547:1 2616:1 2618:1 2624:1 2639:1 2645:1 2791:1 2834:1 2885:1 2948:1 2997:2 3053:1 3083:1 3132:1 3211:1 3358:1 3363:1 3380:1 3406:1 3424:1 3465:1 3468:1 3497:1 3562:1 3598:1 3621:1 3658:2 3684:1 3770:1 3783:1 3939:1 4080:1 4121:1 4160:1 4255:1 4319:1 4532:1 4533:1 4631:1 4669:1 4920:1 4962:1 5205:1 5207:1 5211:1 5545:1 5614:3 5626:1 5727:1 5846:1 6073:1 6230:1 6407:1 6453:1 6639:1 6692:1 6731:3 7089:1 7234:1 7235:1 7492:1 7521:1 7628:2 7886:1 7918:1 8037:1 8075:1 8197:1 8532:1 9004:1 9055:1 9161:1 9253:1 9915:1 10149:1 10209:1 10236:1 10402:1 10690:1 10695:1 10788:1 10896:1 10952:1 10982:1 11364:2 11600:1 11610:2 11917:2 11995:1 12457:1 12963:1 13148:1 13302:1 13431:1 13666:1 13724:1 13758:1 13804:1 13827:1 13915:1 13951:1 13958:1 14303:1 14446:1 14453:1 14537:1 14614:1 14736:1 14911:1 14916:2 14920:5 15507:1 15550:1 16183:1 16254:1 16493:1 16578:2 16896:1 17294:1 17322:1 17332:1 17363:1 18038:1 19433:1 19727:1 20357:1 20726:1 21380:1 21528:1 21785:1 22296:1 22717:1 22791:1 23854:1 24345:1 25252:2 26241:1 26252:1 26311:1 26425:1 26487:1 26551:1 26790:1 27424:1 27553:1 28056:3 28693:1 29328:5 29810:1 31214:1 31650:1 31828:1 32337:1 32343:1 33440:1 33706:1 35958:1 36048:1 36276:1 36425:1 36739:1 37140:1 38010:1 39289:2 40436:1 41367:1 41819:1 42403:1 
0.0003770722824310899 1:18 2:7 3:4 6:1 7:6 8:1 10:1 11:1 12:1 14:1 16:15 17:1 20:1 21:3 22:2 23:1 24:1 34:1 35:1 38:2 42:4 45:1 47:1 48:2 53:3 55:1 66:1 68:1 75:1 80:1 91:2 92:1 115:2 121:1 132:1 135:1 148:1 154:1 170:1 172:1 191:1 194:1 219:1 242:1 301:1 326:1 341:2 347:1 356:3 384:1 385:1 401:1 427:1 439:1 444:1 445:1 446:2 452:1 457:1 458:1 461:1 462:1 471:1 481:2 486:3 510:1 523:1 550:1 562:1 590:5 599:1 618:1 636:1 653:1 677:1 687:1 688:1 697:1 698:1 712:3 732:1 737:2 817:1 834:2 845:2 855:1 875:1 877:1 891:1 910:1 951:1 957:1 976:1 1045:1 1057:1 1058:2 1060:1 1106:1 1226:1 1238:1 1241:1 1278:1 1286:1 1314:1 1372:1 1408:1 1431:1 1474:1 1488:1 1492:1 1502:1 1513:1 1518:1 1523:1 1554:1 1561:1 1569:1 1615:1 1617:3 1637:1 1639:1 1645:1 1678:1 1696:1 1702:1 1711:1 1749:1 1753:1 1792:1 1828:1 1829:1 1861:1 1870:1 1879:9 1889:2 1931:1 1960:1 2001:1 2060:1 2236:1 2346:1 2405:1 2426:1 2464:1 2466:1 2533:1 2574:1 2650:1 2654:1 2818:1 2934:1 2965:1 2977:1 3000:1 3009:2 3028:2 3077:1 3126:1 3159:1 3177:1 3215:1 3252:1 3262:2 3487:1 3503:1 3617:1 3660:1 3663:1 3748:1 3845:1 3906:1 3988:1 4005:1 4063:2 4136:1 4191:1 4270:2 4285:2 4298:1 4351:1 4429:1 4833:1 4846:1 4979:1 5091:1 5195:1 5214:1 5237:1 5333:1 5516:1 5547:1 5686:1 5748:1 5775:1 5886:1 5894:1 6161:1 6236:1 6305:1 6338:1 6577:1 6583:2 6710:2 6904:1 6920:1 6982:1 7062:2 7078:1 7089:1 7147:1 7204:1 7278:2 7326:1 7510:1 7545:2 7677:1 7762:1 7788:1 7948:1 8181:1 8263:1 8329:1 8561:1 8730:1 8773:1 9197:1 9423:1 9428:1 9747:1 9896:1 9946:1 10769:1 11316:1 11478:1 11532:1 11540:1 11767:1 11801:1 12148:1 12174:1 12824:1 12993:1 13317:1 13372:1 13492:1 13833:1 14411:1 14660:1 14855:1 15576:1 15726:1 16036:1 16104:1 16244:1 16275:1 16447:1 16448:1 16695:1 16723:1 17160:1 17178:1 17233:1 17300:1 17314:1 17474:1 17912:1 18280:1 18285:1 18733:1 18994:1 19909:1 20103:1 20799:1 20928:1 21002:1 21147:1 21814:1 22399:1 22467:1 22577:1 22906:1 22918:1 23426:1 23700:1 23811:1 24282:1 24315:1 24507:1 24830:1 24846:1 26543:1 26666:1 27180:1 28100:1 28410:1 28467:1 28884:1 29210:1 29427:1 30519:1 30746:1 31505:1 31925:1 33274:1 34357:1 34424:1 34910:1 35958:1 36788:1 38527:1 39664:1 40406:1 41370:1 41678:6 
0.001008532995109453 1:16 2:2 3:2 4:3 10:4 11:3 13:3 14:1 15:1 16:2 18:4 20:2 23:1 29:1 30:1 31:1 34:1 35:1 39:2 41:3 45:1 50:2 54:1 55:2 73:3 77:4 80:1 88:1 95:2 113:1 116:1 120:3 121:1 126:8 128:2 129:2 132:1 134:1 135:3 139:2 143:1 150:3 167:1 175:1 186:1 196:3 208:1 209:2 211:1 218:1 219:1 220:1 222:1 239:2 241:1 242:1 251:2 252:2 256:1 259:1 267:1 290:3 296:1 308:2 310:1 317:1 327:1 330:1 335:2 337:3 348:6 349:1 383:1 395:3 403:1 420:1 423:1 430:1 437:1 438:1 442:1 452:1 458:2 463:2 474:1 482:1 518:1 532:3 546:1 576:1 577:1 593:1 629:1 632:1 633:1 659:1 666:2 679:1 684:1 690:1 694:2 697:1 698:1 720:2 729:1 735:2 736:1 750:1 754:18 759:2 761:1 770:1 784:1 794:2 797:1 835:5 843:1 852:2 855:1 858:1 861:1 866:1 870:1 874:1 894:1 902:1 907:1 922:1 946:2 950:1 952:1 957:1 966:1 969:1 970:2 1025:1 1034:1 1040:1 1087:1 1088:2 1092:1 1134:2 1156:2 1176:1 1188:1 1234:2 1239:1 1245:1 1250:1 1278:1 1281:2 1299:1 1316:1 1332:2 1345:1 1382:1 1402:1 1454:1 1456:1 1481:1 1492:1 1499:9 1504:1 1521:1 1522:1 1532:1 1577:2 1596:1 1612:1 1618:2 1622:1 1660:1 1663:1 1676:1 1684:1 1704:2 1739:1 1798:1 1829:1 1837:1 1905:1 1910:1 1922:3 1945:1 1960:1 1964:2 1967:1 1985:1 2001:1 2011:1 2054:2 2070:1 2108:1 2181:1 2197:1 2202:1 2223:1 2225:1 2236:1 2242:1 2286:2 2311:1 2428:1 2441:1 2446:1 2456:1 2480:1 2487:1 2489:1 2496:2 2499:1 2540:1 2576:2 2599:1 2602:2 2616:8 2617:1 2689:1 2699:1 2760:3 2799:1 2821:1 2852:1 2891:3 2901:1 2944:1 3037:1 3059:1 3071:1 3088:1 3109:1 3127:2 3132:1 3148:1 3150:1 3183:1 3217:1 3302:1 3306:1 3322:1 3344:2 3501:1 3554:1 3562:1 3568:1 3615:1 3685:1 3739:1 3740:1 3808:1 3851:1 3938:2 3943:2 3978:2 4005:1 4008:2 4139:1 4241:2 4345:2 4352:1 4436:2 4447:1 4488:2 4556:1 4576:14 4648:2 4696:1 4699:1 4701:1 4722:1 4724:1 4734:1 4785:1 4808:1 4847:1 4901:1 4902:1 4914:2 4963:1 4985:1 5021:1 5052:1 5145:1 5167:1 5178:1 5179:1 5193:1 5238:1 5251:1 5291:1 5342:1 5408:6 5561:1 5563:1 5586:1 5644:1 5890:1 6078:1 6220:1 6270:1 6301:1 6336:3 6370:1 6426:2 6457:1 6552:1 6561:1 6767:1 6769:1 6775:1 6837:1 7012:1 7027:2 7028:2 7048:1 7103:1 7248:1 7264:1 7266:1 7271:1 7274:1 7542:1 7576:2 7648:2 7682:1 7720:2 7749:1 7756:3 7773:2 7777:2 7795:1 7872:1 7937:1 7954:1 8116:1 8146:1 8167:1 8175:1 8230:1 8311:1 8767:1 8944:1 8999:1 9076:1 9162:1 9429:1 9487:1 9496:1 9616:1 9803:1 9909:1 9929:1 10066:1 10161:2 10324:1 10381:1 10432:1 10796:1 10853:1 10938:1 10947:3 11105:1 11130:3 11191:1 11397:1 11417:1 11535:1 11640:1 11666:1 11692:1 11697:2 11971:1 12070:1 12098:1 12128:1 12188:1 12208:1 12440:1 12506:1 12515:1 12603:1 12834:1 12870:1 12964:1 13027:1 13037:1 13121:2 13345:1 13418:1 13419:1 13619:1 13660:1 13787:1 13820:1 13949:1 13973:1 13998:1 14046:1 14058:1 14152:1 14253:4 14921:1 14934:1 15270:1 15297:1 15318:1 15504:1 15756:1 15889:1 16040:1 16170:1 16242:1 16322:1 16465:1 16595:1 16682:1 16823:1 16875:1 16911:3 16950:2 17090:2 17123:1 17442:1 17657:1 17756:1 17804:1 18265:1 18453:2 18561:1 18572:1 18799:1 18818:1 19033:1 19071:1 19217:1 19609:1 19709:1 19720:1 20431:1 20504:1 20772:1 20925:1 20928:1 21518:1 21714:1 21842:1 22327:1 22579:1 22637:1 23204:1 24147:1 24457:1 24649:1 24960:1 25119:1 25157:3 25298:1 25325:1 25798:1 26048:1 26264:1 26311:1 26405:1 26759:1 27209:1 27314:2 27338:3 27417:1 27641:1 27668:2 28088:1 29387:1 29566:1 29580:1 29723:1 29950:1 30509:2 30543:1 31356:1 31551:1 32070:1 32158:1 32327:1 32469:1 33872:1 34221:1 34774:1 34975:1 35128:1 35829:1 36428:1 36579:1 36962:1 37110:1 38136:2 38192:1 38245:1 39206:1 39380:2 39568:1 39839:1 40048:1 40136:1 40198:1 40431:1 40644:1 40796:1 41268:1 41564:1 41740:1 42180:3 42731:1 
0.004078667317789034 1:15 2:4 3:3 4:4 9:1 10:1 18:1 25:8 37:1 40:1 44:1 48:2 51:1 54:4 55:2 73:1 79:1 82:6 83:2 84:1 109:1 131:1 132:1 144:3 187:1 191:1 192:1 198:1 220:2 221:1 226:2 234:1 243:2 272:2 284:1 295:4 330:1 336:1 360:2 380:1 382:1 386:2 390:3 396:1 420:3 442:1 447:1 459:3 470:1 474:12 477:2 500:1 507:1 517:7 617:1 677:1 718:1 724:1 746:3 777:1 818:1 853:1 940:1 958:2 978:1 1038:1 1045:1 1083:1 1112:1 1165:1 1175:1 1196:1 1198:1 1202:1 1204:1 1241:1 1319:2 1325:1 1354:3 1477:1 1478:1 1603:1 1694:1 1710:1 1755:1 1789:1 1821:3 1823:1 1870:1 1872:1 1898:1 1909:2 1943:1 1945:1 1951:1 1982:3 2064:1 2157:1 2205:1 2347:1 2369:1 2395:1 2396:1 2496:1 2500:1 2563:1 2761:1 3122:1 3227:1 3275:1 3277:1 3279:1 3526:1 3530:2 3586:1 3611:1 3643:1 3758:1 3791:1 3838:1 3867:1 3873:1 3885:2 3900:1 3936:1 3966:1 3988:1 4082:1 4191:1 4400:1 4412:1 4468:1 4595:1 4607:1 4640:1 4714:1 4768:1 4899:1 5181:1 5238:1 5675:2 5691:1 5784:2 5869:1 5893:1 6337:1 6406:1 6725:2 6742:2 6924:1 6935:1 7015:1 7037:1 7308:1 7312:1 7511:1 7580:1 7790:1 7796:1 7994:1 8021:1 8027:2 8051:1 8536:1 8562:1 8681:1 8886:1 9075:1 9105:1 10027:1 10679:1 10767:1 10838:1 10958:1 11438:1 11660:1 11683:1 12235:1 12379:1 12673:1 13117:1 13321:1 13431:1 14033:1 15628:1 16228:1 16633:1 16813:1 17248:1 18894:1 19534:1 20059:1 20114:3 23437:1 24615:1 25073:1 26263:1 28283:1 28870:1 31244:1 32519:1 33507:1 34190:1 36174:1 37002:1 39203:1 
1.936938039464754e-005 1:15 2:7 3:4 7:1 9:1 11:1 14:2 15:2 16:3 18:5 22:1 24:1 26:2 29:1 37:2 42:2 44:1 45:1 48:1 51:1 54:1 59:1 68:2 85:2 91:1 97:1 109:1 127:1 129:7 132:1 137:1 158:5 159:1 169:2 180:1 196:2 211:1 220:1 222:1 233:1 237:1 245:2 251:1 256:1 279:1 293:1 314:2 325:1 329:1 383:1 398:1 401:1 407:1 413:1 427:1 433:1 458:1 478:1 490:3 503:1 524:2 532:1 543:2 549:1 573:1 592:1 593:4 599:1 600:2 608:1 610:1 647:1 677:1 690:1 701:1 730:1 736:1 751:1 786:2 796:1 800:1 838:1 848:1 861:1 875:1 887:1 898:1 938:4 949:1 999:1 1016:1 1033:1 1057:1 1065:1 1078:2 1091:2 1098:1 1115:1 1136:1 1154:1 1163:2 1198:1 1293:1 1300:1 1327:2 1331:1 1343:1 1359:1 1388:1 1393:1 1420:1 1437:1 1524:1 1538:2 1603:1 1640:4 1680:1 1703:2 1720:2 1809:4 1829:1 1870:1 1908:1 1910:1 1946:1 1971:1 2011:1 2024:1 2050:1 2069:1 2074:1 2079:1 2086:1 2190:1 2261:1 2332:2 2334:1 2338:2 2407:1 2480:2 2487:1 2510:2 2589:1 2621:1 2659:1 2692:1 2724:1 2734:1 2752:1 2848:1 2882:2 2891:2 2945:1 3049:1 3267:1 3347:1 3422:1 3484:1 3493:1 3516:1 3534:1 3723:1 3739:2 3756:1 3768:1 3849:1 3867:1 3939:1 4096:1 4132:1 4221:1 4333:1 4593:1 4599:1 4602:1 4667:1 4758:1 4792:1 4807:1 4811:1 4853:1 4864:1 4889:3 4996:1 5021:1 5033:1 5075:1 5081:1 5141:1 5194:1 5239:1 5332:1 5369:1 5400:1 5406:1 5410:2 5497:1 5561:1 5580:1 5594:1 5800:1 5850:1 5964:2 6051:1 6266:1 6312:1 6325:1 6426:3 6437:1 6478:1 6697:1 6758:1 6894:1 7071:2 7076:1 7078:1 7310:1 7437:1 7530:1 7765:1 7832:1 7848:1 7937:1 7940:1 7942:1 7994:1 8121:1 8146:1 8210:2 8236:1 8335:1 8473:1 8580:1 8588:1 8757:1 8850:1 8992:1 9021:1 9030:1 9162:1 9230:1 9290:1 9634:1 9738:1 9753:1 9812:1 9998:1 10079:1 10370:1 10442:1 10516:1 10883:1 11006:1 11047:1 11149:1 11185:1 11339:1 11707:1 11735:1 11925:1 12001:1 12087:1 12178:1 12626:1 12709:1 12868:1 13089:1 13216:1 13248:1 13812:1 14018:1 14077:1 14145:1 14163:1 14191:1 14328:1 14383:1 14518:1 14564:1 14652:1 14943:1 15198:1 15333:1 16161:1 16424:1 16492:1 17088:1 17148:1 17254:1 17283:1 17491:1 17627:1 17649:1 17700:1 18021:1 18081:1 18372:1 18578:1 18748:1 19004:1 19813:1 20043:1 20191:1 20813:1 20917:2 21483:1 21582:1 21787:1 21798:1 21853:1 22055:1 22529:1 22583:1 23099:1 23213:3 23548:1 23709:1 24670:1 25329:1 25369:1 25947:1 26066:1 26219:1 27551:1 27815:1 28063:1 28417:1 29123:1 29609:1 29912:1 30765:1 31301:1 33052:1 33986:1 34257:1 34438:1 34632:1 34699:1 34845:1 34920:1 35255:1 35734:1 36101:1 36114:1 36165:1 36847:1 37293:1 37811:1 38127:1 40361:1 42073:3 42278:1 43077:1 43161:1 
0.002015908325537043 1:8 2:3 3:3 4:1 5:2 6:1 9:1 15:2 19:2 39:1 40:2 93:1 106:1 116:1 119:1 144:1 170:1 197:4 210:2 225:1 229:1 262:1 266:2 314:1 379:1 418:1 501:1 507:1 531:1 549:1 556:1 573:1 688:1 723:2 725:1 738:2 742:1 752:1 923:1 933:1 980:1 987:1 1000:3 1078:1 1426:1 1431:1 1451:1 1501:1 1536:1 1777:2 1895:1 1916:1 1979:1 2050:1 2066:1 2138:1 2162:1 2167:1 2168:1 2197:1 2215:1 2264:1 2318:2 2669:1 2699:1 2719:1 2728:1 2775:1 2820:1 2956:1 3039:1 3094:1 3106:1 3371:1 3381:1 3398:1 3410:2 3573:1 3955:1 4323:1 4394:3 4439:1 4665:1 5000:2 5036:1 5311:1 5315:1 5319:1 5822:1 5951:1 6009:1 6256:1 6356:1 6732:1 7252:1 7302:1 7416:1 7460:1 7797:1 7982:1 8432:1 8544:1 8606:1 8681:1 8847:1 8858:1 8979:1 9020:4 9545:1 9849:3 10249:1 10441:1 10467:1 10545:1 10685:1 11235:1 11246:1 11339:1 11341:1 11372:1 11515:4 12868:1 12882:1 13634:1 13662:1 13816:1 14061:1 14943:1 15078:1 15548:1 16423:1 17127:1 17753:2 18187:1 18633:1 19119:1 19403:1 19581:1 21122:1 21736:2 25538:1 27051:1 27579:1 29574:3 30102:1 31899:1 33416:2 34552:1 34914:1 38157:1 39798:1 40009:1 42520:9 
0.001151170298481519 1:26 2:4 3:3 4:1 6:1 7:1 12:1 14:1 20:1 21:1 26:5 30:1 31:1 34:2 39:1 42:1 44:2 48:1 51:1 53:1 68:4 69:2 70:1 73:1 93:5 95:1 98:1 100:1 116:1 119:6 132:1 135:1 159:2 173:1 180:1 181:4 222:1 224:1 238:1 250:2 257:1 259:1 268:2 302:2 324:4 331:1 345:1 355:1 367:1 368:1 394:2 407:1 424:1 427:1 430:2 431:1 467:1 491:1 507:1 522:3 531:1 540:1 551:1 557:1 563:1 574:1 622:3 638:1 649:3 666:1 670:1 681:1 695:4 703:1 711:6 718:1 763:1 768:1 775:1 798:1 807:1 821:1 836:1 856:1 858:1 866:1 875:1 896:3 897:1 908:1 916:1 979:1 985:1 995:1 1012:3 1029:1 1089:1 1093:1 1160:1 1176:1 1200:1 1227:1 1239:1 1244:1 1253:1 1256:1 1262:2 1277:1 1309:2 1344:1 1349:1 1362:1 1385:1 1471:1 1536:2 1647:1 1659:1 1697:3 1715:1 1732:1 1741:1 1791:1 1817:1 1818:1 1822:1 1823:1 1857:1 1865:1 2110:2 2130:1 2168:1 2171:1 2178:1 2180:1 2213:1 2228:1 2250:1 2251:1 2311:1 2386:1 2448:1 2452:1 2595:1 2623:1 2717:1 2719:1 2725:1 2742:1 2787:2 2823:2 2831:3 2861:1 2880:1 2892:1 2967:1 3022:1 3053:1 3056:1 3066:1 3100:1 3114:7 3134:1 3191:1 3201:1 3218:1 3268:1 3283:1 3320:2 3356:1 3501:1 3512:1 3517:1 3550:1 3604:1 3638:1 3769:1 3773:1 3794:1 3889:1 3946:2 3996:1 4009:2 4037:1 4067:1 4090:1 4109:1 4122:1 4188:1 4233:1 4306:1 4355:1 4491:1 4532:2 4652:1 4907:1 5017:1 5114:1 5171:1 5290:1 5307:1 5428:1 5475:1 5573:2 5609:1 5714:1 5814:3 5919:1 5944:1 6024:1 6414:1 6422:2 6523:1 6726:1 6761:1 6820:1 6880:1 6925:1 6934:1 6965:1 7000:1 7081:1 7098:1 7132:1 7143:1 7207:1 7265:1 7409:1 7465:1 7545:1 7566:1 7669:2 7810:1 7847:1 7876:1 8083:1 8164:1 8349:1 8449:1 8463:2 8479:2 8525:1 8544:1 8589:1 8591:1 8740:1 8744:1 8886:1 9125:1 9679:2 9813:1 9921:1 9942:2 9988:1 10009:1 10034:1 10084:1 10093:1 10150:1 10235:1 10370:1 10382:1 10598:1 10657:1 10848:3 11076:1 11128:1 11168:1 11202:1 11237:1 11280:1 11543:1 11636:1 11761:1 11953:1 11987:1 12002:1 12341:1 12346:3 12449:1 12460:1 12495:1 12619:1 12688:3 13193:1 13220:1 13415:1 13628:1 13720:1 14047:1 14104:1 14186:1 14576:1 14589:1 14696:1 14824:1 15086:1 15304:2 15321:2 15392:1 15990:1 16373:1 16512:1 16792:1 16811:1 16901:1 16988:3 17285:1 17363:1 17617:1 17905:2 17965:1 18168:1 18194:1 18366:1 18460:1 18471:1 18492:1 18696:1 18762:1 18814:1 18950:1 19179:1 19649:1 20092:1 20526:1 20528:1 21710:1 22886:1 22947:1 22980:1 23056:1 23364:1 24228:1 24482:1 24564:1 24992:2 25171:1 25282:1 25388:1 25481:1 25798:1 26144:1 26601:1 27250:1 27434:1 27563:1 28344:1 28681:1 28700:1 29347:1 29788:1 30084:1 30544:1 30673:1 30775:1 31350:1 31396:1 31959:1 31982:1 32068:1 32589:1 34112:1 34695:1 34807:1 35008:1 35662:1 35842:1 35896:1 37143:1 37610:1 37768:1 37949:1 38094:1 38572:1 39334:1 40179:1 40372:1 40522:1 40813:1 40869:1 40872:1 40921:1 40958:1 41327:1 41352:1 42001:1 42548:1 43157:1 
0.0009840214071371257 1:9 2:3 6:3 7:2 8:1 11:3 15:7 16:3 19:1 20:1 29:13 41:3 42:2 44:1 47:1 53:1 65:3 68:1 88:4 90:2 96:1 100:1 120:1 122:1 135:2 136:1 137:2 140:1 141:1 149:1 151:1 161:1 163:2 170:1 183:1 195:1 205:10 211:2 245:2 256:1 259:1 263:1 275:1 279:4 306:1 317:1 329:2 350:2 352:1 382:1 400:1 412:2 419:14 424:2 438:1 463:1 474:1 475:1 479:1 507:1 521:1 523:1 609:1 610:1 620:2 650:1 658:3 660:1 708:1 709:2 786:1 794:2 807:2 834:1 835:1 852:5 861:1 892:2 914:1 986:1 1048:1 1059:1 1063:1 1344:1 1345:1 1359:1 1423:1 1488:1 1522:1 1578:1 1591:1 1642:1 1821:1 1851:1 1869:1 1870:1 1891:1 1929:1 1960:1 2019:1 2084:1 2107:1 2215:3 2219:1 2234:1 2460:1 2575:2 2677:2 2696:1 2718:1 2760:1 2841:1 2856:1 2858:2 2860:4 2888:1 2976:1 3044:1 3081:1 3183:1 3243:1 3256:1 3270:1 3322:1 3323:1 3338:1 3371:1 3465:1 3483:1 3574:1 3665:1 3693:1 3784:1 3795:1 3822:1 3826:1 3842:2 3853:1 3869:1 3900:3 4065:1 4128:2 4183:2 4184:1 4291:1 4300:4 4488:1 4717:1 4838:1 5211:1 5389:1 5412:2 5850:1 5960:1 5961:1 6133:1 6234:1 6299:1 6814:1 7075:1 7471:1 7509:1 7563:1 7741:1 8012:1 8147:2 8273:1 8280:1 8298:1 8496:1 8536:1 8564:1 8975:1 9037:2 9108:1 9616:1 9824:1 10155:1 10343:1 12104:1 12515:1 12691:1 13032:2 13248:1 14029:1 14153:1 14277:1 14382:1 14559:1 15534:1 15591:1 15752:1 15756:1 16065:1 16925:1 17329:1 17425:1 18090:1 18879:1 19777:3 20756:1 21275:1 21539:1 22189:1 22476:1 22684:1 22903:1 23208:1 23763:1 25618:1 26432:1 26490:1 26838:1 27835:1 28449:1 28735:1 29370:1 31358:1 32145:1 32553:1 35605:1 36622:1 36884:1 37024:1 37780:1 37869:1 37956:1 38194:1 38854:1 39160:1 40727:1 41674:1 
0.0004384941223750417 1:10 2:5 3:5 7:1 8:1 9:5 12:1 14:3 18:2 19:2 20:2 30:1 32:3 34:1 39:1 48:1 50:1 51:2 58:1 59:2 65:1 68:1 69:1 71:1 85:1 92:1 98:1 113:1 114:1 115:2 123:2 151:1 153:2 169:1 172:1 187:1 239:3 259:1 260:1 308:2 318:1 324:1 325:1 335:1 341:1 350:1 374:1 379:1 382:1 386:1 400:1 401:1 417:2 422:1 427:1 428:1 446:1 485:1 545:1 553:1 574:1 586:2 604:1 649:1 678:1 695:1 698:1 702:1 703:1 704:3 712:1 740:1 748:1 749:1 875:1 876:1 935:1 946:1 961:1 966:1 971:1 997:1 1029:1 1031:1 1059:1 1068:1 1112:3 1164:3 1201:1 1225:1 1312:1 1351:1 1452:1 1480:1 1503:1 1649:1 1661:1 1692:1 1723:1 1736:1 1769:1 1778:1 1789:1 1871:2 1963:1 1978:1 1982:1 2047:2 2060:1 2068:1 2082:1 2104:1 2165:1 2222:1 2226:1 2335:1 2353:1 2390:1 2444:1 2456:1 2484:1 2490:1 2507:1 2549:1 2563:1 2565:1 2568:1 2579:1 2580:1 2616:1 2629:1 2648:1 2653:1 2666:1 2671:1 2677:1 2718:1 2771:1 2821:1 2831:1 3022:1 3057:1 3085:1 3100:1 3113:1 3181:1 3266:1 3320:1 3425:1 3481:1 3550:1 3615:1 3638:1 3717:1 3839:1 3867:1 4321:1 4345:1 4559:1 4664:1 4682:1 4734:1 4763:1 4786:1 5044:1 5046:1 5098:1 5245:2 5273:1 5638:1 5650:2 5658:1 5694:1 5771:1 5805:1 5848:1 5924:1 5966:2 6098:1 6338:1 6407:1 6476:1 6659:1 6718:1 6867:1 6877:1 7021:1 7057:1 7122:1 7134:1 7139:1 7167:1 7278:1 7310:1 7315:1 7364:1 7441:1 7496:1 7552:1 7783:1 7784:1 7869:1 7937:1 8106:1 8723:1 8877:1 8993:1 8998:1 9028:1 9074:1 9293:1 9300:1 9341:1 9346:1 9484:2 9518:1 9847:1 9964:1 10242:1 10384:1 10477:1 10492:1 10620:1 10625:3 11089:1 11270:1 11276:1 11313:1 11424:1 11577:1 11805:1 11893:1 12097:1 12242:1 12342:1 12508:1 12639:1 12772:1 13021:4 13366:1 13856:2 13888:1 14037:1 14302:1 14721:1 15694:1 16006:1 16307:1 16336:2 16477:1 17017:1 17391:1 17506:1 17509:1 18214:1 18315:1 18394:1 18739:1 19155:1 19215:1 19580:1 19907:1 20147:1 20200:1 20210:1 20561:1 20735:1 20986:1 21302:1 21576:1 21827:2 21906:2 22010:1 22028:1 22066:1 22143:1 22531:1 23230:1 23532:1 23557:1 23585:1 23592:1 25342:1 25922:1 26004:1 26130:1 27593:1 28997:1 29041:1 29278:1 29928:1 30071:1 30164:1 30579:1 30580:1 30897:1 31991:1 32144:1 32303:1 32374:1 32632:1 33674:1 34001:1 34164:1 34572:1 34807:1 35170:1 35410:1 35587:1 36586:1 37524:1 39306:1 39507:1 40240:1 40650:1 40781:1 41471:1 42408:1 43177:1 
0.00504983806870528 1:4 10:1 11:1 35:1 55:1 63:1 69:1 95:1 142:1 163:1 250:1 252:1 349:2 351:1 379:1 399:1 455:1 463:1 465:8 496:1 698:1 729:1 760:1 771:1 782:1 800:1 912:1 967:1 1065:1 1214:1 1224:1 1265:1 1384:1 1503:1 1583:1 1818:1 1829:1 1838:1 1957:1 2530:1 2613:1 2738:1 2788:1 3301:1 3920:1 4108:1 4523:5 4614:1 4883:2 5161:1 5164:1 5244:1 5326:1 5338:1 5610:3 5643:1 5743:1 5864:1 6678:1 7830:2 7915:1 8215:1 8484:1 8771:1 9180:2 9859:2 10169:1 11115:2 11356:1 12220:2 12866:1 14036:1 14164:1 14407:1 14824:1 15274:2 15855:1 17158:1 17360:1 17506:1 18105:1 18499:1 19020:1 19221:1 19508:1 19718:1 21305:1 22091:1 22217:1 22653:2 25331:1 25545:2 26753:1 27092:1 28245:1 28316:1 30156:1 30973:2 31295:1 31337:1 31750:1 32300:1 33044:1 36077:1 36846:1 37960:1 38859:1 39466:1 41309:1 42242:1 
0.001650441161309808 1:22 2:9 3:7 4:2 5:4 6:2 7:18 8:2 9:1 10:1 11:3 12:1 15:17 16:3 20:4 22:1 24:1 28:1 29:18 30:2 31:1 32:5 35:1 37:4 39:2 41:2 42:2 43:1 48:1 54:1 56:1 65:7 68:2 70:3 71:1 76:1 77:2 79:3 81:3 86:2 87:1 88:3 90:2 92:6 95:4 98:1 104:1 106:2 109:1 112:5 113:1 115:1 116:6 120:1 125:1 135:3 137:1 138:2 141:3 142:4 144:2 151:1 152:1 154:1 155:2 157:1 158:2 161:6 166:1 170:1 174:1 175:1 181:1 198:1 201:2 205:4 206:10 209:1 210:8 211:1 219:1 220:1 228:1 239:1 240:1 241:2 247:10 250:1 259:1 268:1 274:2 277:2 279:2 282:5 292:1 307:1 309:1 310:1 312:1 316:1 320:2 322:3 335:1 337:1 343:1 348:6 357:1 363:1 364:2 386:1 392:1 399:1 400:2 405:5 410:1 415:1 416:1 419:1 442:5 448:2 449:2 455:3 465:2 479:1 485:1 495:3 499:1 510:1 520:1 521:1 529:2 541:2 555:2 559:1 570:1 585:2 589:1 593:1 596:2 597:1 621:1 634:2 642:1 666:1 671:1 677:1 683:1 687:2 693:1 695:1 712:2 714:3 715:2 716:1 717:1 719:1 722:1 730:1 732:9 733:1 754:1 757:3 760:1 761:4 797:1 834:1 848:1 852:2 855:4 864:2 866:1 875:1 890:2 912:1 922:1 933:2 950:1 952:1 962:1 977:1 991:2 994:1 1000:1 1014:4 1023:1 1036:7 1045:4 1070:1 1081:1 1084:3 1105:3 1109:1 1110:1 1112:1 1118:1 1125:1 1151:1 1156:5 1159:2 1178:1 1184:1 1191:1 1212:1 1218:2 1253:3 1263:3 1278:1 1294:4 1303:1 1326:1 1332:1 1382:1 1383:2 1385:1 1398:1 1408:1 1415:1 1428:2 1432:1 1459:2 1461:3 1468:1 1478:4 1487:3 1508:1 1511:1 1529:1 1553:3 1566:1 1569:1 1588:1 1606:2 1607:1 1609:1 1651:1 1659:1 1662:1 1753:1 1754:1 1771:1 1783:2 1813:2 1836:3 1854:1 1857:1 1891:1 1904:2 1915:1 1922:2 1928:1 1952:1 1984:1 1992:1 2006:1 2022:1 2031:1 2035:1 2097:2 2102:1 2105:1 2116:1 2167:2 2178:1 2187:1 2200:1 2203:1 2278:1 2295:1 2297:2 2316:6 2346:1 2365:2 2392:1 2426:1 2434:1 2475:1 2495:2 2505:1 2552:1 2602:1 2609:1 2620:1 2652:1 2664:2 2675:2 2680:1 2737:1 2748:1 2831:1 2834:2 2837:1 2838:1 2848:1 2912:2 2913:1 2926:2 2943:1 2967:1 2977:4 2993:1 3051:1 3056:1 3096:1 3109:1 3125:1 3153:4 3185:1 3283:1 3297:1 3338:1 3339:1 3342:1 3367:1 3370:1 3379:1 3403:1 3424:1 3434:1 3459:1 3465:1 3496:1 3513:1 3515:1 3733:1 3826:1 3844:2 3871:1 3946:1 3964:1 3969:1 3993:1 4030:2 4052:1 4133:1 4152:1 4194:1 4322:1 4385:1 4399:1 4412:1 4505:2 4509:2 4523:2 4559:1 4561:1 4587:2 4607:1 4628:1 4655:1 4675:1 4676:1 4728:1 4773:2 4817:1 4828:1 4881:3 4883:2 5023:1 5028:3 5043:1 5056:1 5067:1 5076:1 5140:1 5146:1 5190:1 5233:1 5237:1 5260:1 5291:2 5299:1 5328:1 5415:1 5496:1 5522:1 5610:2 5820:1 5830:1 5858:1 5889:1 5928:1 5929:1 5944:1 5954:2 5968:4 5979:1 6054:1 6132:1 6167:1 6234:1 6253:2 6369:1 6415:1 6511:1 6549:1 6594:1 6804:1 6838:1 6854:1 6879:1 6909:1 6926:1 6935:1 6964:5 7036:2 7068:1 7091:1 7149:1 7181:1 7307:1 7341:1 7367:1 7575:1 7578:1 7579:1 7585:1 7595:1 7630:1 7654:1 7662:1 7831:2 7860:1 7934:1 8005:1 8164:1 8186:1 8271:1 8315:1 8333:1 8369:1 8372:1 8448:1 8491:1 8494:1 8550:2 8639:1 8707:1 8747:1 8752:1 8780:1 8856:1 8884:1 8944:1 9093:2 9109:1 9248:1 9343:1 9354:2 9388:1 9418:1 9446:1 9613:2 9622:1 9660:1 9768:2 9854:1 9905:1 9970:1 10149:3 10256:1 10407:1 10414:1 10433:1 10576:1 10712:1 10812:1 10964:1 11004:4 11064:1 11128:1 11271:1 11299:1 11522:1 11526:1 11589:1 11689:1 11802:1 11907:1 11928:2 12051:1 12062:2 12076:1 12110:3 12162:1 12168:1 12220:1 12311:1 12536:1 12651:1 12886:1 12893:1 12902:1 12950:2 13159:1 13208:1 13228:1 13397:2 13408:1 13516:1 13569:1 13782:1 13804:1 13842:2 13877:1 13999:1 14017:1 14153:1 14274:2 14322:1 14451:1 14672:1 14699:1 14735:1 14761:1 15178:1 15203:1 15238:1 15409:1 16230:1 16233:1 16661:1 16749:2 17289:1 17445:1 17676:1 17928:1 18054:2 18192:1 18255:1 18269:1 18462:1 18472:1 18561:1 18608:1 18640:1 18803:1 18932:1 19016:1 19066:1 19574:1 20169:1 20414:1 21256:1 21305:1 21385:1 21702:1 21788:1 21968:1 22050:1 22163:1 22167:1 22187:2 22285:1 22656:1 22660:1 23127:1 23335:2 23458:1 23487:1 23576:2 23843:1 23933:1 23953:1 24015:1 24111:1 24158:1 24442:1 25158:1 25248:1 25416:1 25650:1 25899:1 26174:1 26846:1 26914:1 26919:1 27012:1 27056:1 27244:1 27571:1 28014:1 28053:2 28478:1 28822:1 29096:1 29161:2 29503:1 29609:1 29796:1 30232:1 30511:1 30804:2 30860:1 31363:1 32484:1 32539:2 32811:1 33040:1 33064:1 33222:1 33229:1 33354:1 33571:1 33573:1 33591:1 34438:1 34721:1 34993:1 35128:1 35171:1 35329:1 35380:1 35444:1 35545:1 35866:1 36214:1 36685:1 37769:1 38751:2 39046:1 39255:1 39293:1 39388:1 39499:1 39976:1 40465:1 40513:3 40648:1 40738:1 40744:1 40955:1 41157:1 41511:1 41614:1 42464:1 42824:1 42872:1 43178:1 
0.001906600963818131 1:8 2:1 3:1 5:1 11:2 12:1 14:1 22:1 26:2 59:1 77:1 177:4 183:1 194:1 248:5 427:1 451:1 482:1 492:1 583:1 599:1 661:1 808:1 896:2 948:2 961:4 1087:1 1210:1 1552:1 1949:2 2319:1 2796:1 2912:1 2985:1 2997:1 3424:1 3912:1 4322:1 4462:1 4526:1 4903:1 5048:1 5102:1 5172:4 5339:1 5568:1 6004:1 6150:1 6177:1 6212:7 6628:1 6737:1 7704:4 8013:1 8272:4 9118:1 9309:1 9749:1 9788:1 9891:3 9994:1 10028:1 10906:1 11130:2 11249:1 12455:1 12795:1 13256:1 13633:1 13913:1 14235:1 14269:1 15006:1 16078:1 16171:1 16277:1 16372:2 16846:1 17952:1 18150:1 18401:1 18616:2 20253:1 20407:1 20770:1 21003:2 21142:1 22570:1 23609:1 24136:1 27380:1 27458:1 28956:2 31103:1 32201:1 33008:1 34253:2 34550:1 37845:1 40302:1 
0.0004355921395164359 1:21 2:2 3:2 5:1 8:2 10:2 12:4 14:2 16:1 17:1 20:3 21:2 26:2 29:1 31:2 34:3 38:4 40:2 41:1 42:2 45:3 48:2 55:1 63:2 64:1 65:4 66:1 73:1 78:1 79:1 80:1 83:2 87:1 91:1 93:2 100:1 101:2 110:1 114:1 115:1 124:1 130:1 133:2 138:1 145:1 149:1 163:1 166:2 168:1 172:1 175:1 185:1 192:2 198:1 200:1 209:1 213:1 217:2 222:2 224:2 240:1 246:1 263:1 268:1 273:1 275:1 277:1 281:3 301:3 304:1 305:1 309:1 316:1 319:1 329:1 333:1 336:1 347:2 354:1 357:2 360:1 361:1 367:1 375:1 382:1 383:1 398:1 411:1 425:1 426:1 427:1 447:1 450:1 452:1 463:2 471:1 474:4 476:1 492:1 504:2 524:1 528:4 533:1 534:1 546:1 548:1 555:1 558:3 561:1 573:1 574:3 580:1 582:1 585:1 612:1 658:2 661:1 684:1 694:1 700:1 712:1 724:1 735:1 750:1 752:1 765:1 767:2 779:1 786:1 788:2 789:1 793:1 828:2 835:1 843:1 852:1 862:1 872:1 889:1 910:1 946:1 969:1 981:1 1009:2 1015:1 1025:1 1038:2 1052:2 1057:1 1058:1 1085:2 1089:1 1098:1 1112:1 1131:1 1166:1 1226:1 1227:1 1241:1 1262:1 1270:1 1285:1 1304:9 1307:1 1312:3 1316:1 1319:1 1323:1 1325:1 1329:1 1342:1 1351:1 1354:2 1386:1 1396:1 1425:2 1440:1 1457:3 1466:1 1469:1 1484:1 1492:1 1495:1 1537:1 1552:2 1565:1 1566:1 1593:1 1602:1 1618:1 1635:1 1658:1 1678:1 1694:1 1710:1 1784:3 1792:1 1813:1 1821:1 1823:1 1839:1 1840:1 1845:2 1905:3 1921:1 1922:1 1954:1 1967:1 1982:2 1987:1 2013:2 2043:1 2062:1 2177:5 2200:1 2218:1 2236:1 2277:1 2299:1 2363:1 2375:2 2394:1 2476:1 2485:1 2488:1 2521:1 2531:1 2538:1 2566:1 2610:1 2666:2 2667:1 2757:1 2792:3 2837:1 2901:1 2921:1 3013:2 3023:1 3025:1 3040:1 3047:2 3117:1 3177:1 3215:1 3250:1 3254:1 3256:2 3330:1 3423:1 3434:1 3437:2 3465:1 3475:1 3495:1 3513:1 3624:1 3711:1 3766:1 3772:2 3814:2 3885:1 3912:2 3914:7 3980:1 4029:1 4208:1 4278:1 4291:2 4376:1 4401:1 4519:1 4602:2 4633:1 4642:2 4655:2 4707:1 5012:2 5113:1 5193:1 5206:1 5222:1 5250:1 5317:3 5360:2 5367:1 5421:1 5574:1 5585:1 5588:1 5669:3 5695:1 5763:1 5821:3 5829:1 5956:1 6009:1 6017:1 6032:4 6130:1 6226:1 6233:1 6236:2 6244:2 6285:2 6301:2 6390:1 6480:1 6742:2 6831:1 6869:1 6901:1 7126:1 7178:1 7276:1 7370:1 7380:1 7411:1 7437:1 7598:1 7633:1 7637:1 7850:1 7952:1 7991:1 8089:1 8118:1 8278:1 8352:1 8375:1 8410:1 8497:1 8585:1 8653:1 8788:1 9073:1 9249:1 9831:1 9983:1 9985:1 10045:1 10171:1 10432:1 10489:1 10602:1 10695:1 10733:1 10833:1 11104:1 11118:1 11262:1 11390:1 11482:1 11700:1 11785:2 11790:1 11999:1 12030:1 12053:1 12225:1 12324:1 12404:1 12487:1 12532:1 12595:2 12674:1 12705:1 13078:1 13134:1 13272:1 13443:1 13489:1 13561:1 13589:1 13932:1 13992:1 14043:2 14424:1 14508:1 14657:1 14873:1 15028:1 15384:1 15451:1 15592:2 15628:2 15684:1 15750:1 15982:1 16002:1 16012:1 16516:1 16671:1 17077:1 17668:1 17687:1 18723:3 18961:1 19117:1 19170:1 19267:1 19283:5 19357:1 19396:2 19728:1 19758:2 20530:1 20752:4 20898:2 23061:1 23535:1 23572:1 24095:1 24142:1 24206:1 24437:1 24837:1 26582:1 26625:1 26959:2 27408:1 28324:1 28331:1 29626:1 30945:1 30950:1 31104:1 31477:1 31850:1 32469:1 32916:1 32965:1 33277:1 33307:1 33960:1 34017:1 34382:1 34735:1 34785:1 34921:1 35042:1 35496:1 36401:1 36419:1 36808:1 36996:1 37478:1 37684:1 39242:1 41410:9 41535:2 41909:1 42941:1 43243:1 
0.00211436193032094 1:6 2:1 4:1 5:1 9:1 11:6 13:2 16:1 21:1 27:8 30:1 31:1 32:1 33:7 36:1 39:6 40:1 42:1 45:5 51:1 53:1 55:1 61:1 84:1 95:2 102:5 109:1 147:2 159:1 167:2 177:1 183:1 222:1 224:1 234:2 241:1 244:3 245:1 251:1 256:2 275:1 294:2 296:1 302:1 307:1 313:2 329:1 341:1 356:2 363:1 367:3 394:1 397:1 399:1 412:1 420:1 433:1 455:2 478:1 484:2 503:1 507:1 536:1 540:1 543:5 562:1 605:1 618:1 621:2 642:1 647:2 673:1 674:1 691:1 699:1 700:1 710:1 720:2 724:2 730:1 748:1 785:1 786:1 805:1 823:1 834:1 861:1 893:1 910:1 922:1 967:2 969:1 994:2 1007:1 1034:1 1082:1 1098:1 1105:2 1112:1 1137:1 1138:1 1165:1 1169:1 1183:1 1188:4 1281:2 1327:1 1334:1 1347:1 1350:1 1375:1 1426:2 1434:1 1457:4 1475:2 1516:1 1547:1 1560:2 1583:4 1594:2 1623:1 1693:1 1792:1 1899:1 1921:2 1937:1 1945:1 1951:1 2022:2 2060:1 2070:1 2106:2 2229:1 2308:1 2367:1 2393:1 2557:2 2571:1 2589:1 2610:1 2735:1 2818:1 2936:1 3054:2 3062:1 3070:1 3141:1 3186:1 3188:1 3219:2 3226:1 3245:3 3263:2 3303:1 3325:1 3459:1 3584:1 3625:1 3682:1 3704:1 3712:1 3735:1 3958:1 4093:1 4099:1 4157:1 4290:1 4539:1 4606:1 4613:1 4733:1 4818:1 5005:1 5174:1 5246:1 5248:1 5339:2 5361:1 5395:1 5502:1 5508:1 5546:1 5626:1 5716:1 6260:4 6348:3 6353:1 6437:1 6473:1 6607:1 6737:1 6823:1 6859:1 6895:1 6927:1 6995:1 7065:1 7088:3 7175:1 7439:1 7514:1 7530:1 7602:2 7633:1 7725:1 7900:1 7926:1 7987:1 8358:1 8445:1 8928:1 9064:2 9641:1 9747:2 9845:1 10011:1 10018:1 10029:1 10071:3 11140:1 11160:1 12188:1 12248:1 12735:1 12753:1 12787:2 12926:1 14495:2 15171:1 15538:1 15710:1 16256:1 16602:1 17505:1 17603:1 17641:1 17861:1 17898:1 18009:1 18352:1 19304:1 19741:1 20920:1 21097:1 22926:1 23218:1 23994:1 25494:1 26302:1 26925:1 26998:1 27013:1 27433:1 27616:1 28329:1 28820:1 29333:1 29463:1 29621:1 30174:1 32620:1 35586:1 40237:1 42346:1 43250:4 
0.002171185246409193 1:6 2:2 3:2 4:2 11:4 12:1 24:2 34:2 37:1 38:1 39:2 45:2 50:1 60:1 64:1 82:1 89:1 96:1 110:2 115:1 122:1 126:2 142:6 150:1 156:1 157:1 167:2 170:1 184:5 222:1 229:1 233:1 243:1 257:2 258:1 268:1 303:2 308:1 330:1 333:1 336:1 366:1 367:1 376:1 379:1 387:1 416:1 430:1 437:1 446:1 475:1 524:1 539:1 590:2 628:1 641:1 642:1 669:1 692:1 759:1 778:2 809:1 823:2 842:1 899:3 967:1 1017:1 1023:1 1084:1 1135:1 1207:1 1233:1 1238:1 1276:1 1284:1 1293:1 1310:1 1342:2 1350:1 1361:1 1369:3 1505:1 1542:1 1566:2 1663:1 1937:1 1952:2 2082:1 2247:1 2259:1 2315:3 2417:1 2517:2 2568:1 2580:1 2581:1 2603:1 2640:1 2790:4 2868:1 2876:1 2922:2 3020:1 3145:1 3268:1 3499:1 3542:1 3738:1 3755:1 3768:1 3781:1 3894:1 3904:1 3921:2 4016:1 4080:1 4089:1 4180:1 4333:1 4340:1 4420:1 4437:1 4460:1 4539:1 4875:1 4882:1 5110:1 5114:1 5449:1 5674:1 5733:1 5979:1 6433:2 6651:1 6844:1 7200:1 7243:1 7516:1 7626:1 7913:1 8526:1 9089:1 9389:1 9858:1 9934:1 9989:1 10182:1 10423:1 10760:1 10796:1 10917:1 11371:1 12219:2 12911:1 15294:3 15542:1 15627:1 16396:1 18346:1 18547:1 18938:2 19132:1 19986:1 25567:1 26619:1 26664:1 27198:1 29067:1 29256:1 29577:1 32112:1 33860:1 34256:1 35213:1 36788:1 39387:1 39533:1 39600:1 40633:1 40705:1 42288:1 
0.0003205858815443899 1:19 2:7 3:6 4:3 6:1 7:6 11:2 12:1 20:1 21:2 22:1 23:3 24:1 27:3 29:7 30:1 31:1 32:1 33:5 37:3 39:2 41:7 42:6 45:4 48:1 51:1 54:1 66:3 70:1 75:2 80:1 83:1 88:2 90:1 91:1 93:1 109:1 116:1 126:4 131:3 133:2 137:1 139:1 141:2 143:1 147:1 150:5 158:1 170:1 175:1 178:1 185:1 188:1 192:1 194:1 200:3 211:1 226:7 233:1 234:1 239:5 240:2 245:3 262:1 263:1 266:1 268:1 273:1 278:1 279:3 282:3 299:1 308:1 321:2 325:1 339:3 354:1 360:1 361:1 367:2 368:1 370:1 374:1 376:1 395:1 403:1 419:1 446:1 448:1 454:1 466:1 479:2 484:1 485:2 486:1 513:1 516:4 526:1 546:1 552:1 556:1 570:1 618:1 629:1 631:1 632:5 634:1 647:1 649:1 654:1 666:2 679:4 687:1 693:1 697:1 700:2 707:3 727:1 739:1 747:1 748:1 760:3 763:1 765:1 771:1 787:1 788:1 828:1 830:1 832:2 835:3 838:1 848:2 861:1 866:1 874:1 884:1 897:1 911:1 921:2 952:1 981:1 994:1 1000:1 1011:1 1045:1 1059:1 1062:1 1065:2 1067:3 1082:1 1083:1 1099:1 1101:1 1104:1 1108:1 1113:1 1125:1 1151:2 1201:1 1265:1 1275:5 1276:1 1278:1 1280:1 1303:1 1332:1 1341:1 1345:1 1369:1 1375:1 1380:1 1444:1 1457:1 1476:2 1487:1 1502:1 1523:1 1597:2 1609:1 1653:1 1655:2 1694:1 1779:1 1798:1 1806:1 1821:3 1829:1 1848:1 1883:1 1887:1 1893:1 1894:1 1931:1 1939:1 1966:2 2011:1 2038:1 2076:2 2130:1 2142:1 2159:1 2175:2 2203:1 2212:1 2229:1 2237:1 2248:1 2278:1 2299:1 2439:1 2446:1 2451:1 2468:1 2479:1 2560:1 2602:1 2639:1 2728:1 2759:1 2820:1 2822:1 2851:1 2863:2 2928:1 2960:23 3058:1 3063:1 3087:1 3102:1 3194:1 3282:1 3286:1 3303:2 3320:1 3364:1 3396:1 3508:1 3530:2 3557:1 3579:2 3606:1 3615:1 3644:1 3712:1 3725:1 3870:1 3960:1 3996:1 4047:1 4126:1 4199:2 4251:1 4323:1 4380:1 4382:1 4389:1 4465:1 4468:1 4469:1 4476:1 4517:1 4565:1 4602:1 4727:1 4734:1 4817:1 4956:1 5165:1 5211:1 5231:1 5299:1 5317:1 5332:1 5465:1 5596:2 5615:1 5640:1 5654:1 5658:1 5731:1 5771:1 5793:1 5835:1 5911:1 5969:1 5977:2 6014:1 6102:1 6116:1 6142:2 6308:1 6417:1 6592:1 6600:1 6605:2 6850:1 6956:1 6957:1 7093:1 7095:1 7097:1 7105:4 7119:1 7127:1 7134:1 7136:1 7215:1 7298:1 7470:1 7528:1 7538:1 7542:1 7741:1 7987:1 8145:1 8187:1 8204:1 8271:2 8292:1 8304:1 8380:1 8432:1 8508:1 8513:1 8535:1 8655:1 8659:1 8745:1 8943:1 9432:1 9507:1 9585:3 9599:1 9630:1 9650:1 9718:1 9795:1 9796:1 9810:2 9812:1 9932:1 10079:1 10103:1 10248:1 10582:1 10928:1 11054:1 11210:1 11215:1 11638:1 11680:1 11773:1 11808:1 11903:1 11904:1 11971:1 12009:1 12018:1 12357:1 12562:1 12606:1 12614:1 12975:1 13055:1 13190:1 13244:2 13308:1 13353:1 13409:1 14085:1 14087:1 14163:1 14218:1 14433:1 14454:1 14631:1 14770:1 14832:1 14892:1 14912:1 14931:1 15028:1 15108:1 15349:1 15508:1 15644:1 15925:1 16007:1 16120:1 16121:1 16193:1 16347:1 16435:1 16493:1 16761:1 17040:16 17099:1 17122:1 17301:1 17394:1 17778:1 17816:1 18354:1 18726:1 18773:1 18806:1 19138:2 19178:1 19255:1 19456:1 19717:1 19929:1 20488:1 20579:1 20677:1 21595:1 21968:1 22586:1 22962:1 23098:1 23195:1 23307:1 23368:1 23531:1 23665:2 23917:1 24658:1 25174:1 25476:1 25485:1 25487:1 25980:1 26028:1 26052:1 26190:1 26486:1 27037:1 27335:1 27528:1 28874:1 29176:1 29869:11 30395:1 30713:2 30756:1 31510:1 31804:1 32652:1 33518:1 34869:1 34936:1 35018:1 35358:1 35485:1 35574:1 36261:1 36413:1 36588:1 36647:1 37241:1 37303:1 37333:1 38453:1 38589:1 38676:2 39013:1 39205:1 39431:1 39451:1 39538:1 40281:1 40503:1 40675:1 41217:1 42687:1 
0.0005745993311340201 1:40 2:13 3:1 4:8 7:4 9:1 10:1 11:3 12:4 14:1 16:1 17:1 18:5 21:1 27:1 30:1 31:3 33:1 35:1 36:7 38:2 39:7 44:1 45:1 47:1 50:1 63:1 67:32 69:4 76:1 77:2 78:1 81:1 85:4 86:1 88:3 91:1 92:1 94:1 96:1 100:1 108:3 122:1 125:1 127:1 137:1 138:1 140:1 142:4 148:2 151:1 157:1 158:1 164:1 166:1 173:2 176:1 177:1 180:2 186:1 187:1 198:1 210:1 212:1 217:3 221:1 235:7 236:3 242:3 245:1 246:1 252:1 256:1 257:1 258:1 259:3 277:1 280:1 282:1 285:1 289:2 293:1 300:2 303:1 308:2 326:2 327:1 328:1 350:1 360:1 363:1 371:1 373:2 374:1 380:1 384:2 387:1 393:1 399:1 401:1 417:3 420:1 427:1 433:1 437:2 439:5 440:1 445:3 455:1 464:1 473:1 478:1 479:1 518:1 519:1 527:1 547:1 556:1 557:1 584:1 595:1 598:1 610:1 611:1 620:2 627:4 640:1 642:1 645:1 648:1 655:1 666:1 667:15 669:2 677:1 685:1 688:1 694:2 710:1 730:1 732:1 737:1 739:1 741:1 794:1 822:1 845:1 853:4 869:1 891:1 901:2 904:1 919:1 922:1 942:2 952:1 953:1 967:2 973:1 983:4 999:1 1008:1 1059:1 1070:1 1110:1 1115:1 1140:1 1144:1 1150:1 1163:1 1175:1 1219:1 1221:11 1246:1 1266:2 1270:1 1289:1 1296:4 1330:1 1362:1 1370:1 1385:2 1394:1 1427:1 1447:2 1472:1 1473:1 1478:1 1491:1 1495:1 1511:1 1521:1 1552:1 1559:3 1583:1 1646:1 1702:2 1705:1 1706:1 1713:2 1718:1 1738:1 1754:1 1764:1 1810:1 1811:1 1828:1 1844:5 1863:2 1978:1 2016:2 2025:1 2043:1 2051:1 2088:3 2100:3 2102:1 2104:1 2130:1 2176:1 2189:1 2234:1 2244:1 2254:1 2261:2 2302:1 2328:1 2331:1 2341:1 2348:2 2373:1 2374:1 2376:1 2436:1 2438:2 2500:1 2536:1 2597:1 2605:4 2623:1 2662:1 2672:2 2705:1 2729:2 2733:1 2740:1 2773:1 2828:1 2906:1 2928:1 2942:1 3033:1 3039:3 3040:1 3068:1 3082:2 3131:1 3164:2 3170:4 3182:1 3210:1 3215:1 3224:3 3245:1 3266:1 3272:1 3289:2 3354:1 3361:1 3379:1 3392:1 3432:1 3470:1 3489:1 3499:1 3509:1 3518:1 3533:1 3565:1 3611:1 3777:1 3798:1 3804:1 3898:1 3912:1 4002:1 4024:1 4050:1 4151:1 4157:1 4194:1 4206:1 4229:1 4391:1 4418:1 4459:1 4479:2 4514:1 4520:2 4589:1 4762:1 5021:1 5029:1 5057:1 5119:1 5127:1 5134:2 5238:1 5240:1 5270:1 5284:1 5287:1 5426:1 5433:1 5436:1 5442:1 5532:1 5584:1 5628:1 5637:1 5860:1 5931:2 5937:1 5957:1 5962:1 6049:1 6099:1 6152:2 6153:1 6196:1 6215:1 6216:2 6223:1 6300:2 6348:1 6371:1 6438:1 6441:1 6448:1 6477:1 6494:1 6542:1 6555:1 6589:1 6611:2 6658:1 6717:1 6772:1 6901:1 6911:1 6979:1 7035:2 7047:9 7264:1 7379:1 7406:1 7496:1 7536:4 7560:1 7657:1 7788:1 7844:1 7957:2 8052:1 8080:1 8418:1 8426:2 8453:1 8482:1 8513:1 8528:1 8723:1 8727:1 8750:1 8751:1 8768:1 8880:1 9016:1 9145:1 9285:1 9292:1 9367:1 9391:1 9396:1 9503:1 9685:2 9693:1 9705:1 9788:1 9848:1 10022:1 10220:1 10232:1 10278:1 10312:1 10448:1 10450:1 10608:2 10635:1 10684:1 10713:1 10779:1 10850:1 10854:1 10861:1 11089:1 11097:1 11118:1 11122:1 11144:1 11153:1 11187:1 11249:1 11471:1 11640:1 11684:1 12172:2 12247:2 12267:1 12391:1 12415:1 12422:1 12626:1 13003:1 13118:1 13197:1 13460:1 13650:1 13746:1 13757:1 14045:1 14104:2 14138:1 14192:2 14453:1 14721:1 14893:2 14983:1 15325:1 15407:1 15419:1 15500:1 15502:3 15565:7 15594:2 15732:1 15804:1 16381:1 16542:1 16804:1 17178:1 17300:1 17325:1 17342:1 17392:1 17529:1 17917:1 17963:1 18126:1 18216:1 18512:1 18954:1 19648:2 20088:1 20107:2 20877:1 21583:1 21784:1 22051:1 22506:1 22903:1 23239:1 23273:1 23624:1 23963:1 24016:1 24379:1 25202:1 25321:1 25557:1 25877:1 25901:1 26241:1 26636:1 27119:1 27315:1 27382:1 27899:1 28005:1 28588:1 28920:1 29430:1 29513:2 29980:1 30012:1 30103:1 30141:3 30166:1 30799:1 31152:3 31217:1 31519:1 32058:1 32200:1 32546:1 32728:1 33514:1 34102:1 34461:1 35387:1 35714:1 36640:1 37257:1 37867:1 38244:1 38444:1 39115:1 39843:1 40245:1 40533:1 40576:1 40746:1 40748:1 41368:1 41629:1 42738:1 42886:1 
0.001879902673148057 1:9 2:6 3:1 9:1 10:1 13:2 14:3 16:4 19:1 26:1 29:1 37:1 39:1 42:4 53:1 54:4 55:1 57:1 63:3 68:2 80:1 83:1 84:1 86:1 109:1 115:1 125:1 129:8 131:1 159:1 162:1 169:4 196:1 220:2 226:1 233:1 239:1 253:1 259:1 284:1 292:1 314:2 330:2 337:1 349:1 361:1 367:2 368:1 401:1 407:1 412:1 427:1 461:1 494:1 532:1 540:1 546:1 567:1 575:1 586:1 593:6 600:3 608:5 650:1 730:1 734:2 751:1 766:1 770:3 800:1 820:1 838:1 848:1 891:1 903:1 905:1 938:4 949:1 962:1 1009:1 1011:4 1078:2 1098:1 1101:1 1115:1 1117:1 1151:1 1154:1 1198:2 1236:1 1239:1 1246:1 1314:1 1323:1 1343:1 1359:1 1474:1 1480:1 1483:1 1519:3 1582:1 1618:1 1640:2 1669:1 1717:1 1720:1 1765:1 1920:1 1943:1 1993:1 2011:1 2050:1 2079:1 2090:1 2100:1 2332:2 2474:1 2490:1 2507:1 2561:1 2623:2 2705:1 2724:3 2774:1 2882:1 2945:1 3049:1 3084:1 3183:1 3205:1 3346:1 3347:1 3348:1 3366:1 3516:1 3657:1 3723:4 3756:2 3975:1 4029:1 4279:3 4599:1 4602:1 4733:2 4745:1 4758:1 4792:4 4811:1 4897:1 4969:3 5021:2 5069:1 5081:1 5104:1 5294:1 5400:1 5410:2 5497:1 5518:1 5546:2 5594:1 6010:1 6014:1 6145:1 6151:1 6266:1 6312:1 6365:1 6426:2 6478:1 6615:1 6679:1 7057:1 7232:1 7387:1 7437:2 7460:1 7522:1 7580:1 7848:1 8079:1 8335:2 8580:1 8608:1 8992:1 9115:1 9135:2 10154:1 10240:1 10628:1 10983:3 11006:1 11044:1 11139:1 11182:1 11185:1 11531:1 11744:1 12001:1 12087:1 13089:1 13355:1 14145:1 14477:1 14564:1 14602:2 15243:1 15710:1 15714:1 16244:1 16386:1 17332:1 17341:2 17627:1 17649:1 18819:1 19508:1 19588:1 20027:1 21002:1 21483:1 21801:1 22401:1 22529:1 22615:1 23371:1 24670:1 26066:1 28149:1 30428:1 30750:1 31301:1 33986:1 34699:1 34845:1 35579:1 35734:1 36114:1 36140:1 36847:1 37293:1 37811:2 38127:1 39873:1 40094:1 41510:1 
0.000294061810117229 1:39 2:25 7:1 9:1 10:1 12:5 13:2 14:2 18:3 20:2 21:2 23:2 24:1 30:1 31:2 33:6 34:3 37:1 45:2 46:1 47:1 48:1 50:1 51:1 52:1 53:1 60:1 61:1 63:2 66:1 73:1 75:4 77:1 80:1 96:1 97:1 102:1 103:1 109:2 113:2 115:1 116:1 124:1 137:4 139:2 151:1 153:2 154:1 157:1 161:2 166:1 171:1 176:2 178:1 181:9 186:1 195:1 200:1 204:3 208:1 209:1 224:1 229:2 233:1 247:3 256:1 263:1 270:4 272:1 273:2 277:1 284:1 287:1 289:1 291:1 308:1 317:1 318:1 326:1 327:1 343:2 346:1 349:1 356:5 363:1 367:1 370:1 385:1 406:1 410:4 412:1 414:3 419:1 424:1 427:1 430:1 431:1 438:1 449:1 450:1 451:1 458:2 459:1 471:1 480:2 481:1 482:1 484:1 498:1 502:1 508:1 514:1 518:1 521:1 522:1 534:1 540:1 545:1 581:1 585:1 595:1 607:11 611:2 621:6 632:1 644:1 648:2 655:1 656:1 673:1 678:1 703:4 711:5 726:1 740:1 742:1 743:1 744:1 749:1 775:1 785:1 790:1 805:1 814:1 818:1 833:1 845:1 862:1 870:2 871:1 888:1 894:1 908:1 909:1 965:1 967:1 974:2 979:2 997:2 1007:1 1030:2 1034:1 1041:1 1064:1 1069:1 1074:1 1087:1 1120:1 1133:1 1138:1 1143:1 1183:1 1194:1 1197:1 1215:4 1224:1 1225:1 1246:1 1253:4 1254:1 1257:3 1317:3 1324:1 1360:1 1363:3 1375:1 1376:2 1377:1 1405:6 1410:1 1428:1 1429:1 1430:2 1453:5 1469:2 1470:8 1506:1 1509:1 1513:1 1547:1 1555:4 1568:3 1608:1 1614:1 1623:1 1642:1 1691:1 1697:1 1702:1 1710:1 1734:3 1746:1 1763:1 1782:1 1792:1 1841:2 1873:1 1930:1 1962:1 1995:1 2001:1 2061:1 2084:1 2094:1 2106:3 2110:2 2135:1 2137:1 2168:1 2174:1 2186:3 2210:1 2226:1 2230:2 2254:1 2258:1 2264:1 2272:2 2291:1 2344:4 2346:1 2393:1 2401:1 2422:1 2505:10 2507:1 2561:1 2589:2 2600:1 2624:3 2643:1 2653:1 2680:1 2682:1 2714:2 2721:1 2776:1 2801:1 2809:3 2829:2 2830:2 2873:2 2880:1 2915:1 2951:1 2967:1 2969:1 2978:1 2991:1 3034:1 3042:1 3076:3 3130:1 3139:1 3148:1 3254:1 3258:1 3288:1 3289:1 3306:1 3315:1 3320:1 3328:1 3380:3 3391:1 3392:1 3424:1 3429:1 3432:1 3494:1 3594:1 3608:2 3658:1 3760:2 3771:1 3796:1 3824:2 3829:1 3881:1 3883:1 3937:1 4019:1 4028:1 4042:1 4043:1 4051:1 4110:1 4157:1 4223:1 4238:1 4297:1 4319:1 4430:1 4440:1 4446:1 4491:1 4564:1 4587:2 4589:1 4653:4 4701:1 4729:1 4771:1 4790:1 4826:1 4828:1 4841:1 4856:1 4896:1 4913:1 4963:1 4977:1 5028:1 5049:1 5086:1 5098:1 5146:1 5157:1 5181:1 5189:1 5239:2 5251:1 5308:1 5358:2 5359:1 5364:2 5429:2 5436:1 5439:1 5457:1 5468:1 5679:1 5749:1 5827:1 5865:1 5874:1 5889:1 5930:1 5960:1 5985:1 5988:9 6212:1 6249:3 6275:1 6370:1 6410:1 6425:1 6427:1 6464:1 6490:1 6505:1 6546:1 6758:1 6784:1 6870:1 6967:1 7125:1 7169:1 7209:1 7276:1 7310:1 7376:1 7387:1 7390:1 7500:1 7521:1 7613:1 7659:1 7792:1 7843:1 7846:1 7963:1 7964:1 7970:1 8001:1 8004:1 8011:2 8025:1 8116:1 8329:1 8547:1 8602:1 8663:1 8758:1 8760:1 8880:1 8936:1 9092:1 9134:1 9334:1 9358:1 9370:2 9430:1 9474:1 9533:1 9547:1 9604:1 9741:1 9751:3 10004:1 10193:1 10333:1 10432:1 10491:1 10601:1 10611:1 10640:1 10713:1 10929:1 11016:1 11187:1 11373:1 11451:1 11465:2 11555:2 11603:1 11977:2 12201:1 12340:1 12424:1 12556:1 12569:1 12622:1 12647:1 12670:1 12673:2 12759:1 12767:1 12988:1 13509:1 13573:1 13691:1 13729:1 13794:1 13914:1 14181:1 14225:1 14337:1 14407:1 14720:1 14780:2 15079:1 15236:1 15642:1 15819:1 16260:1 16409:2 16427:1 16571:1 16639:1 16654:2 16666:1 16723:1 16769:1 16844:1 16852:1 17296:1 17298:1 17730:1 17803:1 17927:1 17957:1 18015:1 18114:1 18152:1 18233:1 18390:1 18419:1 18442:2 18703:1 18833:1 18836:1 18953:1 19174:1 19182:1 19199:1 19208:1 19232:1 19248:1 19322:1 19530:1 19824:1 19869:1 19995:1 20124:1 20172:1 20173:2 20375:1 20557:2 20583:1 20862:1 21602:1 21628:1 21649:1 21774:2 21824:1 21861:1 22293:1 22338:1 22405:1 22421:1 22573:1 23364:1 23500:1 23502:1 23965:1 24053:1 24194:1 24441:2 24546:1 24614:1 24658:1 25153:2 25179:1 25282:1 25479:1 25626:2 26472:1 26558:1 26562:1 26693:1 26765:1 26857:1 26897:1 27007:1 27363:1 27600:1 27614:1 27806:1 27921:1 28025:1 28300:1 28738:1 28837:1 28861:1 28985:1 29301:1 29612:1 29674:1 29903:1 30026:1 30763:1 30836:1 30894:1 31545:2 31963:1 32225:1 32462:1 33203:1 33374:1 33978:1 34944:1 35473:1 35974:1 36790:1 36863:1 36913:1 37446:1 37717:1 38141:1 38563:1 38858:1 39264:1 39447:1 39537:1 39833:1 40130:1 40133:1 40265:1 40406:1 41367:1 41645:1 41781:1 42263:1 42343:1 42349:1 
