svm_type c_svc
kernel_type linear
nr_class 2
total_sv 604
rho 0.736514
label 1 -1
probA -3.43569
probB 0.00547745
nr_sv 230 374
SV
0.0003790547484567571 1:11 2:2 3:1 4:1 5:1 9:4 10:1 13:1 14:1 17:1 21:3 33:1 36:1 40:4 47:1 58:3 64:1 69:2 70:1 87:1 97:3 109:1 115:2 133:1 141:1 145:1 149:1 153:1 166:1 170:1 179:2 186:1 199:1 213:1 243:1 255:1 279:1 280:2 283:2 296:1 329:1 334:1 339:1 400:1 424:1 437:1 461:1 488:2 498:1 505:2 569:1 595:1 604:1 643:2 651:1 670:1 697:1 700:1 703:1 718:1 723:1 784:3 794:1 820:1 854:1 865:1 869:1 918:1 940:1 978:1 993:1 1028:2 1044:1 1080:1 1093:1 1112:1 1160:1 1186:1 1191:1 1221:1 1241:1 1245:1 1254:3 1286:1 1316:1 1344:1 1362:1 1379:1 1391:1 1400:2 1487:2 1500:1 1530:1 1570:1 1605:2 1636:1 1649:1 1668:1 1688:1 1723:1 1726:2 1735:1 1807:2 1863:1 1872:2 1903:1 1904:1 2062:1 2099:1 2178:1 2187:1 2232:1 2332:1 2361:1 2380:1 2381:1 2420:1 2488:1 2535:1 2553:1 2617:1 2841:1 2885:1 2966:1 3001:2 3024:2 3036:1 3044:1 3194:6 3344:1 3407:1 3719:1 3736:1 3942:1 3951:1 3963:1 3982:1 4104:1 4225:2 4232:1 4233:1 4294:1 4348:1 4484:4 4492:1 4685:1 4692:1 4694:1 4823:1 4845:1 4918:1 4941:1 5092:1 5173:1 5200:1 5320:1 5343:1 5551:2 5699:1 6039:1 6091:2 6345:1 6446:1 6729:1 6747:1 6792:1 6880:1 7080:1 7154:1 7163:1 7170:1 7315:2 7469:1 7597:1 7618:1 7651:1 7676:1 7784:1 7962:1 7991:1 8028:1 8123:1 8212:1 8273:2 8356:1 8621:1 8825:1 9216:1 9351:1 9554:3 9639:1 9640:1 10620:2 10660:1 10988:1 11554:1 11893:1 11961:1 12370:1 13363:1 14466:1 14662:1 15008:1 15345:1 15401:1 15511:2 15696:1 15895:1 16297:1 16901:3 17738:1 18048:1 19046:1 21122:1 21329:1 21754:1 22350:1 22425:1 22514:1 23205:1 23488:1 24508:1 24762:1 25421:1 25464:2 25466:1 26242:1 26354:1 26602:1 27952:1 28635:1 29284:1 29325:1 30439:1 30527:1 32206:1 32404:1 32428:1 33633:2 34704:1 34714:1 37684:1 38490:1 41243:1 41296:1 42797:1 42940:1 43252:1 
0.001883744663586563 1:4 2:3 4:1 11:1 34:1 47:1 74:1 135:1 149:3 173:2 179:1 199:1 213:1 253:1 312:1 316:1 334:1 358:1 397:1 441:1 495:1 562:1 606:1 653:1 726:1 775:1 779:1 792:1 929:2 966:1 988:1 1028:1 1077:1 1088:1 1101:1 1174:1 1208:2 1413:1 1473:1 1556:1 1675:1 1701:1 1735:1 1805:1 1936:1 2017:1 2162:1 2187:1 2488:2 2568:1 2780:1 2832:1 3019:1 3126:1 3201:1 3216:1 3222:2 3505:2 3610:8 3830:1 4090:1 4939:1 4975:1 5029:1 5108:1 5398:1 5557:1 5872:1 6533:1 6894:1 7332:1 7515:1 7668:1 7715:1 7762:1 8110:1 8294:1 8941:1 9017:1 9409:1 9899:1 10023:2 10587:1 11065:1 11423:5 12451:1 12852:1 15445:2 15901:1 16442:1 17317:1 20592:1 20901:1 26352:1 28030:1 28784:1 31187:1 36091:1 38872:7 39751:2 39853:1 
0.0006135022523390862 1:9 7:2 9:1 11:1 12:1 17:1 22:1 31:2 40:1 55:1 79:1 86:1 101:5 103:1 118:1 124:2 141:1 145:2 146:1 149:2 157:1 174:2 179:1 197:2 219:1 222:1 228:2 242:1 253:1 262:2 267:1 280:2 281:1 289:1 304:2 318:1 347:1 353:1 354:1 382:1 417:2 424:1 426:2 441:1 462:1 560:1 562:1 617:1 622:1 650:1 670:1 724:1 745:1 761:1 779:1 792:4 807:1 844:2 854:1 882:1 915:1 925:3 958:1 966:1 972:1 988:1 989:1 1027:1 1040:2 1080:2 1101:2 1141:1 1143:1 1159:1 1161:1 1165:1 1208:1 1225:1 1337:1 1367:3 1443:1 1511:1 1518:1 1563:1 1570:3 1630:1 1666:1 1675:2 1688:1 1697:1 1751:1 1766:1 1785:1 1787:1 1805:2 1813:1 1879:1 1907:2 2040:1 2173:1 2201:1 2292:1 2304:1 2369:1 2628:1 2683:1 2780:1 2795:2 2810:1 2835:2 2907:1 2938:3 3004:1 3071:1 3215:1 3327:2 3366:2 3383:2 3518:1 3556:1 3806:1 3888:1 3958:1 3975:1 4069:2 4197:1 4288:1 4375:1 4540:1 4592:1 4842:1 4893:1 4996:1 5046:1 5286:2 5396:1 5438:1 5700:2 5753:1 5824:1 6134:1 6186:1 6259:1 6370:2 6420:1 6435:1 6500:1 7054:1 7304:1 7462:1 7553:1 7705:1 7715:1 7803:1 7870:1 7888:1 7948:1 7950:1 7956:1 7970:1 8110:1 8202:1 8294:1 8334:1 8907:1 8938:3 9017:1 9169:1 9269:1 10066:1 11461:1 11526:1 11576:1 11743:1 11919:1 12011:2 12040:1 12289:1 12329:1 12748:3 13505:1 13580:8 13967:1 15217:1 15377:1 15450:1 15468:1 16739:1 16813:1 17106:2 17633:1 18225:1 18405:1 18446:1 18580:1 19630:1 19747:8 20293:1 21283:1 23272:1 23865:1 24759:1 24966:1 25976:1 26276:1 28045:1 29499:1 29772:1 30793:1 33803:1 37740:1 42721:1 42985:2 
0.004662028736246692 1:5 2:2 3:1 9:1 18:1 20:1 33:2 52:1 55:1 109:1 175:1 186:1 195:2 217:1 228:2 275:1 288:2 306:1 330:1 335:1 417:1 438:1 467:1 482:2 557:1 590:1 605:1 612:1 641:1 713:1 717:1 772:3 779:1 784:1 798:1 804:1 837:1 883:1 935:1 962:1 993:1 1040:3 1050:1 1051:2 1068:1 1080:1 1087:1 1123:1 1221:1 1322:1 1360:1 1424:1 1500:1 1579:1 1659:1 1668:1 1899:2 2046:1 2302:1 2383:2 2564:1 2789:1 2825:1 3126:1 3204:1 3222:1 3331:1 3451:1 3479:1 3575:2 3673:1 3947:1 4058:1 4204:1 4230:1 4420:1 4631:1 4752:1 4787:1 4800:1 4855:1 4998:1 5503:1 5818:1 6092:1 6905:1 7220:1 7319:1 7337:1 7659:1 8650:1 8699:1 8731:1 9604:1 10977:1 10996:1 11300:1 11308:2 11406:2 12040:1 12398:1 12406:1 12459:1 12793:1 13641:1 14059:1 15417:1 16751:1 17112:1 21929:1 22863:1 23024:1 24064:1 24841:1 25508:1 25831:1 26647:1 27030:1 27270:1 27837:1 28910:2 29356:1 30555:2 31847:1 33084:1 33823:1 34104:1 34230:1 35872:2 
0.005284899114294136 1:8 2:4 3:1 5:1 9:1 13:2 45:1 50:1 91:1 97:1 118:2 121:1 143:1 179:2 218:2 251:1 259:1 324:3 361:1 363:1 374:1 424:1 457:1 461:2 473:1 479:2 488:1 498:1 505:1 549:1 616:1 657:1 658:1 726:1 758:1 841:1 877:1 918:1 942:1 986:1 987:1 989:1 1012:1 1028:1 1064:1 1084:3 1085:1 1116:1 1125:1 1160:1 1187:1 1211:1 1265:1 1346:1 1374:1 1482:1 1530:1 1531:1 1613:1 1737:1 1890:1 1900:1 1904:1 1942:1 2337:1 2449:1 2630:1 2639:1 2772:1 2779:1 2789:1 2820:1 2825:1 2924:2 2985:1 3002:1 3156:1 3331:1 3854:1 3958:1 4126:1 4138:1 4213:1 4435:2 4536:1 4703:1 4746:1 5107:1 5654:1 5934:1 6136:1 6190:1 6591:1 6593:1 6651:2 6866:1 7049:1 7487:1 7699:1 8180:2 8599:1 8706:1 8717:1 8741:1 9219:1 10240:1 10646:1 10680:1 10965:1 12812:1 13509:1 13713:1 14025:1 14978:2 15090:1 15471:1 16241:1 20162:1 21557:1 21849:1 22466:1 24178:1 24984:2 25839:1 29294:1 31542:1 32726:1 
0.002489150141363895 1:5 2:1 3:1 9:1 12:1 18:1 30:4 36:1 38:1 47:1 55:2 63:1 95:1 97:2 130:1 131:1 175:1 181:3 198:1 205:1 335:2 358:2 431:9 505:1 532:1 553:1 576:1 617:1 672:1 677:1 715:1 726:1 784:1 847:1 933:1 973:1 1049:1 1152:1 1191:1 1290:1 1306:1 1500:3 1688:2 1714:1 1726:2 1750:1 1835:1 1853:1 1866:1 1871:1 1899:1 2154:1 2199:1 2304:1 2343:2 2365:1 2380:2 2382:1 2383:1 2386:1 2390:2 2468:1 2488:1 2625:1 2979:1 3202:1 3228:1 3313:1 3383:1 3406:1 3492:1 3498:1 3515:1 3721:1 3732:1 3883:1 4037:2 4294:1 4347:1 4416:1 4703:2 4778:1 5139:1 5200:1 5217:1 5639:1 5783:1 6088:1 6152:1 6187:1 6225:1 6563:1 6622:1 6929:1 6985:2 7107:1 8367:1 9152:1 9205:1 10115:1 10612:1 10945:2 11633:1 12141:1 12468:1 12624:4 13313:1 13913:1 14104:1 15833:1 16688:1 16771:1 18340:1 18651:1 20147:1 20780:1 20868:1 21408:1 24313:1 27436:1 29126:1 29650:1 30318:1 30566:1 30883:1 32927:1 34606:1 34691:1 38727:1 38782:1 39573:1 40306:1 41249:1 43158:1 
0.00244008713790639 1:22 2:5 3:3 4:3 7:1 8:2 10:1 13:3 20:1 25:1 26:3 30:1 31:1 36:1 40:1 44:1 45:1 47:1 55:2 58:1 60:1 62:2 68:1 69:1 70:1 71:2 77:2 78:2 85:3 92:1 94:1 97:1 100:3 103:1 117:1 131:2 132:1 151:2 167:1 168:1 169:1 170:1 173:3 181:1 202:1 209:1 229:1 246:3 253:2 262:1 271:3 274:1 280:3 285:2 286:4 288:1 299:1 343:1 350:1 355:1 377:1 393:1 398:1 400:1 407:1 409:1 413:1 447:2 460:3 477:1 480:1 481:1 494:1 508:1 515:1 521:1 539:1 548:2 558:2 572:1 589:1 598:2 612:2 628:1 634:1 641:2 642:1 651:1 652:1 658:3 671:1 675:1 698:1 700:1 713:1 742:1 749:2 759:1 767:1 787:1 848:1 863:1 868:1 873:1 875:2 909:1 915:1 1057:1 1067:1 1090:3 1097:1 1108:1 1133:1 1136:2 1138:1 1146:1 1177:1 1184:1 1199:1 1214:2 1216:3 1225:1 1232:1 1262:1 1281:1 1323:1 1353:1 1358:2 1361:1 1384:1 1453:1 1455:1 1500:1 1507:2 1522:1 1538:1 1572:1 1574:1 1650:3 1660:1 1663:1 1669:1 1674:2 1685:1 1701:1 1709:1 1713:1 1729:1 1744:1 1764:1 1778:1 1834:1 1847:1 1859:1 1906:1 1939:1 1995:1 2009:1 2014:2 2020:1 2025:1 2062:1 2090:1 2099:1 2108:1 2133:1 2151:1 2169:1 2231:1 2233:1 2249:1 2250:2 2253:1 2259:1 2325:1 2346:1 2350:1 2456:1 2489:1 2533:1 2542:1 2607:1 2613:1 2686:1 2692:1 2721:1 2760:1 2766:2 2869:2 2986:1 3017:1 3084:1 3105:1 3193:1 3290:1 3356:2 3358:1 3379:1 3408:1 3477:1 3629:1 3638:2 3693:1 3858:2 3932:3 4068:1 4113:1 4137:1 4140:1 4198:1 4204:2 4229:1 4364:1 4501:1 4532:1 4631:2 4699:1 4718:1 4779:1 4802:1 4880:1 4925:1 4984:1 5034:1 5095:1 5112:1 5168:1 5195:1 5274:1 5396:1 5505:1 5565:1 5598:1 5693:1 5698:1 5710:1 5793:1 5831:1 5899:1 5920:1 5933:1 5978:1 6004:1 6203:1 6354:1 6370:1 6439:1 6595:1 6606:1 6788:1 6980:1 7151:1 7356:1 7498:1 7714:1 8045:1 8085:1 8106:1 8143:1 8279:1 8620:1 8621:1 8626:1 8668:3 8741:1 8928:1 9108:1 9116:1 9144:1 9173:1 9370:2 9470:1 9711:1 9858:1 10001:1 10013:1 10075:1 10081:1 10206:1 10402:1 10544:1 10725:1 10928:1 10984:1 11054:1 11308:1 11664:1 11868:3 11887:1 11940:1 12269:1 12309:1 12312:2 12361:1 12460:1 12641:3 13110:2 13788:1 13809:1 13866:1 13913:1 14364:1 14544:1 14649:1 14836:1 14898:1 14932:1 15080:1 15090:1 15519:1 15539:1 15592:1 15922:1 16154:1 16866:1 16883:1 16983:3 17346:2 17925:1 18115:1 18887:1 18936:3 19225:1 19438:1 19554:1 19832:1 20864:1 21239:1 21562:1 22981:1 23828:11 24214:1 24376:1 24385:1 24414:1 25843:1 26033:1 26035:1 26090:1 26328:2 26482:1 26639:1 26657:1 26964:1 27132:1 28231:1 28598:1 29441:1 29816:1 29859:1 30120:1 30638:1 30917:1 31733:1 32855:1 33133:1 33282:1 34238:1 34275:1 34296:1 36389:1 36676:1 37249:2 38029:1 38941:1 39525:1 39662:1 39856:1 41331:1 42177:1 42749:1 42867:1 
4.831466710768186e-005 1:18 2:5 4:1 6:1 11:1 12:2 13:2 15:1 18:6 21:2 30:3 31:3 34:2 36:2 44:1 45:1 82:1 87:1 112:1 124:1 126:1 131:1 135:3 145:1 154:2 167:1 173:3 175:1 183:1 201:2 213:1 235:1 243:2 263:1 274:1 276:1 281:1 335:1 343:1 349:1 357:1 358:1 361:1 369:2 370:1 382:1 385:2 400:1 417:2 426:2 457:1 458:1 467:2 485:1 487:1 488:1 502:2 506:1 513:1 521:1 531:22 532:1 538:7 539:1 557:4 560:1 561:1 589:1 600:1 615:1 620:1 638:4 652:1 655:1 677:1 681:1 701:1 749:1 752:1 766:1 772:1 792:2 823:1 836:3 847:1 892:1 909:1 931:1 935:1 949:1 965:3 983:1 989:2 992:3 1054:1 1069:1 1101:1 1103:1 1119:1 1191:1 1195:1 1202:3 1229:1 1239:1 1302:1 1309:1 1324:1 1339:1 1361:1 1367:3 1398:1 1404:1 1415:1 1462:3 1533:1 1538:1 1542:1 1579:1 1591:1 1627:1 1628:1 1688:2 1691:1 1697:9 1712:1 1759:2 1787:1 1811:1 1892:1 2019:1 2023:1 2251:1 2304:1 2312:1 2327:1 2328:1 2342:1 2488:1 2499:1 2520:2 2633:1 2655:2 2719:1 2753:1 2795:1 2806:1 2827:1 2869:1 2876:1 2965:1 2967:1 2980:1 2999:1 3028:1 3071:1 3089:1 3181:1 3218:1 3249:1 3275:1 3448:1 3454:1 3498:1 3605:1 3613:2 3710:1 3744:1 3853:1 3942:2 3989:1 3992:2 4086:1 4317:1 4349:1 4418:1 4481:1 4540:1 4621:1 4694:6 4703:3 4718:1 4720:1 4953:1 5020:1 5032:1 5047:1 5052:1 5058:1 5103:1 5122:1 5173:1 5228:1 5241:1 5343:2 5533:1 5570:1 5639:1 5686:1 5705:1 5720:1 5724:1 5747:1 5763:1 5936:1 5999:1 6065:1 6215:1 6313:1 6337:1 6477:1 6500:2 6561:1 6811:1 6853:3 6915:1 6983:1 6996:1 7116:1 7186:2 7317:1 7380:1 7553:1 7705:1 8083:1 8137:1 8170:1 8283:1 8590:1 8706:1 8728:1 8831:1 8941:1 9034:1 9076:3 9366:1 9527:1 9544:1 9570:1 9587:1 9679:2 9712:1 9891:1 10058:1 10078:1 10196:1 10444:1 10701:1 10924:1 11024:2 11295:1 11317:1 11423:2 11633:1 11680:2 12007:1 12212:1 12721:1 13128:1 13528:1 13784:1 13982:3 14238:1 14280:1 14386:1 14538:1 14817:1 14895:1 15458:1 15513:1 15566:1 15674:1 16010:1 16408:1 16461:1 17046:1 17274:1 17337:2 17367:1 17523:2 17699:1 17737:1 18639:1 18943:1 19744:1 21987:2 22136:1 22209:1 22316:1 22598:1 22669:1 23238:1 23545:1 23721:1 23776:1 24444:1 24889:9 26425:1 26862:1 27426:1 28344:1 28666:1 29282:2 30032:1 30161:1 30431:4 31105:1 31158:9 31491:1 31605:1 31983:1 32719:1 33161:1 33665:1 34724:6 36508:1 36552:1 37220:1 37524:1 38550:1 39190:1 39980:1 41206:6 41327:1 42088:1 
0.002903817186151237 1:6 2:6 3:2 5:1 7:1 9:1 10:1 13:1 16:2 21:3 23:10 31:1 42:1 49:1 51:1 52:1 54:2 59:1 61:1 64:1 66:4 78:1 79:1 84:1 87:1 107:1 110:4 114:1 132:1 154:1 164:2 166:1 180:2 185:1 194:2 200:1 202:1 216:1 220:4 230:1 249:1 258:1 282:1 288:1 297:1 299:1 316:1 356:1 363:1 398:1 399:1 406:3 432:1 436:4 440:4 444:1 448:1 467:1 472:3 502:1 526:2 578:1 581:1 633:2 693:1 708:1 712:1 749:1 764:1 787:1 799:2 884:1 900:1 1005:1 1033:1 1059:1 1067:1 1075:2 1091:1 1208:1 1228:2 1303:1 1346:6 1385:1 1399:1 1402:2 1410:1 1414:1 1436:1 1486:1 1513:1 1534:1 1539:1 1546:1 1562:1 1575:1 1666:1 1699:1 1772:1 1788:1 2107:1 2124:1 2218:1 2454:1 2537:1 2588:2 2609:1 2754:1 2773:1 2777:2 2887:1 2906:1 3050:1 3109:1 3128:1 3184:1 3208:2 3246:1 3253:1 3629:1 3715:1 3779:2 3916:1 3968:1 4127:1 4171:1 4176:1 4236:1 4405:1 4500:1 4607:1 4660:1 4820:1 4918:1 5030:1 5153:1 5215:1 5286:1 5301:1 5485:1 5906:13 6074:1 6108:1 6289:2 6332:1 7106:1 7273:2 7806:1 8145:1 8514:1 8765:3 8824:1 9230:1 9528:1 10015:1 10494:1 10729:1 11303:1 11516:1 11562:2 12073:1 12865:1 12888:1 13130:1 13339:1 13630:1 13834:1 13900:1 14301:1 14355:1 14758:1 15225:1 15578:1 16489:1 17325:1 18143:1 18276:1 18359:1 19325:1 19662:1 19771:1 20085:1 21720:1 22435:1 23844:1 24419:1 26507:1 27586:1 28464:2 29944:1 30422:1 34478:1 35588:1 38534:1 39752:1 41920:1 
0.0005978706188910849 1:3 2:2 3:1 4:2 5:1 9:2 10:1 23:1 26:1 30:1 31:2 33:1 46:1 48:1 51:2 53:1 60:1 64:1 66:1 75:1 113:1 145:1 149:1 161:1 179:2 183:1 184:1 186:1 191:1 204:1 209:1 218:1 219:1 229:1 248:1 250:1 266:1 268:1 288:1 291:1 331:1 344:1 370:1 400:1 407:1 502:1 505:2 514:1 565:1 570:1 610:2 617:1 622:1 670:1 687:2 692:1 713:2 788:1 837:1 847:4 923:1 927:1 954:1 975:1 978:1 990:3 1042:1 1050:1 1084:1 1088:1 1119:2 1142:1 1247:1 1270:2 1381:2 1469:1 1484:1 1554:2 1605:1 1737:1 1759:1 1787:1 1984:3 2006:1 2106:1 2130:1 2133:1 2142:1 2203:1 2273:1 2313:1 2393:1 2520:1 2573:2 2665:1 2682:1 2778:1 2789:1 3167:1 3246:1 3291:1 3410:1 3544:1 3573:1 3612:1 3924:3 4079:1 4173:1 4215:1 4218:1 4535:1 4963:1 4975:1 5119:1 5262:4 5352:1 5594:1 5601:1 5738:2 5908:1 5982:2 6130:1 6380:1 6414:1 6525:1 6540:2 6662:1 6850:1 7615:1 7969:1 8218:1 8550:1 8598:1 9103:1 9137:1 9382:1 9825:1 10158:2 10533:1 10707:1 10962:1 11121:1 11143:1 11509:1 12628:1 13031:1 13159:1 13197:1 15541:1 15548:1 16751:1 17089:2 18677:1 21076:1 23506:1 25682:1 25689:2 27261:1 27270:1 28888:1 30658:1 31135:1 31142:2 32444:1 35046:2 36381:1 
0.00288074577548949 1:12 2:5 3:2 4:2 7:1 9:3 11:1 12:2 13:1 18:3 22:1 27:1 30:2 34:1 40:2 45:1 47:2 55:3 59:1 69:1 71:1 77:1 83:2 84:1 95:1 102:1 138:1 149:1 151:1 170:1 253:1 261:1 271:2 274:1 286:1 296:1 335:1 341:1 343:1 349:1 367:1 369:1 370:1 385:1 388:1 398:1 400:1 401:1 412:1 417:1 423:2 437:1 462:1 514:1 532:1 550:1 613:2 645:2 648:1 675:1 676:1 697:5 735:1 780:1 850:6 858:1 933:4 974:1 1023:2 1038:1 1051:1 1065:1 1131:1 1147:1 1150:2 1210:3 1247:1 1330:1 1343:1 1419:1 1453:1 1467:1 1538:1 1543:1 1554:1 1620:1 1641:1 1650:1 1667:1 1673:1 1674:2 1726:1 1834:1 1855:1 1904:1 1962:1 2083:1 2135:1 2225:1 2285:2 2565:2 2628:1 2692:1 2705:1 2759:2 2828:1 2833:1 2951:1 3068:1 3113:1 3157:1 3222:1 3225:1 3329:1 3418:1 3472:1 3516:1 3531:1 3601:1 3625:1 3676:2 3687:2 3859:1 3924:1 4042:2 4082:1 4197:1 4310:1 4621:1 4925:1 5089:1 5105:2 5171:1 5210:1 5598:1 5678:1 5715:1 5743:5 5748:1 5910:1 5990:1 6179:1 6688:1 6764:1 6831:1 6924:1 7778:4 7831:1 7968:1 7976:1 8004:2 8153:1 8187:1 8524:1 8710:1 8820:1 8968:1 9058:2 9405:1 9557:1 9655:1 10026:1 10590:1 10872:1 11072:1 11409:2 11414:1 11659:1 11843:1 12016:1 12065:2 12142:1 12329:1 12350:1 13132:1 13274:1 13681:1 14823:1 15065:1 15202:1 15290:1 15298:1 15692:1 16200:2 17479:1 18071:1 18389:2 19696:1 19812:1 20172:1 20590:1 20859:1 21324:1 23035:1 25105:1 25566:1 26242:1 26933:1 28688:1 28894:1 29477:1 30637:1 31387:1 33014:1 33623:1 34393:1 34756:1 34997:1 35204:1 35210:1 35667:1 36215:1 37010:1 38079:1 38989:1 39801:6 40194:1 40340:1 
0.005340520084620814 1:6 2:4 3:1 26:1 34:1 40:1 55:1 62:1 71:1 87:1 156:1 174:1 228:1 337:1 423:1 462:1 508:1 523:3 538:1 684:1 696:1 708:2 720:1 836:3 1039:6 1086:1 1108:1 1109:4 1190:3 1193:1 1195:1 1216:1 1324:1 1386:1 1411:2 1443:1 1462:2 1640:3 1850:1 1907:1 1998:4 2070:1 2103:1 2162:1 2259:1 2320:1 2425:1 2869:1 2916:1 3020:1 3183:1 3360:1 3370:1 3575:3 3950:1 4131:1 4454:1 4858:1 5054:1 5419:1 6730:1 6885:1 7168:1 7374:1 7841:1 7944:1 8170:2 8197:1 8824:1 9920:1 9948:1 10121:1 10223:1 10649:1 10739:1 10749:1 11297:1 11717:2 12544:1 12754:1 13655:1 13861:1 14148:1 19707:1 19775:1 19989:1 20252:1 21017:2 21360:1 21703:1 21858:1 28713:1 29763:1 30644:1 38108:1 38658:4 40065:2 41196:1 
0.0001515765450386745 1:12 2:3 3:1 9:3 12:3 20:2 36:1 37:1 45:1 54:1 55:1 63:2 64:1 83:1 95:1 96:1 113:3 124:1 138:1 159:1 169:2 181:6 183:1 204:1 217:1 218:4 286:1 288:1 363:1 385:1 424:1 477:2 488:1 505:1 513:2 522:1 541:1 559:1 576:1 621:2 687:1 692:1 694:1 698:1 718:1 779:1 780:1 810:1 890:1 900:1 909:1 963:1 966:1 1006:1 1023:3 1061:1 1068:1 1084:5 1159:2 1193:1 1260:1 1302:1 1315:1 1330:1 1372:1 1391:1 1474:1 1481:1 1543:1 1573:1 1669:1 1680:2 1714:1 1750:1 1769:1 1859:2 1868:1 1890:1 1952:1 2076:1 2079:2 2095:1 2101:1 2110:1 2133:1 2137:1 2146:3 2171:1 2300:1 2313:1 2341:1 2405:1 2420:1 2637:1 2789:1 2841:1 3024:2 3190:1 3228:1 3356:1 3451:1 3465:1 3495:2 3538:1 3556:1 3598:1 3740:1 3957:1 4122:1 4131:1 4263:1 4276:2 4413:1 4435:1 4832:3 5209:3 5323:1 5334:2 5435:1 5702:3 6720:1 7131:1 7605:1 7676:1 7723:1 7731:2 7895:1 8137:1 8468:3 8479:1 9484:1 9570:1 9766:1 10060:1 10370:1 11745:1 12152:1 12312:1 12958:1 14240:1 14256:1 15333:1 15939:1 16713:1 17194:1 17231:1 17658:1 18629:1 18857:1 19034:1 19237:1 20561:1 20625:1 20919:1 21201:1 22376:2 22654:1 23883:1 24204:1 24469:1 26214:1 26232:1 26422:1 27352:1 28062:1 28435:1 28755:1 29426:1 29904:1 30517:1 31685:1 35842:2 35929:1 36149:1 37149:1 39001:1 39343:1 40452:1 42718:1 
0.005042889251036548 1:9 2:1 4:1 13:1 18:1 21:1 31:1 33:1 34:3 36:1 77:1 112:1 121:1 131:1 135:2 149:1 199:1 228:3 269:1 274:1 306:4 324:2 358:2 361:1 376:1 419:1 452:1 465:1 482:1 689:1 720:1 735:1 752:1 792:1 836:1 1109:2 1193:1 1216:1 1229:2 1238:1 1290:1 1324:1 1462:1 1529:1 1670:1 1673:2 1811:1 1852:1 1878:1 1880:1 2017:1 2090:1 2162:1 2219:1 2545:1 2789:2 2915:1 2930:1 2960:1 2985:1 3106:1 3134:1 3400:1 4094:1 4567:2 4697:3 4752:1 5170:1 5251:1 5643:2 5686:2 6017:1 6052:1 6234:1 6399:2 6790:1 6909:1 6915:1 7060:1 7999:1 8157:1 8355:1 8599:1 8833:1 10758:1 10891:1 10945:1 10946:1 12152:3 12324:1 12958:3 14250:1 14279:1 14946:1 15228:2 15392:1 16713:1 17041:1 17367:1 18168:1 18355:1 18816:1 24471:1 26888:1 27464:1 28237:1 29372:1 29800:1 36511:1 38463:1 39612:1 
0.001228573535142486 1:16 2:4 3:3 5:2 7:2 18:5 23:4 31:2 34:3 45:1 46:4 48:1 52:1 53:1 54:2 55:1 58:1 66:1 70:1 73:1 79:1 81:1 91:1 143:1 145:1 148:4 149:3 166:1 174:1 175:1 179:1 194:3 195:1 229:1 230:1 240:1 248:1 253:1 255:1 266:1 267:2 295:1 316:1 354:1 370:1 409:3 497:1 506:1 557:2 563:1 590:1 643:1 645:1 700:1 749:4 770:1 849:1 869:1 882:3 916:1 923:1 957:1 968:1 973:1 987:1 993:1 1008:2 1017:1 1019:1 1082:1 1092:1 1115:1 1143:1 1180:1 1214:1 1234:1 1299:1 1363:1 1368:3 1371:1 1392:1 1474:1 1493:1 1513:1 1548:1 1595:1 1635:1 1659:1 1714:1 1715:3 1719:2 1738:1 1787:1 1902:1 1960:2 2009:1 2023:3 2089:1 2175:1 2176:1 2205:2 2213:1 2395:1 2498:1 2514:1 2597:2 2652:1 2723:1 2736:1 3085:1 3157:1 3242:1 3357:3 3362:1 3465:1 3543:1 3724:1 3828:1 3859:1 3890:2 3908:1 3948:1 4090:1 4140:1 4173:1 4202:1 4261:1 4318:1 4329:1 4423:1 4445:1 4525:1 4670:1 4801:1 4939:2 4994:1 5019:1 5156:1 5435:1 5501:1 5663:1 5819:1 5874:2 5882:1 6044:1 6318:1 6919:1 6941:1 6971:1 7107:1 7129:1 7149:1 7244:1 7620:1 7696:1 7755:1 8094:1 8179:1 8415:1 8926:1 9017:1 9322:1 10041:1 10157:1 10214:1 10569:1 10849:1 11161:1 11389:1 11423:1 11648:1 12108:1 12239:1 12552:1 12860:2 13101:1 13146:1 14060:1 14532:1 15009:1 15352:1 15399:2 15491:1 15764:1 15891:1 16152:1 17593:1 18168:1 18921:1 19375:1 19380:1 19538:3 19622:1 19799:1 19882:2 20861:1 21043:1 21570:1 21852:1 22499:1 23816:1 24776:1 24847:1 25404:1 25783:1 27928:1 27954:1 28368:4 29024:1 31313:1 32096:1 33047:1 33359:1 33425:1 33497:1 37550:1 38441:1 38503:1 40944:1 42320:1 
0.001639658421989431 1:7 2:4 3:3 7:2 8:1 9:2 12:1 13:1 19:1 21:1 23:2 32:1 36:1 46:3 48:1 54:1 55:1 57:1 60:4 70:1 71:1 73:1 78:2 81:1 91:1 93:1 116:1 117:1 141:3 158:1 166:1 185:1 194:1 212:1 220:1 224:1 226:1 272:2 284:1 288:1 291:2 319:2 336:1 355:1 380:1 409:5 459:2 483:1 488:3 501:1 504:1 506:1 552:1 554:8 572:1 586:1 597:3 641:1 643:1 670:1 709:1 712:2 720:1 728:1 746:4 772:1 792:1 802:1 926:1 1004:1 1017:1 1062:1 1092:1 1168:1 1207:1 1321:1 1385:1 1402:1 1455:1 1504:2 1506:1 1571:1 1614:1 1670:4 1693:1 1715:1 1802:1 1977:1 2011:1 2059:1 2081:1 2087:1 2163:1 2188:1 2199:1 2258:1 2309:2 2353:1 2376:1 2391:1 2485:2 2592:5 2646:1 2795:1 2810:1 2906:1 3007:1 3067:1 3093:2 3250:1 3312:1 3465:1 3588:1 3628:1 3778:1 3885:1 3888:1 3898:1 3929:1 3988:1 4155:1 4163:1 4168:1 4304:1 4388:1 4588:1 4608:1 4745:1 5136:1 5187:1 5207:1 5362:1 5371:1 5482:1 5707:1 5773:1 6171:1 6383:1 7084:1 7267:1 7338:2 7418:2 7976:1 8265:1 8502:1 8692:1 9010:1 9103:1 9182:1 9310:1 9522:1 9655:2 9675:1 9842:1 9857:1 9913:2 10424:1 10811:1 11155:1 11275:1 11557:1 11605:1 11657:1 11864:1 12381:1 13064:1 13336:1 13339:1 13985:1 14216:2 14366:1 16342:1 17411:1 18086:1 18932:1 19156:1 19353:1 19765:1 20126:1 20761:1 21035:1 21123:1 21625:1 22072:1 22246:1 22406:1 23323:1 24078:1 25024:1 25869:1 26934:1 27878:1 28815:1 29374:1 29712:1 31030:1 36678:1 37831:1 40743:2 
0.001727302604926047 1:15 2:4 3:1 4:2 9:2 12:1 13:1 15:1 21:1 22:1 26:1 31:3 35:1 37:1 38:1 40:1 47:1 50:1 51:1 63:1 67:1 71:1 81:2 85:1 93:1 95:1 97:2 98:6 100:4 113:1 114:1 142:1 172:1 175:1 192:3 199:1 209:1 230:1 252:1 268:2 278:1 289:1 291:5 293:1 303:1 317:1 330:1 365:1 379:1 400:1 412:1 414:1 418:1 436:1 438:2 449:2 459:1 461:2 480:1 502:1 505:1 516:1 539:1 570:1 573:1 579:1 620:1 648:1 660:1 661:1 678:1 701:2 725:1 727:1 807:1 847:2 891:1 905:1 993:1 1028:1 1051:1 1057:2 1077:1 1152:3 1169:1 1175:1 1186:1 1193:1 1231:1 1239:1 1286:1 1297:1 1349:1 1410:1 1450:1 1578:1 1655:1 1659:1 1669:1 1685:1 1726:1 1729:1 1797:1 1831:2 1858:1 1866:1 1876:1 1881:1 1882:1 1931:1 1998:1 2091:2 2182:1 2199:1 2365:1 2468:3 2487:1 2530:1 2742:1 2770:1 2779:1 2810:1 2832:1 3055:1 3088:1 3211:1 3244:1 3361:1 3366:1 3377:2 3387:1 3402:1 3432:1 3441:1 3516:1 3534:1 3672:9 3728:1 3786:1 3828:1 3984:1 4046:1 4145:1 4211:1 4226:1 4264:3 4284:1 4416:1 4697:3 4787:1 4800:1 4983:1 5151:1 5218:1 5290:1 5476:1 5528:1 5747:2 5789:1 6003:1 6037:1 6047:1 6152:1 6223:4 6365:1 6417:1 6712:2 6715:1 6724:1 6802:2 7220:1 7254:1 7311:1 7645:1 7754:1 7881:1 7909:1 8046:1 8064:1 8068:1 8089:2 8114:1 8229:1 8450:1 8572:1 8774:2 8889:1 8899:2 8990:1 9033:2 9307:1 9383:1 9485:1 9602:1 9655:1 9872:1 10013:1 10242:1 10363:1 10579:1 10801:1 10810:1 11108:1 11181:1 11359:1 12183:1 12241:1 12255:1 12430:1 12930:1 13314:1 13390:2 13550:1 13892:1 14089:1 14251:1 14344:1 14442:1 15403:1 15411:1 15576:1 16103:1 16587:1 16649:1 16876:1 17251:2 18082:1 18358:1 18450:1 18793:1 18811:1 18896:1 19211:1 19287:1 19421:1 20044:1 20741:1 21004:2 21023:1 21558:1 23682:1 23831:1 23882:1 24535:1 24682:1 25292:1 25659:1 25681:1 25811:1 25893:1 26155:1 26211:1 26853:1 26923:3 26965:1 27126:1 27152:1 27250:2 28166:1 30374:1 33933:1 34224:1 35034:1 37106:1 37620:1 38998:1 39246:1 41157:1 41711:1 42289:1 
0.002845592487854316 1:19 2:4 3:1 5:3 7:1 9:1 10:3 12:1 18:2 20:1 24:1 30:1 36:1 37:3 45:1 51:2 55:1 67:1 73:1 96:1 100:1 113:1 131:1 132:1 138:1 140:2 168:1 175:1 179:2 181:1 182:1 196:2 200:1 212:1 228:1 255:1 262:1 276:1 310:1 325:1 326:1 327:1 353:1 359:1 365:1 370:1 379:1 426:1 443:1 452:1 454:1 480:2 482:1 487:1 488:1 511:1 535:1 552:1 553:1 557:1 576:2 604:3 606:1 616:1 631:1 645:1 681:2 685:1 701:1 763:1 772:1 792:2 793:2 824:1 837:8 847:1 884:1 967:1 978:1 1004:1 1027:1 1040:1 1041:1 1208:4 1257:1 1388:1 1401:1 1424:1 1569:1 1586:1 1671:1 1701:1 1756:1 1772:1 1787:1 1880:1 1890:1 1903:1 1908:1 1945:2 1996:2 2051:1 2064:1 2083:1 2145:1 2149:2 2173:1 2227:2 2232:1 2334:1 2335:2 2350:1 2399:1 2435:1 2577:1 2597:1 2655:1 2734:1 2795:1 2894:1 3046:1 3272:1 3574:1 3827:1 3925:1 3946:1 4215:2 4314:1 4377:1 4578:1 4682:2 4751:1 4789:2 5219:1 5320:1 5334:2 5601:1 5700:1 5819:1 5831:1 5982:2 6390:1 6510:1 6564:1 6675:1 6999:1 7195:2 7262:1 7292:1 7476:2 7517:1 7708:1 7713:1 7717:1 8308:1 8599:3 8624:2 8772:1 8829:1 8960:1 9201:1 9439:2 9490:1 9510:1 10123:3 10493:1 10782:1 11082:1 11624:1 11882:1 11990:3 12128:4 13156:1 13854:1 13896:1 14271:1 15331:1 15454:1 15623:2 16710:1 17519:1 18433:1 18851:1 19640:1 20444:1 20484:1 23120:1 23786:1 23927:1 27798:1 28076:2 30030:1 30192:1 30207:1 30623:1 30943:1 34014:1 34528:1 36105:1 36285:1 39293:1 39639:3 41433:1 
0.003272283814937294 1:10 2:4 3:2 4:1 5:2 10:3 12:2 13:1 24:2 35:1 47:2 60:1 79:1 80:1 91:1 95:1 113:1 119:4 174:1 180:1 183:1 195:1 198:2 203:1 209:1 217:1 221:1 259:1 261:1 273:1 294:1 295:2 306:1 379:1 380:1 396:1 403:2 430:1 471:1 517:4 541:2 557:1 563:1 572:1 700:2 713:1 757:1 814:1 938:1 958:1 963:1 1023:2 1057:1 1084:3 1092:1 1226:1 1261:1 1282:1 1321:1 1380:1 1387:1 1421:1 1497:1 1504:1 1695:1 1701:1 1709:1 1750:1 1751:1 2076:1 2091:1 2093:1 2146:1 2162:1 2174:1 2250:1 2272:1 2285:1 2358:1 2383:1 2499:1 2532:1 2571:1 2603:1 2624:1 2669:2 2754:1 2765:1 2876:1 2896:1 2969:1 3048:1 3089:1 3115:1 3180:1 3385:1 3395:2 3444:1 3459:1 3476:1 3503:1 3538:3 3805:1 3879:1 3934:1 4011:1 4163:1 4170:1 4240:1 4286:1 4311:1 4354:1 4376:1 4567:1 4672:1 4916:1 4925:1 5024:1 5608:1 5679:1 6540:1 6618:1 7020:1 7154:1 7347:1 7759:1 7805:1 8037:1 8137:2 8406:1 8654:1 9063:1 9397:1 9496:1 9924:1 10403:2 10647:1 10858:1 11327:1 11760:1 12106:2 13088:1 13336:1 13690:2 14059:2 14092:1 14476:1 15502:3 15660:1 15845:1 16070:1 16241:1 16377:1 16918:1 16938:1 17582:1 17734:1 17890:1 17937:4 18188:1 18332:1 19339:1 19697:1 20632:1 21014:1 21076:2 21128:1 21908:1 22696:2 23208:1 25512:1 25544:1 25588:1 26200:1 27189:2 28048:1 28753:1 29439:1 29737:1 30043:1 30092:1 30372:1 31555:1 31621:1 32516:1 33105:1 34215:1 34701:1 34890:1 35969:1 37936:1 38932:1 40227:1 40433:1 41059:1 42181:1 42471:1 42565:1 
0.0002646385982857138 1:17 2:3 3:1 5:3 7:2 10:3 14:1 21:2 26:1 30:1 31:2 36:1 37:1 52:3 53:1 55:7 57:1 59:1 69:1 79:1 83:1 88:1 100:1 124:1 139:1 145:1 159:1 167:1 183:1 204:1 208:1 213:4 217:2 218:1 228:3 230:3 239:1 248:1 252:1 255:3 256:1 260:1 277:1 296:1 310:1 325:1 330:1 335:3 341:3 343:1 347:4 355:2 400:1 420:1 423:2 430:1 457:1 466:3 485:1 488:4 494:1 498:1 501:1 538:1 539:1 557:1 559:1 560:1 561:1 562:2 566:1 572:1 587:1 599:3 638:3 650:1 652:1 655:1 670:3 676:1 681:1 685:1 687:1 692:1 701:5 707:1 713:2 732:1 739:2 744:7 793:2 821:2 857:2 915:1 916:1 925:3 965:1 975:1 1013:1 1015:1 1062:1 1202:1 1208:1 1224:1 1229:1 1255:1 1277:2 1345:1 1364:1 1367:15 1368:1 1457:2 1462:6 1518:2 1523:2 1555:1 1600:1 1605:3 1619:2 1627:1 1652:1 1673:2 1712:1 1719:1 1764:1 1792:1 1797:3 1801:2 1823:3 1874:1 1876:7 1878:1 1897:1 1899:1 1937:1 1999:1 2015:1 2058:2 2081:1 2163:1 2274:1 2292:1 2323:1 2369:1 2393:4 2398:1 2477:1 2519:2 2671:1 2827:1 2885:1 3030:1 3071:1 3131:1 3156:1 3183:1 3201:1 3207:3 3251:1 3253:1 3268:1 3302:1 3324:1 3484:3 3498:1 3515:2 3605:7 3620:28 3709:2 3721:1 3742:1 3815:1 3888:1 3905:1 3945:1 3965:1 4009:1 4030:2 4069:3 4125:1 4198:1 4256:1 4278:1 4288:2 4342:2 4357:1 4385:2 4395:1 4481:2 4540:1 4549:2 4550:3 4703:3 4801:1 4880:1 5047:4 5058:1 5077:1 5103:3 5154:1 5214:2 5228:1 5242:1 5248:1 5292:1 5519:2 5634:1 5643:1 5686:1 5756:1 5779:2 5952:3 6039:1 6052:2 6139:1 6229:1 6243:1 6432:1 6741:1 6839:1 6910:1 6944:2 6951:1 7142:2 7186:6 7311:3 7332:2 7605:1 7682:1 7715:2 7733:1 7853:1 7970:1 8081:1 8833:1 8995:1 9021:2 9291:3 9305:1 9531:1 9544:6 9558:1 9597:2 9612:1 9682:1 9764:1 9857:1 9861:1 10008:1 10585:1 10701:1 10824:1 11055:1 11228:1 11589:1 11884:2 12011:1 12079:1 12382:1 12602:7 12787:2 13250:1 13528:1 13529:1 13662:1 13941:1 14107:1 14241:2 14486:1 14585:1 14651:1 14658:3 14659:1 15460:1 15520:1 15586:1 15774:1 16292:1 16873:1 16883:1 17337:2 17721:1 17795:1 18055:1 18082:1 18351:5 18395:2 18841:4 19377:1 19688:1 19724:1 19902:2 20220:3 20293:1 20620:1 21404:1 21476:1 21540:1 21639:1 21771:1 22632:1 22657:1 23329:1 23526:1 23545:2 24227:1 24298:6 24638:1 24811:1 24921:1 25362:1 25623:7 26128:1 26906:2 27407:1 27485:1 27593:5 28088:1 28308:1 28642:2 28646:1 29892:1 29942:1 29955:1 30094:1 30566:2 30843:1 31134:1 31158:1 31394:1 31429:2 31597:1 32097:1 32176:2 32213:1 32233:1 32288:1 32344:1 33432:1 35773:1 37138:1 37812:1 37850:1 38556:1 39221:1 39383:1 40102:2 40275:1 41770:1 41819:1 42047:2 42540:1 
0.0001831975764318476 1:9 2:1 3:1 6:2 9:1 12:1 19:2 32:1 47:1 57:1 58:1 80:1 82:2 96:1 100:1 110:1 116:1 122:1 124:1 145:1 154:1 176:3 179:1 180:1 182:1 199:8 201:1 208:1 218:1 228:6 249:1 251:1 269:1 275:1 287:1 290:1 330:1 355:1 358:1 365:1 400:2 413:1 449:1 467:1 473:2 488:3 546:1 579:1 616:2 718:2 719:1 792:2 807:1 837:1 865:1 902:2 910:1 918:1 1000:1 1010:1 1059:1 1136:2 1169:1 1174:1 1182:1 1183:1 1239:1 1247:1 1318:1 1353:1 1367:2 1401:1 1462:1 1516:1 1579:1 1587:1 1590:1 1609:1 1616:3 1623:1 1636:1 1666:1 1698:1 1918:1 1936:1 2046:1 2099:1 2201:2 2217:1 2228:1 2304:1 2426:1 2626:1 2916:1 2996:1 3004:1 3035:1 3204:1 3218:1 3265:1 3446:1 3519:1 3654:1 3708:1 3961:1 4016:1 4050:1 4058:1 4069:1 4123:1 4395:1 4421:1 4506:1 4549:1 4574:1 5057:1 5058:1 5123:1 5321:1 5343:1 5409:1 5438:1 5443:1 5489:1 5498:1 5540:1 5630:1 5678:1 5737:1 5779:1 6013:1 6364:1 6492:1 6510:1 6603:1 6605:1 8046:1 8290:1 8481:1 8558:1 8880:1 8920:2 9704:1 9821:1 10080:1 10303:1 10335:1 10504:1 10510:1 10555:1 10815:1 10945:1 11100:2 11617:1 11785:1 11955:1 12382:1 13610:1 14257:1 15953:1 16243:1 16534:1 16697:1 17419:1 17676:2 17939:1 18201:2 18815:1 18816:1 18828:6 19122:1 19165:1 19172:1 21658:1 21851:1 22674:2 22760:1 22804:1 23136:1 23345:1 24403:1 25406:2 26045:2 26553:1 26595:1 26888:1 27016:1 27141:1 27228:1 27490:2 27522:1 28047:1 28076:1 28664:1 29344:1 29503:1 30757:1 32211:1 34556:1 34589:1 34782:1 35376:1 35737:1 37366:2 37890:1 38362:1 39867:1 40006:1 40216:1 41788:1 42593:1 
0.0008489422867810542 1:21 2:2 3:1 7:1 8:1 13:1 18:5 21:1 30:1 34:1 36:1 38:2 44:1 45:3 47:1 54:1 55:2 57:1 58:5 63:1 81:2 82:1 85:1 95:1 96:1 100:1 108:1 115:1 131:1 139:1 140:2 169:1 173:1 274:1 276:1 293:1 327:1 334:1 335:1 341:1 367:1 374:1 385:1 403:1 407:1 412:1 426:2 430:1 457:1 470:1 482:2 487:1 576:1 595:1 609:1 610:1 631:4 634:1 645:1 670:1 673:1 698:1 717:1 748:1 837:5 841:1 870:2 887:1 891:1 936:1 972:4 973:1 989:1 990:2 992:1 1012:2 1025:1 1039:1 1051:1 1057:1 1066:1 1101:1 1108:1 1119:2 1153:1 1174:2 1208:5 1224:1 1247:1 1257:1 1274:1 1276:1 1346:1 1414:2 1533:1 1554:1 1757:1 1819:1 1848:1 1923:1 2064:2 2068:1 2213:2 2219:1 2328:1 2331:1 2342:1 2429:1 2507:1 2580:2 2663:2 2698:1 2708:1 2858:1 2921:1 2934:1 2992:1 2995:1 3010:1 3085:1 3119:3 3141:1 3223:1 3340:1 3469:1 3492:1 3603:1 3654:1 3823:1 3827:1 3952:1 4039:1 4149:1 4170:1 4173:1 4218:1 4369:1 4374:1 4421:1 4568:1 4694:1 4777:1 4792:1 4885:1 4941:1 4975:1 5029:2 5054:1 5154:1 5173:1 5248:1 5301:3 5355:1 5363:1 5713:1 5805:1 5868:1 5906:7 5978:2 5997:1 6088:1 6134:1 6143:1 6153:1 6491:1 6571:1 6699:1 6762:1 6971:1 7059:1 7220:2 7249:1 7612:1 7943:1 8002:6 8083:1 8096:1 8207:1 8310:1 8460:1 8463:1 8624:1 8823:1 8898:1 9054:1 9179:1 9294:1 9419:1 9816:1 10555:1 11284:1 11291:1 11426:1 11479:1 11713:1 11882:1 12032:1 12138:1 12314:1 12774:1 12865:6 14238:1 14845:1 14985:1 15380:1 15460:2 15600:3 15624:1 15755:1 16019:1 16170:1 16226:1 17077:3 17108:1 17346:1 17611:1 18163:1 18791:1 19182:1 21329:1 21612:1 21845:1 21853:1 22565:1 23021:1 23410:1 23605:1 23740:1 24407:1 24828:1 25826:1 26481:1 27259:1 27510:1 28047:1 28408:2 28986:1 29364:1 29830:1 29898:1 30301:1 30521:1 31433:1 33396:1 35251:1 35365:1 35366:2 35563:1 35908:1 36596:5 36800:1 37047:3 37107:1 38534:2 38716:1 41643:1 42234:1 42274:1 42392:1 42838:1 
0.0009753861739640815 1:37 2:5 3:2 9:1 14:4 18:6 22:1 30:1 36:6 48:2 50:2 55:4 63:1 64:1 69:1 80:1 81:1 82:1 98:4 100:2 115:1 131:6 151:1 166:3 173:1 192:1 195:4 218:1 243:2 244:1 248:1 256:1 274:1 306:1 319:1 324:2 325:1 330:1 347:1 349:1 353:1 363:2 376:1 400:2 412:1 423:2 453:1 457:2 466:2 471:1 480:1 490:1 498:1 531:3 532:1 561:3 576:1 579:1 605:1 615:1 638:5 645:4 661:1 670:4 690:1 694:2 710:2 713:1 726:1 727:1 758:2 809:1 837:4 883:1 897:2 898:1 900:1 909:3 925:11 936:1 940:1 951:1 973:1 983:1 993:1 1008:1 1027:1 1040:1 1051:1 1064:1 1068:1 1093:3 1139:1 1225:1 1229:1 1239:3 1247:4 1250:1 1288:1 1309:1 1324:2 1333:1 1337:1 1339:1 1345:1 1367:40 1371:1 1404:1 1411:4 1419:1 1457:1 1509:1 1512:1 1523:1 1533:1 1590:1 1616:3 1633:2 1652:3 1714:1 1758:1 1759:1 1767:1 1769:1 1800:1 1808:1 1850:1 1855:1 1866:2 1880:1 1899:1 1944:1 1986:1 2019:1 2043:1 2046:1 2114:2 2199:1 2292:1 2304:5 2322:1 2342:1 2349:1 2380:1 2393:1 2551:1 2612:1 2678:1 2734:1 2753:1 2769:1 2783:2 2818:1 2880:3 2883:1 2888:2 2999:3 3003:1 3010:1 3049:1 3126:1 3147:2 3244:1 3249:1 3327:2 3357:1 3372:1 3385:1 3418:1 3466:4 3484:1 3498:1 3505:1 3515:2 3606:2 3612:1 3654:1 3721:1 3736:1 3737:1 3755:1 3825:2 3939:2 3982:1 4082:1 4144:1 4162:1 4201:1 4218:1 4288:5 4464:1 4718:1 4907:2 4938:1 4939:2 4975:1 4994:1 5031:2 5089:1 5213:1 5241:1 5268:1 5300:1 5326:1 5331:1 5348:1 5373:1 5376:1 5389:1 5425:1 5515:2 5540:1 5676:1 5769:1 5777:1 5778:1 5779:1 5790:1 5893:1 5952:2 6073:1 6112:1 6194:1 6277:1 6313:1 6347:1 6388:1 6389:1 6500:1 6764:1 6782:1 6839:1 6848:1 6853:1 6872:1 6953:1 7060:1 7103:1 7118:1 7205:1 7302:2 7322:1 7375:1 7536:1 7605:2 7792:1 7813:2 7835:1 8100:2 8190:1 8405:1 8456:1 8541:1 8598:1 8626:1 8662:1 8734:2 8887:1 8894:1 8938:3 8941:1 9022:1 9058:1 9249:2 9297:1 9303:5 9312:2 9430:1 9475:1 9550:2 9584:1 9679:1 9682:1 9869:2 9937:1 10035:1 10070:1 10271:1 10383:1 10445:1 10455:1 10473:1 10479:1 10569:2 10624:3 10647:1 10701:1 10901:1 10927:1 11187:1 11451:1 11489:1 11713:1 11818:2 11984:3 12007:1 12011:5 12268:1 12283:1 12504:1 12565:1 12602:1 12615:5 13249:1 13567:1 13713:3 13991:2 14141:1 14175:1 14229:1 14280:1 14296:1 14383:1 14480:1 14486:1 14576:2 14857:1 15013:1 15264:5 15283:1 15321:1 15594:1 15727:2 15862:1 15906:1 16211:1 16267:1 16732:2 16828:1 16858:1 16859:1 16928:1 17336:1 17459:1 17468:1 17945:1 18122:1 18735:2 19076:1 19611:1 19849:1 20031:1 20440:2 20659:1 20729:1 20785:1 20847:3 21387:1 21449:1 21639:4 21908:5 22017:1 22562:1 22587:1 22856:1 22871:3 22907:1 23420:1 23450:1 23545:4 23560:1 24030:3 24178:2 24365:1 24455:1 24471:1 24652:1 24793:1 25197:2 25666:1 26199:8 26248:1 26536:1 26692:1 27928:2 28243:2 28296:1 28333:1 28847:1 28951:1 29364:1 29527:1 29786:1 30051:1 30446:1 30478:3 30491:1 30626:1 30977:1 31393:1 31451:2 31762:1 32180:3 32834:1 32875:1 33384:1 33406:1 33589:1 34591:1 34985:1 35056:1 35083:1 35682:1 36322:1 36323:1 36775:1 37316:1 38689:1 38828:1 38873:2 39014:1 39062:1 39477:3 40102:1 41959:2 41971:1 42593:2 42721:1 42814:1 42929:1 43102:2 
0.002805368923973916 1:3 2:6 3:1 5:2 14:1 20:2 21:3 36:1 37:2 44:1 50:1 52:1 55:1 63:1 80:1 82:1 93:1 95:1 100:1 116:1 130:1 196:1 228:1 293:1 304:1 407:1 417:1 446:1 471:1 477:1 482:1 488:1 516:1 581:1 606:5 616:1 674:1 743:1 749:2 772:1 837:3 858:1 869:1 870:2 927:1 965:1 966:1 968:1 1008:2 1057:1 1058:1 1065:1 1123:1 1143:1 1206:1 1208:3 1239:1 1335:1 1343:1 1356:1 1462:1 1623:1 1627:1 1736:1 1915:2 1978:3 2005:3 2154:2 2201:1 2211:1 2336:1 2349:1 2376:1 2490:2 2805:1 2896:1 2924:1 2966:2 3001:3 3117:1 3201:1 3296:1 3343:1 3383:1 3645:1 3888:1 3961:5 4030:2 4040:1 4717:1 4886:1 4941:2 5213:1 5273:1 5331:1 5759:2 5818:1 5880:1 6104:1 6510:1 6628:1 7406:1 7408:4 7419:2 8283:10 9527:1 9589:3 9790:2 12070:2 12972:1 13018:1 13050:1 13339:1 14228:2 14755:1 14762:4 14881:1 15352:1 16000:1 16149:1 16878:1 18028:1 18866:1 19262:1 21144:1 21213:2 21354:1 22560:1 23172:1 23419:2 33396:1 33794:1 40301:1 40578:1 42458:1 
0.0005903700871043092 1:7 3:1 4:2 5:2 9:3 13:1 14:1 17:1 19:1 33:1 35:1 36:1 53:1 57:1 81:1 118:1 119:2 134:1 146:3 166:1 171:2 181:1 201:3 218:1 228:2 230:1 263:1 288:3 293:1 317:1 324:1 335:1 344:1 345:1 398:1 406:1 423:1 459:1 488:2 494:1 509:1 572:1 579:3 581:1 621:2 641:1 653:1 657:1 658:1 676:1 681:1 713:1 727:1 957:1 968:1 999:1 1051:2 1084:2 1088:3 1090:1 1106:1 1186:1 1248:7 1257:1 1435:1 1482:1 1498:1 1520:1 1670:1 1716:2 1734:1 1737:1 1768:1 1800:2 1805:1 1808:2 1813:1 1859:1 1933:1 2083:1 2145:1 2146:2 2163:1 2501:2 2504:1 2514:9 2594:1 2664:1 2967:1 3250:1 3272:1 3285:1 3308:2 3431:1 3489:1 3512:1 3638:2 3764:1 3946:1 4166:1 4832:1 4979:1 5224:2 5292:1 5334:1 5520:1 5897:1 6195:1 6291:2 6667:1 6720:2 6758:1 6840:1 7306:1 7521:1 7636:1 8010:1 8312:1 8412:1 8570:1 8578:1 8642:1 8895:1 10242:1 10753:1 12139:1 12160:1 12360:1 12495:1 13481:1 13811:1 13980:1 14001:1 15073:1 15332:1 15548:1 16466:1 17031:1 17247:1 17904:1 17923:1 18084:1 18194:1 18620:2 18889:1 19328:6 19820:1 19854:1 20109:3 20528:1 20743:1 20919:2 21808:1 22341:2 22508:1 24069:2 26214:1 27619:1 29993:1 30138:1 30559:3 33717:1 42710:1 
0.0005272691834820341 1:12 2:2 3:3 7:2 8:8 9:1 10:1 13:4 18:2 19:1 20:5 21:2 23:2 30:3 31:1 36:2 38:1 44:18 46:10 54:1 55:1 60:1 70:3 83:1 86:1 91:2 93:1 108:2 115:1 116:1 117:1 127:7 139:1 143:1 145:1 179:1 194:2 195:1 209:1 212:1 217:1 218:1 220:1 246:1 262:3 268:1 281:2 283:1 284:2 291:1 295:1 297:6 304:2 316:1 317:1 321:1 329:1 334:1 344:1 349:2 355:1 358:1 382:1 388:1 396:1 407:1 409:3 426:2 444:3 446:2 495:1 505:1 512:2 513:1 546:1 554:7 561:1 566:1 605:2 620:1 641:1 645:1 652:1 661:1 696:1 706:1 713:1 728:1 732:1 774:1 787:1 824:1 830:2 878:3 919:1 922:1 940:2 954:1 978:1 979:1 993:1 1000:1 1002:1 1004:1 1011:2 1016:1 1019:1 1027:3 1082:1 1107:3 1152:1 1174:1 1176:1 1191:1 1203:1 1210:1 1289:2 1305:3 1330:1 1342:1 1343:1 1346:1 1394:1 1403:1 1414:1 1415:1 1487:2 1532:1 1548:1 1572:1 1630:1 1635:1 1670:1 1685:1 1693:1 1715:1 1727:1 1877:1 1973:2 1986:3 2043:2 2062:1 2072:1 2094:1 2132:1 2235:5 2238:1 2249:1 2272:1 2426:2 2430:2 2462:1 2463:1 2474:1 2520:1 2533:1 2543:1 2637:1 2670:1 2720:1 2812:4 2889:2 2931:2 3022:1 3085:1 3100:1 3147:1 3196:1 3207:2 3234:1 3249:1 3348:1 3367:1 3465:1 3648:1 3683:1 3696:1 3710:3 3761:2 4070:1 4103:1 4185:1 4314:2 4361:1 4413:2 4571:2 4745:1 4824:2 4841:1 4938:1 5087:1 5099:1 5104:1 5136:2 5142:1 5183:1 5269:3 5376:1 5380:1 5635:1 5943:2 5950:1 6228:1 6250:1 6258:1 6554:1 6720:1 6848:2 7362:1 7378:1 7397:2 7647:1 7690:1 7883:1 8119:1 8216:1 8568:2 8658:1 9043:1 9101:1 9260:1 9668:2 9774:1 10035:2 10114:1 10183:1 10525:1 10937:1 11471:1 11473:3 11556:1 11914:2 12381:1 12768:1 12775:1 12940:1 13589:1 13704:1 14064:1 15034:2 15086:1 15556:1 15635:1 17076:1 18098:1 19630:1 20186:1 21195:2 22516:2 22875:1 22897:1 22989:1 23160:1 23716:1 24416:1 24523:1 26033:1 26093:1 26365:1 26612:1 26938:1 28164:1 28840:2 28869:1 29282:1 29500:1 30458:1 30692:1 32278:1 32779:1 32848:2 33206:1 40310:1 40340:1 41178:1 
0.006174168920559668 1:13 2:3 3:2 7:1 9:3 10:2 13:1 18:1 19:1 26:2 30:1 33:1 37:1 45:1 58:3 59:1 68:1 69:1 71:1 77:1 94:1 115:2 138:1 148:3 154:1 168:1 181:1 185:2 186:1 196:1 230:1 246:1 252:1 256:1 262:1 272:1 275:1 299:1 303:2 326:1 343:1 362:1 369:2 370:1 371:1 388:1 420:1 422:1 423:1 425:1 429:2 446:2 447:2 482:1 527:4 532:1 544:1 565:1 585:1 590:1 622:1 628:2 636:1 640:2 655:1 724:1 732:1 766:2 774:1 787:2 877:2 913:1 957:1 968:1 1002:1 1007:1 1008:1 1053:1 1062:1 1088:1 1103:1 1115:1 1123:1 1182:2 1215:1 1246:1 1253:1 1283:1 1284:2 1310:1 1346:1 1347:1 1383:1 1403:1 1443:2 1448:1 1473:1 1478:1 1503:1 1512:1 1521:1 1523:1 1545:1 1663:1 1742:1 1761:1 1832:1 1849:1 1880:1 1900:1 1903:1 1951:1 1989:2 2006:1 2016:1 2068:1 2083:1 2142:1 2186:1 2229:1 2276:1 2369:1 2407:1 2466:1 2692:1 2734:1 2736:1 2776:1 2825:1 2832:2 2837:1 2850:1 2879:1 2882:1 2894:1 2901:1 3137:1 3252:1 3294:1 3520:1 3600:2 3629:1 3667:1 3690:1 3735:1 3766:1 3801:1 3809:1 3889:1 4223:1 4230:1 4418:1 4489:1 4498:1 4531:3 4602:1 4646:1 4819:1 5235:1 5268:1 5298:1 5328:1 5355:1 5365:1 5399:1 5442:1 5515:1 5594:1 5664:1 5693:1 5772:1 5831:1 5858:1 5907:1 6439:1 6477:1 6553:1 6745:1 7232:1 7304:2 7378:1 7496:1 7858:1 7933:1 8105:1 8198:1 8457:1 9312:1 9742:1 9857:1 9948:1 10081:1 10100:1 10481:1 10578:1 10885:1 11501:1 11850:1 11932:1 12021:1 12415:1 12860:1 13132:1 13402:1 13672:1 13746:1 14276:1 15171:1 15182:1 15210:1 15417:1 15576:1 15841:1 16035:1 16042:1 16122:1 16390:1 16827:1 17929:1 18299:1 19361:1 19430:1 19618:1 19693:1 20083:1 21429:1 21516:1 21675:1 22273:1 22280:1 22299:1 23737:1 25183:1 25328:1 25347:1 25512:1 25552:1 26243:1 27258:1 27463:1 27754:1 29130:1 29508:5 30278:1 30468:1 31085:1 33623:1 33705:1 33862:1 34264:1 34467:1 34930:1 35031:1 35665:1 37193:1 40928:1 41578:1 
0.004520883569489794 1:11 2:2 18:1 34:1 47:1 70:1 77:1 82:1 88:1 121:1 135:1 156:1 228:1 243:2 276:1 296:1 325:1 335:1 358:1 402:1 477:1 487:1 488:2 513:1 553:2 557:2 589:1 622:1 793:1 798:1 858:1 1050:1 1081:1 1290:2 1368:1 1482:1 1612:1 1726:1 1808:1 1923:1 1976:1 2023:1 2134:1 2142:1 2219:1 2269:1 2545:2 2825:1 3204:1 3686:1 3737:1 4094:1 4921:2 4939:1 4966:1 5006:1 5057:1 5701:1 5819:1 5876:2 5921:1 6101:1 6628:3 6678:2 6734:1 6985:1 7049:2 7590:1 8179:1 8766:1 10105:1 10575:3 10815:1 11499:1 12718:1 13897:1 14213:1 14946:1 18486:1 19172:1 20293:1 21067:1 22366:1 23538:2 24196:1 24900:3 25200:1 26110:1 26192:1 26213:1 26369:1 27026:1 27520:1 27823:1 27846:1 29107:1 29344:1 30038:1 32984:1 33397:1 33694:1 33752:1 33808:1 34958:6 35633:1 39872:1 41466:1 41670:1 41744:1 41843:1 42540:1 
0.0001424805536878608 1:15 2:2 3:3 4:3 7:3 8:1 10:1 17:1 18:1 32:1 35:3 45:1 50:1 52:1 54:1 55:1 57:1 59:1 63:1 70:1 81:2 86:2 110:1 115:1 138:1 168:1 170:1 173:1 178:1 181:1 186:1 196:1 215:2 220:1 230:1 240:2 255:1 263:1 267:1 284:1 288:3 291:1 297:2 300:2 355:1 359:2 385:1 408:1 409:2 435:1 487:1 488:1 503:1 532:1 538:2 542:1 549:1 554:2 557:1 562:1 594:1 616:1 661:1 674:2 727:1 739:1 779:1 803:1 847:2 883:1 938:1 946:1 954:1 974:2 978:1 983:1 999:1 1030:1 1082:1 1130:1 1231:1 1239:1 1241:1 1305:1 1315:1 1367:1 1391:1 1476:1 1528:2 1529:1 1548:1 1633:1 1657:1 1661:1 1699:1 1813:1 1883:1 1890:1 1906:1 2046:6 2130:7 2159:1 2249:1 2274:1 2300:2 2313:1 2399:1 2438:1 2484:1 2552:1 2623:1 2663:1 2664:1 2720:1 2734:1 2876:1 2906:1 3102:1 3204:1 3212:1 3236:1 3311:1 3357:1 3482:1 3498:1 3552:1 3613:1 3950:1 3998:1 4127:1 4130:2 4210:1 4231:1 4342:1 4357:1 4585:1 4661:1 4713:1 4804:2 4979:1 5047:1 5058:2 5087:1 5103:1 5200:1 5441:1 5514:1 5750:1 5874:1 6258:1 6612:1 6617:1 6622:1 6670:1 6726:1 6944:1 7141:1 7277:1 7434:1 7529:1 7926:1 8111:1 8113:1 8152:1 8261:3 8358:1 8408:1 8528:1 8596:2 8758:1 8824:1 8896:1 8951:1 8994:1 9001:9 9110:1 9219:1 9865:1 9908:1 10331:1 10395:1 10505:1 10924:2 10937:1 10957:6 11072:1 11241:1 11516:1 11564:1 13360:1 13811:1 13938:1 13980:1 14458:1 14903:1 15320:1 15321:1 15454:1 15784:1 15995:1 16459:1 16626:1 16890:2 17345:1 17443:1 17462:1 20782:1 20882:1 21259:1 21580:1 22286:1 22396:1 22598:1 22869:1 23172:2 23367:1 23674:1 23695:1 23985:1 24385:1 24921:1 25342:1 25937:3 26834:1 27242:1 28013:1 28298:1 28488:1 28815:1 29766:1 30458:1 31817:1 35411:1 35516:1 35773:1 39597:1 42135:1 42830:1 43167:1 
0.003256973757490666 1:11 2:2 5:1 9:1 12:1 18:1 20:4 50:1 75:2 116:1 131:1 135:1 149:2 184:1 200:1 201:1 213:2 221:1 228:1 246:1 302:1 358:1 454:1 559:1 638:1 687:1 784:1 836:1 877:1 968:1 1028:1 1088:2 1109:1 1190:3 1229:1 1234:1 1247:1 1257:1 1308:1 1324:1 1648:2 1684:1 1839:5 1977:1 2090:1 2106:2 2143:1 2281:1 2504:1 2545:1 2577:1 2770:1 2789:1 2871:2 3041:1 3351:1 3731:1 4286:1 4435:2 5653:2 5808:1 6313:1 6589:1 6678:1 7185:2 8359:1 8590:1 8863:1 8983:1 9531:1 9924:1 9945:1 10240:1 10615:1 11323:1 12575:2 14122:1 15995:1 16261:1 16944:1 17664:2 18666:4 18825:1 21820:1 22853:1 24434:1 25197:2 25359:1 28662:3 33139:1 33905:1 35040:1 36403:1 40452:1 42127:1 
0.003509978798874 1:17 2:3 4:1 12:2 13:1 14:2 18:1 21:1 23:1 29:1 33:1 36:3 54:3 66:1 70:5 77:1 81:1 93:1 99:1 103:1 115:1 138:1 148:3 207:1 217:1 218:1 221:1 229:1 242:3 243:1 262:1 271:1 283:1 289:1 303:2 309:1 327:1 330:1 354:1 359:1 374:1 379:1 412:1 413:1 414:1 429:3 466:1 468:2 473:1 503:1 511:1 531:1 540:1 549:1 559:1 565:1 594:2 600:2 606:1 617:1 620:1 633:2 692:1 737:1 749:3 761:1 787:1 843:4 844:1 872:2 888:1 897:2 965:2 968:1 989:1 992:1 1008:1 1062:1 1103:1 1135:1 1175:1 1214:1 1225:2 1231:1 1234:1 1250:1 1257:1 1345:2 1364:3 1368:1 1382:1 1444:1 1447:1 1458:1 1481:2 1497:1 1525:1 1539:1 1573:1 1577:1 1608:1 1611:1 1627:1 1695:1 1832:1 1839:1 1892:1 1899:2 1904:1 1931:1 1933:1 1956:1 1972:1 2023:1 2060:1 2062:1 2107:1 2144:2 2180:1 2218:1 2228:1 2302:1 2313:1 2341:1 2355:1 2393:1 2447:2 2484:1 2516:1 2546:1 2615:1 2618:1 2643:1 2711:1 2736:2 2769:1 2772:1 2780:1 2835:1 2888:1 2991:1 3169:1 3191:1 3226:1 3235:1 3311:1 3359:4 3408:1 3439:1 3460:1 3545:3 3763:1 3825:3 3853:1 3881:1 4063:1 4147:2 4191:3 4306:1 4314:1 4323:1 4571:1 4658:1 4721:1 4731:1 4840:1 4886:1 4964:1 5028:1 5142:1 5168:1 5185:1 5193:1 5325:1 5446:1 5463:1 5478:1 6310:1 6561:2 6754:1 6776:1 6837:1 6977:1 7018:1 7147:1 7148:2 7337:1 7413:1 7696:2 7705:1 7811:1 7862:1 8094:1 8163:1 8208:1 9022:1 9554:1 9668:1 9705:1 9960:1 10206:1 10217:1 10507:1 10561:2 10815:1 10962:1 10981:2 11041:1 11179:1 11277:1 11295:1 11483:1 11576:1 11889:1 12006:1 12108:2 12194:1 13137:1 13378:1 13565:1 13659:1 13801:1 13986:1 14046:1 14126:1 14543:1 14692:1 14878:1 15022:1 15113:1 15341:1 15453:1 15856:1 16574:1 16841:1 17307:1 17629:1 18575:1 18857:1 19004:1 19986:1 20311:1 20860:1 20938:1 22177:1 24300:1 24364:1 24441:1 24500:1 24784:1 25191:1 25405:1 25497:1 26082:1 27941:1 28300:1 29958:1 30365:1 31572:1 32914:1 32920:1 34826:1 38990:1 39592:4 39688:1 39872:1 41052:1 41270:1 41475:1 42198:1 42350:1 42628:1 
0.00131271279425751 1:5 5:1 7:1 9:1 13:1 23:1 40:1 47:1 52:1 53:1 58:1 80:1 103:1 126:1 146:1 149:2 168:1 179:1 182:1 196:1 199:2 202:1 228:1 232:1 239:1 249:1 276:1 317:1 357:1 418:1 438:1 488:2 616:2 617:1 712:1 718:1 841:1 883:1 965:1 1033:1 1050:1 1087:1 1105:1 1186:2 1191:1 1269:1 1371:1 1398:1 1431:1 1447:1 1458:2 1488:1 1570:3 1582:1 1630:1 1666:1 1675:1 1805:1 2086:1 2141:1 2158:1 2191:1 2545:1 2869:1 2897:1 3010:1 3151:1 3222:1 3266:1 3363:1 3406:1 3610:2 3719:1 4094:1 4157:1 4349:1 4456:1 4549:1 4563:1 4906:1 4995:1 5290:1 5447:1 5501:1 5549:1 5676:2 5689:2 5692:1 5872:1 6628:1 6957:1 7382:1 7413:1 7691:1 8149:1 8294:2 8733:1 9219:1 10140:1 10241:1 10770:1 10815:1 11042:1 11317:1 11336:1 11423:6 11899:2 12354:1 12371:1 12972:1 13217:1 14824:1 15180:3 15332:1 15743:1 15837:1 17403:1 17468:1 17748:1 21176:1 23414:1 23538:1 24046:3 26123:1 26185:1 26276:2 27026:1 29128:1 29139:1 29164:1 29221:1 31934:1 32648:1 34658:1 35098:1 35604:1 36841:1 37155:1 41369:1 
0.005213153117593095 1:6 2:1 12:1 16:1 20:1 26:1 29:1 31:1 33:1 36:2 50:1 55:1 132:1 138:1 141:1 149:1 179:1 228:2 243:1 252:1 286:2 304:1 491:1 528:1 553:2 616:1 650:1 651:1 659:1 714:1 752:1 841:1 854:2 857:1 962:1 1027:1 1036:1 1308:1 1325:1 1371:1 1435:1 1461:5 1500:1 1530:1 1627:1 1673:1 1726:1 1936:1 1990:1 2130:1 2235:3 2292:1 2351:1 2379:1 2481:1 2583:1 2735:1 2958:1 2959:1 3262:1 3710:1 3720:1 4349:1 4464:1 4679:1 4921:6 5135:1 5213:1 5956:1 6031:1 6370:1 6553:1 6722:1 7380:1 7503:1 7709:1 7986:1 8282:1 8456:1 8741:1 9206:1 9514:1 10008:1 11106:1 11616:1 13454:1 13715:1 15830:1 16362:1 17217:1 17646:1 22441:1 25029:1 25169:1 25331:1 27016:1 27792:1 30686:1 37618:1 38928:1 43169:1 
0.00921560994537118 1:6 2:1 7:1 9:1 26:1 46:1 54:1 86:1 87:1 145:3 166:1 181:1 198:1 267:1 281:1 284:1 288:2 297:1 347:1 483:1 488:1 551:1 572:2 602:1 650:1 745:1 825:1 841:1 1013:3 1027:1 1256:1 1273:1 1322:1 1342:1 1394:1 1500:3 1715:1 2009:1 2081:1 2717:1 3092:1 3234:1 3264:1 3392:1 4037:2 4611:1 4908:1 5277:1 6638:1 7615:2 11133:1 12445:1 18873:1 24438:1 28989:1 30092:1 37460:1 
0.003719438707719406 1:11 2:4 3:2 4:1 7:2 8:1 9:1 11:2 12:1 13:2 14:1 18:3 19:1 21:2 36:1 38:1 39:1 44:1 47:1 54:3 55:3 96:1 97:1 115:1 117:3 124:1 126:3 127:1 131:2 137:1 138:1 145:1 148:1 150:2 161:1 166:1 169:1 195:1 244:2 260:1 271:1 274:2 289:1 316:1 343:1 375:1 377:1 399:3 412:1 413:1 461:1 486:1 494:1 526:1 536:1 540:1 563:1 610:2 628:1 646:2 676:1 719:1 728:1 737:1 784:1 804:1 844:16 935:1 938:1 957:1 965:1 966:1 993:1 1002:1 1058:1 1067:1 1089:1 1096:1 1103:2 1113:4 1142:1 1169:1 1247:2 1274:1 1309:2 1363:1 1364:1 1393:1 1395:1 1456:1 1495:1 1520:1 1521:1 1541:1 1574:1 1601:1 1628:1 1639:1 1693:2 1766:1 1870:1 1907:1 1928:1 2075:1 2083:1 2158:5 2198:1 2203:1 2250:1 2346:1 2348:1 2520:1 2556:1 2575:1 2589:1 2599:1 2601:1 2608:1 2618:1 2623:1 2661:1 2738:1 2762:1 2794:2 2818:1 2825:1 2835:1 2850:1 2851:1 2861:1 2888:1 2945:2 2947:2 3036:1 3130:1 3214:1 3235:1 3314:1 3495:1 3542:1 3761:1 3921:1 4054:1 4067:1 4082:1 4109:1 4129:1 4138:1 4173:1 4431:1 4534:1 4548:1 4549:1 4610:1 4676:1 4779:1 4875:1 4935:1 5082:1 5091:1 5117:1 5487:1 5616:1 5749:1 6152:1 6174:1 6407:1 6971:1 7306:1 7426:1 7459:1 7820:1 7942:1 8020:1 8405:1 8460:1 8676:1 8764:1 8811:1 9011:1 9124:1 9158:1 9482:1 9554:1 9679:1 9960:1 10207:1 10212:1 10263:1 10516:1 10540:2 10745:1 10988:1 11130:1 11140:1 11179:2 11217:1 11575:1 12028:1 12096:1 12526:1 12805:1 13213:1 13242:1 13327:1 14103:1 14178:1 15377:1 15594:1 15681:1 15740:1 16317:1 16821:1 17165:1 17473:1 17957:1 17968:1 18106:1 19006:1 20023:1 20417:1 21181:1 21414:1 22833:1 23188:1 24117:1 24308:1 25485:1 26036:1 27039:1 28111:1 29884:1 31436:1 33282:1 34883:1 35618:1 37310:1 39067:1 40028:1 41966:1 42529:1 
0.0009681649940582142 1:15 2:2 3:1 6:3 9:1 12:2 14:1 19:1 20:2 24:1 31:1 33:1 34:1 44:2 48:1 54:1 55:1 58:2 64:1 68:1 73:1 74:1 88:2 89:1 145:1 149:2 159:2 163:2 171:2 179:1 196:1 217:1 218:1 226:1 230:3 244:1 252:1 274:1 289:1 314:1 334:1 341:1 351:2 354:1 377:2 417:1 436:1 450:2 464:1 482:1 500:1 550:1 559:1 563:1 589:1 615:2 621:1 669:2 694:1 698:1 728:1 776:1 856:1 909:1 962:1 968:1 985:2 993:2 1000:1 1007:1 1008:1 1010:1 1043:2 1068:2 1097:1 1167:1 1183:1 1216:1 1221:5 1223:1 1235:1 1241:1 1257:1 1271:1 1308:1 1315:1 1345:1 1463:2 1511:1 1588:2 1627:1 1695:1 1723:1 1732:1 1736:1 1759:1 1787:2 1874:1 1899:1 1960:1 1961:1 2014:1 2046:3 2122:1 2341:1 2486:1 2637:2 2806:1 2812:3 2814:1 2876:1 2898:1 2916:1 2968:2 2996:1 3113:1 3154:1 3228:1 3315:1 3379:1 3484:1 3497:1 3543:1 3686:8 3727:1 3744:1 3799:1 3852:1 3941:1 3962:1 4137:4 4240:3 4294:1 4322:4 4329:1 4331:1 4397:1 4411:2 4510:1 4583:1 4631:1 4673:1 4794:1 5013:1 5443:1 5536:1 6307:2 6571:1 6714:1 6996:1 7153:2 7248:2 7677:1 7962:1 8137:1 8742:3 8888:1 8980:1 9253:1 9305:1 9598:1 9945:1 10035:1 10066:1 10101:1 10244:1 10582:1 10758:1 11128:1 11149:2 11484:1 11944:1 12388:1 12426:1 13734:1 13966:1 14528:1 14740:26 14743:1 15389:1 15507:1 16466:1 16735:1 16895:1 18132:1 19166:1 19350:1 19749:1 20245:1 20479:1 20543:1 20981:1 21292:1 21423:1 21851:1 22934:1 23609:1 24805:2 26602:1 27802:1 28445:1 29695:1 29784:1 31430:3 31842:1 32483:1 34375:1 35540:1 35946:1 36481:9 37233:1 38471:2 39932:1 39977:1 41634:1 43205:1 
0.0005445009166247068 1:10 2:1 3:1 7:4 12:1 13:3 18:2 21:1 23:2 33:1 45:1 46:1 47:1 54:2 58:2 60:4 66:1 68:1 69:1 86:1 97:1 109:1 115:1 117:1 127:4 132:1 137:1 194:1 215:1 223:3 252:1 284:1 288:1 375:1 386:1 387:1 390:1 399:1 407:1 414:3 423:1 462:1 491:1 539:1 557:1 576:4 589:1 610:1 613:1 644:1 673:1 682:2 706:1 836:1 918:1 933:1 979:1 992:1 1017:1 1019:1 1039:1 1067:1 1082:1 1097:1 1107:1 1113:2 1122:2 1330:1 1375:2 1393:1 1410:1 1414:1 1481:1 1495:1 1554:1 1670:1 1695:1 1728:1 1881:18 1953:1 2018:1 2149:1 2165:1 2223:1 2231:1 2234:1 2277:1 2288:1 2361:1 2391:2 2806:1 2818:1 2829:1 2905:1 2962:1 2971:1 3036:1 3061:2 3303:1 3409:1 3583:1 3625:1 3687:1 3792:1 3952:1 4314:2 4839:1 4887:1 4908:1 5101:2 5705:1 5727:1 5991:1 6048:1 6455:1 6475:1 6994:1 7234:1 7309:1 7389:1 7443:1 7470:1 7636:1 7962:1 8392:1 8438:1 8646:1 8691:1 8772:1 9018:1 9225:1 9709:1 10630:1 10753:1 11246:1 11384:1 11432:2 11618:1 11931:2 12117:1 12289:1 12907:1 13047:1 13140:1 14230:1 14335:1 15750:1 15756:1 16526:1 20492:1 21088:1 21965:1 22355:1 22788:1 22895:2 23065:1 24411:1 24852:1 25201:1 25541:1 25983:1 26607:1 28455:2 29685:1 29711:1 30451:1 31347:1 32614:1 32935:1 34267:1 36586:1 37323:1 40706:1 42523:1 
0.0005126869571004234 1:13 2:1 3:3 5:3 9:1 10:5 13:1 14:1 18:3 20:2 21:1 31:1 40:1 51:1 52:1 69:2 73:1 91:2 95:1 109:5 139:1 144:3 145:1 149:1 159:1 179:1 182:1 184:1 195:1 199:4 207:2 213:2 228:3 235:3 252:1 266:1 267:2 288:1 302:1 353:2 358:1 361:1 372:1 407:1 424:1 471:1 476:1 501:2 502:2 519:1 560:1 566:3 573:2 579:3 606:2 616:1 618:1 643:3 672:1 681:1 685:2 687:1 708:1 713:1 717:1 722:1 784:1 839:1 857:1 918:2 1010:1 1031:1 1069:1 1112:1 1115:1 1180:2 1227:1 1234:1 1245:3 1248:1 1320:1 1342:1 1360:1 1374:1 1381:1 1474:1 1498:1 1500:1 1509:1 1604:1 1750:1 1759:1 1812:1 1839:1 1855:2 1874:1 2021:1 2040:1 2081:1 2162:1 2577:4 2811:1 2950:1 2966:1 3087:1 3228:7 3351:1 3484:1 3499:2 3508:1 3559:1 3610:1 3612:2 3716:1 3736:1 3801:1 4013:1 4235:1 4404:3 4435:1 4718:1 4939:1 5056:1 5234:1 5530:1 5564:15 6572:1 6771:2 6848:1 6929:1 7101:1 7185:2 7205:1 7609:1 7999:2 8480:1 8980:1 10013:1 11325:1 11957:1 12137:1 12259:1 12442:1 12575:1 13339:1 15069:1 15151:1 16581:1 18991:1 19067:1 19477:1 20286:1 21640:4 22702:1 25050:1 27463:1 28673:1 29387:3 32520:1 34230:1 35602:1 37580:1 38191:1 42271:1 
0.0008604146078073332 1:23 2:3 10:1 12:1 14:1 18:1 20:1 30:1 34:1 38:1 51:1 55:1 57:1 63:1 69:1 70:1 100:1 113:1 125:1 138:1 151:1 159:1 181:2 182:1 183:1 199:2 213:2 221:1 228:2 250:1 252:1 286:1 306:3 317:1 325:2 330:1 335:1 361:1 400:1 407:2 417:1 424:1 426:1 431:1 454:1 458:1 467:1 485:1 488:1 557:1 559:1 566:3 579:1 589:1 618:1 713:1 722:1 726:1 739:1 764:1 779:1 792:1 805:1 836:1 877:1 894:1 896:2 933:1 990:1 1039:1 1040:1 1066:1 1119:1 1121:1 1123:1 1190:1 1232:1 1290:1 1368:2 1417:1 1474:1 1531:2 1533:1 1616:1 1623:1 1652:2 1656:1 1658:1 1695:1 1858:1 1976:1 1980:1 1984:1 2085:1 2096:1 2130:1 2201:1 2235:2 2242:1 2292:1 2326:1 2328:1 2351:1 2408:2 2543:1 2545:2 2577:1 2794:1 2827:3 2839:1 2871:1 2982:1 2992:1 3041:2 3071:1 3177:1 3216:1 3222:1 3254:1 3262:1 3357:1 3377:1 3599:1 3610:1 3635:1 3704:1 3744:2 3820:16 4259:1 4375:2 4456:2 4492:1 4572:1 4628:1 4703:1 4778:1 4995:1 5058:1 5066:1 5096:1 5218:1 5227:1 5411:1 5557:1 5705:1 5747:1 5870:2 6031:1 6081:1 6242:1 6327:1 6487:1 6625:1 6699:1 7036:1 7111:1 7185:1 7254:2 7259:1 7327:1 8283:1 8290:1 8501:1 8596:1 8985:1 9138:1 9228:1 9690:1 9924:1 9956:1 10914:1 10996:1 11042:1 11048:1 11200:1 11517:1 11625:1 11974:1 12393:1 12555:1 12785:1 13789:1 14295:1 14523:1 14543:1 15614:2 16289:1 16737:1 17067:1 17486:1 17523:1 17644:1 18430:1 19297:1 19503:1 21004:1 21024:1 21221:1 21223:1 22396:1 22753:1 23991:1 24178:1 24266:1 24624:1 26369:2 26847:1 27204:1 28769:1 29200:1 29289:1 30374:1 32568:1 33580:1 35554:1 38265:1 38716:1 39818:1 40252:1 40727:1 41953:1 42439:1 
1.635902305125166e-005 1:16 2:3 3:1 5:1 9:1 12:1 13:1 14:3 18:1 20:1 31:3 36:1 37:4 38:1 48:1 51:1 64:1 68:1 83:1 91:1 93:1 119:1 130:1 138:2 141:1 153:1 159:1 168:1 170:2 171:1 200:2 203:1 213:1 230:1 248:1 252:2 262:1 270:1 273:1 281:4 288:2 291:4 304:1 357:1 358:2 361:1 363:1 406:1 423:2 426:2 454:1 487:1 488:1 514:1 524:1 551:1 553:1 559:1 572:4 585:1 592:1 597:1 627:1 655:1 666:1 670:1 674:1 720:1 726:1 748:2 784:1 801:1 844:9 857:1 906:1 976:1 986:1 1004:1 1008:1 1031:1 1040:1 1066:1 1068:1 1179:1 1261:1 1309:1 1356:1 1361:1 1367:1 1372:1 1410:3 1417:1 1481:1 1510:1 1513:1 1521:1 1567:1 1639:1 1695:1 1712:1 1719:1 1734:1 1761:1 1816:1 1855:1 1874:1 2096:1 2105:1 2168:1 2220:1 2226:1 2292:1 2380:1 2391:1 2420:1 2488:1 2670:1 2678:1 2704:2 2723:1 2749:1 2784:1 2980:1 3055:1 3083:1 3098:1 3351:1 3359:1 3744:1 3773:1 3887:1 4127:1 4158:1 4191:1 4484:1 4636:2 4672:1 4864:1 4921:1 4996:2 5026:1 5109:4 5113:1 5128:1 5203:1 5213:1 5332:1 5372:3 5498:1 5689:1 5818:1 5830:1 5900:1 6052:1 6088:1 6331:1 6467:2 6554:1 7180:1 7380:1 7442:2 7529:1 7572:1 7623:1 8064:1 8367:1 8449:1 8755:1 8842:2 9679:1 10386:1 10414:5 10575:2 10637:1 10904:1 11179:1 11612:1 11900:1 12034:1 12159:1 12324:1 12389:1 12504:1 12786:1 12891:2 13017:1 13325:2 13406:1 13709:1 13842:1 13978:1 14301:1 14683:1 14785:1 15652:1 15764:1 16269:1 16417:2 16551:1 17166:1 17866:1 18186:1 18253:1 18918:1 19808:1 20189:1 20268:1 20522:1 21038:1 21329:1 21611:1 22454:1 22589:1 23529:1 24148:1 24884:1 25106:1 25116:1 25264:1 25315:1 26128:1 26130:1 26692:1 27016:1 27051:1 27824:1 27887:1 30709:1 32152:1 32537:1 34701:1 35554:1 36152:1 36380:1 36868:1 38168:2 38473:1 38529:1 39592:5 40656:1 42086:1 42734:1 43004:3 
0.002574770302200325 1:7 5:3 9:1 10:2 13:1 21:2 30:1 36:1 40:1 44:1 52:2 58:2 63:2 73:1 81:1 87:1 103:1 109:3 132:1 151:1 166:1 180:2 198:2 199:2 203:1 208:1 213:1 218:1 221:1 267:1 302:2 306:1 310:1 317:1 371:1 454:2 457:1 477:1 492:1 507:1 516:3 552:1 569:1 606:4 617:1 641:1 643:1 644:1 687:3 713:4 726:1 869:1 871:1 875:1 882:1 909:1 987:1 1015:1 1049:1 1050:2 1084:1 1109:1 1141:1 1180:3 1186:1 1227:2 1234:1 1248:1 1299:1 1321:1 1324:1 1391:1 1465:1 1521:1 1530:1 1548:1 1623:1 1726:1 1732:4 1750:1 1822:1 1899:1 1904:1 2011:1 2099:1 2174:1 2346:1 2420:1 2795:1 2930:1 2950:1 2966:1 3096:1 3181:1 3216:1 3337:1 3351:1 3543:1 3717:1 4547:1 4566:1 4679:1 4733:1 4752:1 4831:1 5262:1 5468:1 5515:1 5528:1 5713:1 5737:1 5847:3 5887:1 5982:1 6003:1 6017:1 6164:1 6165:6 6350:1 6456:1 6471:1 6499:1 6990:1 7248:1 7271:1 7276:2 7352:1 7736:1 8351:1 8402:1 8423:2 8604:1 8842:1 8863:1 9400:1 9570:1 9637:1 10128:1 10195:1 10244:6 11032:1 11384:1 11957:1 12324:1 12448:1 13900:1 13954:1 14765:1 15507:1 15548:1 15648:1 15866:1 16377:1 17664:1 18374:1 19818:1 20239:1 20919:1 21327:1 21645:1 23040:1 23111:1 23419:1 23821:1 24362:6 25504:1 26412:1 26540:1 28010:1 28202:1 30794:1 31410:1 32415:1 32570:1 37217:1 42156:1 42597:1 42918:1 
0.001955503365605181 1:9 2:3 3:1 4:1 5:2 6:3 8:1 12:1 17:1 21:1 28:5 40:8 49:2 53:1 80:1 83:1 85:2 87:1 90:1 97:1 100:1 102:3 121:3 144:1 161:1 168:1 170:3 181:3 184:1 185:1 198:1 207:2 253:1 255:1 266:1 269:1 281:3 306:1 338:2 359:1 370:1 390:2 440:6 445:1 450:1 464:5 476:1 501:1 505:1 527:2 532:1 551:2 560:2 572:1 608:1 614:1 616:4 620:3 658:1 668:1 676:1 685:1 706:1 732:1 792:1 815:1 847:2 869:1 930:1 932:1 947:2 953:1 972:2 1030:1 1114:1 1136:1 1167:1 1229:1 1264:1 1286:1 1299:1 1315:1 1322:1 1343:1 1392:1 1468:1 1528:1 1542:1 1551:1 1599:1 1636:1 1652:1 1688:1 1717:1 1738:1 1802:1 1823:1 1859:1 1872:1 1888:1 1897:1 1938:1 1948:1 1976:14 2052:4 2078:1 2096:1 2141:1 2155:1 2198:1 2252:2 2271:1 2364:1 2369:2 2398:1 2425:1 2444:1 2459:1 2557:1 2592:1 2688:1 2692:1 2693:1 2731:2 2792:1 2832:1 2882:1 2924:1 2927:1 2934:1 2974:1 3047:1 3201:1 3259:1 3456:1 3526:1 3556:1 3621:1 3676:1 3733:1 3737:6 4002:2 4196:1 4236:1 4347:1 4524:1 4567:1 4585:1 4806:1 4832:1 4951:1 5198:1 5360:1 5422:1 5459:1 5494:1 5514:1 5555:1 5702:1 5965:1 6221:1 6572:1 6625:1 6671:1 6743:2 6797:1 6878:1 7113:1 7277:3 7380:1 7446:1 7881:1 8420:1 8468:1 8490:1 8585:1 8631:1 8658:1 8699:1 8701:1 9102:1 9260:1 9708:1 9891:2 9980:1 10027:1 10707:1 10747:1 11193:1 11647:1 11845:1 12262:1 13121:1 13188:1 13892:3 14760:1 15204:1 16065:1 17042:1 17257:4 17587:1 18051:1 18060:1 18973:1 19081:1 19266:1 19842:1 20890:4 22708:1 22733:1 22810:1 23459:1 23836:1 24374:1 26419:1 30496:1 31518:1 32328:1 32527:1 33309:1 34140:1 35881:1 
0.007568623462508835 1:1 2:2 9:1 13:1 37:1 149:4 174:2 179:1 400:1 467:1 482:1 518:1 713:1 772:1 787:1 837:1 1027:1 1208:3 1346:1 1417:1 1630:1 1636:1 1659:1 1697:1 1736:1 1812:1 1838:1 1890:1 1899:1 1936:1 1938:1 2304:1 2425:1 2481:1 2999:1 3001:4 3062:1 3386:1 3961:1 4385:1 4397:1 4484:2 4493:2 6128:1 8668:1 9364:1 9584:1 13276:2 14662:2 18853:1 19498:1 20578:1 20875:1 27563:1 31474:1 40239:1 
0.002441894516896395 1:12 2:1 3:2 5:2 12:3 31:1 34:2 40:1 47:1 48:1 51:1 52:1 58:2 80:1 87:1 151:1 170:1 182:1 199:1 213:2 218:3 228:4 253:1 266:1 281:1 315:2 334:1 358:1 400:3 497:2 566:3 582:1 772:1 922:1 954:1 989:1 1019:1 1039:1 1062:1 1077:1 1238:1 1247:1 1346:1 1371:1 1392:2 1414:2 1605:1 1619:1 1636:1 1720:1 1984:1 2076:1 2162:1 2231:1 2379:1 2404:4 2545:2 2573:1 2582:1 2871:1 2949:1 3028:1 3094:3 3222:1 3316:1 3570:2 4131:1 4213:9 4274:1 4342:1 4347:2 4527:1 4540:1 4730:1 5339:1 5384:2 5515:1 5533:1 5676:1 6221:1 6393:1 6510:1 6571:1 6790:1 7337:1 7415:2 7656:1 7709:1 7715:1 7764:1 8483:1 8585:1 10074:1 10392:1 10568:1 10575:1 10617:1 11002:1 11194:1 11387:3 11778:1 11879:1 11988:1 12570:1 12697:1 13240:1 13300:1 13641:1 13954:1 14625:1 17100:1 17619:1 18681:1 21929:1 22863:1 24068:1 24468:1 24885:1 25277:1 25777:1 30133:1 30401:1 34925:1 37648:1 
0.002894568501380787 1:19 2:1 3:2 4:1 7:1 8:1 15:1 16:1 18:1 31:1 37:2 54:1 55:1 60:2 73:1 77:1 79:1 83:1 91:2 113:1 141:1 156:2 166:1 182:1 191:1 192:1 197:1 199:1 291:6 347:2 348:1 369:2 372:1 414:1 433:1 448:3 597:1 600:1 616:1 622:1 696:1 706:1 735:1 768:2 795:1 813:1 826:3 836:1 863:1 896:1 983:1 993:1 1085:1 1099:2 1115:1 1118:1 1160:1 1208:1 1212:1 1238:1 1249:1 1291:1 1309:1 1349:2 1368:1 1403:1 1410:1 1453:1 1488:1 1504:1 1510:1 1521:1 1612:1 1671:1 1679:1 1707:2 1751:1 1759:1 1792:1 1793:1 1876:1 1901:1 2023:1 2045:1 2085:1 2103:1 2125:1 2181:1 2349:1 2376:1 2379:1 2885:1 2896:1 2908:1 3019:1 3208:1 3348:1 3406:1 3525:3 3562:1 3630:2 3772:1 3961:1 4025:1 4106:1 4188:1 4714:1 4817:1 4875:1 4980:1 5213:1 5435:1 5519:1 5536:2 5738:1 5758:1 5824:1 6131:1 6376:1 6457:1 6523:1 6687:1 6707:1 6763:1 6910:1 7402:3 7693:1 8012:1 8063:1 8303:1 8429:1 8521:1 8531:1 8682:1 8738:1 9302:1 9329:1 9487:1 9512:1 9690:1 9859:1 9938:1 10269:1 10620:13 10661:1 10749:1 11269:1 11406:1 11467:1 11549:1 11559:1 12394:1 12451:1 12799:1 13410:1 13656:2 14522:1 14537:1 14550:1 14873:1 15129:2 15820:1 16378:1 16901:3 17321:1 17478:1 17929:1 18556:1 18619:1 19288:1 19459:1 19658:1 20036:2 21899:1 22079:1 22292:1 22319:1 22425:2 23057:1 23320:1 23529:1 24718:1 25124:1 25693:1 26037:1 26274:1 28029:1 28296:1 29107:1 29933:1 30086:1 32288:1 35098:1 35604:1 35965:1 36780:1 37605:1 38835:1 38909:1 39150:1 
0.001739934219904784 1:19 2:11 3:1 4:1 9:2 14:1 19:1 21:2 23:1 40:1 43:1 50:2 51:1 55:1 66:1 87:1 100:2 103:4 168:1 182:1 186:1 213:2 291:1 304:1 331:1 353:1 358:2 378:1 420:1 440:1 452:1 470:1 476:1 477:1 549:1 606:1 617:1 743:1 772:1 773:1 780:1 785:1 796:1 802:1 830:1 836:2 837:1 916:1 925:2 969:1 993:1 1119:1 1121:1 1206:1 1335:1 1355:1 1367:8 1417:1 1454:1 1473:1 1627:2 1648:4 1701:1 1706:1 1723:1 1812:2 1875:1 1907:1 1912:1 1930:1 2019:1 2025:1 2085:1 2094:1 2346:1 2738:1 2753:2 2793:1 2871:1 3085:1 3327:3 3451:1 3737:1 3989:7 4221:1 4288:1 4786:1 4975:1 5052:1 5054:1 5171:1 5443:1 5653:1 5982:2 6164:1 6678:1 6715:1 6722:1 6914:1 6965:1 7332:1 7524:1 7827:1 8693:1 8749:1 8938:4 9181:1 9263:2 9303:1 9723:1 10339:1 10614:1 10862:1 11253:1 11503:1 12615:1 13528:1 14515:1 15445:1 16390:1 17626:1 18811:1 21547:1 21639:1 24009:1 24164:3 24231:1 25689:1 28560:1 31480:2 33794:1 34041:1 34179:1 34913:1 35895:1 36180:3 37196:1 38929:1 40332:1 41135:1 42209:1 
0.001490015555772103 1:20 2:1 3:1 4:1 5:2 14:1 18:2 19:1 21:1 23:1 30:1 31:1 35:1 37:1 38:1 59:1 66:1 67:1 68:1 70:3 82:1 115:1 169:1 174:1 175:1 183:1 200:2 203:2 255:1 273:1 319:1 326:1 354:1 357:1 359:1 371:1 374:1 424:2 481:2 482:1 490:1 527:1 528:1 535:2 553:4 557:2 597:1 602:1 606:1 625:3 631:3 648:1 689:1 743:1 768:1 784:1 788:1 847:2 869:2 870:1 896:1 913:1 951:1 967:1 978:1 988:1 993:1 1007:2 1052:1 1160:1 1174:1 1186:1 1211:1 1233:1 1307:1 1401:2 1404:1 1531:1 1581:2 1662:1 1664:1 1675:1 1799:1 1836:1 1937:1 1943:1 2025:1 2154:1 2337:1 2393:2 2488:1 2913:1 2959:1 2980:1 3017:1 3119:1 3167:1 3349:1 3397:1 3461:1 3590:1 3603:1 3611:1 3653:1 3774:1 3793:1 3942:1 4048:1 4202:1 4218:7 4417:1 4492:2 4591:2 4679:1 4963:1 5355:1 5674:1 5730:1 5906:4 5909:1 5970:1 6682:1 6687:1 6752:1 6840:1 7289:1 7375:5 7939:1 8002:1 8083:2 8207:3 8230:1 8323:1 8741:1 9439:1 10210:1 10343:1 10500:1 10711:1 10886:2 11284:1 11479:2 11483:1 11783:1 11818:1 11896:1 11990:3 12124:1 12246:1 12865:2 13851:2 15380:1 15423:1 15454:1 16216:1 16519:1 16624:1 16710:5 17549:2 18173:2 20377:1 20434:1 20981:1 21055:1 21485:2 22450:1 23983:1 24109:1 28097:1 28286:1 29801:1 32515:1 33694:1 33957:1 37315:1 39527:3 41433:1 43148:1 
0.002942981042350615 1:13 2:2 3:2 5:3 9:1 19:1 20:1 23:1 26:1 46:1 54:1 71:1 91:2 102:3 113:1 145:1 150:2 153:1 194:1 199:1 235:1 297:1 304:2 308:1 316:2 318:1 324:1 327:1 341:1 347:1 354:1 360:1 374:1 376:1 388:2 409:2 459:1 480:1 500:1 519:1 539:2 551:1 554:4 578:1 582:1 592:1 641:2 681:2 686:2 695:1 722:1 768:1 857:1 878:4 919:1 951:1 974:1 1025:3 1027:2 1033:1 1106:2 1113:1 1160:1 1191:1 1238:1 1263:2 1280:1 1290:1 1304:2 1315:1 1372:1 1421:1 1448:1 1463:1 1510:2 1576:1 1652:1 1670:1 1673:1 1800:1 1881:2 1920:1 1950:1 2025:1 2058:1 2077:2 2228:1 2259:1 2361:1 2389:1 2591:1 2602:1 2812:1 3038:1 3066:1 3253:1 3383:1 3556:1 3663:1 3821:1 3843:1 3871:1 4103:1 4383:1 4427:1 4573:1 4824:2 5090:1 5107:1 5711:1 5823:1 6032:1 6035:1 6039:1 6552:2 6591:1 6987:1 7658:1 8585:1 9012:1 9292:1 10086:1 10497:1 11069:1 11507:1 12600:1 14447:1 15232:2 16739:1 16834:1 19717:1 21549:1 23756:1 23896:1 25916:1 26616:1 27869:1 38174:1 40388:1 41094:2 
4.489772428701859e-005 1:6 14:2 18:2 30:1 31:1 48:3 49:1 57:2 58:1 73:1 100:2 140:1 149:4 179:2 181:1 186:1 199:4 213:3 217:1 243:1 267:1 268:1 271:1 277:1 288:1 324:1 327:1 353:1 370:2 408:1 423:1 441:1 505:1 515:1 521:1 553:1 600:1 602:1 605:1 640:1 643:1 652:1 722:1 793:1 837:2 850:1 868:2 983:1 988:1 989:1 1016:1 1027:1 1035:1 1068:1 1090:1 1136:1 1269:2 1335:1 1368:1 1371:1 1487:2 1570:4 1590:2 1630:2 1650:1 1675:1 1695:1 1701:2 1767:1 1789:2 1805:1 1904:1 1936:1 1937:1 2304:7 2396:1 2488:1 2577:1 2664:1 2814:2 2857:1 2871:2 2938:1 2950:1 3021:2 3102:1 3170:1 3463:1 3603:1 3638:1 3693:1 3794:1 3858:1 4173:1 4175:2 4211:1 4224:1 4540:3 4549:2 4718:2 4855:1 5092:1 5122:1 5160:1 5348:1 5503:1 5531:1 5557:1 5598:1 5705:1 5716:1 5742:1 5793:1 5830:1 5872:1 5950:1 6028:1 6037:1 6165:1 6226:1 6329:1 6538:3 6572:1 6591:1 6622:1 6843:1 7380:1 7539:1 7959:1 8345:1 8598:2 8624:1 9022:1 9958:1 10001:3 10048:1 10244:1 10924:1 11169:1 11658:1 12748:1 12799:1 16712:1 17100:1 17317:1 18686:1 20290:1 21708:1 22991:2 23065:1 23272:1 26420:2 28752:1 28851:1 29086:2 30678:2 30871:1 31248:1 31525:1 33436:1 33742:1 34742:1 36339:3 36746:2 39511:1 41011:1 41662:1 42550:1 42867:1 
0.002182164468397346 1:12 2:1 3:1 4:1 7:1 8:1 10:1 13:1 14:1 19:1 20:1 23:2 32:1 35:2 37:1 66:1 73:1 91:2 100:1 108:1 149:1 175:1 179:1 199:1 201:1 209:1 256:1 267:1 283:1 288:1 297:1 301:1 304:1 348:1 374:1 409:1 434:2 462:1 487:3 516:1 519:1 532:1 553:1 554:2 557:1 565:1 579:1 594:1 617:1 641:1 657:1 684:1 722:1 739:1 827:1 830:1 854:1 878:6 882:1 974:1 1009:1 1016:1 1029:1 1067:1 1083:1 1141:1 1195:1 1232:1 1287:1 1305:1 1402:1 1530:1 1575:1 1668:1 1675:1 1688:1 1763:1 1797:1 1805:1 1812:1 2183:1 2188:1 2235:2 2326:1 2346:1 2810:1 2855:1 2981:1 2999:1 3020:2 3264:1 3345:1 3356:2 3644:1 3669:1 3725:1 3806:1 3982:1 4016:1 4080:1 4103:1 4267:2 4366:1 4418:1 5093:1 5200:1 5441:1 5666:1 5711:1 5823:1 6003:1 6012:1 6419:1 6622:1 7115:1 7365:1 7531:1 8372:1 8485:1 8584:2 9066:1 9260:1 10754:2 10830:1 12312:1 12683:1 12741:1 12924:1 15204:2 16376:1 18844:1 21594:2 23776:1 26343:1 31674:1 39140:1 
0.01074242927719185 1:4 2:3 4:1 11:2 51:1 54:1 58:1 71:1 79:1 87:1 179:1 184:2 252:1 376:1 400:2 403:1 476:1 491:1 502:3 772:1 793:1 836:2 877:1 883:1 1012:1 1238:1 1256:1 1260:1 1290:1 1462:1 1530:1 1801:1 1907:1 2173:1 2285:1 2488:1 2827:1 2857:1 2971:1 3083:1 3127:1 3222:1 3527:1 3562:1 3610:1 3693:1 3713:1 5326:1 6087:1 6128:1 6324:1 6510:1 6561:1 6625:1 6965:2 7054:1 7254:2 7560:1 8063:1 8203:4 9525:1 10996:1 11938:1 13076:1 13392:1 14625:1 17238:1 18175:1 25007:1 26979:1 27067:1 27489:1 27853:1 33580:1 39834:1 42149:1 
0.0003073073172557586 1:6 9:1 30:1 44:2 50:1 96:1 114:1 145:1 149:4 160:1 179:1 195:1 199:1 203:1 204:1 208:1 213:1 218:1 228:1 271:1 277:1 301:1 330:1 358:1 384:2 400:1 436:3 461:3 476:1 502:1 506:2 532:1 551:1 559:1 600:1 651:1 687:1 762:1 807:1 839:2 931:4 940:1 959:1 988:1 1051:2 1080:1 1191:1 1232:1 1271:2 1320:1 1395:2 1482:1 1596:1 1630:1 1639:1 1723:1 1736:1 1750:1 1787:1 1813:1 1967:1 1996:1 2488:1 2566:1 2805:1 2992:3 3001:2 3228:1 3291:1 3405:2 3431:1 3883:1 4137:2 4211:1 4294:1 4527:1 4806:2 5006:1 5083:1 5183:1 5331:1 5608:1 5823:1 6139:1 7025:1 7049:1 8456:1 11349:1 11384:1 11522:1 17038:1 21956:1 22017:1 22624:1 23240:2 23432:1 23825:1 23975:1 26199:1 27228:1 27483:1 29126:1 32945:1 
0.001168412613382536 1:6 2:3 3:2 6:5 12:2 18:1 19:1 20:1 21:2 23:1 40:1 44:3 51:1 58:3 60:1 63:1 65:1 66:1 73:1 81:1 87:1 91:1 93:1 115:2 129:1 149:1 168:1 176:1 179:2 182:2 198:1 213:1 223:1 276:1 280:1 281:1 286:1 291:1 293:1 319:1 332:2 341:1 351:1 377:1 380:1 413:1 417:1 441:1 446:1 452:1 518:1 543:1 544:1 559:1 621:1 668:1 682:1 716:1 719:1 722:1 741:1 762:1 804:1 807:2 847:1 915:1 918:1 919:1 958:1 966:1 979:1 988:1 1011:1 1019:1 1028:1 1030:1 1116:1 1134:2 1136:1 1174:1 1182:2 1183:1 1191:1 1235:1 1500:2 1504:1 1512:1 1554:1 1555:1 1579:1 1611:1 1645:1 1669:1 1673:1 1747:2 1752:1 1767:1 1791:1 1805:2 1936:1 1996:1 2021:1 2059:2 2081:1 2163:1 2235:1 2319:1 2381:1 2386:1 2390:1 2452:1 2789:1 2821:1 2967:1 2996:1 2999:1 3062:1 3083:1 3208:1 3253:1 3276:1 3384:1 3386:1 3707:1 3786:2 3832:1 3853:1 3951:1 4017:1 4026:1 4379:1 4484:1 4533:1 4625:1 4799:1 4838:1 5300:1 5390:1 5418:1 5526:1 5583:1 5616:1 5790:1 5818:1 5872:1 6088:1 6092:1 6131:1 6345:1 6688:1 6799:1 7186:1 7220:1 7595:1 7624:1 8002:1 8429:1 8719:1 9008:2 9067:1 9612:1 10383:1 10893:1 10924:1 11080:1 11499:1 11616:1 11713:1 11782:1 11936:1 11985:1 12007:1 12036:1 12733:1 12789:2 13108:1 13426:1 14064:1 14075:2 14236:1 15051:1 15741:1 16511:1 17290:1 17397:1 17471:1 17861:1 18111:1 18188:1 18763:1 18907:1 18951:1 19034:1 19258:1 19604:1 20028:1 20210:1 21094:1 21859:1 22526:1 24342:1 25331:1 26185:1 26827:1 26877:1 27627:1 28094:1 28157:1 28493:1 28591:1 30147:1 30384:1 30572:1 31233:1 31686:1 31871:1 34506:1 34572:1 35203:1 35630:1 36574:1 36703:2 37852:1 37994:1 39301:1 39788:1 40265:1 40708:1 
0.01063409878827632 1:4 2:3 3:1 4:1 9:2 20:3 24:3 34:1 44:1 149:2 179:1 243:4 296:1 393:1 400:1 479:1 502:3 606:1 643:1 648:1 664:7 713:2 931:1 1008:1 1256:1 1308:1 1504:1 1746:2 1805:1 1812:1 1874:1 1914:1 1938:1 2099:1 2218:1 2292:1 2435:1 2669:1 2791:1 3002:1 3038:3 3337:1 3410:1 3418:1 3747:1 4499:1 4672:1 4679:1 4781:1 4921:1 5365:2 6087:2 6151:1 7059:2 7909:1 8033:2 8706:1 9712:1 11522:1 11548:1 12070:1 12431:1 12988:1 13874:1 14522:1 17738:1 19172:1 20805:1 21832:1 22651:1 22951:1 24633:1 35112:1 38649:1 39649:1 42652:2 
0.0009217360035477794 1:16 2:8 3:1 4:1 7:2 9:1 10:1 11:9 12:2 14:3 15:1 17:1 18:4 21:1 31:3 34:3 38:1 39:1 40:3 44:1 48:1 51:1 54:5 55:1 57:1 58:2 73:1 80:1 92:2 96:1 100:1 102:2 115:1 124:1 131:1 139:1 146:1 148:2 163:2 173:1 179:1 217:1 218:1 225:1 230:1 243:1 267:1 276:2 277:2 281:2 284:1 291:2 299:2 303:1 310:1 315:2 319:1 335:1 343:1 346:1 347:1 351:2 362:3 365:1 413:1 421:1 423:7 446:1 488:1 492:1 498:1 553:1 557:2 561:2 566:2 592:4 613:2 616:1 645:1 650:1 661:1 668:1 676:1 706:2 710:1 717:2 737:1 747:1 779:1 807:1 829:1 843:3 869:1 895:1 913:1 967:1 978:3 986:1 1008:1 1009:1 1010:1 1029:1 1034:1 1074:2 1088:1 1093:1 1109:2 1136:1 1178:2 1193:2 1195:1 1302:1 1340:1 1342:1 1368:2 1388:1 1414:2 1433:1 1443:1 1453:2 1454:1 1473:1 1702:1 1716:1 1719:5 1750:1 1784:1 1787:1 1810:2 1814:1 1843:1 1921:1 2000:1 2023:1 2042:1 2046:2 2070:1 2124:1 2162:1 2223:1 2328:1 2370:1 2398:1 2472:1 2488:1 2498:1 2610:1 2648:1 2762:1 2773:1 2835:2 2883:1 2885:1 2895:1 2953:1 3027:1 3046:3 3215:1 3249:1 3278:1 3384:1 3424:1 3440:1 3462:1 3554:2 3580:1 3756:1 3822:1 3907:1 3952:2 4039:1 4046:1 4163:1 4164:1 4284:1 4513:1 4529:1 4541:1 4955:1 4994:1 5034:1 5101:1 5145:1 5156:2 5258:1 5421:1 5472:1 5501:1 5601:1 5873:1 5880:2 5954:1 6235:1 6375:1 6430:1 6435:1 6457:1 6510:1 6527:1 6587:2 6633:1 6923:1 7100:1 7156:14 7267:1 7375:2 7471:1 7611:1 7627:1 7696:1 7708:1 7735:9 8006:1 8294:1 8336:1 8359:1 8426:1 8650:1 8683:1 8766:2 8859:1 9022:1 9034:1 9083:4 9187:1 9438:1 9536:1 9542:1 9558:1 9892:1 10715:1 10732:1 10820:1 11302:2 11442:2 12024:1 12124:1 12216:3 12329:1 12426:1 12451:3 12979:1 13103:1 13719:1 13986:1 14149:1 14487:1 14824:1 16133:1 16505:1 17047:1 18383:1 18449:1 18681:1 19274:1 20307:1 20415:2 21419:1 21863:1 24002:1 24432:1 24505:4 25196:2 25657:2 26915:1 26978:1 27243:4 27776:1 28591:1 29910:1 30099:1 30172:1 30628:1 30790:1 31074:1 31105:1 33155:1 34140:1 34393:1 35760:1 36581:1 40004:1 40230:1 41693:1 42119:2 42288:1 42985:1 43102:1 
0.001570285281556063 1:5 4:1 14:1 17:1 18:2 19:1 30:1 34:1 36:1 50:1 85:1 114:1 119:2 141:1 146:1 174:1 179:1 213:1 218:1 253:3 268:1 277:1 304:1 341:2 365:1 435:1 470:1 488:9 505:1 579:1 613:1 620:1 766:2 779:2 792:2 958:1 988:1 989:1 1022:1 1028:2 1078:4 1081:1 1088:2 1136:2 1141:1 1153:1 1173:1 1191:3 1195:1 1225:1 1343:1 1346:1 1398:1 1415:1 1426:3 1474:2 1544:1 1630:1 1652:1 1666:2 1675:1 1681:1 1726:1 1805:2 1909:1 1978:1 2006:1 2009:1 2042:1 2049:1 2141:1 2142:1 2227:2 2396:1 2507:1 2557:1 2728:1 2865:1 2938:2 2965:1 3001:1 3233:1 3240:1 3423:1 3755:1 3815:2 4105:1 4218:10 4235:1 4435:1 4645:1 4733:1 4751:1 4802:1 4906:2 4939:1 5514:1 5715:1 5790:2 5819:1 5968:2 6506:1 6848:1 7015:1 7881:1 8054:1 8178:2 8294:3 8506:1 8631:1 8836:1 9489:1 10739:1 10800:1 10914:1 11024:1 11300:1 11306:1 11323:1 11817:2 11853:1 12760:1 12895:1 13597:1 13715:1 13772:1 15103:1 15427:1 16279:1 16741:1 16995:1 17713:1 18065:1 18459:1 21725:1 22060:2 23291:1 26276:1 26672:1 27799:1 28026:2 34566:1 35174:1 36927:1 
0.006071264662947513 1:4 2:1 4:1 28:1 57:1 80:1 87:1 92:1 96:1 146:1 149:2 157:1 179:1 181:1 184:1 253:1 325:1 341:1 465:1 497:1 509:1 510:1 565:1 572:1 638:1 783:1 808:1 1006:1 1068:1 1088:1 1102:1 1109:2 1136:1 1139:1 1190:2 1191:1 1243:1 1529:1 1533:1 1627:1 1652:1 1723:1 1930:1 1934:1 1972:1 1976:1 2055:1 2057:1 2078:1 2404:1 2573:1 2789:1 3106:1 3110:1 3147:1 3349:1 3907:1 4144:2 4378:1 4535:1 4744:1 4875:1 4900:1 4941:1 5085:1 5312:1 5599:1 5872:1 5929:1 6221:1 6847:1 7074:1 7778:1 8119:1 8294:1 8479:1 8741:1 8766:1 9663:1 9727:1 10014:1 10830:1 10946:1 11115:1 11143:1 11454:1 12402:1 14824:6 16033:1 16636:1 18297:1 19375:1 21092:1 24505:1 25323:1 30560:1 30928:1 32984:1 37879:1 39689:1 41600:1 
0.006213381856636316 1:11 2:3 3:1 4:1 5:2 13:1 18:3 47:1 52:1 74:2 115:1 131:1 149:2 186:2 196:2 200:1 202:1 255:1 309:1 353:1 358:1 452:1 458:1 590:1 616:1 749:1 755:1 830:1 837:10 919:1 957:1 966:1 1007:1 1008:1 1110:1 1146:1 1186:1 1192:1 1208:2 1267:5 1417:1 1510:1 1662:1 1932:1 1963:1 2036:1 2174:1 2338:1 2490:1 2596:1 3119:1 3504:1 3741:1 3961:7 4039:1 4714:1 4744:1 4781:1 4941:1 5578:1 5601:1 5818:1 6370:1 6572:2 7497:1 7589:1 8371:1 9208:1 9643:1 9655:1 10123:2 10488:1 10636:1 10904:1 11072:2 11395:1 11884:1 12826:1 15589:1 16159:1 16537:1 16714:1 16803:1 16928:1 20474:1 22569:1 23605:2 24258:1 25095:2 25960:1 28033:1 29778:4 32225:1 33651:1 35163:3 38562:1 
0.0005340705118728894 1:11 2:3 3:2 7:2 9:1 12:1 13:1 19:3 20:2 23:1 26:2 27:1 28:1 30:2 33:1 36:1 39:1 45:1 46:1 55:3 58:1 69:1 80:1 86:2 97:1 101:1 115:2 124:1 135:1 145:1 159:1 169:1 194:1 195:2 197:1 201:1 237:1 250:1 258:1 260:1 277:1 286:1 287:1 288:2 294:1 296:1 297:2 319:1 324:1 341:1 343:1 347:1 361:1 362:1 365:1 400:1 403:1 424:1 425:1 436:1 446:3 457:1 458:1 461:2 466:1 467:1 494:2 499:1 513:1 527:1 563:1 579:4 613:1 621:1 641:1 644:1 675:1 682:1 685:1 687:1 697:1 703:1 710:1 712:1 720:1 722:1 749:1 752:1 774:1 775:1 779:1 787:1 814:1 836:1 849:1 877:1 933:1 951:1 971:1 977:1 1002:1 1033:1 1052:1 1086:2 1102:1 1146:1 1176:1 1182:1 1202:1 1214:1 1217:1 1225:3 1246:1 1334:1 1366:1 1381:2 1427:1 1456:1 1462:1 1481:1 1512:1 1520:1 1582:2 1591:1 1602:1 1641:1 1674:1 1691:1 2009:1 2024:1 2113:1 2123:1 2162:1 2201:1 2232:1 2234:1 2288:1 2299:1 2345:1 2389:1 2390:1 2514:4 2544:1 2581:1 2617:1 2680:1 2692:1 2759:1 2832:1 2965:1 3035:1 3036:1 3105:1 3148:1 3252:2 3254:1 3446:1 3629:2 3742:1 3803:1 4041:1 4138:1 4353:1 4601:1 4642:1 4681:1 4847:1 4887:1 4925:1 4938:1 4998:2 5147:1 5456:1 5458:1 5636:1 5753:1 5905:1 5914:1 6025:1 6203:1 6204:1 6572:1 6712:1 6798:1 6962:1 6964:1 7059:2 7300:1 7348:1 7586:1 7697:1 7717:1 7724:1 7931:1 8057:1 8112:1 8114:1 8296:1 8334:1 8684:1 8929:1 9253:1 9627:1 9682:1 9933:1 10160:1 10226:1 10259:2 10476:1 11337:1 11409:1 11493:1 11912:1 11921:1 12851:1 13166:1 13764:1 13779:1 14423:1 14464:1 14794:1 15408:1 15441:1 15932:1 16153:1 16915:1 17357:1 18022:1 18271:1 18417:1 18423:1 19874:1 19879:1 20268:1 20396:1 21016:1 21140:1 21568:1 21633:1 22216:1 22587:1 22788:1 23296:1 23703:1 24558:1 25000:1 25129:1 25355:1 26547:1 27344:1 29229:1 31566:1 31850:1 32681:1 33358:1 33615:1 37044:1 40696:1 41375:1 
0.0008598148205248359 1:14 2:4 3:1 7:4 9:2 18:1 21:1 24:1 26:1 34:1 44:1 45:1 46:1 47:1 58:1 60:1 70:1 85:1 86:1 95:1 96:1 109:2 115:2 131:1 143:1 223:1 274:1 280:1 288:1 296:1 309:1 343:1 367:1 385:1 414:1 421:1 422:1 437:1 466:1 471:1 481:1 485:1 540:1 551:1 557:2 566:1 572:1 585:1 641:2 682:1 687:1 697:1 710:1 718:1 749:2 787:1 788:1 909:1 916:1 1027:1 1113:2 1182:3 1229:2 1481:1 1487:1 1498:1 1517:1 1554:1 1565:1 1574:1 1601:1 1679:1 1685:1 1693:1 1814:1 1818:1 1821:2 1881:13 1893:1 1964:1 2043:1 2158:1 2162:1 2189:1 2229:1 2474:1 2551:1 2575:1 2663:1 2861:1 2931:1 2958:2 2975:1 2991:1 3061:5 3072:1 3080:1 3261:2 3495:1 3563:1 3565:1 3666:1 3741:1 3937:1 3949:1 3980:1 4037:1 4155:1 4294:2 4318:1 4917:1 5016:1 5153:1 5226:1 5518:1 5684:1 5753:1 5802:1 6223:2 6272:1 6587:1 7167:1 7254:1 7659:1 7766:3 7820:1 7882:1 7991:1 8098:1 8120:1 8251:1 8460:1 8506:2 8758:1 8808:1 8884:1 9429:1 9442:1 9514:1 9940:1 10013:1 10992:1 11220:1 11459:1 11595:1 11618:1 11931:1 11996:1 13032:1 13534:1 13723:1 14114:1 14825:1 14918:1 15838:1 15914:1 16531:1 16731:3 17525:1 17923:1 18423:2 19231:1 20028:1 20103:1 20377:1 20463:1 20465:1 20933:1 21075:1 21570:1 22169:1 23101:1 23535:1 23907:1 25007:1 26832:1 28334:1 30367:1 32990:1 33973:1 34044:1 35245:1 36040:4 37441:1 37708:1 37740:1 39738:1 41654:1 42523:1 42873:1 
0.005592318956599094 1:16 2:2 3:1 6:3 13:1 16:1 19:3 20:1 21:1 29:2 34:3 65:1 69:3 80:1 85:1 86:2 95:1 108:1 110:1 170:1 176:2 200:2 209:1 246:1 252:1 284:1 287:1 293:1 308:1 332:1 385:1 411:1 452:1 458:1 522:1 530:1 539:1 572:1 573:1 587:1 703:1 760:1 764:1 776:1 814:1 856:1 865:1 933:1 1043:2 1111:1 1182:1 1449:1 1461:1 1573:2 1747:2 1770:1 1918:1 2017:1 2359:1 2452:1 2484:1 2517:1 2522:1 2524:1 2670:1 2750:1 2768:1 2880:1 3038:1 3159:1 3198:1 3268:1 3299:1 3316:1 3426:1 3474:2 3515:1 3559:1 3565:1 3615:1 3627:1 3835:1 4025:1 4139:1 4145:1 4680:1 4751:2 4924:1 5089:1 5151:2 5290:1 5522:1 5705:1 5886:1 5942:2 6488:1 6824:1 6867:1 7265:1 7341:12 7730:1 7865:1 8068:1 8165:1 8198:1 8976:1 9039:1 9225:1 9262:1 9539:1 9617:1 9807:1 10329:1 10412:1 10868:1 10932:1 11094:1 11113:1 11360:1 11918:1 12096:1 12508:1 12681:1 13458:1 14079:1 14236:1 15267:1 16163:1 16174:1 16286:1 16466:1 17376:1 17492:1 17714:1 18288:1 18491:1 18711:1 18743:1 18911:1 19474:1 20120:1 21825:1 23276:1 24117:1 24315:1 26200:1 27024:1 27058:1 28650:1 28803:1 28830:1 29116:1 30011:1 31423:1 31552:1 33274:1 33465:1 34068:1 35396:1 35595:1 35775:1 37900:1 39102:1 39824:1 40429:1 40523:1 41583:1 41821:1 43050:1 
0.0009406555288184508 1:19 2:3 3:4 4:1 12:1 19:1 20:1 30:1 51:1 53:2 58:1 68:1 86:1 121:1 135:2 145:1 183:2 205:1 217:1 228:2 268:1 288:1 293:1 297:1 302:1 326:1 375:1 477:1 487:1 492:1 536:1 560:1 566:2 629:1 643:1 684:1 824:1 957:2 1050:1 1084:1 1109:2 1346:2 1367:1 1474:1 1478:1 1524:1 1647:1 1775:1 1799:1 1813:1 1871:1 1930:2 1944:1 1993:1 2055:2 2143:1 2181:1 2219:1 2229:1 2398:1 2411:1 2456:1 2652:1 3110:1 3226:1 3316:1 3456:1 3505:1 3575:1 3599:2 3610:2 3678:2 3725:1 4144:7 4254:1 4398:1 4686:1 4917:2 4927:1 5309:1 5318:1 5719:2 5848:1 6166:1 6298:1 6471:1 6488:1 6589:2 6768:1 6864:1 6897:1 7025:1 7117:1 7310:1 7417:1 7603:1 8429:1 8620:1 8815:1 8967:1 9295:1 9346:1 9366:1 9707:2 10059:1 10938:1 11056:1 11634:1 12152:1 12260:1 12261:1 12544:1 12733:2 12918:1 13076:1 13126:1 13138:1 13242:1 13628:1 14477:1 14494:1 14743:1 15107:1 15228:1 15356:1 15863:1 16975:1 17196:1 18202:2 18440:1 20347:1 20461:1 21197:1 21509:1 24276:2 24988:1 25193:2 25323:2 25829:1 26109:1 26188:1 26203:1 26284:1 26421:10 27354:1 27421:1 28094:1 29884:1 31919:1 34309:10 35132:1 39816:1 42644:1 
0.004556461181434089 1:10 3:1 5:1 20:2 30:1 44:1 52:2 109:2 149:2 179:1 182:1 199:9 221:1 228:1 281:1 436:1 462:1 502:1 606:1 618:1 684:1 687:2 692:1 713:1 792:1 839:1 854:3 909:1 1002:1 1007:1 1052:1 1066:1 1082:1 1153:1 1247:1 1308:4 1309:3 1623:1 1660:1 1669:1 1695:1 1785:4 1907:1 1925:1 2009:1 2253:1 2270:1 2351:1 2542:1 3020:1 3222:1 3801:1 3838:1 3981:1 4080:1 4941:1 4998:1 5612:1 6231:1 7374:1 7771:2 10643:1 11384:1 13206:1 13287:1 15466:1 15598:1 16588:1 17840:1 18640:1 19225:1 28436:1 42412:1 
0.001207964561183612 1:7 2:4 3:5 9:1 12:2 15:1 18:1 19:1 20:1 26:2 30:1 34:1 43:3 45:1 50:2 55:1 59:1 68:1 74:1 77:2 80:1 82:2 88:1 96:1 100:1 101:1 114:1 124:3 145:1 149:4 153:1 154:1 169:1 175:3 182:1 199:3 228:2 230:1 242:1 248:1 267:1 287:2 291:1 317:1 318:1 327:1 343:1 345:2 353:1 355:1 361:1 370:1 385:1 398:2 400:1 420:5 423:1 426:3 453:6 464:1 467:2 492:1 579:1 589:1 616:2 675:2 689:1 690:1 713:1 776:1 792:2 841:1 902:4 925:1 928:2 946:1 979:1 1004:1 1027:1 1044:1 1186:1 1243:1 1288:2 1301:1 1302:1 1337:1 1368:2 1385:1 1613:4 1614:1 1616:2 1644:1 1658:1 1678:1 1709:1 1876:1 1893:1 1933:1 1961:1 2061:1 2079:1 2090:1 2189:1 2198:4 2222:1 2318:1 2357:1 2498:1 2501:1 2556:1 2599:1 2625:1 2670:1 2687:1 2692:1 2703:2 2879:1 2996:1 3019:1 3253:1 3262:1 3265:1 3321:1 3425:1 3489:1 3505:1 3537:1 3544:1 3713:1 3721:1 4016:1 4058:1 4128:1 4193:1 4311:1 4395:2 4421:1 4456:1 4506:2 4555:1 4558:1 4670:1 4714:1 4921:1 5095:1 5152:1 5342:1 5517:1 5630:9 5678:1 5764:1 5899:1 6013:1 6101:1 6492:1 6533:1 6600:1 6733:1 7069:1 7478:1 7692:1 7823:1 8046:1 8070:1 8148:1 8231:1 8535:1 8677:2 8688:1 8740:1 9186:1 10137:1 10938:4 11472:1 12142:1 12471:1 12554:1 13890:1 14182:1 14257:1 14272:1 14375:1 14649:1 15315:1 15370:1 16569:1 16963:1 16987:1 17599:1 17773:1 17939:1 18216:1 18258:1 18639:1 18691:1 18756:1 18828:8 18844:1 19281:1 20246:1 20598:1 21630:1 21785:2 22017:1 22566:1 22746:2 22748:1 22788:1 23476:1 23699:1 24438:1 25153:1 25490:1 25714:1 25717:1 25787:1 25817:1 26045:2 27032:1 28107:1 28134:1 29816:1 31604:1 32389:1 32845:1 35218:1 35591:1 35737:1 36621:1 37374:1 42593:1 
0.00200482875167017 1:11 2:3 3:2 9:1 10:2 14:1 18:1 21:1 22:1 30:2 34:1 36:1 47:2 48:1 50:2 55:2 57:1 59:1 64:2 68:1 71:2 77:2 82:2 95:2 97:1 115:4 116:1 118:3 171:1 195:1 213:1 246:1 253:1 268:1 276:1 280:1 287:1 288:1 302:2 312:1 330:2 363:1 365:1 385:1 388:1 412:1 413:1 425:2 426:1 431:1 433:1 461:3 467:1 481:1 485:1 491:1 498:1 505:1 585:1 592:1 600:1 604:1 612:3 661:1 681:1 693:1 701:1 759:1 784:1 802:1 816:1 868:8 895:1 940:1 989:2 993:2 1040:1 1053:1 1100:1 1116:3 1119:1 1152:1 1169:1 1175:1 1223:1 1263:1 1285:1 1320:2 1350:2 1381:2 1462:1 1500:4 1513:1 1531:4 1542:1 1590:1 1613:1 1769:1 1899:1 1904:1 1966:1 2019:1 2069:1 2199:1 2227:1 2242:1 2281:1 2395:2 2488:1 2628:1 2631:1 2735:1 2799:1 2966:1 3033:1 3047:1 3233:1 3383:1 3400:1 3484:1 3522:1 3571:1 3669:1 3721:1 3731:3 3806:2 3947:1 4037:1 4177:1 4269:1 4321:1 4388:1 4401:1 4416:1 4643:1 4788:1 4809:1 5108:2 5280:1 5388:1 5614:1 5829:1 6160:1 6239:4 6522:1 6654:2 6668:1 6682:1 6752:1 6839:1 6850:1 7022:1 7517:1 7582:1 7591:1 7665:1 7976:1 8033:1 8245:1 8287:1 8315:2 8572:1 8599:4 8754:1 8774:2 8977:1 9031:1 9083:1 9328:1 9439:2 9601:1 9818:1 10143:1 10343:1 10492:1 11478:1 11873:1 12079:1 12146:1 12370:1 12375:1 12386:1 12470:1 12510:1 12527:1 12569:1 13298:1 13362:1 14081:1 14340:1 14479:1 14892:1 14952:1 14978:4 15833:1 16057:1 16511:1 17323:1 17490:1 18610:1 18631:1 18872:1 19441:1 19457:1 20984:1 21019:1 21317:1 21835:2 22451:1 22854:1 22948:1 23821:1 24133:1 24230:1 24473:1 24696:1 25754:1 25845:1 26826:1 26993:1 27043:1 27533:1 28738:1 30672:1 30913:1 30943:1 31548:1 31702:1 31968:1 31977:1 32612:1 32933:1 33200:1 33542:1 33840:1 34230:1 34369:1 35503:1 35578:1 37688:1 40639:1 41286:1 41400:1 41643:1 41860:1 43038:1 
0.0009622990361189632 1:15 2:2 3:7 6:1 8:1 9:2 10:2 13:1 18:5 23:1 30:4 34:4 36:2 44:1 46:1 51:1 53:1 58:1 66:1 70:1 77:2 81:1 97:1 115:3 118:3 135:1 144:1 149:1 169:1 175:1 191:1 209:1 218:1 224:1 304:1 328:1 340:1 343:1 376:1 388:1 409:1 413:1 423:1 424:1 426:1 438:1 482:1 503:1 505:2 507:2 524:1 539:1 545:1 560:1 576:3 585:1 592:1 604:1 612:3 634:1 652:1 670:1 673:1 677:1 697:2 713:1 730:2 752:1 763:1 770:1 792:2 794:1 796:1 865:1 874:2 875:1 883:1 894:1 896:1 909:1 923:2 927:1 966:1 968:1 1040:1 1051:1 1087:1 1165:1 1168:1 1186:2 1201:1 1245:1 1271:1 1283:1 1285:1 1302:1 1320:1 1442:1 1504:2 1522:1 1531:2 1538:1 1602:1 1631:1 1641:1 1666:1 1674:1 1685:1 1708:1 1726:2 1728:1 1756:1 1767:1 1789:1 1797:1 1808:1 1817:1 1822:1 1903:1 1938:1 2036:1 2060:1 2099:2 2162:1 2189:1 2242:1 2250:2 2312:1 2363:1 2382:1 2393:1 2402:1 2456:1 2468:1 2490:1 2507:2 2610:1 2640:1 2645:1 2827:1 2950:1 2995:1 3004:1 3028:2 3136:4 3180:1 3260:1 3262:1 3383:1 3406:1 3434:1 3504:1 3506:1 3519:1 3550:1 3551:1 3556:1 3565:1 3603:1 3605:1 3713:1 3741:1 3801:1 3951:1 4037:1 4117:2 4197:1 4269:1 4274:1 4275:1 4318:1 4484:13 4490:1 4510:1 4621:1 4697:1 4718:1 4779:1 4892:1 4983:1 5081:1 5092:1 5283:1 5327:1 5612:1 5679:1 5686:1 5753:1 5870:2 5905:1 6031:1 6354:2 6628:1 7631:1 7693:1 7785:1 7883:1 7949:1 8180:1 8413:1 8473:1 8501:1 8539:2 8558:1 8610:1 8719:1 8745:1 8877:1 9043:1 9477:2 9598:1 9940:1 10749:1 10755:1 10861:1 10888:1 10953:1 11262:1 11409:1 11426:1 11443:1 11578:1 12329:1 12370:1 12418:1 12459:1 12469:1 12492:1 12666:1 12793:1 12869:1 12913:1 13291:1 13490:1 14301:1 14662:3 14724:1 14907:1 15315:1 16178:1 16187:1 16289:1 16571:1 16627:1 16883:1 16963:1 17041:1 17175:1 17633:1 17644:1 17648:1 17738:1 17815:1 17909:1 18618:1 18744:1 18912:1 19431:1 19441:1 19584:1 19982:1 20069:3 20309:1 20483:1 20729:1 20900:1 20911:1 20987:1 21099:1 21400:1 21773:1 22243:1 22321:1 22788:1 23499:1 23759:4 24662:1 24838:1 25207:1 25437:1 25977:1 26624:1 26660:1 27201:1 27560:1 28237:1 28581:1 29539:1 29763:1 30162:1 30249:1 30579:1 31620:1 31855:1 32153:1 34741:1 34750:1 37379:1 37701:1 42574:1 
0.00045767357044608 1:10 2:4 3:2 10:1 12:2 14:1 18:1 28:1 30:1 34:1 36:1 47:1 48:4 53:1 58:1 70:1 81:1 83:1 87:1 100:1 119:1 135:1 145:1 149:1 173:5 176:1 179:1 181:1 196:1 213:3 250:1 271:1 276:1 304:3 318:1 363:1 438:1 462:2 468:1 488:2 503:1 515:1 532:2 557:1 599:1 616:1 638:3 687:1 775:1 781:1 810:1 829:1 844:1 905:1 931:1 983:1 1027:1 1041:1 1044:1 1051:1 1087:1 1099:1 1116:1 1121:1 1136:1 1229:1 1250:1 1260:1 1368:1 1525:1 1534:1 1612:1 1643:8 1648:1 1652:1 1688:4 1755:1 1785:1 1791:1 1807:3 1925:1 1930:1 1976:1 2235:1 2335:1 2344:2 2380:1 2433:1 2504:1 2633:1 2917:1 3087:1 3204:3 3209:7 3315:1 3327:1 3366:1 3448:1 3498:1 3552:1 3605:1 3653:1 3654:2 3753:1 3754:1 3845:1 3892:1 3893:2 4236:1 4259:1 4347:1 4390:1 4443:1 4535:2 4544:1 4549:2 4572:1 4585:1 4677:1 4809:1 4918:1 4975:1 5077:1 5457:1 5463:1 5501:2 5527:1 5555:1 5747:4 5927:1 6065:1 6373:1 6389:3 6601:1 6804:1 6947:1 6985:1 7025:1 7332:1 7446:1 7532:1 7708:1 7999:1 8094:1 8208:1 8740:1 8938:1 9554:3 10058:1 10269:1 10568:1 11261:1 11317:1 11411:1 11463:1 11573:1 12281:1 12553:1 12624:1 13709:1 14394:1 14491:1 14522:1 14734:1 14804:2 15111:1 15776:1 15809:2 15918:1 16010:1 16963:1 17541:1 17763:1 18429:2 18433:1 19019:1 19442:1 19580:1 20144:1 20785:1 21092:1 21162:1 22366:1 22805:1 22886:1 23865:1 23982:1 25024:1 25287:3 25498:1 25617:1 26220:1 27653:1 29143:1 29337:1 29895:1 29897:1 30478:1 30866:1 32948:1 33207:1 34060:1 37348:2 38436:1 38733:1 38826:1 39266:1 41496:1 41750:1 42066:2 43067:1 
1.372361567800232e-005 1:12 2:4 3:3 4:4 10:2 13:2 14:1 18:2 21:2 30:3 37:1 51:1 55:1 57:1 58:1 73:1 82:4 93:1 116:1 131:1 153:1 169:1 179:1 199:15 224:1 228:3 230:1 266:1 267:1 268:1 281:1 286:1 355:1 357:2 420:2 453:2 488:3 511:2 573:2 615:1 645:2 700:1 713:1 717:1 727:2 735:1 763:1 803:1 841:2 882:1 965:1 973:1 1010:1 1030:1 1051:1 1093:1 1136:1 1139:1 1208:1 1222:1 1245:1 1247:2 1345:1 1356:1 1395:1 1415:2 1484:1 1562:1 1616:1 1627:1 1631:1 1711:1 1751:1 1801:1 1972:1 2046:1 2083:1 2228:1 2358:1 2379:5 2425:1 2429:1 2516:1 2631:1 2732:1 2770:1 2776:1 2833:1 2875:2 2967:1 3107:1 3134:1 4176:1 4193:1 4246:1 4401:1 4450:1 4482:1 4496:1 4718:1 5081:1 5630:1 5719:1 5763:1 6257:1 6492:1 6500:1 6681:1 7277:2 7327:7 7431:1 8096:1 8178:1 8231:1 8282:1 8359:1 8569:1 8570:2 9342:1 9371:1 10150:1 10330:1 10670:1 11284:1 11960:1 12403:1 12542:1 12555:8 12575:1 13859:1 14295:2 14296:1 16160:1 16697:5 16863:1 17451:1 18095:1 18108:1 18964:1 20625:1 21509:1 21824:1 23312:1 23396:1 25165:2 25956:7 26045:1 26435:1 26471:1 26893:1 29013:5 29196:1 29717:1 30977:1 31855:1 35367:1 36004:1 37632:1 39542:1 40274:1 
0.0004519005611406371 1:14 2:3 3:2 4:3 5:7 8:1 13:3 14:1 18:3 23:5 30:1 50:1 51:1 52:2 53:1 54:1 60:1 69:3 70:4 78:1 80:1 81:1 85:2 94:2 119:1 135:1 136:1 137:1 145:1 172:1 176:1 183:2 194:4 198:1 201:1 207:4 213:1 229:1 256:1 263:2 271:1 291:3 300:1 324:1 344:1 354:2 382:2 398:1 406:1 437:1 453:3 454:2 457:2 467:1 474:1 488:1 503:2 504:1 506:1 516:1 554:9 572:2 620:6 658:2 661:1 674:2 675:1 688:1 692:1 707:1 710:1 717:1 720:2 735:1 745:1 820:1 904:1 906:1 917:1 954:1 990:1 1003:1 1024:1 1106:1 1151:1 1196:1 1204:1 1254:1 1256:1 1277:1 1304:3 1305:1 1351:1 1363:1 1381:1 1401:1 1414:3 1470:1 1535:1 1542:1 1562:3 1584:1 1636:1 1652:2 1664:1 1670:2 1712:1 1717:1 1718:1 1787:1 1808:1 1845:2 1852:1 1917:1 1933:1 1934:1 1937:1 1965:1 1991:3 2065:1 2076:1 2177:4 2218:1 2259:2 2323:1 2389:1 2439:1 2456:1 2458:1 2579:1 2605:1 2652:1 2728:1 2862:1 2889:1 2982:1 3030:1 3066:3 3175:1 3253:1 3254:2 3354:1 3406:1 3416:1 3529:1 3635:1 3668:1 3792:1 3826:1 3835:1 3843:1 3914:1 4005:1 4188:1 4267:1 4413:1 4520:1 4724:1 4726:1 4764:1 4824:1 4901:1 4954:1 5022:1 5041:1 5124:3 5136:1 5138:1 5318:1 5334:1 5394:1 5409:1 5489:1 5577:1 5695:1 5724:1 5850:1 6036:1 6352:1 6359:2 6591:1 6711:1 6843:1 6919:1 6974:1 7136:1 7244:1 7265:1 7549:1 7626:1 7883:1 8052:1 8418:1 8504:1 8574:1 8823:1 9003:1 9110:1 9174:1 9562:1 9698:1 10142:1 10146:1 10480:1 11278:1 11445:1 11507:3 11538:1 11558:1 11818:1 12335:1 12852:2 13290:1 13378:1 13547:3 14111:1 14261:5 14512:1 14546:1 14555:1 15225:1 15256:2 15708:3 16128:1 17004:1 17103:1 17287:1 18806:1 19283:3 19521:1 19814:1 19994:1 20381:1 20858:2 21371:1 21594:1 21620:1 22219:1 24388:1 24409:1 25825:1 26197:1 27250:1 28669:1 30327:1 31402:1 31603:1 32580:1 33259:1 33322:2 33452:1 33595:1 36202:1 37514:1 40754:1 
0.001000492649782804 1:18 2:3 3:2 4:1 5:1 9:1 10:1 14:1 18:4 34:1 44:1 45:1 48:1 51:1 55:2 68:2 74:1 80:2 82:2 87:2 125:1 127:1 138:1 168:2 173:2 175:1 196:4 201:1 209:1 228:3 268:1 277:1 319:1 321:1 330:1 334:1 365:1 375:1 407:6 417:1 430:1 442:1 446:1 481:1 488:2 497:1 535:1 557:2 560:1 572:1 587:1 604:1 606:1 628:1 645:1 651:1 662:2 669:2 685:1 766:2 787:3 798:2 827:1 837:2 844:1 870:1 875:1 886:1 933:1 983:1 1007:1 1029:2 1038:1 1113:1 1168:1 1186:2 1207:1 1208:1 1238:1 1245:2 1257:1 1309:1 1325:1 1340:1 1346:3 1417:1 1493:1 1504:1 1621:1 1670:1 1701:1 1811:1 1920:1 1994:1 2007:2 2096:1 2130:1 2141:1 2142:1 2149:1 2154:2 2174:1 2213:1 2312:1 2326:1 2327:1 2331:1 2335:1 2336:1 2350:1 2516:3 2568:1 2583:1 2640:1 2655:1 2671:1 2810:2 2924:1 3070:1 3205:1 3235:1 3316:1 3465:2 3466:1 3560:1 3606:4 4090:2 4210:1 4218:2 4357:2 4378:3 4525:1 4643:1 4787:1 4855:1 4921:1 4938:1 4975:1 5179:2 5228:1 5350:2 5576:1 5713:2 6088:1 6134:2 6164:3 6427:2 6853:1 7002:1 7054:1 7073:3 7408:5 7434:2 7507:1 7529:1 7678:1 7708:2 7865:1 8010:1 8283:5 8405:2 8725:3 9001:1 9419:1 9751:2 10131:1 10210:2 10473:1 10673:1 10687:1 10800:1 11327:1 11406:1 11479:1 11562:1 11572:1 11672:1 12263:1 12450:2 12529:1 12728:1 12730:1 13289:2 14027:1 14228:2 14620:2 14687:3 15901:1 15906:2 16439:1 16457:1 16533:1 16602:1 17010:1 17151:1 17346:1 17859:1 18098:1 18104:1 18111:1 18616:1 18808:1 19271:1 20529:1 21024:1 21907:1 22777:1 23428:1 24683:14 26012:1 26149:1 27494:1 29103:1 30192:1 31037:1 31768:1 33819:1 33912:1 34807:1 35739:1 35773:1 36184:1 36331:1 36412:1 37879:1 38463:1 39026:1 40136:1 40851:1 
0.001056358727882583 1:6 2:3 3:2 4:1 5:2 9:1 13:1 14:1 18:4 21:3 36:1 38:1 40:2 46:1 50:1 55:2 57:1 60:1 64:1 73:2 77:1 95:1 100:5 145:1 146:2 149:3 168:1 173:2 179:1 180:1 213:1 228:1 253:1 268:1 303:1 304:4 307:1 318:1 324:2 326:1 378:2 408:1 426:5 438:1 440:1 476:2 487:2 516:1 540:1 562:2 590:1 592:1 620:1 653:1 670:2 700:1 723:1 744:1 761:1 803:1 826:2 837:3 841:1 847:1 858:1 860:1 869:3 870:2 875:1 886:1 917:1 968:1 983:1 999:1 1006:1 1046:1 1059:1 1064:1 1077:1 1087:1 1088:1 1093:1 1122:1 1141:4 1142:1 1190:6 1208:1 1228:1 1299:1 1302:1 1340:1 1361:1 1371:1 1453:2 1547:1 1612:1 1623:1 1669:1 1670:2 1679:1 1684:1 1810:4 1827:1 1839:2 1904:1 1980:2 2046:1 2065:1 2075:1 2145:1 2188:2 2320:2 2393:1 2469:1 2617:1 2643:1 2672:1 2871:1 2960:1 3245:1 3263:1 3327:1 3498:1 3519:1 3528:1 3668:1 3732:1 3736:1 3874:1 4058:1 4275:1 4496:3 4550:1 4658:1 4855:1 4886:1 5047:1 5111:1 5208:1 5272:1 5292:1 5293:1 5337:1 5540:2 5543:2 5653:1 5676:1 5735:1 5736:1 5774:1 5790:1 5796:1 5865:1 5925:1 6003:2 6135:1 6316:1 6375:1 6500:1 6745:1 7073:1 7307:1 7526:1 7581:1 7685:4 7841:1 8113:1 8168:3 8402:1 8596:1 8635:1 9005:1 9099:1 9103:1 9308:1 9595:1 10105:2 10847:1 11121:1 11200:1 11211:1 11295:1 11659:1 11939:2 12398:2 12428:1 12450:3 12477:1 12585:1 12650:1 13206:1 13523:1 14195:1 14228:1 14707:1 15173:1 15700:1 16568:1 16628:1 17599:2 18717:1 20378:1 21439:4 22678:1 23217:1 23535:1 24686:1 25197:1 25602:1 25708:1 30620:1 30974:1 31436:1 33891:1 33906:1 38021:1 38312:1 38632:1 38718:1 40013:1 40400:1 40667:1 41189:1 
0.0001304487168613807 1:17 2:1 3:1 4:1 5:1 7:3 9:1 10:1 18:1 20:2 26:1 30:2 35:1 37:1 40:2 46:2 53:1 60:1 64:1 69:4 79:1 84:3 86:4 95:1 103:2 109:1 143:2 154:1 160:1 168:1 184:1 186:1 209:1 216:1 217:1 224:1 229:1 251:1 283:2 284:1 287:1 288:3 293:1 297:3 299:1 304:2 309:1 316:1 317:1 347:1 355:1 367:1 377:1 379:1 426:3 435:1 447:1 512:1 516:1 554:2 559:1 560:1 566:1 572:1 589:1 617:1 631:1 672:1 677:1 692:1 698:1 712:1 713:1 731:1 787:2 800:1 810:1 826:1 841:2 854:1 883:5 904:1 953:1 1006:2 1046:1 1053:2 1083:1 1096:1 1115:1 1122:1 1130:2 1146:1 1165:1 1176:1 1188:1 1210:1 1222:1 1285:1 1305:1 1386:1 1433:1 1454:1 1510:1 1534:1 1555:1 1621:1 1635:1 1652:1 1670:1 1678:1 1686:1 1758:1 1765:2 1846:2 1956:2 1961:1 1996:1 2008:2 2024:2 2059:1 2064:1 2070:1 2126:1 2137:1 2162:1 2163:1 2235:2 2249:1 2300:1 2313:1 2339:1 2573:1 2574:1 2595:1 2607:1 2654:1 2866:1 2872:1 2912:1 2940:2 2959:1 3038:2 3060:1 3098:1 3117:1 3234:1 3261:1 3275:1 3469:1 3525:1 3606:3 3828:1 3831:1 3925:1 3999:1 4160:1 4378:2 4601:1 4727:2 4731:1 4873:1 4938:1 5039:1 5173:1 5181:1 5264:1 5286:1 5429:1 5472:1 5514:1 5599:2 5607:1 5892:2 6059:1 6088:1 6099:1 6174:1 6533:1 6580:1 6604:1 6762:1 6780:1 6804:1 7087:1 7089:1 7123:2 7234:1 7245:1 7262:1 7311:1 7330:1 7667:1 7742:1 7864:1 7880:1 7881:1 8029:1 8050:1 8060:1 8385:1 8662:1 8829:1 8985:1 9082:1 9121:1 9235:1 9685:1 9699:1 9866:1 10158:1 10187:1 10210:1 10300:1 10362:1 10610:1 10797:1 10857:1 10930:3 11021:1 11131:1 11239:1 11474:1 11549:1 11800:1 11836:1 12000:1 12508:1 12952:1 12960:1 13242:1 13583:1 15180:1 16569:1 16762:1 16925:1 17840:1 18084:1 18721:1 18890:1 19908:1 20231:1 20471:1 21268:1 21712:1 21862:1 25024:1 25448:1 25787:1 26170:1 26472:1 27023:1 28608:1 28815:1 29771:1 31850:1 31876:1 33422:1 33828:1 34092:1 34117:1 34444:1 34828:1 35152:1 36062:1 36710:1 36723:3 36781:1 37791:1 40652:1 42082:1 42442:1 
0.001372566043663047 1:14 2:1 3:4 6:2 10:1 12:1 13:3 14:1 18:1 19:7 20:1 21:1 37:2 40:1 47:1 58:7 63:1 70:1 89:1 93:1 95:1 100:1 115:3 116:1 139:1 176:4 179:1 196:4 201:1 213:1 218:2 228:1 256:1 288:1 291:1 296:1 319:1 332:4 347:1 370:1 400:1 438:1 457:1 458:2 472:1 474:1 487:1 488:1 501:2 505:1 530:1 534:3 544:2 561:1 562:1 579:3 581:1 622:1 640:1 681:1 703:1 714:1 776:1 792:1 837:1 856:1 868:1 869:1 877:1 923:2 965:1 989:1 1034:1 1068:1 1071:1 1093:1 1116:1 1182:5 1221:1 1239:1 1260:2 1267:6 1299:1 1327:1 1346:1 1424:1 1456:4 1467:1 1517:1 1530:1 1596:1 1611:2 1621:1 1649:2 1662:1 1702:1 1786:1 1993:1 2072:1 2162:1 2174:1 2206:1 2232:1 2290:1 2540:1 2562:1 2768:1 2806:1 2937:1 2972:2 2997:1 3104:1 3260:2 3362:1 3383:1 3397:1 3499:1 3799:1 3851:1 3924:1 3946:1 3961:2 4095:1 4397:1 4595:1 4636:1 4887:1 5096:1 5173:1 5261:1 5293:1 5376:1 5406:1 5441:1 5671:1 5753:1 5776:1 5826:1 5907:1 5968:1 6334:1 7059:1 7126:1 7154:1 7240:1 7277:1 7286:1 7303:1 7315:1 7341:1 7539:1 7785:1 7990:1 8083:1 8206:1 8257:1 8456:2 8557:1 8654:1 8719:1 8918:1 9681:1 10624:1 10874:1 10950:1 11300:2 11349:1 11367:2 11509:1 11724:1 11972:2 12691:1 12863:1 13140:1 13483:1 13519:1 13647:1 13723:5 14128:1 14666:1 15200:1 15638:1 16371:1 16714:1 17467:1 17806:1 18138:2 18487:1 18991:1 19744:1 19862:1 19934:1 20941:1 22823:1 23331:1 23480:1 23737:1 23822:1 24342:1 25574:1 25929:1 26358:1 29393:1 29498:1 31108:1 32317:1 32358:1 32779:1 33069:1 33396:1 33992:1 34370:2 36207:1 36347:1 37272:1 38045:1 40298:2 40576:1 40674:1 42156:1 42392:1 
0.002455558806406999 1:9 2:6 3:6 6:2 19:4 21:1 29:1 30:3 37:1 51:1 53:1 58:1 64:1 68:3 77:2 82:1 85:2 95:4 100:1 135:1 148:1 176:2 191:1 215:1 233:1 259:1 271:1 287:1 288:4 304:1 319:1 332:1 334:1 341:1 396:4 400:1 417:1 452:1 461:1 482:1 490:1 513:1 518:1 575:1 576:1 592:1 604:3 643:1 651:1 697:1 701:1 707:1 748:1 794:1 808:1 934:1 935:1 979:1 987:1 1074:1 1097:1 1157:1 1193:1 1197:1 1223:1 1254:2 1302:1 1429:1 1434:3 1458:1 1500:7 1504:1 1512:2 1565:1 1627:1 1641:9 1645:1 1659:1 1691:1 1726:1 1745:1 1752:2 1756:1 1770:2 1785:1 2180:1 2187:1 2235:1 2302:1 2321:4 2359:2 2449:1 2468:1 2510:2 2522:2 2577:1 2644:1 2712:1 2735:1 2833:1 2888:2 2995:1 2997:1 3034:2 3316:1 3366:1 3425:1 3467:1 3516:2 3584:1 3625:1 3812:1 3883:1 3892:1 3927:1 3954:1 4037:1 4125:1 4274:1 4431:1 4715:1 4900:1 5089:1 5092:1 5108:1 5609:1 5708:1 5830:1 5925:1 5956:1 6004:1 6028:1 6051:1 6118:1 6342:1 6654:2 6720:1 6757:1 6861:1 7080:1 7319:1 7373:1 7990:2 8112:1 8161:1 8206:6 8264:1 8429:1 9329:1 9497:1 9678:1 9822:1 10074:1 10077:1 10482:1 10670:1 10873:1 11237:1 11514:1 11668:1 11801:1 12483:1 12567:1 13817:1 13863:1 13913:1 14114:1 14239:1 14537:1 14594:1 14678:1 14685:1 14708:1 14791:1 15164:1 15377:1 15536:1 15630:1 15764:1 15823:1 15830:1 15952:1 16634:1 16865:1 16979:1 17094:1 17302:1 17547:1 17827:1 17912:1 17965:1 17990:2 18263:1 18367:1 18379:1 19166:1 19391:1 20643:1 20895:1 21543:1 22557:1 22572:1 24087:1 25107:1 25331:1 26085:1 26239:1 26409:1 26620:1 26813:1 26828:1 26838:1 27096:1 27969:1 28484:2 28487:1 28493:1 28875:1 28958:1 29590:1 30285:1 30439:2 31220:1 31689:1 32152:1 33027:1 33081:1 33096:1 33111:1 33910:1 34926:1 35061:1 35218:1 35974:1 36693:1 37725:1 39468:1 39788:1 42357:1 42376:1 42461:2 43158:1 
0.00644462670202103 1:3 2:1 7:1 13:2 18:2 21:1 37:2 45:1 48:1 50:1 73:1 102:3 108:1 139:1 168:1 173:2 175:2 179:1 186:1 213:3 244:1 253:1 304:1 310:1 335:1 343:1 358:1 363:1 426:1 436:2 464:1 532:1 561:1 615:1 631:1 643:1 684:1 708:1 841:2 870:1 1064:2 1119:1 1153:1 1161:1 1321:3 1386:1 1417:1 1484:1 1500:1 1518:1 1530:2 1582:1 1612:1 1630:2 1697:1 1701:1 1789:1 1866:1 1878:1 1920:1 1936:1 1938:1 1951:2 2070:1 2114:1 2336:1 2469:2 2565:1 2625:1 2659:1 3126:1 3765:1 4033:1 4139:1 4141:1 4179:1 4209:1 4288:1 4904:1 4921:1 5401:1 5460:2 5613:1 6222:1 7186:2 7897:1 8202:1 8412:1 8954:1 9601:2 9746:1 10568:1 12793:1 13031:1 13580:3 13900:1 13948:1 14038:1 16022:1 16534:1 16837:2 17008:1 18351:1 19442:1 25027:1 28279:1 30628:1 
