svm_type c_svc
kernel_type linear
nr_class 2
total_sv 1015
rho -0.0225142
label 1 -1
probA -2.837
probB 0.0879137
nr_sv 496 519
SV
0.0139879084075068 3:1 6:2 28:1 38:1 49:3 56:1 188:1 255:1 269:2 289:1 307:1 393:1 609:1 1108:1 1203:1 1272:1 1741:1 2218:1 2253:1 2752:3 2913:1 3304:1 3992:1 4233:1 5215:1 5765:1 9927:1 11065:1 11787:1 18707:1 20765:2 24381:1 26275:1 27284:2 28647:1 
0.01558787249906066 8:1 27:2 41:1 54:1 89:1 265:2 315:1 326:1 482:1 505:1 667:1 709:1 739:2 911:1 1108:1 1202:1 1883:1 2001:1 2579:1 3692:1 4982:1 7455:1 9083:1 10747:1 15000:1 24232:1 25228:4 41121:1 
0.03627967124817369 70:1 78:1 242:1 250:1 421:1 472:1 771:1 911:1 984:1 1073:1 1269:1 1670:1 2703:1 3301:1 7432:1 7958:2 9683:1 10726:1 14758:1 22081:2 33969:1 
0.004438131988958787 4:1 5:1 8:1 17:1 21:1 24:1 59:1 60:2 90:1 114:1 119:3 133:1 144:1 223:2 241:1 242:1 307:1 337:1 371:1 372:1 462:1 603:2 1017:1 1369:2 1442:1 1815:1 2134:3 2957:1 3304:1 3778:1 5972:2 8214:1 9760:1 9810:2 10630:2 10677:1 10878:1 13034:1 15265:1 17897:1 20771:1 25163:1 37004:1 41537:1 
0.0183750522304636 3:1 17:1 24:1 35:1 39:1 70:1 110:1 177:1 326:1 395:1 483:1 624:1 739:1 1269:1 1657:1 1835:1 2553:1 3020:1 3171:1 3745:1 3811:1 6321:1 6489:1 8396:1 8470:1 10452:3 10484:1 12936:1 15323:1 15816:1 16833:2 17149:1 24050:1 24944:1 28799:3 34976:1 42272:1 
0.006923636512557338 2:1 5:2 15:3 19:1 27:1 29:1 35:1 52:2 67:2 81:1 96:1 174:1 220:1 235:1 326:2 354:1 371:1 380:1 389:1 420:2 447:1 455:3 483:1 510:1 565:1 567:1 581:1 626:1 786:2 838:1 861:1 866:1 924:1 1282:1 1381:1 1782:1 2204:1 2519:1 2650:1 2830:1 3055:1 3060:1 3171:1 3213:1 3224:1 3274:2 3417:3 3541:2 3559:1 3811:1 5310:1 6150:1 6282:1 7323:1 8327:1 8470:1 10084:1 10982:1 11954:1 12936:1 17521:1 18037:1 21750:1 34860:1 34960:1 34976:1 37031:1 40918:1 40983:1 
0.005465092490372451 1:2 9:1 11:1 13:2 23:1 25:1 30:1 34:1 36:1 41:1 54:1 78:1 82:1 97:1 102:2 174:2 186:1 194:1 216:1 218:1 235:1 344:1 392:1 444:1 594:1 639:1 791:1 823:1 866:3 1061:1 1117:1 1256:1 1290:1 1562:1 1674:1 1685:1 1805:1 2458:1 2745:1 2938:1 2976:1 3042:1 3614:1 4610:1 4985:1 5785:1 6057:1 6074:1 6186:1 6378:1 8410:1 10726:1 10978:1 12188:1 13032:1 14888:1 19488:1 22669:1 23134:2 31992:1 36899:1 38711:1 39109:1 
0.001676470102984012 1:10 2:3 4:1 7:2 8:1 9:1 14:2 23:2 31:1 32:1 34:2 35:1 46:2 49:1 54:2 59:1 60:1 77:1 97:1 107:1 113:1 117:1 121:1 127:1 131:1 170:1 178:1 185:2 194:2 215:1 220:4 223:1 227:5 251:1 276:1 290:1 303:1 309:1 310:1 316:1 329:2 358:2 359:1 362:1 363:1 367:1 368:1 377:1 414:1 494:1 536:1 547:1 559:1 571:1 577:1 599:1 602:1 661:1 662:1 673:1 682:1 712:1 743:1 826:1 918:1 955:1 972:2 1003:1 1017:1 1029:1 1041:1 1089:1 1145:1 1202:1 1245:1 1277:1 1322:1 1379:1 1430:6 1471:3 1576:1 1727:1 1815:1 2020:3 2158:1 2289:1 2337:1 2423:1 2491:1 2954:1 3027:1 3032:3 3061:1 3067:1 3085:2 3237:2 3264:1 3271:1 3364:1 3409:1 3425:1 3464:1 3529:1 3542:1 3556:1 3563:1 3636:1 3852:1 3929:1 4041:1 4105:1 4178:1 4308:1 4383:1 4498:1 4659:1 4971:1 5162:1 5280:1 5595:1 6045:1 6063:1 6806:1 6879:1 7006:1 7047:1 7142:4 7273:1 7528:1 7605:2 7654:1 7889:1 7896:1 7947:2 8088:1 8119:1 8607:1 8695:1 8805:1 8919:1 9063:1 9110:1 9260:1 9569:1 9690:1 10270:1 10466:1 10487:1 10828:1 11060:1 11142:1 11836:1 11946:2 12135:1 13359:1 14682:1 16254:1 16718:1 17022:1 17834:1 18037:1 18422:2 18423:2 20191:1 21385:1 21825:2 21869:1 23296:1 25376:1 29155:1 29848:1 31222:1 31752:2 33409:2 37954:1 38194:1 38587:1 39112:1 
0.0002138692887558084 1:6 2:1 8:1 10:2 11:1 46:1 60:2 80:1 99:1 121:1 221:3 223:1 246:2 393:1 441:1 468:1 510:1 536:1 565:1 571:1 581:1 588:1 603:2 669:1 849:2 877:1 930:1 1069:1 1113:1 1114:1 1155:4 1195:1 1199:2 1200:1 1243:2 1363:2 1430:1 1558:3 1576:1 1630:1 1824:1 1869:1 1936:1 2000:1 2024:1 2089:2 2219:1 2253:1 2298:1 2411:1 2480:1 2491:2 2581:1 2709:1 2727:1 3128:1 3271:2 3659:3 3926:1 4012:1 4512:1 4532:1 4929:1 5329:1 5396:1 5693:1 5953:1 6207:1 6243:1 6632:1 7865:2 9221:1 9586:1 10121:1 10239:1 12013:1 12383:2 13538:1 16047:2 16388:1 18182:1 19196:1 19380:1 19670:1 20554:2 21172:1 23908:1 24643:1 28241:1 36476:1 38179:1 38216:1 
0.002037473726907876 1:4 2:2 16:1 21:1 22:1 24:1 28:4 57:1 78:1 107:1 136:1 139:1 162:1 167:2 232:1 236:1 242:1 258:1 333:1 339:1 372:1 378:1 408:1 512:1 653:1 773:1 919:1 1083:1 1528:1 1727:1 1838:1 1910:3 1992:1 2211:1 2260:1 2348:1 2754:1 2938:1 3011:1 3038:1 3281:1 3287:1 3698:1 3821:4 3933:1 4172:1 4834:1 5085:1 5851:1 6043:1 6366:1 7469:1 7896:3 8611:1 8662:1 9683:1 10047:1 11410:1 11524:1 12368:1 12672:1 13524:1 17685:1 21281:1 22803:1 28460:1 31353:1 
0.01376554901689481 5:1 17:1 18:1 40:1 52:1 61:2 176:2 219:1 384:1 579:1 630:1 742:1 845:1 1297:1 1303:1 1304:1 2176:2 2463:1 2972:1 3013:1 6598:1 8142:1 10729:1 13553:1 15041:1 15506:1 19283:2 21641:1 21728:1 23427:2 26396:1 31031:1 
0.002289928561245532 1:2 3:1 4:1 5:1 8:1 32:1 42:1 61:1 70:1 99:1 107:1 119:3 125:1 129:1 151:1 162:1 232:1 245:2 275:1 295:1 359:1 403:1 416:1 444:1 445:1 486:1 510:1 518:1 525:2 546:1 773:1 804:1 811:1 845:1 873:1 1011:1 1020:1 1188:2 1528:1 1534:1 1560:5 1574:1 1589:1 1678:1 1950:2 2070:1 2108:1 2127:1 2348:1 2870:1 3128:1 3287:1 3301:2 3529:1 3621:1 3833:1 3891:1 4315:1 4448:1 4519:2 4776:1 5009:1 5075:1 5853:1 6050:2 6115:1 6986:1 7522:1 8388:1 9359:1 9454:1 9781:1 9906:1 10031:1 10600:2 11362:1 11586:1 12759:1 13342:1 13568:1 13780:1 14420:1 15883:1 18239:1 18347:1 19464:1 20052:1 21533:1 26477:1 41951:1 
0.0009813135125697882 1:24 3:2 7:2 19:2 21:2 22:1 30:1 34:1 36:2 55:2 57:1 63:2 67:1 80:1 81:1 82:1 91:2 93:1 113:1 121:1 122:1 145:7 146:1 148:1 166:1 183:1 184:1 204:3 207:3 218:3 245:1 252:1 278:1 284:1 286:5 310:1 316:1 318:2 330:2 334:1 354:1 369:1 370:1 400:1 403:2 407:1 423:1 438:2 441:1 448:2 462:1 475:2 494:1 497:5 507:1 515:1 555:1 562:1 593:2 598:1 599:1 631:1 638:1 661:1 669:1 692:1 694:1 720:1 779:1 783:1 784:1 836:1 974:2 1003:1 1019:1 1039:2 1058:1 1059:1 1068:1 1084:1 1087:1 1093:2 1110:1 1131:2 1133:2 1136:1 1143:1 1238:1 1247:1 1309:1 1324:1 1330:1 1344:1 1436:1 1441:1 1480:1 1502:1 1509:1 1517:1 1538:1 1547:1 1632:1 1668:1 1679:4 1691:1 1702:1 1718:1 1733:1 1746:2 1761:2 1767:2 1776:3 1808:1 1810:1 1819:3 1822:1 1852:1 1907:1 1944:1 1945:1 1957:3 1971:1 2077:1 2144:2 2167:1 2338:1 2361:2 2432:1 2435:2 2471:3 2480:1 2482:1 2486:1 2525:1 2540:1 2549:1 2597:1 2643:1 2680:2 2705:1 2736:1 2834:1 2841:1 2967:1 3031:1 3035:1 3205:1 3208:1 3272:1 3306:1 3316:5 3372:1 3487:1 3685:1 3710:1 3735:1 3787:2 3792:1 3811:1 3888:1 3893:1 3915:1 3963:1 4028:1 4065:1 4100:2 4163:1 4197:1 4215:1 4366:1 4477:1 4489:1 4584:2 4740:1 5001:1 5044:1 5112:1 5156:1 5265:1 5303:1 5309:1 5436:1 5962:1 5992:1 6008:1 6038:1 6103:1 6109:20 6209:1 6420:1 6460:1 6466:2 6999:1 7073:1 7078:1 7320:1 7577:2 7733:1 7892:1 8070:1 8207:3 8300:2 8468:1 8738:1 8792:1 8880:1 8915:1 8922:1 9084:2 9482:2 9714:1 9734:1 10048:1 10092:1 10208:1 10568:1 10770:2 10844:1 10971:1 11545:1 11660:1 11789:2 11897:1 11907:1 11918:1 12152:3 12266:1 12410:1 12638:1 12651:1 12798:1 12950:1 13852:1 14491:1 14809:4 14837:1 14849:1 14872:1 15462:2 15555:1 15623:2 15799:1 16328:1 16377:1 16440:1 17077:1 17269:1 18003:1 18142:1 18247:1 18553:1 18629:1 19895:1 20231:1 20526:1 20907:1 21870:1 21975:1 22102:3 22644:1 23089:2 23449:1 23486:1 25410:1 25521:1 26454:2 26551:1 26686:1 26768:1 26897:1 27760:1 28909:1 29017:1 29172:1 30032:1 30194:1 30479:1 30796:3 30819:1 33898:1 34357:2 34393:1 34779:1 35262:1 35491:1 35581:1 36243:1 36427:1 37610:1 38890:1 39375:1 40118:1 40398:1 40866:1 42018:4 42236:1 42306:2 
0.002046674742361944 6:2 15:1 61:1 229:1 332:1 495:1 528:1 565:1 571:1 750:1 911:2 928:1 1073:1 1118:1 1630:1 1740:1 1896:1 2078:1 2194:1 2246:1 2247:3 4200:1 5159:1 5229:1 6346:1 7297:1 7440:2 11283:5 15053:2 21596:1 23927:1 
0.0009157282214862011 1:3 2:1 3:1 4:1 5:1 8:1 13:2 17:4 26:1 30:1 52:1 53:1 57:1 87:2 89:1 90:1 93:1 103:1 107:2 114:1 120:1 122:1 136:1 174:1 230:1 241:2 245:2 250:1 305:4 329:2 344:1 375:1 399:1 406:1 418:1 433:1 452:1 605:2 614:1 641:2 653:1 655:1 765:1 779:1 791:1 802:1 988:1 998:1 1074:1 1181:7 1195:1 1219:1 1250:1 1382:1 1433:1 1567:1 1591:1 1601:1 1619:1 2013:1 2077:1 2084:1 2091:1 2115:1 2134:2 2431:1 2862:1 2891:1 2938:1 2957:1 3010:1 3012:1 3146:1 3171:1 3172:1 3412:3 4028:1 4041:1 4150:1 4268:1 4345:1 4660:1 4753:2 4867:1 5015:1 5492:1 5539:4 5923:1 5984:1 6061:2 6202:2 6449:1 6496:1 6711:1 6826:1 6875:1 7851:1 7975:1 8370:1 8662:1 8674:1 9311:1 9528:2 9986:3 10682:1 10723:1 11114:1 12273:1 12686:1 13085:1 13442:1 13582:1 13587:1 13792:1 14468:1 14521:1 14851:1 15635:1 18292:1 18715:1 18944:1 20226:1 22524:1 23044:1 23147:1 28226:1 29279:1 29598:1 30997:1 33890:1 36251:2 39004:1 40959:1 41944:1 
0.008883988248440123 1:5 2:2 3:1 4:1 7:2 8:2 10:1 20:1 21:1 22:1 23:1 32:1 44:1 49:2 50:1 52:1 54:2 59:1 61:1 66:1 78:1 86:1 93:1 117:5 121:1 125:1 127:1 129:2 183:1 205:1 214:1 221:2 248:2 257:1 279:1 287:1 291:1 297:1 318:1 321:1 335:1 353:1 362:1 367:1 369:1 372:1 378:2 396:1 400:1 402:1 403:1 414:1 444:2 450:2 498:1 513:1 516:2 534:1 538:1 605:1 611:1 646:2 665:1 695:1 708:1 741:2 764:1 794:1 828:2 838:1 885:1 888:1 966:1 993:1 1030:1 1044:1 1057:1 1103:1 1134:2 1192:1 1198:1 1228:3 1286:1 1319:2 1322:1 1323:1 1325:1 1403:1 1412:3 1467:1 1605:1 1628:1 1657:1 1742:1 1763:1 1797:1 1800:1 1828:1 1844:3 1991:3 1995:1 2145:1 2233:1 2447:1 2474:1 2548:1 2553:1 2642:1 2709:1 2722:1 2798:1 2867:1 2921:1 2922:1 3065:1 3146:1 3261:1 3300:1 3371:1 3438:2 3443:1 3512:1 3531:1 3596:1 3614:1 3659:1 3756:1 3855:2 4064:1 4101:1 4118:1 4280:1 4342:1 4567:1 4827:1 5016:1 5055:1 5064:1 5215:1 5573:1 5638:1 5646:1 5675:1 5943:1 6241:1 6267:2 6516:1 6643:1 6693:1 6719:1 6749:1 6886:1 7519:1 7580:1 9343:2 9386:1 9584:1 10424:1 10530:1 12202:1 12480:1 12526:1 12703:2 13827:1 13861:1 13923:1 14976:1 15103:1 15533:1 15553:1 16104:1 16149:1 17037:1 17169:1 17650:1 18592:1 18669:1 19275:1 19483:1 21482:1 21915:1 21995:1 22970:1 23121:1 23635:1 24864:2 27959:1 28535:1 30113:1 31550:1 36053:1 39728:1 40389:1 
0.001307205570854547 1:4 2:3 3:2 17:3 47:1 54:1 58:1 90:1 346:3 356:1 389:1 430:1 448:4 475:1 547:1 556:1 565:1 582:1 593:1 611:1 632:2 633:2 635:1 637:1 828:1 879:1 886:1 1156:1 1166:1 1195:1 1237:1 1242:2 1254:1 1270:1 1430:2 1585:1 1603:1 1673:1 1707:4 1885:1 1970:1 2078:1 2115:1 2140:1 2196:2 2674:1 3052:1 3261:1 3263:1 3380:1 3573:1 3966:4 4134:1 4225:1 4384:1 4535:2 4705:1 4796:1 5003:5 5016:1 5468:1 6053:1 6539:1 7047:1 7561:1 8115:1 8463:1 9605:1 10557:1 11365:1 12500:1 12617:1 14283:1 17581:1 19669:1 23226:1 25587:2 25819:1 28888:1 30325:1 31354:1 32781:1 33425:1 35051:1 36388:1 
0.01517175085666418 1:1 8:1 11:4 17:1 25:2 38:1 54:2 180:1 186:2 255:1 270:2 315:1 390:1 392:3 432:2 558:1 625:2 709:1 886:1 1082:1 1104:1 1203:1 1313:1 1479:1 1506:1 1535:2 1606:1 1867:1 2246:1 2722:1 2847:1 3680:1 4283:2 4422:1 5223:1 7261:1 12732:1 13130:1 14669:2 15428:2 20490:1 33425:1 37245:1 
0.001996972100040971 1:16 2:2 13:2 14:3 18:8 19:1 21:1 36:2 38:1 46:1 55:4 58:1 63:1 68:1 70:1 81:1 82:1 109:1 115:2 125:1 135:1 146:1 173:1 204:1 228:4 249:1 251:1 267:1 280:1 318:1 329:1 332:1 369:2 377:1 385:2 400:2 420:1 436:1 438:3 442:1 458:1 464:1 473:1 497:3 507:1 586:1 593:1 598:1 616:1 638:2 645:1 661:1 774:1 802:1 812:1 823:1 833:1 836:2 837:1 844:1 870:1 938:1 958:1 972:1 977:1 983:2 1019:1 1035:1 1039:1 1044:1 1050:1 1057:1 1059:1 1064:1 1087:2 1093:3 1109:1 1110:1 1174:2 1175:1 1186:1 1208:1 1229:3 1247:1 1267:1 1270:4 1321:1 1339:1 1353:1 1361:2 1368:2 1392:1 1403:1 1417:2 1437:1 1443:1 1491:1 1509:1 1582:2 1586:1 1602:2 1613:1 1689:1 1709:1 1719:1 1761:1 1776:5 1792:1 1804:1 1807:3 1810:2 1819:4 1822:2 1915:1 1944:1 1951:2 1964:1 1975:1 2021:1 2046:1 2063:1 2156:1 2184:1 2186:1 2187:2 2236:1 2323:1 2338:1 2357:1 2366:1 2402:1 2520:1 2643:1 2652:1 2682:2 2706:1 2711:1 2753:1 2774:1 2818:1 2835:1 2841:1 2880:1 2963:1 2997:1 3095:1 3152:3 3158:1 3159:2 3183:1 3193:1 3235:1 3272:1 3316:2 3469:1 3610:2 3613:6 3769:9 3790:1 3874:1 3950:1 4046:1 4058:1 4109:1 4155:1 4176:1 4215:1 4218:1 4294:1 4323:1 4460:1 4477:1 4841:1 4855:1 4868:1 5031:1 5154:1 5265:1 5430:1 5452:1 5501:2 5713:1 5824:1 5904:1 6010:2 6029:1 6052:1 6109:2 6243:1 6310:1 6329:1 6410:2 6889:1 6943:1 6990:1 7071:1 7141:1 7151:1 7304:1 7359:2 7733:1 7774:1 7789:1 7919:1 7980:1 8094:1 8179:1 8252:1 8334:1 8345:1 8416:1 8629:1 8728:1 8796:1 9084:1 9115:1 9128:1 9175:1 9244:2 9328:1 9615:1 9658:1 9734:1 10437:1 10661:1 10711:1 10732:1 10787:1 11165:1 11690:1 11731:1 11909:1 12152:1 12398:1 12428:1 12729:2 12770:1 12950:1 13198:1 13378:2 13462:1 13628:1 13720:1 14033:1 14190:1 14292:1 14480:3 14484:1 15019:1 15129:1 15439:1 15511:1 15700:1 15772:1 15804:1 16149:1 16226:1 16289:2 16317:1 16440:1 16577:3 16617:1 16845:1 17183:1 17306:1 17486:1 17599:1 17748:1 17763:1 18003:1 18072:1 18735:1 19101:1 20775:1 21026:1 21133:1 22493:1 22624:1 23037:1 23089:1 24257:1 24360:1 24473:1 24706:1 25072:2 25075:1 25410:3 25411:1 25783:1 26273:1 26616:1 26757:1 26831:1 27039:1 27189:1 27761:1 28268:1 28332:1 28498:1 28569:1 28714:1 28905:1 28927:1 29112:1 29197:1 30576:1 30674:1 30796:1 31841:1 32174:1 32180:2 32247:1 34263:1 34412:1 35721:1 36603:2 37194:1 39837:1 39909:1 40817:1 41922:1 42301:1 42637:1 
0.00145800702895667 1:11 2:4 3:3 4:1 8:1 12:2 14:3 17:1 19:1 21:4 22:1 23:1 25:4 44:1 45:1 50:1 51:1 54:2 59:1 60:1 64:1 66:1 70:1 80:1 86:1 87:2 99:2 100:2 114:1 125:1 130:2 156:1 162:1 167:2 170:1 184:1 220:1 223:1 274:1 287:1 290:3 297:1 337:1 348:6 388:1 392:4 397:1 399:1 414:1 424:1 432:3 458:1 477:1 491:1 497:8 514:1 521:1 539:1 552:1 586:1 594:1 796:1 812:2 824:1 849:10 910:1 955:2 967:1 972:1 990:1 1012:2 1021:1 1046:1 1104:1 1123:1 1137:1 1139:1 1150:1 1206:1 1224:1 1232:1 1262:1 1297:1 1352:1 1385:1 1419:1 1511:1 1524:1 1541:2 1558:2 1582:1 1589:1 1632:2 1639:1 1699:2 1720:1 1737:1 1824:2 1831:1 1855:1 1874:1 1907:1 1953:1 1973:1 2025:1 2089:6 2117:1 2158:1 2205:1 2285:1 2389:1 2438:1 2761:1 2769:1 2793:1 2844:1 2853:1 2958:1 3061:4 3109:1 3237:1 3279:1 3316:1 3373:1 3455:1 3484:1 3494:1 3708:1 3770:1 4035:1 4049:1 4170:1 4199:1 4268:1 4283:1 4468:1 4480:1 4635:1 4840:1 4938:2 4947:1 5156:1 5167:1 5174:1 5231:1 5454:1 5511:1 5645:1 5997:1 6261:1 6269:1 6379:1 7308:1 7356:1 7555:5 7643:3 8033:1 8312:1 9161:1 9309:1 10146:1 10485:1 10816:1 10864:1 10879:1 11049:1 11163:1 12201:1 12386:1 12874:1 13114:2 13325:1 13748:1 13833:1 15041:1 15082:1 15237:1 15394:1 15467:1 16609:1 16709:1 17069:1 17205:1 17212:1 17481:3 17866:1 17867:1 18155:1 18785:1 19770:1 20125:1 20574:1 22932:1 23324:1 26024:1 26125:1 28330:1 28340:1 30362:1 32057:1 33409:1 34579:1 35204:1 35327:1 36710:1 39028:1 39146:1 42683:1 42945:1 
0.01163078996110965 1:1 17:1 24:1 102:1 176:1 217:1 305:1 655:1 943:1 1778:1 1971:1 2211:1 2735:1 3698:1 3821:3 5491:1 7092:1 8399:1 10116:2 13008:1 13955:4 14543:1 17570:1 18329:1 18579:1 30031:1 32289:2 36272:1 
0.002301096410955236 1:3 2:3 4:2 5:1 6:1 16:1 20:1 22:1 32:2 34:1 35:1 38:1 61:1 78:1 151:1 156:1 207:1 221:1 307:3 327:1 389:1 397:1 450:1 486:1 548:1 601:2 637:1 741:1 755:1 904:1 926:1 993:1 1010:1 1022:3 1023:1 1030:1 1102:1 1111:1 1118:2 1227:1 1255:1 1323:2 1415:1 1563:1 1723:1 1973:1 2032:1 2065:1 2337:1 2414:1 3250:3 3416:1 3436:1 3495:1 3906:1 4280:2 4413:1 4451:2 4714:1 4866:1 5883:1 6084:1 7381:1 8388:1 9673:5 9952:3 10323:1 10843:1 11714:1 12747:1 13417:1 14183:1 15481:1 16018:1 16739:1 17035:1 18384:1 24947:1 25065:1 32625:1 36653:1 37191:1 39408:1 39479:1 
0.002915693202237387 1:5 3:1 4:2 5:1 17:1 27:2 31:2 37:1 70:1 109:1 191:1 255:2 263:1 264:1 265:1 266:1 289:1 315:1 327:1 357:1 382:1 461:1 462:3 486:2 571:1 808:1 810:2 828:2 895:1 1017:1 1122:1 1228:1 1240:1 1316:1 1545:1 1627:1 1633:1 1693:1 1815:1 2209:1 2243:2 2248:1 2358:1 2553:1 2647:1 3035:1 3057:1 3085:1 3167:1 3301:3 3618:1 3726:1 3759:1 4229:1 4408:2 4442:1 4553:1 4725:1 4762:2 5009:1 5191:2 5534:1 6429:1 6652:1 7274:1 7766:2 7958:1 8090:1 8871:2 9152:1 9310:1 9457:1 9520:1 10083:1 10682:1 12672:1 14980:6 15092:1 15907:1 16286:1 16586:1 16598:1 16763:1 22935:1 38090:1 40341:3 
0.02653080325255907 1:1 3:2 4:1 5:1 35:1 36:1 52:1 58:1 97:1 203:1 307:1 571:2 572:1 618:1 784:1 928:1 2123:1 2457:1 4581:1 5585:1 5818:1 7098:1 8775:2 14426:3 27893:1 
0.01258946092625141 1:21 2:4 3:3 6:2 7:1 8:2 9:1 12:2 15:1 22:2 28:6 30:1 31:1 34:3 39:1 46:1 48:2 53:1 55:1 56:3 59:1 60:1 64:1 73:2 81:1 86:5 88:1 91:1 96:3 101:7 102:4 105:1 109:1 121:1 124:4 130:1 131:1 139:3 146:1 156:3 160:1 175:2 178:1 183:2 188:1 197:7 207:1 223:2 224:1 242:1 243:2 248:1 257:1 267:1 269:3 275:1 278:2 283:1 284:1 287:1 297:2 299:1 309:1 328:5 330:1 333:1 344:1 387:1 414:2 417:1 444:5 450:2 458:1 486:1 491:2 498:1 522:1 538:2 552:1 562:1 594:1 735:1 741:2 796:1 813:1 818:1 941:1 958:4 1046:1 1053:1 1114:1 1161:2 1166:1 1192:1 1245:1 1249:1 1251:1 1329:1 1377:1 1413:2 1439:1 1447:3 1451:2 1466:1 1517:1 1566:1 1656:1 1671:1 1799:1 1800:1 1806:1 1835:1 1840:1 1845:1 1868:1 1982:1 2045:1 2058:1 2079:1 2218:1 2287:1 2315:1 2358:1 2364:1 2402:1 2460:1 2461:1 2500:1 2595:1 2634:1 2658:1 2673:1 2691:1 2776:1 2787:2 2866:1 2877:1 2904:2 2945:1 2974:1 3050:1 3181:1 3200:5 3309:1 3384:1 3385:1 3469:1 3531:1 3533:1 3590:1 3594:1 3671:2 3741:2 3764:1 3970:1 4168:1 4239:2 4250:2 4270:1 4278:1 4301:1 4362:1 4423:1 4441:1 4458:1 4460:1 4494:1 4549:1 4785:1 4827:1 4990:1 5047:1 5169:1 5248:1 5326:1 5417:1 5523:1 5599:1 5635:1 5660:1 5721:1 5781:1 5789:1 5855:1 5940:1 6235:1 6310:2 6689:1 6836:1 6946:1 7127:1 7245:1 7316:1 7600:1 7790:1 7878:1 8125:1 8222:1 8289:2 8326:1 8383:1 8641:1 8693:1 8859:1 8871:1 8873:1 8907:1 8955:1 9124:2 9216:1 9242:1 9349:1 9780:1 9784:1 9901:1 10036:1 10275:2 10318:1 10566:1 10578:1 10756:1 10820:1 10849:1 10878:1 11156:1 11277:2 11374:2 11610:1 11676:1 11696:1 12433:1 12517:1 12689:1 12863:1 12909:1 13941:1 14132:1 14158:1 14570:1 14584:1 14879:1 14997:1 15045:1 15361:1 15688:1 15934:1 16089:1 16110:1 16258:1 16823:1 16962:3 17036:1 17281:1 17626:1 17779:1 17968:1 18317:1 18501:1 18847:1 19151:1 19414:1 19539:1 20216:1 20239:1 21264:1 21747:1 21799:1 22109:1 22868:1 23126:1 23626:1 24200:1 24534:1 25217:1 25556:1 25793:1 26105:1 26456:1 26782:1 27044:1 27172:1 28834:1 29032:1 29899:1 30776:1 32696:1 32737:1 33403:1 33781:1 34040:1 34967:1 36995:1 37172:1 42471:1 
0.003574771844178132 1:3 3:2 12:1 22:1 24:1 49:5 51:1 57:2 70:1 73:1 78:1 85:1 92:1 97:1 99:2 133:1 157:2 219:1 249:1 289:1 299:2 307:1 328:2 362:1 469:2 483:3 778:2 788:1 799:2 851:1 931:2 1144:1 1229:1 1238:1 1258:1 1278:1 1474:1 1696:2 1759:1 2218:2 2752:2 2844:1 2907:1 3026:2 3365:1 3514:1 3621:1 3833:2 3846:1 4343:1 4426:1 4427:1 4500:1 5309:1 5332:1 5744:3 6016:1 6175:3 6560:1 6917:1 7476:1 7603:1 7673:1 8095:2 8312:1 8379:1 9255:1 9749:1 10010:1 10721:1 11089:2 11810:2 12222:2 13544:1 14442:1 15114:1 15400:1 16110:1 17824:1 20048:1 24745:1 29214:1 34123:1 42831:1 
0.006063219338614613 1:1 2:1 5:3 8:1 20:1 23:1 36:1 46:1 60:1 100:1 120:2 135:1 136:1 177:3 180:1 184:1 207:1 218:1 226:1 328:1 372:1 387:1 392:1 432:1 499:1 517:1 572:1 638:1 649:1 696:1 843:1 866:2 889:1 955:1 1046:1 1068:1 1074:1 1109:1 1177:1 1229:1 1296:1 1313:1 1402:1 1415:1 1540:1 1605:1 1768:1 1815:1 2145:1 2147:1 2192:1 2468:1 2533:1 2591:1 2740:1 2994:1 3404:1 3622:1 3767:1 3870:1 4026:1 4283:1 4573:1 4882:1 5031:1 5615:1 5633:1 5691:1 5892:1 6130:1 6174:2 6723:1 7274:1 8051:1 8327:1 12012:1 12491:1 12986:1 15493:1 15644:1 16355:1 16775:1 16997:1 17896:1 19868:1 23316:1 26096:1 27691:2 27834:1 30098:1 35533:1 39848:1 40307:1 
0.004192765551396256 1:4 8:1 9:3 17:1 23:1 53:2 162:1 194:1 198:1 214:1 219:1 226:1 227:2 236:1 255:1 266:1 283:3 292:2 389:1 504:1 511:1 571:1 574:1 866:1 1227:1 1342:1 1426:1 1540:1 1574:1 1716:1 2147:4 2439:1 2530:1 2591:3 2695:2 2782:1 4315:1 6050:1 6435:2 6775:4 7179:1 10430:1 11459:2 12862:1 30176:4 31127:1 
0.01243166890496026 1:4 2:2 3:1 8:3 17:2 32:1 46:1 49:2 60:1 62:6 82:1 84:2 86:1 91:1 96:1 111:5 156:2 162:1 207:1 214:1 217:1 231:1 257:1 289:1 294:1 310:1 326:1 337:1 369:1 372:1 378:2 433:1 441:1 453:1 479:1 491:1 526:1 565:1 566:1 567:1 630:1 662:1 682:1 696:1 884:1 941:1 1017:1 1195:1 1214:2 1255:1 1270:2 1395:1 1467:2 1476:2 1517:1 1566:1 1606:1 1687:1 1701:1 1727:1 2014:3 2206:1 2357:1 2414:1 2441:1 2564:1 2854:1 3124:1 3212:1 3226:1 3312:1 3324:1 3819:1 4112:1 4126:1 4204:1 4620:1 4661:1 4929:1 5576:1 5679:1 5698:1 5735:1 5946:1 6261:1 6302:1 6653:1 6695:1 7011:1 7846:1 8742:1 9185:1 10609:1 10759:1 11488:1 11977:1 12985:1 13003:1 13408:1 15958:1 16051:1 16510:1 17380:1 17382:1 19948:1 23663:1 23931:1 26369:1 27638:1 28708:1 30171:1 39852:1 
0.006174318208878983 1:2 3:2 5:1 8:7 22:2 32:1 90:3 119:1 125:1 144:1 153:1 158:1 164:1 192:1 250:1 260:3 361:1 394:1 403:1 440:1 521:1 572:1 709:1 994:1 1031:1 1049:1 1069:1 1190:1 1227:1 1311:1 1463:4 1525:1 1597:2 1602:1 1647:1 1710:1 1827:1 1984:1 2013:2 2093:1 2211:1 2218:1 2250:1 2501:1 2797:1 2912:1 2925:1 3003:2 3774:1 4494:1 4716:2 5026:1 5032:1 5264:1 5689:1 5818:1 6748:1 6932:1 7411:1 7421:1 7580:1 7837:1 8431:1 8494:2 8834:1 9811:1 10119:1 10580:1 11535:2 11627:1 11951:1 12291:1 12976:1 12987:1 14130:1 17060:2 19118:1 20022:1 21786:1 23074:7 23229:1 25717:1 28226:1 28685:1 29170:1 31981:1 32894:1 35326:1 38289:1 41127:1 
0.00924021437290784 4:1 15:1 22:1 23:1 26:2 66:1 92:1 97:1 130:1 133:1 157:1 202:1 244:1 248:1 365:1 378:1 580:1 792:1 851:1 944:1 1085:2 1638:1 1751:1 1759:1 1882:1 1913:1 2031:1 2163:1 2211:2 2458:1 2558:2 2709:1 3212:1 4800:1 4971:2 6666:1 7281:1 7329:1 7362:1 8960:2 9093:1 9111:1 9638:1 9971:3 10577:1 11668:1 12879:1 14006:1 15742:1 19026:1 21878:1 32637:1 36151:1 37243:1 37992:1 38112:1 
0.003111235904970869 1:6 3:3 32:1 51:1 52:1 61:1 82:1 117:1 119:1 125:1 127:4 147:1 164:2 294:2 307:1 335:1 346:3 364:2 368:2 380:1 393:1 421:1 479:2 513:1 547:1 632:4 659:1 758:1 916:1 1161:3 1331:1 1427:1 1987:1 2205:1 2467:1 2563:1 2600:1 2940:2 3042:1 3053:3 3539:1 3779:1 4230:1 4871:2 5063:1 6271:1 7672:1 7686:1 7753:1 8249:1 8796:1 9928:1 10580:1 10816:1 10982:1 11873:1 12919:1 13179:1 13191:2 14640:1 15734:1 17972:1 18533:1 23005:1 25743:1 28495:1 35606:5 
0.01042781750438087 22:1 23:1 38:1 44:2 57:1 162:1 300:1 372:1 373:1 393:1 414:1 418:1 453:1 666:1 724:1 799:1 1195:1 1203:1 1228:1 1270:1 1280:2 1288:1 1297:1 1727:1 1822:1 1969:1 2777:1 2812:1 3143:1 3151:1 3349:1 5105:1 5921:2 6970:2 9048:1 9538:1 10434:1 11265:2 11516:1 11913:1 14503:1 22216:1 23641:1 24032:1 24045:1 27186:1 38438:1 
0.007322601077398253 1:2 2:1 172:1 174:1 242:1 246:1 262:1 371:2 384:3 593:1 618:1 658:1 911:1 1073:1 1483:1 1560:2 2211:1 3325:1 3523:1 5585:1 7432:1 10224:1 12943:1 33969:1 
0.005585598316985002 1:6 2:3 3:2 16:3 24:3 26:2 35:1 45:3 64:2 77:1 87:1 96:1 113:1 131:1 154:2 172:1 209:1 259:1 282:2 286:1 289:1 293:1 332:3 364:1 379:1 382:1 449:1 469:1 479:4 551:1 574:2 578:1 658:1 671:1 693:1 713:1 740:1 742:1 796:1 843:1 865:1 891:1 912:1 1176:1 1205:2 1208:1 1334:1 1391:1 1644:1 1861:1 1900:1 2003:1 2037:1 2088:1 2144:1 2230:4 2278:1 2351:1 2412:2 2610:1 2614:2 2670:1 2758:1 2787:1 2811:1 3201:1 3276:1 3326:1 3345:1 3595:1 3833:1 3872:1 3923:1 3938:1 4223:1 4554:1 5062:1 5065:1 5326:1 5883:1 6193:1 6234:1 6462:2 6499:1 6593:1 7203:1 7740:1 7786:4 7971:1 7973:1 8352:1 8369:1 8540:1 8622:1 8897:1 8913:1 9068:1 9800:1 10000:1 10745:1 10885:1 11252:1 11670:1 14876:1 15500:1 15516:1 16557:1 16726:1 17540:1 18283:1 18570:1 19359:1 21386:1 24609:1 25268:1 25473:1 25864:1 27983:1 28901:1 28913:1 32865:1 37721:1 
0.006056567108857643 1:4 2:2 3:2 8:1 9:2 57:1 73:1 107:1 136:1 183:1 205:1 220:1 263:1 266:1 291:1 295:1 300:1 368:2 369:3 382:1 453:1 468:1 470:1 471:1 510:2 562:1 594:1 597:1 731:2 801:1 882:1 1057:1 1142:1 1168:1 1255:1 1339:6 1446:1 1497:1 1551:2 1574:1 1662:1 1740:1 1776:1 1819:1 1852:1 1855:2 1885:1 2092:1 2475:1 2514:1 2678:1 3070:1 3928:1 4196:1 4220:1 4445:1 4478:1 4885:1 5185:1 5366:1 5399:2 5446:1 5589:1 6280:1 6368:1 6410:2 6603:1 6837:1 7256:1 7644:2 7822:1 8222:1 8337:1 8371:1 8602:1 9801:1 11374:1 12240:1 12476:1 14008:2 15759:1 20835:1 23505:1 25437:1 25552:1 26437:1 31426:1 
0.005545094701706306 1:6 2:2 5:1 20:1 23:2 24:1 27:3 52:1 58:1 70:2 97:1 121:1 127:1 132:1 142:1 194:2 198:1 209:3 236:1 303:1 373:1 455:2 474:1 608:1 777:1 866:2 917:1 946:1 967:1 1029:1 1050:2 1339:3 1340:1 1392:1 1396:1 1528:1 1545:1 1712:1 1724:4 1749:1 1767:1 1885:1 2113:1 2591:1 2600:1 2782:1 2821:1 2928:1 2975:1 3470:1 3838:1 4117:1 5007:1 5151:1 5818:1 5943:1 6178:1 6320:2 6775:4 6917:1 6969:1 7460:1 8260:1 8353:1 8935:1 9182:1 10196:1 10256:1 10365:1 10733:1 12072:1 12076:1 12459:1 12491:1 12758:1 13304:1 15092:1 16493:1 18295:1 18589:1 18807:1 19207:1 19553:1 19555:1 20250:1 24800:1 30176:1 36037:1 39401:1 41853:1 
0.02476615976292634 5:1 25:2 52:1 59:1 371:1 394:1 434:1 479:1 533:1 626:1 1125:3 1619:1 1981:1 2245:1 2686:1 3108:1 3931:1 4470:1 5408:1 5934:1 7201:1 7236:1 8899:1 11223:1 15592:1 17395:1 34969:1 
0.00261026752110483 15:3 16:1 17:4 44:1 49:2 53:1 73:1 78:2 89:6 90:1 107:13 110:1 129:2 139:2 142:1 167:1 175:2 183:1 232:3 288:1 305:5 310:3 328:1 368:1 411:1 414:1 437:1 460:1 497:1 524:1 537:3 862:1 1083:1 1148:2 1219:1 1240:1 1351:1 1549:2 1820:1 1992:1 2052:1 2122:6 2178:1 2473:1 2955:1 3106:2 3394:2 3585:1 3671:1 3940:2 4721:1 4782:1 5651:1 5751:2 7761:2 8262:1 8792:1 9003:1 10129:1 10559:1 10631:3 10809:1 11597:1 12641:1 13429:9 13523:1 15907:1 16215:1 19951:1 21007:1 22771:1 24911:1 30114:1 32052:1 36271:1 37614:10 37878:1 38653:1 42827:2 
0.01423741055908268 1:2 3:1 5:1 8:1 10:1 47:1 78:1 186:1 219:1 237:1 337:1 350:1 358:1 371:1 378:1 408:1 448:2 626:1 751:1 771:1 779:1 787:1 808:1 860:1 906:1 1043:1 1045:1 1082:1 1217:1 1242:2 1675:1 1707:1 1994:1 2044:2 2067:1 2189:1 2526:1 2685:1 2722:1 2852:1 5176:1 5692:1 6383:1 7239:2 8528:1 8590:1 9197:1 9711:1 12887:1 13461:1 13795:1 15773:1 15993:1 18154:1 22763:1 32411:1 34770:1 
0.004447728651331392 1:1 3:1 5:2 7:1 34:1 78:1 180:1 241:2 310:1 319:1 331:1 393:1 395:1 408:1 622:1 712:1 953:1 1073:2 1195:1 1241:1 1313:1 1444:1 1481:1 1499:5 1585:1 2047:1 2374:1 2714:2 2754:1 2828:1 3507:1 3536:1 3936:1 4153:2 4785:1 5065:1 5408:1 6352:1 7187:1 7345:1 7836:1 9010:1 10196:1 10365:1 10450:1 11976:1 12199:1 13353:1 13870:1 14316:2 17172:1 17860:1 18715:1 20604:1 26856:1 30782:3 32538:1 36707:1 38138:1 
0.01304134581207187 1:4 3:3 4:1 5:2 20:1 22:1 51:1 57:1 61:1 65:1 78:1 95:1 107:1 263:1 266:1 297:1 433:1 463:1 474:4 567:1 580:2 658:1 755:1 761:1 773:1 799:1 862:1 1098:1 1137:1 1316:1 1546:2 1551:1 1619:1 1773:1 2087:1 2222:1 3250:1 3334:1 3373:1 3475:2 3833:1 3900:1 3954:1 4291:1 4461:1 4541:1 4661:1 4866:2 5030:1 5185:1 5206:1 6148:1 6285:2 6598:1 6765:1 6888:1 6893:1 7003:1 7520:1 8006:1 8700:1 9538:1 11774:1 14309:1 18296:1 19611:1 21352:1 23880:1 26066:1 26751:1 29781:1 30648:1 31016:1 33152:1 33209:1 39404:1 40145:1 
0.001653578775171561 1:8 2:3 3:1 9:3 14:1 20:2 21:1 23:2 31:1 33:3 35:1 36:1 55:1 57:1 63:1 66:2 78:2 91:1 93:3 127:1 143:1 158:1 161:1 164:1 166:1 195:1 203:1 209:1 212:1 216:1 245:2 273:1 274:1 281:1 302:1 317:1 347:1 386:1 388:2 406:1 448:3 481:1 514:1 516:1 519:1 533:2 556:1 585:1 692:1 757:1 764:1 765:1 813:1 828:1 908:1 942:1 1002:1 1020:1 1042:1 1061:1 1121:1 1124:1 1146:1 1169:1 1224:1 1242:5 1438:1 1486:1 1537:1 1556:1 1655:1 1745:1 1776:1 1795:1 1863:1 1959:1 2032:1 2102:1 2124:1 2171:1 2383:1 2402:1 2462:1 2480:1 2513:1 2526:1 2630:1 2645:1 2649:1 2680:1 2904:1 2937:1 3023:1 3034:1 3054:1 3159:1 3397:1 3446:1 3625:1 3762:1 4169:1 4199:1 4341:1 4390:1 4398:1 4517:1 4772:1 5188:1 5457:1 5507:1 5581:3 5641:1 5837:1 5995:1 6334:1 6392:1 6784:2 7089:1 7092:1 7146:1 7225:1 7427:1 8000:1 8227:1 8268:1 8665:1 9538:1 9927:2 10677:1 10911:1 10920:1 11021:1 11563:1 12459:1 12672:1 12801:1 13222:1 13414:1 14866:1 15005:1 15210:1 15666:1 16052:1 16260:1 16365:1 16992:1 17839:1 18196:1 18466:1 18520:1 18722:1 19947:1 20139:1 20207:1 21284:1 24422:1 24729:1 24767:1 24934:1 25612:1 26252:1 27834:1 27874:1 28243:1 29214:1 33290:1 41918:1 43253:1 
0.002693488797644608 1:10 2:1 3:3 5:1 6:1 9:1 11:7 12:1 15:1 23:1 28:5 39:1 47:1 49:1 51:1 53:1 54:1 56:4 66:1 71:1 107:1 108:1 120:1 157:2 167:1 174:1 181:1 227:3 276:1 282:1 296:1 313:1 318:1 327:1 339:1 341:1 371:1 393:13 395:1 411:1 416:1 439:1 455:1 479:1 498:1 619:1 635:1 642:1 653:4 700:1 721:1 728:1 734:1 739:1 747:1 755:1 778:4 804:1 845:1 851:1 876:1 886:1 887:4 951:1 1055:2 1058:1 1117:1 1199:1 1293:1 1329:1 1473:1 1506:1 1526:1 1573:1 1576:1 1637:1 1657:1 1693:1 1765:2 1773:2 1861:1 1877:1 1950:1 1988:1 2052:3 2073:1 2122:1 2374:1 2403:2 2408:1 2510:1 2688:1 2793:1 2803:1 2804:1 2811:1 2938:1 3206:1 3259:1 3269:1 3371:1 3492:1 3499:1 3550:2 3564:1 3580:1 3910:1 4097:1 4240:2 4260:1 4345:1 4437:1 4491:1 4777:1 4866:1 4986:1 5391:1 5869:1 6186:1 6407:1 6422:1 6712:1 6763:2 6831:2 7752:1 7772:1 7979:1 8232:1 9506:1 9683:2 9723:1 9921:2 10507:1 10726:1 10829:1 11060:1 11464:1 11757:1 11936:2 12739:1 12765:1 12943:2 13705:1 14014:1 15061:1 15116:1 16022:1 16161:1 16694:1 16781:1 16995:1 17724:4 18192:2 18661:1 19708:1 20057:1 20436:1 21894:1 22975:1 24674:1 27550:1 27688:1 27744:1 27770:2 27835:1 28607:1 30032:1 35051:1 36079:1 36913:1 37284:1 37690:1 41374:1 42744:1 43144:1 
0.01741041018205319 1:2 5:2 17:1 307:1 511:1 571:2 1207:1 2211:1 2951:1 3298:1 5361:1 5724:1 7334:1 11425:1 11784:1 12321:1 32466:1 34538:3 
7.371967773677183e-005 1:5 6:10 7:1 11:2 15:38 23:1 26:1 28:1 39:1 40:12 42:1 54:1 65:2 79:2 88:2 89:88 90:27 96:1 102:2 120:1 180:1 185:1 193:1 194:1 222:1 227:5 232:9 278:1 333:1 338:11 346:36 351:5 371:1 379:1 392:1 395:1 416:9 420:1 443:1 455:1 462:1 465:1 487:1 495:16 525:3 557:1 614:4 626:2 629:1 637:2 666:11 667:1 668:1 678:1 681:1 738:1 815:3 821:1 823:1 852:2 855:1 872:1 886:1 888:1 889:2 892:1 932:5 948:135 1094:1 1105:1 1148:2 1166:1 1167:4 1175:1 1296:1 1338:1 1382:1 1514:1 1535:5 1549:2 1578:4 1608:1 1685:1 1700:1 1820:1 1947:1 1966:1 1992:1 2053:1 2080:7 2119:1 2125:3 2178:2 2311:1 2416:1 2431:5 2444:3 2654:1 2753:1 2785:1 2878:1 2897:2 2906:1 2974:1 3037:1 3094:1 3106:1 3197:2 3259:3 3304:3 3391:1 3468:2 3585:5 3682:1 3694:2 3705:1 3729:1 3748:1 3750:2 3786:2 3862:1 3870:3 3905:1 4000:1 4001:1 4025:6 4084:1 4108:1 4199:1 4225:3 4247:1 4299:1 4377:1 4462:1 4503:3 4568:1 4637:1 4655:1 4681:3 4721:2 4725:1 4773:1 4782:2 4850:2 4969:4 5010:2 5062:1 5259:3 5307:1 5314:1 5423:2 5425:1 5510:1 5695:1 5765:5 5825:1 5844:1 5856:1 5868:1 5875:2 5954:3 5972:1 6034:2 6089:1 6168:1 6299:1 6312:2 6357:1 6365:2 6516:1 6520:1 6568:1 6602:1 6628:1 6737:2 6746:1 6921:1 6950:1 6980:1 7021:1 7036:1 7075:1 7143:1 7171:2 7197:1 7236:1 7284:1 7334:1 7363:1 7372:1 7414:1 7448:3 7486:3 7535:3 7550:3 7701:2 7706:1 7729:2 7731:1 7733:1 7738:3 7901:1 7972:1 8020:1 8074:1 8256:2 8273:3 8356:27 8404:1 8416:1 8428:1 8471:2 8526:2 9060:1 9743:3 10042:1 10202:1 10470:2 10625:1 10683:1 10742:1 10770:1 10926:1 11018:1 11077:1 11661:2 11833:1 11933:3 12418:1 12653:1 12725:1 12760:1 12915:1 13511:2 13562:1 13770:1 13902:1 13904:1 13976:1 14134:1 14334:1 14363:1 14661:1 14894:1 15025:1 15261:16 15523:1 15534:1 15655:1 16066:1 16231:3 16300:1 16398:1 16766:1 16847:1 17270:1 17378:2 17487:1 17827:3 17831:1 17903:2 18164:11 18934:1 19420:2 20483:1 20848:1 21281:1 21467:2 21487:2 21553:1 22258:1 22496:4 22614:1 22974:1 23156:2 24243:1 24794:1 25343:1 25634:1 26449:5 26622:1 26665:1 26935:1 27418:8 27681:1 27854:1 28478:1 28647:4 30304:9 31191:1 33002:1 33300:1 33566:1 33829:1 34830:1 35233:1 36003:1 36288:1 36729:1 37284:1 37950:1 38466:2 38795:5 39333:1 39985:1 41499:6 41571:1 
0.006511458844704458 4:1 5:1 8:1 12:1 32:1 97:1 100:1 113:1 127:1 157:1 200:1 307:1 311:1 329:1 395:1 426:1 521:1 538:1 571:1 696:1 707:1 722:1 723:1 844:1 928:1 1029:1 1063:1 1073:1 1195:1 1492:1 1536:1 1585:1 1782:1 1884:1 1890:1 2163:1 2183:1 2303:1 2667:1 2703:1 2877:1 2907:1 3192:1 3774:1 4250:1 4401:1 6159:2 7035:1 7567:1 8103:1 8656:1 8754:1 9299:1 14187:2 15567:1 16349:1 19094:1 21065:1 22308:1 23834:1 28785:1 33924:1 38518:1 
0.0081111982995849 1:5 3:1 4:1 8:1 15:1 26:1 40:2 57:1 59:1 63:1 65:2 101:1 120:1 151:1 162:1 186:1 227:2 258:1 261:1 395:1 625:1 642:1 734:1 753:1 893:1 921:2 938:1 971:1 993:1 1063:1 1135:1 1216:1 1317:1 1489:1 2202:1 2418:3 2920:1 3032:1 3086:1 3141:1 3171:1 3212:1 3284:1 3304:1 3344:1 3347:2 3509:1 3621:1 3833:2 4235:1 4363:1 4573:1 4705:1 4808:1 5117:1 5446:1 5511:1 6057:1 6486:1 6601:1 6737:1 7183:1 8030:1 8396:1 8843:1 9135:1 10367:1 11497:1 12038:1 12164:2 13246:1 13497:1 13693:1 15502:1 16550:1 20358:1 20854:1 23012:1 24737:1 29613:1 30473:1 40279:1 42831:1 
0.005062954919221903 1:3 2:3 3:1 6:4 8:2 10:1 11:1 16:1 23:1 26:1 31:1 34:2 39:1 45:1 55:2 64:1 66:1 69:1 77:1 82:1 120:2 133:1 137:1 176:1 222:1 227:2 241:2 299:1 301:1 353:1 373:1 374:1 395:1 411:4 455:1 494:1 495:1 518:2 547:1 559:1 709:1 790:1 821:1 861:1 1034:1 1097:1 1102:1 1123:1 1151:1 1206:1 1319:1 1693:1 1858:1 2064:1 2319:1 2337:1 2582:1 2725:1 2749:1 2948:1 2978:1 3143:1 3166:1 3365:1 3557:1 3709:2 4304:1 4808:1 5391:1 5718:1 5744:1 6425:1 7492:1 7870:1 8024:1 8256:1 8267:1 9326:1 10965:1 11043:1 11226:1 11282:1 11523:1 11727:1 12076:1 14976:1 15871:1 16103:1 16680:1 17826:1 18052:1 19647:1 20184:1 20227:2 21593:1 22413:1 22430:1 27301:1 29007:1 31242:1 33918:1 33978:1 36229:1 36321:1 36455:1 37284:1 37958:1 38103:1 42109:1 43041:1 43217:1 
0.002214584955150892 1:13 2:5 3:1 6:2 11:6 12:1 15:4 31:1 39:4 51:1 64:2 65:1 90:4 120:1 131:1 132:3 169:1 178:1 200:1 215:1 227:4 241:3 276:1 293:1 338:1 352:1 368:2 371:1 378:1 411:1 495:1 614:3 626:3 666:1 675:1 737:1 739:3 755:2 764:1 777:1 796:1 886:1 932:1 1025:1 1052:1 1063:1 1079:1 1088:1 1117:1 1151:1 1178:1 1228:1 1265:3 1346:1 1350:1 1412:2 1474:1 1578:1 1583:1 1724:1 1749:1 1765:1 1775:2 1784:1 1851:1 1867:1 1992:1 2053:1 2082:1 2099:1 2184:1 2277:2 2311:2 2444:1 2453:1 2510:2 2530:1 2577:1 2580:1 2697:2 2725:1 2731:2 2749:1 2769:1 2770:1 2787:1 2907:1 2949:1 3135:2 3172:1 3230:1 3304:1 3328:1 3414:1 3509:1 3589:1 3655:1 3695:1 3748:1 3831:1 3838:2 3841:1 3848:1 3904:1 3938:1 4001:1 4023:1 4084:1 4150:1 4279:1 4475:1 4510:1 4520:1 4604:1 4750:1 4793:1 5123:1 5149:1 5190:1 5261:1 5309:1 5314:1 5423:1 5688:1 5725:1 5875:1 5954:1 6245:1 6527:1 6536:1 6629:1 6737:1 6920:1 7036:1 7116:2 7136:2 7159:1 7190:1 7486:1 7494:1 7611:2 7628:1 7721:1 7726:1 7733:1 7976:1 8651:1 8870:1 9238:1 9265:1 9606:1 9921:1 10103:1 10396:2 10439:1 10625:1 10743:1 10802:1 10869:1 11396:1 11661:1 11804:1 12033:1 12422:1 12453:1 12831:1 13264:1 13519:2 13600:1 14949:1 15116:1 16809:1 16955:1 17037:1 17222:1 17831:1 18486:1 18723:2 18747:1 19597:1 19630:1 19999:1 20258:1 20711:1 20819:1 20973:1 21372:1 21795:1 22614:1 22718:1 23050:1 25004:1 26665:2 27127:1 27688:1 27856:1 28499:1 31101:1 31930:1 32338:1 32936:1 33593:1 33964:1 34653:1 35724:1 36421:1 36642:1 38637:1 39757:1 40513:1 41217:1 41253:1 41421:1 41756:1 42285:1 43095:1 
0.0007893742149888395 1:2 2:1 8:3 9:1 10:1 12:1 14:1 20:1 26:2 27:2 31:1 35:1 51:1 59:1 61:2 64:1 67:1 70:1 103:1 109:1 113:1 115:1 134:1 137:2 142:1 144:1 148:1 162:1 170:1 187:1 262:1 263:1 272:1 291:1 296:1 307:1 343:1 354:1 357:1 361:1 376:1 380:1 393:1 394:3 399:1 410:3 478:3 500:1 511:1 513:1 514:2 520:1 551:1 589:1 600:7 634:2 676:1 684:1 690:1 701:1 710:1 763:1 778:1 799:1 831:1 838:1 884:1 888:2 967:1 976:1 977:1 1052:1 1206:1 1228:3 1322:1 1403:1 1432:1 1470:1 1521:2 1530:1 1544:1 1689:1 1699:1 1799:1 1882:1 1899:1 1973:1 2064:1 2110:1 2121:2 2226:1 2260:1 2450:1 2488:1 2721:1 2815:1 2845:2 3029:1 3036:1 3525:1 3577:1 3618:1 3682:1 3811:2 4019:2 4186:1 4274:1 4349:1 4447:1 4505:1 4591:1 4704:1 4735:1 4895:2 5019:1 5026:1 5112:1 5208:1 5347:1 5442:1 5750:1 6203:1 6350:1 6825:1 7140:1 7144:1 7182:2 7272:1 7364:1 8379:1 9505:1 9604:1 9914:1 10594:1 10999:6 12064:1 12539:2 12585:1 12765:1 13055:1 13629:1 13905:1 14549:1 14802:1 14883:1 14958:1 15785:1 15911:1 16373:1 17166:1 17615:1 18335:1 18726:1 18797:1 19284:1 20227:1 21462:2 21826:1 23154:1 24371:1 25471:1 25761:1 26170:1 26968:1 32106:1 33088:1 35933:1 36283:1 39558:1 39835:1 41944:1 
0.003095201450441706 1:10 2:1 3:1 5:2 16:1 17:1 20:1 21:1 32:3 35:1 41:2 42:1 46:1 47:1 48:1 51:1 122:1 146:2 198:1 200:1 204:2 207:1 254:1 266:1 296:1 300:1 305:1 326:1 354:1 368:3 372:1 378:1 380:1 393:1 403:1 434:3 435:1 449:1 493:1 564:2 622:1 692:1 693:1 783:1 786:1 797:1 842:2 877:1 891:1 912:2 943:1 945:1 953:2 1114:1 1195:1 1205:1 1217:1 1255:1 1269:1 1372:1 1461:1 1634:1 1664:1 1670:1 1716:1 1787:1 1803:1 1912:1 1914:1 1970:1 2006:1 2020:1 2091:1 2113:1 2123:1 2124:1 2351:1 2402:1 2432:3 2515:1 2522:1 2590:1 2643:2 2689:1 2695:1 2804:1 2862:1 2900:1 2972:1 3044:2 3298:2 3395:1 3509:1 3594:1 3598:1 4084:1 4153:1 4233:2 4398:1 4462:1 4486:1 4636:1 4660:1 4871:1 4989:1 5124:1 5270:1 5325:1 5462:1 5477:1 5507:1 5532:1 5629:2 5888:1 5951:2 5976:2 6166:1 6170:1 6461:1 6546:1 6798:1 7032:1 7091:1 7518:1 7529:1 7636:1 7693:1 7838:1 8039:1 8240:3 8402:1 8576:1 8713:1 8751:1 8770:1 8832:2 8937:1 8989:1 9869:1 9925:1 9977:1 10610:1 10611:2 10649:2 10920:1 11034:3 11092:1 11746:1 12099:3 12210:1 12282:1 12446:2 12558:1 12643:1 13418:1 14009:1 14546:1 15061:1 15784:1 15971:1 16561:1 17071:1 17498:1 19065:2 19087:2 19721:1 19736:1 21573:2 23954:1 24390:1 24461:1 24733:2 25651:1 27977:1 28699:1 29629:1 30924:1 31012:2 32629:1 38991:1 
0.0001495570243975569 1:4 5:2 8:1 17:1 50:2 63:1 83:1 101:2 177:1 214:2 241:1 371:1 394:1 395:1 609:1 654:1 985:3 996:1 1205:1 1535:1 1540:1 1761:2 1961:2 2053:1 2274:1 2579:1 2714:2 3029:2 3171:3 3209:1 3261:1 3652:1 3795:1 3811:1 3827:3 3995:1 4225:3 4659:1 4914:1 4985:2 5182:1 5349:1 6178:1 6311:1 6783:1 6837:1 7597:1 7887:1 8667:1 9927:1 10818:1 10999:2 11226:1 11347:1 11650:1 12572:1 12769:1 13280:1 14035:1 15972:1 18495:1 23390:1 25725:1 26611:1 27666:1 
0.003829569595003226 1:1 2:1 4:1 5:1 11:1 23:1 24:1 54:1 66:1 80:1 102:4 120:1 121:1 126:1 150:1 249:1 307:1 316:1 327:1 348:1 447:1 868:1 958:1 996:1 1038:1 1312:1 1422:2 1425:2 1541:1 1624:1 1734:2 1841:1 1894:2 1896:1 1909:1 2730:1 3256:1 3330:1 3593:1 3758:1 3811:1 3970:1 3975:1 4192:1 4505:1 4581:1 4982:1 5074:1 5446:1 5754:4 5909:2 6331:1 6833:1 7121:1 7230:1 7527:1 7570:1 7722:1 8132:1 8669:1 8731:1 9580:1 14639:1 15883:1 16443:1 17744:1 18424:1 24882:1 28497:1 36898:1 
0.001187235622065214 1:6 2:4 3:2 5:1 10:2 15:1 35:1 41:1 70:1 78:1 82:1 103:1 108:1 197:1 215:1 219:1 229:1 311:1 329:1 391:9 393:1 453:1 500:1 508:1 548:1 569:1 618:3 628:1 653:1 672:1 684:2 701:1 708:2 722:1 723:1 797:3 817:1 1003:1 1006:1 1029:1 1195:1 1199:1 1231:1 1269:1 1393:1 1471:1 1528:1 1580:1 1630:1 1639:1 1775:1 1805:1 1862:1 1875:1 2056:1 2057:1 2144:1 2250:1 2362:1 2601:1 2614:2 2649:1 2671:1 2689:1 2886:1 2938:1 2957:1 3058:2 3113:2 3174:1 3228:1 3345:1 3372:1 3415:1 4022:2 4089:1 4141:1 4242:1 4342:1 4704:1 4714:1 4950:1 5207:1 5232:1 5299:1 5314:1 5382:2 6192:1 6216:1 6617:1 6873:1 7011:1 7432:1 7530:1 7543:1 7942:1 8345:1 8370:1 9335:1 9800:1 10505:1 10644:2 10688:1 10788:1 11301:1 11458:1 11563:1 13228:2 13272:1 14033:1 15116:1 15741:3 15813:1 20252:1 21407:1 22681:1 22821:6 24202:1 25559:1 25649:1 28323:3 31892:1 31936:1 33315:1 35863:1 43261:1 
0.01886469144345421 1:1 3:1 5:2 32:1 49:1 52:1 67:1 147:1 180:1 326:1 371:1 380:1 533:2 581:1 611:1 619:2 626:4 806:1 842:1 906:1 976:1 995:1 1431:1 1725:2 2268:1 2935:1 3726:1 5491:1 5799:1 6461:1 7321:1 8793:1 9120:1 9163:1 16012:1 17375:1 24080:1 35922:1 40671:1 40792:1 
0.003131400585259069 1:25 2:5 3:3 4:5 6:2 9:1 10:4 11:1 14:3 17:1 18:1 20:2 27:6 34:1 44:1 45:1 48:1 77:1 78:1 120:1 129:1 130:1 137:1 138:3 147:3 154:1 167:1 191:1 201:1 212:1 217:1 224:1 227:1 250:1 251:1 253:1 256:2 258:1 265:1 299:1 301:1 302:1 318:1 333:1 343:1 346:1 355:3 361:1 369:1 382:1 394:4 396:1 441:3 448:1 455:1 471:1 490:1 520:1 543:3 559:1 562:1 575:1 593:1 612:1 632:1 648:1 669:1 676:1 688:1 739:4 783:1 790:1 802:1 817:1 831:4 884:1 893:1 903:1 908:1 924:1 933:1 939:1 966:1 987:1 992:1 995:1 1009:1 1111:2 1118:1 1122:1 1154:1 1168:1 1169:2 1231:1 1238:1 1268:1 1278:1 1293:1 1362:2 1388:1 1396:1 1441:1 1470:1 1503:1 1512:1 1562:1 1672:1 1725:14 1794:2 1834:1 1839:2 1858:1 1861:1 1922:1 1941:1 2054:1 2060:2 2093:1 2108:1 2112:2 2148:1 2194:1 2256:1 2275:1 2313:1 2395:1 2448:1 2489:1 2527:1 2551:1 2664:1 2718:1 2725:1 2736:1 2738:1 2742:1 2857:1 3032:3 3127:1 3149:1 3176:1 3184:1 3228:1 3250:1 3358:1 3364:1 3423:1 3436:1 3446:1 3583:1 3635:1 4004:1 4013:1 4018:1 4019:1 4220:1 4316:1 4444:1 4504:1 4551:1 4578:1 4610:1 4645:1 4762:1 4850:3 4872:1 4910:2 4977:1 4982:1 5191:1 5550:1 5682:1 5744:1 5750:2 5799:1 5830:1 5936:1 6243:1 6253:1 6258:1 6294:1 6296:1 6737:1 6854:1 7101:1 7168:1 7510:1 7659:1 8332:1 8550:1 8915:1 8973:1 8988:1 9051:1 9081:1 9144:1 9362:1 9682:1 9800:1 10040:1 10209:1 10287:2 10478:2 10580:1 11101:1 11316:1 11391:1 11441:1 11694:1 12093:2 12269:1 12277:1 12368:1 13133:1 13819:1 14052:1 14082:1 14199:1 14429:1 14606:1 14800:1 15000:1 15030:1 15070:1 15298:1 15871:1 15881:1 16494:1 16691:1 17075:1 17163:1 17358:1 17814:1 18589:1 18609:1 21335:1 21903:1 22178:1 22310:1 22413:1 23384:1 24548:1 25520:1 25912:1 27207:1 28660:1 29023:1 29735:1 29912:1 30349:2 31037:1 31416:1 31879:1 32159:1 32263:1 32536:1 34151:1 34694:1 36393:1 38611:1 39664:1 40804:1 41242:1 42112:1 43029:1 43064:1 
0.0002642771769942532 1:21 2:7 3:4 6:1 7:2 8:12 10:1 11:1 12:3 13:1 15:1 19:1 20:3 22:2 23:2 24:1 25:1 26:1 27:9 29:1 31:1 32:3 36:1 38:2 41:1 46:1 49:1 50:2 56:1 59:3 60:1 63:1 64:1 66:2 69:1 71:1 78:1 81:1 82:1 88:1 95:1 96:2 107:1 108:1 114:1 116:1 117:1 121:1 125:1 137:3 138:1 143:1 144:1 151:1 167:1 180:1 198:1 205:1 215:1 242:1 251:1 259:1 263:2 264:1 265:1 273:2 307:2 317:3 318:1 327:1 334:1 341:1 346:1 348:1 349:1 355:1 361:1 367:1 378:2 394:1 401:1 406:1 417:1 448:1 500:1 506:1 507:1 510:1 533:2 547:1 566:1 581:1 590:1 619:5 632:1 651:1 657:1 686:1 687:1 688:1 693:1 715:1 739:1 748:1 755:1 766:1 770:1 789:1 796:1 803:1 811:1 819:1 824:1 831:1 837:1 902:1 924:1 968:1 1004:1 1007:1 1029:2 1032:1 1044:1 1059:1 1192:2 1203:1 1207:1 1212:1 1228:1 1236:2 1255:1 1259:1 1288:1 1290:1 1291:1 1294:1 1375:2 1376:1 1403:1 1405:9 1429:1 1436:1 1443:1 1475:1 1477:1 1496:1 1524:1 1532:1 1594:1 1633:1 1640:1 1651:1 1686:1 1699:1 1700:2 1725:15 1742:2 1759:1 1761:1 1764:1 1850:1 1861:1 1906:1 1941:1 1974:1 2013:1 2019:1 2071:1 2112:1 2114:1 2133:1 2159:1 2161:1 2192:1 2213:1 2245:1 2399:1 2424:1 2426:1 2492:1 2515:1 2553:1 2648:1 2661:1 2675:1 2684:1 2731:1 2744:1 2754:1 2859:2 2912:3 2935:3 3113:1 3128:1 3134:1 3141:2 3230:1 3251:1 3375:1 3376:1 3397:1 3414:1 3478:1 3537:1 3546:1 3573:1 3835:1 3911:1 3922:1 4019:2 4046:1 4154:1 4262:1 4616:1 4621:1 4746:1 4866:1 5112:1 5393:1 5491:1 5511:1 5602:1 5744:1 5750:2 5780:1 5799:2 5819:1 5922:2 6151:1 6160:1 6254:1 6388:1 6442:1 6445:2 6601:1 6643:1 6680:1 6884:1 7249:1 7326:1 7389:1 7430:1 7607:1 7661:1 7769:1 7805:1 8079:1 8279:1 8311:1 8391:1 8793:2 8895:1 8930:2 9121:1 9214:1 9336:1 9641:1 9645:1 9676:1 9827:1 9845:1 9997:1 10348:1 10386:1 10396:1 10415:1 10925:1 11075:1 11472:1 11475:1 11637:1 11656:1 11736:1 11820:1 12192:1 12284:1 12428:1 12756:1 13112:1 13195:1 13471:1 14652:1 14812:1 15260:1 15279:1 16457:1 16461:1 16493:1 17175:1 17195:1 17301:1 17481:1 17504:1 17661:1 17669:1 17948:1 17967:1 18796:1 19751:1 19753:1 19881:1 20049:1 20733:1 20956:1 21130:1 22064:1 22461:1 23527:1 23564:1 23789:1 24659:1 24962:1 24998:1 25963:1 26460:1 27054:1 27153:1 30419:1 31012:1 31658:1 32403:1 32438:1 32446:1 33035:1 34313:1 35053:1 35347:1 36935:1 37447:1 37767:1 37891:1 38787:1 40084:1 41921:1 
0.01787967499248792 5:1 11:1 17:1 52:1 78:2 120:1 180:1 262:1 395:1 533:1 619:1 789:1 924:1 1313:1 1431:1 1725:1 2013:1 2553:1 4511:1 5799:1 6573:2 7105:2 7900:1 8291:1 9163:1 9610:1 14099:1 
0.003593981398692959 2:1 3:1 4:1 5:1 6:2 53:1 82:2 90:1 102:1 176:2 177:1 266:1 292:1 341:1 359:1 573:1 637:1 859:1 912:1 921:2 1167:1 1303:1 1545:1 1589:1 1605:1 1754:1 2079:1 2108:1 2532:1 2651:1 3037:1 3311:1 3514:1 4013:1 5548:4 5846:1 7466:1 8879:1 21967:1 26497:2 38810:1 
0.001086329652592911 1:4 3:1 16:1 59:1 235:1 273:1 281:1 299:1 329:1 375:1 380:1 471:1 508:1 511:1 558:1 618:1 627:1 942:1 953:1 994:1 1122:1 1124:2 1191:1 1199:1 1229:1 1272:1 1274:1 1279:1 1360:1 1507:1 1563:2 1698:1 1805:1 2020:1 2113:1 2272:1 2288:1 2506:1 2588:2 2666:1 2716:1 2836:1 2886:1 3264:1 3298:1 3410:1 3646:1 3724:1 4068:1 4179:1 4451:1 4505:1 4568:1 4742:1 4774:1 5093:1 5757:1 5838:1 5949:1 6231:1 6869:1 7140:1 7168:1 7290:1 7561:1 7566:1 8007:1 8051:1 8363:1 10649:1 11038:1 11732:1 11741:2 11746:1 11780:1 15310:1 15592:1 15689:1 17135:1 17784:1 18924:1 18971:1 19778:1 22779:1 25131:1 29339:1 33870:3 41929:1 
0.009659899732920297 1:3 4:2 8:2 26:1 46:3 60:2 62:2 107:1 136:1 143:1 162:1 362:3 369:1 380:2 460:3 565:1 571:2 575:1 745:1 818:1 850:2 911:1 926:1 928:1 1073:3 1108:1 1140:1 1269:1 1312:1 1363:1 1585:1 1630:1 1805:1 1867:1 1967:1 2078:1 2233:1 2253:1 2556:1 2633:2 2798:1 2855:1 2906:1 3019:1 3107:1 3243:1 3318:1 3455:1 3832:1 4168:1 4186:1 4388:1 4669:1 5892:1 5896:1 7440:2 8721:1 9004:1 9047:1 9983:1 10830:1 11773:1 12627:1 12948:1 13800:1 14606:1 16319:1 17637:1 20108:1 23095:1 29901:1 
0.01681139937658268 2:2 4:2 8:1 78:2 86:1 122:1 127:1 136:3 137:1 142:1 143:1 162:3 176:1 299:3 303:1 469:2 473:1 552:2 673:1 799:1 902:1 1195:1 1204:1 1270:1 1424:1 1489:1 1815:1 1885:1 1945:1 2014:1 2912:1 3008:3 3153:1 3184:1 3464:1 3490:2 3523:1 4168:1 4562:1 4674:1 5454:1 5904:1 6135:1 7257:1 8121:1 9232:1 14278:1 16004:1 21127:2 21762:1 26848:1 
0.006135373934951177 1:1 2:1 3:1 10:1 28:2 32:1 49:2 60:2 167:1 193:1 254:2 266:1 290:1 300:1 526:1 658:1 817:1 902:1 999:1 1228:2 1507:1 1634:3 1653:1 1657:1 1670:1 1734:1 1841:1 1894:1 2211:1 3762:1 4340:1 5717:2 6723:1 7977:1 8051:2 8258:1 8502:2 11836:1 12759:1 16391:1 16457:1 18968:1 23747:1 25033:1 28762:1 28870:1 30553:1 32012:1 38882:1 
0.00738255733590191 3:1 27:1 53:1 59:1 96:1 102:1 113:1 118:1 119:1 124:1 177:1 235:1 264:2 326:1 379:1 667:1 866:1 924:1 1160:1 2245:2 2519:1 2687:1 2830:1 3069:1 3269:1 3732:1 4572:1 5670:1 7138:1 7321:1 7772:1 7834:1 7922:1 11499:1 12092:1 12641:1 15236:1 15323:1 26688:1 29194:1 30810:2 31550:1 42370:1 
4.294437753549856e-005 1:5 2:1 8:2 10:2 22:2 53:1 84:1 119:1 120:3 142:1 174:2 180:1 352:1 357:1 379:1 394:1 395:2 565:1 637:1 963:1 1029:1 1073:3 1105:1 1192:1 1214:1 1269:1 1443:1 2123:1 2532:1 2622:1 2661:1 2669:1 2703:1 2831:1 2925:2 3037:1 3215:1 3269:1 3548:1 3618:1 3671:1 3807:1 3833:1 4153:1 4556:1 6884:1 6936:1 7602:1 8026:1 8547:1 9364:1 9498:1 9879:4 11206:1 11420:1 11759:1 12891:1 13346:1 15225:1 18538:1 18941:1 20751:2 21676:1 22946:1 23036:1 24307:1 24682:2 26485:1 26768:3 36522:3 41853:1 
0.0194091760228899 1:2 2:1 3:2 7:1 9:1 11:1 22:1 38:1 63:1 178:1 227:1 317:1 480:1 585:1 813:1 882:1 958:1 1117:1 1794:2 1808:3 1876:1 1940:1 2253:1 2402:1 2531:1 4639:1 5548:1 7350:1 7649:1 7918:1 9983:1 11077:1 11787:1 15532:1 16368:1 17251:1 17304:1 17344:1 17849:1 18580:1 18918:1 26390:1 27080:1 27378:1 29813:1 31908:2 32633:1 37800:1 39107:1 40897:1 
0.004990317672424567 1:4 2:5 3:7 4:1 7:6 8:2 10:2 14:1 17:1 20:1 25:2 30:1 32:1 35:1 38:1 43:3 50:1 51:2 63:2 73:1 80:1 93:2 99:2 104:3 112:2 113:1 153:1 155:2 158:1 159:2 178:4 190:3 206:3 210:1 220:2 235:1 245:1 247:2 259:1 262:1 274:1 278:1 282:1 290:1 291:2 301:1 318:1 322:2 331:1 339:1 344:1 403:1 405:2 472:1 483:1 503:1 511:1 513:2 518:1 521:1 529:6 532:1 541:1 552:1 560:1 581:1 596:2 610:1 633:2 673:1 683:1 729:1 765:1 800:2 811:2 824:2 891:1 977:1 986:1 1057:1 1082:1 1085:1 1159:1 1184:1 1216:1 1239:1 1264:1 1276:1 1356:1 1357:1 1399:1 1406:1 1407:1 1410:1 1429:1 1480:1 1587:1 1611:1 1655:2 1661:1 1671:1 1800:1 1822:1 1939:1 1983:1 1994:2 2035:2 2224:1 2337:1 2455:1 2518:1 2531:1 2535:1 2604:1 2620:1 2753:11 2912:1 2990:1 3143:1 3235:1 3258:1 3303:1 3342:1 3435:1 3639:1 3856:1 3973:1 4051:1 4160:2 4170:1 4247:1 4334:1 4581:1 4687:1 4835:1 4982:1 5049:1 5146:1 5155:1 5616:1 5888:1 5913:2 6143:1 6201:1 6423:2 6504:1 6607:1 7273:1 7407:1 7580:1 8182:1 8218:1 8318:1 8325:5 8367:1 8546:1 8563:1 8763:1 8939:3 8965:1 9063:1 9161:1 9403:1 9533:1 9596:1 9751:1 9949:1 10253:1 11667:1 11781:1 11837:1 11859:1 11988:1 12085:1 12256:1 12510:1 12511:1 12673:1 12902:1 14098:1 14971:1 15270:1 16300:1 16699:1 16984:1 18375:7 19017:1 20082:1 21222:3 21415:2 24724:1 25173:1 25312:1 25962:6 26093:1 26747:1 29432:1 31510:2 31943:1 33128:1 35813:1 37217:1 37750:5 40710:1 40994:1 41190:1 42870:1 
0.004072338689076433 1:5 2:4 3:3 6:1 14:1 21:1 22:2 25:10 26:1 32:1 34:1 35:1 46:2 50:1 54:1 55:1 64:1 77:2 100:1 103:1 114:1 132:1 143:1 151:1 164:1 175:1 183:1 195:1 203:1 207:1 208:1 221:1 248:1 275:1 282:1 311:1 318:1 348:2 392:2 432:3 453:1 456:1 484:1 494:1 511:1 526:1 581:1 633:1 636:1 640:1 650:1 675:1 688:1 690:1 693:1 718:1 729:1 737:1 755:1 765:2 788:1 804:1 895:1 903:1 921:9 943:1 982:1 1019:1 1025:1 1084:1 1098:1 1117:1 1128:1 1153:1 1201:1 1240:2 1342:1 1356:1 1372:1 1373:5 1458:1 1459:2 1489:1 1521:1 1574:1 1577:1 1699:2 1788:2 1795:1 1798:1 1838:1 1850:1 1886:1 1903:1 1914:1 1959:1 2007:1 2015:1 2067:1 2093:1 2124:1 2205:1 2215:1 2236:1 2425:1 2549:1 2668:1 2853:1 2863:2 2934:1 2954:2 2981:1 2987:1 2995:1 3014:1 3109:1 3132:1 3206:1 3237:1 3324:2 3344:1 3362:1 3405:1 3758:1 3796:1 3929:1 4014:1 4015:1 4047:2 4115:1 4316:1 4319:1 4405:1 4418:1 4451:1 4620:2 4635:1 4823:1 4835:2 4884:1 4929:1 5075:1 5167:1 5231:2 5251:1 5366:1 5412:2 5450:2 5484:1 5596:1 5634:1 5706:1 5814:1 5977:2 5994:1 6376:1 6379:2 6493:1 6637:1 7147:1 7173:1 7272:2 7614:1 7774:1 8076:1 8106:1 8145:2 8207:1 8271:1 8425:2 8592:1 8708:1 9062:1 9280:1 9645:1 9650:1 10060:1 10146:1 10182:1 10882:1 10904:1 10938:1 11328:1 11477:7 11916:1 11963:1 11988:1 12063:1 12347:1 12432:1 12554:1 12605:1 13198:1 13378:1 13963:1 14152:1 14258:2 14346:1 14715:1 14864:1 15585:1 15760:1 17117:1 17557:1 17565:1 17813:1 19517:1 20338:1 20744:1 20940:1 21123:1 21185:1 21739:1 21892:1 21961:1 24822:1 25052:1 26033:1 26207:1 26924:1 27168:1 27600:2 30394:2 31338:1 31429:1 33409:1 34335:2 36036:1 36122:1 36164:1 36542:4 36995:1 37528:1 38575:1 40904:1 40922:1 
0.004157841609042014 1:2 2:1 3:4 6:1 8:1 14:1 22:2 116:1 144:1 215:1 237:1 254:1 269:2 484:2 581:1 812:3 969:1 983:1 996:1 999:1 1031:1 1102:1 1144:1 1280:1 1441:1 1448:1 1466:1 1482:1 2022:2 2112:1 2173:1 2291:1 2532:1 2684:1 2820:1 2830:3 2885:1 2928:1 3055:1 3218:1 3267:1 3300:1 3364:2 3459:1 3545:1 3587:1 3670:1 3811:1 4307:1 4355:1 4525:1 4653:2 4783:1 4890:1 4964:1 5013:1 5274:1 5534:1 5736:1 5846:1 6149:1 6289:1 6413:1 6590:1 6773:1 7213:1 7921:1 8314:1 9395:1 9969:1 11255:1 11462:1 12092:1 12815:1 12875:1 13060:1 13677:1 15265:1 18305:1 19054:1 19610:1 20285:1 22306:1 23662:1 30315:1 36308:1 39997:1 
0.0009285588235546078 1:6 3:3 4:1 5:2 8:2 9:2 17:1 20:1 31:2 34:1 47:1 48:1 51:1 53:1 60:1 62:3 80:2 145:1 149:1 156:1 166:1 177:5 179:1 203:1 207:5 226:1 267:1 283:1 286:2 292:2 317:1 353:1 357:1 372:1 374:1 402:1 454:1 508:1 510:1 517:1 536:1 605:1 843:2 863:1 866:1 891:1 955:4 1046:1 1050:2 1135:1 1295:2 1411:1 1540:4 1635:1 1679:2 1698:1 1801:1 1805:1 1812:1 1847:1 2085:1 2096:1 2211:2 2361:1 2591:1 2637:6 2711:1 2855:1 3038:1 3290:1 3477:3 3857:1 4026:1 4276:3 4532:3 4534:1 4782:2 5241:1 5600:1 5633:1 5719:1 6090:1 6151:2 6400:1 7211:1 7750:1 7854:1 7960:1 7997:1 8031:1 8110:1 8312:1 8840:1 10136:1 10144:1 10341:1 10610:1 11395:1 11407:1 11445:1 11889:2 12986:1 15645:1 16319:1 16355:1 16468:1 16739:2 17979:1 18144:1 23316:1 23450:1 26358:1 29342:1 30102:1 32296:1 34129:2 40686:1 43031:1 
0.01524753296399301 1:1 2:1 5:1 9:1 17:1 35:1 58:1 203:1 352:1 371:1 401:1 421:1 434:2 571:2 911:1 1073:1 2457:1 3020:1 3174:1 3269:1 3594:1 5451:1 7334:1 7443:2 8260:1 9562:1 11106:1 11289:1 34538:2 
0.004853015917213521 1:3 2:2 3:1 8:2 14:1 17:2 22:1 53:1 78:1 96:1 107:1 111:1 125:2 262:3 282:1 305:1 328:1 364:3 399:1 432:1 466:1 478:2 516:1 547:1 581:1 951:1 986:1 1122:4 1125:1 1189:1 1422:1 1657:1 2000:1 2277:1 2982:1 2990:1 3263:1 3534:1 3618:1 3832:2 3877:3 3949:1 4012:1 4063:1 4215:2 4834:1 4920:1 5279:1 5386:1 5491:2 5845:1 6838:1 7092:1 7135:2 8337:1 8475:1 9337:4 9488:1 9534:2 9883:1 10031:1 12161:1 14386:1 14396:1 14635:1 16518:1 16887:1 18932:1 19700:2 23255:1 24155:1 24171:1 24272:1 25455:1 27314:1 29023:1 30747:1 33890:1 37373:1 37752:1 38377:1 
0.01828344944523905 5:1 52:1 61:1 78:1 125:1 168:1 255:1 537:1 928:1 1073:1 1674:1 2247:1 2900:1 3976:1 5405:1 5491:1 6074:1 6881:1 8001:1 11067:3 41834:1 
0.0006950654097383169 1:8 2:8 3:2 12:1 16:1 24:1 29:1 31:2 34:1 36:1 55:1 59:1 61:1 68:1 70:1 77:3 82:2 83:2 90:1 91:1 93:4 97:1 103:1 133:1 138:1 149:4 151:1 158:2 162:1 171:1 175:1 179:2 245:5 246:1 259:1 262:1 278:1 302:1 308:1 315:1 321:1 334:1 341:1 353:1 374:1 376:1 400:2 402:1 463:2 492:1 503:1 511:2 513:1 592:1 593:1 620:1 639:7 665:1 676:1 689:1 692:1 734:1 742:1 748:1 765:1 808:2 823:1 851:1 870:1 900:1 918:2 939:4 970:2 978:1 1007:1 1011:1 1012:1 1098:1 1115:2 1157:11 1168:1 1180:1 1188:2 1230:1 1233:1 1270:2 1276:1 1283:2 1291:2 1331:1 1345:1 1350:1 1365:1 1379:1 1381:1 1458:1 1487:1 1521:1 1562:1 1581:1 1597:1 1601:4 1658:1 1676:1 1681:1 1704:1 1714:1 1749:1 1769:1 1775:2 1800:1 1829:2 1863:1 1867:1 1871:1 1880:1 1893:1 1913:1 1931:1 1934:1 2023:1 2031:1 2047:1 2062:1 2076:1 2151:1 2300:1 2399:1 2518:1 2577:1 2650:1 2736:1 2794:1 2826:1 2848:1 2907:1 2954:2 2958:1 3070:1 3110:1 3115:2 3264:1 3303:1 3371:2 3518:1 3913:1 3925:1 3937:1 4079:1 4128:1 4238:4 4279:1 4396:1 4466:2 4506:1 4694:1 4771:1 4900:1 4982:1 5248:1 5344:1 5371:1 5508:1 5781:1 6159:1 6241:1 6277:1 6555:1 6865:1 6909:1 7058:1 7264:1 7269:2 7682:1 7767:1 7876:1 8110:1 8163:1 8370:1 8391:1 8408:1 8633:1 8806:1 8912:1 8916:1 8975:1 9161:1 9281:1 9381:1 9862:1 10258:1 10271:1 10321:1 10427:1 10693:1 10734:1 10987:1 11049:1 11259:1 11365:1 11644:1 11848:1 11944:1 12040:1 12178:1 12285:1 12762:1 12879:1 13112:1 13358:1 13466:1 13689:1 15351:1 16013:1 16076:1 16131:1 16162:2 16904:1 17115:1 17222:11 17715:1 19031:1 19047:1 19127:1 19583:1 20173:2 20176:1 20404:1 20696:1 21491:2 21529:1 21741:1 22139:1 22780:1 23084:1 24854:1 24986:1 26178:1 26275:1 26997:1 29866:1 30523:1 30557:2 32179:1 33178:1 33480:1 33902:1 36641:1 38181:1 38353:1 38442:1 41101:1 
0.02717216260114196 1:3 2:1 4:1 17:1 31:1 46:2 60:2 61:1 177:1 389:1 440:2 448:2 510:1 521:1 528:1 552:1 588:1 637:1 822:2 1118:1 1490:1 1599:1 1630:1 1658:1 2027:2 2050:1 2373:1 2693:1 3171:1 3577:1 3649:1 3762:1 4319:1 4442:1 5912:1 6723:1 8095:1 8197:1 9302:1 9673:1 12747:1 13831:1 29941:1 
0.01886384971693488 8:1 15:2 22:1 133:1 565:1 665:1 707:1 709:1 1088:1 1102:1 1118:1 1195:1 1242:1 1805:1 1819:1 1957:1 2078:1 3334:1 3546:1 7029:4 8014:1 9683:1 14955:2 18755:1 23768:2 
0.006206221409688252 2:1 4:1 5:1 8:2 31:1 61:1 63:1 78:1 107:1 145:1 162:1 207:2 255:1 307:1 372:1 492:1 563:1 685:1 741:3 895:1 911:1 928:2 954:1 1068:1 1073:1 1140:1 1174:2 1897:1 1913:1 2095:1 2115:1 2315:1 2475:1 2771:1 2868:1 3062:1 3895:1 4475:1 4715:1 5232:1 5468:1 6456:1 7401:1 8317:1 9775:1 10148:1 11117:4 
0.04513091187378719 1:1 2:1 4:1 27:1 62:3 125:1 147:1 170:1 246:1 265:1 393:1 395:1 486:2 545:1 669:1 1021:1 1195:1 1199:1 1805:1 2195:1 2286:1 2471:1 2700:1 2824:1 3436:1 4201:1 10697:1 13215:1 20434:1 
0.0104750454821914 1:7 2:1 4:2 5:1 12:1 15:1 17:1 27:2 31:2 46:3 53:1 62:2 67:1 102:1 111:1 124:4 126:1 136:1 150:1 202:1 229:1 255:1 262:1 264:1 265:2 315:1 369:1 371:1 372:1 380:1 400:1 407:1 414:1 448:1 462:1 486:3 510:2 528:1 559:1 560:1 597:1 630:1 645:1 685:1 706:1 721:1 741:1 750:1 818:1 906:1 982:3 988:1 1006:1 1123:1 1140:1 1141:2 1177:1 1525:1 1596:1 1605:1 1665:4 1927:1 2095:1 2562:1 2652:1 2691:1 2778:1 2833:1 3413:1 3433:1 3628:1 3663:1 3754:1 3772:2 4077:1 4129:1 4371:2 4479:1 4537:3 5009:2 5045:1 5279:1 5612:1 5737:1 5821:1 5908:1 6003:2 6038:1 6235:1 6508:1 7016:1 7661:5 9088:1 9506:1 9715:1 10004:1 11221:1 12525:1 15465:1 15773:1 17747:1 19344:1 21191:1 21501:2 22210:1 22923:1 26860:1 27435:1 28392:1 36165:1 
0.009504907142155685 1:2 3:1 4:1 7:2 8:1 23:2 24:1 28:1 60:4 66:2 86:1 109:2 117:1 126:1 150:1 176:1 184:1 202:1 207:3 220:1 223:3 255:1 266:2 284:1 348:1 368:1 409:2 448:1 561:1 603:2 790:1 808:1 824:1 849:1 1000:1 1115:1 1248:1 1270:1 1430:1 1441:2 1471:1 2085:1 2106:3 2276:1 2280:1 2395:1 2617:1 2780:1 2950:1 3247:1 3781:4 3847:1 3880:1 4405:1 4835:1 5051:1 5831:1 7365:1 8144:1 8521:1 8685:1 8726:1 9447:1 10307:1 11131:1 13172:1 18746:1 19005:1 22637:1 25967:1 43244:1 
0.0004722652118442005 1:8 2:1 3:7 4:1 5:9 7:1 8:1 9:3 12:1 17:2 19:1 22:1 23:1 24:2 25:1 30:1 32:1 35:1 51:3 52:2 53:1 54:1 63:1 66:1 67:1 68:1 73:1 103:1 113:1 119:1 129:1 143:1 144:1 153:1 158:1 159:1 162:1 167:1 168:1 170:1 171:1 181:1 186:1 200:1 205:2 219:1 240:1 244:2 245:1 252:1 263:1 269:4 276:2 289:1 308:1 317:1 325:1 326:1 335:1 372:2 392:1 398:1 402:1 403:1 410:1 456:1 462:1 480:1 502:1 570:1 579:1 612:1 635:1 647:1 653:1 657:1 684:1 804:1 874:1 906:1 907:2 1033:1 1062:1 1111:1 1151:1 1223:1 1239:1 1294:1 1300:1 1326:1 1358:1 1427:1 1456:1 1502:1 1601:2 1623:1 1674:1 1682:1 1695:1 1712:1 1716:1 1727:1 1751:1 1759:1 1761:1 1814:1 1860:1 1879:1 1906:1 2013:2 2022:1 2082:1 2110:1 2127:1 2147:1 2290:1 2321:1 2563:1 2574:1 2642:1 2746:1 2901:1 2941:1 2951:1 2967:1 3020:1 3288:1 3381:1 3397:1 3547:1 3734:1 3776:1 3843:1 3894:2 4005:1 4282:1 4345:1 4396:1 4461:1 4502:1 4628:1 4671:1 4705:1 4770:1 4777:1 4884:1 5279:1 5316:1 5329:1 5410:1 5673:1 5733:1 5783:1 6018:1 6106:1 6235:1 6664:1 6764:1 6773:1 6793:1 7139:1 7217:1 7491:1 7580:1 7628:1 7920:2 9209:1 9332:1 10446:1 10490:1 10511:1 11009:1 11525:1 11810:1 12021:1 12133:1 13001:1 13741:1 14225:1 14253:2 14327:1 14431:2 14822:1 14956:1 14961:1 15154:1 15928:2 16360:1 16407:1 16412:1 17037:1 17366:1 17510:2 17948:1 18578:1 18773:1 18947:1 20102:1 20124:1 20161:2 20560:1 20800:1 21502:1 21748:1 23621:1 24213:1 25075:1 26164:10 26269:1 26343:4 26463:1 27007:1 27236:1 28487:1 28612:1 29627:1 31464:1 32894:1 33044:1 33212:1 33798:1 35288:1 35494:1 37009:1 38105:1 39044:2 43015:1 
0.01253217381342882 1:3 3:1 7:1 26:1 73:2 127:1 202:1 215:1 266:1 279:1 371:1 377:1 388:1 390:1 446:2 471:1 484:1 565:1 567:2 626:4 684:1 755:1 790:2 886:1 1266:2 1289:1 1739:1 1865:1 1967:1 1988:4 2043:2 2260:1 2274:1 2347:1 2399:1 2608:1 2647:1 2761:1 2920:1 3132:2 3972:2 4882:1 4884:2 5551:1 5873:1 6383:1 6785:2 7247:1 9234:1 10274:2 11327:1 12093:1 13759:1 14934:1 15567:1 20400:1 25862:1 26506:1 26823:1 28392:1 29958:1 
0.01021242635162204 27:1 265:2 311:1 372:1 391:1 511:3 653:1 685:1 924:1 1588:1 1900:1 2184:1 3577:1 6208:3 6451:1 30947:1 
0.008694083240106456 1:2 5:1 11:1 28:2 188:2 193:2 204:2 317:1 371:1 372:1 466:1 504:1 565:2 619:1 653:1 729:1 874:1 1409:2 1585:1 1886:1 2078:1 3894:1 3980:1 4524:1 6601:1 8039:2 8107:1 8258:1 16017:1 18250:1 20204:1 21703:1 25619:3 25730:1 33545:1 34053:1 42068:1 
0.001919148095024693 1:17 2:4 3:3 5:2 7:1 13:1 14:3 15:3 16:2 17:1 21:1 24:1 25:1 27:1 28:4 31:3 32:1 35:1 41:6 42:1 54:1 61:1 62:2 64:1 67:3 70:1 91:1 92:1 101:2 136:2 138:1 142:3 162:1 167:2 172:1 174:4 177:3 180:1 185:1 203:1 216:1 219:1 226:1 242:1 260:1 287:1 292:1 297:1 303:2 319:1 326:2 356:1 369:2 371:1 372:1 389:2 392:1 393:2 423:1 454:1 455:1 456:3 483:1 514:1 516:1 544:2 592:1 637:1 653:1 670:1 702:2 712:2 713:1 748:1 776:2 778:1 791:1 797:2 804:1 816:2 858:1 866:1 867:2 868:1 887:1 898:1 947:1 968:1 985:2 987:1 1031:1 1086:2 1137:1 1145:2 1157:1 1161:1 1167:1 1199:1 1215:1 1216:1 1218:1 1240:1 1295:1 1408:3 1411:3 1487:1 1619:1 1659:1 1664:2 1674:1 1778:1 1807:1 1882:1 1950:1 1988:1 2047:2 2048:1 2133:1 2246:1 2253:1 2290:1 2347:2 2382:1 2515:1 2516:1 2599:1 2609:1 2626:5 2811:1 2864:1 2876:1 2944:1 3042:1 3058:1 3128:1 3347:1 3470:1 3508:1 3509:2 3511:1 3516:1 3539:1 3579:1 3649:1 3652:1 3693:1 3833:1 3973:1 3988:1 4084:2 4143:1 4200:1 4296:1 4353:1 4419:1 4454:1 4479:1 4499:1 4573:1 4727:1 4868:1 4931:1 4970:1 5227:2 5232:1 5256:2 5265:1 5362:1 5538:1 5637:1 5742:1 6130:1 6213:1 6664:1 6841:1 6884:1 7040:6 7136:1 7227:1 7321:1 7323:2 7376:1 7439:1 7572:1 7625:1 7942:1 8274:8 8399:1 8578:1 8640:1 8761:1 8807:1 8930:1 8989:1 9257:1 10003:1 10018:1 10128:1 10308:1 10507:1 10511:1 10663:1 10688:1 10737:1 10997:1 11060:1 11136:1 11521:1 11759:1 12072:3 12389:1 12511:1 12697:2 12754:1 12892:1 12924:1 13173:3 13182:1 13815:1 13898:1 14135:1 14138:1 14158:1 14597:1 14972:1 15033:1 15370:1 15493:1 15770:3 15900:1 16086:1 16546:1 17303:1 17395:1 17521:1 17570:1 18145:1 18305:1 18538:1 19739:1 20288:1 21072:2 21342:2 21358:1 21424:1 21634:1 21947:1 22051:1 22928:1 23070:1 23071:1 23182:1 23402:3 24628:5 25655:1 25755:1 27327:1 28001:1 29083:1 29569:1 30631:1 30709:1 32426:1 32681:1 32835:3 34128:2 34134:1 36160:1 36280:1 36642:1 37077:1 42374:1 
0.005849126741096732 1:2 5:1 8:1 9:1 23:2 35:1 37:1 49:1 64:1 81:1 102:1 162:1 194:2 203:1 215:1 273:1 284:1 299:1 372:1 468:1 472:1 517:1 563:1 620:1 634:1 636:1 710:1 810:1 1035:1 1047:1 1184:1 1320:1 1379:1 1444:3 1534:2 1574:1 1838:1 1886:1 2019:1 2204:1 2206:1 2317:1 2596:5 2735:1 3936:1 4424:2 4811:1 5339:1 5395:1 6199:1 6280:1 6400:2 7267:2 7580:1 9957:1 10031:2 12008:1 18559:1 19123:1 20959:1 21172:1 23128:1 24864:1 27158:1 27401:1 27537:1 36324:1 
0.006248240789635653 1:1 2:2 5:1 6:2 11:2 28:4 30:1 47:1 52:1 54:3 64:1 79:1 83:2 120:1 129:1 188:1 193:1 208:1 222:1 227:1 268:1 371:1 372:1 402:1 443:1 491:1 543:1 565:1 626:1 739:1 803:2 939:1 1063:1 1091:2 1096:2 1529:1 1847:1 2078:1 2199:1 2395:2 2525:1 3002:1 3357:1 3474:1 3582:1 3826:1 4081:1 4230:1 4417:1 4536:1 5581:1 6644:1 6969:1 7496:1 8124:1 9083:1 9450:1 11464:1 11911:1 13949:1 15726:1 20184:1 26461:1 30704:1 33371:1 34205:1 
0.0006146426548100234 2:2 4:2 5:1 16:1 24:1 34:1 58:1 61:1 101:1 127:1 237:2 254:1 258:1 263:2 297:1 333:1 372:1 373:1 423:1 443:1 449:1 467:1 492:1 509:1 511:2 525:1 543:1 564:1 679:1 681:3 707:1 1005:1 1153:1 1251:1 1410:1 1427:2 1552:1 1563:1 1670:1 1671:1 1886:1 2161:5 2594:1 2609:1 2628:1 2978:1 3313:1 3618:2 3795:2 3828:2 4022:1 4069:1 4073:1 4102:1 4343:1 4359:1 5142:1 5299:1 5824:1 6336:2 6662:1 6738:1 7027:1 7510:1 7573:3 8052:1 8514:1 8609:1 8777:1 8902:1 9277:1 9850:1 11227:1 11564:1 13048:1 13871:1 15928:1 19814:1 26980:1 27946:1 28114:1 29451:1 30599:1 33885:1 37313:1 38296:1 
0.02032478503921332 17:2 49:1 56:1 61:2 72:3 79:1 81:1 135:1 170:1 178:1 188:1 193:1 232:3 250:1 305:1 307:1 390:2 404:2 418:1 523:1 537:1 583:1 930:2 1128:1 1140:1 1273:1 1452:1 1491:1 1551:1 1593:1 2022:1 2674:1 2755:1 2800:1 2807:1 2906:1 3102:1 3212:1 5111:2 5412:2 5874:2 5977:2 6823:1 8071:1 8979:1 12129:1 12511:1 13032:1 19266:1 22382:1 22713:1 23969:1 
0.001406986123359273 1:4 3:2 5:1 32:1 35:1 37:1 49:2 52:1 54:1 64:1 70:1 77:1 78:1 81:1 107:1 117:1 180:1 203:1 215:3 245:1 249:1 359:1 372:1 406:1 456:1 468:1 472:2 526:2 578:1 636:1 707:1 801:1 896:1 913:1 1184:3 1285:1 1382:1 1434:1 1444:4 1474:1 1569:1 1664:1 1682:1 1715:1 1717:2 1727:1 1810:1 2014:1 2015:1 2056:1 2596:4 2740:1 2777:1 2970:1 3588:1 3867:1 3929:1 4491:1 4562:2 4873:1 4887:1 5309:1 5454:1 5696:1 5987:1 6280:1 6400:3 6793:1 6832:1 7514:1 7843:1 8080:1 10847:1 11549:1 12008:1 15535:1 15543:1 15638:1 16575:1 17508:1 21853:1 24219:1 31254:1 42407:1 
0.001998433371861222 1:7 2:1 4:1 8:1 10:1 20:2 22:1 25:1 32:1 35:2 51:1 57:1 58:1 77:1 82:1 99:1 116:2 125:1 127:3 138:1 147:1 180:1 195:1 204:1 212:1 214:1 224:1 229:1 233:1 239:1 246:1 265:1 307:1 318:1 327:4 339:1 373:1 392:2 432:1 448:5 453:1 472:1 473:1 493:1 539:2 552:1 622:1 628:1 635:1 736:1 761:1 879:1 900:1 938:1 976:1 1067:1 1075:1 1088:1 1100:1 1102:1 1104:1 1118:1 1204:1 1207:1 1242:3 1303:1 1379:1 1412:1 1417:1 1474:1 1574:2 1582:1 1585:5 1659:2 1707:4 1789:1 1819:1 1912:1 2044:1 2115:1 2170:1 2196:1 2206:1 2450:1 2664:1 2681:1 2808:1 3152:2 3472:1 3499:1 3966:1 4205:2 4260:1 4402:1 4535:1 4610:1 5562:1 5959:1 6103:1 6109:2 6789:1 7659:1 7991:1 8014:1 8353:1 8724:1 8843:1 8954:1 9605:1 9656:1 9702:2 10224:1 10486:1 11086:1 12943:1 14501:1 14906:1 15442:1 15623:1 17050:1 17879:1 18419:1 19035:1 19063:2 19144:1 19669:1 19790:1 23226:1 23684:1 24179:1 24290:1 25311:1 25587:1 26265:1 26715:1 27013:1 27797:1 29118:1 32781:1 33408:1 39984:1 42433:1 
0.001679401995748777 1:3 5:1 32:1 81:1 132:1 147:1 198:1 229:1 264:4 265:2 328:3 333:1 369:1 372:1 375:1 410:1 443:2 466:1 483:1 509:1 519:1 609:1 653:1 707:2 827:1 828:1 831:1 988:1 1241:1 2706:1 4408:1 4486:1 4528:4 4544:1 5538:2 5828:1 6068:1 7370:1 10421:1 10904:1 11080:1 11931:1 14376:1 15851:1 16548:2 17897:1 18000:1 22498:2 27624:1 39671:1 
0.02589737893911673 1:1 2:1 17:1 91:1 147:1 249:1 264:1 305:1 355:1 372:1 493:1 765:1 831:1 943:2 945:1 1021:1 1941:1 2073:1 2267:1 4100:1 4850:1 5361:1 7520:1 7689:1 8188:1 8973:1 11691:1 12197:1 21127:1 
0.000566401672536842 2:1 8:1 33:1 95:1 102:1 264:1 265:2 372:1 382:3 391:1 454:1 578:1 597:2 653:1 924:2 951:1 1712:1 1782:1 2241:1 3621:1 3764:1 3769:1 4592:1 4632:1 7002:3 7184:1 8667:1 8846:1 10156:1 12700:2 14379:1 16524:1 30034:1 
0.000282444539143049 1:5 3:2 4:1 5:5 9:2 10:1 20:2 21:2 23:4 25:1 45:1 46:1 68:1 80:2 81:1 88:1 127:1 144:1 194:2 198:1 205:1 215:1 258:1 359:1 369:1 372:1 410:2 413:1 435:1 499:1 501:1 578:1 622:1 636:1 654:1 661:1 688:1 707:1 710:1 721:1 933:1 951:1 953:1 982:1 985:1 1099:1 1254:1 1278:4 1304:4 1316:1 1376:1 1569:1 1627:2 1761:1 1789:1 1866:1 1892:1 1927:1 1928:1 1934:1 2020:2 2159:1 2177:2 2358:1 2369:1 2579:1 2680:1 2912:1 3013:2 3043:1 3065:1 3357:1 3608:1 3664:1 3698:1 3764:1 3772:1 3897:1 3922:1 4019:1 4653:3 4864:1 4977:3 5255:1 5489:1 5724:1 6032:1 8617:1 8640:2 8844:1 9731:1 10224:1 10304:1 10937:1 11637:4 11659:1 12645:1 13001:2 13085:1 13376:1 13476:1 13661:1 14018:1 14829:1 15612:1 18219:1 18806:1 19878:2 20858:1 22219:1 24095:1 25595:1 26197:1 26301:1 26878:1 27211:1 27388:2 27581:1 28550:1 29988:1 31211:1 32723:2 33122:1 34816:1 35549:1 38559:1 39225:1 
0.003956335435005891 1:1 3:2 5:1 13:1 53:1 64:1 70:1 83:1 180:1 280:1 300:1 307:1 348:1 391:2 392:2 432:3 467:1 514:1 627:1 839:1 951:1 1176:1 1313:1 1384:1 1443:1 1548:1 1628:1 2092:1 2145:1 2308:2 2378:1 2667:1 2787:1 3594:1 3668:1 4026:1 4159:1 4283:3 4632:1 4745:1 4947:1 5395:1 5455:1 6379:1 6397:1 6601:1 6713:1 7168:1 7978:1 8153:1 8832:1 10198:1 10631:1 10769:1 11510:1 12151:1 12884:1 12974:1 14410:1 17692:1 19894:1 20655:2 20897:1 23308:1 26654:1 29076:1 31705:1 32005:1 35295:1 36582:1 37109:2 39134:1 
0.001867090922185251 1:30 2:6 3:7 5:8 8:5 9:5 12:1 14:2 17:1 18:3 32:2 35:3 47:1 49:1 51:3 53:1 60:1 64:1 68:1 70:1 75:1 100:1 102:1 113:1 114:1 124:3 144:1 146:2 161:1 162:2 204:3 205:2 207:1 223:1 229:1 250:2 260:1 285:1 289:1 311:1 334:1 340:1 342:1 344:1 345:2 354:2 356:1 367:1 368:1 372:2 387:2 407:1 423:1 434:1 442:1 443:1 454:4 456:1 481:1 486:3 492:2 493:1 497:1 509:5 561:3 564:7 578:2 652:1 686:1 728:3 761:3 768:1 788:1 844:1 888:1 936:1 958:4 974:1 976:1 979:1 1003:1 1009:1 1040:1 1046:1 1068:1 1080:1 1088:2 1143:1 1144:1 1227:1 1251:1 1372:1 1391:4 1415:1 1462:3 1586:1 1613:1 1628:3 1656:1 1710:1 1715:1 1716:1 1732:1 1733:1 1759:1 1793:1 1838:1 1874:1 1875:1 1890:1 2017:2 2023:2 2038:2 2045:3 2092:2 2117:2 2144:1 2147:1 2250:2 2253:1 2291:1 2317:1 2350:2 2367:1 2382:1 2402:1 2471:1 2480:2 2664:1 2695:1 2849:1 2885:1 2981:2 3034:1 3103:1 3128:1 3155:1 3196:1 3330:1 3463:1 3503:1 3509:1 3619:2 3739:3 3839:1 3857:1 3884:1 4155:2 4167:1 4207:2 4271:1 4342:1 4478:1 4504:1 4591:1 4667:1 4684:2 4869:9 4904:1 4964:1 5002:1 5003:1 5007:1 5074:4 5169:5 5250:1 5322:1 5544:1 5662:1 5795:1 6004:1 6037:1 6118:1 6231:1 6248:1 6263:1 6325:1 6368:2 6498:7 6738:2 6776:2 6911:1 6919:1 7051:1 7149:1 7192:1 7320:1 7365:1 7828:1 8120:3 8644:1 8685:2 8833:1 8839:3 8862:3 9022:1 9244:1 9279:1 9474:1 9532:1 9632:1 9766:1 9954:3 9997:1 10121:1 10220:1 10309:1 10326:1 10344:1 10487:1 11227:2 11244:2 11538:1 11658:1 11689:1 11700:2 11996:1 12190:1 12598:1 12657:1 12674:1 12707:1 12768:2 12809:1 13025:5 13108:1 13532:1 14143:1 14551:1 14628:4 14661:1 15368:1 15449:1 15932:3 15940:1 16030:1 16175:1 16324:1 16486:3 16647:1 16896:1 17256:1 17411:1 17749:1 17890:1 18084:3 18202:3 18276:1 18411:3 18446:6 18620:3 19131:1 19137:1 19511:1 19839:2 20096:2 20248:1 20415:1 20721:1 20834:1 21160:1 21195:3 21571:3 21811:19 22177:1 22743:1 22758:1 23174:1 23272:1 23716:1 23793:1 23927:1 24554:1 24776:1 24827:9 25252:1 25541:1 25717:1 25786:2 26258:1 26427:18 26800:1 28935:1 28982:2 29063:1 29313:1 29792:1 30544:1 31030:1 31368:4 32454:3 33047:2 34362:3 35005:1 35683:1 36364:1 36495:3 36779:1 38806:1 39139:1 39198:1 39413:1 39499:2 40615:1 
0.01540770133964287 1:3 2:1 17:2 73:2 107:1 119:1 144:1 207:1 220:1 316:2 372:1 466:1 483:1 511:1 578:1 579:1 643:1 755:1 1023:1 1530:1 1560:1 1589:1 1606:1 1716:1 1795:1 1812:1 2312:1 2360:2 2624:1 2844:1 3621:1 4331:1 4539:1 5132:1 7592:1 11845:1 12030:1 15927:1 27993:1 
0.003463590790185036 1:17 2:3 3:2 5:1 7:3 9:2 10:1 13:3 18:1 19:1 22:2 23:1 30:1 34:1 36:1 37:1 50:1 51:1 64:1 69:2 70:2 82:2 87:2 91:1 102:1 116:1 153:1 158:1 174:3 181:1 183:1 194:1 228:1 284:1 291:2 295:1 319:1 327:2 360:1 369:1 371:1 372:1 379:1 420:1 424:1 443:1 454:1 487:1 501:1 503:1 511:1 522:1 561:2 562:1 563:1 573:1 592:1 673:1 688:1 728:1 780:2 788:1 848:1 938:1 957:2 974:2 988:1 1002:1 1025:1 1062:1 1067:1 1124:1 1143:1 1192:1 1206:1 1245:1 1273:1 1285:1 1297:1 1348:1 1353:1 1392:1 1406:1 1448:1 1502:1 1584:1 1695:1 1699:1 1719:1 1751:1 1755:1 1802:1 1838:1 1912:1 1932:1 1961:1 1991:1 2077:1 2144:1 2147:1 2161:4 2328:1 2425:1 2546:1 2673:1 2780:1 2959:1 2964:2 3065:1 3073:1 3134:1 3175:1 3260:1 3261:1 3359:1 3408:1 3605:1 3762:1 3801:1 3803:1 3843:1 4130:1 4207:1 4308:1 4548:2 4566:2 4653:2 4720:2 4727:1 4961:1 5138:1 5329:1 5429:1 5927:2 5956:1 5963:1 6052:1 6253:1 6343:1 6574:3 6589:1 6924:1 6936:1 7067:4 7154:1 7573:1 7596:1 7606:1 7827:1 8098:1 8354:1 8359:1 8423:1 8640:2 8895:1 9073:1 9859:1 10324:1 10515:2 10569:1 10858:1 10866:1 10904:1 10911:4 11872:1 14067:1 14082:1 14866:1 15298:1 15486:1 15801:1 15908:1 16075:1 16076:1 16459:1 16486:2 16930:1 17108:1 17131:1 18181:1 19521:1 20507:2 21371:2 22172:1 22659:1 23177:1 25270:1 25431:1 26197:3 26258:2 26725:1 27341:2 29389:1 29921:1 33784:1 34902:1 35950:1 36784:1 37345:1 38522:1 39930:1 41551:1 42377:1 
0.0006067034982304947 1:25 2:5 4:1 5:6 13:2 15:2 16:2 22:2 29:3 30:1 31:2 32:1 35:2 37:2 41:5 44:1 45:1 48:1 52:1 53:1 59:1 61:1 62:1 65:1 78:6 79:1 81:1 85:1 90:1 91:1 92:1 93:1 110:1 114:1 115:1 119:3 129:1 133:3 145:1 151:1 153:1 157:1 158:2 162:1 169:1 170:1 173:1 174:1 178:2 183:1 185:3 198:1 200:1 201:1 205:1 216:5 240:1 245:5 248:1 252:2 258:4 261:1 291:4 293:1 296:1 317:1 324:1 345:3 347:2 352:2 359:1 361:1 372:1 373:1 385:2 388:1 394:1 402:1 406:1 413:1 416:1 425:1 454:2 457:1 477:1 485:1 513:1 520:2 543:2 566:1 573:1 593:1 628:1 635:1 637:1 639:6 643:1 650:1 661:1 665:1 669:1 675:1 679:6 692:1 710:1 723:1 760:1 778:1 788:1 824:1 825:1 835:1 851:1 865:1 875:1 882:1 892:1 914:1 915:1 924:1 934:1 939:1 941:1 943:3 944:1 951:1 976:1 994:1 1005:2 1020:1 1025:1 1099:1 1121:1 1167:1 1194:1 1200:1 1243:1 1288:1 1291:1 1308:1 1325:1 1326:1 1366:1 1398:1 1434:1 1483:1 1504:2 1510:2 1523:1 1560:1 1564:1 1574:1 1575:1 1593:1 1603:1 1610:2 1614:1 1627:1 1638:4 1680:1 1699:1 1702:1 1801:1 1814:1 1845:1 1902:1 1905:1 1908:1 1910:1 1913:1 1922:6 1942:1 1961:1 1962:1 1977:1 1986:1 2032:3 2053:1 2076:1 2100:1 2102:1 2123:1 2149:1 2182:1 2198:1 2218:1 2317:1 2334:1 2361:1 2399:1 2401:1 2420:1 2513:1 2526:1 2558:1 2570:1 2613:1 2656:1 2712:1 2724:1 2759:1 2867:1 2874:1 3106:1 3222:1 3252:1 3260:1 3274:1 3300:1 3301:1 3303:1 3325:1 3377:1 3380:1 3427:1 3446:1 3471:1 3536:1 3563:1 3589:3 3590:1 3598:1 3672:1 3690:1 3717:1 3740:1 3759:1 3773:1 3815:1 3847:1 3908:1 3923:1 3934:1 3941:1 4055:1 4093:1 4100:1 4252:1 4353:1 4486:2 4519:1 4524:1 4672:1 4698:1 4799:1 4804:1 4876:1 4956:1 4965:1 4980:1 5016:1 5043:6 5083:1 5154:1 5161:2 5299:1 5304:1 5496:1 5519:1 5551:1 5615:1 5675:1 5940:1 6013:1 6098:1 6125:1 6157:1 6266:1 6301:2 6335:1 6336:1 6465:1 6847:1 7083:1 7133:1 7135:1 7256:1 7281:1 7314:1 7367:1 7427:1 7465:1 7510:1 7554:1 7598:1 7991:1 7992:1 8008:1 8036:1 8059:1 8108:1 8311:1 8417:1 8609:1 8636:1 8706:1 9033:1 9110:1 9111:1 9162:1 9186:1 9316:1 9547:1 9971:1 9999:1 10146:1 10370:1 10563:1 11183:2 11435:2 11641:1 11667:1 11770:1 12119:1 12305:2 12503:1 12636:1 12719:1 13358:1 13461:1 13544:1 13755:1 14128:1 14185:1 14209:1 14353:1 14534:1 15039:1 15120:1 15479:1 15551:1 15787:1 16256:1 16696:1 16801:1 17311:1 18748:1 18774:1 18810:1 18982:1 19008:1 19030:1 19311:1 19661:1 19793:3 19795:1 19900:1 20490:2 20819:3 20903:1 20991:2 21370:1 21437:1 23873:2 24245:1 24815:1 24878:1 25006:1 25322:1 25994:1 26401:1 26520:1 26664:1 27607:1 28010:1 28297:1 29290:1 29627:1 29739:1 30621:1 30903:1 31559:1 31798:1 33671:1 33691:1 36151:1 36551:1 37243:1 38964:1 39524:1 41237:1 41987:1 42836:1 
0.002125839863763942 1:3 2:1 3:2 15:1 20:1 27:3 40:2 41:1 132:2 147:1 178:3 180:2 182:1 196:1 243:1 265:1 352:1 394:1 410:1 484:1 520:1 589:1 647:1 739:1 765:1 772:1 779:1 995:1 1088:1 1188:1 1236:2 1311:1 1329:1 1476:2 1525:1 1596:1 1654:1 2075:1 2340:1 2384:1 2401:1 2492:1 2499:1 2700:2 2786:1 3003:2 3133:1 3184:1 3211:2 3325:2 3767:1 3862:1 3904:1 4045:2 4232:1 4517:1 4519:1 4912:1 5304:1 5941:1 6607:1 6986:1 7003:1 7017:1 7227:1 7832:1 8007:1 8414:1 9220:1 10600:1 10731:1 10821:1 11586:1 11954:1 12053:3 13227:1 13300:1 13342:1 13912:2 14246:1 14751:1 15039:1 15949:1 19819:1 20744:1 20876:1 23618:3 23811:1 25228:2 27820:1 27904:1 31190:1 31336:1 31859:1 39669:2 40251:1 41121:1 
0.0005379598024044212 1:9 2:2 9:2 12:1 34:1 38:4 41:1 47:1 59:2 65:1 122:2 133:1 157:2 162:1 166:1 178:2 207:2 214:1 216:2 278:6 289:1 290:1 372:1 454:1 483:1 635:3 639:1 941:1 943:2 1307:1 1358:1 1483:1 1530:1 1575:2 1603:1 1638:1 1699:2 1843:1 2570:1 2656:6 3325:1 3568:3 3690:3 3886:1 4224:1 4519:1 4633:2 5223:1 6822:1 6845:1 7828:1 7868:1 8748:1 8822:1 8829:1 9523:1 9551:1 10284:1 11733:1 12920:1 14044:1 15675:1 16909:1 22955:1 29945:1 30080:1 33619:1 35260:1 39236:1 40221:1 41675:1 
0.001280123639351059 1:5 2:2 4:1 5:2 8:1 14:1 20:1 21:1 59:1 70:1 107:1 115:1 116:1 124:1 131:1 146:1 159:1 183:1 197:1 221:1 226:1 239:1 242:1 250:1 263:1 328:1 342:1 372:1 454:3 493:1 511:1 545:1 561:1 562:1 629:1 685:2 844:1 860:1 887:2 951:1 1056:1 1099:1 1177:1 1339:4 1403:1 1462:1 1518:1 1547:1 1712:1 1815:1 2092:2 2101:1 2147:1 2222:1 2276:1 2389:1 2835:1 2895:1 2928:3 3128:1 3230:1 4008:1 4059:1 4114:1 4207:1 4212:1 4342:1 4400:1 4684:1 4904:1 5619:1 6776:1 6867:1 7151:1 7388:1 8640:1 9022:1 9158:5 9388:1 10578:1 10996:1 12089:1 12263:1 12994:1 15034:1 16458:1 21021:1 26798:1 27328:1 28258:1 32065:1 33176:2 37550:3 41983:1 
0.005301203323463906 1:2 2:1 23:1 33:1 66:1 78:1 161:1 167:1 174:1 219:1 227:2 372:1 456:1 571:1 578:2 618:2 647:3 653:1 740:1 1063:2 1189:1 1201:1 2165:1 2283:1 2367:1 2382:1 2449:1 3668:1 4400:1 5345:1 5651:1 5774:1 7944:1 12943:1 15496:1 21091:1 21188:1 22932:2 37027:2 
0.003211694704151611 1:3 2:1 5:1 9:1 10:1 24:2 38:1 83:1 84:1 101:1 114:1 167:1 207:1 217:1 242:2 289:2 337:2 372:2 382:1 384:1 435:1 456:1 462:1 483:2 510:1 622:1 707:1 893:1 1148:1 1370:1 1638:7 1875:1 1962:2 2000:2 2478:1 2905:1 3061:1 3126:2 3636:1 4250:1 4800:1 5336:1 5696:1 6310:3 7544:1 7907:1 8698:1 10878:1 20331:1 22477:1 23272:1 32931:1 35210:1 37667:1 39153:1 40479:3 40860:1 
0.00198443097102045 1:4 2:1 3:1 5:2 17:2 24:2 37:1 45:1 66:2 67:1 73:1 78:1 87:1 99:1 108:1 143:1 151:1 203:1 230:1 251:1 254:3 259:1 299:3 305:1 311:1 347:1 362:1 372:1 434:1 453:1 456:1 469:7 483:4 504:1 518:1 543:1 558:1 563:1 567:1 605:1 627:1 636:1 702:1 799:1 802:1 804:1 814:1 816:1 826:1 976:1 985:1 999:2 1034:1 1110:1 1215:1 1240:3 1274:1 1291:1 1358:1 1479:1 1506:1 1560:1 1670:1 1711:1 1715:1 1959:1 2013:1 2087:1 2240:1 2420:1 2597:3 2609:1 2670:1 2758:1 2844:1 2990:1 3032:1 3035:2 3287:1 3559:1 3738:1 3772:1 3949:1 4377:2 4880:1 5019:1 5026:1 5356:1 5466:1 5845:1 6005:1 6288:1 6521:1 6833:1 6858:2 6892:1 7513:1 7912:1 8001:1 8022:1 8146:2 8218:1 8319:4 8390:1 8913:1 9388:1 9528:3 9590:2 9914:1 11492:3 11790:1 13449:1 13502:1 14141:1 14681:1 14711:1 15492:1 16206:1 16913:1 18193:7 18659:1 19121:1 20376:1 20913:1 21098:1 21127:1 21771:1 22349:2 25721:1 26062:1 36411:1 39831:1 
0.0001809888169816036 1:17 2:3 3:2 5:1 8:2 12:2 14:1 15:1 17:1 19:1 21:1 24:2 25:6 32:1 33:1 35:1 54:1 57:1 62:2 65:1 70:1 73:2 75:1 78:2 79:1 82:1 83:2 87:2 90:1 91:2 94:6 96:2 110:1 111:1 113:1 124:1 129:1 145:1 161:1 164:1 171:1 174:1 202:1 204:1 215:1 218:1 220:1 233:1 254:4 262:1 285:4 305:1 329:1 344:1 348:1 355:1 356:1 375:2 382:1 385:1 391:3 392:3 400:1 403:1 406:1 408:2 432:5 450:1 461:1 467:1 481:1 498:2 500:2 522:1 524:1 602:1 612:3 618:2 627:2 636:1 649:1 653:3 657:1 684:2 724:1 780:1 799:2 803:1 817:1 857:1 858:1 873:1 889:1 895:1 942:1 943:2 945:2 976:1 999:4 1031:2 1081:1 1086:3 1106:1 1132:3 1148:1 1153:1 1218:1 1219:2 1240:2 1287:1 1333:5 1408:1 1409:1 1427:1 1474:1 1500:1 1512:1 1529:1 1544:2 1575:1 1595:4 1608:1 1662:1 1670:1 1774:1 1797:1 1836:1 1917:1 1943:1 1954:1 1960:2 1970:1 2000:1 2065:1 2084:2 2093:2 2124:1 2126:1 2159:1 2186:1 2222:1 2237:1 2243:1 2368:1 2414:1 2432:1 2444:1 2450:1 2506:5 2531:1 2533:1 2602:1 2670:1 2674:1 2717:1 2783:1 2793:1 2876:3 2925:1 3046:1 3062:1 3109:1 3145:1 3146:1 3174:1 3198:1 3325:1 3345:2 3434:1 3543:1 3588:1 3758:1 3766:1 3903:1 3975:1 4068:1 4150:1 4229:1 4262:2 4313:1 4451:1 4636:2 4693:1 4742:1 4774:3 4815:1 4866:1 4872:1 5110:1 5127:1 5165:1 5325:2 5451:1 5523:1 5628:1 5629:1 5641:1 5768:1 5783:1 6014:1 6067:2 6192:1 6379:1 6388:1 6472:4 6604:1 6775:2 6830:1 6852:1 6893:1 6913:1 6924:1 7020:1 7167:1 7223:1 7233:1 7320:1 7844:1 8231:1 8341:1 8384:1 8695:1 8800:1 8824:1 8856:2 9015:1 9543:1 9552:1 9586:1 9636:1 9835:1 10010:1 10091:1 10153:1 10256:1 10497:1 10580:1 10675:1 10925:1 11034:1 11139:1 11163:1 11427:1 11510:2 11771:1 11787:1 12124:1 12151:1 12327:1 12337:1 12605:1 12762:1 12892:1 13256:1 13303:1 13433:1 13615:1 13747:1 13790:1 14040:1 14081:1 14123:1 14381:1 14486:1 14535:1 14617:1 14997:1 15236:1 15360:1 15492:1 15525:1 15773:1 15897:1 15907:2 15930:1 16017:1 16043:1 17007:1 17692:2 17784:1 17860:1 18272:1 18317:1 18489:1 18510:1 18874:1 19733:1 20233:1 20414:1 20820:1 21042:1 21248:1 21284:1 22066:2 22687:1 22911:1 23954:2 24527:1 26833:1 30523:1 31322:2 31351:1 31768:1 32325:1 34458:1 37361:1 38870:1 39045:1 39753:1 40395:1 40978:1 42021:1 
0.01519488075182078 11:2 27:2 372:1 483:1 653:1 686:1 839:1 924:1 1094:1 1284:1 1369:1 2134:1 2253:1 3043:1 3525:1 3894:1 4690:1 6278:1 10047:1 10904:1 11293:1 16524:1 35525:1 
0.01500955471548592 1:3 2:2 5:1 16:1 21:2 22:1 23:1 33:2 36:1 42:1 66:1 75:1 88:1 99:2 114:1 214:1 397:1 434:1 631:1 712:1 852:1 986:3 1016:1 1056:2 1162:1 1427:1 1507:2 1936:1 1988:2 2038:1 2635:2 2861:1 3068:1 3265:1 3965:1 4150:1 4530:1 4938:1 4994:1 5315:1 6869:2 10630:1 10706:1 11410:1 11425:1 11855:1 11912:1 12544:1 13123:1 13647:1 15961:4 17326:1 17359:1 17630:1 18354:1 20312:1 20727:1 24713:1 26867:1 28434:2 31447:1 33079:1 34394:1 37297:1 39984:1 
0.0001715224051238333 1:11 2:7 3:2 5:2 8:1 9:1 14:1 17:5 20:1 24:1 26:6 31:1 32:1 35:2 37:1 45:1 47:1 49:10 61:1 77:1 78:2 80:1 83:1 84:2 92:1 133:1 140:1 142:2 157:1 165:1 168:1 178:2 203:1 212:1 219:2 234:4 274:1 307:1 310:1 338:3 345:1 359:1 390:2 393:3 427:1 435:2 441:1 450:5 469:1 493:2 503:1 528:2 581:1 590:3 598:3 609:1 635:2 682:1 697:1 750:1 766:1 778:2 807:1 826:1 851:3 886:1 914:1 915:1 942:1 943:1 953:1 1069:1 1079:2 1089:1 1122:2 1150:1 1187:1 1241:1 1260:2 1265:1 1273:1 1278:3 1323:1 1328:1 1394:1 1427:2 1462:1 1472:1 1483:2 1507:1 1556:1 1565:1 1603:1 1637:6 1711:1 1741:1 1817:1 1828:4 1901:1 1913:1 1917:1 2011:7 2020:3 2103:2 2209:1 2248:1 2317:1 2353:1 2424:1 2467:1 2588:2 2610:1 2687:6 2694:1 2752:6 2844:5 2925:1 3008:1 3075:9 3365:1 3412:1 3582:2 3588:1 3668:1 3719:1 3833:1 3855:1 3856:1 3940:2 4076:3 4307:1 4417:1 4431:1 4536:1 4720:1 4744:1 4746:1 4911:1 5253:1 5392:1 5502:2 5715:1 5896:1 6125:1 6194:1 6428:5 6446:1 6578:1 6989:2 6996:1 7018:1 7083:1 7092:1 7259:1 7451:2 7562:1 7725:1 7898:1 8153:1 8259:2 8278:5 8311:1 8349:1 8460:1 8815:1 8947:1 9472:1 9653:6 9771:1 9855:1 10397:1 11428:1 11834:1 11897:1 12695:1 12886:1 12975:1 13064:1 13257:1 13357:1 13916:1 14406:1 14472:2 14656:1 14684:1 14758:1 15031:1 15970:1 16101:1 16206:1 16478:1 16791:1 16802:1 17359:1 17953:1 18010:1 18652:1 18707:1 18940:1 21088:1 21681:1 24171:1 24590:1 24738:1 25341:1 25607:1 27050:1 29126:1 32926:2 33940:1 33997:1 34013:3 34977:1 35167:1 39767:2 40729:1 42131:2 
0.0002219952980796369 1:40 2:10 3:2 5:4 8:6 10:4 13:4 14:2 15:2 16:2 17:2 21:6 22:4 27:9 30:4 35:10 36:2 37:2 38:2 44:4 45:2 48:2 53:2 61:2 63:4 65:2 73:2 75:2 80:2 81:4 83:2 91:2 93:2 101:2 103:2 112:4 115:2 119:2 125:2 147:2 155:4 162:4 175:2 197:8 200:4 204:2 208:2 215:6 233:2 234:2 263:4 264:2 273:2 287:2 297:2 305:2 325:2 332:2 334:2 337:6 345:4 349:2 361:2 363:2 367:2 372:2 391:4 443:2 452:2 475:2 477:2 508:4 509:4 514:2 524:2 543:2 552:2 576:2 581:2 585:2 605:2 635:2 642:2 653:2 654:2 676:2 710:2 720:2 767:2 844:2 863:2 871:2 884:2 891:2 919:2 939:2 941:2 977:2 985:4 995:2 1004:2 1006:2 1020:2 1044:2 1102:2 1103:4 1124:2 1139:2 1192:2 1204:2 1205:2 1223:2 1235:2 1250:2 1273:2 1372:6 1376:2 1444:2 1456:2 1483:2 1504:2 1518:2 1523:2 1587:2 1594:2 1666:2 1699:2 1710:2 1890:2 1941:6 1953:2 2038:2 2079:2 2095:2 2115:2 2152:2 2217:1 2232:2 2309:4 2369:2 2376:2 2470:16 2504:2 2650:2 2691:2 2777:2 2831:4 2867:2 2886:2 2997:2 3073:2 3144:2 3209:2 3222:2 3280:6 3301:2 3334:2 3408:2 3478:2 3523:2 3540:2 3589:2 3608:6 3647:2 3742:6 3764:2 4044:2 4095:2 4303:2 4362:2 4369:2 4414:2 4440:2 4551:2 4611:2 4672:2 4690:8 4698:4 4724:4 4727:2 4729:2 5076:2 5078:2 5250:4 5485:2 5538:2 5584:2 5603:2 5758:2 5867:2 5935:1 5999:2 6123:2 6128:2 6302:2 6323:2 6336:2 6368:2 6503:4 6609:3 6636:2 6984:2 7018:2 7063:2 7191:2 7259:2 7329:2 7378:2 7397:2 7510:2 7596:2 7751:2 7832:2 7837:2 8154:2 8171:2 8761:4 8842:2 8930:2 9120:2 9343:2 9641:2 9648:2 9677:2 10075:2 10146:2 10246:2 10371:2 10498:2 10677:2 10960:1 11015:2 11192:2 11566:2 11691:2 11973:2 11991:2 12325:2 12368:2 12699:2 13128:2 13352:2 13357:2 13486:2 13511:2 13609:2 15384:2 15564:2 15675:2 15933:2 16003:2 16548:2 16760:2 16850:2 16874:2 16914:2 17014:2 17103:4 18157:2 18977:2 19124:2 20772:2 20906:2 21096:2 21630:2 21631:2 21948:2 22326:2 22368:2 22742:2 23069:2 23152:2 23156:2 23844:2 25177:2 25288:2 27550:2 27926:2 29291:2 30136:2 31425:2 33726:2 33759:2 34598:2 34839:2 35312:2 35549:2 37154:2 40037:2 42176:2 
0.001740662895199101 1:5 2:1 4:1 5:1 9:1 83:1 89:1 126:1 133:1 150:1 153:1 157:2 174:1 222:1 233:1 354:1 355:1 372:1 434:4 435:1 480:1 509:1 521:1 565:1 566:1 578:1 755:1 839:1 871:1 958:1 1105:1 1161:1 1225:1 1294:1 1391:1 1518:1 1682:1 1727:1 2159:1 2289:1 3009:1 3012:1 3105:1 3184:1 3661:1 3995:1 4262:1 4336:1 4478:1 4551:1 5169:1 5395:2 6776:1 7304:1 7402:1 7678:2 7726:1 8149:2 8511:1 11496:2 12657:1 14619:1 17855:1 17938:1 18051:1 18576:1 18620:1 22060:1 26461:1 27843:3 36403:1 37961:1 39334:1 42585:1 
7.940932260873282e-005 1:1 2:2 3:3 5:2 19:2 35:1 81:2 82:1 119:1 120:1 144:1 154:1 237:1 241:1 372:1 501:1 578:1 859:1 879:1 1015:1 1094:1 1152:1 1667:1 1732:1 2458:1 2742:1 3537:1 3618:2 3795:1 4043:1 4983:3 5913:1 6061:1 7334:3 8039:1 8368:1 8667:1 9967:1 12500:1 16467:1 20561:1 21512:1 23103:3 26222:1 27722:2 30892:1 
0.001824809926971235 1:6 4:1 5:3 7:1 9:2 13:1 14:1 24:1 33:1 45:1 52:1 86:1 101:1 102:1 136:1 167:1 254:1 284:1 347:1 354:3 359:1 408:1 414:1 486:1 506:1 533:1 537:1 559:1 594:4 619:3 707:1 773:1 786:1 909:1 939:3 999:1 1042:1 1047:1 1114:2 1116:1 1143:1 1177:1 1232:1 1247:1 1376:1 1448:1 1496:1 1543:1 1612:1 1716:1 1742:1 1793:1 2007:1 2092:1 2175:1 2420:1 2439:1 2506:1 2554:1 2691:1 2729:1 2835:1 2867:1 3068:1 3275:1 3347:1 3764:1 3936:1 4105:1 4143:1 4250:1 4464:1 4524:1 4698:1 4896:1 4964:1 5374:1 5526:1 6065:1 6277:1 6410:1 6555:1 7481:1 7663:1 8319:1 8355:1 8839:1 8931:1 9129:1 9604:1 10722:2 10937:1 10955:1 11610:3 12487:1 12643:1 12661:1 12815:1 13108:1 13268:1 14736:1 14818:1 16455:1 16621:1 17062:1 18852:1 19262:1 19680:1 21926:1 25410:1 26519:1 29992:4 38604:1 39987:1 42013:1 
0.004846804160300882 1:2 2:1 3:1 5:1 7:1 8:2 17:1 23:1 27:3 31:1 58:1 59:2 66:1 69:1 80:1 86:1 116:1 137:1 207:3 220:1 251:1 347:1 372:1 481:2 514:1 618:1 634:1 684:1 805:1 965:1 1077:2 1170:2 1252:1 1257:1 1466:1 1602:1 2204:1 2558:3 2617:1 2634:1 3020:1 3471:2 3776:1 4376:1 5322:2 5611:1 5669:2 6499:1 6590:3 7136:1 7734:1 7838:1 8850:1 10007:2 10206:1 10363:3 10515:3 10801:1 14628:1 18113:1 18414:1 19345:1 20239:1 20402:2 21060:1 34092:1 35010:1 37428:1 38441:1 41662:2 42079:3 
0.005781632366611837 1:4 3:3 4:1 5:1 12:1 21:2 23:2 26:1 33:1 46:1 52:1 60:1 61:1 65:1 66:2 75:2 78:1 80:1 83:1 85:2 92:1 102:1 132:1 133:2 158:2 161:1 204:1 245:1 254:1 273:1 295:1 300:1 307:1 338:2 357:1 372:1 417:1 424:1 432:1 443:1 459:1 469:1 556:1 604:1 647:2 650:1 660:1 699:1 721:1 731:1 884:1 999:1 1020:2 1144:1 1188:1 1299:1 1329:1 1398:1 1427:2 1589:1 1843:1 2047:1 2123:1 2127:1 2246:1 2348:1 2492:1 2515:1 2546:1 3011:1 3659:1 3762:1 3867:1 4031:1 4120:1 4283:1 5060:1 5111:1 5124:1 5635:1 5928:1 5985:1 6072:1 6806:1 7338:1 7593:1 7796:1 8021:1 8219:1 8366:1 8731:1 9261:1 9464:1 10103:1 10564:1 12656:1 17248:2 17778:1 18555:1 19374:1 21170:1 21516:1 22580:1 23722:1 26833:1 29436:1 30806:1 32759:1 33890:1 35332:1 39378:1 
0.006872849330945914 1:6 2:1 3:1 5:3 8:2 17:1 19:1 32:1 33:1 35:1 36:1 40:1 44:1 45:1 63:1 143:1 151:3 162:1 173:1 183:1 203:1 258:1 343:1 344:1 420:1 436:1 604:1 615:1 627:1 635:1 748:1 792:1 841:1 847:1 860:1 942:1 1186:1 1190:1 1241:1 1293:1 1419:1 1429:1 1504:1 1562:1 1603:1 1721:1 1751:1 1890:1 2032:3 2132:1 2183:1 2228:2 2333:1 2369:1 2578:1 2583:1 2685:2 2693:1 2779:1 2896:1 2985:1 3023:1 3054:1 3070:1 3265:1 3498:1 3668:1 3715:1 3776:2 4311:2 4395:4 4595:1 4766:1 5227:1 5667:7 5678:1 5916:1 6268:1 6376:1 6558:1 6978:1 7292:1 7843:1 7880:1 7895:1 8262:1 8408:1 8743:1 9417:1 9833:1 9858:1 10031:1 10323:4 10379:1 11119:1 11508:1 15421:4 15646:1 17666:1 20218:1 20444:1 22635:1 22676:1 23009:1 23105:1 23196:1 24704:1 27141:1 31126:1 37433:1 37548:1 40662:1 40938:1 
0.001456010309926137 1:7 2:4 3:6 8:2 9:1 17:2 19:3 32:2 49:1 52:1 92:2 99:1 106:1 110:2 127:1 129:1 133:2 178:1 202:2 210:1 214:7 216:4 217:1 219:2 224:1 249:3 261:2 263:1 311:2 330:1 331:1 371:1 402:1 440:3 456:1 513:1 516:1 578:1 599:1 626:1 635:2 650:1 699:1 702:1 721:1 750:1 804:1 823:1 851:1 893:2 1102:2 1128:1 1191:1 1216:1 1238:1 1399:1 1415:1 1467:1 1483:1 1516:1 1560:3 1564:1 1593:1 1603:1 1699:1 1814:1 1870:1 1913:1 2001:1 2005:1 2043:1 2198:1 2263:2 2275:2 2347:1 2357:2 2445:1 2513:2 2537:2 2556:1 2694:2 2709:1 2769:1 2865:1 3014:1 3098:1 3161:1 3365:1 3405:1 3470:1 3479:3 3509:2 3568:1 3598:1 3759:1 4084:1 4519:2 4565:1 4687:6 4698:1 4744:1 4881:2 4895:1 4953:1 4959:3 5085:1 5147:8 5257:1 5377:1 5739:1 5896:1 6582:1 6770:1 6806:1 6954:1 7006:1 7299:3 8006:1 8097:1 8408:1 8593:1 9645:1 9836:1 9891:1 10395:1 10584:3 11019:1 11305:1 11698:2 11945:2 13283:1 13695:1 14702:1 14877:1 15255:1 16691:1 17498:1 17655:1 19979:1 20221:1 20904:1 21134:1 22927:1 23790:1 24226:1 25068:1 26394:1 27507:1 27696:1 27904:1 28151:1 28350:1 32577:1 33319:1 36340:2 42031:1 42611:1 
0.0001824514964368598 1:12 2:3 3:2 5:3 9:3 10:1 17:4 19:1 34:1 41:1 45:1 46:1 49:1 79:1 90:1 92:1 97:1 99:1 110:1 113:1 114:2 116:1 129:2 133:2 136:1 142:2 145:6 153:1 157:2 158:1 178:2 186:1 198:1 204:1 208:1 216:1 219:1 221:1 222:1 245:2 249:2 261:6 263:1 276:1 286:1 301:1 303:1 305:1 341:1 360:1 361:1 391:1 466:1 509:1 519:1 546:2 635:4 639:1 640:1 651:1 670:1 671:1 674:1 675:1 679:1 687:1 712:1 718:1 744:1 752:1 753:1 804:2 851:1 869:1 877:1 917:1 948:1 951:3 953:1 1009:1 1023:2 1044:1 1049:1 1060:1 1080:4 1086:1 1091:1 1137:1 1163:1 1175:1 1200:1 1299:1 1335:1 1353:1 1398:2 1483:2 1488:1 1516:1 1560:5 1563:1 1564:2 1593:1 1597:1 1603:1 1639:1 1708:1 1813:1 1901:3 1913:1 1951:1 2001:2 2011:1 2020:1 2032:2 2076:1 2086:1 2127:1 2133:1 2263:2 2273:1 2363:1 2396:1 2570:1 2613:1 2704:2 2709:1 2777:1 2818:1 2848:1 2890:1 2953:1 2980:1 3161:1 3248:1 3251:1 3309:1 3397:1 3452:6 3509:3 3668:1 3740:1 3834:1 3887:1 3891:1 3997:2 4010:3 4096:1 4519:3 4628:1 4687:3 4766:1 4770:1 4786:1 4809:3 4886:1 5161:1 5414:1 5791:1 6153:1 6194:1 6266:1 6367:1 6377:1 6378:1 6479:1 6547:1 6554:1 6560:1 6582:1 6955:1 7038:1 7135:1 7225:1 7299:4 7312:1 7958:1 8873:1 9146:1 9488:1 9748:1 9823:1 9996:1 10058:1 10060:1 10459:1 10529:1 10543:1 10573:1 10612:1 10684:1 11531:1 11587:1 11698:1 11829:1 11891:2 11945:2 12408:1 12519:1 12686:1 13579:1 13614:1 13651:1 13792:1 14052:3 14425:1 14537:1 14546:1 15379:1 16182:1 17135:1 17483:1 17521:1 17586:1 19578:1 20221:1 23835:1 23924:1 25225:1 25339:1 26136:1 27856:1 27904:1 28446:1 28885:1 29191:1 29968:1 30923:1 32794:1 35197:1 35843:2 36314:2 38616:1 40817:1 41049:3 41773:1 42137:1 42538:1 
0.01328719061098778 1:8 8:1 9:1 15:1 29:1 32:2 35:1 41:2 59:1 85:2 89:3 170:1 246:1 340:1 357:1 456:1 574:1 614:1 637:2 639:3 679:1 707:2 759:1 774:1 789:1 797:2 855:1 876:1 893:1 939:2 1152:1 1205:1 1252:1 1273:1 1512:1 1654:1 1710:1 1827:1 1843:1 2022:1 2125:1 2183:1 2239:1 2273:1 2578:1 3056:1 3971:1 3976:1 4194:1 4544:1 4600:1 4637:1 5248:1 5608:1 6084:1 6618:1 6822:1 7405:1 7758:1 7829:1 7840:1 8243:1 8785:1 8890:1 9498:1 9804:1 10061:1 10282:1 10321:1 10765:1 10952:1 12241:1 16250:1 16382:1 16684:2 19671:1 20058:1 21224:1 22226:1 26748:2 27505:1 27624:1 36817:1 40451:1 
0.003153264442456803 1:9 3:1 5:1 7:1 8:1 19:1 20:1 26:1 39:1 41:1 52:1 82:1 89:2 93:1 166:1 177:1 273:1 307:1 311:3 325:1 326:1 355:1 369:1 389:1 391:1 395:2 456:1 483:4 500:1 595:1 754:4 778:1 803:1 840:1 859:2 866:1 912:5 956:1 1076:1 1094:1 1307:1 1314:1 1382:1 1516:1 1588:1 1754:12 1800:1 1865:1 2225:1 2253:1 2267:1 2268:1 2272:1 2419:1 2420:1 2576:2 2650:1 2697:1 2820:1 3029:1 3052:1 3106:1 3171:1 3455:1 3927:1 4297:1 4769:1 4841:1 4914:1 5378:2 5408:1 5432:1 5785:2 6181:1 6602:1 6614:1 6874:1 7029:1 7091:2 7099:1 7756:1 8225:1 8239:2 9667:1 9754:1 12632:1 13814:1 13870:1 14770:1 15493:1 16748:1 17101:1 20237:1 21078:2 24472:1 26905:1 28204:1 28947:4 28963:1 29755:1 31744:1 36024:1 36061:1 36073:1 38482:1 40891:2 
0.006564270810504659 1:11 3:2 4:1 5:5 6:5 9:2 12:1 16:2 18:1 19:1 20:1 29:3 30:3 36:1 37:1 41:1 50:1 52:2 54:1 69:1 90:2 95:1 100:1 101:1 119:3 131:1 153:1 183:1 193:1 195:1 200:2 202:1 263:1 302:1 308:2 311:3 338:1 340:1 349:1 411:2 454:1 477:1 504:1 509:2 534:1 574:3 584:1 619:1 637:1 675:1 699:1 754:1 775:1 789:1 794:1 850:1 852:1 874:1 906:1 912:1 918:1 957:1 996:3 1024:1 1029:1 1032:1 1043:1 1044:1 1090:1 1099:2 1115:1 1200:2 1205:1 1206:1 1214:1 1232:1 1236:1 1280:1 1294:1 1316:1 1380:3 1396:1 1469:1 1516:1 1543:1 1614:2 1643:1 1660:1 1671:1 1725:7 1728:1 1755:1 1809:1 1863:1 2195:1 2254:1 2257:1 2368:1 2684:1 2726:1 2754:1 2781:1 2787:1 3293:1 3320:1 3345:1 3386:1 3512:1 3577:1 3962:1 3996:1 4018:1 4125:1 4126:1 4262:1 4402:2 4544:1 4691:1 4900:1 4999:1 5014:1 5078:1 5122:1 5189:1 5299:2 5363:1 5392:1 5592:1 5789:3 5799:2 5805:1 5818:1 5983:1 6119:1 6199:1 6282:1 6465:1 6489:1 6639:1 6664:1 6922:1 6932:1 7000:1 7091:1 7282:1 7421:2 7828:1 7975:1 7978:1 7983:1 8341:1 8391:1 8591:1 8791:1 8911:2 8943:1 9202:1 9380:1 9766:1 9860:1 9948:1 10036:1 10288:1 10451:1 11342:1 11588:1 11732:1 11744:1 11820:1 12056:1 12256:6 12503:1 12601:1 12818:1 13522:1 14035:1 14411:1 14498:1 14865:1 15701:1 16336:1 17517:1 17758:1 18151:1 18511:1 18538:1 19180:1 21449:1 21717:1 21970:1 22129:1 22662:1 22978:1 24060:1 24531:1 24777:1 24911:1 27054:1 27395:1 27458:1 29047:1 30867:1 31169:1 31445:1 32592:1 35577:1 37962:1 38034:1 38966:1 40442:1 41981:1 42808:3 
0.001849284216554088 1:14 2:3 3:1 5:2 6:1 9:1 10:1 13:2 15:1 18:1 52:1 54:1 60:1 64:1 84:1 100:1 101:2 102:1 103:1 127:1 153:1 168:1 175:1 183:1 186:1 202:1 204:1 209:1 255:3 311:4 317:1 354:1 357:1 379:1 391:1 434:1 456:1 478:2 508:1 587:1 651:1 686:3 695:4 707:2 818:1 860:3 889:1 1000:1 1034:1 1092:2 1176:1 1204:1 1218:1 1241:3 1245:1 1264:1 1270:1 1374:1 1516:1 1535:1 1606:1 1822:1 1846:1 1866:1 1897:2 1946:1 1975:1 2000:3 2012:2 2126:1 2171:1 2204:1 2242:1 2367:1 2400:1 2446:2 2479:1 2531:1 2559:1 2591:3 2602:1 2628:1 2673:1 2698:1 2820:1 2823:2 2886:1 3011:1 3050:1 3071:1 3168:1 3220:2 3232:2 3248:3 3330:1 3385:1 3525:1 3545:3 3809:1 3854:1 4011:5 4204:2 4382:3 4422:2 4607:1 4666:1 4732:1 4886:1 4978:1 5016:1 5061:2 5124:1 5161:1 5317:1 5443:1 5461:1 5914:1 6123:2 6244:3 6311:1 6481:1 6531:1 6601:1 6696:1 6797:1 7171:1 7544:1 7628:1 7646:3 8949:1 9015:1 9546:1 9654:12 10194:1 10663:1 11250:1 11615:3 12122:1 12568:1 13173:1 13276:1 14547:1 16224:1 16600:4 16998:1 17006:1 17354:1 19107:2 21102:1 21469:1 22157:1 23286:2 23890:1 24547:1 24664:1 25313:1 25979:1 26113:1 26718:1 26854:1 28957:1 30759:1 30852:1 31819:1 35469:2 38214:1 39177:1 41542:1 
0.0006030411975917039 1:7 2:1 3:1 4:3 10:1 17:1 20:1 24:2 32:1 38:1 58:3 78:1 83:1 85:6 92:1 99:2 107:2 133:2 157:3 204:1 214:3 216:9 236:2 237:1 250:1 255:1 268:1 277:1 278:1 296:1 325:1 373:1 420:1 456:1 471:1 472:1 483:1 501:1 509:1 524:1 637:1 700:2 748:1 807:1 900:1 926:1 976:1 1088:3 1122:3 1144:6 1191:1 1192:1 1217:1 1219:2 1230:2 1341:1 1416:2 1427:2 1516:1 1672:1 1732:1 1897:1 2012:1 2032:1 2103:2 2211:1 2313:4 2331:1 2357:1 2457:3 2829:1 2907:1 2984:1 2990:1 3067:6 3167:1 3393:3 3568:1 3593:1 3998:2 4010:2 4081:1 4282:1 4307:1 4825:1 4886:1 5165:1 5502:1 5523:1 6374:1 6539:1 6995:1 7675:2 8154:1 8231:1 8312:1 8911:1 9048:1 9673:1 9823:1 9844:1 10636:1 10864:1 10938:1 10941:1 11414:1 11594:1 12376:2 12920:1 13433:1 16280:1 16850:1 18785:1 19132:1 21978:1 23779:1 25162:1 
0.004818054011466125 1:2 2:1 3:1 4:1 10:1 50:1 82:1 87:1 95:3 166:2 197:1 215:1 254:1 255:1 271:1 281:1 300:1 354:1 391:2 434:1 435:1 504:1 507:1 622:1 654:1 657:2 707:1 722:1 768:1 803:1 839:2 1121:1 1200:1 1241:1 1363:1 1409:1 1544:1 1606:1 1643:1 1670:1 2018:1 3174:1 3192:1 3293:1 5915:1 6221:1 6344:1 6660:1 6830:1 7140:1 8247:1 10563:1 16218:1 16250:1 16285:1 17137:1 18272:1 19488:1 21587:1 25391:1 35831:2 41035:1 42240:1 
0.001357029858775373 1:5 2:1 3:2 4:1 5:2 8:2 14:2 15:1 23:4 32:2 35:1 37:1 47:1 52:1 57:1 59:1 102:1 125:1 135:1 144:1 158:2 193:3 194:2 202:1 214:1 226:6 230:1 237:2 269:2 300:1 307:1 318:1 336:1 337:1 352:2 406:1 483:2 574:1 641:1 691:1 695:4 742:1 926:1 1023:1 1218:4 1252:2 1278:1 1301:1 1322:1 1327:1 1386:2 1402:2 1516:1 1534:1 1576:3 1597:1 1619:1 1681:1 1699:2 1704:1 1865:1 1948:1 1951:1 2022:1 2065:1 2111:1 2127:3 2372:1 2379:1 2526:1 2535:1 2672:1 2685:1 2737:1 2823:2 2889:6 2897:1 2898:1 3052:1 3124:1 3322:1 3418:1 3476:1 3504:3 3869:1 3872:1 3933:1 4015:1 4045:1 4266:1 4355:1 4382:2 4630:1 4687:1 4963:1 4973:2 5064:1 5531:1 5910:1 6187:2 6204:2 6496:1 6523:1 6596:3 6840:1 6955:1 7002:2 7411:1 7732:1 7839:1 8188:1 8330:1 8410:1 8695:1 9015:1 9137:1 9345:1 9519:2 9723:1 10017:1 10094:1 10395:1 10726:1 11354:1 11359:4 11488:1 11533:3 11937:1 12053:1 13153:1 13637:1 13860:1 14032:2 14123:1 14358:1 14458:1 14876:1 17249:1 17548:1 17687:1 17907:1 18709:1 20035:1 20456:1 20679:1 21188:1 21469:1 21479:1 21574:1 21735:1 26113:1 26533:1 26800:1 26964:1 26968:1 27500:1 27840:1 37153:1 37959:1 38041:1 39646:1 41904:1 42434:1 42917:1 43023:2 
0.002616154365833642 1:5 3:1 5:1 11:2 16:1 17:1 20:1 24:1 27:2 32:1 53:1 61:1 65:2 84:1 88:1 89:2 101:1 108:1 110:1 129:1 147:4 164:2 214:1 236:2 259:1 264:5 305:1 311:2 314:3 338:1 354:2 355:5 376:1 406:2 443:1 472:1 509:1 551:1 637:1 688:1 753:1 799:1 807:1 889:1 1102:1 1205:1 1245:1 1395:1 1506:1 1516:1 1541:2 1564:7 1619:1 1903:1 1941:1 2470:1 2656:1 2664:1 2859:1 2867:1 2891:3 2977:1 3065:1 3127:1 3280:1 3287:1 3346:1 3478:1 3576:1 3621:1 3655:1 3834:1 3876:1 4374:2 4426:1 4810:1 4919:1 5246:1 5671:1 5685:1 5880:1 6445:1 6913:1 6949:1 7099:1 7191:1 7920:2 8171:1 8322:1 8476:2 8627:1 9816:1 9845:1 10015:1 10818:1 10892:1 11328:1 11666:1 11815:1 12036:1 12210:1 12255:1 13374:1 14571:1 15065:1 15396:1 15718:1 15811:1 17431:1 17950:1 18821:1 19296:1 20014:1 22205:1 22734:1 25307:1 26026:1 32376:1 33676:1 42267:1 42855:1 
0.004060786999584145 1:4 2:1 3:1 5:2 14:1 19:1 27:2 28:1 31:1 42:2 52:1 77:1 83:1 86:1 102:1 113:1 137:1 256:1 293:1 307:1 316:1 349:2 378:3 380:2 401:1 403:2 447:1 484:2 490:1 502:2 571:1 595:2 613:2 619:1 675:1 727:1 742:1 853:1 906:1 907:1 1000:1 1019:1 1047:1 1048:1 1062:1 1130:1 1228:1 1353:1 1375:1 1454:1 1475:1 1481:1 1516:1 1725:5 1759:1 1996:1 2112:2 2212:1 2230:2 2260:1 2725:1 3060:1 4073:2 5463:1 5599:1 5799:2 6343:1 7459:1 7625:1 8591:1 10151:1 11557:1 13980:1 16149:1 17024:1 19262:1 21870:1 26842:1 28805:1 31249:1 33523:1 37781:1 
0.001435347400216971 1:12 2:6 3:2 5:3 8:1 10:2 13:1 20:1 21:1 23:8 26:2 31:2 33:2 44:3 50:1 58:1 61:1 63:2 64:1 66:1 84:1 86:3 110:1 117:3 136:1 143:1 144:1 167:1 174:1 185:1 194:5 201:1 220:1 249:2 258:1 339:1 359:1 372:1 373:1 380:3 406:3 408:2 414:1 440:1 447:1 468:1 502:1 507:1 524:1 604:1 618:1 621:1 660:2 677:1 689:1 726:1 728:1 773:1 804:1 813:7 884:1 905:2 953:1 971:1 982:1 1096:1 1112:1 1238:1 1294:1 1297:2 1402:2 1430:8 1633:1 1668:1 1682:1 1703:1 1727:1 1738:2 1788:1 1903:2 2011:1 2093:1 2105:1 2268:1 2371:1 2458:1 2593:1 2694:1 2773:1 2920:1 3027:1 3042:1 3126:1 3176:1 3255:1 3305:1 3606:1 3617:1 3670:1 3734:1 3758:1 3794:1 4160:1 4200:1 4400:1 4500:1 4956:1 5329:1 5373:1 5441:1 5478:1 5507:2 5723:1 5991:1 6199:1 6267:2 6486:2 6978:1 7006:2 7035:1 7353:1 7625:1 7663:1 7669:1 7993:1 8118:1 8518:1 8876:1 9171:1 9431:1 9546:2 9584:1 9852:1 9954:1 10009:1 10246:2 10513:1 10864:1 11019:1 11301:1 11328:1 11410:1 11648:1 12028:1 12185:1 15421:1 16963:1 17218:1 18128:1 18218:1 18272:1 19005:1 19060:1 20221:1 20300:1 20554:1 21344:1 21733:1 22006:1 22457:1 22682:1 23364:1 23500:1 24438:1 26924:1 30900:1 32472:1 33109:1 35285:1 35704:1 37156:1 39196:1 39264:1 40219:1 
0.003652169821997175 1:11 2:7 3:4 5:3 7:1 10:1 15:2 16:1 17:1 18:2 19:2 23:1 29:4 30:1 31:1 35:1 41:3 45:1 52:1 58:1 63:1 65:2 66:1 69:2 73:1 78:1 91:1 95:1 117:1 126:2 128:1 141:1 142:2 150:1 174:2 200:1 209:1 210:1 226:1 239:1 240:1 252:1 263:1 270:1 293:1 301:1 303:1 323:1 334:1 356:1 357:1 364:1 368:1 372:1 373:1 393:1 397:1 406:3 408:1 432:1 434:1 496:1 502:1 514:1 516:1 556:1 563:4 586:1 593:2 605:1 618:1 634:1 650:1 665:1 679:1 684:1 688:1 696:1 702:3 726:1 761:1 763:1 775:1 776:1 816:3 840:1 850:1 867:4 873:1 875:1 906:1 968:1 988:2 1018:1 1049:1 1113:1 1231:1 1239:1 1242:1 1332:1 1414:1 1523:1 1568:2 1609:1 1673:1 1707:1 1853:1 1932:1 2080:1 2088:1 2114:1 2212:1 2312:1 2317:2 2319:1 2478:1 2543:1 2550:1 2626:7 2664:1 2679:1 2786:1 2808:1 2981:1 3031:2 3042:2 3051:1 3128:1 3143:1 3188:5 3208:2 3296:1 3440:1 3509:1 3695:2 3717:2 3907:1 3938:1 3960:2 4077:1 4081:1 4143:1 4351:1 4471:1 4504:1 4671:1 4724:1 4758:1 4777:1 4802:1 4898:1 5018:1 5026:1 5085:1 5117:1 5256:1 5319:1 5328:1 5776:1 5803:9 5929:1 6206:1 6213:1 6589:1 6735:1 6875:1 6954:1 7026:2 7030:1 7040:2 7265:1 7314:1 7580:1 7621:1 7757:1 7773:1 7824:1 8212:1 8433:1 8556:1 8568:1 8647:1 8674:1 9332:1 9477:1 9872:1 9876:1 9932:2 10370:1 10511:1 10804:1 10867:1 10879:1 10997:1 11602:1 12036:1 12331:1 12349:1 13050:1 13312:1 13697:1 13770:1 14050:1 14284:1 14669:1 14873:1 14958:1 15280:1 15587:1 16187:1 16396:1 17168:1 17423:1 17545:1 18038:1 18542:1 18655:1 18669:1 19703:1 20696:1 20882:1 21853:1 21910:1 22594:1 22659:2 22711:1 23106:1 23262:1 23809:1 24281:1 24341:1 25056:1 26838:1 27718:1 27895:1 28577:1 29019:1 29210:1 29851:1 32548:1 32650:1 33267:1 34904:1 35084:1 36274:1 36519:1 39846:1 40328:1 42868:2 43225:1 
