svm_type c_svc
kernel_type linear
nr_class 2
total_sv 753
rho 0.183862
label 1 -1
probA -3.14965
probB -0.0755123
nr_sv 325 428
SV
0.01284089589494007 6:2 15:2 86:2 186:2 332:1 377:1 495:2 536:1 704:2 842:1 1065:1 1239:1 1423:1 1641:1 2208:3 2442:2 2572:1 2697:1 2817:1 2882:1 3166:1 3468:1 3697:1 3874:1 4273:1 4522:1 4583:1 8351:1 9773:1 9999:1 11203:1 18156:1 
0.0008192582166714446 1:8 2:1 4:1 6:1 8:1 12:1 14:1 15:1 29:2 33:1 57:1 89:1 116:1 130:1 146:1 161:1 204:2 214:1 251:1 259:1 289:1 301:1 332:1 361:1 408:2 422:1 424:1 504:1 559:1 564:1 567:1 573:1 588:1 695:1 704:2 852:1 860:1 892:2 930:1 939:1 1018:1 1049:1 1050:1 1193:1 1244:2 1251:1 1625:2 1740:2 1816:1 2460:1 2572:1 2772:1 2892:1 3008:1 3055:1 3114:1 3181:1 3276:1 3286:1 3470:1 3489:1 3782:1 3872:1 4471:1 4970:1 5017:1 5250:1 5346:2 5581:1 5899:1 5910:1 6428:4 6463:1 7032:1 7450:1 7506:2 8461:1 9040:3 9275:1 9476:1 9837:1 9919:1 10652:1 11246:1 11601:1 11812:1 12215:1 12772:1 13475:1 15084:1 15161:1 17648:2 17736:1 19953:2 20336:1 24530:3 26554:1 26748:2 26775:1 29353:2 31046:1 32045:2 34444:1 34881:1 39385:1 
0.003448713138141964 1:5 4:1 5:2 13:2 14:1 16:4 29:2 30:1 32:1 36:1 37:1 39:1 40:2 41:3 42:1 50:1 52:1 55:2 58:1 64:2 71:3 77:1 83:4 87:1 107:1 129:1 168:1 220:1 254:1 255:1 258:1 259:1 263:1 271:1 282:1 295:1 297:1 315:1 341:1 348:6 373:1 382:1 393:1 401:1 403:2 432:1 457:1 466:1 533:1 582:1 619:2 707:1 712:1 757:1 786:1 803:1 817:1 874:1 913:1 916:1 935:1 952:1 976:1 989:1 1033:2 1075:1 1080:1 1156:1 1175:1 1231:2 1241:2 1283:1 1319:1 1333:1 1353:1 1381:1 1405:2 1479:1 1504:1 1513:1 1529:1 1546:1 1564:1 1619:2 1647:1 1700:1 1742:1 1836:1 1939:2 1942:1 1970:1 1985:1 2047:3 2092:1 2100:2 2115:1 2253:1 2266:2 2274:1 2299:1 2308:1 2313:1 2405:1 2467:1 2577:1 2586:1 2629:2 2794:1 3042:2 3057:1 3109:1 3213:1 3371:2 3531:1 3573:1 3784:1 4031:1 4215:1 4524:1 4617:1 4642:1 5167:2 5227:1 5245:2 5412:4 5785:1 6074:1 6294:1 6426:1 6490:1 6576:1 6617:1 7162:1 7244:1 7294:1 7925:1 8092:1 8706:1 8793:1 9002:1 9015:1 9051:1 9290:1 9667:1 9737:1 9894:1 10038:1 10160:1 10586:1 10755:1 10775:1 10946:1 11596:2 11824:1 12129:1 12503:1 12870:1 13032:1 13133:1 13493:1 13542:1 14022:1 14357:1 16634:1 18145:1 18192:1 18628:1 18669:1 19266:1 19296:1 20200:1 20626:1 22508:1 24000:1 24598:1 25028:1 27428:1 28381:1 33839:1 34617:1 35450:1 37122:1 40015:1 41416:1 43257:1 
0.001619295760747331 1:9 2:6 3:3 5:4 6:1 7:2 11:4 12:2 15:1 16:1 18:1 21:2 27:10 30:1 32:3 37:1 41:2 50:2 51:1 52:1 54:2 56:1 61:6 70:1 77:1 78:3 85:1 87:1 92:6 103:1 107:3 133:1 135:1 147:3 154:1 157:1 158:3 164:2 167:2 169:2 174:2 178:1 186:1 202:1 219:2 220:1 245:1 265:2 279:1 289:1 307:1 313:2 321:1 341:1 349:1 363:1 371:1 375:2 388:1 406:1 411:2 448:1 450:1 481:1 485:1 493:1 494:1 495:2 504:1 519:1 547:1 552:1 561:1 565:1 582:1 622:1 626:5 628:1 650:1 652:1 660:5 750:1 773:3 793:1 815:1 827:2 831:1 851:7 887:1 889:1 896:1 913:1 915:1 932:1 976:1 986:1 995:6 1001:1 1006:1 1033:1 1060:1 1063:1 1067:1 1074:1 1118:1 1144:1 1195:1 1197:1 1200:2 1216:1 1222:1 1237:1 1240:1 1244:1 1294:1 1300:1 1463:1 1487:1 1501:1 1510:1 1528:1 1544:1 1565:1 1611:1 1731:4 1738:1 1749:1 1773:3 1854:1 1913:4 1941:1 1969:1 2012:1 2015:2 2018:1 2044:1 2127:1 2155:1 2166:1 2216:1 2242:1 2272:1 2274:1 2475:1 2599:1 2728:1 2804:1 2811:1 2837:1 2856:1 2887:1 2939:1 3027:2 3069:2 3219:1 3238:1 3271:1 3280:1 3303:1 3457:1 3997:1 4024:1 4105:1 4260:2 4333:1 4363:1 4408:1 4421:1 4546:2 4867:1 5125:1 5129:1 5198:1 5315:1 5385:1 5443:1 5590:1 5685:1 5869:1 6059:1 6316:1 6383:1 6385:1 6697:1 6871:1 6934:1 6959:1 7191:2 7317:1 7422:1 7439:1 7510:1 7745:1 7983:1 8013:1 8041:1 8143:1 8446:1 8489:1 8516:1 8961:2 9085:1 9480:4 9547:1 10099:1 10287:2 10460:1 10595:1 10652:1 10798:1 11690:4 11919:1 11948:1 12026:1 12242:1 12408:1 12563:1 12779:1 13293:1 13418:1 13665:1 14015:1 14155:1 14171:1 14651:1 14663:1 14737:1 15338:1 15770:1 16421:1 16470:2 16877:1 17174:1 17253:1 18147:1 18330:1 18882:2 19023:2 19773:1 19844:1 20053:1 20694:1 21358:1 21952:1 22211:1 23145:1 23779:1 25417:1 26006:1 28083:1 28922:1 29522:1 29603:1 29866:1 37477:1 39064:1 41253:1 
0.0003339666811554504 1:3 2:2 6:1 12:1 15:1 22:1 55:1 59:2 89:1 128:5 140:1 163:9 169:1 248:1 314:1 326:1 329:1 341:1 351:1 438:1 452:1 463:1 495:1 528:2 771:1 802:1 806:1 850:1 871:2 893:1 914:1 1091:1 1098:2 1137:1 1167:1 1234:1 1269:1 1424:1 1653:1 1712:1 1809:1 1930:1 2050:1 2285:1 2328:1 2487:1 2939:1 3053:1 3166:2 3907:1 3916:1 4105:1 4128:1 4597:1 4721:1 4791:1 5194:1 5387:1 5464:1 5488:1 5714:1 5769:1 5820:1 5984:2 6229:1 6319:2 6505:1 6979:1 7794:1 7901:1 8293:1 9730:2 10629:1 10648:1 10654:1 11294:1 11518:1 11844:1 12028:1 13077:1 13122:1 14937:1 15653:1 16681:1 17906:1 18835:1 19625:2 23068:1 26452:1 27826:1 30470:1 32985:1 34617:1 34829:1 35596:1 35795:1 38965:1 
0.001606473845310905 1:12 2:1 5:1 6:3 9:1 12:1 13:1 20:1 24:1 47:1 58:3 87:1 121:1 244:1 253:1 276:1 312:2 349:1 351:1 377:3 415:1 425:2 461:1 505:1 522:1 575:1 701:1 725:1 773:1 780:1 794:1 814:1 855:1 856:4 912:1 1079:1 1089:1 1100:2 1108:1 1157:1 1330:1 1361:1 1458:1 1512:1 1553:1 1573:2 1588:1 1594:1 1645:2 1732:1 1756:1 1770:2 1918:3 1944:1 2019:1 2359:2 2386:1 2415:1 2478:1 2541:1 2741:1 3249:1 3326:1 3504:1 3627:1 3782:2 4154:1 4189:1 4416:1 4867:1 4933:1 4967:1 5248:1 5463:1 5518:1 5741:2 5782:1 5955:3 6140:1 6276:1 6338:1 6484:1 6497:2 6532:2 6762:1 6911:2 7574:7 7703:1 7847:1 7897:1 7985:1 8153:1 8237:1 8263:1 8264:1 8346:1 8625:1 8801:1 9346:1 9464:1 9639:1 10059:1 10270:1 10325:1 10536:1 10734:1 10881:2 11174:1 11464:1 11771:1 12246:1 12487:1 12508:1 12549:1 12681:1 13073:1 13296:1 13700:1 13760:1 13829:1 13948:1 14133:1 15212:1 15431:1 15741:1 15763:1 16412:1 16730:1 17110:2 17264:1 17675:1 17807:2 18260:1 18263:1 18625:1 18701:1 19355:1 19766:1 20650:1 20728:1 21568:1 21604:1 22462:1 22606:1 23136:1 24938:1 25230:1 25517:1 26614:1 28084:1 28563:2 29553:1 31156:1 32798:1 33145:1 34130:1 35015:1 35200:1 35515:1 35538:1 36618:1 37474:1 37573:1 37861:1 40096:1 40218:1 40237:1 40273:1 40596:1 
0.004802623172472896 1:17 2:2 3:5 5:2 6:1 7:2 8:1 9:1 11:2 15:2 17:1 19:2 21:1 27:1 33:1 34:3 35:4 39:6 45:2 50:1 53:1 65:1 73:1 92:4 94:1 115:1 120:3 128:1 129:1 148:1 150:1 151:1 157:3 160:1 162:1 163:1 168:1 170:2 172:2 195:1 200:1 211:1 221:1 225:2 240:3 241:1 244:1 255:2 256:1 262:1 266:1 295:2 305:1 315:3 319:1 333:1 336:1 337:1 341:1 345:1 346:1 351:1 356:1 358:2 372:1 386:1 394:1 399:1 410:1 437:1 446:2 450:1 459:1 463:2 474:16 482:1 484:1 490:1 499:1 521:1 532:1 540:1 545:1 558:1 600:1 604:2 632:1 655:1 658:2 677:1 696:1 699:1 706:2 734:1 751:1 765:2 768:1 779:1 794:1 803:1 806:1 862:1 871:1 879:1 895:1 909:1 915:1 923:1 934:1 935:2 940:1 969:1 1042:1 1063:2 1093:1 1120:1 1134:1 1144:2 1151:1 1174:2 1198:2 1224:1 1227:1 1231:1 1246:1 1266:1 1289:1 1290:1 1303:1 1307:2 1317:2 1326:1 1329:1 1343:4 1351:1 1365:1 1393:1 1401:1 1403:1 1435:1 1480:2 1483:1 1513:1 1621:1 1628:1 1705:2 1738:1 1823:1 1843:1 1895:1 1903:1 1906:1 1927:1 1936:1 1973:1 1974:1 1978:1 1982:1 2037:1 2050:1 2087:2 2095:2 2237:1 2261:1 2274:1 2411:1 2472:1 2476:1 2538:3 2705:1 2781:1 2930:1 2956:2 3030:1 3256:1 3277:1 3303:1 3371:2 3467:1 3469:1 3513:1 3537:1 3579:1 3582:1 3659:1 3677:1 3832:1 3848:3 3853:1 3909:1 3947:1 3948:1 3969:1 4139:1 4149:1 4338:1 4505:1 4558:1 4580:1 4639:1 4661:1 4794:1 4808:2 4846:1 4853:1 4911:1 4917:1 4925:1 5034:1 5086:1 5433:1 5522:2 5615:1 5689:1 5792:2 5902:1 6096:2 6131:1 6170:1 6298:1 6335:1 6663:1 6685:1 6693:1 6765:1 6819:2 6937:1 7115:1 7206:1 7241:1 7284:1 7303:1 7315:1 7334:7 7662:1 7987:1 8010:1 8096:1 8109:1 8311:1 8344:1 8707:1 8845:1 9058:1 9146:1 9831:2 9938:1 9976:1 10300:1 10419:1 10691:1 10711:1 10874:1 10984:1 11104:1 11155:1 11947:1 11971:1 12375:1 12612:1 12940:1 13195:1 13255:1 13298:2 13398:1 13419:1 13431:1 13593:1 14195:1 14196:1 14511:1 14591:1 14856:1 14857:1 15010:1 15086:1 15154:1 16342:1 16435:1 16573:1 16595:1 17627:1 17759:1 17852:1 17906:1 18132:3 18428:1 18500:1 18550:1 18630:1 18786:1 19272:1 19280:1 19381:1 20314:1 20347:1 20555:1 21769:1 21782:1 21882:1 22189:1 22378:1 22467:1 22482:2 22671:1 23253:1 23453:1 23457:1 23580:1 25266:1 25828:1 28834:1 30055:1 31030:1 34140:1 34706:1 34920:1 35458:1 35968:1 36172:1 36307:1 37079:1 37754:1 37892:1 38067:1 40330:1 41695:1 43081:1 
0.001170461491005194 1:5 2:3 3:2 5:1 7:1 8:1 13:2 14:1 16:4 17:1 18:1 20:1 24:2 30:1 32:1 35:1 52:1 57:1 78:2 79:1 86:1 113:1 118:1 135:1 180:2 239:1 249:1 255:1 297:1 299:4 307:1 317:1 334:1 344:1 373:1 409:1 430:1 464:1 469:1 483:1 504:1 534:1 552:1 567:1 612:2 626:1 641:1 712:1 729:1 761:2 799:2 872:1 873:2 910:1 943:1 982:2 983:1 1005:8 1099:1 1192:1 1240:1 1245:1 1385:1 1415:1 1427:2 1513:1 1532:1 1559:1 1596:1 1608:1 1609:1 1622:1 1897:1 1932:1 1954:2 1962:1 1974:1 2012:1 2075:1 2141:1 2157:1 2240:2 2335:1 2366:1 2432:4 2441:1 2499:1 2773:1 2840:1 2847:2 2862:1 2920:1 3067:1 3088:3 3422:1 3509:5 3540:1 3594:1 3670:1 3919:2 4002:1 4118:1 4369:1 4423:1 4451:1 4556:1 5093:1 5629:4 5739:1 5800:1 5910:1 6153:1 6239:1 6385:1 6541:1 6888:1 7343:1 7432:2 7483:1 7502:3 7693:1 8767:1 9035:1 9132:1 9171:1 9302:1 9358:1 9801:1 9850:1 9882:3 10636:1 10998:1 11815:1 12327:1 12397:1 12446:1 12480:1 13214:1 14171:2 15543:1 15811:1 15904:1 16225:1 16624:1 17197:1 17401:1 21573:8 23458:1 23735:1 23954:1 24653:1 25721:1 28620:1 30712:1 31384:1 33308:1 37336:1 40735:1 
0.009269686385382099 1:1 2:2 3:2 8:1 9:1 24:2 26:1 31:1 34:1 35:2 45:1 48:1 118:1 143:1 168:1 198:1 209:1 242:1 268:1 367:1 374:2 375:1 391:1 417:1 456:2 480:1 491:1 492:1 514:1 576:1 584:2 827:3 988:1 1125:1 1235:1 1437:1 1488:1 1805:1 1902:1 2313:2 2346:1 2526:2 2927:1 3053:1 3058:1 3550:1 3671:1 3960:1 4122:1 4212:2 4230:1 4308:1 4347:1 4482:1 4680:1 5203:1 5443:1 5466:1 5739:1 8088:1 8337:1 8660:1 8835:1 9645:1 9659:1 9844:1 10025:1 10378:1 11314:1 11666:1 11911:1 11930:1 12159:1 12632:2 13441:1 15649:1 15863:1 16274:1 16339:1 17877:1 18077:2 20813:1 21177:1 23219:1 24023:1 25262:1 25847:1 34619:1 34670:1 36576:1 36858:1 
0.00101412747933892 1:22 2:6 3:6 4:1 5:8 6:7 7:3 10:4 11:1 12:1 13:1 14:1 15:1 16:7 17:3 18:1 22:1 23:2 27:13 29:2 30:3 31:1 32:1 33:1 35:1 36:1 37:1 39:2 41:1 42:2 46:2 47:1 49:1 51:1 52:9 53:1 66:2 67:5 75:2 78:2 79:2 80:1 81:3 82:1 88:1 89:1 90:3 91:1 93:1 96:1 98:1 101:1 114:1 116:2 125:4 147:1 168:1 177:3 180:2 198:1 200:1 216:1 224:1 225:1 232:1 242:7 249:1 258:1 264:2 292:1 297:1 300:1 302:1 311:3 326:1 327:2 349:2 355:3 367:1 371:4 372:1 380:1 394:3 397:1 402:1 411:2 443:2 455:2 484:4 502:1 509:2 518:1 533:7 543:3 565:3 567:2 570:1 579:1 590:1 605:1 609:1 619:9 626:3 627:1 644:1 652:1 655:1 665:1 668:1 686:2 696:1 712:4 720:1 725:1 726:1 739:6 763:1 786:2 791:12 803:1 824:1 838:1 855:1 895:1 924:7 939:1 943:1 968:1 982:1 984:1 988:1 1016:1 1025:1 1032:3 1055:1 1069:1 1089:1 1108:1 1121:1 1130:1 1137:2 1185:1 1212:1 1269:1 1278:1 1313:1 1375:6 1387:1 1399:1 1405:5 1423:1 1443:1 1481:1 1496:1 1507:1 1559:1 1582:1 1588:1 1614:1 1617:1 1619:1 1627:1 1634:1 1637:1 1654:1 1684:1 1700:1 1710:1 1725:29 1733:1 1793:1 1799:1 1869:1 1910:1 1934:1 2013:5 2027:1 2053:1 2076:1 2078:2 2112:1 2124:1 2129:1 2159:1 2161:3 2195:1 2238:1 2247:1 2253:1 2303:1 2314:1 2351:1 2423:1 2431:1 2462:1 2505:1 2506:1 2675:1 2700:1 2706:1 2708:1 2723:2 2727:1 2760:1 2772:1 2815:1 2830:1 2833:1 2842:1 2855:1 2858:1 2875:1 2890:1 2932:1 2956:1 2972:2 2982:1 3012:1 3032:1 3056:1 3068:1 3215:1 3219:1 3339:2 3360:1 3376:1 3397:1 3509:1 3515:1 3523:1 3527:1 3531:1 3533:1 3539:1 3559:2 3577:1 3617:1 3720:1 3729:1 3798:1 3848:2 3861:1 4000:2 4013:1 4027:4 4028:1 4050:1 4084:2 4262:1 4365:2 4379:1 4423:1 4461:2 4533:1 4575:1 4597:2 4616:1 4628:1 4653:1 4678:1 4689:1 4887:1 4889:1 5013:1 5026:1 5062:1 5124:1 5174:1 5189:2 5310:1 5446:1 5585:1 5600:1 5697:1 5708:1 5709:1 5799:5 5928:2 5972:1 5983:1 6149:1 6208:1 6290:1 6399:1 6460:1 6473:1 6489:1 6542:1 6673:1 6688:1 6737:1 6854:1 6922:3 6956:3 7095:1 7147:1 7217:1 7256:1 7450:2 7562:1 7625:1 7691:1 7697:1 7829:3 7905:1 8080:1 8106:1 8209:1 8219:1 8347:1 8511:1 8540:1 8787:1 8793:1 8884:3 8973:1 9131:1 9142:1 9163:1 9174:1 9257:1 9293:1 9319:1 9927:1 10228:1 10331:1 10889:3 10973:1 11249:2 11431:1 11504:1 11668:1 11732:1 11917:1 12028:1 12255:1 12284:2 12330:3 12447:1 12606:1 12709:1 12972:1 13107:1 13312:1 13765:1 13865:1 13901:1 14081:1 14444:1 14487:1 15293:1 15545:1 15591:1 16171:1 16322:1 16467:1 16689:1 16896:1 17064:2 17447:1 17484:1 17539:1 17744:1 17903:1 18070:1 18609:1 18898:1 19041:1 19389:1 19568:1 19733:1 20369:1 20407:1 20945:1 20995:1 21295:1 21694:1 21861:1 22807:1 23168:1 23247:1 23346:1 23998:1 24234:1 24501:2 24675:1 24792:1 26319:1 26432:1 26473:1 27054:2 27236:2 28168:1 28889:1 30835:1 31046:1 33082:1 33379:1 33509:1 33918:1 35035:1 35914:1 36834:1 37005:1 38937:1 39841:1 39869:1 39930:1 40209:1 40644:1 40681:1 40887:1 40950:1 41438:1 
0.001093131022950654 1:11 2:3 3:3 4:1 5:3 6:1 8:8 9:2 10:1 12:1 13:1 16:1 17:1 19:1 20:1 21:1 23:1 24:1 25:1 26:1 35:5 36:1 38:1 41:1 42:1 45:1 52:1 64:1 66:1 71:2 91:1 107:5 109:1 125:1 131:1 139:2 143:1 147:1 157:1 159:1 162:1 168:1 184:3 202:1 204:1 215:3 218:1 246:1 249:3 254:3 263:1 266:1 276:1 290:1 297:1 305:1 315:2 317:1 318:1 319:1 356:2 359:1 363:1 367:1 396:1 399:1 409:4 421:1 433:1 441:1 466:6 500:1 508:1 515:1 533:1 539:1 543:1 558:1 565:2 567:1 603:1 619:2 633:12 635:6 639:1 641:1 743:1 786:2 804:1 805:1 817:2 839:3 860:1 882:1 891:1 916:2 921:1 936:1 939:3 967:1 999:2 1019:1 1020:1 1044:1 1075:5 1088:4 1121:1 1124:1 1131:1 1156:4 1175:1 1189:1 1208:1 1216:1 1248:1 1272:2 1288:1 1328:1 1342:1 1373:2 1416:1 1477:2 1478:1 1496:1 1520:1 1525:1 1545:1 1564:2 1618:1 1639:1 1652:1 1673:1 1713:1 1756:1 1768:1 1789:2 1798:1 1808:1 1910:4 2047:1 2085:1 2115:1 2160:1 2276:1 2353:1 2492:1 2506:1 2515:1 2522:1 2594:1 2629:1 2661:1 2695:1 2853:1 2867:2 3128:1 3151:1 3255:1 3311:1 3456:1 3998:1 4229:1 4328:1 4342:1 4578:1 4671:1 4753:1 4812:1 5076:1 5144:1 5245:2 5250:2 5292:1 5547:1 5642:1 5785:7 6051:1 6220:1 6503:1 6555:2 6617:1 6867:1 6900:1 6990:1 7115:1 7438:1 8143:2 8162:1 8225:1 8408:4 8534:1 8614:1 8767:1 8805:1 8845:1 9526:2 9552:1 9625:1 9667:1 9766:1 9831:1 9984:2 10004:1 10371:1 10406:1 10563:1 10706:1 10747:1 11048:1 11241:1 11704:1 12264:1 12984:1 13307:1 14123:2 14688:1 14805:1 17014:1 17069:1 17454:1 17533:1 17552:1 17802:1 18362:1 18656:1 19306:1 19569:2 20051:1 20403:1 20434:1 21242:1 21286:1 22383:1 24098:1 24854:1 24891:1 25793:1 26684:1 26702:9 26866:1 27610:1 32444:1 33389:1 34840:1 37479:1 
0.000782878894890126 1:7 2:2 7:1 13:1 14:1 19:1 20:1 21:2 22:1 29:1 34:1 37:1 40:2 41:3 42:1 52:1 59:1 61:1 64:1 65:3 73:1 81:1 85:1 91:1 93:2 95:1 96:1 98:1 108:1 121:1 129:1 169:1 186:1 198:1 236:1 237:3 282:3 283:1 301:1 315:1 318:1 330:1 349:1 351:1 364:3 398:1 400:1 447:1 469:1 478:1 479:1 482:2 505:1 526:2 544:1 545:1 556:1 584:1 636:1 658:4 677:2 679:1 693:1 707:1 786:1 799:1 835:1 887:1 894:1 923:1 943:1 944:1 952:1 1035:1 1108:1 1111:2 1143:1 1193:2 1201:1 1276:1 1283:1 1291:1 1314:1 1420:1 1486:1 1493:1 1499:1 1528:1 1582:1 1597:1 1704:1 1738:1 1739:3 1791:1 1852:1 1853:1 1864:7 1885:3 1942:1 1943:1 1970:1 2113:1 2144:1 2212:1 2223:3 2234:1 2304:1 2430:1 2462:1 2522:1 2552:1 2568:1 2599:1 2645:1 2648:1 2859:1 2898:1 2944:1 3159:2 3241:1 3337:1 3407:1 3442:2 3448:1 3487:1 3493:3 3500:1 3529:1 3565:1 3629:1 3640:2 3669:1 3710:1 3928:1 3960:1 3982:1 4045:1 4051:1 4065:2 4121:1 4146:1 4249:5 4292:1 4455:1 4514:1 4750:1 4872:1 4956:1 5166:1 5219:1 5307:1 5342:1 5604:1 5671:1 5716:1 5781:1 5868:1 5973:1 6188:1 6195:1 6361:1 6652:1 7027:1 7088:1 7286:1 7619:1 7767:1 7794:1 8391:1 8643:2 8706:1 8767:1 9217:1 9252:1 9730:2 9948:1 10033:1 10079:1 10439:1 10534:1 10542:1 10734:1 11149:1 11211:1 11232:1 12283:1 12296:1 12466:1 12501:1 12574:1 12596:1 12712:1 12907:1 13537:1 13577:1 14055:1 14891:1 15381:1 15754:1 16885:1 17397:1 19387:1 19798:1 19904:1 21151:1 21523:1 23144:1 24631:1 25088:1 25487:1 25555:1 25611:1 25965:1 27244:1 27688:1 28225:1 28980:1 30705:1 31000:1 31849:1 32226:1 32246:1 32637:1 33053:1 34029:1 34077:1 35627:1 36307:1 37926:1 37971:1 38134:1 38578:1 39710:1 
0.004050589575677626 1:11 2:3 3:2 5:1 6:1 9:1 10:1 26:1 33:2 36:2 49:1 80:1 102:1 115:1 144:1 146:1 161:2 172:1 204:4 214:2 273:1 296:1 336:1 339:1 426:1 448:1 454:1 459:1 487:2 553:1 567:1 609:1 622:1 624:1 681:1 748:1 785:1 813:1 847:5 860:2 874:1 892:4 949:1 1244:3 1281:1 1343:1 1377:1 1419:1 1442:1 1467:1 1536:2 1625:1 1671:1 1784:1 1813:1 2091:1 2195:1 2251:2 2583:1 2611:1 2717:2 2809:1 2972:1 3063:1 3238:1 3270:1 3770:2 3782:1 4112:1 4210:1 4411:1 4496:1 4522:1 4772:1 4836:1 5013:1 5017:2 5171:1 5346:3 5730:1 5956:1 6428:1 6996:1 7117:1 7506:4 8461:1 9559:1 9761:1 9865:1 10332:2 11601:2 11624:1 11722:3 12227:1 12361:1 12576:1 13102:1 13134:1 13454:1 14087:1 14527:1 14680:1 15314:1 15642:1 15874:1 15875:1 16113:1 16189:1 18172:1 19306:1 20069:1 20249:1 24397:1 24642:1 24684:1 26935:2 27390:1 28443:1 33095:1 36008:1 36227:2 36553:1 38101:1 38198:1 38550:1 42086:1 
0.0004308834943352193 1:17 2:3 3:2 9:1 11:5 12:1 16:1 20:2 31:1 38:1 42:1 47:2 48:1 50:1 53:1 65:3 69:1 71:2 78:1 80:1 85:1 88:1 95:1 101:2 119:1 129:3 138:2 181:1 198:1 200:1 201:1 246:2 267:1 275:1 293:1 306:2 310:1 330:1 334:1 345:4 388:1 417:1 437:1 450:1 452:1 465:3 469:1 477:1 528:1 546:1 557:1 559:1 567:1 593:1 602:1 638:1 685:1 702:1 710:1 713:2 721:1 766:1 808:1 845:1 859:1 872:1 891:1 915:1 923:1 927:1 963:1 984:1 1016:1 1050:1 1086:1 1109:1 1198:1 1204:1 1226:1 1410:1 1461:1 1495:2 1558:1 1618:1 1663:2 1680:1 1698:1 1717:1 1869:1 1872:1 1937:1 1965:1 1971:1 2048:1 2149:1 2261:1 2323:1 2344:2 2369:1 2612:1 2614:1 2623:1 2698:1 2782:1 2831:1 2888:3 2941:1 3040:1 3063:1 3073:1 3106:1 3177:1 3213:1 3252:1 3268:2 3410:1 3510:1 3527:1 3557:1 3590:1 3728:1 3828:1 3909:1 3953:1 4007:1 4160:1 4189:2 4194:1 4334:1 4353:2 4566:1 4631:1 4652:1 4728:2 4832:1 4911:1 4993:2 5049:1 5111:1 5199:1 5218:1 5250:1 5312:1 5357:1 5382:1 5401:1 5411:1 5574:1 5596:1 5659:1 5702:2 5717:1 5850:1 5951:1 5955:1 6099:1 6290:1 6436:1 6747:1 6763:1 6835:1 7017:2 7162:1 7367:1 7427:1 7442:1 7492:1 7715:1 8425:1 8489:1 8503:1 8700:1 8771:1 8846:1 8899:1 8937:1 8956:7 9275:1 10489:1 10659:1 10692:1 11115:2 11387:1 11474:1 11651:1 12621:1 13159:1 13464:1 14586:1 14817:1 16210:1 16411:1 16610:1 16686:1 16709:1 16726:1 16961:1 17376:1 17804:1 17925:1 19148:3 19290:2 19600:1 19748:1 20103:1 22217:5 22368:1 22752:1 23453:1 23459:1 25896:1 28287:1 28324:1 28929:1 29742:1 30448:1 30927:1 31829:1 31865:1 32085:1 32919:1 33358:1 34139:1 38175:2 42455:1 42785:1 
0.0004733197861091872 1:33 2:3 3:1 6:6 7:1 9:2 12:1 14:2 15:3 19:2 20:1 30:1 32:1 38:1 44:2 47:1 48:1 51:2 58:3 63:2 64:1 68:3 69:3 77:2 81:1 83:1 85:11 86:1 87:1 95:1 108:1 109:1 114:1 115:1 129:1 138:4 141:1 144:1 148:1 160:1 163:1 166:1 182:1 191:1 194:1 196:1 198:3 200:1 208:2 217:1 249:1 251:1 252:5 261:2 309:1 351:1 361:1 365:1 383:1 412:1 425:2 437:1 449:2 450:2 452:2 465:1 471:1 474:1 490:1 494:1 505:1 511:1 545:1 572:1 574:1 575:4 595:1 599:3 622:1 641:1 669:1 694:1 703:1 704:1 707:1 718:1 740:2 784:3 792:1 802:3 810:1 856:3 875:1 892:3 930:2 957:2 972:1 973:1 981:1 1002:2 1066:1 1152:1 1251:1 1254:2 1258:1 1260:1 1290:1 1300:1 1345:1 1353:1 1383:2 1428:1 1461:1 1500:2 1502:1 1507:1 1519:1 1567:1 1573:5 1579:1 1600:1 1627:1 1653:1 1726:2 1770:3 1918:1 2029:4 2040:1 2092:1 2099:1 2113:1 2149:1 2199:1 2231:2 2241:1 2244:1 2328:1 2344:1 2349:1 2359:3 2373:2 2386:1 2464:1 2475:1 2482:1 2524:1 2538:1 2572:1 2581:2 2608:1 2626:1 2682:1 2724:1 2758:1 2799:1 2807:1 2813:2 2850:2 2866:1 2902:1 2945:2 3106:1 3196:1 3281:1 3415:1 3476:1 3506:2 3551:1 3556:1 3591:1 3693:1 3704:1 3741:1 3808:1 3860:1 3905:1 4047:1 4137:2 4237:1 4273:2 4289:2 4296:2 4322:1 4325:1 4366:1 4372:1 4437:1 4438:1 4469:1 4514:1 4673:1 4675:1 4763:6 4867:4 4903:1 4924:1 5096:1 5099:1 5327:1 5557:2 5595:1 5625:1 5875:1 5943:1 5974:1 5997:1 6025:1 6078:1 6145:1 6160:1 6237:1 6258:1 6277:1 6438:2 6473:1 6573:1 6911:2 6965:1 7088:1 7099:1 7112:1 7123:1 7200:1 7320:2 7373:1 7590:1 7740:3 7814:1 7861:1 7875:1 7902:1 7909:1 7962:2 8192:1 8211:1 8233:1 8257:1 8298:1 8314:1 8367:1 8506:3 8525:1 8532:1 8606:1 8949:1 9018:1 9041:2 9366:1 10105:1 10176:1 10233:3 10301:1 10555:1 10627:1 10676:1 10733:1 10741:1 10782:1 11118:1 11278:1 11313:1 11409:1 11413:1 11494:1 11532:2 11595:1 11629:1 11668:1 11719:1 11943:1 12061:1 12173:1 12385:2 12508:1 12524:1 12563:1 12715:2 12857:2 12905:1 13230:1 13247:1 14105:1 14118:1 14175:1 14400:1 14504:1 14714:1 14987:1 15318:1 15362:1 15479:1 15484:1 15705:1 15716:1 15818:1 15835:1 16410:1 16508:1 17326:1 17502:1 17665:1 17911:1 17918:1 17925:1 18563:1 18627:1 18890:1 19046:1 19241:1 19273:1 19994:1 20485:1 20618:1 21025:1 21170:1 21184:1 21246:1 21349:2 22086:1 22160:2 22250:1 22510:3 22550:2 22664:1 23067:1 23291:2 23346:1 23479:1 23661:1 23729:1 23744:1 24081:1 24249:1 24255:2 24296:1 24996:1 25788:1 26169:1 26673:1 26987:1 27136:2 27529:1 27533:1 27535:1 27939:1 28259:1 28363:1 28671:2 28712:1 28818:1 28824:1 29018:1 29540:1 30768:1 30988:1 31987:1 32151:1 32533:1 32581:1 32627:1 32956:1 34273:1 34318:1 34563:1 35245:1 35682:1 35703:1 36639:1 37304:1 37624:1 37749:1 37819:1 38085:1 38369:1 38495:1 39167:1 39209:1 39468:1 40066:1 40551:1 41395:1 41571:1 41654:1 41683:1 43205:1 
0.004008330905847394 1:7 2:1 3:1 4:1 6:5 7:1 15:2 20:1 26:1 27:3 29:1 33:1 53:1 57:1 95:2 126:1 147:3 190:1 199:1 219:3 283:1 311:2 340:1 346:1 425:1 430:1 463:1 480:1 493:1 495:1 501:1 513:1 556:1 574:1 632:3 654:2 675:1 690:1 719:2 787:1 842:1 856:1 976:2 984:1 1043:1 1045:1 1277:1 1302:1 1390:1 1476:2 1611:1 1628:1 1770:1 1796:1 1852:1 1865:1 1893:1 1979:1 2069:1 2123:1 2232:1 2301:1 2359:1 2697:1 2900:1 2939:2 3043:1 3049:1 3166:1 3174:1 3286:1 3367:1 3468:1 3541:1 3685:1 3729:1 3745:1 4084:1 4105:1 4691:1 5171:1 6118:1 6279:1 6673:1 7543:1 7794:3 7872:1 7921:1 8268:1 9698:1 10453:1 10487:1 10693:1 11612:1 12176:1 12258:1 12417:1 12711:1 13645:1 14707:1 15107:1 15646:1 16209:2 16311:3 16616:1 17480:1 20023:1 21566:1 26025:1 27196:1 29448:1 30783:1 32305:2 34047:2 34662:1 34753:1 39083:1 43209:1 
0.0003035313527525192 1:9 2:2 3:1 5:1 9:1 12:2 16:1 17:1 25:1 27:1 41:6 46:1 65:1 70:1 71:1 79:2 101:1 121:1 125:1 132:1 158:1 171:4 172:2 184:3 223:1 249:1 263:1 283:2 297:1 303:1 341:1 353:1 378:4 393:2 476:1 533:1 551:1 650:1 765:1 773:1 811:1 877:1 882:1 886:1 953:2 968:1 1045:1 1099:1 1108:1 1152:1 1185:1 1241:1 1248:1 1255:1 1339:2 1372:2 1411:1 1435:4 1464:2 1559:1 1595:1 1630:1 1812:1 1859:1 1970:2 2090:1 2127:1 2347:1 2402:1 2583:2 2590:1 3019:1 3024:2 3099:1 3216:1 3293:1 3509:1 3523:1 3531:1 3598:4 3659:1 3683:1 3873:1 4077:1 4178:1 4185:3 4698:1 4825:2 5158:2 5185:2 5299:1 5381:1 5585:1 5789:1 6301:1 6304:2 6555:1 7502:2 7853:1 8541:1 8589:1 8846:1 9043:3 9605:1 9781:1 9943:1 10781:1 11889:1 12139:1 12255:1 12617:1 12640:1 13367:1 13378:1 14007:1 14334:1 14379:4 15075:1 15291:1 15348:3 16283:1 16629:1 17870:1 18281:1 18387:1 21703:1 21936:1 22051:1 23414:1 23647:1 25864:1 27374:1 27522:1 29112:1 34657:1 40290:1 
0.002475932871914477 1:9 2:4 3:1 4:1 9:2 14:1 18:1 20:1 28:6 31:2 32:1 34:1 35:1 46:8 47:1 48:1 56:1 60:3 70:1 81:1 83:1 102:1 105:2 114:2 144:2 151:2 159:1 167:1 172:1 174:1 183:3 184:1 193:3 203:1 218:1 223:2 226:1 250:2 269:1 281:1 283:3 299:1 345:1 349:1 355:6 369:1 382:2 393:1 413:1 434:1 435:4 454:1 476:1 510:1 523:1 546:1 552:1 564:1 602:1 714:1 778:1 795:8 825:1 827:1 900:1 910:1 959:1 1082:1 1117:1 1176:1 1192:1 1207:1 1249:2 1270:2 1314:1 1394:1 1448:1 1491:1 1510:2 1691:1 1709:1 1730:4 1888:1 2000:1 2045:4 2091:1 2126:1 2147:2 2276:1 2299:2 2595:2 2779:1 2797:1 2825:1 2829:1 3024:1 3030:1 3105:1 3106:1 3161:1 3316:2 3360:2 3545:1 3993:2 4199:1 4229:1 4499:1 4716:1 4902:1 5344:1 5556:2 5841:1 5919:1 5942:1 6106:1 6176:1 6215:1 6597:1 6861:1 6883:1 7169:1 7309:1 7492:1 7991:1 8125:1 8726:1 8869:1 8970:2 9448:1 9592:1 9600:2 9670:1 9819:1 10135:2 10203:1 10525:2 11528:2 11533:1 12000:1 12005:1 12299:1 12906:1 14548:1 16881:1 17036:1 18728:1 19898:1 20203:1 20440:1 21298:1 21884:1 22822:1 23523:2 25045:1 26691:1 27154:1 29018:1 30576:1 31727:1 32980:1 34491:1 
0.001978458333510724 1:7 2:1 3:1 12:1 14:1 18:1 19:4 21:1 37:5 44:1 53:1 57:1 63:1 64:2 73:1 85:1 110:1 121:1 154:2 169:1 176:2 195:2 256:1 332:2 343:1 374:1 377:1 384:1 396:1 400:1 430:1 433:2 438:1 457:1 467:1 480:1 499:1 522:1 533:1 556:1 563:1 644:1 651:1 698:1 735:1 748:1 756:1 766:1 796:1 798:1 804:1 816:1 983:1 1061:1 1097:1 1114:1 1182:1 1193:1 1221:1 1232:1 1254:1 1320:1 1335:1 1365:1 1366:1 1393:2 1456:1 1542:1 1554:1 1573:1 1649:1 1747:1 1756:1 1770:1 1834:1 1840:1 1854:1 1863:3 1971:1 2043:3 2046:1 2159:1 2227:2 2275:1 2342:1 2359:1 2403:1 2490:1 2514:1 2580:1 2610:1 2619:1 2665:1 2732:1 2736:1 2841:2 2869:1 2953:2 2997:1 3004:1 3031:1 3088:1 3268:3 3296:1 3335:1 3474:4 3497:1 3516:1 3815:1 3860:1 3965:1 3986:1 4241:1 4255:1 4347:1 4566:1 4652:1 4828:1 4830:1 4935:1 4967:3 5383:1 5438:1 5463:1 5480:1 5569:1 5583:1 5646:1 5728:1 5780:1 5787:5 5880:1 5910:2 5997:1 6026:1 6421:1 6688:1 6762:1 6960:1 7169:1 7229:1 7423:1 7437:1 7445:2 7497:1 7547:1 7586:1 8054:2 8106:1 8245:8 8318:1 8436:1 8557:1 8559:1 8656:1 8665:1 8825:1 8994:1 9203:1 9232:1 9377:1 9477:1 9715:1 9785:4 10278:1 10609:1 10784:1 10852:1 10896:2 10975:1 11275:1 11277:1 12375:2 13230:1 13386:3 13951:1 14784:1 15378:1 15523:1 15576:1 16035:1 16187:1 16209:1 16410:1 16640:1 16676:1 16748:1 16771:1 16839:1 17781:1 18026:1 18646:1 19075:1 20468:1 20783:1 20801:1 21304:1 21663:1 22513:1 25461:1 25809:1 26500:1 27555:1 27629:1 27811:1 27827:1 28327:1 28432:1 28976:1 29413:1 29503:1 29589:1 30335:1 30527:1 31279:1 31526:1 32430:1 33108:1 33477:1 34669:1 34697:1 36525:1 37431:1 38323:1 39550:1 40131:1 42767:1 
0.0006330593945133694 1:14 3:3 6:1 9:1 18:1 19:1 24:1 30:1 31:1 34:2 38:1 47:2 55:6 85:1 95:1 97:1 109:2 115:1 118:10 138:1 143:1 153:2 159:1 300:1 324:1 325:1 334:1 335:1 336:1 341:1 343:1 374:1 382:1 403:1 437:1 584:10 636:1 644:1 650:1 657:2 669:1 675:1 697:1 703:3 764:1 838:1 875:2 894:1 923:1 963:2 1002:1 1019:1 1092:1 1111:1 1223:1 1283:1 1335:1 1344:1 1381:2 1410:1 1473:2 1485:1 1523:1 1538:1 1643:1 1667:1 1697:1 1701:1 1752:1 1759:1 1770:2 1789:1 1808:1 1943:1 2099:1 2116:1 2234:1 2341:1 2359:2 2517:1 2718:1 2791:1 2829:1 2880:1 2951:1 2967:1 3040:2 3047:1 3084:1 3216:1 3301:1 3493:1 3512:1 3517:1 3565:1 3578:1 3927:2 4154:1 4167:1 4237:1 4321:1 4396:1 4631:1 4696:1 4867:1 4870:1 5089:1 5092:1 5101:1 5107:1 5734:1 6416:1 6729:1 6752:1 7007:2 7229:1 7232:1 7542:1 7685:1 7724:1 7765:1 7792:1 7940:1 7949:1 8000:1 8506:1 8509:1 8597:1 8621:1 8677:1 9250:3 9283:1 9342:1 9566:1 9840:1 10137:1 10186:2 10538:1 10544:2 11232:2 11632:1 11786:1 12483:1 12786:1 12793:1 12840:1 13779:2 14056:1 14058:1 14095:1 14910:1 15240:1 15248:1 15809:1 15830:1 16666:3 17583:1 18744:1 19247:1 19337:1 20162:1 21140:1 21300:1 22455:1 22478:1 22635:1 23027:1 23445:1 23926:5 24153:1 24266:1 24473:1 24956:1 25223:1 25613:1 25938:1 26941:1 28220:3 28276:1 28658:1 30874:1 32099:1 32229:1 35095:1 36563:1 36576:1 37021:1 37701:1 38270:2 39273:1 39276:1 39576:1 40423:1 40547:1 41095:1 41223:1 
0.002228481184164723 1:19 2:1 3:1 5:1 6:2 7:1 14:2 30:1 37:1 48:1 51:1 52:1 58:9 59:1 69:1 79:1 93:1 95:1 98:1 121:1 132:1 154:1 160:1 183:1 191:1 198:1 233:2 248:1 256:1 262:2 266:1 312:1 318:1 332:1 341:1 346:1 351:1 376:1 413:2 426:1 461:1 477:1 495:1 499:2 536:1 539:1 586:1 643:1 644:1 650:1 697:1 723:1 742:1 749:1 856:5 862:3 962:1 1033:1 1079:1 1108:3 1134:1 1268:1 1310:1 1318:1 1322:1 1331:1 1433:1 1434:1 1466:1 1524:1 1554:2 1592:1 1631:1 1645:1 1649:1 1653:1 1672:1 1742:1 1769:2 1770:1 1836:1 1908:1 1918:1 1933:1 1974:1 1985:1 2091:1 2208:3 2343:1 2359:1 2449:1 2459:1 2517:1 2586:2 2806:2 2913:1 2947:1 2954:1 3082:1 3122:1 3126:1 3154:1 3244:1 3483:4 3564:1 3664:1 3902:1 3959:1 4126:1 4132:1 4137:1 4184:1 4192:1 4273:4 4289:1 4310:2 4490:1 4537:1 4580:2 4583:2 4656:1 4680:1 5135:1 5188:1 5782:1 5805:1 5826:1 6034:1 6229:1 6628:1 6645:1 6712:1 6774:1 6841:1 7404:1 7468:1 7548:1 8273:1 8354:1 8536:1 8625:1 8766:1 8858:3 9007:1 9170:1 9965:1 10250:1 10426:5 11104:1 11546:2 12843:1 12860:1 12989:1 13072:1 13307:1 13317:1 13373:1 13725:1 14779:1 15392:1 15442:1 15895:1 15943:1 16001:1 16126:1 17362:1 18687:1 18804:1 18839:1 19811:1 20243:1 20628:1 21275:1 21440:1 21997:1 22087:1 22128:1 23026:1 23215:1 23276:1 24124:1 24998:1 25169:1 25331:1 25584:1 25635:1 25689:1 26467:1 27161:1 29256:1 29794:1 32593:1 33049:4 33111:1 33173:1 34761:1 39315:1 39820:1 42960:2 43039:1 
0.002106566075755244 1:12 2:1 3:3 10:3 18:6 19:1 21:1 30:1 34:1 36:1 37:3 47:1 51:1 53:1 57:1 58:4 64:2 65:1 68:1 69:4 93:1 95:1 97:2 115:5 116:2 135:1 195:1 200:1 205:1 208:1 237:1 251:1 274:1 279:1 296:1 302:1 317:1 325:1 348:1 374:1 377:2 384:1 396:1 401:1 420:2 478:1 498:1 503:2 507:1 556:1 563:1 564:1 603:1 605:1 628:1 640:1 670:3 694:1 703:1 742:1 766:1 796:2 873:1 887:1 927:1 934:1 1067:1 1097:3 1111:1 1133:1 1146:12 1182:1 1202:2 1232:1 1239:2 1361:1 1386:1 1455:1 1456:1 1458:1 1524:2 1645:1 1691:1 1714:1 1728:1 1748:1 1752:1 1764:1 1770:1 1971:1 2031:1 2062:1 2067:1 2076:1 2159:1 2167:1 2182:1 2359:1 2365:1 2389:2 2697:2 2702:1 2758:1 2806:3 2820:1 2949:1 2967:1 3000:1 3088:3 3251:1 3371:1 3470:1 3474:1 3627:2 3673:3 3704:1 3796:1 3849:1 3945:1 3951:1 3965:1 4303:1 4324:1 4413:1 4537:1 4566:1 4668:2 4786:1 5011:1 5032:1 5149:1 5265:1 5620:1 5646:1 5689:1 5787:1 5910:1 5943:1 6118:1 6364:2 6442:1 7065:1 7080:1 7095:1 7525:1 7578:1 7651:1 7784:1 7790:1 8086:1 8153:1 8245:2 8280:1 8557:1 8665:1 9296:1 9607:1 9621:1 9645:1 10169:1 10270:1 10493:1 10670:1 10822:1 11224:1 11679:1 11943:1 12118:1 12217:1 12352:1 12418:1 12643:1 12712:1 12761:1 13386:1 13630:1 13863:1 13867:1 14594:1 15160:1 15194:1 16360:1 16649:1 16839:1 16876:1 17284:1 17596:1 17665:1 17816:1 18646:1 18711:1 19074:1 19613:1 19788:1 20104:1 20232:1 20421:1 20469:1 20809:1 21119:1 21359:1 21400:1 21483:1 22126:1 22709:1 22823:1 23576:1 23712:1 23862:1 24679:1 24937:1 25829:1 25948:1 26329:1 26933:1 27187:1 28432:1 29413:1 29463:1 30491:1 30768:1 31725:1 31982:1 32274:1 33939:1 34529:1 34534:1 35146:1 36001:1 37050:2 37584:1 37868:1 38536:1 39688:1 41666:1 41900:1 43063:1 43266:1 
0.003220560391008812 1:9 4:1 5:1 7:1 8:1 16:2 18:1 21:1 23:1 29:1 31:2 33:3 35:1 36:1 42:1 49:1 58:1 61:3 66:1 75:1 91:1 110:3 129:1 161:2 166:1 172:2 173:1 174:1 212:1 266:1 277:1 282:2 307:1 310:1 324:2 356:1 364:4 368:1 373:1 388:1 441:1 469:1 479:1 481:1 539:1 556:1 574:1 584:3 658:1 681:1 696:1 712:1 754:1 764:1 797:1 799:1 852:1 916:1 963:1 978:1 988:1 1137:1 1147:1 1283:1 1291:4 1317:1 1432:1 1564:1 1608:1 1704:1 1758:1 1885:1 1895:1 2026:1 2047:1 2237:1 2493:5 2515:1 2655:1 2696:1 2922:1 3058:1 3068:1 3132:1 3325:1 3486:1 3611:1 4242:1 4249:1 4279:1 4292:1 4461:1 4467:2 4520:1 4526:1 4796:1 4805:1 4820:2 5129:1 5232:1 5276:1 5672:1 5695:1 5973:2 6234:2 6336:1 6655:1 7065:1 7392:1 7505:1 7741:1 7791:1 7881:1 8188:3 8217:1 8609:1 8700:1 8767:1 9414:1 9895:1 10015:1 10216:1 10543:1 11088:1 11736:1 12515:1 12645:1 12748:1 12892:1 12933:1 13461:1 13504:1 13761:1 14688:1 15248:1 15469:1 15801:1 18047:1 18659:1 19631:1 20363:1 20904:1 21151:1 21424:1 22332:1 26567:1 27651:1 36259:2 
0.001617976483185156 1:2 2:1 4:4 8:1 14:1 16:1 23:2 33:2 34:1 35:1 41:5 48:1 49:1 50:1 66:2 116:2 142:1 158:1 161:7 197:1 218:1 289:1 303:1 356:1 373:2 388:1 397:1 409:2 476:3 481:1 521:1 679:1 688:1 852:1 857:1 1135:1 1255:1 1332:1 1432:1 1437:1 1509:1 1608:1 1609:2 1862:1 1886:1 1932:1 2026:5 2040:1 2276:1 2366:1 2396:1 2689:1 2780:2 2915:2 3105:3 3132:1 3281:1 3555:2 4217:1 4248:1 4315:1 5063:1 5191:1 5245:1 5255:1 5453:1 7954:1 11142:1 11481:1 11521:4 12374:1 15899:1 15921:1 17703:1 17757:2 18909:1 24939:1 28697:1 35308:1 
0.00551998454263238 1:14 3:2 6:1 13:1 14:1 18:1 19:3 22:1 24:2 30:2 37:1 42:1 55:3 58:1 68:1 69:1 95:2 97:1 109:1 115:2 138:1 148:1 160:1 169:1 272:1 288:1 349:1 361:1 367:1 386:1 413:1 425:2 437:1 457:1 463:1 494:1 507:2 560:1 634:1 697:2 732:1 742:1 749:1 774:1 816:1 908:1 966:1 967:1 981:2 1047:1 1082:1 1133:1 1157:1 1169:1 1246:1 1254:1 1271:1 1274:2 1340:1 1343:1 1344:2 1461:1 1491:1 1543:1 1611:1 1620:5 1631:1 1639:1 1649:1 1685:1 1686:1 1709:1 1712:1 1726:1 1770:1 1822:1 1834:2 1868:1 1982:1 2201:1 2324:1 2359:1 2365:1 2434:1 2490:1 2504:1 2507:1 2728:1 2780:1 2806:1 2982:1 2991:1 3173:1 3270:1 3350:1 3711:1 3713:1 3860:1 3916:1 3993:1 4256:1 4466:1 4666:1 4847:1 4956:1 5081:1 5436:1 5753:2 5905:1 5985:1 6136:1 6275:1 6324:1 6729:1 6831:1 6864:1 7163:1 7229:1 7312:1 7471:1 7882:1 7897:1 8013:1 8438:1 8477:1 8559:1 8650:1 8875:1 8976:1 9018:1 9093:1 9144:1 9203:1 9253:1 9355:1 9592:1 10028:1 10168:1 10170:1 10187:1 10493:1 11443:1 11893:1 11943:1 11994:1 12041:1 12309:1 12625:1 12734:1 12790:2 13592:1 13639:1 13716:1 13723:1 13778:1 14037:1 14409:1 14849:1 15563:1 15667:1 16329:1 16403:1 16519:1 16651:1 17094:1 17212:1 17479:2 17558:1 17780:1 17786:1 17815:1 17940:1 18581:1 18744:2 19166:1 19598:1 20131:1 20877:2 20882:1 21440:1 22770:1 22842:1 24232:1 24770:1 25064:1 26802:1 27498:3 29206:1 29325:1 30035:1 30216:1 30552:1 30569:2 30638:1 31099:1 32738:1 34620:1 38084:1 39495:1 39867:1 41236:1 41985:1 42863:1 
0.0009815796980579667 1:20 2:2 3:2 4:3 5:8 9:2 13:1 14:1 16:1 18:1 19:1 20:1 21:2 24:1 29:3 31:1 36:2 41:1 45:3 46:1 49:1 52:1 58:1 65:1 78:1 81:1 103:1 107:1 132:1 141:1 142:1 154:1 163:1 164:1 174:1 180:2 183:1 191:1 205:1 237:1 248:1 249:3 258:1 262:1 267:1 291:2 295:3 297:1 303:2 310:1 315:1 347:1 352:1 356:1 357:1 364:1 367:1 371:1 385:1 391:1 400:1 422:1 424:2 430:1 434:1 443:1 462:2 466:1 485:1 491:1 498:1 506:1 508:1 517:5 546:1 561:1 570:1 573:1 585:1 593:1 635:15 676:1 679:1 684:1 708:3 735:1 756:1 757:1 763:1 804:1 870:1 891:1 943:2 968:1 987:2 994:4 1003:1 1039:1 1088:7 1106:1 1128:1 1143:1 1313:1 1314:1 1331:1 1429:1 1444:1 1496:3 1544:1 1553:1 1581:1 1590:1 1597:1 1655:1 1661:1 1664:1 1671:1 1690:1 1746:1 1778:1 1839:1 1847:1 1852:1 1853:1 1885:1 1991:1 2013:3 2063:1 2085:1 2204:1 2254:1 2317:1 2351:1 2457:1 2523:1 2543:1 2546:1 2557:1 2689:3 2695:1 2721:1 2728:1 2883:1 2886:1 3003:1 3020:1 3072:1 3127:1 3128:1 3142:1 3236:1 3287:1 3372:1 3525:1 3579:2 3800:1 3894:1 3901:1 3919:1 4022:2 4187:1 4242:2 4374:1 4468:1 4501:1 4510:1 4530:1 4554:1 4633:1 4672:1 4749:1 4753:1 4793:1 4935:1 5085:1 5304:1 5325:1 5439:1 5688:1 5696:1 5764:1 5804:1 5827:1 5897:1 5999:1 6213:1 6280:1 6346:1 6489:1 6534:1 6550:1 6690:1 6696:1 6808:1 6841:1 6858:1 7008:1 7091:1 7273:1 7296:1 7497:1 7506:1 7570:1 7844:1 7912:1 7954:1 8032:2 8033:1 8115:1 8220:1 8323:1 8484:1 8587:1 8633:1 8987:1 8993:1 9157:1 9232:1 9311:1 9405:1 10688:1 11017:1 11543:1 11650:2 11808:1 12106:1 12651:1 12673:1 13352:1 13758:1 14712:1 14853:1 14975:1 15255:1 15472:1 15573:1 16297:1 16551:1 16806:2 17137:1 17149:1 17180:1 17459:1 18422:1 18690:1 18944:1 19736:1 19926:1 20971:1 21109:1 21125:1 21139:1 22348:1 22518:1 23461:1 23856:1 24064:1 24486:1 25273:1 26352:1 26662:1 26843:1 27610:1 28046:1 28364:1 28719:1 29032:1 29946:1 30808:1 32672:1 33209:1 33224:1 33491:1 34421:1 35629:1 36656:1 37112:1 
0.0002069007765779126 1:31 2:1 3:3 5:4 9:1 10:2 13:1 17:1 20:9 26:1 30:1 32:1 36:1 41:8 44:1 46:2 52:1 58:2 63:1 64:3 65:1 73:1 78:1 87:1 90:1 95:1 97:1 102:1 107:1 118:1 119:2 141:1 159:1 168:3 174:1 183:1 198:1 200:1 207:1 209:2 215:2 229:1 273:1 283:2 289:1 293:6 297:1 325:1 327:1 337:1 345:1 367:1 369:2 373:2 374:1 377:1 382:1 413:1 425:1 434:2 452:1 466:1 469:1 475:1 477:1 492:1 543:1 551:1 561:1 563:1 574:1 579:1 585:1 589:1 597:1 629:2 648:1 651:1 661:1 674:1 679:1 697:2 720:1 763:1 768:1 786:1 788:1 813:1 824:1 842:1 860:2 882:1 894:1 916:1 926:1 953:1 989:1 1029:1 1052:1 1061:1 1086:1 1088:2 1099:1 1106:1 1146:1 1211:1 1231:1 1250:1 1308:1 1314:1 1316:1 1339:5 1354:1 1379:1 1381:1 1395:1 1410:1 1414:1 1417:1 1427:1 1442:1 1443:3 1445:1 1473:1 1477:1 1559:1 1574:1 1587:2 1671:1 1708:1 1716:1 1796:1 1933:1 2013:1 2047:2 2061:1 2110:1 2157:1 2161:2 2182:2 2200:1 2203:1 2281:1 2289:1 2337:1 2353:1 2360:3 2390:1 2393:1 2400:1 2402:1 2556:1 2602:12 2637:1 2695:1 2697:1 2723:1 2740:1 2812:1 2852:1 2896:1 2916:1 2928:3 2947:1 2981:1 2987:1 3038:1 3040:1 3046:1 3073:1 3149:1 3167:2 3201:1 3228:1 3239:1 3252:1 3287:1 3423:1 3451:1 3477:2 3512:1 3527:1 3586:1 3635:1 3888:1 3989:1 4023:1 4074:2 4129:2 4179:1 4368:1 4809:1 4902:3 4945:1 4957:2 5185:2 5232:1 5299:1 5305:1 5324:1 5476:1 5687:1 5927:1 6139:1 6157:1 6254:1 6305:1 6554:1 6835:2 6897:1 7168:1 7338:1 7430:1 7465:1 7630:1 7646:1 7919:1 8162:1 8318:1 8369:1 8423:1 8505:1 8506:1 8582:1 9099:1 9137:1 9232:1 9244:1 9376:1 9380:1 9716:1 9724:1 9816:1 10003:1 10438:1 10610:1 10621:1 10723:1 10858:1 10887:1 10904:1 10966:1 10996:1 11092:1 11239:1 11269:1 11699:1 11714:1 11815:1 12121:1 12461:3 12584:1 12729:1 13009:1 13075:2 13219:1 13280:1 14286:1 14534:1 14568:1 14790:1 14903:1 15052:1 15241:1 15479:1 15584:1 15758:1 15801:1 16276:1 16600:1 16664:1 17371:1 17749:1 18125:1 18350:1 18424:1 18450:1 18830:1 19041:1 19077:1 19605:1 19711:1 19839:1 20075:1 20307:1 20414:8 21904:4 22188:1 22738:1 22897:1 23390:1 23487:1 24002:1 24060:1 24213:3 24218:1 24964:1 25048:1 25218:1 25804:1 26551:1 26715:1 27134:1 28664:1 28800:1 29207:1 29228:1 30596:1 31426:1 31601:1 31696:1 31819:1 32043:1 33500:1 33545:1 34129:1 34360:1 34718:1 34846:1 35276:10 35623:1 37053:1 40665:1 41800:2 41918:1 42109:1 42218:1 42775:1 
0.00185328086722542 1:9 2:7 3:1 4:1 5:3 10:2 13:2 16:5 19:1 20:3 26:1 31:1 39:1 45:1 50:3 57:1 64:1 95:1 99:1 101:1 102:1 116:2 121:2 124:1 135:2 143:1 163:1 187:2 197:1 205:1 226:1 233:1 240:1 253:1 255:2 262:1 264:3 269:1 317:5 321:7 332:1 351:1 355:1 356:1 366:2 383:1 388:3 390:3 413:1 532:1 546:1 581:2 629:1 710:1 719:1 735:2 758:8 786:1 820:1 835:2 852:1 862:1 915:1 962:1 1075:1 1103:2 1156:2 1158:1 1425:1 1445:1 1452:2 1457:1 1479:1 1484:1 1519:1 1528:1 1536:1 1579:1 1614:1 1662:1 1735:1 1739:2 1848:1 1865:1 1869:1 1892:1 1922:1 1930:2 1932:2 1942:1 1950:1 2016:1 2062:1 2073:1 2117:2 2154:1 2196:1 2238:1 2364:1 2369:1 2392:1 2472:1 2536:1 2558:1 2559:2 2690:1 2712:1 2718:1 2761:1 2765:1 2772:1 2791:1 2837:2 2843:1 2845:1 2853:1 2956:1 3030:1 3033:1 3096:1 3160:1 3231:1 3531:1 3643:1 3709:1 3788:1 4139:1 4200:1 4226:1 4281:2 4312:1 4377:2 4455:1 4692:1 4829:1 4839:1 4847:3 5038:1 5176:2 5291:1 5359:1 5467:1 5635:1 5758:1 5759:1 5826:1 6045:2 6270:1 6328:1 7163:1 7289:1 7430:5 7715:1 7741:3 7862:1 7982:1 8077:1 8471:1 8801:1 8937:1 9088:1 9255:1 9472:1 10345:2 10416:1 10783:1 10815:1 11004:1 11594:1 11703:1 12058:1 12196:2 12299:1 12694:1 13153:1 13447:1 13570:1 13968:1 14076:1 14286:4 14419:1 14925:3 15974:1 16265:1 16648:1 17224:1 17963:1 19183:1 20992:1 21105:1 22189:2 22192:1 23040:1 23221:1 23352:1 23649:1 23706:1 24026:1 24323:1 24496:1 27215:1 27521:1 27977:2 28561:1 30764:1 32230:1 33013:1 33584:2 35221:1 36418:2 39348:3 41723:1 42372:1 
0.001369048346159148 1:35 2:5 3:3 4:1 5:2 6:5 7:1 11:1 12:1 13:2 19:2 20:3 21:4 23:1 26:1 27:2 28:7 31:1 32:2 35:1 38:1 41:2 46:7 48:1 51:1 55:1 56:1 57:1 58:1 60:2 66:1 73:1 78:1 81:1 82:1 87:1 100:1 102:1 105:2 119:3 121:2 122:1 129:1 131:1 132:1 136:1 148:1 151:1 174:5 177:1 183:1 193:2 215:3 220:1 250:4 268:1 269:1 276:1 281:3 283:1 304:2 327:1 355:2 369:1 382:1 414:1 417:1 433:1 434:1 435:1 443:1 456:4 467:1 480:1 483:1 487:1 523:1 531:1 532:1 534:1 545:1 551:1 565:2 578:3 587:1 603:3 616:1 620:1 622:1 654:1 682:1 694:1 707:1 712:1 714:1 795:6 803:2 818:1 839:3 842:1 843:1 844:2 878:1 882:1 893:1 913:1 924:1 925:1 988:2 1030:1 1038:2 1074:1 1085:1 1101:1 1148:1 1203:1 1205:1 1225:1 1232:2 1247:1 1249:1 1306:5 1316:1 1403:1 1410:1 1438:1 1443:1 1474:1 1496:1 1497:1 1541:1 1585:1 1602:1 1618:1 1619:1 1652:1 1698:1 1730:11 1732:1 1782:1 1802:1 1850:1 1907:2 1912:1 1964:1 2045:2 2058:1 2078:2 2083:1 2085:1 2141:1 2147:2 2157:1 2220:1 2312:1 2380:1 2506:1 2613:1 2671:1 2701:6 2776:1 2797:1 2825:1 2908:1 2928:1 2946:4 2955:1 2986:1 3106:1 3137:1 3286:1 3358:1 3416:1 3425:1 3455:1 3463:1 3474:1 3520:1 3561:1 3577:1 3669:1 3763:1 3782:1 3905:1 3976:1 3993:1 4097:1 4112:1 4137:2 4175:1 4197:2 4342:1 4366:1 4400:4 4456:1 4572:1 4727:1 4743:1 4744:1 4772:2 4902:1 5111:1 5135:1 5346:1 5460:1 5556:1 5841:2 5856:1 5892:1 6046:1 6484:1 6565:1 6728:1 6737:1 6884:1 7074:1 7137:2 7164:1 7170:1 7309:1 7428:1 7587:1 7596:1 7820:1 8049:1 8178:1 8185:1 8232:1 8258:1 8325:1 8421:2 8685:1 8790:1 8848:1 8910:1 8970:4 8996:1 9332:1 9344:1 9859:1 9860:1 10059:1 10135:1 10604:1 10737:1 10859:1 11140:1 11162:1 11420:1 11613:1 11627:1 12064:1 12463:1 12509:1 12665:1 12678:1 12861:1 13312:2 13529:1 13630:1 13700:1 14050:1 14054:1 14475:3 14605:2 15167:4 15371:1 15470:1 15564:1 15926:1 16260:1 16835:1 16918:1 16926:1 16992:1 17003:1 17041:1 17691:1 18070:1 18648:1 19688:1 19859:1 20107:1 20159:1 20255:1 20407:1 20476:1 20672:1 20741:1 21006:2 21123:1 21399:1 21487:1 22396:1 22564:1 22652:1 23404:1 23523:1 23680:1 24393:1 25080:1 25333:1 25897:1 26039:1 27511:1 27824:1 28584:1 28723:1 29005:1 29171:1 29536:1 31233:1 31472:1 31858:1 31867:1 32380:1 33195:2 34130:1 34652:1 34769:1 35217:1 35538:2 35851:1 35942:1 36060:2 36097:1 36214:1 36582:1 36700:1 37054:1 38514:1 38592:1 40215:1 42717:1 
0.003907496449917177 1:9 4:1 8:1 16:1 23:2 29:1 30:2 33:5 41:6 45:1 49:1 60:1 66:2 75:1 142:7 153:2 170:1 183:1 198:1 214:4 248:1 275:2 303:2 307:1 354:2 369:1 371:1 388:1 408:1 436:1 504:1 518:1 570:1 602:1 621:2 712:1 723:1 729:1 762:1 789:1 797:1 852:1 860:4 1315:1 1354:1 1416:1 1456:1 1538:1 1627:1 1886:1 1970:1 1996:1 2028:1 2174:3 2358:1 2496:1 2773:1 3130:1 3399:1 3473:1 3697:3 4466:1 4591:1 4869:1 5971:1 6182:1 6285:1 7087:1 7513:1 7812:1 7924:1 7954:1 8021:1 8397:1 8562:1 8683:1 9260:1 9676:1 9765:1 9985:1 10173:1 10545:1 10830:1 14561:2 14760:1 16005:1 17114:1 17248:1 18662:1 19142:1 19238:1 19295:1 21682:1 22153:1 22561:1 22580:2 31551:1 31603:1 34787:1 43159:1 
0.001829872370141328 1:18 2:3 3:4 5:2 6:2 7:2 8:2 10:1 11:2 12:1 15:9 16:2 17:1 22:1 26:1 28:7 29:3 30:1 31:3 32:2 34:2 38:4 40:4 42:2 48:1 49:3 50:1 53:3 55:1 56:1 58:24 59:1 71:2 72:4 77:1 81:1 84:1 86:3 90:3 100:3 107:2 109:1 110:1 114:1 116:1 117:15 118:2 122:4 127:3 129:3 136:1 137:1 139:1 158:1 163:4 165:1 167:2 170:2 176:1 178:1 180:1 185:2 188:1 193:2 194:2 200:1 202:1 216:1 221:2 230:1 233:1 239:4 240:1 245:1 246:1 249:1 253:1 255:1 260:1 261:1 266:1 269:2 274:1 276:1 282:1 284:1 289:1 300:2 305:1 307:1 310:1 321:2 333:1 336:1 338:1 351:3 359:2 373:13 375:1 379:1 385:1 391:1 399:1 416:1 430:1 431:1 436:1 441:2 447:1 464:2 466:4 469:15 478:1 499:1 504:3 508:1 510:1 515:1 516:1 517:1 519:1 526:1 527:1 534:2 542:7 582:1 583:1 588:2 591:1 614:2 657:1 661:1 666:2 668:3 673:2 688:1 691:1 701:1 702:2 708:1 709:1 714:1 719:1 721:1 729:1 753:1 770:1 774:1 799:1 815:1 816:1 822:1 842:1 845:1 869:1 898:1 903:1 926:1 956:1 978:1 996:1 1000:1 1005:3 1019:1 1049:1 1062:2 1076:1 1086:1 1095:1 1100:1 1122:1 1135:2 1147:1 1153:4 1161:1 1188:1 1207:1 1213:1 1217:4 1251:1 1272:1 1274:1 1282:1 1295:1 1299:1 1321:1 1326:1 1350:1 1359:1 1374:2 1425:1 1426:1 1432:6 1443:2 1445:2 1446:1 1469:1 1481:1 1489:3 1511:1 1519:1 1528:2 1537:1 1556:2 1580:1 1597:1 1615:2 1621:10 1628:1 1635:1 1654:1 1705:1 1765:1 1829:1 1844:2 1848:1 1895:2 1923:1 1998:1 2029:1 2033:1 2080:2 2120:1 2200:1 2240:1 2244:1 2265:1 2303:1 2313:1 2387:2 2408:1 2412:1 2457:3 2499:1 2532:1 2593:1 2595:1 2612:1 2617:1 2629:1 2635:1 2651:1 2663:1 2669:1 2733:1 2750:1 2752:1 2754:1 2864:1 2884:1 2906:2 2924:1 2957:1 2995:1 3009:1 3086:2 3135:2 3140:1 3163:1 3198:1 3205:1 3212:1 3223:1 3237:1 3262:1 3284:11 3303:1 3323:1 3350:1 3358:1 3445:1 3528:1 3585:1 3589:1 3604:1 3675:2 3685:1 3700:1 3722:2 3769:1 3809:1 3884:1 3933:1 3970:1 4003:1 4025:1 4040:1 4091:1 4117:1 4139:1 4270:1 4336:1 4351:1 4394:1 4494:1 4652:1 4680:1 4722:1 4788:1 4897:1 4909:2 5022:1 5081:1 5115:2 5150:2 5162:1 5208:1 5212:1 5252:1 5311:1 5462:1 5536:1 5546:1 5560:1 5565:1 5570:1 5590:1 5595:1 5604:1 5716:1 5760:1 5813:1 5884:1 6043:1 6119:1 6174:1 6191:1 6246:1 6299:2 6314:1 6381:1 6398:1 6773:1 6914:1 6921:1 6932:1 6974:1 7033:2 7036:1 7078:1 7228:1 7248:1 7304:1 7306:1 7358:3 7436:1 7479:1 7588:2 7628:1 7710:1 7791:1 7951:1 8009:1 8066:1 8300:1 8317:1 8383:1 8522:1 8579:1 8913:1 9031:1 9050:1 9086:1 9122:1 9150:2 9191:1 9207:1 9346:1 9801:1 9812:1 9843:1 10000:1 10118:1 10206:1 10212:1 10393:1 10552:1 10599:1 10635:1 11234:1 11584:2 11594:1 11683:1 12037:1 12072:1 12411:1 12473:1 12532:1 12659:1 12737:1 12773:1 12861:1 12916:1 12949:1 12956:1 13027:1 13041:1 13149:1 13162:1 13226:1 13306:1 13651:1 13760:1 13818:1 14055:1 14120:1 14170:1 14399:1 14748:1 14788:2 14802:1 14908:1 15078:1 15317:1 15390:1 15463:1 15489:1 15578:1 15580:1 15595:1 15670:1 15733:1 15756:1 16001:1 16043:1 16175:1 16227:1 16239:1 16262:1 16395:1 16435:1 16598:1 16822:1 16915:1 16925:1 17315:1 17565:1 17700:1 17814:1 18009:1 18062:2 18129:1 18249:1 18933:1 19722:1 19846:1 19982:1 20007:1 20011:1 20373:1 20430:3 20725:3 20983:1 20984:1 21157:1 21281:1 21286:1 21346:1 22509:1 22601:1 23191:1 23193:2 23333:1 23975:1 24988:1 25041:1 26880:1 26960:1 27827:1 27890:1 28001:2 28105:2 28457:1 29461:1 29578:1 29655:1 30470:1 30901:1 31384:1 31675:1 31687:1 31727:1 33170:1 33217:1 33462:2 33479:1 34838:1 34940:1 35052:1 36645:1 36781:1 37231:1 37778:1 38826:1 39181:1 40503:1 40897:1 40954:1 41351:1 41969:1 42473:1 
0.0005272441087151793 1:6 5:2 8:1 9:1 12:1 13:1 16:2 20:1 25:1 31:1 32:1 38:1 41:2 46:1 49:1 64:1 78:1 83:1 107:2 124:1 143:1 153:1 174:3 205:2 250:1 262:1 309:1 343:1 344:1 348:1 382:1 383:1 393:1 438:1 447:1 465:1 466:1 502:1 509:1 578:1 633:5 635:1 637:1 679:1 690:1 709:1 710:1 786:3 788:1 835:2 1047:1 1087:1 1100:1 1156:2 1199:1 1282:1 1347:1 1364:1 1373:1 1424:1 1428:1 1478:1 1483:1 1546:1 1609:1 1618:2 1634:1 1706:1 1905:1 2001:1 2101:1 2277:1 2324:1 2393:1 2423:1 2449:1 2526:1 2695:1 2774:1 2808:1 2863:1 3058:1 3125:1 3141:1 3150:1 3287:1 3394:1 3553:1 3594:1 3829:2 3943:1 3983:1 4313:3 4345:1 4593:1 4708:1 4744:2 4912:1 5030:1 5214:1 5330:1 5391:1 5621:1 5685:1 5763:1 6041:2 6270:1 6650:1 6841:1 6978:6 6986:1 7074:1 7343:2 7768:1 7981:1 8054:1 8220:1 8231:1 8408:2 8617:1 8730:1 8999:1 9220:1 9957:1 10633:3 11729:1 13421:1 13767:1 14309:1 15391:1 15718:1 16062:1 17747:1 18110:1 21427:1 21849:2 21868:1 25020:1 25325:1 26247:1 26684:1 26702:1 26854:1 27770:1 29014:1 33637:2 36564:1 39697:1 
0.003555374618506967 1:23 18:1 19:3 22:1 30:1 31:1 58:6 69:1 113:1 115:6 154:1 176:3 195:1 198:2 201:1 208:1 276:1 332:3 335:2 343:1 396:2 418:1 437:1 461:1 476:1 520:2 551:1 639:2 670:1 703:2 744:1 794:2 889:1 958:2 1049:1 1085:1 1116:1 1169:1 1309:2 1337:1 1396:1 1620:2 1621:1 1631:1 1645:1 1663:1 1756:1 1940:1 2029:1 2194:1 2237:1 2386:5 2421:1 2621:1 2644:1 2806:1 2840:1 2843:1 2897:1 3028:1 3158:1 3211:1 3252:1 3371:1 3902:1 4028:1 4067:1 4416:1 4514:1 4602:1 4967:1 4983:2 5518:2 5567:1 5668:2 6059:1 6092:1 6174:1 6218:1 6253:1 6587:1 7097:1 7297:1 7492:1 7967:1 8006:1 8017:1 8252:1 8267:1 8268:1 8419:1 8501:1 8606:1 8745:1 9033:1 9309:1 9341:1 9590:1 10115:1 10621:1 10735:1 11031:1 11102:1 11114:1 12116:1 12961:1 13056:1 13213:1 13458:1 15213:1 15601:1 15650:1 16001:1 16103:5 16324:1 16384:1 16421:1 16531:1 16646:1 16939:1 16984:1 17496:1 18006:1 18269:1 18507:1 18744:1 19512:1 19584:1 19612:1 19724:1 20625:1 22886:1 22905:1 23314:1 23439:1 24446:1 24599:1 25406:1 25543:1 25757:1 26330:1 26422:1 27627:1 29139:1 29424:1 29537:1 29938:1 32149:2 34661:1 34974:1 35107:1 36605:1 39446:3 40412:1 40467:1 41569:1 41985:1 42094:1 42382:1 
0.002597471912144211 1:13 2:4 3:3 5:6 7:1 11:1 12:2 13:1 14:1 16:4 17:2 18:1 23:11 26:1 29:1 31:1 33:2 34:1 38:1 39:2 41:3 49:2 51:2 52:3 53:1 66:9 67:1 75:6 79:1 80:1 88:1 107:1 131:1 132:1 137:2 138:1 164:1 167:1 180:3 197:1 200:1 202:1 214:3 219:2 244:1 254:3 256:3 259:1 266:1 274:1 294:1 309:1 315:1 349:1 371:2 388:1 400:1 406:1 408:2 412:1 417:1 478:1 491:1 509:1 516:7 521:1 529:1 537:1 578:1 599:3 621:1 642:1 647:1 688:1 707:3 725:2 726:1 748:1 761:1 773:1 786:2 838:2 852:1 859:1 860:1 863:1 889:1 906:1 907:1 939:1 962:2 1042:2 1071:1 1122:1 1206:1 1210:1 1241:1 1246:1 1300:1 1313:1 1356:1 1416:2 1423:3 1428:1 1441:1 1459:1 1471:1 1599:1 1614:1 1634:3 1657:2 1682:1 1686:1 1727:1 1773:4 1782:1 1838:1 1869:1 1970:1 1971:1 2001:1 2011:1 2106:2 2168:1 2175:1 2212:1 2222:1 2321:1 2339:1 2453:1 2464:1 2467:1 2489:2 2502:1 2572:1 2601:1 2609:1 2664:1 2681:1 2786:2 2811:1 2867:1 2906:1 2982:1 3038:1 3060:1 3067:2 3148:1 3186:1 3255:1 3287:1 3357:1 3392:1 3401:2 3429:2 3555:1 3598:1 3631:1 3647:1 3717:1 3919:1 3968:1 4022:1 4050:1 4145:1 4260:3 4302:1 4634:1 4793:1 4841:2 4963:1 5068:1 5072:1 5093:1 5154:1 5247:1 5273:1 5299:1 5321:1 5353:1 5392:1 5433:1 5486:1 5526:1 5532:1 5874:1 5942:1 6241:2 6336:1 6353:1 6403:1 6410:1 6458:1 6469:1 6525:1 6830:1 7031:1 7045:1 7190:1 7453:2 7547:1 7613:1 7672:2 7712:1 7772:1 8077:1 8095:1 8249:1 8574:1 8591:1 8807:1 8995:1 9604:1 10155:2 10304:1 10337:1 10511:1 10542:1 10905:1 11244:1 11516:1 11545:1 11808:3 12466:1 12510:1 12542:1 12635:1 12875:1 13462:2 13745:1 13866:1 14099:1 15322:1 15478:2 15524:1 15770:3 15911:1 16042:1 16751:3 16908:1 17552:1 18193:1 18967:1 19033:1 19312:1 19908:1 20016:1 20133:1 20592:1 21512:1 21928:1 22586:1 24173:1 24216:2 25554:1 26419:1 26480:1 26544:1 26898:1 28730:1 28959:1 29066:1 29312:1 32311:1 36298:1 37908:12 42549:1 42633:1 
0.0004654608922238626 1:9 2:4 3:5 8:1 13:1 15:1 16:2 29:3 31:1 35:1 41:3 46:1 47:2 59:4 73:1 85:1 96:2 110:1 115:1 118:1 123:2 172:1 174:2 220:1 235:1 262:1 263:1 324:1 373:1 381:4 406:1 469:1 475:1 510:1 543:1 578:1 602:1 615:1 655:1 658:1 692:1 701:1 702:1 734:1 761:1 765:1 768:1 816:1 839:1 896:1 898:1 901:2 922:1 1023:1 1030:1 1098:1 1142:1 1164:1 1192:2 1217:2 1321:1 1382:1 1427:4 1496:1 1532:1 1609:2 1678:1 1704:1 1779:1 1896:1 1910:1 1939:2 2084:1 2115:3 2270:1 2357:1 2446:2 2526:2 2544:1 2556:1 2740:1 2822:1 2981:1 3040:1 3044:1 3058:1 3228:1 3338:1 3376:1 3734:1 3821:1 3925:2 4150:1 4368:2 4660:1 4866:1 5178:1 5274:1 5305:1 5532:1 5845:1 5885:1 6055:1 6194:1 6453:1 6512:1 6770:1 6771:1 6858:1 6881:1 6966:1 7045:1 7203:1 7398:1 7413:1 7639:1 7804:1 8037:1 8124:1 8605:2 8780:1 9015:1 9152:1 9487:1 9893:1 9927:1 10131:1 10302:1 10488:1 10723:1 10769:1 11836:1 11921:1 12318:4 12421:1 12713:1 13103:2 13400:1 13407:1 13456:1 14509:1 14743:1 14889:1 15221:1 15970:1 16328:1 16546:1 17281:1 17994:1 18878:1 19728:1 20623:2 20857:1 21353:1 21718:1 21978:1 22022:1 27696:1 28148:1 28231:1 29965:1 31867:1 34547:1 36834:1 37452:1 37569:1 38802:1 39479:1 39790:4 43050:1 
0.002410317071470039 1:5 2:2 3:5 7:1 9:1 13:1 20:1 26:1 29:5 32:1 35:1 42:2 45:2 47:1 48:1 51:1 64:1 65:2 69:1 71:1 77:1 127:1 137:1 180:1 240:1 245:1 252:2 268:1 273:1 276:1 308:1 318:1 377:1 388:1 399:1 423:1 457:1 499:1 508:1 513:1 543:11 544:1 555:1 557:1 589:1 593:1 628:1 719:1 749:1 787:1 873:1 923:3 963:1 1001:1 1019:1 1071:1 1111:1 1204:1 1222:1 1283:1 1326:1 1344:1 1380:1 1383:2 1391:1 1421:1 1424:1 1429:1 1452:1 1481:1 1521:1 1674:1 1723:1 1791:1 1927:1 1951:1 1986:1 2143:1 2149:1 2189:1 2227:1 2312:1 2363:1 2480:1 2532:1 2544:1 2664:1 2719:1 2951:3 2989:1 3007:1 3082:1 3565:1 3784:1 3828:1 3867:1 4022:1 4121:1 4161:1 4234:1 4416:1 4510:1 4681:2 4735:1 4870:1 4943:1 4996:1 5189:2 5225:1 5226:1 5622:1 5643:1 5788:1 5978:1 6035:1 6054:1 6958:1 7414:1 7443:2 7545:1 8035:1 8337:1 8434:1 8772:1 8871:1 9124:1 9296:1 9355:1 9731:1 9896:1 10598:1 10771:2 10896:1 11854:1 12083:1 12488:1 12640:1 13270:1 13617:1 13795:1 13865:1 15075:1 15202:1 16244:1 17397:1 19717:1 19843:1 20344:1 20619:1 21773:1 23578:1 25030:1 25095:1 25847:1 25926:1 27052:1 28616:1 29725:1 32183:1 32885:1 34010:1 37036:1 37193:1 37802:1 37892:1 37893:1 42142:1 42425:1 
0.0009997410653282174 1:15 2:5 6:2 10:1 12:1 15:1 18:3 20:3 21:1 24:1 29:9 30:1 41:1 42:3 47:1 55:1 69:1 77:2 79:1 115:3 191:1 196:1 200:1 209:1 217:1 237:1 253:1 259:1 283:1 317:4 318:1 325:1 341:2 343:1 347:1 377:1 379:1 498:1 499:1 545:1 560:1 608:2 610:1 612:1 649:1 675:1 687:1 697:2 713:1 786:1 807:1 830:1 838:1 852:1 891:1 939:1 1133:1 1150:1 1182:1 1210:1 1246:1 1302:1 1332:2 1334:1 1340:1 1399:1 1480:1 1554:1 1579:1 1692:1 1747:1 1755:1 1808:1 1951:1 2054:1 2086:2 2087:1 2300:1 2395:1 2510:1 2551:1 2674:1 2710:1 2724:1 2767:1 2791:1 2837:1 3004:1 3227:1 3294:3 3301:1 3475:1 3565:1 3584:1 3882:1 3928:1 3982:1 4003:1 4237:1 4596:1 4621:1 4797:1 5112:1 5163:1 5189:1 5239:1 5400:3 5518:1 5764:1 5825:1 5942:1 5966:1 6067:1 6354:1 6363:1 6497:2 6844:1 7991:1 8588:1 8621:1 8660:1 8980:1 9018:1 9187:1 9225:1 9386:1 9723:1 9812:1 10307:1 10586:1 11188:1 11284:1 11434:1 11616:1 11801:1 12398:1 13493:1 13588:1 13779:1 14114:2 14153:1 14492:1 15094:1 15638:1 15744:1 16142:1 16788:1 16798:1 16828:1 16869:1 17087:1 17139:1 18408:1 18775:1 19595:1 20047:1 20107:1 20454:1 20639:1 22642:1 23191:1 23265:1 23651:5 23882:1 23919:1 24613:1 25434:1 27190:1 27222:1 28011:1 28614:1 29544:1 29553:1 30528:1 30848:1 33259:1 34071:1 36274:1 36375:1 36709:2 36717:1 38839:1 39992:1 40335:1 42523:1 
0.01024354291996839 1:4 6:1 7:3 15:1 17:1 42:1 68:1 132:1 282:1 353:1 364:1 463:1 469:1 472:1 479:1 490:1 495:1 526:2 584:3 658:1 666:2 761:1 933:1 1131:1 1704:1 1838:1 1901:1 1982:1 2535:1 2579:1 2689:1 2696:1 2811:1 2939:1 3166:1 3276:2 3693:2 3729:1 3988:1 4249:2 5928:1 6878:1 7203:2 7425:1 7443:1 8086:1 8607:1 9797:1 16112:1 18592:1 18631:1 21190:1 22614:1 24676:1 25544:1 29573:1 37878:1 39682:1 
0.003089848545263699 1:17 2:8 3:4 4:4 5:2 8:6 9:2 10:1 12:1 14:1 24:2 31:1 34:1 35:3 36:1 37:3 40:1 44:1 50:2 51:1 52:1 53:2 64:1 73:2 78:2 87:2 90:3 91:1 92:1 109:1 113:1 131:1 145:2 162:1 166:2 171:1 174:1 184:2 195:1 200:1 207:8 222:1 267:3 272:1 290:1 302:1 306:1 315:1 317:1 334:1 336:1 379:1 387:7 397:1 402:1 406:1 445:1 505:2 508:1 511:1 522:1 539:1 545:1 561:1 563:1 566:1 576:3 587:2 605:1 617:1 637:1 641:1 692:1 695:1 741:1 755:1 845:1 863:1 891:2 937:4 955:1 959:1 965:1 973:1 982:2 984:1 988:1 1013:3 1053:1 1153:1 1165:1 1227:1 1248:2 1262:3 1276:1 1279:1 1295:1 1365:1 1398:4 1484:1 1498:1 1505:2 1541:2 1583:1 1694:1 1735:1 1746:3 1749:1 1768:1 1775:1 1781:1 1785:4 1812:1 1822:1 1865:1 1876:1 1897:1 1907:1 1909:1 2052:1 2072:1 2078:1 2085:1 2136:1 2137:1 2154:1 2187:1 2213:1 2222:1 2233:1 2309:1 2323:1 2342:1 2417:1 2568:1 2780:1 2823:2 2873:1 2937:1 2951:1 3019:1 3036:1 3094:7 3106:1 3107:1 3126:2 3242:2 3250:2 3253:1 3317:1 3344:1 3407:1 3453:1 3477:1 3509:1 3646:1 3777:1 3924:1 3978:2 4002:2 4077:2 4131:1 4213:15 4276:4 4442:1 4454:1 4563:3 4596:1 4625:3 4646:1 4667:1 4679:1 4762:1 4819:1 4873:1 4938:1 4976:1 5038:2 5056:1 5191:1 5239:1 5382:5 5466:2 5487:1 5533:1 5549:2 5763:1 5841:5 5948:1 6159:3 6221:1 6480:1 6703:1 6725:1 7029:1 7084:1 7129:1 7415:1 7502:2 7715:1 7818:1 7947:1 8063:1 8081:1 8135:1 8227:2 8235:1 8691:1 8696:2 8871:1 8924:2 9151:1 9184:1 9245:1 9288:1 9359:1 9640:1 9694:1 9888:1 10137:1 10459:2 10818:1 11259:1 11554:1 11571:1 11702:2 11870:1 12139:3 12621:1 12757:1 12901:1 12993:1 13235:1 13575:1 13656:1 13777:1 14303:1 15106:1 15446:1 15587:1 15899:1 15952:1 16049:1 16914:1 17042:1 18501:1 18728:1 20267:1 20687:1 21131:1 21390:1 21622:1 22268:2 23483:1 23974:1 24795:1 25277:1 26781:1 27187:1 27962:1 28236:1 28707:1 28891:1 30220:1 33055:1 33340:1 35076:1 38231:1 38361:1 41046:1 42685:1 
0.0007112576145183395 1:9 2:2 3:2 6:7 12:1 19:2 26:1 37:1 103:1 116:1 122:1 130:1 141:4 163:1 176:1 218:1 293:2 332:1 339:3 345:6 351:4 367:1 414:1 465:8 530:1 595:1 622:2 628:1 675:1 677:1 719:1 766:1 818:1 856:3 897:1 904:1 946:1 1039:1 1061:2 1108:1 1133:1 1137:2 1222:1 1271:1 1673:1 1732:3 2045:1 2066:1 2638:4 2697:2 2699:1 2755:1 2768:1 2842:1 3019:1 3030:1 3643:1 3686:1 3935:1 3951:1 4189:1 4379:1 4442:1 4526:1 4537:2 4621:1 4937:1 5057:1 5336:1 5401:1 6025:1 6233:1 6391:1 6532:2 6553:1 6631:1 6781:1 6935:1 7259:2 7294:1 7340:1 7574:1 7941:3 8320:2 8372:1 8955:1 9817:1 9874:1 10059:1 11183:1 11719:1 12589:1 12710:1 12773:1 12859:1 13135:2 13623:1 14679:2 14745:1 14774:2 15240:1 15548:1 15771:1 17195:1 17251:1 17264:1 18571:1 18687:1 18701:1 18735:1 18740:1 18839:1 19194:2 19547:1 20373:1 20376:1 20757:1 20803:1 21274:1 22754:1 22918:2 23261:1 24879:1 25175:1 25737:1 25954:1 26673:1 27419:1 28444:1 28965:1 29685:1 30258:1 30702:1 31750:1 33048:1 33436:1 33663:1 34057:1 35382:1 35939:1 36909:2 38346:1 38889:1 38895:1 39007:1 40737:1 
0.001173896511501464 1:26 2:6 3:2 5:8 7:1 8:1 9:2 12:3 14:1 17:1 19:1 26:2 31:1 34:2 35:2 41:2 44:2 50:1 51:1 52:2 59:1 60:2 64:2 69:1 70:1 77:1 78:1 86:1 91:1 102:5 103:1 119:2 122:1 132:1 151:1 162:1 166:1 172:1 183:3 184:3 195:1 198:2 200:2 207:8 244:1 250:3 258:1 267:1 283:1 291:2 305:1 310:1 311:7 345:1 354:3 369:1 377:1 387:1 400:2 407:3 435:1 447:1 454:1 477:1 486:1 511:1 543:5 559:1 564:2 579:2 597:2 636:1 645:1 648:1 662:1 670:2 679:1 682:1 685:1 706:4 720:1 766:1 882:1 893:2 894:1 897:1 901:1 909:4 924:1 925:1 929:3 931:1 959:1 961:1 985:1 993:1 1054:1 1099:4 1152:1 1192:1 1216:1 1232:1 1239:1 1248:1 1314:1 1315:1 1342:1 1353:1 1365:1 1368:1 1371:1 1372:1 1437:1 1461:1 1488:1 1505:1 1590:2 1623:1 1642:1 1671:2 1716:4 1732:1 1787:1 1801:1 1845:1 1873:2 1934:1 2001:1 2092:3 2105:1 2182:1 2227:1 2317:1 2323:1 2325:1 2402:1 2456:1 2562:1 2695:1 2721:1 2774:1 2788:1 2941:1 2965:1 2991:1 3024:1 3043:1 3058:1 3061:1 3062:1 3065:1 3144:1 3229:1 3252:1 3393:1 3409:1 3416:1 3462:1 3630:1 3648:1 3658:2 3667:1 3772:3 3850:1 3916:1 4102:2 4106:1 4129:1 4239:2 4340:1 4361:1 4440:1 4465:1 4486:1 4544:1 4565:1 4638:1 4887:1 4966:1 5099:1 5142:1 5232:1 5257:1 5299:1 5435:1 5447:1 5497:1 5674:2 5824:2 5845:1 5878:1 6307:2 6417:1 6508:2 6554:1 6558:1 6697:1 6725:1 6965:1 7049:1 7054:1 7083:1 7166:1 7279:1 7667:1 7696:2 7804:1 7874:7 7919:1 8120:2 8352:1 8381:1 8450:1 8514:1 8652:1 8801:1 9022:1 9172:1 9277:1 9332:1 9438:2 9771:1 9858:1 10080:3 10134:1 10138:1 10170:1 10563:1 10663:1 11156:1 11272:1 11291:1 12451:1 12715:1 13278:2 13375:1 13471:1 13648:1 13838:1 14188:18 14348:1 14595:1 14883:1 15293:1 15610:1 15801:1 15844:2 16224:1 16846:1 17567:1 18307:1 18830:1 19028:1 19308:1 19911:1 20112:1 20369:1 21385:1 22162:1 22492:1 22510:2 22712:1 22807:1 23103:1 23501:1 23552:1 23766:1 25314:1 25417:1 25580:1 25620:1 25714:1 25825:1 27170:1 27194:1 28258:1 28269:1 28398:1 29724:1 29784:1 30435:1 30594:1 31012:1 31036:1 31655:1 31685:1 31696:1 32046:1 32064:1 32587:1 32597:1 34211:1 36061:1 37985:1 39243:1 39693:1 41038:1 41574:1 42980:1 
0.0008242617930537785 1:16 2:1 3:2 7:1 9:3 11:1 12:1 20:1 21:1 36:2 42:5 46:2 47:1 50:2 52:1 54:1 60:1 77:1 78:2 85:1 116:1 117:1 141:1 144:1 145:1 159:1 163:2 178:2 212:1 221:1 246:3 251:1 252:2 255:1 261:1 289:1 291:1 295:2 299:1 343:1 347:1 355:1 380:1 382:1 406:1 417:1 434:1 450:1 459:1 474:1 479:2 517:1 583:1 584:1 595:1 646:5 651:1 658:10 677:1 685:1 710:1 755:1 768:1 813:1 889:1 933:1 961:1 966:1 969:1 987:1 988:1 993:1 1006:1 1019:1 1046:1 1065:1 1166:1 1200:1 1220:1 1226:1 1282:1 1291:1 1312:2 1343:1 1372:1 1378:1 1410:1 1502:1 1541:2 1637:1 1684:1 1690:1 1794:1 1800:1 1893:1 1897:1 1971:1 2012:1 2065:1 2147:1 2196:1 2266:1 2274:1 2297:1 2344:1 2441:1 2490:1 2536:1 2538:1 2552:1 2623:1 2629:2 2711:1 2898:1 2943:1 2949:1 2951:1 2977:1 3158:1 3250:1 3256:2 3335:1 3517:1 3551:1 3571:1 3648:5 3679:1 3691:1 3707:1 3814:2 3936:1 4183:11 4426:1 4446:1 4471:1 4704:1 4877:1 4889:1 4935:1 4964:1 4975:1 5056:1 5071:1 5113:1 5224:1 5720:1 5730:1 5810:1 6288:1 6359:1 6373:1 6381:1 6438:1 6697:1 6765:5 6876:1 7283:1 7425:1 7445:1 7456:1 7527:1 7654:1 7708:1 7781:1 7794:2 8546:1 8569:1 8651:1 8779:1 8805:1 8874:1 9204:1 9262:1 9649:1 10781:1 10963:5 11104:1 11135:1 11262:4 11408:1 11429:1 11629:1 11639:1 11655:1 11988:1 12063:1 12092:1 12158:1 12669:1 13321:1 13366:1 13373:1 13646:1 13915:1 14451:1 14511:1 14753:1 14810:1 15006:1 15288:1 15367:1 16302:1 16591:1 18280:1 18414:1 18511:1 18928:1 19450:1 19774:1 19783:1 20562:4 21535:1 21842:1 22116:1 22348:1 22960:1 22984:1 25422:1 25712:1 26093:1 26735:1 27198:1 27977:1 28522:1 32499:1 33020:1 33558:1 38258:1 39515:1 
0.002936991125774096 1:9 2:1 5:2 7:2 15:1 16:2 17:1 18:1 20:2 21:1 26:1 30:1 34:1 35:1 42:1 44:1 48:1 53:1 60:1 70:1 78:2 108:1 119:1 132:1 138:1 151:1 174:3 180:2 203:1 209:1 224:1 234:1 244:1 263:1 289:1 291:1 293:1 300:2 302:1 305:1 324:4 343:1 345:1 382:1 393:1 403:1 417:1 434:1 465:1 484:1 579:1 584:6 641:1 653:1 677:1 756:1 757:1 803:1 828:1 907:1 950:1 976:1 982:1 1005:2 1046:1 1100:1 1160:1 1333:1 1429:1 1437:1 1558:2 1611:1 1686:1 1710:1 1755:1 2028:1 2182:1 2223:1 2240:1 2288:1 2334:1 2366:1 2493:2 2626:1 2642:1 2804:1 2941:1 3288:1 3350:1 3512:1 3624:1 3772:1 3852:1 3919:2 3972:1 4055:1 4398:1 4499:1 4520:1 4727:1 4785:1 4872:1 4880:1 5019:1 5023:1 5036:1 5174:1 5256:1 5260:1 5884:1 6193:5 6508:4 6636:1 6726:1 6820:1 7132:1 7189:1 7493:1 7522:2 7685:1 8036:1 8052:1 8576:1 8640:1 9035:1 9100:1 9232:1 9470:1 9614:1 9987:1 10103:1 10224:1 10436:1 10458:1 12008:1 12460:1 12633:1 12668:1 12786:1 13001:1 13073:1 13471:1 13888:1 15020:1 16475:1 18023:1 18205:1 18793:1 19247:1 19792:1 20206:1 20577:1 21038:1 21360:1 21397:1 21765:1 21766:1 22310:1 22459:1 23402:1 24156:1 28217:1 32698:2 32851:1 34730:1 36083:1 36425:1 36543:1 37026:1 37985:1 38122:1 38438:1 41592:1 41967:8 
0.002398007957723938 1:7 2:1 3:2 16:1 19:1 20:1 24:1 30:1 33:1 38:1 44:1 47:1 49:1 70:2 84:1 119:1 162:1 192:1 198:1 229:2 307:1 388:1 408:1 510:1 521:5 537:1 579:1 628:1 789:3 797:1 855:4 860:1 882:1 889:1 946:1 961:5 1124:2 1195:1 1204:1 1294:1 1314:3 1333:1 1462:1 1527:1 1927:1 1932:1 1974:1 2026:1 2138:1 2339:3 2360:4 2728:1 2730:1 2874:1 3022:1 3090:6 3256:1 3462:5 3509:1 3775:1 4076:1 4199:1 4208:1 4230:1 4589:1 5172:1 5910:1 6203:4 6206:1 6547:1 6552:1 6563:1 6800:1 6854:1 7075:1 7554:1 7924:1 8006:1 8219:1 8245:1 8443:1 8459:1 8630:1 8671:1 9146:1 9880:1 11312:1 11485:1 11677:1 11721:1 12223:1 12786:1 13963:1 14674:5 15694:1 15930:1 17125:1 18220:1 20021:1 20855:1 23633:1 23637:1 24294:1 24651:1 25082:1 27137:1 28048:1 30255:1 30656:1 31759:1 32443:1 36554:1 36674:1 41170:2 
0.00377799683682039 1:8 2:3 3:1 4:2 5:1 8:1 10:2 12:1 16:2 17:1 21:1 33:3 35:2 41:1 49:2 52:1 70:1 83:1 84:1 90:3 91:1 97:1 119:1 136:1 161:2 162:3 218:1 248:2 254:1 259:2 266:1 310:1 339:1 345:1 356:4 371:1 382:1 388:1 399:1 430:1 436:2 441:1 450:1 472:1 477:1 478:1 481:1 511:1 516:1 521:3 528:1 579:1 589:1 627:2 678:1 679:1 729:1 784:1 789:1 797:2 860:3 896:1 999:1 1004:1 1016:1 1116:1 1178:1 1205:1 1217:5 1219:1 1227:1 1317:1 1401:2 1432:1 1482:1 1554:1 1599:1 1608:1 1609:3 1663:1 1716:1 1750:1 1813:1 1900:2 1917:1 2020:2 2026:1 2123:1 2181:2 2184:1 2189:1 2218:1 2360:4 2412:1 2496:1 2636:2 2689:1 2728:1 2782:1 2842:1 2880:1 2915:1 3022:1 3026:1 3058:4 3072:1 3105:1 3507:1 3684:1 3795:1 3917:1 4242:1 4308:2 4343:2 4424:1 4534:1 4777:1 4798:1 4812:3 4848:2 4869:1 4971:1 5134:1 5194:1 5314:1 5347:1 5453:1 5583:1 5688:1 5773:1 6825:1 7108:1 7283:1 7329:1 7393:2 7599:1 8221:3 8272:1 8528:2 8860:2 9192:2 9585:2 9850:1 10378:1 12002:1 12880:1 12884:1 13374:1 13495:1 14674:1 15911:1 16211:1 16354:1 16787:1 17394:1 17749:1 18118:1 18576:1 18814:1 19227:1 19255:1 19295:4 20136:1 20374:2 20774:1 21008:1 21605:1 22651:1 23791:1 25230:1 25275:2 26102:1 27286:2 30415:1 31714:1 32019:1 32650:1 33666:1 34088:2 35308:1 36627:1 
0.006598428531115002 1:2 2:1 23:1 33:1 42:1 58:1 65:1 66:1 80:1 86:2 118:1 191:1 259:1 324:1 332:3 350:1 378:1 408:2 441:1 504:1 510:2 528:3 544:1 750:2 789:2 797:1 1944:1 1954:1 2208:3 2244:1 2608:1 2786:1 2832:1 2850:1 2977:1 3088:1 3091:1 3339:1 3592:1 3682:1 4240:1 5210:1 5895:1 6005:1 6536:1 7007:1 8461:1 10817:1 11000:1 11180:1 12409:1 13285:1 13317:1 13404:1 15815:1 18054:1 21787:1 22228:1 22882:1 42824:3 
0.001015514140240491 1:16 2:2 5:3 7:5 10:2 13:2 16:6 17:1 18:1 19:1 23:5 27:1 31:1 33:3 36:1 37:1 39:3 40:2 42:4 47:1 48:1 49:2 52:1 54:2 61:1 63:1 64:1 66:4 70:2 71:3 75:1 77:1 82:2 83:1 85:2 88:1 89:1 102:7 115:1 118:3 124:3 125:3 126:7 127:2 131:1 134:1 136:1 137:1 138:1 139:1 147:1 150:7 158:3 161:3 167:3 174:1 178:1 185:2 187:2 202:1 217:1 226:2 233:1 237:1 238:1 239:2 241:1 245:10 253:5 272:1 315:3 319:1 338:1 341:4 346:1 359:1 362:1 384:1 388:4 411:1 430:1 437:1 453:1 505:1 516:1 582:2 586:1 591:1 593:1 604:1 615:1 634:1 643:1 647:7 697:1 742:1 751:1 753:1 765:1 766:2 780:1 796:1 822:1 831:1 848:4 869:1 894:1 950:1 952:1 966:1 969:1 981:1 1007:1 1045:1 1111:1 1144:1 1153:1 1166:1 1173:1 1187:1 1188:6 1236:1 1257:2 1264:2 1282:1 1299:1 1310:1 1323:1 1333:1 1350:2 1373:1 1387:1 1416:1 1433:1 1463:1 1478:1 1489:1 1562:1 1597:1 1675:2 1717:1 1765:1 1792:1 1863:4 1871:1 1883:1 1898:1 1921:1 1933:1 1934:1 1951:2 1952:1 1967:2 1992:1 2026:1 2047:2 2075:1 2079:1 2094:1 2100:1 2249:1 2266:1 2374:2 2419:1 2434:1 2437:1 2522:1 2629:1 2669:1 2692:1 2735:1 2783:1 2791:1 2879:1 2938:1 2956:1 3034:1 3132:1 3186:2 3237:1 3238:2 3303:1 3454:1 3560:1 3564:1 3646:1 3663:1 3692:1 3707:1 3709:1 3874:1 3878:1 3968:1 3994:1 4087:1 4104:1 4240:1 4292:1 4342:1 4436:1 4593:1 4607:1 4801:1 4834:1 4860:1 4973:1 5008:1 5036:1 5351:1 5551:1 5604:1 5735:1 5869:1 6016:1 6197:1 6348:2 6449:2 6485:1 6635:1 6982:1 7007:1 7268:1 7283:1 7559:1 7882:1 8080:1 8206:1 8208:1 8218:1 8381:1 8669:1 8693:1 8971:1 9208:1 9395:1 9436:1 9464:1 9538:1 9668:1 10071:1 10174:1 10186:1 10402:1 10892:1 11039:1 11166:1 11609:1 11651:1 11953:1 11981:1 12418:1 13369:1 13789:1 14099:1 14159:1 14226:1 14937:1 15288:1 17056:1 17184:1 17718:1 18061:1 18871:1 18979:1 19028:1 20675:1 20956:1 21247:2 21310:1 22975:1 23505:1 24022:1 24431:1 25523:1 25633:1 26675:1 28070:1 28536:1 28740:1 30043:1 31016:1 35289:1 37547:1 38214:1 38238:1 
0.004580446226447582 1:13 2:1 3:1 4:1 5:4 9:3 12:2 17:1 29:1 30:2 31:1 36:1 41:2 52:1 53:1 69:2 74:2 77:1 93:2 107:1 112:3 119:1 124:1 125:1 155:1 163:3 168:1 181:2 183:1 200:2 206:1 212:1 220:1 236:1 258:1 263:1 305:1 314:1 352:1 354:3 380:1 383:1 406:1 432:2 447:1 465:1 466:1 502:1 524:1 543:1 558:1 594:1 656:1 679:1 688:1 710:1 726:1 727:1 735:1 906:1 907:1 933:1 945:1 950:1 971:1 982:1 1003:1 1023:2 1121:1 1355:1 1372:1 1422:1 1478:1 1485:1 1510:1 1548:1 1708:1 1808:1 1845:2 1856:1 1961:1 2018:1 2351:1 2365:1 2415:4 2420:1 2494:1 2562:1 2571:1 2664:1 2730:1 2765:2 2815:1 2987:1 3002:1 3043:1 3051:1 3058:1 3071:1 3144:1 3170:1 3763:1 3894:4 3900:1 3989:2 4652:1 4812:1 4931:1 5124:1 5374:2 5448:1 5613:1 5824:1 5879:1 6233:1 6299:1 6347:1 6464:1 6482:1 7349:1 7754:1 7775:1 7777:1 7874:3 7876:1 7996:1 8308:1 8572:1 9272:1 9373:1 9431:1 9758:1 11041:1 11219:1 11461:1 11643:1 11814:1 11849:1 11959:1 12115:1 12381:1 12686:1 13357:2 13604:1 14259:1 14436:1 14829:1 17177:1 18415:1 18571:1 18921:1 19736:1 20108:1 20148:1 20488:1 20761:1 20947:1 21919:1 22176:1 24676:1 25033:1 26671:1 31256:1 31259:1 33573:1 34210:1 39340:1 42689:1 
0.0001945453285291842 1:15 2:3 3:4 6:1 7:4 8:1 10:2 11:1 16:2 25:1 29:6 30:1 33:1 39:1 41:3 42:2 44:1 50:1 51:1 65:3 75:1 93:1 101:1 122:1 137:1 142:1 151:2 198:1 209:1 219:1 220:1 226:4 237:1 239:4 254:1 262:1 271:1 278:1 284:1 296:1 317:1 318:1 343:1 347:1 360:1 388:1 430:2 433:1 471:1 494:1 562:1 634:2 636:1 679:1 690:1 694:1 786:1 796:1 848:1 870:1 875:1 902:1 903:1 1010:1 1011:2 1051:1 1200:1 1222:1 1256:1 1314:1 1345:1 1375:1 1391:1 1538:1 1693:2 1761:1 1844:1 1869:1 1905:1 2075:1 2273:1 2352:1 2368:1 2371:3 2492:1 2664:1 2689:1 2690:1 2702:1 2750:2 2840:1 3050:1 3084:1 3098:1 3186:1 3233:1 3652:1 3882:1 4022:1 4317:1 4450:1 4554:1 4621:1 4796:1 4993:1 5020:1 5189:1 5255:1 5295:1 5335:1 5479:3 5596:1 5850:1 5902:1 6054:1 6098:1 6202:1 6258:1 6354:1 6440:1 6448:1 6670:1 6830:2 6869:2 6922:1 6956:1 6977:1 7017:1 7090:1 7209:1 7393:1 7397:1 7578:1 7631:1 7955:2 8138:1 8257:1 8475:1 8512:1 8820:2 9025:2 9753:1 9805:1 10223:1 11225:1 11226:1 11262:1 12090:1 12337:2 12483:1 12715:1 13779:1 14056:1 14379:1 14382:2 14833:1 14849:1 15293:1 15394:1 15819:1 16459:1 17357:1 17516:1 17636:2 17815:1 18152:1 18629:1 18669:1 19194:1 20010:1 20436:1 20931:1 21129:1 21130:1 21170:1 21531:1 21821:3 21918:1 21962:1 22421:1 22565:1 22667:1 24167:1 25248:1 25671:1 26650:1 26804:1 27555:1 28905:1 29301:1 29816:1 32019:1 33933:1 35093:1 35177:1 36705:1 39164:1 40554:1 41471:1 
0.0009944696220628396 1:28 2:6 3:4 4:1 5:8 6:1 9:1 10:1 14:4 18:1 19:1 20:1 21:4 29:3 30:1 31:2 34:2 37:1 38:1 40:1 41:4 50:6 52:4 58:2 63:2 64:1 67:1 69:1 71:3 73:1 77:1 79:1 82:3 85:1 91:1 94:2 96:1 131:2 135:1 138:2 141:2 144:1 149:2 154:2 161:2 163:1 167:1 170:1 179:3 191:1 196:1 199:1 202:1 205:1 208:2 209:3 233:1 239:3 244:2 252:1 253:1 255:3 266:4 268:1 276:1 277:1 280:1 283:1 289:1 301:1 302:1 309:1 315:1 323:1 327:1 351:4 353:2 358:1 365:4 370:2 377:2 393:1 412:2 413:1 424:2 426:2 427:1 429:1 430:2 438:1 453:1 464:1 471:1 499:1 500:1 513:3 527:2 530:1 545:1 557:1 560:1 595:2 600:1 610:2 617:1 640:2 650:1 652:1 671:1 694:1 697:2 702:2 719:1 730:1 731:1 752:1 760:1 761:1 764:1 766:1 778:1 787:1 794:1 816:2 834:1 838:1 848:1 861:1 867:12 891:1 892:8 907:1 908:1 918:3 922:1 936:1 965:1 987:1 1007:1 1012:1 1040:2 1049:1 1051:1 1058:1 1064:1 1079:1 1081:1 1087:1 1097:3 1101:1 1116:1 1136:2 1138:1 1182:1 1186:2 1201:1 1222:1 1225:1 1231:1 1234:3 1263:1 1265:1 1322:1 1362:1 1393:2 1450:2 1464:1 1478:1 1482:2 1500:1 1528:1 1545:1 1553:2 1559:2 1573:1 1579:1 1591:1 1604:1 1609:1 1621:2 1623:1 1641:1 1667:2 1696:1 1697:1 1717:1 1726:5 1742:4 1746:1 1800:2 1812:1 1854:1 1872:1 1877:1 1899:1 1902:1 1945:1 1976:1 1982:1 1996:1 2008:1 2058:1 2063:1 2114:2 2137:1 2142:4 2143:2 2190:1 2227:3 2263:2 2274:1 2278:1 2299:1 2319:1 2340:1 2345:1 2372:1 2382:1 2396:3 2403:1 2459:1 2510:2 2515:1 2536:1 2549:1 2609:1 2626:4 2645:1 2696:2 2768:1 2802:1 2819:1 2826:1 2832:1 2883:1 3006:1 3039:2 3044:2 3089:1 3100:1 3125:2 3150:1 3157:1 3164:1 3182:1 3217:1 3225:1 3268:1 3304:1 3322:1 3392:1 3400:1 3429:1 3442:1 3475:1 3487:1 3516:4 3565:1 3612:1 3629:1 3669:1 3673:1 3695:1 3737:3 3928:1 3939:1 3978:1 4065:2 4079:1 4145:1 4198:1 4248:1 4265:3 4286:1 4292:1 4294:1 4405:1 4420:1 4423:1 4430:1 4466:1 4490:1 4499:1 4549:1 4566:1 4570:1 4588:1 4672:1 4731:1 4736:1 4745:2 4835:1 4918:1 4938:1 4974:1 5062:1 5068:1 5134:1 5235:3 5239:1 5318:1 5320:1 5427:1 5476:1 5503:5 5504:1 5514:1 5625:1 5637:1 5666:2 5689:1 5723:1 5790:1 5803:1 5879:1 5907:1 5910:1 5932:1 6003:1 6007:1 6129:1 6179:1 6194:1 6216:1 6329:1 6361:1 6390:1 6403:1 6460:1 6578:1 6583:2 6863:1 7026:5 7049:1 7341:1 7521:1 7715:1 7772:1 7935:1 7990:1 8018:1 8045:1 8068:1 8110:1 8137:1 8223:1 8290:1 8328:1 8415:1 8434:1 8438:1 8455:1 8520:2 8590:1 8684:1 8729:4 9021:1 9050:1 9068:1 9104:1 9115:1 9297:1 9311:1 9319:1 9320:1 9363:2 9400:2 9483:1 9573:4 9609:1 9867:1 9881:1 9889:1 10033:1 10046:1 10051:1 10083:1 10105:1 10139:1 10677:1 10767:1 10834:1 10897:1 10968:1 11029:1 11098:1 11187:1 11202:1 11210:1 11214:2 11234:1 11265:1 11662:1 11684:1 11799:1 11987:1 12140:1 12231:1 12263:2 12265:1 12398:1 12488:1 12761:1 12766:1 12773:1 13255:1 13298:2 13350:1 13386:1 13397:2 13671:1 13686:1 13837:1 13898:1 14181:1 14271:1 14421:1 14492:1 15214:1 15315:1 15563:1 15696:1 15761:1 15913:1 16234:2 16360:1 16545:1 17214:1 17322:1 17717:1 18176:1 18196:1 18204:1 18216:1 18358:1 18568:1 18664:1 18839:1 18953:1 19160:1 19266:1 19356:1 19405:4 19430:1 19852:1 19944:2 19999:1 20086:1 20612:1 20617:2 20775:1 20783:1 21019:1 21628:1 21909:1 22138:1 22241:1 22273:1 22337:1 22387:1 22642:1 22650:1 23010:3 23219:1 23490:1 23587:1 23592:1 23808:1 24057:1 24203:1 24217:1 24345:1 24771:1 25450:1 25538:1 25662:1 25911:1 26138:1 26232:1 26505:1 26830:1 26833:1 27093:1 27839:2 27990:1 28191:1 28239:1 28818:1 29149:1 29196:1 29499:1 30067:1 30271:1 30389:1 30439:1 31280:1 31953:1 32024:1 32241:1 32709:1 33215:2 33762:1 33802:1 33887:1 35111:1 35392:1 35423:2 35681:1 36430:1 36546:1 36892:1 36983:1 37402:1 37753:1 37794:1 38037:1 38505:1 39597:1 39950:1 40047:1 40429:1 41142:1 41906:1 41997:1 42253:1 42896:1 
0.004212694003747582 1:11 2:4 3:3 5:7 6:1 9:2 10:1 11:3 16:1 17:1 18:1 23:2 25:12 26:1 33:1 35:1 38:1 39:1 42:1 54:3 59:2 61:1 63:1 64:1 66:2 70:1 83:1 85:3 88:1 102:1 107:2 118:1 120:2 126:1 131:2 132:2 136:1 150:1 166:1 167:4 168:1 177:1 187:1 200:1 241:2 244:2 245:1 256:1 276:1 282:1 297:1 305:2 341:1 344:1 359:2 392:12 396:1 397:1 402:2 406:4 409:1 414:1 434:1 438:2 447:1 453:1 493:1 503:1 530:1 545:1 567:1 647:2 660:1 669:1 708:1 764:1 765:1 773:1 786:3 791:1 802:1 884:1 928:1 939:1 942:1 952:1 982:1 989:1 1002:1 1005:1 1021:2 1031:1 1054:1 1056:1 1063:1 1085:1 1087:1 1104:3 1129:1 1130:1 1143:1 1144:3 1151:1 1165:1 1181:1 1188:1 1202:1 1203:1 1239:1 1240:2 1245:1 1272:1 1327:1 1334:1 1347:1 1379:1 1415:1 1445:1 1458:1 1479:1 1489:1 1496:1 1513:1 1575:1 1626:1 1693:3 1699:1 1718:1 1774:1 1815:1 1845:1 1864:2 1865:1 1872:1 1910:1 1996:1 2015:2 2037:1 2058:1 2067:2 2090:1 2100:1 2166:1 2198:1 2247:1 2272:1 2368:1 2478:1 2515:3 2518:1 2579:1 2663:1 2686:1 2761:1 2800:1 2855:1 2905:1 2920:1 2962:2 3067:1 3303:1 3325:2 3540:1 3581:2 3605:1 3611:1 3668:1 3720:1 3825:1 3970:1 3975:1 3986:1 4034:1 4051:1 4201:1 4270:1 4355:1 4408:1 4417:1 4519:2 4620:1 4746:1 5030:1 5053:1 5073:1 5159:1 5224:1 5225:1 5335:1 5493:3 5511:1 5529:1 5643:1 5923:1 6088:1 6260:1 6261:1 6379:2 6516:1 6588:1 6741:3 6744:1 7070:1 7263:1 7264:1 7321:1 7619:1 8121:1 8148:1 8150:1 8243:1 8708:1 8951:1 9102:1 9143:1 9249:1 9451:1 10120:1 10188:1 10216:1 10266:1 10629:1 10694:1 10729:1 10920:1 10937:1 11053:1 11545:1 11754:1 11923:1 11994:1 12537:1 12546:1 12643:1 12717:1 12894:1 14138:1 14495:1 14655:1 14749:1 14888:1 15079:1 15233:1 15580:1 15756:1 15883:3 17460:1 17725:1 17913:1 18683:1 19308:2 19939:1 20960:1 21502:1 21765:1 22187:1 22720:1 22975:2 23164:1 23754:1 24618:2 24844:1 25401:1 25834:1 26320:1 28404:1 30806:1 31832:1 34371:1 36187:1 37462:1 37528:2 38780:1 42657:1 
0.0001284225733034739 1:14 2:4 3:2 5:3 7:1 8:3 12:1 14:2 16:4 18:1 21:3 23:3 24:2 27:1 31:1 32:1 35:1 38:1 41:1 46:1 66:1 79:1 81:1 84:1 85:1 86:1 90:1 92:1 114:1 118:1 119:1 121:1 154:1 171:1 172:2 180:1 184:1 185:2 215:2 218:1 249:1 254:4 262:1 291:1 293:1 297:1 299:2 317:1 329:1 334:1 348:1 356:3 371:1 373:1 374:1 391:1 399:1 401:1 413:1 430:1 443:1 464:1 469:2 476:1 477:1 500:1 504:2 510:1 511:1 522:1 552:1 565:1 567:1 579:1 581:1 612:2 613:1 618:6 619:1 626:1 634:1 648:1 653:1 654:2 657:2 666:2 678:1 695:1 712:1 729:1 761:1 799:2 817:1 825:1 839:1 943:1 983:1 999:1 1005:6 1029:1 1030:1 1157:1 1187:1 1229:1 1291:1 1313:1 1314:2 1324:1 1341:1 1361:1 1363:1 1372:1 1375:1 1376:2 1385:1 1415:1 1427:2 1496:5 1559:1 1578:3 1608:1 1622:1 1671:1 1682:3 1716:1 1727:1 1800:1 1877:1 1962:1 1967:1 1974:1 2075:1 2078:1 2092:1 2123:1 2159:1 2199:1 2219:1 2229:1 2230:1 2240:2 2317:1 2334:1 2335:1 2402:1 2432:6 2435:1 2441:1 2609:1 2614:1 2649:1 2689:1 2886:2 2957:1 3031:1 3067:1 3117:1 3128:3 3233:1 3417:1 3422:1 3459:1 3509:1 3514:1 3550:1 3576:1 3594:1 3670:1 3717:1 3943:1 3968:2 3983:1 4002:1 4022:1 4056:1 4118:1 4196:1 4262:3 4343:1 4369:1 4411:1 4423:1 4451:1 4524:1 4542:1 4554:1 4679:1 4729:1 5526:1 5593:2 5629:1 5800:1 5910:1 6067:1 6153:1 6457:1 6541:1 6667:1 6735:1 6832:1 6994:1 7040:2 7259:1 7392:2 7432:1 7941:1 8053:1 8058:1 8274:10 8368:1 8485:1 8553:1 8791:1 9171:1 9302:1 9801:2 9850:2 9943:1 10610:1 10897:1 10998:1 11741:1 11936:1 12284:1 12389:1 12397:1 12480:1 14171:2 15479:1 15543:1 15894:1 15904:1 16004:1 16621:1 16624:1 16755:1 17128:1 17401:1 17552:1 17938:1 18689:1 18787:1 18965:1 19236:1 20068:1 21072:1 21337:1 21344:1 21573:1 23285:1 23954:1 24290:1 24653:1 25721:1 26023:1 26515:1 27893:1 28620:1 30712:1 30967:1 31404:1 33659:1 34910:1 36446:1 36561:1 37462:1 38274:1 40735:1 41668:1 42068:1 
0.002542587009290308 1:9 6:2 9:1 14:1 16:1 21:1 22:2 29:5 30:4 32:1 42:1 53:1 58:1 65:2 77:1 93:3 115:3 118:1 141:1 159:1 181:1 201:1 208:1 233:1 256:1 318:1 341:2 343:1 351:1 353:1 398:1 401:1 431:3 550:2 553:2 610:1 678:1 701:1 732:1 744:3 749:1 768:1 774:1 807:1 892:2 933:1 979:1 1024:1 1081:1 1160:1 1223:1 1238:1 1239:1 1246:1 1314:1 1344:1 1359:1 1478:1 1502:1 1631:1 1726:1 1747:1 1770:1 1806:1 1853:1 1965:3 2181:1 2206:1 2212:1 2359:1 2376:1 2428:1 2434:1 2488:1 2491:1 2519:1 2533:1 2692:1 2730:1 2758:1 2806:1 2817:1 2841:1 3022:1 3028:1 3225:1 3236:1 3251:1 3261:1 3446:1 3497:1 3517:1 3604:1 3616:1 3864:1 3875:1 3941:1 3963:1 3976:1 4105:1 4183:1 4364:1 4677:1 4763:1 4778:1 4901:1 5328:1 5346:1 5389:1 5394:1 5454:1 5518:1 5638:2 5753:1 5962:1 6123:1 6239:1 6618:1 6752:1 7122:2 7162:1 7493:1 7889:1 8227:1 8438:1 8490:1 8532:1 8533:1 8820:2 8980:1 9222:1 9405:1 9848:1 10186:1 10863:1 12655:1 12813:1 12840:1 12901:1 13860:1 14260:1 16377:1 16395:2 16666:1 17187:1 18468:1 19153:1 19848:1 20868:2 21955:1 22035:1 22724:2 22854:1 23026:1 24263:1 24335:1 24692:1 26144:1 26285:1 27056:1 27599:1 31349:1 31829:1 35333:1 36901:1 40650:1 41181:1 41705:1 42501:1 
0.002073049478644588 1:27 2:6 3:1 4:1 5:2 6:2 7:4 8:8 9:4 13:1 17:1 20:1 21:1 26:2 28:7 35:3 42:1 46:7 50:1 52:2 53:1 56:5 62:2 72:3 78:1 83:1 91:1 95:2 100:3 107:2 109:4 111:1 113:1 119:1 136:1 142:1 145:2 151:1 174:1 184:1 193:2 202:1 211:2 218:2 236:1 242:2 243:1 251:1 255:1 261:1 263:1 283:1 284:1 303:1 309:1 319:4 321:1 360:1 366:1 369:1 380:2 382:1 404:2 453:1 460:4 466:1 476:1 515:1 519:1 547:2 565:1 591:1 602:2 603:1 626:1 631:1 642:1 712:1 714:3 723:1 732:1 762:1 767:1 777:1 795:3 829:1 830:1 838:1 842:2 850:1 872:1 899:1 910:2 956:1 957:1 958:1 1013:4 1034:1 1076:1 1090:1 1093:1 1131:1 1139:1 1145:1 1195:2 1241:1 1268:1 1361:1 1389:1 1397:1 1420:2 1423:4 1464:1 1536:1 1541:3 1572:1 1580:1 1606:1 1730:4 1737:1 1792:2 1802:1 1804:1 1805:1 1813:1 1874:1 1888:1 2045:1 2078:1 2085:1 2141:1 2220:1 2224:2 2262:4 2287:1 2363:1 2391:1 2553:1 2598:1 2627:1 2646:2 2651:2 2701:2 2813:1 2814:1 2861:1 2862:1 2885:1 2974:1 3036:1 3064:1 3074:1 3094:2 3107:2 3131:1 3598:2 3624:1 3692:2 3732:1 3782:2 3922:1 3993:1 4228:1 4229:1 4269:3 4372:1 4487:1 4492:1 4628:1 4679:1 4821:1 4875:1 4902:1 4913:1 5013:1 5311:1 5344:1 5385:1 5399:1 5589:2 5609:1 5666:1 5779:1 5858:2 5883:1 5937:1 6023:1 6046:3 6049:1 6151:1 6238:3 6349:1 6350:1 6380:1 6488:1 6606:4 6661:2 6774:1 7008:1 7428:2 7525:1 7976:1 8030:1 8180:1 8334:1 8366:1 8995:1 9032:1 9043:2 9260:1 9342:1 9600:1 9844:1 10072:1 10390:1 10859:2 11052:1 11143:1 11188:1 11453:1 12139:1 12482:1 12568:1 12694:1 12788:1 13044:1 13094:1 13329:4 13363:1 13468:1 13575:1 13866:1 14154:1 14533:1 14627:1 14742:1 14743:1 14774:1 15775:1 16047:1 16064:1 16197:1 16584:1 16835:1 17036:1 17119:1 17218:1 17489:1 19564:1 19682:1 19706:1 20120:1 20932:1 21581:1 22282:1 23843:1 23853:2 27229:1 27716:1 29132:1 31671:1 32778:1 38783:1 42770:1 42782:2 
0.001172742789052637 1:35 2:7 3:16 4:1 7:2 8:2 9:2 10:1 11:4 12:2 18:1 19:1 20:2 24:1 26:1 27:7 28:1 39:1 47:1 50:1 51:1 52:5 55:1 61:5 70:1 77:3 81:2 87:1 91:1 92:7 93:1 110:1 113:1 115:2 116:4 129:1 132:2 133:2 135:1 137:3 138:1 139:3 141:1 142:1 143:1 147:7 157:1 158:7 172:1 195:1 198:2 200:2 204:1 219:4 221:2 229:1 245:1 246:4 262:2 264:1 265:4 268:1 271:1 273:1 275:1 276:1 279:1 295:1 300:3 312:1 321:1 344:1 355:1 357:1 396:1 406:1 408:2 420:6 430:1 433:1 480:1 504:1 507:1 515:1 543:1 546:1 550:2 564:1 589:2 634:2 647:1 661:1 675:1 685:2 760:1 761:1 763:1 785:1 831:3 851:4 852:1 870:1 871:1 877:2 888:1 967:2 982:2 995:7 1025:1 1043:1 1045:1 1054:1 1079:1 1096:1 1113:1 1115:2 1122:1 1166:1 1193:2 1198:1 1228:1 1256:1 1290:1 1291:1 1303:1 1331:1 1355:1 1380:1 1423:1 1431:1 1441:3 1442:1 1492:1 1610:1 1628:1 1653:1 1703:2 1720:1 1765:2 1773:5 1858:1 1896:1 1951:1 1957:2 1975:1 1995:1 2054:1 2067:1 2082:1 2113:1 2162:1 2171:1 2200:1 2211:2 2224:1 2246:1 2267:1 2300:1 2308:1 2368:2 2403:1 2420:1 2462:1 2468:1 2492:1 2569:1 2586:1 2605:2 2637:1 2644:1 2708:1 2724:1 2735:1 2751:1 2771:1 2829:1 2943:1 2954:3 3027:1 3110:1 3125:1 3186:1 3224:1 3254:1 3261:1 3272:1 3280:1 3315:1 3335:1 3337:1 3357:1 3396:1 3422:1 3583:1 3598:2 3682:1 3782:1 4009:2 4014:1 4018:1 4032:2 4065:1 4092:1 4109:1 4126:2 4238:1 4260:4 4363:1 4393:1 4401:1 4438:1 4446:1 4606:1 4670:1 4673:1 4681:1 4692:1 4698:7 4771:2 4896:1 4935:1 4943:1 4980:2 5039:1 5153:1 5221:1 5332:1 5341:1 5511:1 5966:1 5976:1 6121:1 6135:2 6202:1 6360:4 6381:1 6385:2 6455:1 6483:1 6869:1 6900:1 6921:3 6952:1 7090:1 7145:1 7283:1 7376:1 7510:3 7535:12 7690:1 7912:1 7954:1 8029:1 8124:1 8153:1 8192:1 8279:2 8410:1 8636:1 8739:1 8807:1 9050:1 9074:1 9163:1 9172:1 9333:1 9478:1 9565:1 9829:1 9992:1 10188:1 10190:1 10295:1 10363:1 10426:1 10510:1 10693:2 10722:1 10940:1 11006:1 11079:1 11191:1 11808:1 11823:1 11915:1 11948:2 11953:1 11996:1 12138:2 12305:2 12594:2 12698:1 12732:1 12771:1 12845:1 12933:1 12997:1 13705:1 14126:1 14163:1 14372:1 14458:1 14583:1 14910:1 14968:1 15040:1 15288:1 15338:2 15365:4 15478:1 15750:1 16205:1 16311:1 16364:1 16541:1 16752:1 16815:1 17240:1 17425:1 17479:1 17719:1 18201:1 18350:1 18782:1 18927:1 19309:1 19492:1 19751:1 19843:2 20302:1 20639:1 20688:1 20886:1 20967:1 21146:1 21302:1 21565:1 21603:1 22392:1 22833:1 22912:1 22969:1 23266:1 23755:1 24172:1 24266:1 24423:1 24525:1 24800:1 25042:1 25739:1 26319:1 26515:1 26546:1 27701:1 27797:1 27878:1 28965:1 29279:1 29662:1 30557:1 30898:1 31375:1 31855:1 32768:1 32892:1 33588:1 33786:1 33941:1 34476:1 36778:1 37111:1 37632:1 37653:1 37816:1 37819:1 38048:1 39984:1 40184:1 41242:1 41638:1 42210:1 
0.0006399405647935725 1:8 2:4 3:3 5:2 10:1 16:4 22:1 26:1 31:1 35:1 44:1 47:1 52:1 54:1 59:1 65:1 78:2 91:1 103:1 107:1 114:1 166:1 172:1 183:1 186:1 209:1 215:1 220:1 249:1 263:3 300:1 311:1 317:1 324:2 333:1 345:1 367:1 371:2 372:1 391:3 393:1 443:2 466:1 510:1 551:1 584:1 626:1 685:2 695:1 707:2 712:1 786:2 795:1 839:1 871:1 886:3 901:1 924:1 939:5 1005:2 1029:1 1053:1 1106:1 1153:1 1157:2 1192:1 1205:1 1216:1 1231:1 1237:1 1248:1 1314:2 1332:1 1372:1 1434:1 1445:1 1482:1 1496:2 1581:1 1751:1 1782:1 1873:1 1927:1 1987:2 2001:1 2195:1 2197:1 2230:1 2358:2 2378:1 2420:1 2515:1 2650:1 2727:1 3058:1 3078:1 3175:1 3287:1 3525:1 3588:1 3622:1 3763:1 3852:1 4122:1 4143:2 4159:1 4262:2 4528:1 4542:1 4551:1 4886:1 5189:1 5317:1 5330:1 5845:2 5973:1 6118:1 6302:1 6311:1 6451:1 6574:2 6713:1 7560:1 7625:1 7639:2 7699:1 7978:1 8218:1 8243:1 8793:5 9025:1 9250:2 9844:1 10365:1 10450:1 10904:1 11093:1 11232:1 11305:1 11770:1 12112:1 12167:1 12284:1 12352:1 12527:1 13738:1 15000:1 15039:2 15293:1 15357:1 16500:1 16524:2 17768:1 18082:1 18218:1 18730:1 19869:1 21078:1 21694:1 21904:4 22517:1 22669:1 22763:1 29301:1 29594:1 30657:1 35525:1 36656:1 40678:1 
0.0008072519879624761 1:21 2:10 3:2 4:1 5:8 8:2 9:2 10:1 12:1 13:1 15:3 17:3 18:5 20:2 23:1 24:1 30:1 32:1 35:1 41:2 44:1 45:1 48:1 52:1 53:1 57:2 63:1 65:4 66:1 67:3 69:1 73:2 78:2 89:1 110:1 113:1 114:2 115:1 125:1 126:3 139:1 150:3 154:2 174:4 180:1 183:3 203:1 217:1 227:2 250:1 254:3 258:2 262:1 263:2 274:1 289:1 294:1 305:3 311:3 326:1 330:1 333:2 345:1 349:1 356:2 372:1 374:1 376:1 380:2 391:3 393:3 394:2 403:1 419:1 456:2 462:1 484:1 511:1 533:1 543:3 592:1 595:1 607:1 610:1 618:7 619:2 641:1 653:1 655:1 679:1 684:5 708:8 715:1 768:2 778:1 780:2 786:2 789:1 808:2 810:1 814:1 839:1 855:1 863:1 882:1 908:1 924:1 926:1 939:5 953:1 974:1 976:2 988:2 993:1 994:4 1029:1 1063:2 1083:2 1086:1 1106:3 1128:1 1157:1 1176:2 1199:1 1200:1 1207:1 1212:1 1216:1 1235:1 1251:1 1263:2 1264:1 1313:1 1317:1 1333:1 1341:2 1375:2 1386:1 1391:2 1395:1 1405:2 1409:1 1448:1 1477:1 1496:2 1541:1 1562:1 1587:1 1590:1 1597:1 1609:1 1612:1 1642:1 1670:2 1674:1 1682:4 1700:2 1727:2 1773:1 1828:1 1895:1 2013:2 2076:1 2077:2 2083:1 2121:1 2123:1 2134:1 2138:1 2222:1 2339:1 2371:2 2440:1 2441:1 2461:1 2462:1 2489:1 2506:1 2515:1 2602:2 2609:1 2775:1 2840:1 2876:1 2900:1 2925:1 2957:1 2983:3 3000:1 3020:1 3054:1 3060:1 3128:2 3219:2 3493:1 3523:1 3567:3 3576:1 3634:1 3923:1 3960:1 3976:1 4022:2 4041:1 4076:1 4082:1 4242:1 4262:6 4263:1 4343:1 4426:1 4450:1 4451:1 4479:1 4526:1 4551:1 4636:1 4660:2 4753:1 4837:1 4860:1 4880:1 4972:1 4979:1 5055:1 5119:1 5137:1 5142:1 5187:1 5260:1 5424:1 5485:1 5572:1 5585:1 6061:1 6074:1 6231:1 6403:1 6476:1 6518:1 6630:3 6664:1 7135:1 7138:1 7170:1 7206:1 7236:1 7291:2 7669:1 7691:2 7722:1 7822:1 8121:1 8202:1 8310:1 8480:1 8925:1 9241:2 9288:1 9722:1 9911:1 9979:1 10021:1 10224:2 10304:1 10563:1 10586:1 10668:1 10706:1 10723:2 11512:1 11698:1 11741:2 11785:1 11947:1 12284:1 12461:1 12572:1 12590:1 12643:1 12748:1 12783:1 13613:1 13969:1 13987:1 14062:13 14597:1 15539:1 15701:1 15791:1 15831:1 15962:1 16921:1 17279:1 17382:1 17464:1 17692:1 18806:1 18994:1 19465:1 20130:1 20238:1 20292:1 20597:1 20724:3 21090:1 21601:1 21843:1 21922:2 22333:1 22631:1 24035:1 24961:1 25081:1 25183:1 26343:1 26546:1 26551:1 27219:1 27542:1 27657:1 29431:1 30514:1 30852:1 31024:1 31182:2 31447:1 31614:1 32636:1 32745:1 33671:1 34029:1 34773:1 35249:1 37864:1 40366:1 40875:3 
0.005863749728898592 1:9 2:3 3:3 5:6 8:1 9:1 13:1 15:1 16:1 17:2 20:1 21:1 30:1 31:1 35:2 41:2 44:2 46:1 47:1 49:1 59:1 63:1 69:1 78:1 81:1 85:1 87:1 90:1 110:1 119:2 132:1 139:1 144:1 160:1 172:1 197:1 198:1 200:1 214:1 216:1 252:1 263:1 291:1 311:1 319:1 345:1 352:1 360:1 376:1 388:1 391:1 403:1 434:1 461:1 476:1 504:1 509:1 534:1 537:1 687:1 692:1 694:1 695:1 794:2 808:1 872:1 873:1 889:6 924:3 953:1 982:1 1083:1 1164:2 1196:1 1212:2 1218:1 1233:1 1241:1 1314:1 1321:1 1352:1 1376:1 1394:1 1409:1 1410:1 1450:1 1479:1 1523:1 1530:1 1597:2 1618:1 1745:2 1779:3 1782:1 1838:1 1886:1 1939:3 1987:2 2099:1 2240:1 2266:1 2269:1 2273:1 2285:1 2317:1 2319:1 2366:1 2402:1 2446:1 2576:1 2595:1 2602:1 2632:1 2735:2 2808:1 2861:1 2923:2 2983:1 2985:1 3126:1 3184:1 3251:1 3291:1 3472:1 3686:1 3802:1 3890:1 3955:1 4486:2 4617:1 4796:1 4831:1 5003:1 5004:1 5123:1 5152:1 5563:1 5615:1 5621:1 5650:1 5651:1 5838:1 6044:1 6065:1 6119:2 6402:1 6627:2 6830:1 6861:1 6954:1 7063:1 7160:1 7282:1 7321:1 7443:1 7576:1 7691:2 7781:1 8193:1 8395:1 8609:1 8791:2 8838:4 8874:1 9015:1 9121:1 9149:1 9159:1 9305:1 9329:1 9424:1 10002:1 10038:2 10180:1 10261:1 10438:1 10547:1 10563:1 10804:2 11015:1 11938:1 12330:1 13348:1 13961:1 14074:1 14572:1 15222:1 15360:1 15467:1 16389:1 16426:1 16647:1 17073:1 17888:1 18306:1 18689:1 19548:1 19883:1 20503:1 20638:1 21601:1 21790:1 22022:1 22075:1 22960:1 24354:1 24424:1 25314:2 26111:1 26533:1 26568:1 26609:1 26930:1 26931:1 27905:1 27938:1 29156:1 29457:1 29864:1 32350:1 32526:1 35632:1 39366:1 41129:1 
5.491751534933518e-005 1:10 2:8 3:2 4:1 5:4 6:2 7:2 14:2 15:7 16:1 17:1 20:1 27:1 30:2 31:2 32:1 41:1 42:3 44:1 50:1 51:1 52:3 58:1 65:4 68:1 69:1 73:1 78:1 101:1 103:1 107:3 136:1 139:1 142:3 148:1 167:4 171:1 172:2 180:2 195:1 196:1 205:1 227:1 250:1 253:1 255:1 256:1 259:1 264:1 303:1 305:1 307:1 310:1 315:1 321:1 354:1 355:1 371:2 373:1 379:1 393:3 433:1 434:2 442:1 463:2 495:1 509:1 520:1 522:1 524:1 537:2 548:1 549:1 578:1 582:1 590:1 604:1 608:1 642:1 650:1 671:1 679:1 702:2 707:1 735:1 761:1 771:1 776:5 778:2 816:1 835:1 867:6 892:1 968:1 1024:1 1045:1 1097:1 1106:1 1189:2 1216:1 1219:1 1241:1 1255:1 1264:2 1333:2 1382:1 1395:1 1423:1 1461:1 1462:1 1617:1 1619:1 1745:2 1800:1 1838:1 1885:1 1941:1 2001:1 2093:1 2221:1 2266:1 2274:1 2289:1 2366:1 2444:1 2467:1 2470:1 2481:1 2524:1 2608:1 2626:2 2629:1 2724:1 2761:1 2793:1 2818:1 2939:4 2999:1 3069:4 3114:1 3150:1 3233:1 3407:1 3484:1 3523:1 3950:1 3978:1 4143:1 4181:5 4230:1 4551:1 4649:1 4744:1 4801:1 4802:1 5184:3 5256:1 5270:1 5521:1 5595:1 5732:1 5739:1 5901:1 6010:1 6105:1 6213:2 6383:1 6497:1 6781:1 6828:1 6845:1 6998:1 7026:1 7158:2 7189:1 7190:1 7275:2 7509:1 7636:1 7794:3 8164:1 8301:1 8503:1 8630:2 8926:1 9300:1 9333:1 9338:1 9753:1 9905:1 10212:1 10407:1 10552:1 10766:1 11060:1 11202:1 11546:1 11626:1 11758:1 11823:1 11969:1 12026:1 12082:1 12158:1 12633:3 13317:1 13374:1 13517:1 13844:1 13866:1 14455:1 14877:1 15174:1 15179:1 15658:2 15715:1 15951:1 16542:1 17155:1 17168:1 17284:1 17426:1 17640:2 18908:1 19136:1 19688:1 20682:1 20893:2 21096:1 21493:1 21501:4 21678:2 22083:1 23002:1 23314:1 23412:1 24041:1 25018:1 25056:1 26598:1 27154:1 27854:1 28123:4 29237:1 29569:1 31986:1 32280:1 32915:1 33731:1 34261:1 34878:1 34916:1 34998:1 35088:1 35613:1 35877:4 36392:1 36674:1 36734:1 38626:1 39118:1 39779:1 41508:1 42327:1 42823:1 
0.001573480075308077 1:8 2:3 8:1 13:1 14:1 16:2 18:1 23:2 27:5 32:1 36:1 37:1 41:1 50:1 61:1 62:1 66:2 84:1 114:1 119:3 162:1 174:4 180:1 209:1 249:1 259:1 263:1 272:1 287:1 311:1 345:1 354:1 356:1 375:1 376:1 380:1 391:5 393:2 406:2 414:1 419:1 433:1 436:1 477:1 478:1 484:1 500:1 504:1 533:1 563:1 570:1 579:2 605:1 609:1 619:2 641:1 653:1 654:2 657:2 700:1 710:2 752:1 786:1 827:1 882:1 898:1 922:1 939:2 942:1 962:1 976:1 981:1 988:1 1130:1 1176:1 1184:16 1199:3 1211:1 1250:1 1254:1 1291:1 1352:1 1422:1 1488:1 1496:3 1497:1 1541:1 1618:1 1711:1 1716:1 1749:1 1831:1 1838:1 1877:1 1946:1 2014:2 2020:1 2161:2 2218:1 2253:1 2313:1 2337:1 2376:1 2441:4 2446:2 2501:2 2515:1 2695:1 2867:2 2886:2 3035:1 3145:1 3215:3 3313:1 3644:1 3763:1 3919:1 3920:4 4014:1 4072:1 4187:1 4200:1 4223:1 4407:1 4562:5 4616:1 4623:1 4689:1 4746:1 4776:1 4886:1 4943:1 4961:2 5064:1 5227:1 5245:1 5329:1 5443:1 5451:2 5742:1 5828:1 5994:1 6321:1 6340:2 6513:1 6687:1 6775:1 6822:1 7165:1 7625:1 7905:1 7975:1 8058:1 8151:1 8243:1 9239:1 9667:1 10037:1 10321:1 10563:1 11522:1 12068:3 12143:1 12503:1 12643:1 13048:1 13755:1 14097:1 14144:1 16208:1 16961:1 17034:1 17552:1 17692:1 17693:1 17908:1 18152:1 19236:1 19262:1 20914:1 20917:1 21907:1 22763:1 24692:1 25385:1 25813:1 26413:1 28014:1 28426:1 30657:1 35736:1 36079:1 40681:1 
0.005587181088793775 1:4 2:1 3:2 5:2 8:3 16:1 19:1 21:2 24:4 29:1 35:1 45:1 63:2 65:1 70:1 93:4 97:1 114:1 118:2 163:3 174:1 198:1 200:1 209:1 237:4 282:5 283:1 296:1 311:1 324:2 348:1 351:3 357:1 364:1 368:1 436:1 441:1 469:1 479:1 492:1 551:1 590:1 597:1 602:1 786:1 789:1 799:1 882:1 905:1 939:1 943:1 959:1 974:2 979:1 1098:1 1108:1 1125:1 1157:1 1314:1 1415:1 1427:4 1506:1 1576:2 1782:1 1793:1 1808:1 1831:1 1841:1 1930:1 2325:1 2402:1 2405:1 2457:1 2482:1 2489:1 2524:1 2569:1 2716:1 2804:1 2884:1 2989:1 3524:1 3591:3 3618:2 3695:1 3727:1 3830:1 4017:1 4097:1 4130:1 4154:1 4240:1 4242:1 4261:2 4650:1 4817:1 5330:1 5502:1 5752:2 5928:1 6061:1 6148:1 6642:1 6726:1 6769:1 6792:1 6825:2 6995:1 7122:1 7128:1 7168:1 7196:1 7500:1 7531:1 7556:1 7775:1 7786:5 7837:1 8341:1 8361:1 8845:1 8888:1 8902:1 9635:1 9716:1 9771:1 10014:1 10757:1 10963:1 11252:1 11808:1 12107:2 13155:1 13348:1 14263:1 15028:1 15379:1 15894:1 16557:1 17005:1 17107:1 17159:1 17249:1 17533:1 17698:1 18104:1 19660:1 19681:1 19874:1 20907:1 20971:1 21524:1 30676:2 36053:1 37462:1 40356:1 
0.005848442712331176 1:1 3:1 5:4 8:1 12:1 13:3 16:1 20:1 29:2 31:1 35:1 42:3 44:1 45:2 46:1 52:2 58:1 61:1 64:1 78:1 103:1 115:1 119:1 125:1 129:1 137:3 158:1 220:2 245:1 258:1 262:1 290:1 318:1 337:1 341:1 359:1 375:1 410:2 437:1 449:1 484:1 516:1 578:1 590:1 647:1 668:1 715:1 721:1 742:1 748:3 786:2 850:1 906:2 939:1 976:2 1020:1 1032:2 1061:1 1108:1 1151:1 1157:1 1201:1 1236:1 1293:1 1380:1 1382:1 1409:1 1569:1 1576:2 1582:1 1618:2 1710:1 1800:1 1910:3 1951:1 2013:1 2060:1 2071:1 2400:1 2441:1 2453:1 2478:1 2721:1 2803:1 2830:1 2926:1 2978:2 3003:1 3043:1 3075:1 3143:1 3238:1 3320:1 3376:1 3423:1 3608:1 3626:1 3668:1 4229:1 4470:1 4776:1 4887:1 5036:1 5168:1 5264:1 5568:2 5602:1 5934:1 6314:1 6650:1 6759:1 6924:1 7063:1 7083:1 7212:1 7257:1 7454:1 8183:1 8232:1 8368:1 8782:2 8848:3 10040:1 10127:2 10252:1 10321:1 10379:1 10954:1 11372:1 12038:1 12830:1 13001:4 14026:1 14080:1 14635:1 15197:1 15293:1 17097:1 17532:1 18212:1 18602:1 18707:1 18796:2 18816:2 18876:1 20581:1 21888:1 21946:1 22582:1 22741:1 23098:1 24381:1 26298:1 27053:1 27060:1 28770:1 28878:1 30614:1 31211:1 34609:1 34633:1 40787:1 
0.001280495750466846 1:30 2:5 3:3 5:3 8:2 9:5 10:1 12:1 13:1 20:2 21:1 30:2 31:1 32:1 33:1 35:4 38:1 41:1 47:1 52:1 53:1 63:1 65:1 68:1 80:1 85:2 87:1 91:2 93:2 98:1 102:1 113:2 119:2 126:2 131:1 145:2 153:1 164:2 169:1 174:1 183:1 186:1 195:1 203:1 205:1 224:1 236:2 252:1 254:1 256:2 258:1 262:1 276:1 277:5 283:1 288:1 293:1 301:1 308:1 317:1 343:1 345:1 367:1 377:1 380:1 388:1 396:1 398:2 401:1 403:1 432:2 438:1 474:1 493:1 504:2 511:1 514:1 521:1 528:2 540:2 561:2 562:1 566:1 585:1 602:1 611:1 618:17 658:1 660:1 661:1 676:1 677:1 684:2 686:2 687:1 708:3 793:1 794:1 813:1 826:1 839:2 852:1 857:1 872:2 879:1 882:1 891:1 906:1 908:1 910:1 955:1 961:1 975:1 981:1 986:1 987:1 988:2 994:1 999:1 1035:1 1046:2 1087:1 1099:2 1125:2 1170:2 1283:1 1299:1 1335:1 1341:3 1372:4 1396:2 1424:1 1443:1 1450:1 1496:2 1510:2 1521:1 1539:1 1563:1 1565:2 1583:1 1642:1 1682:3 1704:1 1716:1 1727:1 1781:1 1817:1 1886:2 1915:1 1927:1 1934:1 1974:2 1986:1 2047:1 2061:1 2079:1 2096:1 2101:1 2114:1 2181:1 2184:1 2196:1 2475:1 2500:1 2514:2 2520:1 2530:1 2551:3 2695:1 2698:1 2705:1 2858:1 3035:1 3109:1 3125:2 3183:1 3191:1 3209:1 3256:1 3261:1 3373:2 3495:1 3502:1 3558:1 3559:2 3647:1 3671:1 3724:1 3735:1 3788:1 3813:1 3825:1 3925:1 4007:1 4067:1 4127:1 4143:1 4201:1 4262:1 4286:1 4481:1 4532:1 4551:1 4565:1 4727:1 4761:1 4812:1 4860:1 4983:2 5004:1 5065:1 5071:4 5152:4 5160:1 5239:1 5322:2 5498:1 5605:1 5695:1 5824:2 5943:2 5963:1 6282:2 6287:1 6323:7 6334:1 6406:1 6434:2 6521:1 7102:1 7103:1 7165:1 7194:1 7289:2 7551:5 7751:1 7757:1 7774:1 7912:1 7996:1 8095:1 8220:1 8433:1 8507:5 8548:1 8574:1 8633:1 8696:2 8767:1 8805:1 8944:1 8971:1 9033:1 9157:1 9168:1 9239:1 9243:1 9321:2 9597:1 9710:1 9734:1 9774:1 9809:1 10128:1 10157:1 10218:1 10240:1 10396:1 11073:1 11226:1 12016:1 12024:1 12074:1 12369:1 12726:1 12901:1 13154:1 13235:1 13274:1 13529:1 13556:1 13606:1 13701:1 14392:1 15081:1 15169:1 15459:1 15461:1 15479:2 15510:1 15562:2 15574:1 15931:1 16073:1 16248:1 16466:1 16474:1 17108:1 17280:1 17324:1 17529:1 17656:1 17886:5 17940:1 18460:1 18928:1 19724:1 20101:1 20475:1 20799:1 20968:1 20972:1 20980:1 22160:1 22328:1 22526:1 22780:1 23030:1 23601:1 23670:1 24207:1 24850:1 25283:1 26402:1 26595:1 26807:1 27876:1 28097:1 28507:1 28550:1 29186:1 29825:2 30124:1 30589:1 31167:1 31611:1 31787:1 32050:2 32332:1 33372:1 33439:1 33783:1 34263:1 34492:1 35947:1 36304:1 36601:1 36656:1 37966:1 38057:1 39041:1 39621:2 40894:1 41122:1 42691:1 
0.00102671003915288 1:11 2:2 3:4 4:1 5:5 7:1 8:1 10:1 11:2 12:1 15:3 16:1 17:1 18:1 21:2 23:8 25:4 30:1 41:1 42:2 49:3 53:1 54:5 58:5 80:2 91:1 99:2 103:1 108:1 110:1 114:1 126:1 132:1 142:1 143:2 150:1 160:1 164:1 167:2 172:1 175:1 180:2 185:2 191:2 192:1 194:5 203:3 214:1 219:2 220:1 236:1 249:1 256:1 297:1 299:4 315:1 318:2 345:1 348:1 373:4 385:1 392:9 393:1 406:3 419:3 440:1 453:1 454:1 463:1 467:1 472:1 483:1 509:1 510:1 519:1 526:3 550:1 552:1 566:1 567:1 571:1 578:2 593:1 605:1 635:1 648:1 658:1 693:2 702:4 709:1 710:1 723:1 744:1 776:3 786:1 789:1 816:4 827:1 867:5 914:2 916:1 938:1 943:4 958:1 968:1 988:1 1009:1 1024:1 1041:1 1147:1 1165:1 1179:1 1192:1 1231:1 1233:1 1288:2 1328:1 1377:1 1379:1 1382:1 1402:3 1562:1 1582:1 1604:1 1605:1 1634:1 1635:1 1695:1 1705:1 1842:1 1903:1 1909:1 2013:3 2057:1 2092:1 2173:1 2209:1 2220:1 2266:1 2321:1 2454:1 2457:1 2467:1 2489:2 2599:1 2607:1 2619:1 2626:2 2692:1 2712:1 2713:1 2860:3 2891:1 2906:1 2940:2 2957:1 2981:1 3058:1 3060:1 3088:1 3093:1 3119:1 3386:1 3409:1 3544:1 3619:1 3652:1 3663:1 3668:1 3707:1 3919:2 4034:1 4049:3 4100:2 4200:1 4228:1 4242:1 4283:1 4297:1 4302:1 4500:1 4573:1 4635:1 4662:1 4802:1 5119:1 5167:1 5292:1 5439:1 5493:1 5618:1 5627:1 5628:1 5651:1 5707:1 5731:1 5807:1 6213:2 6334:1 6433:1 6452:1 6516:1 6542:1 6793:1 6913:1 7275:1 7467:1 7491:1 7536:1 7680:1 7938:1 8124:1 8191:2 8300:1 8558:1 8999:1 9100:1 9159:1 9364:1 9630:1 9670:1 9738:1 10015:1 10166:2 10191:1 10635:1 10898:1 10937:1 11053:1 11216:1 11895:1 12417:1 12501:1 12633:1 12751:1 13066:1 13421:1 13510:1 13520:1 13818:1 14666:1 15005:1 15233:1 15538:1 15658:1 16495:2 16529:1 16738:1 17602:1 18664:1 19041:1 19724:1 19900:3 20533:1 21090:1 22700:2 22734:1 22967:2 23536:1 24382:1 24818:1 25260:1 25465:1 25685:1 27216:1 28114:1 31551:1 31682:1 32634:1 33627:1 35863:1 36707:1 39165:1 40654:1 
0.0001692370332787568 1:5 3:3 10:1 14:1 17:1 35:1 37:1 41:1 44:1 46:1 49:1 53:1 63:1 69:1 78:4 87:1 151:1 203:1 204:1 207:3 217:1 249:1 311:1 324:1 347:1 380:1 393:1 406:2 434:1 442:1 463:1 476:1 478:1 508:2 576:1 584:7 708:1 759:1 786:1 839:1 908:1 929:1 988:1 1164:1 1197:1 1199:1 1211:1 1212:1 1295:1 1314:1 1332:1 1341:1 1342:1 1434:1 1448:1 1682:1 1727:1 1779:1 1939:1 2001:3 2101:1 2155:1 2171:4 2218:1 2266:1 2337:1 2366:1 2493:3 2571:1 2957:1 2983:1 3051:1 3057:1 3132:1 4014:1 4251:1 4262:1 4286:2 4610:1 4820:1 4834:1 5204:2 5322:2 5642:1 5688:1 5824:1 5973:3 6192:1 6213:1 6237:2 6446:1 6590:3 7089:1 7506:1 7616:2 8312:1 8593:1 8907:1 9015:1 10002:1 10038:1 10490:1 10538:1 11033:1 11732:1 12208:1 14995:3 15057:1 15260:1 15712:1 17409:1 18378:2 19792:1 23589:1 25023:1 26256:1 27816:1 30270:1 31704:1 38725:1 40348:1 
0.002626909544991904 1:11 2:3 3:6 4:2 5:9 6:3 7:1 9:1 12:1 13:1 15:3 16:4 19:2 20:1 21:2 28:3 29:2 31:4 36:2 37:3 38:1 41:3 45:2 46:1 49:1 52:1 56:1 60:1 62:2 68:1 69:1 73:1 81:1 83:1 102:1 103:1 105:2 111:1 119:2 124:3 132:1 141:1 144:2 159:1 168:1 171:1 172:1 174:1 193:1 197:1 204:1 223:2 224:1 229:1 253:1 266:1 272:1 279:2 285:5 291:2 293:2 299:1 301:2 310:1 317:1 331:1 346:1 347:1 349:1 358:1 362:2 400:2 408:1 434:2 435:1 454:1 491:1 514:2 516:1 530:1 562:1 567:1 579:1 586:2 595:1 617:1 618:1 628:1 629:1 634:1 653:2 682:1 707:1 712:1 728:1 735:1 748:1 761:1 776:1 795:2 823:1 852:1 882:2 903:2 912:3 932:1 939:1 957:1 984:1 1017:1 1034:1 1046:2 1077:1 1099:1 1143:1 1177:1 1250:1 1295:2 1311:1 1312:2 1332:1 1391:1 1555:2 1561:1 1579:2 1609:1 1714:1 1717:1 1730:1 1798:1 1823:1 1912:1 1915:1 1935:1 2025:1 2045:1 2053:1 2061:2 2101:1 2105:2 2106:1 2142:1 2194:1 2258:1 2274:1 2309:1 2317:1 2441:1 2504:1 2517:1 2628:1 2652:1 2665:1 2726:2 2749:1 2768:1 2972:1 2982:1 3008:1 3010:1 3051:1 3096:1 3127:1 3200:1 3206:1 3246:1 3357:1 3458:1 3594:1 3604:1 3708:1 3782:4 4215:1 4298:1 4326:1 4437:1 4473:1 4581:1 4760:1 4800:1 4927:1 5299:1 5457:5 5507:1 5585:1 5594:1 5666:1 5730:1 5828:1 5844:1 5865:1 5951:1 6006:1 6044:1 6076:1 6295:1 6349:1 6359:1 6373:1 6392:2 6520:1 6600:1 7045:1 7050:1 7138:1 7201:1 7294:1 7458:1 7465:1 7702:1 7737:1 8049:1 8107:1 8150:2 8193:1 8247:3 8289:2 8459:1 8612:1 8733:1 8791:1 8895:1 8987:1 9333:1 9526:2 9914:1 9925:1 10007:1 10021:1 10036:1 10085:6 10095:1 10389:1 10531:1 10849:1 10859:1 11285:3 11356:1 11361:1 11379:1 11483:1 11714:1 11825:1 12621:1 12646:1 13047:1 13105:1 13334:1 13574:1 14083:1 14350:1 14359:1 14684:1 14719:1 15916:1 15997:1 16335:1 16446:1 16620:1 17553:1 19230:2 19267:1 19635:1 20576:1 20733:1 21316:1 21338:1 21550:1 21552:1 22137:2 22240:1 22305:2 22770:1 23323:1 24580:1 25199:1 26140:1 26170:1 27416:1 27501:1 27860:1 28353:1 28659:1 30064:1 30518:1 30758:2 31404:1 32467:1 33520:1 34472:1 34707:1 35078:1 35510:1 36403:1 36955:1 38159:2 39514:1 40644:1 40735:1 41201:1 42177:1 
0.004363703958877245 1:5 2:4 5:2 6:4 19:1 27:2 52:1 53:1 87:1 90:1 96:1 154:1 163:1 254:1 321:1 351:1 365:1 376:1 411:1 463:1 495:1 589:1 650:1 756:1 776:1 856:1 902:3 934:1 1138:1 1460:1 1883:1 1918:1 1970:1 2208:2 2368:2 2768:1 2853:1 2939:2 2999:1 3052:1 3114:1 3166:1 3293:1 4105:1 4225:1 4273:3 4291:1 4522:1 4692:1 5033:1 5245:1 5346:1 5392:1 6092:1 6124:1 6269:1 6451:1 6602:1 7450:1 7625:2 8728:1 9943:2 10072:1 10870:1 11601:1 11874:1 12123:1 13209:1 13575:2 15461:1 15951:1 17203:1 17290:1 18328:1 18749:1 19198:1 21527:1 22614:1 24843:1 28917:1 29027:1 33541:1 36334:1 
