svm_type c_svc
kernel_type linear
nr_class 2
total_sv 622
rho -0.238872
label 1 -1
probA -3.38116
probB -0.026177
nr_sv 269 353
SV
0.001268065121098129 1:18 2:2 3:2 4:2 5:1 9:3 12:2 13:2 14:2 20:1 23:2 26:1 31:1 34:1 45:1 52:2 55:2 60:1 62:1 64:1 66:2 69:2 83:1 87:1 94:2 100:1 109:1 110:1 111:1 115:2 124:2 126:1 130:2 134:1 144:1 148:1 150:1 173:1 180:1 184:1 193:1 197:1 204:1 222:4 230:1 256:1 258:1 275:1 283:1 286:1 289:1 335:1 343:3 348:1 369:1 396:2 439:1 464:1 475:2 508:1 540:1 547:1 550:2 560:1 577:1 599:3 605:1 612:1 618:3 631:1 670:1 693:1 696:1 708:3 712:1 736:2 761:2 794:1 872:1 875:1 916:1 926:1 974:1 978:1 1038:1 1100:1 1214:1 1221:1 1225:1 1283:2 1313:1 1321:1 1330:1 1374:1 1376:1 1378:1 1397:1 1428:1 1513:1 1555:2 1587:1 1590:1 1732:1 1749:1 1817:1 1850:1 1881:1 1952:1 2061:3 2063:1 2064:1 2103:1 2289:1 2313:1 2475:1 2499:1 2552:1 2713:1 2881:1 2886:1 2916:1 2981:1 3000:2 3070:1 3343:1 3389:1 3410:2 3420:1 3516:1 3519:1 3571:1 3582:1 3790:1 4014:1 4034:1 4046:1 4095:1 4196:2 4203:1 4278:1 4308:1 4425:1 4489:1 4553:1 4640:1 4669:1 4681:1 4802:1 4910:1 5003:2 5052:3 5055:1 5084:1 5203:1 5255:1 5377:1 5414:1 5524:2 5549:1 5615:1 5670:1 5804:2 5866:1 5932:1 6176:2 6215:1 6702:8 6817:1 6893:2 7096:1 7175:1 7221:1 7349:1 7646:1 7844:1 8012:1 8104:1 8869:1 8962:1 9109:5 9138:1 9142:1 9291:1 9712:1 9833:1 10645:1 10768:1 11461:1 11825:1 12099:1 12289:1 12376:1 12489:1 12535:1 13672:1 13807:1 13853:1 14423:1 14765:1 15473:1 15810:1 15867:1 16052:1 17904:1 18208:1 18312:1 19187:1 19619:1 19871:1 20085:1 21799:1 22423:1 22642:1 23056:1 24031:1 24361:1 25473:1 27438:1 28079:1 28653:1 28715:1 28820:1 29006:1 29499:1 30079:1 34807:1 36717:2 37496:1 37579:2 37620:1 39114:2 39937:1 41504:1 42506:1 42569:1 
0.003158396722022697 1:17 2:2 3:2 4:3 6:2 11:1 12:1 14:1 15:1 21:2 26:1 28:1 30:1 34:1 36:1 40:3 46:1 48:1 63:1 65:1 67:4 71:1 73:1 81:1 84:1 88:2 90:3 93:1 97:1 98:2 121:1 128:2 132:1 140:1 157:2 181:3 197:3 217:1 229:1 238:2 243:1 270:2 275:1 294:1 304:1 321:1 326:5 344:2 357:2 360:1 363:1 380:2 418:2 446:1 447:1 458:1 482:1 491:1 498:1 500:1 519:1 522:1 523:1 569:4 581:1 598:1 605:1 611:18 613:1 677:1 678:1 694:1 717:2 725:2 734:1 758:1 767:1 778:1 812:2 838:3 847:2 850:1 871:1 872:3 930:1 944:1 951:1 992:1 1038:1 1043:1 1049:1 1066:1 1079:1 1123:1 1127:1 1178:1 1220:1 1235:1 1266:2 1324:1 1338:1 1398:1 1422:1 1458:1 1464:1 1477:1 1599:1 1600:1 1604:1 1654:1 1655:1 1686:1 1870:1 1930:1 1964:1 2003:1 2048:1 2049:2 2077:1 2084:1 2091:1 2113:1 2132:1 2157:1 2179:1 2205:1 2238:1 2364:1 2440:1 2444:1 2461:1 2564:1 2584:1 2702:1 2744:1 2822:1 2878:1 2953:1 3008:1 3025:1 3181:1 3250:1 3347:1 3398:1 3410:1 3497:1 3551:1 3554:1 3597:1 3609:1 3662:1 3824:1 3831:1 3842:1 3889:1 3914:2 3920:1 3921:1 3949:1 3958:1 4173:1 4185:1 4362:2 4419:1 4479:1 4525:2 4588:2 4673:1 4763:1 4839:1 4868:1 4980:1 5018:1 5133:1 5166:2 5270:2 5308:1 5599:1 5633:1 5665:1 5710:1 5803:2 5804:1 5816:1 5875:1 5931:1 5976:1 6101:1 6194:1 6534:2 6542:1 6714:1 6826:1 6897:1 7075:1 7077:1 7125:1 7376:1 7395:1 7467:1 7730:1 8083:1 8154:1 8328:1 8573:1 8736:1 8787:1 8788:1 8892:1 9309:1 9638:1 9841:1 9863:1 9915:1 10095:1 10107:1 10350:1 10535:1 10794:1 10807:1 10915:1 11152:1 11308:1 11453:1 11519:1 11654:1 12496:1 12572:3 13109:1 13412:1 13489:1 13567:1 13597:2 13951:1 15499:1 15803:1 16645:1 16775:1 17297:1 17322:1 17388:1 17478:1 17946:1 18222:1 18380:2 18929:1 19072:1 19075:1 19283:1 19694:1 20286:1 20788:1 20851:1 20992:1 21628:1 23419:1 23549:1 23649:1 23730:4 24788:1 25263:1 26087:1 26309:1 27365:1 27449:1 29586:1 30446:1 31112:1 31124:2 31299:1 31710:1 32828:1 33540:1 37400:1 39776:1 
0.0007456618188588533 1:8 2:2 12:1 14:2 17:1 18:1 21:1 31:2 34:1 38:1 50:1 60:1 67:2 70:2 71:1 99:1 101:2 113:1 122:2 124:1 126:1 134:1 138:1 144:1 150:1 154:1 156:6 168:1 174:1 197:7 222:1 268:2 271:1 272:1 283:1 285:1 290:1 302:1 326:1 328:1 329:1 355:1 362:3 368:1 374:1 378:1 380:2 434:1 439:1 447:1 450:1 460:4 510:1 515:2 537:1 539:1 557:1 558:2 561:2 587:1 628:1 690:1 724:3 725:1 744:1 767:1 838:1 850:1 853:1 872:3 955:2 962:1 974:2 1058:1 1099:1 1100:1 1139:3 1193:1 1372:1 1374:1 1380:1 1416:1 1447:1 1513:1 1610:1 1646:1 1675:1 1709:1 1715:1 1787:1 1859:1 1882:1 1902:1 2065:2 2073:1 2132:2 2141:1 2151:1 2169:3 2213:2 2268:1 2272:1 2438:1 2479:1 2590:1 2595:1 2627:1 2666:1 2671:1 2798:1 2831:1 2850:1 2855:1 2925:4 2961:1 3010:1 3018:1 3092:1 3193:2 3206:1 3290:4 3306:1 3325:1 3357:1 3436:2 3465:1 3495:1 3804:1 4068:1 4168:1 4280:1 4305:1 4323:1 4353:1 4388:1 4454:1 4458:1 4515:2 4635:1 4831:1 4931:1 4956:1 5052:1 5350:1 5385:1 5433:1 5574:1 5584:1 5779:1 5832:1 5844:1 5854:1 5865:1 5946:1 6023:1 6090:1 6147:1 6302:1 6349:1 6464:2 6480:1 6856:1 7039:1 7175:1 7390:1 7476:1 7500:1 8085:1 8200:1 8250:1 8499:1 8513:1 9083:1 9321:1 9323:1 9390:1 9574:1 9588:1 9629:1 9690:1 10090:1 10160:1 10316:1 10362:1 10394:1 10640:1 10900:1 10910:1 11066:1 11453:1 11720:1 11772:5 11966:1 11977:1 12266:1 12359:2 12537:1 12871:1 12884:1 13235:1 13546:1 13850:1 14123:1 14301:1 14307:1 14415:1 14591:1 14904:1 15086:1 15281:1 15473:1 15606:2 16278:1 17008:1 17273:1 19884:1 19925:1 21825:1 21919:1 22058:1 22084:1 23773:1 25822:1 26929:1 27481:1 30083:1 31657:1 32855:1 33379:1 36245:1 38547:2 39040:1 39116:1 39557:1 41570:1 41807:2 42503:1 
0.001368076857887083 1:24 2:2 3:1 4:2 9:1 10:1 11:1 14:2 15:1 17:1 18:2 19:1 20:2 21:1 22:1 31:4 34:1 35:1 37:1 38:3 45:1 47:3 48:1 51:1 52:2 62:3 68:1 71:1 77:2 80:1 82:1 96:1 97:2 100:1 111:4 113:3 122:2 133:1 170:3 181:1 200:1 205:1 234:2 247:2 251:1 252:1 256:1 258:1 275:1 280:3 286:6 295:2 315:2 318:1 321:1 347:1 361:1 366:3 367:1 417:4 418:1 442:1 459:3 464:1 477:1 490:1 506:1 592:2 603:1 607:1 615:2 641:1 649:1 655:1 659:1 661:1 664:4 672:1 678:3 688:1 711:2 718:1 744:1 746:1 768:1 775:2 806:1 824:1 888:1 910:1 926:1 945:1 987:1 1012:1 1014:2 1058:1 1106:1 1123:2 1153:1 1193:1 1211:1 1215:2 1220:1 1287:1 1300:1 1315:1 1333:1 1345:1 1354:1 1395:1 1456:1 1481:3 1488:1 1490:1 1492:1 1518:1 1525:1 1541:1 1582:1 1791:1 1801:2 1806:1 1848:1 1876:1 1936:1 1959:1 1998:7 2009:2 2020:1 2048:2 2050:1 2135:4 2337:1 2391:1 2482:1 2588:1 2760:1 2880:1 2912:2 2958:1 3018:1 3071:1 3147:1 3177:1 3200:1 3236:1 3251:1 3264:1 3356:1 3555:1 3717:1 3747:1 4030:2 4079:1 4184:1 4229:1 4270:1 4338:1 4409:3 4416:1 4427:1 4496:2 4506:1 4708:1 4767:1 4791:1 4828:1 5162:1 5272:1 5352:1 5456:1 5638:1 5733:2 5756:1 6063:1 6241:1 6376:1 6565:1 6586:1 6608:1 6798:1 6898:1 6967:1 7283:1 7349:1 7374:2 7409:2 7511:1 7673:2 7857:1 8133:1 8135:1 8365:1 8392:3 8502:1 8561:1 8604:1 8698:1 8762:1 8865:1 8934:1 9413:1 9463:1 9472:2 9578:1 9598:1 9671:1 9800:1 10121:1 10153:1 10210:1 10489:1 10673:3 10701:1 11104:1 11295:1 11469:3 11912:1 12380:1 12467:1 12619:1 12721:1 12736:1 12931:1 13428:1 13666:1 14115:1 14577:2 14673:1 14761:1 14941:6 15204:1 15593:5 16374:1 16622:1 16914:1 17374:1 17452:1 17501:9 18519:1 18803:1 18880:4 18897:3 19119:1 19195:1 19682:1 19993:1 20077:1 20112:1 20305:1 20455:1 21810:1 21958:1 22596:1 22673:1 24517:1 24575:3 24624:1 24639:4 25137:1 25625:1 25668:1 26470:1 26557:1 26940:1 27333:1 28059:1 28185:1 28443:1 29256:1 29332:1 29395:1 29560:1 30172:1 31293:1 32749:1 34643:1 35488:1 36144:1 37307:2 38969:1 41679:2 42803:1 42806:1 
0.004389261457299931 1:10 2:2 3:1 6:3 7:1 8:2 15:7 17:2 28:3 36:1 38:1 40:9 44:5 45:1 50:1 51:1 52:1 53:1 72:1 74:3 77:1 78:1 79:1 85:1 89:1 94:11 99:2 110:1 115:3 122:1 126:1 128:1 130:1 150:1 160:1 164:2 170:1 173:1 178:1 179:1 187:1 188:1 193:1 196:3 204:1 221:1 229:1 231:1 238:1 253:1 268:1 269:1 277:1 299:2 319:1 336:1 352:3 362:1 370:1 416:1 424:1 439:6 456:2 462:5 476:1 498:1 523:2 535:6 537:1 551:1 567:1 583:1 588:2 610:1 613:1 631:1 661:1 691:3 694:1 696:1 729:1 732:1 770:1 794:1 810:2 817:1 842:1 891:1 990:1 1001:1 1002:1 1006:1 1007:1 1057:1 1069:1 1091:2 1137:1 1142:1 1200:2 1277:1 1286:1 1388:1 1463:1 1479:1 1488:1 1517:1 1554:1 1654:1 1738:1 1820:2 1917:1 1934:1 1995:1 1998:1 2018:1 2054:1 2065:6 2080:1 2220:1 2271:1 2300:1 2340:1 2419:1 2582:2 2678:1 2680:1 2719:1 2773:1 2824:1 2836:1 2861:1 3135:1 3177:1 3240:1 3283:1 3293:1 3307:1 3395:1 3402:1 3422:5 3487:2 3528:1 3676:1 3696:1 3700:1 3756:1 3757:1 3767:1 3832:4 3916:1 3955:2 3979:1 4038:1 4075:1 4101:3 4180:1 4394:1 4600:6 4875:1 4928:2 4959:2 4972:1 5289:1 5353:1 5416:1 5422:3 5484:1 5493:1 5505:1 5578:1 5594:1 5943:1 5945:1 6905:2 7414:3 7655:1 7750:1 7979:2 8166:3 8294:1 8303:1 8573:1 8751:1 8864:2 8895:1 8966:3 9198:1 9429:1 9436:1 9834:1 9980:1 10208:2 10342:1 11160:1 11536:1 11575:2 12322:1 13270:1 13945:1 14393:1 14520:1 15553:1 15578:1 16144:1 16547:1 17027:1 17250:1 17315:1 18866:1 18871:1 19277:1 20018:1 20378:2 20469:1 21743:1 22495:1 22827:1 25016:1 26131:1 26612:1 29921:1 33318:1 33325:1 33653:1 34181:1 37401:1 37690:1 38109:1 43161:1 
0.00092656474917942 1:16 2:2 3:3 5:1 18:2 20:1 21:2 30:3 31:3 33:1 36:2 38:1 44:1 45:1 58:5 62:1 73:1 74:1 81:1 82:2 87:1 96:1 98:1 101:1 113:1 115:8 131:2 139:1 140:1 149:2 166:1 179:3 185:2 186:1 196:1 228:1 249:1 262:1 266:1 276:1 310:1 312:1 331:1 359:1 377:6 378:2 417:2 424:1 436:2 471:1 482:1 487:1 488:2 494:1 498:1 511:1 533:1 544:1 590:1 606:2 631:1 650:1 652:2 749:1 792:2 807:2 813:1 826:1 836:1 837:1 841:1 896:1 965:1 989:1 1003:1 1006:1 1028:1 1030:2 1038:1 1046:1 1074:1 1093:1 1098:1 1109:1 1150:1 1174:1 1203:1 1221:1 1223:1 1230:2 1245:1 1302:1 1415:1 1487:1 1554:1 1630:1 1631:1 1681:1 1684:1 1742:1 1746:1 1757:3 1899:1 1994:1 2049:1 2051:1 2068:1 2090:1 2149:2 2162:1 2174:2 2181:2 2213:2 2219:1 2223:1 2263:2 2273:1 2338:1 2360:1 2393:1 2488:2 2693:1 2750:1 2789:1 2805:1 2806:1 2815:1 2849:1 3004:1 3086:1 3205:1 3351:1 3457:1 3474:1 3524:1 3546:1 3613:1 3634:1 3704:2 3741:1 3889:1 3924:1 4016:1 4104:1 4162:1 4215:1 4252:1 4305:1 4331:3 4425:1 4459:1 4499:1 4525:1 4568:1 4595:1 4645:1 4648:1 4718:2 4775:1 4834:1 4858:1 5039:1 5127:1 5183:1 5286:1 5301:1 5320:1 5526:1 5543:2 5601:3 5720:1 5815:1 5906:3 6003:1 6122:1 6133:1 6354:1 6364:1 6499:1 6500:2 6847:1 7246:1 7276:1 7557:1 7676:1 7681:1 7946:1 8057:1 8183:1 8202:1 8230:1 8234:2 8318:1 8638:1 8719:2 9183:2 9434:2 9655:1 9962:1 10105:1 10160:1 11082:1 11320:1 11490:1 11578:1 11628:1 11663:1 11672:1 11801:1 11927:1 12650:1 13033:1 13101:1 13288:1 13967:4 14238:1 14817:1 15417:1 15578:1 15730:1 16132:1 16296:1 16803:1 17100:1 17572:1 18395:1 18455:1 19168:4 19765:1 19783:1 20062:2 20883:1 21014:1 21211:1 22569:1 22592:1 22809:1 24339:2 24757:3 25602:1 25851:3 26279:1 26586:1 27223:1 28033:5 28337:1 29412:1 31977:2 32354:1 33286:1 33554:1 39591:1 39977:1 41068:1 41117:1 42288:1 
0.0005932629245562397 1:16 2:2 3:2 6:1 7:1 10:1 11:2 12:1 17:2 20:1 28:1 30:1 36:1 37:1 38:3 39:1 45:1 50:1 51:3 52:2 55:1 57:1 62:3 67:12 71:1 79:2 80:1 81:1 90:1 95:2 96:1 100:1 102:3 104:1 117:1 124:2 126:1 131:2 139:3 141:1 150:6 156:3 164:1 173:1 175:1 193:1 222:1 243:2 253:1 260:5 266:1 268:1 276:1 278:1 285:2 307:1 309:1 329:1 334:1 344:1 371:1 417:1 438:1 440:11 471:1 475:1 477:1 498:1 508:1 523:1 528:1 550:2 558:1 560:1 581:1 590:1 598:5 618:1 637:1 662:1 718:1 731:1 745:1 767:4 770:1 794:1 808:1 822:5 840:1 850:2 951:1 952:1 972:2 1038:1 1058:1 1063:1 1082:1 1087:1 1090:1 1113:3 1114:2 1166:1 1178:1 1222:1 1280:1 1288:1 1316:1 1337:1 1385:1 1414:1 1440:1 1463:1 1466:2 1505:2 1612:1 1766:1 1840:1 1880:1 1885:1 1944:1 1967:2 2052:1 2125:1 2169:1 2252:1 2334:1 2343:1 2349:2 2384:1 2401:1 2484:1 2555:1 2611:1 2627:2 2657:1 2691:1 2808:1 2815:1 2855:1 2874:1 2925:1 2953:1 2980:1 3081:1 3122:1 3207:1 3379:1 3492:1 3671:1 3712:1 3804:3 3873:1 3909:2 4220:1 4270:2 4378:1 4458:1 4630:1 4785:1 5231:1 5383:2 5459:3 5462:1 5551:1 5576:1 5584:2 5645:1 5735:2 5800:1 6152:1 6167:1 6261:1 6263:1 6349:1 6552:5 6675:1 6946:2 6991:1 7030:1 7429:1 7618:1 7814:2 7876:1 7906:1 7964:1 8016:1 8338:1 8447:1 8499:1 8545:1 9208:1 9310:1 9315:1 9520:1 9525:1 10305:1 10379:1 11450:1 11730:1 11905:1 12059:1 12167:1 12276:1 12566:1 12912:2 13385:1 13473:1 13689:1 14232:1 14584:1 15198:1 15538:1 16141:1 16741:1 17039:1 17050:1 17227:1 17331:1 17610:3 17687:1 17693:1 19548:1 20354:3 21845:1 23492:1 23535:1 24286:1 24303:1 24836:2 27869:1 28128:1 28878:1 30173:1 32070:1 37735:1 38213:1 39874:1 
0.001406111884497626 1:12 2:11 3:3 4:1 7:1 10:1 11:4 12:3 36:2 47:1 48:1 54:1 65:1 67:2 71:1 73:2 79:2 86:1 88:2 96:1 100:1 101:3 117:1 124:1 128:1 148:1 158:1 187:1 193:1 197:3 205:1 222:1 227:1 243:5 244:1 259:1 287:1 296:1 301:1 319:3 326:9 334:1 354:1 380:1 383:1 459:1 487:1 492:1 500:3 508:1 521:1 561:2 574:1 590:1 611:6 629:1 667:1 686:1 717:2 725:1 735:2 765:1 772:2 780:1 838:2 871:1 903:1 911:2 928:2 958:1 1061:1 1073:3 1136:1 1237:2 1275:1 1284:1 1322:4 1413:2 1418:1 1526:1 1535:2 1625:1 1626:2 1633:1 1672:1 1685:1 1702:2 1705:1 1722:1 1724:1 1753:1 1792:1 1802:1 1814:1 1833:1 1872:1 1889:1 1909:2 1935:2 1944:1 1965:1 2061:1 2073:2 2120:1 2134:1 2216:1 2307:1 2323:1 2364:1 2389:1 2429:1 2464:1 2562:1 2654:2 2671:2 2687:1 2703:5 2708:1 2803:2 2814:1 2834:1 2953:1 2994:1 3009:4 3077:1 3155:1 3162:2 3181:4 3218:1 3240:1 3283:2 3508:1 3525:3 3563:1 3660:3 3671:1 3756:1 3757:1 3985:1 4008:1 4032:1 4055:1 4270:1 4326:1 4333:1 4403:1 4506:1 4614:1 4760:5 4822:1 4851:2 4905:1 4930:2 4951:1 5082:1 5104:1 5300:1 5320:1 5352:1 5483:3 5714:1 5726:1 5758:1 5810:1 5824:1 6007:1 6312:1 6394:1 6398:1 6611:1 6638:1 6718:1 6743:3 7028:1 7041:2 7216:1 7302:1 7402:2 7569:1 7670:1 7809:1 7831:1 8015:1 8388:1 8561:3 8682:1 8716:2 8731:1 8748:1 8995:1 9047:1 9197:1 9567:1 9668:1 9983:1 9989:1 10323:1 10327:1 10389:2 10397:1 10535:1 10674:1 10722:1 10792:1 10889:1 11008:1 11159:1 12229:2 12255:1 12498:1 12603:2 12657:1 13007:2 13365:1 13377:1 13491:1 13754:1 13785:1 14154:3 14275:1 14727:1 14742:1 14957:1 15119:2 15150:1 15403:1 15495:1 15681:1 15763:1 16079:1 16133:1 16349:1 16678:1 16799:1 16830:1 16969:1 17171:1 17300:1 17653:1 17808:1 17847:1 17947:1 18007:1 18280:2 18459:1 19038:1 19383:1 19823:1 20009:2 20751:1 21015:1 21029:1 21050:1 21077:1 21522:1 22049:1 22269:3 22945:1 23490:1 23943:2 24077:1 24263:1 24783:1 24812:1 25089:1 25420:1 26309:2 26955:1 27488:1 27736:2 27754:2 28118:1 28834:1 29384:2 29608:1 29964:1 30484:1 33893:1 34571:1 34638:1 35867:1 36212:1 36736:1 37087:1 38332:1 38518:3 39984:1 40196:1 40685:1 41315:3 43173:1 
0.002905964420250718 1:23 2:1 3:2 7:2 8:1 9:3 11:1 14:1 18:5 20:2 21:2 22:2 30:1 33:1 34:2 36:5 40:1 45:2 46:1 48:1 54:1 55:1 57:2 58:1 59:1 60:1 63:1 68:1 70:2 77:1 82:1 83:1 87:1 96:1 97:1 99:1 100:3 112:1 115:1 124:1 126:1 132:1 139:1 143:1 145:2 150:1 153:1 159:1 183:2 192:1 199:3 222:1 228:6 243:2 248:1 280:1 283:1 347:1 357:2 363:1 369:1 400:3 426:2 436:3 461:1 464:1 488:2 505:1 524:1 559:1 576:1 606:1 616:5 620:1 645:1 661:1 682:1 685:1 701:1 728:1 772:2 808:1 813:1 826:2 829:1 837:2 841:3 854:3 860:2 882:1 900:1 957:2 966:1 983:1 1003:1 1025:1 1042:2 1046:1 1059:1 1060:1 1066:2 1083:1 1099:1 1101:1 1109:1 1129:1 1131:1 1202:1 1208:3 1226:1 1229:1 1230:1 1247:1 1255:1 1257:2 1290:1 1308:3 1324:1 1340:1 1367:2 1371:1 1421:1 1465:14 1490:1 1497:1 1500:1 1521:1 1590:1 1701:1 1742:1 1769:1 1789:1 1800:1 1801:1 1920:1 2017:4 2021:1 2132:1 2149:1 2174:2 2191:1 2272:1 2278:1 2342:1 2358:1 2361:1 2469:2 2490:1 2545:1 2568:1 2583:1 2606:1 2625:1 2639:2 2659:1 2825:1 2924:1 2949:1 2992:1 3004:1 3079:1 3117:2 3131:1 3177:1 3216:1 3366:1 3667:1 3710:1 3741:1 3813:1 3952:2 4085:1 4209:1 4210:1 4267:2 4314:1 4378:2 4401:1 4402:1 4411:1 4540:1 4646:1 4751:1 4797:1 4888:12 4941:1 4975:1 4995:1 5006:1 5052:1 5262:1 5280:1 5293:1 5430:2 5460:1 5608:1 5821:1 5842:1 5982:2 5998:2 6137:1 6144:1 6209:1 6265:1 6483:1 6492:1 6571:1 7059:1 7153:1 7232:1 7292:1 7389:1 7536:1 7718:1 7826:1 7827:1 8178:1 8563:1 8590:1 8598:2 8706:1 8960:1 9145:1 9278:1 9519:1 9533:1 9539:1 9818:1 9977:1 10070:1 10204:1 10506:1 10642:1 11009:1 11080:1 11098:1 11110:1 11489:1 11660:1 11713:1 11817:1 11893:1 12370:1 12459:1 12472:2 12935:3 13229:1 13250:3 13713:1 14241:1 14683:1 15002:1 15440:1 16292:1 16805:1 17490:1 17644:1 17759:1 17840:1 17922:1 18111:1 18148:1 18823:1 19493:1 20030:1 20069:1 20277:1 20551:1 21326:1 22675:1 23506:2 23694:1 24074:1 24218:1 24258:1 24591:1 24912:1 25540:1 26192:1 27030:4 27464:1 27635:1 29599:1 30071:1 31159:1 31799:2 33663:1 34606:1 34701:1 34802:1 38699:1 40540:1 40961:1 42336:1 
0.0001481256887906645 1:6 2:2 3:1 14:2 18:1 21:1 31:1 34:2 37:1 48:1 57:1 60:2 62:2 73:1 82:1 94:2 111:2 114:1 139:1 151:1 153:1 168:1 170:1 174:1 185:1 198:1 215:1 217:1 223:1 236:1 246:1 268:1 271:1 280:1 284:1 326:1 328:1 361:1 378:1 389:1 414:1 450:1 453:2 464:1 467:2 487:1 500:2 535:2 549:1 557:1 592:1 597:1 612:1 613:2 651:1 664:1 678:1 682:1 768:1 772:1 823:1 868:1 904:1 919:1 949:1 1017:1 1059:1 1064:1 1125:1 1153:1 1327:1 1367:2 1370:1 1386:1 1541:1 1566:1 1608:1 1629:2 1703:1 1709:1 1757:1 1775:1 1778:1 1862:2 1891:1 1908:1 2036:1 2054:7 2070:1 2118:1 2268:1 2335:1 2423:1 2481:1 2734:1 2852:1 3008:1 3181:1 3283:1 3316:1 3487:2 3755:1 3810:1 3880:1 4062:1 4287:1 4454:1 4543:1 4572:1 4656:1 4819:2 5072:1 5252:1 5306:1 5345:1 5457:1 5512:1 5600:1 5650:1 5892:1 5893:1 6133:1 6215:1 6224:2 6302:1 6538:1 6597:1 6698:1 6707:2 7309:1 7445:1 7743:1 7831:1 7867:1 7938:1 8155:1 8492:1 8549:2 8743:1 8889:1 8949:1 9482:1 10900:1 11219:1 11322:1 11469:1 11506:1 11507:1 11792:1 12731:1 13180:1 13563:1 13670:1 13715:1 14587:1 14896:1 15520:6 15683:1 15825:1 16075:1 16408:1 16734:1 17037:1 17870:1 18189:1 18792:3 19059:1 21029:1 21489:1 22991:2 24570:1 24877:1 25096:1 25715:1 25804:1 25863:1 26374:1 27936:1 28066:1 28721:1 29524:1 30134:1 30454:1 30921:2 31583:1 32739:1 32868:1 33670:1 34641:1 37452:1 40338:1 
0.002104131176417068 1:6 2:1 5:2 23:1 31:1 37:1 38:1 45:1 47:1 52:1 66:1 80:1 93:1 115:2 131:1 146:1 148:7 179:1 186:1 195:1 291:1 364:1 370:1 376:1 378:1 482:1 513:1 590:1 643:1 686:1 700:1 726:1 807:1 809:1 990:1 1007:1 1017:4 1019:1 1077:1 1119:3 1299:1 1484:1 1799:1 1811:1 1836:1 2073:1 2105:1 2143:2 2144:1 2336:1 2480:1 2489:1 2803:1 2953:1 3107:1 3157:1 3351:1 3670:1 3793:1 3803:2 4205:1 4354:1 4499:1 5409:1 5730:1 5831:1 6116:1 6192:1 6915:1 7115:1 7476:1 8304:1 8528:2 9632:1 9794:4 10937:1 11604:1 11660:1 13725:1 14826:1 15417:1 15454:1 17432:1 18527:2 19284:1 19430:1 22319:5 25253:1 37656:1 39043:1 42279:1 42813:1 
0.0001959251967780635 1:31 2:8 3:6 4:1 9:8 10:2 12:2 13:2 18:4 19:3 20:4 22:1 24:1 30:1 31:2 32:1 34:1 36:1 38:7 45:1 51:3 55:1 57:1 59:1 61:1 63:3 64:8 77:2 82:1 95:2 96:1 97:1 113:1 121:2 126:1 137:1 141:1 150:1 153:2 159:1 166:1 173:1 198:1 206:1 210:2 237:1 247:1 248:1 252:1 262:1 270:1 273:1 276:1 281:1 301:1 302:1 310:1 336:1 339:1 340:1 347:1 363:1 374:2 403:1 413:1 438:1 447:1 452:1 454:1 457:1 464:1 485:1 501:1 514:2 516:1 577:1 607:25 615:2 638:1 644:1 648:2 651:1 655:2 666:1 673:2 678:1 681:1 693:1 697:1 711:6 720:1 735:1 740:1 743:2 757:2 763:1 788:1 808:1 826:1 861:1 871:1 875:1 889:1 890:1 896:1 931:1 933:1 934:1 935:1 952:1 1046:1 1049:1 1067:2 1087:1 1100:1 1103:1 1111:2 1112:1 1129:1 1131:1 1150:1 1163:1 1169:1 1171:1 1183:1 1194:3 1210:1 1215:3 1229:1 1243:1 1253:5 1254:1 1262:1 1295:1 1344:1 1356:1 1365:1 1440:1 1450:1 1496:1 1553:2 1577:2 1591:2 1614:1 1649:1 1709:1 1716:1 1750:1 1793:1 1800:1 1831:3 1836:1 1859:1 1885:1 1912:1 1940:2 1961:1 1967:1 1993:1 2019:1 2026:1 2083:2 2111:1 2165:1 2167:1 2210:1 2212:1 2228:1 2242:1 2244:1 2281:1 2352:2 2414:1 2433:1 2460:1 2477:1 2505:1 2536:1 2615:1 2648:1 2725:1 2729:1 2746:1 2776:1 2781:1 2831:1 2866:1 2884:1 2982:1 2997:1 3126:2 3283:1 3329:1 3460:1 3489:1 3492:1 3524:1 3557:1 3571:1 3574:1 3577:1 3608:2 3647:1 3666:1 3667:1 3699:1 3716:1 3780:1 3865:1 3902:1 3942:1 4020:1 4048:1 4092:2 4095:1 4102:1 4127:1 4166:1 4221:1 4241:1 4359:1 4487:1 4509:1 4587:1 4621:1 4706:1 4724:1 4813:1 4826:1 4845:2 4864:1 4889:1 4967:1 4983:1 5141:1 5143:2 5146:3 5207:1 5261:1 5321:1 5336:1 5426:1 5480:1 5519:1 5528:1 5551:2 5696:1 5891:1 5905:1 5910:1 5960:1 5998:1 6035:1 6047:1 6120:1 6138:1 6214:1 6491:1 6529:1 6530:1 6707:1 6721:1 6757:1 6817:1 7083:1 7098:1 7121:1 7142:1 7153:1 7301:1 7425:1 7536:2 7603:1 7712:1 7941:1 7962:1 7981:1 8252:1 8484:1 8532:2 8862:1 8901:1 8934:1 8980:1 9429:1 9506:1 9564:1 9856:2 9949:1 10060:1 10199:1 10267:1 10406:1 10482:1 10639:1 10887:1 10888:1 11048:1 11191:2 11192:1 11197:1 11310:1 11521:1 11610:1 11697:1 11866:1 12021:1 12647:1 13013:1 13084:1 13107:1 13311:1 13326:1 13633:1 13662:1 13694:1 13867:1 13977:1 14048:2 14400:1 14552:1 14576:1 14882:1 14977:1 14985:1 15139:1 15364:1 15539:1 15792:1 16288:1 16589:1 16722:1 16987:1 16988:1 17054:1 17140:1 17400:1 17536:2 18103:1 18150:1 18231:1 18532:1 19197:1 19202:1 19890:1 20131:1 20180:1 20379:1 21205:1 21322:1 21456:1 21877:1 22010:1 23595:1 24413:1 24433:1 24443:21 24676:1 24746:1 24752:1 24782:1 24901:2 25057:1 26061:3 26735:1 26908:1 27151:1 27236:1 27885:1 28166:1 28593:1 29408:1 29601:1 29709:1 30599:1 32055:1 32157:1 32451:1 32570:1 33006:1 33230:1 33464:1 34097:1 34587:1 35191:1 35274:1 35286:1 35520:1 35682:1 35698:1 35769:1 35984:1 36007:1 36660:1 36872:1 37141:1 37208:1 37785:1 37879:1 38298:1 38508:1 39452:1 40446:1 40967:1 41170:1 41663:1 41686:1 
0.0003345377087191479 1:23 2:5 3:4 4:1 5:4 9:3 10:2 12:1 13:8 17:2 18:1 19:1 20:3 21:1 26:2 31:3 34:1 35:1 36:1 44:1 46:2 48:1 50:1 52:1 60:2 62:5 64:1 67:5 68:1 69:2 71:1 74:2 77:1 81:1 87:2 93:2 108:1 111:7 113:3 114:1 126:1 130:1 134:1 138:1 139:1 141:1 142:1 144:1 150:1 153:1 159:1 160:1 166:2 168:3 169:2 170:1 175:1 180:1 200:1 201:1 204:1 212:2 224:3 229:1 235:1 244:1 248:1 251:1 253:1 256:1 266:1 276:2 281:1 289:1 290:1 293:1 295:1 296:1 315:1 326:7 344:1 345:2 363:1 367:1 380:2 393:2 436:1 438:1 452:3 454:2 464:1 471:1 477:1 501:1 503:2 507:1 523:1 524:1 547:1 551:1 576:1 590:1 598:1 599:1 611:2 653:1 655:1 659:1 672:1 676:1 682:1 701:1 715:4 725:1 727:2 732:1 734:1 736:1 740:1 743:4 767:1 772:1 774:2 780:1 785:1 812:1 824:2 826:1 830:1 838:6 845:1 874:2 882:1 945:1 954:1 955:1 957:1 968:1 969:1 984:2 988:1 1044:1 1046:1 1047:1 1069:1 1087:1 1092:1 1111:1 1125:1 1176:1 1177:1 1227:1 1245:1 1259:1 1300:1 1311:1 1315:1 1334:2 1352:1 1355:1 1371:1 1374:1 1389:1 1414:1 1447:1 1509:1 1513:1 1544:1 1551:1 1577:1 1644:2 1647:1 1649:1 1668:1 1686:1 1698:1 1751:1 1761:1 1818:1 1828:1 1850:1 1874:1 1906:2 1935:1 1944:1 1945:1 1995:1 2016:1 2060:1 2064:1 2156:1 2193:1 2226:1 2268:1 2334:1 2352:1 2401:1 2423:1 2475:1 2479:1 2502:1 2561:1 2566:1 2662:1 2682:1 2702:1 2710:1 2728:1 2794:1 2798:1 2828:2 2854:1 2996:1 3000:1 3017:1 3038:1 3092:2 3275:1 3312:1 3372:1 3379:1 3384:1 3398:1 3464:1 3569:1 3576:1 3594:1 3699:2 3743:1 3791:1 3800:1 3850:1 3901:3 3904:1 3921:2 3970:1 4017:1 4040:1 4071:2 4092:1 4121:1 4220:1 4338:2 4350:1 4361:1 4425:1 4445:1 4608:1 4614:2 4673:1 4842:1 4846:1 4900:1 4980:1 5018:1 5020:1 5054:1 5213:1 5411:1 5425:1 5528:1 5633:1 5643:1 5665:1 5668:1 5773:1 5802:1 5829:1 5937:1 6090:2 6194:1 6211:3 6241:1 6477:1 6529:1 6531:1 6641:1 6685:1 6812:1 6849:2 6859:1 6881:2 6892:1 7136:1 7158:1 7648:1 7960:1 7964:1 8095:1 8153:1 8271:1 8377:1 8411:1 8655:1 8709:1 8768:1 8813:1 8907:1 9029:1 9063:1 9292:1 9419:1 9461:1 9482:1 9520:1 9696:1 9737:1 9889:1 10084:1 10087:5 10090:1 10207:1 10268:1 10341:1 10353:1 10649:1 10679:1 10700:1 11140:1 11326:1 11578:3 11644:1 11814:1 12071:1 12744:1 13148:1 13167:2 13217:1 13235:1 13259:1 13435:1 13680:1 13916:1 14162:1 14504:1 14566:1 14697:2 14904:1 15031:1 15128:1 15627:1 15981:2 16355:1 16374:1 16610:1 16624:1 17393:2 17705:1 17950:1 18114:1 18527:2 18961:1 19072:1 19194:1 19650:1 19659:1 19753:1 19884:1 20285:1 20676:1 21196:1 21575:1 21723:1 22239:1 23180:1 23206:1 23267:1 23322:1 23798:1 24215:1 24236:1 24279:1 24816:1 24869:1 24962:1 25027:1 25211:1 25810:4 26238:1 26768:1 26924:1 27402:1 29083:1 29575:1 29789:2 29882:1 29907:1 30360:1 30426:1 31199:1 31221:1 31535:14 31785:1 32164:1 32710:1 32990:1 33105:1 34116:1 34634:1 35213:1 35218:1 35684:13 35828:1 36058:1 36523:1 36552:1 36615:1 37804:1 37845:1 39428:1 40526:1 40789:1 42193:10 43044:1 
0.002249516145205654 1:32 2:7 3:3 5:1 7:3 9:2 10:2 11:5 12:1 13:3 17:4 18:3 21:1 23:2 24:4 27:24 30:2 31:1 32:1 36:6 39:2 45:1 47:1 49:1 50:1 51:1 52:3 53:2 54:4 62:4 66:1 67:1 70:1 71:3 78:2 79:1 80:4 81:1 84:2 85:2 86:2 94:6 95:1 96:4 109:3 111:1 113:1 115:2 117:1 125:1 126:2 127:4 129:1 131:1 132:5 136:1 145:1 147:2 150:2 154:1 156:12 162:1 168:3 170:1 185:8 187:2 194:1 202:1 208:1 212:1 215:2 217:1 221:2 229:2 235:2 243:3 246:1 248:1 251:1 253:2 257:1 261:1 264:2 265:1 266:1 284:1 285:6 293:1 296:1 309:1 316:1 319:1 325:1 329:2 330:2 336:3 348:1 359:2 361:1 362:1 365:1 376:1 378:2 379:2 387:1 389:5 394:1 406:3 414:1 417:1 438:2 439:1 444:1 445:2 458:1 460:15 464:3 470:1 471:1 476:1 477:1 501:1 503:1 504:1 514:1 516:1 522:1 523:1 528:1 535:6 538:1 539:1 567:1 575:2 581:2 585:1 595:1 598:1 610:1 615:1 618:2 628:1 631:2 662:1 672:1 673:1 676:1 684:1 685:1 692:2 696:1 698:2 707:3 721:2 724:1 728:2 730:1 737:1 745:6 747:1 750:1 752:1 755:1 767:3 802:1 817:1 822:1 831:2 850:1 853:1 865:1 868:1 882:1 893:1 894:1 900:1 935:1 941:1 954:1 955:2 959:1 962:2 971:1 979:1 990:1 996:2 1002:1 1019:1 1030:1 1033:1 1041:1 1048:1 1054:1 1062:1 1082:1 1087:2 1088:1 1090:4 1112:1 1115:1 1125:1 1135:1 1139:1 1153:1 1169:1 1177:1 1185:1 1187:3 1196:2 1222:1 1233:1 1259:1 1280:1 1283:1 1295:2 1320:1 1323:1 1333:1 1343:1 1355:1 1363:1 1371:1 1381:2 1387:2 1414:1 1434:1 1438:1 1439:1 1445:2 1473:1 1478:2 1498:1 1506:1 1507:1 1513:1 1517:1 1562:1 1566:1 1572:1 1577:3 1590:3 1619:1 1628:1 1640:1 1650:1 1684:1 1714:1 1723:1 1757:3 1796:1 1814:1 1841:3 1846:2 1863:1 1880:1 1884:5 1898:1 1948:1 1953:2 1959:1 1962:1 1973:1 1995:3 2042:1 2058:1 2070:1 2082:1 2108:1 2116:1 2160:1 2169:7 2189:1 2220:1 2236:2 2241:1 2261:1 2262:2 2269:1 2308:1 2334:1 2390:2 2394:1 2405:1 2461:1 2517:1 2534:2 2540:1 2541:1 2555:1 2556:1 2582:2 2583:1 2643:1 2669:1 2731:1 2733:1 2766:1 2813:2 2814:1 2833:1 2855:3 2859:2 2877:1 2898:1 2922:2 2945:2 2961:1 3010:1 3017:1 3061:1 3130:1 3131:1 3159:1 3180:2 3206:2 3218:1 3226:1 3235:1 3240:1 3290:1 3303:1 3330:1 3371:1 3372:1 3392:1 3399:4 3407:1 3419:1 3423:1 3495:1 3563:1 3621:1 3651:1 3702:1 3722:2 3847:1 3895:1 3906:1 3907:2 3928:1 3936:1 3988:1 3998:1 4033:1 4083:1 4109:1 4128:1 4151:1 4167:1 4239:1 4352:1 4444:1 4451:1 4458:1 4541:3 4543:1 4553:1 4774:1 4785:1 4944:1 4945:1 5046:1 5066:1 5181:1 5330:1 5470:1 5482:1 5494:1 5531:1 5600:2 5779:1 5784:1 5808:1 5831:1 5861:1 5865:2 5940:1 5992:1 6028:1 6075:2 6090:1 6094:1 6151:1 6304:1 6306:1 6593:1 6684:2 6743:1 6868:1 6878:1 6969:1 6991:1 7009:1 7147:1 7184:1 7190:1 7205:1 7263:1 7271:1 7307:1 7322:1 7459:1 7475:1 7498:1 7528:1 7618:1 7623:1 7733:2 7782:1 7858:1 7868:1 7934:1 7956:1 8000:1 8003:3 8018:1 8064:1 8093:1 8095:1 8131:1 8206:1 8314:1 8365:1 8402:1 8442:1 8507:1 8619:1 8727:1 8756:1 8776:1 8824:1 8869:1 8924:1 8966:1 9018:1 9064:1 9270:1 9315:1 9469:1 9515:5 9640:1 9695:1 9698:1 9757:1 9863:1 9880:1 9911:1 9920:1 10001:2 10165:1 10363:1 10499:2 10523:1 10722:1 10810:1 10862:1 10912:1 11200:1 11465:1 11566:1 11707:1 11740:1 11814:1 11931:1 12265:1 12453:1 12584:1 12910:1 12918:1 12959:1 13064:1 13167:1 13288:1 13563:1 13604:1 13746:1 13778:1 14143:1 14371:1 14681:1 15081:1 15685:1 16127:1 16166:1 16388:1 16665:2 16692:1 16715:1 16769:1 17118:2 17352:1 17556:1 17652:1 17997:1 18156:1 18163:1 18292:1 19124:1 19233:1 19307:1 19325:1 19955:1 20023:1 20258:1 20344:1 20794:6 20850:1 20961:1 21116:1 21258:1 21514:1 23021:1 23468:2 23552:1 24518:1 24580:1 24998:1 26180:1 28756:1 29458:1 29852:1 30669:1 31022:4 31235:1 31852:1 32706:1 33319:1 33844:2 34265:1 34346:1 34786:1 36056:1 36245:1 36500:1 37043:1 37502:1 38042:1 38513:1 38771:1 38820:1 40338:1 40548:1 40758:1 41084:1 41826:1 42780:1 
7.093868661996114e-005 1:39 2:15 3:9 4:2 9:1 12:2 14:2 18:7 19:1 21:4 22:1 30:1 34:1 36:1 37:3 38:2 51:1 55:3 60:2 64:2 68:1 71:1 81:1 82:1 83:2 91:1 94:1 95:1 96:1 97:1 100:4 109:1 112:2 113:1 121:1 122:2 123:5 126:1 130:4 131:2 132:1 138:1 139:1 143:1 150:1 151:2 153:1 166:2 173:3 180:3 183:3 187:2 189:1 205:3 212:2 230:1 261:1 271:2 272:1 276:2 278:1 280:1 286:5 295:22 299:1 302:1 310:2 320:1 335:1 336:2 337:2 342:1 344:1 362:3 363:1 384:1 396:2 400:1 407:1 408:1 412:1 417:2 420:1 423:1 424:2 438:2 442:1 452:1 453:1 459:1 477:1 485:1 498:2 507:2 517:7 521:1 524:11 539:1 557:2 575:1 577:2 588:3 595:1 599:1 602:2 605:2 638:2 645:4 650:1 651:1 656:1 664:1 669:1 671:5 673:1 690:1 703:1 705:1 724:1 726:3 744:1 752:1 762:1 772:2 774:1 780:1 803:2 804:8 807:1 812:1 818:2 832:1 865:2 870:1 882:2 898:1 899:1 900:2 905:1 914:1 927:1 931:1 936:2 946:1 951:1 955:1 974:1 983:4 987:1 1003:3 1014:1 1021:15 1029:1 1030:1 1034:9 1039:3 1041:1 1046:1 1047:1 1069:2 1072:2 1087:2 1092:1 1093:1 1100:2 1123:1 1143:1 1177:1 1183:5 1194:13 1224:1 1229:1 1251:2 1259:4 1262:1 1294:1 1301:1 1310:1 1324:1 1348:3 1360:3 1371:1 1387:3 1389:1 1399:1 1415:4 1422:1 1434:3 1436:1 1439:2 1440:1 1513:1 1518:1 1520:4 1532:2 1553:5 1581:3 1646:2 1713:2 1718:1 1732:1 1763:1 1804:6 1808:1 1811:1 1823:1 1828:2 1850:2 1874:1 1885:5 1915:2 1923:1 1930:3 1940:3 1945:2 1957:1 1991:1 2019:1 2036:1 2069:1 2073:1 2094:1 2135:2 2138:2 2164:1 2263:1 2312:2 2331:1 2362:1 2433:1 2436:2 2448:3 2486:1 2519:1 2568:1 2610:1 2624:1 2628:1 2645:1 2647:9 2662:1 2693:1 2728:1 2772:1 2776:1 2801:1 2822:1 2869:1 2916:3 2936:3 2969:1 3039:1 3071:2 3098:1 3142:2 3162:1 3164:2 3181:1 3222:1 3241:1 3251:1 3265:1 3274:5 3312:1 3349:1 3358:2 3377:5 3409:1 3413:1 3417:4 3432:1 3532:1 3609:1 3631:8 3674:2 3713:1 3716:1 3743:1 3789:9 3794:1 3824:2 3958:1 4033:2 4040:1 4072:1 4089:2 4096:1 4176:1 4196:1 4198:1 4211:1 4272:1 4304:1 4326:1 4338:2 4425:1 4507:1 4579:4 4583:1 4595:1 4626:2 4629:1 4705:1 4726:1 4754:1 4818:2 4826:1 4828:1 4849:1 4853:1 4885:1 4981:1 5004:1 5096:1 5106:1 5141:1 5213:1 5258:1 5310:1 5365:2 5371:1 5381:1 5388:1 5419:1 5425:1 5468:1 5470:2 5524:2 5534:1 5578:1 5668:1 5691:1 5706:1 5821:1 5839:2 5846:1 5867:1 5906:3 5932:1 5980:3 5993:1 6027:1 6225:1 6232:1 6328:1 6371:6 6491:1 6524:3 6529:2 6593:1 6628:1 6633:1 6639:1 6685:1 6755:1 6770:1 6791:1 6849:2 6885:1 6898:1 6924:1 6941:5 6943:1 7104:1 7131:1 7135:6 7199:1 7246:1 7301:1 7347:1 7516:1 7571:1 7601:1 7704:1 7732:2 7790:1 7868:1 7889:1 7913:1 7995:1 8053:1 8099:1 8159:1 8430:1 8482:2 8486:1 8604:1 8663:2 8675:1 8711:1 8810:1 8813:1 8945:1 8952:1 8964:1 8968:1 9006:1 9112:2 9115:1 9162:1 9301:1 9475:1 9488:1 9570:3 9587:1 9717:1 9856:2 9884:1 10043:1 10083:1 10108:2 10165:1 10181:1 10219:1 10324:1 10353:1 10362:1 10624:1 10795:1 10819:1 10878:1 10962:1 10972:1 11034:1 11112:1 11147:3 11258:2 11272:1 11641:1 11944:1 11956:1 12027:1 12126:2 12135:1 12167:1 12179:2 12229:1 12825:1 12865:1 12870:1 13007:2 13290:3 13505:1 13589:1 13728:1 13840:2 13864:1 13910:1 13924:1 14155:1 14248:1 14320:1 14330:1 14367:1 14511:1 14552:1 14836:1 14960:1 15188:1 15302:1 15389:1 15506:1 15535:1 15566:1 15795:6 15804:2 15997:1 16122:1 16234:2 16293:1 16408:1 16456:2 16573:1 16620:1 16804:1 16830:1 17274:1 17401:1 17521:1 17572:1 17701:1 18071:1 18170:2 18189:1 18304:1 18566:1 18974:1 18975:1 19211:1 19275:1 19492:1 19577:1 19589:1 19674:1 19763:6 20124:1 20145:1 20164:1 20280:1 20444:1 20460:1 20762:2 20822:1 20918:1 20996:1 21031:1 21356:1 21404:2 21574:1 21605:1 21798:1 21908:1 21930:3 22855:1 22904:1 23083:1 23205:1 23357:1 23502:1 23593:1 23971:2 24009:1 24175:1 24363:1 24454:1 24517:1 25266:1 25381:1 25656:3 25659:1 25925:1 27081:1 27451:1 27578:1 27765:2 28214:1 28264:1 28318:1 28335:2 28429:1 28555:1 28808:1 28920:1 28944:1 29542:2 29632:3 30562:14 30563:1 31207:4 31869:1 32189:1 33317:6 33717:3 34152:13 34408:1 34556:1 34716:13 35488:1 36175:1 36342:1 36633:1 36839:1 37593:12 38099:1 38749:1 38785:1 39175:1 40638:1 40801:1 40814:1 41337:1 42345:1 42388:1 42417:1 42670:1 
0.001131271260513259 1:16 2:10 3:2 7:1 8:1 10:1 11:2 14:1 16:3 18:1 21:2 29:2 30:3 39:3 42:3 57:1 67:5 69:1 80:1 81:1 96:2 130:1 132:4 142:1 157:1 181:2 222:1 258:1 277:1 309:1 314:3 318:1 324:1 365:2 366:1 419:1 431:2 444:1 483:1 496:3 507:2 513:1 531:3 536:1 557:2 570:1 598:1 605:1 611:19 642:1 645:1 658:1 685:1 697:1 711:4 719:1 725:1 735:1 755:1 838:1 890:1 903:1 920:1 976:1 977:1 979:1 1006:1 1044:1 1064:1 1092:1 1215:1 1220:1 1221:1 1330:1 1331:1 1365:1 1458:1 1504:1 1506:1 1509:1 1516:1 1526:1 1581:1 1638:2 1723:1 1777:1 1786:1 1842:1 1847:1 1856:1 1892:1 1930:2 1963:1 1979:2 2120:2 2145:1 2156:1 2207:1 2290:1 2312:1 2357:1 2364:2 2497:2 2611:2 2727:1 2729:1 2762:1 2866:2 2910:1 2930:1 2953:1 2979:1 3158:1 3181:1 3215:1 3227:1 3432:1 3442:1 3451:1 3529:1 3597:1 3631:1 3823:1 3837:1 4089:1 4185:1 4232:1 4320:1 4362:1 4364:1 4479:1 4644:2 4673:1 4903:3 4907:1 5135:1 5163:2 5166:1 5213:1 5315:1 5418:1 5421:1 5692:1 5723:1 5828:1 5835:1 6138:1 6195:1 6274:5 6613:1 6710:1 6747:1 6924:1 7139:1 7313:1 7482:1 7511:1 7587:1 8160:1 8229:1 8272:1 8355:1 8387:1 8532:1 8604:1 8620:1 8994:1 9076:1 9333:1 9342:1 9503:1 9838:1 9989:1 10325:2 10470:1 10677:1 10700:1 11055:1 11300:1 11599:1 11849:1 12457:1 12551:1 13545:1 13852:1 14175:1 15269:1 15346:1 15540:2 16156:1 16554:1 16701:1 16968:1 16990:1 16998:1 17108:1 17167:1 17188:1 17542:1 18067:1 18437:1 18724:1 18885:1 19689:1 19768:1 19917:1 20056:1 20154:1 20162:2 20286:2 20590:1 20764:1 21104:1 21323:1 21689:1 21710:1 21909:1 23001:1 23126:1 23382:1 23733:1 23752:1 24963:1 25008:1 25063:1 26359:1 28115:1 29042:1 29722:1 30155:1 30942:1 31523:1 31567:1 31907:1 32173:1 33167:1 33679:1 35698:1 37718:1 39361:1 39603:1 40061:1 40711:1 43152:1 
0.003213217383190936 1:10 2:1 3:1 4:3 5:1 8:1 11:3 13:2 17:1 18:1 22:1 35:1 40:2 54:3 57:2 59:1 62:2 67:1 73:6 79:1 82:1 86:3 87:4 91:1 92:1 94:3 96:1 99:2 102:2 107:1 108:1 119:1 126:2 127:1 132:1 133:1 150:2 156:8 157:9 169:1 170:2 202:1 243:1 261:5 271:1 285:1 288:1 295:2 314:1 315:3 319:2 326:1 335:2 344:1 345:2 353:1 419:1 440:2 447:1 460:1 464:1 470:1 474:1 522:1 523:1 533:1 535:3 537:1 538:1 548:1 558:1 582:1 602:2 650:1 664:1 667:1 673:1 688:1 696:1 753:1 758:6 793:1 811:1 812:1 819:1 820:1 823:1 836:1 858:1 868:1 926:2 978:1 1033:1 1049:1 1058:1 1187:1 1201:1 1273:1 1398:1 1491:1 1545:2 1557:1 1593:1 1687:1 1699:1 1723:1 1757:1 1766:1 1851:1 1948:1 1952:2 1953:3 1981:1 1982:1 1996:1 2145:1 2178:1 2189:1 2217:1 2222:1 2309:3 2320:2 2540:1 2716:1 2808:3 2815:1 2828:1 2907:2 2913:1 2931:1 3175:1 3324:1 3333:3 3341:1 3344:1 3377:1 3385:1 3399:2 3436:2 3456:1 3532:1 3602:1 3688:2 3924:1 3931:1 3936:1 3970:1 3990:2 4093:1 4106:2 4151:1 4487:1 4498:1 4541:1 4759:1 4775:1 4865:1 4882:1 4980:2 5157:1 6033:1 6041:1 6074:1 6090:1 6365:1 6393:1 6480:1 6560:1 6658:1 7013:1 7113:1 7199:1 7233:1 7353:1 7614:2 8009:2 8155:1 8200:1 8923:1 9029:1 9208:1 9445:1 9704:1 9897:1 10445:1 10570:1 10959:1 10990:1 11478:1 11514:1 11704:1 12099:1 12276:2 12331:1 12636:1 13152:1 13785:1 13834:1 13850:1 13903:1 13944:2 14242:2 14347:1 14564:1 14757:6 14771:1 15138:1 16125:1 16633:1 17163:1 17170:1 18890:1 20267:1 20380:2 21323:1 23903:1 29714:1 31172:1 33947:1 35968:1 36112:1 37214:1 40351:1 
0.0007037801770309915 1:12 2:3 3:2 4:1 8:2 11:1 17:1 18:1 21:2 25:1 46:4 49:1 52:1 54:1 60:6 62:1 78:1 79:2 80:2 84:1 92:5 94:5 96:1 117:1 121:1 130:1 132:1 133:1 134:1 135:1 139:1 144:1 145:1 156:1 157:6 162:1 163:1 168:1 170:1 214:3 243:3 251:1 257:1 277:1 281:2 283:3 285:2 290:1 295:3 299:2 300:1 305:1 319:2 329:1 351:1 361:1 386:1 389:5 390:1 392:1 407:1 445:2 460:1 471:1 476:1 501:1 508:1 515:1 518:1 522:1 523:1 524:2 535:5 560:1 602:1 604:1 614:1 662:3 664:1 706:3 724:2 736:1 746:1 789:1 801:1 802:1 897:2 906:1 929:1 1009:1 1046:1 1068:1 1109:1 1158:1 1166:3 1177:1 1191:1 1206:1 1221:1 1226:1 1234:1 1279:1 1310:1 1329:1 1343:1 1379:1 1388:1 1398:1 1415:1 1439:2 1491:1 1498:1 1517:1 1633:1 1741:1 1766:2 1802:1 1839:1 1952:1 1953:1 1975:2 1982:1 1992:1 2016:2 2073:1 2118:1 2125:1 2223:1 2258:1 2320:1 2335:1 2348:1 2376:1 2425:1 2426:1 2461:1 2499:1 2643:1 2711:1 2850:2 2861:1 2916:1 2922:2 2934:1 3010:1 3041:1 3065:1 3206:1 3207:1 3250:1 3348:1 3388:1 3399:1 3549:1 3588:1 3621:2 3636:4 3672:1 3688:22 3845:1 4063:2 4077:1 4139:1 4164:2 4229:1 4301:2 4305:1 4371:1 4406:1 4428:1 4594:1 4609:1 4721:1 4777:1 4795:1 4955:1 4956:1 4980:1 5045:1 5195:1 5418:1 5576:1 5820:1 5865:1 5896:1 5975:1 6033:2 6103:1 6138:1 6236:1 6259:1 6288:1 6349:3 6355:1 6418:1 6480:1 6646:1 6707:1 6761:1 6845:1 6947:1 7307:1 7467:1 7593:1 7638:2 7768:1 7913:1 7933:1 8088:1 8110:1 8131:1 8188:1 8288:1 8342:1 8358:1 8699:1 8834:1 8909:1 8955:1 9394:1 9434:1 9467:1 9680:1 10111:1 10306:1 10423:1 10638:1 11070:1 11109:1 11259:1 11273:1 11306:1 11634:1 11641:1 11858:1 11918:1 12003:5 12313:1 12375:1 12380:1 13205:1 13261:1 13319:1 13335:1 13616:1 13793:1 13877:1 13986:1 13992:1 14128:1 14231:1 14771:1 14979:1 15552:1 15593:1 15839:1 15867:2 15940:1 16034:2 16335:1 17063:1 17212:1 17304:1 17359:1 17795:1 17869:1 18067:1 18788:1 19191:1 19220:1 19630:1 19659:1 21152:1 22596:1 22803:1 24186:1 24447:1 25918:3 25924:1 26541:1 26776:1 26903:1 26924:1 27017:1 27435:1 27671:1 29430:1 29957:1 30273:1 30915:1 31095:1 40699:1 42171:1 42939:1 
0.001394879679471382 1:14 2:9 3:2 4:2 12:3 14:3 18:4 21:2 23:2 31:1 37:1 38:2 46:8 60:2 61:2 62:3 66:2 93:2 99:2 100:1 113:5 139:10 156:2 173:3 230:2 281:4 291:2 299:1 300:2 337:1 345:2 360:2 362:3 430:1 458:2 462:1 475:2 476:3 477:2 480:1 508:2 535:1 546:2 557:1 563:2 564:1 569:1 615:2 631:2 645:1 648:1 651:2 673:2 684:1 708:4 735:1 736:1 779:1 799:2 868:2 870:1 983:3 1042:2 1046:2 1068:1 1083:1 1214:2 1225:7 1226:3 1239:1 1279:5 1356:2 1377:1 1448:2 1466:1 1504:2 1662:1 1687:2 1756:2 1870:2 1907:2 1946:2 2096:2 2270:2 2278:2 2335:1 2370:1 2395:1 2449:2 2466:1 2710:2 2880:1 3000:1 3089:2 3109:2 3423:2 3432:2 3459:1 3684:2 3796:1 3970:2 4093:1 4197:2 4240:1 4362:2 4378:2 4959:1 5003:2 5036:2 5145:1 5332:2 5399:1 5437:2 5472:2 5949:4 6061:1 6071:2 6083:2 6191:1 6771:2 6864:2 6913:2 7027:1 7070:2 7444:5 7811:2 8686:2 9680:1 9690:1 9979:6 10354:2 10576:2 10640:2 10880:1 10908:2 11218:1 11966:5 12010:2 12298:2 12308:1 12535:1 12847:3 13143:2 14188:4 14569:2 15002:2 15113:2 15366:2 15541:2 15586:2 15920:1 15932:1 18673:2 18728:1 19242:1 19851:3 20362:1 20576:2 22375:2 22411:2 23902:1 24200:1 28259:1 30703:1 33632:2 33670:1 33926:2 34498:2 34693:1 35414:2 38422:1 41496:2 
0.0006318292635481723 1:25 2:5 3:1 4:2 5:5 6:2 7:2 9:1 10:1 12:2 13:2 21:1 22:1 23:1 24:1 27:1 30:1 31:7 32:1 35:1 37:1 38:1 50:1 51:1 53:1 61:2 66:1 68:1 69:1 77:1 78:1 81:1 82:1 83:2 87:1 90:1 91:2 92:2 93:1 97:2 99:1 101:1 113:1 114:1 116:1 119:3 124:2 126:1 131:1 141:1 148:3 150:1 161:1 191:1 209:1 226:1 232:1 239:2 252:1 263:1 271:1 273:1 291:1 295:1 296:2 316:4 346:1 349:1 369:2 403:1 434:1 436:2 446:1 468:1 495:1 498:1 501:1 504:1 509:1 548:2 551:1 555:1 562:1 563:1 564:1 575:1 594:3 644:1 645:1 666:1 670:1 686:1 692:2 731:1 759:1 788:1 801:2 845:1 851:2 889:1 895:3 907:1 912:1 925:12 935:1 953:1 958:1 1049:1 1086:2 1099:2 1126:6 1172:1 1212:1 1265:1 1281:1 1314:1 1356:2 1370:1 1374:1 1385:1 1403:1 1420:2 1434:1 1442:1 1444:1 1447:1 1461:2 1496:1 1503:1 1518:2 1532:1 1588:1 1655:2 1656:1 1672:1 1699:1 1755:1 1768:1 1791:2 1803:1 1835:1 1868:1 1882:1 1884:1 1909:1 1913:2 1925:3 1956:1 1988:2 2117:1 2144:2 2156:1 2201:1 2265:1 2289:1 2293:1 2355:1 2439:1 2480:1 2530:2 2532:1 2572:1 2610:2 2613:1 2673:1 2736:2 2765:1 2878:1 2885:1 2928:2 2959:1 3002:1 3027:1 3079:1 3133:1 3200:1 3233:1 3358:1 3360:1 3406:1 3418:1 3443:1 3527:1 3586:1 3633:1 3634:1 3716:1 3726:1 3796:1 3884:7 3915:3 3993:1 4009:1 4080:1 4102:1 4191:1 4194:2 4323:1 4331:1 4423:1 4452:1 4457:1 4506:1 4514:1 4696:1 4776:1 4799:1 4964:1 5074:1 5181:1 5272:1 5282:2 5283:1 5299:1 5328:3 5399:2 5427:1 5437:1 5441:1 5442:1 5469:3 5475:1 5652:1 5732:1 5783:1 5994:3 6012:1 6268:2 6336:1 6368:1 6417:1 6482:4 6738:1 6785:3 6837:1 6987:1 7023:1 7030:1 7049:1 7148:1 7195:1 7210:1 7285:1 7304:1 7313:1 7323:1 7383:2 7531:2 7587:1 7831:1 8183:1 8255:1 8457:3 8568:1 8943:1 8986:1 9298:19 9303:7 9394:1 9437:1 9666:1 9844:1 9951:1 10038:1 10075:1 10081:3 10295:1 10395:1 10481:1 10569:1 11227:2 11250:1 11398:1 11415:1 11489:1 11755:2 12174:1 12632:1 12927:1 13049:1 13347:2 13357:1 13976:1 14308:1 14650:1 14782:1 14931:1 14936:1 15489:1 15637:2 16076:1 16315:1 16515:1 16722:1 17264:1 17593:1 17671:1 17729:1 17731:3 17890:1 19030:1 19188:1 19348:1 19483:1 19604:1 19743:1 20137:1 20491:1 20731:1 21019:1 21848:1 22031:1 22587:1 22749:1 23388:1 23778:1 23788:6 23826:2 23827:1 23921:1 24111:1 24782:1 25513:1 25714:1 25887:1 26425:1 26474:1 26905:1 27273:1 27581:1 28723:2 28996:2 29345:1 30091:1 30141:1 30365:1 30397:1 31423:1 32619:1 32928:1 32999:2 33711:1 33739:2 34382:1 35811:1 36749:1 37112:1 37490:1 38705:1 38884:1 39461:1 39561:1 40413:1 40726:1 43002:1 
0.003194604675776795 1:10 2:5 3:4 5:1 8:2 9:2 10:1 11:6 17:1 19:1 21:1 23:2 32:1 36:1 38:2 42:1 48:2 49:2 50:1 57:1 62:3 73:1 80:1 84:1 94:9 101:1 109:1 111:2 122:1 124:1 126:2 150:2 153:1 154:1 156:1 170:1 177:5 184:1 204:1 214:1 229:1 234:1 245:1 260:1 261:3 277:1 285:1 292:6 362:1 389:4 390:1 414:1 417:1 445:2 455:1 459:1 464:1 470:1 477:1 500:1 503:1 522:1 535:2 562:1 646:1 666:1 723:1 727:1 752:1 758:2 772:1 787:1 811:1 820:2 897:1 1030:1 1031:2 1082:1 1155:2 1202:1 1203:4 1251:2 1288:1 1327:2 1334:1 1371:1 1377:1 1467:2 1624:1 1644:1 1658:1 1701:1 1754:1 1896:2 1981:2 1991:1 1999:1 2024:4 2140:1 2156:1 2211:1 2361:1 2397:1 2412:1 2488:1 2496:1 2532:1 2640:1 2922:1 2947:1 3055:2 3409:2 3436:1 3451:1 3528:1 3648:1 3688:1 4036:1 4056:1 4139:1 4151:1 4169:1 4185:2 4385:1 4469:1 4882:1 4918:1 5012:1 5088:1 5125:1 5353:2 5371:1 5494:2 5584:1 5795:1 5861:1 6016:1 6090:1 6349:1 6393:1 6487:1 6908:1 6941:1 6946:2 7100:1 7137:1 7253:1 7255:2 7565:1 7900:1 8009:1 8024:1 8222:1 8452:1 8669:1 8750:1 8966:3 9114:1 9242:1 9536:1 9633:1 10044:1 10252:2 10681:1 11653:1 11800:1 12201:1 13123:1 13385:1 13389:1 13431:1 14039:1 14314:1 14757:6 16211:1 17118:1 18169:1 19259:1 19379:2 19524:1 20296:1 20477:1 22330:1 25687:1 25793:1 26518:1 27849:1 28133:1 30746:1 34815:1 35332:1 35393:1 38868:1 
7.978643117231756e-005 1:21 2:11 3:11 4:3 8:1 10:2 12:4 19:1 21:2 31:1 35:2 36:1 45:1 46:2 47:2 48:1 51:2 59:1 60:5 62:3 64:3 67:1 71:2 73:2 74:1 79:1 80:2 84:2 86:2 87:1 91:1 95:1 101:2 102:2 108:1 111:3 113:3 124:3 126:7 131:1 138:1 139:1 150:8 153:1 156:3 160:1 168:2 198:1 203:1 209:1 221:1 223:3 230:1 233:1 243:1 252:1 262:1 271:4 275:2 277:1 285:4 286:3 289:3 290:1 291:1 310:2 321:1 327:1 334:1 339:1 348:2 356:1 357:1 358:1 374:1 375:1 378:1 380:1 389:1 407:2 417:1 425:1 439:1 446:2 458:1 460:7 464:1 467:1 470:1 511:1 513:1 515:1 516:1 536:1 549:1 552:1 561:1 562:1 563:1 569:1 570:1 605:1 619:1 631:2 655:2 664:1 670:1 745:1 750:1 767:3 775:1 785:1 793:1 820:1 850:2 860:1 875:2 933:1 974:1 983:1 984:1 1013:1 1021:2 1058:1 1069:1 1083:1 1101:1 1131:1 1135:1 1139:1 1196:1 1262:1 1325:1 1353:1 1384:2 1389:1 1403:2 1437:1 1455:1 1516:2 1529:1 1655:1 1671:1 1692:2 1709:2 1720:1 1748:2 1754:1 1761:1 1927:1 1933:1 1952:2 1954:1 1956:1 2033:1 2050:1 2051:1 2077:1 2174:1 2195:1 2204:1 2228:1 2233:1 2320:2 2322:1 2323:1 2328:1 2438:1 2456:1 2484:1 2520:1 2564:1 2569:1 2723:1 2820:1 2855:1 2912:1 2961:3 3010:2 3064:1 3128:1 3150:1 3179:1 3181:1 3206:1 3209:1 3218:1 3235:1 3249:1 3322:1 3324:1 3367:1 3676:1 3788:1 3791:1 3898:1 3936:1 4026:1 4054:1 4068:2 4088:1 4124:1 4282:1 4352:1 4362:1 4376:1 4411:1 4423:1 4428:1 4482:1 4525:2 4566:1 4568:1 4629:1 4674:3 4807:2 4829:1 4872:1 4900:1 4930:1 5099:1 5117:1 5145:1 5185:1 5366:1 5534:1 5645:1 5678:1 5715:1 5730:1 5767:2 5768:1 5816:1 5943:1 5961:1 6151:1 6236:1 6349:1 6436:1 6457:1 6459:1 6597:1 6646:1 7024:1 7032:1 7127:1 7377:1 7423:1 7637:1 7816:1 7846:1 7922:1 8035:1 8081:1 8142:1 8314:1 8563:1 8686:1 8908:1 9022:1 9031:1 9112:1 9134:1 9520:1 9556:1 9696:1 9992:1 10002:1 10044:1 10387:1 10462:1 10513:1 10604:1 10662:1 10751:1 10755:1 10862:1 10972:2 11016:1 11035:1 11110:1 11144:1 11286:1 11288:1 11302:1 11322:1 11323:3 11334:2 11384:1 11619:1 11687:1 11725:1 12116:1 12737:1 12991:2 13417:1 13733:1 13850:1 14179:1 14307:1 14329:1 14606:1 14905:1 15164:1 15368:1 15543:1 15554:1 16252:1 16264:1 16437:1 16668:1 16686:1 17556:1 18073:1 18163:1 18696:1 18724:1 19259:2 19544:2 19761:1 19947:1 20154:1 20605:1 20640:1 21018:1 21152:1 21199:1 21228:1 21679:1 21750:1 21896:1 23087:1 25398:1 26183:1 26761:1 27675:1 28502:1 28817:1 30312:1 30651:1 30680:1 30784:1 30945:1 32437:2 32606:1 32738:1 33297:1 33607:1 35399:1 35815:1 36056:1 36062:1 36912:1 38820:9 39258:1 40425:1 40962:1 
0.004530423749243206 1:13 2:4 3:5 4:5 5:2 8:1 19:1 20:2 34:2 36:2 38:2 45:1 50:1 51:1 58:2 62:2 63:1 73:1 74:1 82:4 91:1 99:1 111:1 132:2 140:2 143:1 145:2 149:2 153:2 175:1 179:2 180:1 186:1 195:1 199:4 202:1 221:1 228:1 233:1 250:1 268:1 277:1 278:1 291:1 293:1 302:2 304:1 321:1 337:1 353:1 382:1 420:1 425:1 426:4 453:1 454:1 476:1 487:1 518:1 557:1 566:1 599:1 603:2 606:1 627:1 736:3 749:1 798:1 801:1 837:1 854:2 858:1 865:1 893:1 894:1 954:1 966:1 993:1 1066:3 1088:1 1119:1 1190:2 1208:5 1232:1 1234:1 1247:2 1257:1 1386:2 1421:2 1530:1 1612:1 1648:4 1662:1 1671:1 1689:1 1852:1 1878:1 1886:1 1909:1 2059:1 2098:1 2154:3 2235:1 2242:1 2490:1 2521:1 2606:1 2618:1 2664:1 2693:2 2810:1 2879:1 2962:1 2966:1 3016:1 3149:1 3233:1 3275:1 3351:1 3497:1 3561:1 3570:1 3606:1 3626:1 3880:1 3885:1 3919:1 3952:1 4058:5 4140:1 4229:1 4286:1 4456:2 4465:1 4714:1 4814:1 4855:1 5026:1 5331:1 5540:1 5733:1 5897:1 5982:1 5986:1 6142:1 6257:1 6259:1 6485:1 6792:1 6936:1 7073:1 7113:1 7368:1 8282:1 8427:1 8960:1 9021:1 9049:1 9057:1 9168:1 9612:1 9901:1 9979:1 10204:1 10966:1 11927:1 12040:1 12128:3 12354:1 12365:1 12595:1 12754:1 13250:1 13272:1 13635:1 13639:2 14985:1 14999:1 15352:1 15386:1 15579:1 16531:1 17026:1 17056:1 17317:2 17599:1 18113:1 18640:1 18686:2 19185:1 19511:1 19708:1 21005:1 21933:1 22886:1 23182:1 24434:1 24609:1 25863:1 26922:2 27032:1 28273:1 28324:1 28470:1 29377:1 31005:1 31583:1 33794:1 33905:1 34695:1 38601:1 41057:1 
0.0003213920527210935 1:40 2:9 3:4 4:1 7:7 11:1 12:2 14:4 18:8 20:2 21:2 24:1 30:2 36:7 37:4 43:6 45:2 47:3 49:2 51:2 54:2 62:2 64:2 67:9 68:1 70:3 73:2 74:3 79:2 80:5 81:2 87:2 91:1 95:1 100:7 109:5 111:5 112:3 113:1 125:3 130:1 138:3 139:6 141:8 143:1 148:1 151:6 152:2 153:1 156:1 162:1 170:2 173:1 175:2 189:2 191:1 201:1 206:18 212:2 220:2 221:2 224:1 233:1 243:1 247:13 250:1 261:1 267:1 268:1 271:5 275:1 285:1 286:3 287:1 296:1 301:2 310:1 318:1 331:1 334:1 342:1 343:1 347:1 367:2 368:1 380:1 385:3 405:4 415:1 418:1 425:3 433:1 439:2 442:4 445:1 446:3 449:2 452:1 464:1 466:1 500:2 514:1 515:2 539:1 540:2 541:1 550:2 555:8 557:2 566:1 577:2 579:1 598:1 602:1 605:1 607:22 610:1 613:1 615:1 642:2 645:7 651:1 655:2 659:1 666:1 683:5 688:2 697:1 703:1 716:2 726:1 744:1 748:3 764:2 766:1 772:2 791:1 793:2 798:2 800:1 801:1 802:1 813:1 814:1 829:1 861:1 863:1 864:3 865:1 871:1 890:21 897:1 898:4 940:2 945:2 954:1 959:1 984:1 992:3 1003:1 1006:1 1014:6 1036:1 1064:2 1067:1 1068:2 1070:1 1114:5 1133:2 1159:1 1171:1 1176:1 1180:1 1194:1 1196:1 1215:7 1233:2 1253:8 1256:1 1266:2 1292:1 1294:1 1324:4 1334:1 1337:1 1353:2 1355:2 1362:3 1388:1 1399:9 1414:2 1440:1 1469:1 1473:2 1478:1 1482:1 1484:1 1500:1 1513:1 1532:1 1538:1 1553:1 1573:1 1574:1 1614:1 1650:1 1669:1 1689:1 1691:1 1695:1 1697:1 1720:1 1734:2 1750:3 1769:2 1771:4 1783:2 1798:1 1802:1 1807:2 1808:1 1820:1 1823:1 1833:2 1859:1 1866:3 1874:1 1898:1 1904:1 1920:1 1925:1 1930:2 1996:1 2040:1 2061:1 2073:1 2074:1 2077:1 2091:1 2096:2 2100:4 2131:1 2168:1 2173:1 2179:5 2182:1 2196:1 2200:2 2224:1 2273:1 2324:1 2328:1 2335:2 2344:2 2357:1 2363:2 2376:1 2414:1 2422:1 2456:4 2461:1 2465:1 2518:1 2546:1 2583:2 2613:1 2640:1 2641:1 2671:1 2705:2 2729:3 2765:2 2766:2 2816:1 2880:1 2932:3 2936:1 2951:1 2967:1 2969:1 3017:1 3025:4 3030:1 3055:1 3071:2 3087:1 3097:1 3134:1 3165:1 3172:1 3241:1 3252:1 3258:2 3295:3 3337:1 3343:1 3349:7 3352:1 3377:1 3426:1 3435:2 3454:1 3489:4 3515:1 3551:1 3613:1 3629:1 3634:1 3642:1 3678:1 3688:1 3690:1 3713:2 3720:2 3725:1 3755:2 3756:1 3760:1 3765:1 3800:1 3843:1 3847:3 3910:1 3922:2 3942:1 3964:1 3969:1 3997:1 4062:1 4112:1 4209:2 4221:1 4244:1 4282:1 4335:1 4387:1 4409:1 4437:1 4458:1 4460:1 4501:1 4532:1 4539:1 4587:3 4590:1 4645:1 4651:2 4662:1 4724:1 4749:1 4767:1 4779:1 4786:1 4800:1 4813:2 4907:1 4981:1 5005:4 5008:1 5010:1 5077:2 5144:1 5146:1 5163:1 5190:1 5298:2 5326:1 5340:10 5362:1 5373:1 5401:1 5442:1 5503:1 5554:4 5642:1 5643:1 5668:2 5686:2 5755:1 5828:1 5844:1 5853:1 5854:1 5893:1 5900:2 5902:1 5947:1 5970:1 5998:1 6031:1 6072:1 6102:2 6118:1 6220:1 6335:1 6434:1 6467:2 6468:1 6559:1 6641:1 6648:1 6669:1 6692:1 6695:1 6726:4 6818:1 6854:1 6863:3 6908:2 6930:3 7133:1 7153:2 7267:1 7276:1 7301:2 7417:1 7418:1 7469:1 7536:1 7753:2 7808:1 7853:1 7899:1 7975:1 8128:4 8160:1 8170:1 8211:2 8310:1 8336:1 8337:1 8354:1 8444:3 8530:3 8661:1 8686:1 8736:1 8773:1 8801:1 8815:1 8932:4 8962:1 8994:1 9017:1 9144:1 9179:1 9216:1 9249:1 9468:1 9488:1 9507:1 9587:1 9763:2 9898:2 10009:1 10083:1 10097:1 10132:3 10291:1 10387:1 10660:1 10805:1 10823:1 10831:3 10920:1 11043:1 11153:1 11394:1 11549:1 11671:3 11852:1 11880:1 11912:1 11997:1 12029:2 12049:1 12226:1 12430:1 12554:1 12568:1 12685:1 12793:1 12933:1 13080:1 13097:1 13104:1 13142:1 13159:1 13326:1 13560:6 13827:1 14035:1 14265:1 14294:1 14320:5 14403:1 14542:1 14904:1 15030:1 15032:1 15194:1 15262:1 15351:1 15376:1 15409:1 15685:4 15985:1 16324:1 16729:1 16769:1 17175:1 17231:1 17254:3 17705:1 17971:2 18167:1 18170:2 18266:1 18531:3 19030:1 19202:1 19354:1 19703:1 19712:2 19744:1 19914:1 19973:1 20180:1 20641:1 20852:1 20952:1 21202:2 21282:5 21397:2 21569:1 21702:1 21877:1 21975:1 21993:1 21998:1 22161:1 22266:1 22325:1 22609:1 22745:1 23498:1 23504:1 23783:1 23960:1 24009:3 24029:1 24137:1 24431:1 24692:1 25426:2 25707:5 25841:1 25979:2 26067:1 26303:1 26481:1 26771:1 27000:1 27178:1 27466:1 27479:1 27647:1 27747:1 27885:1 27980:1 28444:1 28498:1 28688:2 28693:1 29111:1 29141:1 29211:1 29222:1 29383:1 29883:1 29891:1 31118:1 31618:1 31896:1 32267:1 32310:1 32803:1 33227:2 33377:1 33863:1 34028:1 35185:1 35573:1 36774:1 37294:1 37588:1 37967:1 38392:1 39023:1 39194:1 39340:1 39402:1 40550:1 40676:1 40705:1 41165:2 41214:1 41819:1 42713:2 42965:2 
3.654908154034933e-005 1:44 2:9 3:4 7:1 9:5 10:2 11:1 12:2 14:3 18:7 21:1 22:1 24:2 30:2 32:1 34:1 36:4 37:16 38:3 45:1 48:1 49:1 50:2 51:5 59:1 62:1 64:3 67:9 68:2 69:5 70:4 71:2 77:3 79:4 80:1 81:1 87:1 91:1 95:1 100:1 102:1 103:1 109:1 111:6 113:4 114:2 122:1 134:3 138:4 141:3 148:1 151:3 152:4 153:5 155:1 157:1 159:2 166:4 173:2 189:5 190:2 191:2 201:3 206:12 212:5 217:1 218:2 222:1 224:2 247:20 252:1 259:2 271:1 273:1 275:2 280:1 283:1 286:1 287:1 298:1 301:2 302:1 308:1 310:1 321:1 322:1 325:1 326:2 335:1 339:1 347:3 349:1 363:1 367:1 374:1 384:1 385:2 386:1 387:1 405:3 412:1 415:1 423:2 425:1 430:1 452:1 456:1 457:1 470:1 475:4 481:1 491:1 500:3 502:1 506:5 507:1 514:2 515:1 524:2 539:2 541:1 543:1 555:12 557:4 560:1 563:1 566:1 576:1 577:1 587:1 599:6 605:1 607:30 613:2 615:2 628:1 631:1 645:10 661:1 666:1 674:1 677:2 678:10 683:1 703:1 711:7 715:1 726:1 727:2 728:1 736:2 740:1 744:2 748:2 752:1 761:1 772:1 775:3 780:1 791:1 793:5 798:1 800:1 832:1 858:2 863:1 870:1 871:3 888:1 890:34 897:1 898:1 900:1 909:1 919:1 931:1 934:1 940:1 954:1 955:1 967:1 969:1 973:2 978:1 987:1 1000:2 1014:2 1034:1 1036:4 1068:1 1070:1 1071:1 1143:1 1171:1 1180:1 1193:2 1197:2 1215:7 1223:1 1227:1 1238:2 1239:2 1245:1 1253:10 1255:1 1259:1 1266:1 1320:1 1324:2 1335:2 1337:4 1343:1 1364:1 1377:2 1381:2 1389:1 1412:1 1414:2 1422:1 1430:1 1454:1 1467:1 1469:1 1478:1 1484:1 1504:1 1513:2 1523:1 1529:1 1573:1 1586:1 1614:2 1659:1 1680:1 1711:1 1713:1 1720:2 1726:1 1734:1 1750:5 1757:1 1764:1 1769:1 1771:1 1786:1 1807:1 1823:1 1841:2 1853:1 1893:1 1898:1 1899:1 1904:2 1925:1 1926:1 1942:1 1966:1 2029:1 2036:1 2063:1 2094:4 2096:1 2118:1 2135:1 2149:1 2200:1 2207:2 2228:4 2242:1 2277:1 2285:2 2333:1 2344:1 2356:1 2363:1 2500:1 2599:1 2682:1 2758:1 2781:1 2816:1 2838:1 2843:1 2851:1 2854:1 2881:3 2896:1 2929:1 2932:4 2951:1 2972:2 3019:2 3063:1 3071:1 3083:1 3113:1 3183:1 3200:1 3216:1 3236:1 3269:1 3302:1 3329:1 3415:2 3488:1 3497:1 3503:1 3551:1 3582:1 3584:1 3620:1 3634:1 3707:1 3754:1 3755:1 3770:1 3788:2 3835:1 3843:2 3847:2 3860:1 3888:1 3925:1 4055:1 4128:1 4130:2 4166:3 4198:1 4221:2 4241:1 4252:3 4253:1 4282:1 4306:1 4326:1 4399:1 4514:1 4516:1 4518:1 4587:1 4596:1 4658:1 4767:3 4809:1 4817:1 4907:1 4938:2 4983:1 5010:1 5057:1 5075:1 5077:1 5089:1 5104:1 5143:1 5161:1 5298:1 5340:1 5401:2 5402:1 5523:1 5554:6 5569:1 5577:1 5668:2 5743:1 5753:1 5777:1 5795:1 5828:2 5900:2 5916:2 5920:1 5970:1 5998:1 6021:1 6024:2 6028:1 6072:1 6073:1 6102:4 6165:1 6382:2 6386:1 6388:1 6414:1 6467:6 6468:3 6500:1 6507:1 6553:1 6648:1 6664:1 6670:2 6671:1 6730:1 6863:6 6908:1 6942:1 7015:5 7111:1 7153:1 7157:2 7173:1 7221:1 7301:2 7320:2 7328:1 7340:1 7387:1 7508:1 7571:1 7591:2 7600:1 7670:1 7836:1 7968:1 8024:1 8054:1 8082:6 8096:2 8128:7 8146:1 8246:2 8495:1 8582:1 8661:3 8686:2 8703:1 8711:1 8840:1 8863:1 8885:1 8932:4 8998:1 9035:1 9230:1 9342:1 9428:1 9437:1 9494:1 9544:1 9557:1 9597:1 9648:1 9671:1 9725:1 9863:1 10020:1 10069:2 10114:1 10199:1 10217:1 10220:1 10263:1 10416:1 10425:1 10433:1 10460:1 10482:1 10542:1 10568:1 10634:1 10752:1 10754:1 10831:3 10854:1 10901:1 10906:1 10922:1 11174:1 11177:1 11382:1 11500:1 11574:1 11643:3 11644:1 11697:1 11870:1 12254:1 12318:1 12401:1 12657:1 12793:1 12822:1 12907:1 12933:1 13291:1 13326:1 13351:1 13483:1 13567:1 13856:1 13876:1 13969:1 14087:1 14265:1 14371:1 14403:1 14818:1 14841:1 14982:1 15462:1 15490:2 15648:1 15744:1 15804:1 15840:1 16107:1 16269:3 16320:1 16511:1 16599:1 16633:1 16665:1 16776:1 16785:1 16793:1 16805:1 17195:1 18167:1 18220:1 18451:1 18465:1 18541:1 18629:2 18686:1 18849:1 18869:1 19049:2 19195:1 19284:1 19386:1 19646:1 19685:1 19973:1 20057:1 20873:1 20971:1 21039:1 21282:1 21319:1 21587:1 21861:1 21877:1 22295:1 22352:2 22424:2 22709:1 22811:1 23355:1 23670:1 23946:1 24523:1 24586:1 24752:1 24778:1 24970:1 24983:1 25175:1 26075:2 26094:1 26474:1 26558:1 26684:2 27466:1 27479:1 27902:1 28062:1 28359:1 28592:1 29006:1 29624:2 29852:1 30017:1 31666:1 31692:1 31715:1 32540:1 32549:1 32818:1 33024:1 33052:1 33245:1 33431:1 33435:1 33618:1 33882:1 34460:1 35398:2 35497:1 35679:1 35758:3 35803:1 36116:1 38512:3 40004:1 40360:1 40496:1 41659:1 42646:1 42713:1 42973:1 43134:1 
0.0009765283162370318 1:11 2:6 3:4 6:1 11:11 18:1 19:1 21:1 30:1 31:1 34:1 40:1 43:3 61:1 62:1 82:1 91:2 94:2 96:2 101:2 109:1 111:1 126:1 127:2 135:3 140:1 143:1 150:1 170:1 188:1 197:2 222:1 229:1 246:1 259:1 269:2 276:2 277:1 285:1 314:5 319:2 358:1 362:1 416:1 438:1 470:2 477:1 599:1 619:3 645:1 664:1 668:2 690:1 728:1 737:1 748:2 774:2 842:2 965:1 1002:1 1003:1 1019:1 1038:1 1064:2 1087:1 1171:1 1257:1 1340:1 1345:1 1359:4 1363:1 1374:1 1411:3 1417:2 1446:1 1497:2 1539:1 1547:1 1567:1 1686:3 1687:1 1714:3 1813:1 1840:1 1929:1 2016:1 2024:2 2069:1 2132:1 2143:2 2164:1 2268:1 2273:1 2287:3 2302:1 2348:1 2479:1 2538:1 2643:2 2853:1 2866:1 3019:2 3034:1 3081:2 3207:1 3297:1 3519:1 3531:1 3640:1 3745:1 3926:1 3947:1 4033:1 4075:4 4243:2 4505:2 4745:9 4752:1 4806:1 4952:1 5000:6 5034:2 5306:8 5494:1 5588:2 5681:2 5699:2 5812:1 6004:1 6222:1 6256:11 6279:1 6291:2 6329:1 6540:1 6743:1 6760:1 6801:1 6845:1 6908:2 7005:1 7116:1 7241:1 7269:1 7416:1 7475:4 7550:1 7658:1 7675:1 7689:2 8000:7 8109:1 8207:1 8486:4 9043:1 10271:1 10674:2 10700:1 11711:1 12095:1 12562:2 12728:1 12811:2 12894:1 12955:2 12965:1 13117:1 13385:1 14119:1 14492:1 14742:2 15271:2 15347:1 15439:1 15811:1 15949:2 16298:1 16831:2 17065:1 17157:2 17188:1 17602:1 17869:1 17893:1 18041:1 18871:1 20037:1 23385:2 23435:2 24985:1 25253:1 25367:1 25581:1 28690:1 28837:6 29037:1 29232:1 29831:13 30635:1 30746:1 31999:3 32519:1 32937:1 33865:1 35803:1 41244:1 
0.002543139071621043 1:20 2:6 3:3 4:2 6:2 10:2 12:2 13:1 18:1 19:1 24:1 30:1 31:1 34:1 37:1 44:1 45:1 50:1 51:2 58:1 63:1 64:1 68:1 69:4 70:5 74:1 77:1 93:2 94:2 95:1 110:1 115:1 163:1 179:1 187:1 191:3 200:1 208:1 233:1 252:1 259:1 281:1 302:1 325:2 330:1 343:1 351:1 365:1 377:1 396:1 418:1 425:1 482:1 502:1 545:1 585:1 586:1 600:1 628:1 657:1 681:1 684:1 719:1 730:1 749:2 775:2 784:1 792:1 800:1 808:2 813:1 873:1 931:1 970:1 974:1 1025:1 1060:1 1077:1 1090:3 1169:1 1195:1 1222:1 1285:1 1290:1 1302:1 1313:1 1319:1 1362:1 1371:1 1390:3 1456:1 1518:1 1555:1 1612:1 1650:2 1667:1 1795:1 1799:1 1849:1 1936:1 1940:1 1962:1 1984:1 2009:1 2042:1 2057:1 2061:1 2262:3 2327:2 2521:1 2555:1 2621:2 2627:1 2638:1 2648:1 2737:1 2759:1 2766:1 2767:1 2857:1 2880:1 3497:1 3616:1 3682:1 3747:1 3756:1 3783:1 3798:1 3882:1 3889:1 3946:1 4072:1 4120:1 4221:1 4281:1 4413:1 4429:1 4514:1 4588:1 4681:1 4682:1 4796:1 4845:1 5114:1 5145:1 5202:1 5269:1 5345:1 5435:1 5528:1 5661:1 5703:1 5828:1 5868:1 5872:1 6085:1 6087:1 6167:1 6324:1 6326:3 6337:1 6354:1 6393:1 6424:1 6550:1 6709:1 6990:1 7322:1 7546:1 7643:1 7951:1 8236:1 8264:1 8526:1 8636:1 8928:1 8950:1 9021:1 9120:1 9241:1 9315:1 9327:1 9399:1 9598:1 9737:1 9901:1 9996:1 10368:1 11215:1 11237:1 11313:1 11930:1 12116:1 12535:1 13065:1 13096:1 13181:1 13386:1 13483:1 13610:1 14779:1 14826:1 15756:1 16704:1 16706:1 16906:2 17318:1 17667:1 17882:1 17990:1 18109:1 19084:1 20271:1 20492:1 20818:1 22213:1 23549:1 24271:1 24706:1 26059:2 26283:1 26828:1 27185:1 27533:1 27768:1 27942:1 29124:1 29607:1 29655:1 30272:1 30464:1 31497:1 32028:1 32633:1 33189:1 33216:1 35543:1 35667:1 36435:1 36447:1 36932:1 37535:1 39314:1 41716:1 41980:1 42382:1 43175:1 
0.002690475575437096 1:20 2:7 3:5 4:7 9:3 12:2 18:1 21:1 24:1 26:1 30:1 36:1 37:1 40:1 46:3 48:5 50:2 51:1 52:1 55:1 60:1 70:1 73:2 78:1 80:1 81:1 87:2 90:2 92:1 94:2 107:1 111:2 124:1 126:1 127:4 130:2 133:1 136:2 150:1 157:6 166:1 168:1 171:1 184:1 195:2 209:1 251:1 257:2 274:1 280:1 281:1 285:1 296:1 299:1 307:1 318:1 329:1 336:1 344:1 347:1 349:1 357:1 362:4 367:1 369:1 387:1 399:3 400:1 413:2 415:1 421:1 435:5 460:13 465:1 477:1 478:2 490:1 498:1 519:1 521:1 533:3 535:1 557:1 559:1 570:1 582:2 589:1 599:1 615:1 617:2 620:2 622:2 669:1 676:2 688:1 691:2 694:1 729:1 745:1 746:1 761:1 767:1 799:2 809:2 818:1 826:1 850:6 896:1 923:3 938:1 943:3 963:1 973:1 1009:1 1010:1 1013:1 1023:1 1060:1 1142:2 1145:1 1221:3 1229:1 1262:1 1279:4 1349:1 1350:1 1398:1 1403:1 1466:1 1467:2 1474:1 1511:1 1555:1 1583:1 1592:1 1643:1 1650:1 1691:1 1698:1 1746:2 1751:1 1768:1 1785:2 1791:4 1842:2 1967:1 2071:1 2102:1 2126:1 2196:1 2233:1 2257:1 2262:2 2264:1 2300:1 2328:1 2365:1 2400:1 2425:1 2461:1 2489:2 2603:2 2643:1 2674:1 2685:1 2737:1 2766:1 2829:1 2831:4 2954:1 2970:1 2989:1 3142:1 3150:1 3250:1 3290:3 3367:1 3399:1 3410:1 3448:2 3456:1 3477:1 3495:1 3540:1 3835:1 3880:1 3960:2 4107:2 4139:1 4151:2 4271:1 4276:2 4350:1 4361:1 4440:1 4520:1 4543:1 4602:1 4608:1 4638:1 4720:2 4938:1 5016:1 5161:1 5287:1 5370:3 5565:1 5792:1 5793:3 5865:2 5943:1 5948:1 6014:1 6075:1 6147:1 6264:1 6400:1 6494:1 6556:1 6606:5 6682:1 6684:1 6802:1 6805:1 6807:1 6884:1 7066:3 7083:1 7282:1 7489:1 7560:1 7614:1 7626:1 8231:1 8303:1 8707:1 8897:1 9270:1 9323:1 9758:1 9784:1 9915:1 9972:1 10459:1 10602:1 10630:1 10824:1 10946:1 11922:1 12072:1 12505:1 12908:1 13210:1 13244:1 13258:1 13352:1 13759:1 14104:1 14793:2 14818:1 14882:1 14910:1 15223:1 15616:1 15627:1 15815:1 15937:1 16074:1 16309:1 16978:1 17246:1 17278:1 19751:1 19785:1 20166:1 20337:1 20408:4 20660:1 21246:1 22058:1 22172:1 22671:1 22981:1 24097:1 24435:1 24491:1 24688:1 26638:1 27696:1 28113:1 28731:1 29010:1 29720:1 30022:1 30436:1 30578:1 31794:1 32087:1 32871:1 34641:1 36693:1 37708:1 39414:1 39608:1 39615:1 40539:1 41125:1 41789:1 42322:1 42447:1 42978:1 
0.001421720660914033 1:36 2:5 3:3 4:6 6:1 8:3 9:3 12:2 16:1 17:1 21:1 24:1 28:11 31:1 32:1 34:2 35:1 36:1 38:1 40:3 45:2 47:1 48:3 49:4 50:1 53:1 56:1 57:1 67:3 68:2 70:1 72:1 74:1 82:8 84:1 85:1 94:3 100:4 101:4 103:1 110:5 113:2 114:1 119:1 121:1 124:1 126:1 129:1 132:1 136:3 141:1 145:1 149:1 150:1 151:1 154:1 160:1 164:1 169:1 170:2 178:1 183:1 186:8 188:1 201:1 214:1 218:1 221:1 224:1 229:1 230:1 238:1 244:1 246:1 250:1 269:11 273:1 275:1 278:1 295:1 305:2 319:2 326:2 328:1 329:2 336:1 347:1 353:3 354:1 355:1 359:1 362:1 368:1 380:1 396:1 398:1 399:1 413:3 425:1 435:1 439:1 453:1 460:3 462:1 464:2 472:1 474:4 500:1 501:1 502:1 521:1 525:1 528:2 535:1 537:1 548:1 549:1 558:1 562:2 576:1 591:1 597:1 598:1 600:1 610:1 613:1 625:19 631:2 643:3 649:2 651:1 667:9 668:5 674:1 701:1 721:2 745:1 755:4 762:1 777:1 798:1 815:1 819:3 823:1 829:1 838:2 869:2 889:3 933:1 938:1 967:1 969:1 976:1 1001:1 1044:1 1053:1 1056:1 1057:1 1064:1 1106:5 1117:1 1171:1 1203:1 1211:1 1230:1 1264:1 1270:1 1274:1 1289:1 1295:1 1296:1 1297:1 1319:12 1323:1 1324:1 1329:1 1330:1 1333:1 1354:5 1363:1 1408:2 1415:1 1426:1 1474:1 1501:1 1598:1 1602:1 1605:4 1608:1 1626:1 1633:1 1671:1 1677:1 1691:1 1695:1 1712:1 1737:1 1748:1 1761:1 1814:1 1815:1 1820:2 1855:1 1861:2 1884:1 1888:1 1925:1 1933:1 1945:1 1946:1 1948:1 1954:1 1957:1 1969:1 1995:3 2028:2 2051:1 2065:1 2084:1 2091:1 2108:1 2179:1 2198:1 2203:1 2218:2 2219:1 2287:1 2337:1 2374:1 2408:1 2410:1 2521:1 2556:1 2561:2 2566:1 2578:1 2582:1 2611:1 2622:1 2634:1 2655:1 2672:1 2687:1 2731:1 2752:1 2774:1 2801:1 2818:1 2828:4 2866:1 2906:1 2910:2 2918:3 2954:1 3025:1 3053:1 3065:1 3090:7 3141:1 3146:4 3150:1 3233:1 3239:1 3246:1 3267:1 3311:1 3322:1 3341:1 3416:1 3432:1 3462:5 3476:1 3484:1 3553:1 3562:1 3578:1 3622:1 3697:1 3829:1 3847:1 3903:1 3918:1 3940:1 3986:2 3998:2 4117:1 4168:1 4185:1 4186:1 4203:1 4479:1 4560:31 4633:1 4645:3 4662:2 4743:1 4813:1 4918:1 4964:1 4992:1 5015:2 5048:1 5181:1 5188:1 5263:1 5305:1 5317:3 5337:2 5382:1 5393:1 5523:1 5617:2 5674:1 5677:1 5724:1 5859:1 5896:1 5931:2 5945:1 5971:1 6075:3 6104:4 6141:1 6151:1 6162:3 6170:1 6195:1 6300:6 6328:1 6344:1 6376:1 6420:4 6531:2 6698:1 6740:1 6813:1 6834:2 6996:1 7083:3 7261:2 7363:1 7400:2 7483:1 7690:1 7789:1 7956:1 8020:2 8095:1 8106:1 8125:1 8250:1 8269:1 8312:1 8478:1 8535:1 8562:4 8585:1 8595:1 8886:2 9004:1 9009:1 9037:1 9105:1 9166:1 9396:1 9567:1 9588:1 9867:1 9915:1 9938:1 10008:1 10011:1 10680:1 10699:1 10821:1 10913:1 10922:1 11037:1 11164:1 11482:1 11743:1 11845:1 11870:1 12157:1 12366:1 12423:1 12599:1 12707:1 12789:1 12816:1 12912:1 12947:1 12952:1 13310:1 13324:3 13448:2 13520:2 13616:1 13666:1 13804:5 13836:1 13939:1 14354:1 14466:2 14677:1 14878:1 14953:1 15028:1 15247:1 15589:2 15657:1 15835:1 16194:1 16425:1 17785:1 18210:3 18475:1 18536:3 18882:1 19526:1 19683:6 20271:2 20390:1 20598:1 20806:1 21269:1 21283:1 21746:1 21789:1 21907:1 23446:1 23580:1 23790:1 24256:1 24297:1 24527:1 25710:1 26068:1 26467:1 27344:1 27436:1 27897:3 28431:2 28740:1 29184:1 29308:1 29415:1 29458:1 29492:1 30052:1 30904:1 31029:1 31403:1 31732:1 32171:1 33714:1 33755:1 33857:1 34427:3 34475:1 35247:1 35881:1 36099:1 36704:1 36744:1 36853:1 36893:1 37302:1 38542:1 38855:1 39762:1 40106:1 40543:1 41073:1 41935:1 41939:1 41968:1 
0.1539387621141362 39:1 1603:1 1906:1 2399:1 3832:1 14642:1 
4.988380570121423e-005 1:19 2:10 3:5 4:2 7:3 11:13 12:3 15:1 17:2 18:1 21:1 22:1 23:1 24:1 30:2 32:1 35:1 39:2 40:1 44:1 45:1 47:1 48:3 52:1 53:1 57:2 67:17 68:1 73:1 79:1 80:1 86:10 88:1 94:1 96:3 109:2 110:1 113:1 114:1 121:1 126:1 130:5 140:1 150:1 154:1 156:1 159:1 168:1 170:2 173:3 179:1 185:2 186:1 187:1 202:2 217:2 221:2 224:2 238:2 242:1 243:1 248:1 253:2 255:1 258:1 266:1 274:1 284:3 287:1 300:2 312:1 314:6 336:1 350:2 352:2 360:1 380:5 383:2 386:1 397:1 421:2 432:1 438:1 450:1 453:1 458:2 460:1 464:1 470:4 477:3 508:4 519:1 540:1 549:1 553:2 558:2 569:1 576:1 577:1 581:1 593:1 604:1 610:1 613:1 617:1 618:1 626:2 631:1 642:4 700:1 708:1 712:1 724:1 725:1 732:1 734:1 742:1 747:2 777:1 793:1 814:1 838:3 875:1 888:1 908:1 913:1 935:1 944:1 945:12 948:1 1010:1 1031:1 1045:1 1056:1 1057:1 1061:1 1099:1 1101:6 1107:1 1131:1 1178:1 1191:1 1198:1 1220:4 1222:1 1255:1 1273:1 1275:1 1315:1 1327:1 1378:1 1379:1 1386:1 1416:3 1424:1 1479:1 1481:1 1551:2 1558:1 1621:1 1639:1 1687:1 1699:1 1740:1 1772:2 1781:1 1815:1 1836:1 1852:1 1856:2 1872:1 1880:1 1896:1 1908:1 1923:1 1949:1 1973:1 1975:1 1985:1 1990:1 2014:1 2036:1 2051:1 2087:1 2094:1 2138:1 2141:1 2155:2 2164:1 2225:1 2249:2 2270:1 2299:1 2335:1 2364:1 2387:1 2424:1 2476:15 2500:1 2560:1 2590:1 2610:1 2669:1 2698:1 2703:1 2710:1 2718:1 2783:1 2833:1 2847:4 2880:1 2884:2 2900:1 2910:1 2942:1 2964:1 3014:1 3027:1 3040:1 3067:1 3108:2 3131:1 3224:3 3249:1 3275:1 3357:1 3372:1 3393:1 3507:2 3698:1 3715:2 3733:1 3767:1 3802:1 3855:1 3864:1 3869:1 3918:3 3986:3 3998:1 4084:1 4198:1 4214:1 4301:1 4307:1 4338:1 4411:1 4579:1 4581:1 4608:1 4630:1 4640:1 4656:1 4659:1 4719:1 4785:1 4818:1 4828:1 4856:1 4899:1 4939:1 5000:3 5121:1 5125:1 5162:1 5337:1 5380:1 5404:1 5421:1 5422:3 5488:1 5521:1 5585:1 5655:2 5685:6 5737:1 5772:1 5808:2 5885:1 5893:1 5899:1 5966:1 6043:1 6085:1 6166:3 6337:3 6516:1 6539:3 6578:1 6599:1 6743:1 6760:1 6878:1 6892:1 7068:1 7194:1 7234:1 7291:1 7425:1 7475:1 7487:1 7564:1 7581:1 7673:1 7688:1 7707:2 7858:1 8086:1 8166:1 8174:1 8199:1 8222:1 8669:1 8683:1 8844:1 8997:1 9549:1 9602:1 9685:1 10118:2 10294:1 10552:1 10660:1 10844:1 10883:1 11146:1 11465:1 11785:2 11786:1 11812:1 12377:1 12443:2 13027:1 13090:6 13145:1 13380:1 13488:2 14210:1 14528:1 14606:1 14621:1 14715:1 14877:1 15324:1 15393:1 15859:1 15934:2 15948:1 15968:2 16421:5 16559:1 17037:1 17512:1 17518:1 17833:14 17908:1 18130:2 18314:1 18644:1 18894:1 19147:1 19212:1 19296:1 20059:1 20480:1 20831:1 20850:1 21141:1 21153:1 21419:1 21578:1 22213:1 22422:1 22894:1 23256:1 23269:1 23940:2 24037:1 24244:1 24510:1 24977:1 25074:3 25306:1 25375:4 26284:1 27342:2 27832:1 28329:1 28431:1 29070:1 29429:1 30001:1 30030:1 30151:1 30496:1 30585:1 31403:1 32752:1 33554:1 33673:1 33896:1 33901:1 33949:1 34024:1 37296:1 40634:1 42750:2 42820:1 
0.0007881526208279573 1:15 2:2 3:2 7:1 13:1 14:1 18:1 22:4 23:1 28:4 30:3 31:1 32:1 34:1 35:1 38:2 39:1 47:2 55:1 62:1 64:1 65:1 66:1 69:1 77:1 94:2 111:2 126:1 139:4 150:1 151:1 173:1 203:1 240:2 271:2 276:1 313:1 338:1 344:1 386:1 393:1 412:1 419:1 427:1 471:1 480:1 500:3 535:3 540:1 546:1 588:1 607:3 610:4 631:1 659:1 664:1 665:1 666:1 687:1 726:1 804:1 807:1 821:1 827:1 962:1 1047:1 1060:2 1083:1 1105:1 1195:1 1214:1 1225:1 1253:1 1296:2 1348:3 1355:1 1388:1 1401:2 1434:1 1440:1 1453:1 1522:1 1541:1 1570:1 1578:1 1604:1 1610:1 1700:1 1810:1 1837:1 1856:1 1891:3 1927:2 1930:1 1957:1 1985:1 2019:1 2078:1 2175:1 2178:1 2197:1 2229:1 2254:1 2287:1 2522:2 2530:2 2542:1 2687:1 2698:1 2757:1 2786:1 2832:1 2997:1 3017:1 3025:1 3218:1 3432:1 3613:1 3630:1 3666:1 3704:1 3743:1 3909:1 3939:2 4049:1 4076:1 4161:1 4197:1 4365:1 4559:1 4648:1 4657:2 4798:1 4887:1 5006:1 5010:1 5077:1 5146:1 5223:1 5426:1 5452:1 5665:1 5931:2 5992:2 6072:1 6116:1 6132:1 6255:1 6534:2 6542:1 6628:1 6653:4 6932:2 7422:2 7472:1 8082:2 8140:1 8275:1 8304:1 8394:1 8542:1 9155:1 9327:1 9674:1 10166:1 10518:1 10683:1 11095:2 11231:1 11394:1 12084:1 12135:1 12628:1 12782:1 12945:1 13301:5 13343:1 13412:1 14196:1 15203:1 15277:1 15597:1 15636:1 15690:2 15867:1 16258:1 16454:1 16982:1 17170:2 17251:1 17648:1 18801:1 19565:1 19763:2 21209:1 21876:1 21877:2 22004:1 22616:1 23275:1 23905:1 24348:1 24687:5 24836:1 25095:1 27587:1 27800:1 28505:1 29975:1 30179:1 32113:1 33270:1 34842:1 35124:1 35428:1 36791:1 37034:1 37459:1 37703:1 37707:1 38885:1 42555:1 
0.007467066313615052 1:15 2:1 4:3 5:1 9:1 10:2 14:1 19:1 20:6 31:1 35:1 36:2 68:1 71:1 91:2 127:1 145:1 149:4 175:1 179:1 184:1 195:1 199:1 203:1 207:3 209:1 306:1 396:1 406:1 475:1 487:1 500:1 503:1 506:1 518:1 599:1 605:1 606:1 613:1 652:3 687:7 700:1 713:5 781:2 798:1 847:1 900:1 969:2 1112:1 1121:1 1190:3 1237:1 1340:1 1487:1 1585:1 1648:4 1652:1 1761:1 1772:2 1802:1 1904:1 2188:1 2361:1 2639:1 2648:1 2871:1 2966:1 3147:1 3329:1 3357:1 3606:1 3753:5 4051:1 4131:1 4493:1 4998:1 5515:2 5804:1 5986:1 6234:1 6621:1 6873:1 7599:1 7786:1 7841:2 8060:2 8135:1 8686:1 8733:1 8946:1 9275:2 9945:1 10014:1 10035:1 10183:1 10386:1 10599:1 10615:1 11451:1 13240:7 13731:2 14967:2 15226:1 15386:1 15837:1 16302:1 16732:1 17569:1 17624:2 24159:1 25319:1 26037:1 37154:1 37599:1 
0.001625078789544582 1:30 2:8 3:4 4:1 8:3 9:1 10:5 14:4 30:1 31:1 35:1 37:1 38:3 60:7 64:1 87:2 99:1 100:2 103:1 113:1 116:1 121:1 122:6 130:1 131:1 138:1 139:4 141:1 154:1 159:5 166:1 203:1 235:1 242:1 256:1 276:3 334:3 343:1 344:1 345:1 360:1 363:1 365:1 369:2 376:1 384:1 387:3 401:1 403:2 417:1 425:1 438:2 449:1 476:1 491:1 492:1 494:1 501:1 511:1 514:3 555:1 597:1 598:1 599:1 605:1 656:1 670:1 671:1 676:1 683:1 688:1 703:2 717:1 727:1 743:2 759:1 761:1 779:1 780:1 785:1 798:1 813:3 826:2 845:1 861:2 874:2 876:1 891:1 894:1 897:1 933:1 934:1 940:1 954:1 955:3 1018:1 1034:2 1046:1 1087:2 1092:2 1103:1 1112:1 1117:1 1243:1 1277:1 1321:2 1337:2 1350:1 1355:1 1358:3 1365:1 1389:1 1442:1 1505:2 1513:1 1521:1 1532:1 1629:1 1646:2 1674:1 1686:1 1721:1 1736:3 1751:1 1755:1 1801:1 1804:1 1850:1 1854:1 1858:1 1859:1 1863:1 1940:1 1993:1 2042:1 2060:1 2063:3 2064:2 2100:1 2194:1 2211:1 2291:1 2313:1 2314:1 2332:1 2342:1 2381:1 2414:1 2416:1 2448:1 2486:1 2519:1 2520:1 2564:2 2568:1 2571:1 2628:1 2645:1 2678:1 2682:1 2683:1 2729:1 2756:1 2778:2 2835:1 2860:1 2881:3 3019:1 3121:1 3504:1 3554:1 3565:1 3629:1 3631:1 3699:1 3713:1 3746:4 3771:11 4121:1 4132:1 4221:1 4354:1 4427:1 4595:1 4610:1 4658:1 4669:2 4813:1 4868:1 4905:1 4981:1 5080:1 5092:1 5140:5 5162:1 5230:1 5421:1 5479:2 5524:9 5681:1 5687:2 5947:1 5978:1 5998:1 6138:1 6549:1 6558:1 6702:1 6791:2 6842:1 6892:2 6917:1 7050:1 7073:1 7117:1 7131:1 7195:1 7298:1 7301:1 7736:1 7762:1 7846:1 8032:3 8051:1 8183:1 8198:1 8430:1 8436:1 8586:1 8743:1 8924:1 8947:1 9022:1 9109:7 9367:1 9460:5 9609:1 9627:1 9731:1 9844:2 9863:1 9868:1 9911:1 9918:1 10107:1 10180:1 10271:1 10385:2 10634:1 10654:1 10840:1 10900:1 11032:1 11442:1 11602:1 11641:2 11832:1 12004:1 12272:2 12338:1 12347:1 12589:1 13013:1 13044:1 13045:1 13129:1 13190:1 13261:1 13515:1 14042:1 14220:1 14407:1 14553:1 14590:1 14612:1 14717:1 14940:1 15045:1 15620:1 15772:1 16153:1 16333:1 16660:1 16662:1 16879:1 17035:1 17066:1 17356:1 17495:1 17549:1 17579:1 17637:1 18188:1 18345:1 18556:2 20045:1 20651:1 20881:1 21041:2 21393:1 21521:1 21713:1 21808:1 22147:2 22793:1 23425:1 23464:1 23650:1 23797:1 24171:1 24399:1 24778:1 24875:1 26286:1 26469:2 26481:3 26716:1 27549:1 28224:7 28300:1 28548:1 28796:2 28854:1 28964:1 29210:1 29395:1 30139:1 31132:1 31265:1 32868:1 33693:1 33842:1 35232:1 35426:1 39508:1 39741:1 39752:1 39961:1 42884:1 42957:1 
0.002062788995832251 1:11 2:8 3:7 4:2 5:3 7:1 9:1 10:2 18:1 23:1 26:2 32:2 34:3 38:3 45:2 46:1 47:2 50:1 52:1 63:2 66:1 70:3 71:1 81:1 84:1 95:1 96:1 110:1 113:1 143:1 148:3 149:1 160:1 202:2 204:1 223:1 251:1 253:1 255:1 268:1 282:1 307:1 308:1 321:1 334:1 353:1 378:1 400:1 442:1 446:4 456:1 482:2 540:1 573:1 579:1 592:1 602:1 606:1 609:1 640:1 643:1 650:1 652:1 660:1 701:1 719:1 773:1 775:1 836:1 915:1 923:1 989:1 994:1 1009:1 1019:2 1031:1 1046:1 1080:1 1141:2 1203:1 1204:1 1245:1 1257:1 1321:4 1454:1 1469:2 1662:1 1690:1 1761:1 1791:1 1799:2 1989:2 2005:1 2024:1 2149:1 2174:1 2256:1 2265:4 2276:1 2313:3 2562:1 2757:1 2837:4 3097:1 3332:1 3351:1 3571:2 3769:1 4080:1 4308:1 4466:1 4531:1 4744:1 4783:1 4809:1 4933:1 4990:1 5089:1 5106:1 5140:1 5208:1 5427:6 5459:1 5551:1 5908:1 5919:1 5991:1 6003:1 6158:1 6485:1 6977:1 7114:1 7558:1 7656:2 7680:1 7767:1 8209:1 8951:1 9075:1 9303:1 9537:1 9892:1 10234:1 10315:1 10550:1 10799:1 11939:2 12494:1 13141:1 13249:1 13255:1 13286:1 13741:1 13956:1 14129:2 14650:1 15547:1 16000:1 16657:1 17935:1 18128:1 18142:1 18427:1 18567:1 19942:4 20045:1 22029:1 22900:2 23245:1 23443:1 23464:1 23788:1 24222:6 24930:1 25217:1 27465:1 27587:1 28113:1 28212:1 28273:1 28967:1 29274:1 30125:1 33613:1 34089:1 35839:1 35849:1 37730:1 40851:1 
0.0002085093641703639 1:13 2:5 3:3 10:1 12:2 14:2 18:3 19:1 20:2 23:1 30:2 31:3 37:1 47:1 48:1 50:1 57:1 62:1 63:1 66:1 67:1 73:1 79:1 93:4 96:1 109:1 126:1 128:1 132:1 135:1 139:1 141:1 145:1 149:1 150:1 151:1 198:2 256:1 271:1 279:1 286:1 296:1 317:1 325:1 329:1 360:1 363:1 379:1 398:1 403:2 417:4 418:1 422:1 439:1 449:1 452:1 453:1 458:1 511:2 516:1 549:1 563:1 592:1 631:2 658:1 725:1 726:3 727:2 732:1 743:1 826:1 840:1 860:1 871:1 888:1 946:1 948:1 961:4 979:1 987:3 1000:1 1039:2 1048:1 1069:1 1117:2 1128:1 1129:1 1228:1 1253:1 1300:1 1378:2 1410:1 1468:1 1473:1 1514:1 1521:1 1623:1 1680:1 1684:1 1728:1 1741:2 1799:1 1834:1 1846:1 1853:1 1944:1 1986:1 2031:1 2036:1 2042:1 2050:1 2113:1 2135:4 2336:1 2391:1 2451:1 2461:1 2463:1 2619:1 2729:3 2753:2 2793:1 2822:1 2828:1 2834:1 2925:1 3018:1 3070:1 3225:2 3312:1 3346:1 3417:1 3458:1 3462:3 3473:1 3511:1 3561:1 3640:1 3775:1 3814:4 3913:1 4012:1 4030:1 4032:1 4141:2 4176:1 4199:1 4229:2 4255:2 4272:1 4419:2 4626:1 4684:1 4712:1 4735:1 4877:1 4905:1 5274:1 5314:1 5365:1 5503:1 5709:5 6136:1 6212:1 6435:1 6791:2 6909:1 6991:1 7282:1 7313:1 7348:3 7572:1 7652:2 8182:1 8603:1 8699:1 8762:1 8815:1 8928:1 9774:1 10332:1 10518:1 10963:1 10979:1 11219:1 11239:1 12135:1 12238:1 12501:2 12766:1 12781:1 13050:1 13260:1 13277:1 13394:1 13836:1 13838:1 14451:1 14768:1 15738:1 16068:2 16129:1 16331:1 16344:1 16728:1 17093:2 17251:1 18103:1 18833:4 18949:1 19396:1 20541:1 21217:1 21614:1 21789:1 21822:1 22147:1 23306:1 24835:1 25483:1 25802:1 26263:1 26286:1 27301:1 28596:1 28852:1 29284:2 30210:1 30841:1 31013:1 32110:1 32751:1 32882:3 33270:3 33715:1 33921:1 34342:1 34349:1 37571:1 37715:1 38332:1 40365:1 40736:1 40745:1 41245:1 43108:10 
0.001441864949619155 1:21 2:4 3:4 5:6 7:1 8:3 9:1 13:1 14:1 17:1 18:3 20:1 22:3 23:2 31:3 35:3 37:2 45:1 46:3 52:1 55:1 60:1 62:11 64:2 66:2 77:1 87:1 93:1 99:3 108:2 111:2 144:2 150:1 151:1 156:1 168:2 169:1 170:2 173:1 174:1 192:1 203:1 206:2 212:1 221:2 230:1 244:1 257:2 271:4 280:2 281:1 283:1 286:8 300:1 336:1 339:1 344:1 345:3 360:1 378:1 381:1 403:1 407:1 476:1 498:1 501:1 510:1 511:1 513:2 515:3 518:1 522:1 526:1 532:1 537:1 598:1 620:1 627:2 628:1 706:1 707:1 711:4 712:1 719:1 728:2 772:1 775:1 832:1 858:1 865:1 871:1 882:1 897:7 898:1 941:1 955:3 971:1 975:1 1044:1 1049:1 1083:1 1123:1 1124:1 1192:1 1194:2 1215:6 1255:1 1377:2 1379:1 1381:1 1386:1 1410:1 1505:1 1562:1 1566:1 1650:1 1715:1 1803:1 1804:1 1811:1 1927:1 2014:2 2033:1 2045:2 2070:1 2092:1 2096:1 2135:3 2164:1 2171:1 2288:1 2352:1 2459:1 2478:1 2479:1 2546:1 2595:1 2624:1 2698:1 2766:1 2827:1 2864:1 2970:1 2972:1 3024:2 3370:1 3385:1 3435:1 3523:1 3536:1 3590:1 3699:1 3743:1 3794:1 3813:1 3932:1 4048:1 4091:1 4107:1 4207:1 4236:1 4331:1 4425:1 4463:2 4486:1 4525:1 4669:1 4984:7 5026:2 5176:1 5207:1 5264:2 5585:1 5661:1 5922:1 5940:1 6133:1 6166:1 6482:1 6892:1 6967:1 6972:1 7383:1 7409:1 7470:1 7992:1 8000:1 8200:1 8888:1 8951:1 9138:1 9145:1 9155:2 9288:1 9540:1 9694:1 9763:1 9770:1 9907:2 9913:1 9972:1 9987:3 10012:1 10097:5 10296:1 10898:1 11670:1 12287:1 13092:3 13138:1 13656:1 13961:1 13975:1 14331:1 14371:1 14732:1 14765:2 14959:1 14996:1 16318:1 16330:1 16530:1 17955:1 17997:1 19538:1 19674:1 19726:1 20105:2 20299:1 21409:1 21569:1 21713:1 22987:1 23866:4 23931:1 25079:1 25492:1 25726:1 25732:1 26148:1 26312:1 27157:1 27396:15 29893:1 30864:1 32992:1 35278:1 35361:1 37696:1 38841:3 40664:1 42450:1 
0.002547977223888286 1:13 2:1 3:1 4:1 5:1 7:4 9:2 10:1 20:1 34:1 43:1 70:1 73:1 79:3 125:1 131:1 140:2 149:1 173:1 179:1 184:2 186:1 196:2 212:1 249:1 266:1 275:1 279:1 316:1 319:3 353:1 435:1 487:1 500:1 562:1 572:1 574:1 606:1 613:1 700:1 712:1 713:1 735:1 749:3 787:3 805:1 839:1 871:1 1008:1 1119:1 1121:1 1143:1 1376:1 1464:1 1482:1 1690:1 1695:1 1757:1 1791:1 1821:1 1848:1 1956:1 2077:1 2489:1 2639:1 2682:1 2698:1 2924:1 3285:1 3332:1 3741:1 3895:1 3994:1 4218:2 4500:1 4618:1 5183:1 5862:1 5952:1 5992:1 6380:1 6389:1 7211:1 7238:1 7352:1 7565:1 8143:2 8180:1 8195:1 8568:2 8611:1 8928:1 9430:2 9644:1 9772:1 9960:1 10799:1 11595:1 11600:1 11927:1 13031:1 13622:1 13854:2 14985:2 15856:1 17043:1 17046:1 17623:1 20489:1 20663:1 23368:1 23966:1 24093:1 24257:1 24874:1 27032:1 27106:1 28263:1 28298:2 29329:1 32866:2 33289:1 35071:2 35699:1 37947:1 
0.0002876596686124352 1:9 2:12 3:3 4:2 5:2 9:1 15:2 17:4 21:2 22:1 36:1 37:1 43:2 44:2 46:5 47:1 48:1 52:1 57:1 60:6 62:3 63:1 64:2 70:1 73:2 74:1 79:1 82:3 83:1 89:2 91:1 92:9 94:7 100:1 108:1 111:4 117:3 121:1 122:1 126:1 132:1 133:8 135:3 136:2 139:1 141:1 144:2 150:1 157:4 159:1 162:2 168:1 173:2 217:2 222:1 230:1 242:4 246:2 259:1 277:2 278:2 283:1 285:3 299:1 307:2 323:1 330:1 357:1 359:1 362:8 365:1 378:4 380:3 384:1 389:2 400:1 457:1 470:3 472:1 500:4 526:1 535:1 537:1 552:1 575:5 576:1 598:1 615:2 648:1 650:1 682:3 688:1 780:3 798:1 810:1 819:1 828:1 833:1 861:1 954:1 962:1 1001:1 1030:1 1144:2 1204:1 1228:3 1295:1 1310:1 1323:1 1334:1 1340:2 1395:2 1408:1 1492:1 1507:1 1517:1 1595:8 1633:1 1635:1 1695:1 1718:1 1734:1 1773:1 1804:1 1806:1 1873:1 1999:2 2016:2 2085:1 2094:1 2108:2 2125:1 2164:1 2186:1 2204:1 2211:1 2299:1 2308:1 2309:1 2370:1 2376:1 2485:2 2534:2 2555:1 2627:1 2643:1 2712:1 2815:1 2953:1 2999:1 3010:1 3011:1 3023:1 3085:1 3232:5 3311:1 3388:1 3391:1 3399:1 3494:1 3533:1 3545:1 3602:2 3756:1 3832:1 3865:1 3928:1 4250:1 4352:1 4371:1 4400:1 4401:1 4458:1 4464:1 4550:1 4700:3 4794:1 4837:1 4897:1 5252:1 5289:1 5306:1 5457:1 5534:2 5562:1 5645:1 5664:1 5683:1 5758:1 6016:1 6033:1 6083:1 6215:1 6378:2 6388:1 6472:4 6819:1 6833:1 6895:1 7110:1 7167:1 7208:10 7461:1 7475:1 7691:1 7906:1 8087:1 8310:1 8512:1 8646:1 8652:1 8803:1 8921:1 8927:1 8966:1 9347:3 9417:1 9465:1 9574:1 9651:1 9680:1 9719:1 10090:1 10253:1 10516:1 10631:1 10760:1 11126:1 11281:1 11384:1 11453:1 11575:1 12925:1 13056:1 13123:1 13411:1 14288:1 15984:1 16017:1 16133:1 16305:1 16396:1 16671:3 17360:1 17588:1 17782:1 18107:1 18915:1 19189:1 19379:1 20509:1 21392:1 21466:1 21552:1 22721:1 23197:1 23270:1 23280:2 24233:1 24299:1 24651:1 24656:1 25296:1 26668:1 27594:1 27706:1 29653:3 29717:1 30317:1 30470:1 30954:1 31140:2 32115:1 32931:1 35434:1 35862:1 36136:1 38985:1 39215:1 42310:1 43246:1 
0.002551752300603965 1:37 2:10 3:5 4:1 5:1 6:1 8:1 9:2 11:9 12:3 13:2 15:3 17:2 18:2 19:1 21:1 22:1 23:1 25:1 30:1 34:1 35:2 36:2 37:1 38:1 39:3 40:9 44:2 47:1 49:1 50:1 53:1 55:1 57:1 59:4 65:1 68:1 71:1 73:1 84:1 86:1 90:1 94:3 95:1 96:2 99:1 103:1 114:1 117:2 119:1 121:3 122:1 124:1 126:1 128:1 131:2 138:1 140:2 142:2 146:3 149:1 150:1 151:1 153:1 154:2 160:2 163:12 170:2 173:1 179:1 185:9 186:5 204:2 221:1 222:1 225:3 227:1 230:1 233:1 235:2 236:1 244:1 248:1 252:1 269:2 274:1 284:3 296:1 302:1 306:4 314:12 315:2 319:1 327:1 329:1 334:1 337:1 351:6 353:1 358:1 359:1 361:1 370:2 401:1 407:2 416:1 433:3 439:4 447:1 455:2 460:2 464:3 479:1 482:1 513:1 524:1 535:3 536:1 539:1 550:1 570:1 582:2 583:1 598:1 600:4 602:6 610:3 613:2 614:2 615:1 625:1 631:2 638:1 640:1 642:1 652:2 661:1 664:6 679:1 682:1 690:3 691:1 694:1 695:2 731:1 732:1 734:1 747:1 752:1 777:4 780:1 787:1 793:1 801:1 859:1 861:1 862:1 863:1 870:1 871:1 892:1 900:1 913:1 914:1 920:1 940:1 962:1 966:1 977:1 996:4 1025:1 1028:1 1053:1 1057:1 1062:1 1063:1 1128:1 1139:1 1155:1 1167:1 1173:3 1191:1 1197:1 1277:2 1280:2 1295:1 1303:1 1319:4 1327:1 1329:1 1337:1 1340:1 1343:1 1364:1 1378:1 1379:1 1399:1 1433:1 1443:1 1453:2 1461:1 1464:1 1486:1 1489:2 1494:1 1506:1 1522:2 1535:1 1542:2 1580:1 1587:1 1627:1 1639:1 1695:1 1716:1 1772:1 1778:1 1812:1 1841:1 1856:2 1862:1 1929:15 1930:1 1936:1 1952:1 1974:1 1985:1 1992:1 1998:7 2006:2 2016:1 2042:1 2054:2 2074:1 2094:1 2102:1 2143:1 2147:1 2160:1 2165:1 2173:1 2190:2 2200:1 2256:1 2281:2 2300:1 2305:1 2348:1 2387:3 2408:1 2476:7 2538:4 2601:1 2608:1 2622:1 2657:1 2659:1 2669:2 2684:4 2695:1 2719:1 2727:1 2744:1 2756:1 2774:1 2817:1 2823:2 2866:1 2869:1 2887:1 2934:1 2938:1 2941:3 2954:2 2958:1 2962:1 2969:1 2973:1 3027:1 3137:1 3181:1 3212:1 3226:1 3240:1 3317:1 3323:1 3344:1 3392:1 3421:1 3422:1 3442:1 3492:1 3494:1 3535:1 3589:1 3709:1 3874:1 3900:1 3905:1 4056:1 4099:1 4113:2 4228:1 4289:2 4310:1 4376:1 4383:1 4430:1 4450:1 4482:1 4507:1 4538:1 4572:1 4573:1 4577:1 4580:3 4615:1 4717:1 4775:2 4806:1 5000:5 5010:1 5018:1 5111:1 5172:1 5198:2 5356:1 5376:1 5380:1 5396:1 5557:1 5561:1 5582:2 5588:1 5620:1 5680:1 5693:5 5699:3 5902:1 6019:1 6075:2 6088:1 6166:1 6179:1 6226:2 6286:1 6299:1 6326:1 6330:1 6430:1 6569:1 6607:2 6653:2 6663:3 6737:1 6743:1 6760:1 6813:1 6953:1 6962:1 6996:1 7012:3 7018:1 7033:2 7060:1 7216:1 7271:1 7303:1 7483:1 7537:1 7760:3 7856:2 8048:1 8188:1 8213:1 8304:1 8375:1 8397:1 8588:2 8699:1 8823:1 8874:1 9050:2 9292:1 9307:1 9342:1 9721:2 9776:1 9782:1 9801:1 9834:1 9867:1 10046:1 10104:1 10122:2 10343:1 10396:1 10442:1 10506:1 10528:1 10745:1 10890:2 11057:1 11104:1 11234:1 11322:1 11340:1 11541:2 11611:1 11786:1 12124:1 12377:1 12745:1 12894:1 12895:1 13056:1 13225:1 13288:1 13419:1 13436:1 13518:3 13622:2 13632:1 13669:1 13800:1 13814:2 14039:1 14093:1 14114:1 14271:1 14345:2 14580:1 15162:3 15319:1 15347:1 15370:1 15410:1 15552:1 15630:1 15834:2 15948:1 16084:1 16117:1 16177:1 16298:1 16483:1 16798:1 16853:4 17076:1 17163:1 17258:1 17478:1 17487:2 17655:1 17752:2 17770:1 17922:1 17934:1 17982:1 17994:1 18187:1 18211:5 18234:3 18318:2 18340:1 18568:2 18959:1 19271:1 19572:1 19612:1 19684:1 19987:1 20042:1 20209:1 20364:1 20510:2 21048:1 21082:1 21275:1 21281:1 22345:5 23227:1 23640:1 23818:1 24512:1 24998:1 25343:1 25495:1 26100:1 26566:1 27091:1 27310:1 27505:1 28870:1 29347:1 29770:1 29908:1 30010:1 31312:1 31907:1 32530:1 32728:1 32756:1 32845:1 33729:1 36740:1 38056:2 38116:1 38573:1 38852:1 38972:1 39009:1 40634:1 40854:1 41415:1 41766:2 42590:1 
0.0003434605858981976 1:16 2:6 3:3 7:1 8:3 9:1 14:2 17:2 18:1 20:1 21:2 23:2 35:1 47:1 49:2 55:1 57:1 63:1 66:2 67:1 79:5 80:1 82:1 93:2 99:2 126:1 143:3 150:1 156:1 169:1 170:1 173:2 175:1 222:2 224:1 236:2 263:1 266:1 271:3 274:1 285:5 290:1 299:1 301:1 318:1 345:1 352:1 371:1 378:2 380:1 391:1 408:2 414:1 425:1 433:1 439:2 440:1 457:1 458:1 460:4 467:1 508:1 510:1 515:1 528:1 542:1 552:1 585:1 589:1 598:1 605:1 613:1 627:1 631:1 688:1 690:1 694:2 767:1 799:1 804:1 822:1 840:1 860:3 915:1 934:2 1002:2 1012:1 1023:4 1025:1 1034:1 1044:1 1064:1 1093:1 1102:1 1124:1 1187:1 1194:1 1196:1 1206:1 1226:1 1239:1 1243:1 1255:1 1256:1 1259:1 1324:1 1347:1 1386:2 1389:1 1436:1 1450:1 1454:1 1466:1 1507:1 1517:1 1577:1 1607:1 1634:1 1646:2 1657:1 1687:1 1715:1 1757:1 1823:1 1945:2 1996:1 2031:2 2105:1 2169:1 2173:1 2191:1 2240:2 2280:1 2306:1 2335:2 2399:3 2469:1 2472:1 2521:1 2532:1 2574:1 2590:2 2594:1 2603:2 2621:1 2622:1 2681:2 2692:2 2734:1 2754:1 2772:1 2848:1 2855:1 2901:1 2921:1 2949:2 3021:8 3092:1 3112:4 3117:1 3145:2 3162:1 3209:4 3399:2 3423:1 3493:1 3571:1 3631:1 3642:1 3804:1 3812:1 3957:1 4013:1 4032:1 4044:1 4062:1 4096:1 4141:1 4171:1 4272:1 4331:1 4354:1 4378:1 4409:1 4454:1 4515:4 4517:1 4543:1 4565:1 4591:1 4598:1 4628:1 4912:1 4931:1 4934:1 5092:1 5195:1 5217:1 5246:1 5273:3 5344:1 5351:1 5388:1 5437:1 5445:1 5468:1 5479:1 5522:1 5553:1 5600:1 5654:1 5858:1 5881:1 5892:1 6000:1 6030:1 6121:1 6251:3 6325:3 6359:1 6388:1 6538:1 6598:1 6779:1 6791:3 6803:1 6924:1 7008:6 7379:1 7484:1 7558:1 7566:1 7642:2 8101:1 8194:1 8219:1 8381:1 8400:1 8499:1 8773:1 8857:1 8999:1 9022:1 9032:1 9037:1 9247:1 9723:1 9918:1 10418:1 10624:1 11403:5 11516:2 11898:1 12275:7 12616:1 12871:1 12887:1 13433:1 13633:1 13847:1 14571:1 14979:1 15541:1 15729:1 15817:1 15910:1 16228:4 16365:1 16457:1 16510:1 16553:1 16573:1 16858:2 17035:1 17858:1 18345:2 18564:1 18809:1 19742:1 20880:1 20883:1 21213:1 21907:1 23009:1 23110:1 23404:1 23773:2 23790:1 23949:1 24470:2 25271:1 25316:1 25594:1 28059:1 29270:1 30494:1 31332:1 31467:1 31542:1 32199:1 32259:2 32529:1 32533:1 32628:2 33687:2 34820:1 35000:1 40459:2 
0.0008396937904633583 1:7 2:1 3:1 18:1 21:1 22:1 24:1 34:2 35:1 44:1 60:2 64:1 68:1 74:3 80:1 82:1 87:1 91:1 139:1 140:2 144:2 145:1 162:2 175:1 276:1 339:1 353:1 365:1 407:1 409:1 429:1 439:1 443:1 458:1 501:1 515:1 550:2 560:4 590:1 592:1 606:2 641:1 645:1 706:2 772:1 788:1 802:1 807:1 809:2 973:1 1002:1 1059:1 1068:1 1177:2 1270:1 1310:1 1368:2 1388:1 1389:1 1450:2 1517:1 1525:1 1718:1 1719:2 1728:1 1776:1 1780:1 1801:2 1823:1 1874:1 1993:1 2023:2 2038:1 2064:2 2075:1 2078:1 2302:1 2481:1 2569:1 2722:1 2879:2 3010:1 3343:1 3348:1 3970:1 4149:1 4230:1 4239:1 4354:1 4430:1 4473:1 4572:1 4740:1 5217:1 5473:1 5570:1 5831:1 5873:1 6081:1 6103:2 6358:1 6439:1 6457:1 7246:1 7867:1 8727:1 9083:1 9587:1 9632:2 9764:1 9920:1 10425:3 10649:1 10657:1 10914:2 11024:3 11056:1 13343:1 13528:1 14544:1 14836:1 14879:1 15352:2 15586:1 15905:1 16591:1 16640:1 16734:4 18317:1 18792:2 19879:1 20506:1 21057:4 21109:1 21644:2 21921:1 22133:1 23420:9 23972:1 27732:1 28743:2 29377:1 30207:1 31334:1 34516:1 34880:1 36476:1 38139:7 40460:1 40594:1 40615:1 41251:1 
0.001100886427839788 1:21 2:5 3:2 6:1 9:1 11:1 12:2 18:2 19:2 20:1 21:2 24:1 30:1 35:2 45:1 48:1 51:1 64:2 69:2 70:1 73:1 79:1 80:1 91:2 94:2 95:2 113:1 126:1 141:1 150:1 168:1 170:1 200:2 203:1 209:1 217:1 252:3 262:1 273:1 289:1 308:1 314:1 341:1 343:1 347:1 360:1 420:1 422:1 425:1 426:1 443:1 464:2 491:1 507:1 514:1 522:1 531:1 535:1 569:1 576:2 599:1 609:1 644:1 659:2 664:2 672:1 674:3 703:1 726:1 732:1 738:1 757:3 760:2 774:1 796:1 802:1 810:1 814:1 839:1 840:1 894:2 933:1 967:1 1048:1 1051:2 1097:1 1110:1 1150:1 1166:6 1245:1 1256:1 1316:1 1343:1 1356:1 1504:1 1612:1 1668:1 1692:1 1711:1 1728:1 1748:1 1787:1 1823:1 1882:1 1908:1 1962:1 2070:1 2171:1 2229:1 2352:1 2371:1 2396:1 2433:1 2555:1 2670:1 2724:1 2746:1 2803:1 2874:1 2964:2 3003:1 3007:1 3080:1 3127:1 3134:1 3244:1 3604:1 3678:1 3695:1 3751:1 3810:2 3961:1 4051:1 4202:1 4473:1 4513:1 4514:1 4558:1 4631:1 4673:1 4790:1 4812:1 4867:1 5066:1 5189:1 5204:3 5275:1 5328:1 5330:1 5425:1 5476:1 5887:1 5970:1 5985:1 6078:2 6082:2 6085:6 6233:1 6556:1 6758:1 7550:1 7640:1 7782:1 7797:1 7859:1 7888:1 7958:1 7983:1 8056:1 8228:1 8646:1 8653:1 8817:1 8884:1 9183:1 9315:1 9361:1 9485:1 9929:1 10294:1 10313:1 10341:1 10490:1 10500:1 10535:1 10755:2 10837:1 10858:1 10866:1 11313:1 11802:1 12470:1 13498:1 13548:1 13671:1 13776:1 13885:1 14783:1 15083:1 15284:1 15518:1 16074:1 16203:1 16645:1 16814:1 17126:1 17373:1 17971:1 18042:2 18120:1 18511:1 18740:1 18953:1 19146:1 19223:1 19289:1 19418:1 19772:1 20198:1 21738:1 21986:1 22212:1 22323:1 23399:1 25055:1 25569:1 25913:1 25963:1 26308:1 26320:1 26486:1 28507:1 28751:1 29600:1 32153:1 32601:1 33803:1 34033:1 34166:1 35066:2 35112:1 35205:1 35338:1 35587:1 35651:1 36310:1 42677:1 
0.002546008423455688 1:9 2:3 3:2 4:2 7:4 9:2 10:1 11:1 13:2 15:1 18:2 23:1 28:1 32:1 33:4 34:1 45:1 66:1 73:1 77:1 80:1 92:1 102:1 121:1 131:1 139:1 170:1 179:1 186:2 188:1 230:1 242:2 259:1 344:1 365:2 370:1 417:1 477:1 497:2 527:1 538:1 544:1 589:1 590:1 613:1 622:1 640:3 778:1 787:1 869:1 874:1 885:1 927:1 935:1 965:1 966:1 1000:1 1019:1 1052:1 1119:2 1136:2 1141:3 1276:1 1345:1 1388:1 1491:2 1517:1 1539:1 1587:1 1617:1 1635:1 1649:2 1668:1 1686:1 1750:1 1764:1 1776:1 1906:2 1959:1 2083:1 2142:1 2156:2 2240:3 2265:1 2502:1 2521:1 2548:1 2549:3 2736:1 2832:1 2898:1 3102:2 3272:1 3300:1 3410:1 3424:1 3565:1 3756:1 3791:1 3859:1 4205:2 4215:1 4224:1 4345:1 4499:1 4582:1 4614:1 4990:1 5183:1 5508:7 5720:1 5736:1 5876:1 6106:1 6120:1 6226:1 7290:7 7483:1 8020:1 8223:1 8340:1 8856:1 9084:2 9734:1 9817:1 10214:1 10219:1 10279:1 10694:1 10745:2 10929:1 11299:1 11406:1 11604:1 11823:1 12016:1 12338:1 13020:1 13141:1 13835:1 13938:1 14087:1 15711:1 16858:1 16921:1 17165:1 17555:1 17702:1 17935:1 19127:1 19299:1 19414:1 20439:1 20514:1 21055:1 21982:1 22117:1 22785:1 23486:1 23845:1 25387:1 25456:1 25699:1 26830:1 27668:1 27680:1 28212:1 29282:1 30136:1 31366:1 31953:1 35351:1 36478:1 37310:1 38890:1 39474:1 39573:1 43241:1 
0.004466156536199075 1:17 2:4 3:1 9:2 10:1 11:1 12:1 13:1 19:2 20:1 24:1 30:1 32:1 36:2 38:1 39:1 41:1 44:1 49:1 63:2 64:1 69:1 70:3 85:1 88:9 94:1 103:1 124:1 156:1 200:1 249:1 259:3 262:1 268:1 273:1 285:1 293:2 302:1 324:1 329:1 334:1 348:1 349:1 365:1 367:1 383:1 425:1 476:1 491:1 507:1 540:1 549:1 570:1 581:1 594:1 631:2 640:1 644:1 659:1 669:1 684:1 698:1 701:2 708:1 778:1 783:1 800:1 862:1 903:1 908:2 939:1 971:1 986:1 994:2 1012:1 1059:1 1060:1 1069:1 1088:1 1092:1 1097:1 1140:1 1178:3 1186:1 1195:1 1222:1 1239:1 1294:1 1331:1 1369:2 1431:1 1527:1 1634:1 1711:1 1745:1 1746:1 1751:1 1793:1 1804:1 1838:1 1962:1 1964:1 2029:1 2076:3 2116:1 2149:1 2175:2 2368:1 2452:1 2530:1 2555:1 2564:1 2767:2 2826:1 2912:1 3266:1 3288:1 3371:1 3396:2 3429:1 3536:1 3579:1 3604:1 3791:1 3830:1 3887:1 3913:1 4233:1 4282:1 4419:1 4510:1 4558:1 4586:1 4670:1 4786:1 4898:1 4902:1 4904:1 4979:1 5151:1 5441:1 5521:1 5688:1 5914:2 6157:1 6282:1 6370:1 6403:1 6434:2 6632:1 6652:1 6712:1 6804:1 7078:1 7174:1 7320:1 7522:1 7868:1 8044:1 8061:1 8195:1 8275:1 8711:1 8718:1 8877:1 9127:1 9145:1 9228:1 9240:1 9315:1 9450:1 9558:1 9723:1 10011:1 10611:1 10703:1 11187:1 11208:1 11619:1 11645:1 11646:1 11679:1 11809:1 11867:1 11911:1 12110:1 12260:1 12304:1 12470:1 12629:1 12682:1 12943:1 12969:1 12983:1 13502:1 13621:1 13686:1 13740:1 13770:1 13776:1 14009:1 14084:1 14267:1 14468:1 14557:1 14721:1 14952:1 15020:1 15075:1 15322:1 15738:2 15879:1 16443:2 16911:1 17353:1 17458:1 17587:1 18006:1 18116:1 18369:1 18964:1 20428:1 21158:1 21258:1 21770:1 21958:1 22554:1 22943:1 22984:1 23215:1 23809:1 24780:1 24961:1 25055:1 25435:1 25569:1 25606:1 25917:1 26544:1 27424:2 27920:1 28599:1 30040:1 31228:1 32375:1 32601:1 32772:1 33430:1 34225:1 34444:1 35043:1 35165:1 36410:1 37324:1 39128:1 43255:1 
0.005068017802121425 1:20 3:7 5:2 8:4 9:1 13:1 14:1 18:1 19:1 20:1 22:1 24:1 30:2 34:1 37:2 53:3 58:2 65:2 70:2 71:1 75:2 77:1 85:1 92:8 103:1 110:1 115:1 119:1 123:5 130:1 131:1 133:1 135:1 146:1 157:1 159:1 162:1 172:2 181:1 211:1 212:2 229:1 233:1 245:1 252:1 259:1 262:1 266:1 271:1 273:1 279:1 311:1 323:1 333:2 343:1 350:1 359:1 366:3 381:2 386:1 398:1 401:1 406:1 428:2 437:1 438:2 447:2 454:1 467:1 480:1 516:1 543:1 556:1 580:1 617:1 655:1 656:10 718:1 721:1 729:1 755:1 779:2 796:1 800:1 825:1 835:1 868:1 882:1 889:1 916:1 986:1 990:1 994:1 1087:2 1135:1 1158:1 1183:2 1273:1 1349:1 1360:1 1412:1 1488:1 1492:2 1639:1 1659:1 1663:1 1667:1 1699:1 1700:1 1786:2 1843:1 1845:1 1858:1 1871:1 1900:1 1902:1 1905:2 1911:3 1923:1 1970:1 1998:8 2010:1 2063:1 2218:1 2273:1 2317:1 2319:1 2345:1 2365:1 2403:1 2414:1 2436:1 2448:2 2467:1 2515:1 2599:1 2605:1 2628:1 2636:1 2677:1 2680:1 2729:1 2765:3 2832:1 2907:1 3022:1 3041:1 3047:1 3121:4 3122:1 3142:1 3160:1 3215:1 3237:1 3250:1 3253:1 3266:1 3291:1 3365:1 3371:3 3372:1 3396:1 3442:1 3456:1 3470:1 3586:1 3605:1 3619:1 3626:1 3630:2 3669:1 3670:1 3707:1 3770:1 3797:1 3927:1 4091:1 4129:1 4177:1 4188:1 4224:1 4333:1 4335:1 4342:1 4658:1 4661:1 4670:1 4692:1 4858:1 5036:1 5041:1 5051:1 5116:1 5169:1 5290:1 5492:1 5496:1 5522:1 5580:1 5640:1 5675:1 5689:1 5771:1 5807:1 5954:2 5979:1 5996:2 6093:1 6216:1 6289:1 6365:3 6404:1 6453:1 6490:1 6626:1 6674:1 6735:1 6798:1 6976:1 6998:9 7677:1 7989:1 8016:1 8025:1 8352:2 8376:1 8402:1 8843:1 9130:1 9171:1 9334:1 9418:1 9435:1 9626:1 9744:1 9750:1 9820:1 10005:1 10464:1 11012:1 11160:1 11913:1 12073:1 12167:1 12352:1 12836:1 13112:1 13161:1 13237:1 13395:1 13592:1 13852:2 13917:2 13922:1 13963:1 14268:3 14428:1 14599:1 15152:1 15762:2 15931:1 16307:1 16603:1 16737:1 17374:3 17712:1 17965:1 18101:1 18229:1 18413:1 18823:1 18880:1 19749:1 19969:1 20053:1 20304:1 20431:1 20453:1 20675:1 20990:1 22082:1 22418:1 22437:1 22638:1 23246:1 23813:1 24174:1 24285:1 24680:1 24957:1 25296:1 25843:1 26577:1 28087:1 28214:1 28238:1 29930:1 30303:1 33435:1 33926:1 34355:1 38838:1 42727:1 42861:1 
0.001598880239310541 1:35 2:8 3:7 4:1 5:1 7:5 8:1 10:3 11:2 12:2 17:1 18:1 19:1 21:1 24:2 30:1 31:2 32:1 34:5 35:1 38:1 39:3 45:2 46:1 47:2 48:3 49:2 50:5 51:2 58:1 59:1 63:2 64:2 73:1 81:2 82:1 83:2 84:2 87:3 89:2 90:1 91:1 94:2 95:2 96:3 100:3 101:1 107:1 110:2 115:1 116:1 123:3 126:3 129:1 131:3 140:1 144:2 146:12 150:2 151:1 168:3 175:2 180:1 181:1 183:1 198:1 217:2 221:1 225:1 234:1 240:2 251:1 255:1 260:3 263:2 272:1 274:1 275:1 277:4 289:2 310:2 313:11 315:1 319:1 329:1 330:1 336:2 337:2 349:1 360:2 361:1 363:1 365:5 370:2 384:1 385:1 398:1 424:1 428:2 431:2 433:1 446:1 447:3 461:1 475:1 480:1 491:2 494:1 497:1 505:1 506:1 507:1 519:1 521:1 527:8 528:1 532:1 547:2 550:2 553:1 559:1 570:1 572:1 581:1 587:1 588:1 595:1 599:1 615:1 620:1 640:1 648:1 650:1 656:2 658:2 662:1 682:3 700:1 712:1 720:1 723:1 724:4 731:1 746:1 758:1 772:1 779:1 793:1 798:1 801:1 813:1 821:1 824:1 826:1 860:1 862:1 879:1 889:1 906:1 962:2 965:4 974:1 981:1 1000:1 1002:1 1003:1 1008:1 1019:1 1025:1 1041:1 1048:1 1061:1 1083:1 1115:2 1159:1 1201:1 1237:2 1250:1 1265:1 1276:1 1278:1 1285:1 1309:3 1318:1 1322:2 1326:1 1327:1 1361:1 1362:1 1364:1 1370:1 1413:1 1420:1 1424:1 1425:1 1469:1 1497:1 1498:1 1517:1 1538:1 1544:1 1553:1 1605:1 1710:1 1728:1 1738:1 1787:2 1793:1 1813:3 1917:1 1930:1 1943:1 1972:2 1977:1 1982:3 2007:2 2043:1 2048:1 2084:1 2086:1 2125:1 2154:6 2173:1 2174:1 2181:3 2199:1 2203:1 2204:1 2227:1 2244:1 2249:1 2268:1 2341:1 2343:1 2439:1 2477:1 2485:1 2486:1 2540:4 2555:1 2568:1 2607:1 2624:1 2643:1 2653:4 2659:1 2671:1 2727:1 2734:1 2736:1 2893:3 2904:1 2912:1 2953:1 3017:1 3053:1 3108:1 3157:1 3159:1 3206:1 3234:1 3282:1 3302:2 3340:1 3395:5 3463:1 3474:1 3486:1 3487:1 3492:2 3535:1 3537:1 3573:1 3619:1 3733:1 3742:1 3810:1 3850:2 3877:1 4002:1 4032:1 4038:1 4168:1 4174:2 4203:1 4222:1 4223:1 4226:1 4244:1 4270:1 4277:1 4374:1 4381:1 4440:1 4674:1 4778:3 4782:1 4789:2 4906:2 5049:1 5191:1 5284:1 5318:1 5472:1 5514:1 5629:1 5655:1 5662:5 5680:1 5751:1 5758:1 5760:1 5831:1 5926:1 6228:1 6289:1 6350:1 6362:1 6435:3 6482:1 6581:1 6685:1 6786:1 6852:1 6865:1 6899:1 6928:1 6947:1 7014:1 7034:1 7038:1 7141:1 7337:2 7352:1 7386:1 7444:1 7497:1 7511:2 7523:1 7545:1 7560:1 7601:1 7605:1 7613:1 7636:1 7659:1 7668:1 7784:1 7889:1 7927:1 7996:1 8027:1 8048:1 8087:2 8215:1 8387:1 8405:1 8421:1 8557:1 8589:1 8650:1 8661:1 8681:1 8682:1 8825:1 8839:1 8926:1 9029:3 9051:1 9105:1 9281:1 9288:1 9304:1 9322:1 9475:1 9509:1 9516:1 9567:1 9688:1 9703:1 9869:1 9875:1 9948:1 9951:1 9990:1 10023:3 10118:1 10231:1 10396:1 10476:1 10564:1 10692:2 10719:1 10748:1 10834:1 10976:1 11060:1 11140:1 11386:1 11500:1 11651:1 11815:1 11845:1 11977:1 12000:1 12552:1 12838:1 13064:1 13354:1 13473:1 13653:1 13706:1 13746:1 13750:1 13827:1 13840:1 13908:1 14026:1 14045:1 14124:1 14408:1 14460:1 14617:1 14703:1 14887:1 15048:1 15251:1 15441:1 15569:1 15655:10 16114:1 16166:1 16269:1 16380:1 16484:1 16617:1 16905:1 16914:1 16958:1 17133:1 17165:1 17286:1 17657:1 17715:1 17770:1 18168:2 18172:1 18225:1 18240:1 18306:1 18433:1 18734:1 18772:1 18824:4 18833:1 19224:1 19711:1 20484:1 20570:1 20961:1 21297:1 21789:1 22364:1 22422:1 22811:1 23304:1 23422:1 24081:1 24432:1 24439:1 24540:2 24698:1 24780:2 25079:1 25481:2 26077:1 26530:1 26586:1 27225:1 27310:1 27732:1 27864:1 27993:1 28514:1 28561:1 28916:2 29552:1 30120:1 30444:1 30492:1 31741:1 31848:1 31995:1 33786:2 34381:1 34705:1 34921:1 35088:1 36352:1 36623:1 36926:1 38108:1 39658:1 39939:1 40136:1 40228:1 40771:1 42943:1 
0.0002372758100549002 1:13 2:5 3:5 4:2 7:3 8:2 11:4 12:1 18:5 22:1 24:1 25:1 35:1 40:2 44:1 46:1 51:3 57:2 59:1 62:4 64:1 67:2 77:1 86:2 91:2 92:3 99:1 109:4 113:1 127:1 130:1 131:1 133:1 140:1 150:1 154:1 156:5 159:1 170:5 209:1 222:3 248:1 251:2 255:1 257:1 277:2 282:1 285:1 289:2 315:2 326:2 329:1 334:1 354:2 362:12 365:1 392:5 414:3 420:1 439:4 447:1 452:1 458:2 464:4 479:1 492:1 500:2 527:1 558:1 602:1 613:1 642:1 648:1 651:2 662:1 686:5 706:1 724:3 746:1 772:1 789:1 812:1 853:1 863:1 926:6 934:1 941:1 958:5 1033:1 1100:1 1113:3 1133:1 1142:1 1143:2 1168:1 1177:3 1211:1 1226:1 1227:1 1257:2 1315:2 1355:1 1395:1 1404:1 1439:1 1446:3 1464:3 1482:1 1545:1 1599:1 1673:2 1703:1 1757:1 1766:1 1841:1 1845:1 1877:1 1909:9 1973:5 2058:1 2084:1 2119:1 2145:1 2205:1 2228:1 2258:1 2337:1 2356:1 2370:1 2486:1 2540:1 2670:1 2676:1 2716:1 2773:2 2828:4 2850:1 2934:1 2955:1 3027:1 3030:1 3049:1 3122:1 3341:1 3385:1 3413:1 3419:1 3436:2 3555:1 3609:1 3617:1 3620:2 3643:1 3786:2 3845:1 3895:3 3980:1 4009:1 4040:1 4046:1 4085:1 4123:1 4168:1 4214:1 4329:1 4362:1 4363:1 4383:1 4479:1 4597:1 4630:1 4705:1 4806:1 4835:1 4991:1 5589:1 5645:1 5677:3 5683:1 5710:1 5873:1 5881:1 5931:1 6286:1 6300:2 6329:2 6332:5 6705:1 7137:1 7213:2 7305:9 7400:1 7409:1 7423:1 7439:1 7459:1 7690:1 8042:1 8756:1 9431:1 9946:1 9985:1 10223:1 10425:2 10751:1 11187:1 11519:1 11526:1 11800:1 12415:1 12477:1 12731:1 12894:1 13185:1 13341:1 13377:2 13579:1 14026:1 14470:1 14696:1 14738:1 14864:1 14977:1 16475:1 16624:1 16692:1 17109:2 17401:1 17795:3 18198:1 18424:2 18525:1 19719:1 19767:1 21084:1 21184:1 22703:1 23296:1 24994:1 24995:1 25052:1 25381:2 25465:1 25726:1 27430:1 29823:1 29998:1 30540:1 31281:1 33140:1 35071:1 37963:1 38078:2 39521:1 41959:1 42129:1 42543:1 
0.001205493380382799 1:27 2:5 3:3 4:3 5:1 7:1 8:2 10:3 12:1 13:1 17:1 20:1 31:1 32:2 34:1 51:1 53:1 55:1 57:1 62:4 64:2 67:2 71:1 73:3 87:1 89:1 91:1 95:1 96:1 100:1 102:4 103:1 111:1 114:1 122:1 124:1 126:6 138:1 139:2 150:6 156:3 170:3 173:2 174:1 175:1 180:1 191:1 208:2 215:1 221:5 255:1 257:1 266:2 267:1 272:1 310:1 347:1 348:1 360:1 376:1 378:1 398:1 406:1 424:1 439:2 450:1 470:2 485:1 498:1 519:1 521:1 522:1 528:1 540:1 546:1 575:1 577:1 600:3 623:1 650:1 664:4 667:1 676:1 693:1 698:1 707:1 734:1 745:1 752:1 772:1 775:2 796:2 817:4 853:1 871:2 889:1 894:2 897:1 902:1 962:2 992:1 999:2 1013:2 1049:2 1115:1 1117:1 1153:1 1156:1 1193:1 1221:1 1296:1 1315:1 1327:1 1333:1 1366:1 1376:3 1387:1 1395:1 1444:1 1462:1 1590:2 1596:1 1636:1 1693:1 1756:1 1765:1 1769:2 1781:1 1804:1 1811:1 1839:1 1936:1 1952:1 1973:3 1997:3 2014:1 2024:1 2042:1 2098:1 2164:3 2289:1 2326:10 2366:1 2477:1 2663:1 2664:1 2754:1 2850:1 2936:1 2944:1 2961:2 2981:1 3007:1 3064:2 3177:1 3229:1 3236:1 3269:1 3299:1 3322:1 3383:1 3427:1 3432:1 3436:1 3688:1 3798:1 3828:1 3895:1 4007:2 4014:2 4140:1 4215:2 4221:1 4226:1 4320:1 4479:1 4691:1 4709:1 4749:1 4798:1 4804:1 4829:1 4944:1 5214:1 5307:1 5354:1 5392:1 5420:5 5533:1 5687:1 5866:1 5935:1 5998:1 6044:1 6074:1 6501:1 6603:1 6729:1 6849:1 6908:1 6916:1 6954:2 7120:4 7264:1 7497:1 7620:2 7734:1 7853:1 7908:1 8104:1 8148:1 8246:1 8250:1 8385:1 8819:1 9005:1 9054:1 9602:1 9774:1 10069:1 10163:1 10173:1 10363:1 10585:1 10688:1 10946:1 11378:1 11416:1 11559:1 11881:1 12357:1 12579:2 12584:1 12919:1 13181:1 13232:1 13268:1 13418:1 13506:1 14682:1 14823:1 14879:1 15392:1 16337:4 17247:1 17839:1 18852:1 19320:1 19426:4 19527:1 20252:1 20992:1 21060:1 22378:1 23665:1 24659:2 25470:1 25532:1 25541:1 25590:1 25851:1 27568:1 28576:2 30517:1 30632:1 33249:1 33322:1 33927:3 35135:1 35540:1 35599:1 36178:1 36285:1 38081:1 38561:6 38794:1 42991:1 
