svm_type c_svc
kernel_type linear
nr_class 2
total_sv 670
rho 0.317857
label 1 -1
probA -4.79696
probB -0.132086
nr_sv 273 397
SV
0.0009586708267591038 1:6 2:1 3:1 8:1 22:1 26:1 38:1 56:1 72:1 74:2 117:2 175:1 190:2 232:1 238:1 278:1 491:1 521:2 577:1 587:1 591:2 798:1 1135:1 1230:1 1280:2 1463:1 1731:1 1806:1 1898:1 2069:1 2074:1 2152:1 2267:1 2329:2 2333:1 2344:1 2504:1 2914:1 3103:1 3118:1 3163:3 3391:1 3485:1 3745:1 3816:1 4923:1 5806:1 5833:1 5989:1 7015:1 7050:1 7083:1 7611:1 8331:1 9832:2 9916:1 10145:1 10159:1 10854:1 13626:2 15905:3 15983:2 16729:1 18308:1 19278:2 19943:1 20864:1 22146:1 23972:1 24215:1 27224:1 29681:1 32672:1 33220:1 35388:1 43040:1 
0.0001367636370590872 1:1 2:1 5:1 10:1 20:1 24:2 32:1 35:1 70:2 97:1 112:1 119:1 125:1 168:1 182:1 189:3 199:1 247:1 286:2 302:1 311:1 317:1 483:1 808:1 841:2 1159:1 1512:2 1827:3 3073:1 3331:1 3653:2 4247:1 4779:1 4787:1 5879:1 6126:1 7891:1 8354:2 8897:1 8913:1 9830:1 10677:1 10996:1 11433:1 12301:5 13947:1 17600:1 17754:1 20313:2 22620:1 25993:1 28289:1 30062:1 30623:1 36337:1 
0.009687764222337972 1:2 3:2 7:1 32:1 35:1 36:1 52:1 103:1 110:1 112:2 119:1 125:1 141:1 173:1 286:2 301:1 371:1 477:1 483:1 626:1 784:1 808:1 1025:1 1092:1 1290:1 1365:1 1586:2 1827:1 2059:1 2333:1 2393:1 2554:1 3653:2 4053:1 4169:1 5336:1 5689:1 6126:1 6836:1 7254:1 7973:1 8754:1 9209:1 9575:1 10555:1 12301:4 21065:1 22620:1 24330:1 34184:1 
0.008066072531157415 1:2 2:2 3:1 20:2 23:1 30:1 34:1 44:1 54:1 98:3 99:1 110:4 117:1 170:1 194:1 220:1 236:3 295:2 305:1 308:1 313:2 356:1 357:1 366:3 383:1 386:1 406:1 464:1 503:1 660:2 773:2 777:1 819:1 1148:1 1234:1 1240:2 1277:1 1280:1 1307:1 1350:1 1452:1 1463:1 1507:1 1514:1 1537:1 1599:1 1624:1 1685:1 1753:1 1841:1 1967:1 2065:1 2138:1 2200:1 2271:1 2284:1 2346:1 2440:1 2694:1 2739:3 2846:1 2976:1 2984:1 3040:1 3098:1 3215:1 3246:1 3285:1 3412:1 3532:1 3614:1 4332:1 4461:1 4470:1 4582:2 5590:1 6464:1 6569:1 6970:1 6996:1 7213:2 7526:1 7807:1 7974:1 7980:1 8196:3 8366:1 8642:1 8858:1 9738:1 10377:1 11052:1 11282:1 11494:1 11567:1 11750:1 12472:1 12749:1 12910:1 13101:1 13185:1 13589:1 13845:1 13884:1 14149:1 14699:1 14709:1 15023:1 16043:1 16383:1 16703:2 20186:1 21088:1 25964:1 27068:1 27436:1 27833:1 31032:1 31779:2 32320:1 33744:2 34501:1 35141:1 40864:1 
0.01102868013969378 1:6 2:1 21:1 25:1 34:1 48:3 50:1 55:1 56:1 121:1 130:1 131:3 210:1 271:1 275:1 331:1 363:1 415:1 536:1 622:1 986:1 1215:1 1629:2 1633:1 1856:1 2239:1 2594:1 3569:1 4253:1 4624:1 5133:2 5499:1 5789:1 6107:1 6663:1 6887:1 8686:1 8788:1 9175:1 9469:1 10125:1 10241:1 10666:1 10772:1 11113:1 14204:1 16552:1 16775:1 17376:1 18621:1 20651:1 21621:1 28919:1 33657:2 35854:1 36390:1 39424:1 
0.006055017797982479 2:1 3:1 12:1 14:1 70:2 105:2 112:1 127:1 152:1 155:1 166:1 189:1 323:1 492:1 529:2 696:1 722:2 733:1 1132:1 1960:2 2107:2 2960:1 3310:1 3581:2 3718:2 3774:1 4245:1 6154:1 6292:1 6499:1 6695:2 7614:2 7660:1 8786:1 10554:1 10623:1 16495:1 16801:1 17818:1 29815:1 30564:1 35295:1 38568:1 39484:1 
0.002228812951291857 1:1 2:1 4:1 15:5 26:3 28:1 155:2 171:1 188:1 190:1 210:1 238:2 322:1 338:1 340:2 416:2 561:1 614:1 683:2 997:1 1014:1 1167:1 1171:1 1338:1 1456:1 1549:1 1942:2 1948:2 1969:1 2097:2 2109:1 2178:1 2295:1 2377:1 2433:1 2495:1 2534:1 2785:1 3214:1 3485:1 4036:1 4861:1 4923:1 4946:1 5067:1 5205:1 5259:1 6204:1 6533:1 6940:1 7032:1 7430:1 9381:1 9769:1 10446:2 10916:2 12404:1 12914:1 14920:1 14962:1 21040:1 25941:1 
0.005823314835498943 1:2 3:2 4:1 17:1 26:1 49:1 57:1 70:1 84:2 98:1 99:1 101:1 106:2 135:1 143:1 156:1 165:2 188:1 193:1 210:2 243:1 340:1 342:1 353:1 464:1 493:1 525:1 660:2 728:1 773:1 864:1 1345:1 1887:2 2033:1 2204:2 2363:1 2414:1 3007:1 3808:1 4052:1 4439:2 4480:1 5131:1 5166:1 5326:1 5353:1 6523:2 7086:1 8827:1 10634:1 11580:1 11855:1 14387:1 17739:1 18276:1 19191:1 19771:1 22799:1 23149:1 23335:1 31096:2 34942:1 
0.001336319299154509 1:4 2:4 3:4 4:2 5:1 22:2 23:2 32:2 33:1 34:1 40:1 49:1 50:1 66:2 74:1 75:2 82:5 99:1 103:2 106:2 117:1 121:1 125:1 165:2 185:1 208:1 209:1 232:1 234:1 247:1 250:1 266:2 284:1 321:1 335:1 338:1 349:1 357:2 379:1 405:1 420:5 453:3 471:2 487:1 559:1 673:1 810:1 818:1 841:1 847:3 902:1 931:1 946:1 973:1 991:1 1026:1 1211:2 1292:1 1357:1 1417:1 1456:1 1469:1 1740:1 1756:1 1771:1 1813:1 1860:2 1955:1 2096:1 2103:1 2160:1 2178:1 2330:1 2435:1 2685:3 2723:1 2815:2 2924:2 2959:2 2979:1 3034:1 3074:1 3265:2 3346:1 3536:1 3776:1 3877:1 3970:1 4057:1 4179:1 4210:1 4382:1 4913:1 4963:1 5208:1 5590:1 5611:1 5630:2 5765:1 5889:2 5969:1 6221:1 6376:1 6840:1 6842:1 7010:9 7112:1 7145:1 7292:3 7368:1 7563:2 7570:1 8252:1 8697:1 9311:1 10748:1 11395:1 11487:1 11562:1 11609:1 11689:1 11855:1 12479:1 13736:1 14476:1 14674:1 14831:1 15484:1 16015:1 16290:1 16751:2 17928:1 18130:1 19350:1 20290:1 20496:1 22419:1 22632:1 26152:1 26233:1 27327:1 27691:1 29061:1 30621:1 30926:1 31629:2 32143:1 34849:1 35443:1 35573:1 35612:1 37530:1 38195:1 39885:1 
0.007177712574769964 1:3 2:1 3:1 6:1 8:1 17:1 30:1 44:2 72:3 83:1 100:1 107:1 124:1 125:1 175:1 180:1 188:2 202:1 210:1 215:1 217:1 251:2 258:1 321:1 338:3 404:2 418:2 466:2 477:1 553:1 856:1 912:1 930:1 1162:2 1205:1 1549:1 1770:1 2022:3 2080:1 2159:1 2353:1 2359:1 2638:2 2726:2 2755:3 2787:1 2943:1 3022:1 3033:1 3071:1 3127:1 3263:1 3541:5 3594:1 3709:1 4068:1 4206:1 5311:2 5473:1 5755:1 5943:1 6278:1 6279:1 6675:1 6912:1 7201:1 7568:2 7651:1 7678:1 7989:1 8085:1 8380:1 10352:1 11678:1 12227:1 14084:1 15611:1 15988:1 16416:1 16698:1 16952:1 17205:1 19671:1 20278:1 20587:1 22351:1 22572:1 23371:1 25018:1 26406:1 27503:1 30095:7 30258:1 33093:1 34197:1 37133:1 41462:1 
0.002542995891705845 1:5 3:2 5:2 14:1 20:1 24:2 32:1 45:1 50:1 83:1 97:1 112:1 119:1 125:2 168:1 182:2 247:1 250:1 286:1 371:2 382:1 426:1 435:1 509:1 622:1 695:1 807:1 879:1 992:1 1015:1 1218:1 1282:1 1290:1 1562:1 1586:1 1704:1 1816:1 1827:3 1890:1 1996:1 2140:1 2153:2 2292:1 2383:1 2398:2 2487:1 2959:1 3006:1 3561:1 3653:2 3668:1 3734:1 3774:1 3806:1 4084:1 4245:2 4639:1 6126:3 6647:1 7295:1 7431:1 7558:1 7660:1 8124:1 8431:1 8754:1 9093:2 11253:2 11573:1 12135:1 12301:5 12707:1 14526:1 18611:1 22620:1 28255:1 29351:1 29448:1 29458:1 30836:2 33492:1 33528:1 34184:1 41279:1 42313:1 
0.01805630998236684 1:3 15:1 19:1 53:1 64:1 74:2 90:1 178:1 189:1 197:3 232:1 390:1 416:1 558:1 583:2 715:1 731:1 1037:4 1135:1 1179:1 1261:2 1451:2 1887:1 2185:1 2562:1 2899:1 3135:1 3138:1 3319:1 3333:1 3418:1 3477:1 3830:1 3974:1 4119:1 4237:1 4782:1 4852:1 4946:1 5233:1 5495:2 6143:1 6567:1 7152:1 7420:1 7808:1 8202:1 8360:1 8493:2 9178:1 9628:1 10225:1 13016:1 13243:1 14011:1 14282:1 17001:1 17245:1 22044:1 23142:1 23766:1 25663:1 26829:1 
0.002230840706929263 1:2 6:1 11:1 15:1 24:1 25:1 26:1 43:2 70:2 74:1 76:2 130:1 191:1 213:2 238:1 294:1 339:1 360:1 519:1 524:1 596:1 604:1 736:1 919:1 945:1 1027:1 1440:1 1480:1 1486:1 1578:1 1858:1 2833:1 2993:1 3538:1 3718:1 3816:1 4119:1 4644:1 4651:1 4742:1 5259:1 6401:1 6643:1 6993:1 6998:1 8170:1 8558:1 9535:1 9752:1 10514:1 10880:1 11105:1 11450:1 11942:1 13838:1 16217:1 17818:1 18396:1 21370:1 28341:1 30062:1 32916:1 33438:1 36796:1 42469:1 
0.002649682934757638 1:7 2:2 3:2 8:1 12:1 24:1 104:2 119:2 152:1 189:2 250:1 282:1 348:1 357:1 367:1 405:3 509:1 529:1 688:2 809:1 879:1 896:1 921:2 1031:2 1049:2 1159:1 1252:1 1273:1 1303:1 1493:1 1793:1 2131:1 2204:1 2663:1 3973:1 4473:3 5537:1 6379:1 6637:1 7328:1 7333:1 8856:3 12884:1 17598:1 19149:1 30422:1 38177:1 
0.002885718293519222 1:3 2:1 3:1 11:1 15:1 32:1 43:1 50:1 59:1 90:1 92:1 103:1 105:1 106:1 121:1 165:1 234:1 424:1 519:1 705:1 991:1 1026:1 1031:1 1046:1 1336:1 1348:1 1438:1 1507:1 2529:1 2630:1 2743:1 2784:1 2979:1 3669:1 3774:1 3812:1 3949:1 3985:1 4309:2 4337:1 4579:1 4651:1 4794:2 4863:2 5571:1 7635:1 7650:1 7795:1 8211:1 8936:1 8972:1 9234:1 9786:1 10243:1 11487:1 14831:1 15267:1 16993:1 17980:1 23376:1 24330:1 24663:1 25231:2 26555:1 28523:1 30622:1 33475:1 35845:1 
0.02175882321533529 1:3 2:1 3:1 5:1 10:1 28:1 56:2 104:2 131:1 293:1 313:1 415:1 595:1 873:1 1055:1 1171:1 1508:1 2072:1 2140:1 2341:1 2406:1 2455:1 2541:1 3231:1 3352:1 4907:1 8006:1 10152:1 12114:1 14334:1 20427:1 30430:1 
0.002066228342268734 1:4 2:1 3:4 5:3 7:1 10:1 19:1 36:2 52:1 63:2 67:1 81:1 83:1 97:2 100:2 112:1 182:2 189:1 198:2 201:1 326:1 363:1 403:1 435:1 529:1 572:2 622:1 784:1 824:1 841:3 883:1 1100:1 1146:1 1197:1 1222:1 1290:1 1303:1 1439:1 1742:1 1827:1 1912:1 2046:1 2059:1 2071:1 2124:1 2200:2 2333:1 2398:2 3126:1 3737:1 3953:1 4053:1 4112:2 4383:1 5642:1 5689:1 6126:1 6631:1 7660:1 8261:1 8368:1 8431:1 8754:1 9374:1 9575:2 10232:1 11071:1 11096:1 11253:1 11261:1 11854:1 12301:8 12707:1 13454:1 13519:1 13859:1 14512:1 15337:1 16382:1 19918:1 20148:1 20633:1 22620:1 22933:1 23543:1 24266:1 24437:1 25495:1 27377:1 28630:1 33528:1 34184:1 34266:2 40050:1 
0.01489414298691623 1:1 5:1 15:1 22:1 68:1 74:1 76:1 79:1 175:1 204:1 302:1 315:1 319:1 405:1 651:1 727:1 757:1 819:1 906:1 1014:1 1026:1 1070:1 1434:1 1600:1 1783:3 1813:2 1868:1 2422:1 2490:1 2532:1 2730:1 3053:1 4257:1 4788:1 4870:1 5354:1 5528:1 6559:1 6682:1 6724:1 13312:2 16691:1 19067:1 19720:1 20567:1 20690:1 21925:1 22097:1 24196:1 26951:1 34218:1 42252:1 
0.004265429902672953 1:9 2:3 3:2 4:1 8:1 10:1 14:1 31:1 35:1 47:1 63:1 64:1 87:1 99:1 100:1 116:1 118:1 119:2 127:1 131:1 143:1 146:1 159:1 162:1 164:2 180:1 192:1 203:1 212:1 250:1 273:2 344:1 374:1 417:1 566:1 615:1 618:2 627:1 653:1 671:1 736:1 762:2 824:1 879:1 886:1 927:1 1006:1 1103:2 1110:1 1213:1 1302:2 1345:1 1394:1 1424:1 1442:2 1506:1 1656:1 1704:1 1734:1 1856:1 2094:1 2181:1 2222:1 2364:1 2603:1 2631:1 2646:1 2660:2 2717:1 2816:1 2834:1 2838:2 2903:1 2920:1 3055:1 3095:1 3231:2 3288:1 3312:1 3668:1 3734:1 3826:1 4102:1 4756:1 4763:1 5247:1 5283:1 5373:1 5846:1 6052:1 7282:1 8680:1 9180:1 9200:1 9463:1 9968:1 11137:1 11259:1 11592:1 11837:1 12141:1 12290:1 12434:1 13672:1 15502:5 16528:1 17633:1 18658:1 18830:1 19393:1 21014:1 21586:1 21794:2 21833:1 27558:1 29883:1 30017:3 31319:1 35331:1 37413:1 37877:1 40373:1 41829:1 
0.0001079025328325172 1:4 2:1 5:1 7:2 17:1 22:1 25:2 35:1 52:1 59:2 71:2 81:1 83:1 84:1 91:1 117:1 164:1 184:1 195:1 275:1 284:1 322:1 345:1 436:1 700:1 707:1 761:2 836:1 849:1 999:1 1011:4 1108:1 1215:1 1335:1 1558:4 1574:1 1816:1 1824:1 1831:1 2143:1 2218:1 2452:1 2660:1 2838:1 2901:1 3805:1 4084:1 4343:1 5237:1 5412:1 5690:1 5990:1 6621:1 6967:2 7734:1 7943:3 7995:1 9168:2 9251:1 9484:1 10330:1 12923:1 13279:1 13544:1 13743:3 13901:1 14081:1 14179:1 14578:1 15414:1 16393:1 16498:1 18107:1 22175:1 22431:2 24153:1 24280:1 36436:1 37108:1 42420:1 
0.0108037775299053 1:1 12:1 13:1 24:2 37:1 38:1 60:2 68:1 90:2 92:1 97:1 133:2 157:1 202:1 206:2 208:1 247:1 364:1 536:1 637:1 686:1 825:1 887:1 1211:1 1217:2 1353:1 1427:1 1489:1 1779:1 2041:1 2058:1 2424:1 2441:1 2593:2 2740:1 3476:1 3616:1 3655:1 3748:2 4012:1 4307:1 4340:1 4419:1 5119:1 5325:2 5502:2 5541:5 5953:1 6314:1 6320:1 6897:1 7233:1 7452:1 7660:1 8269:1 9816:1 9855:1 11167:1 12540:1 12571:1 15237:1 15946:1 17891:3 19100:1 25665:1 25949:1 27358:1 
0.002063508062785769 1:1 17:1 21:1 27:1 50:1 56:1 60:1 99:1 106:1 127:1 147:3 202:1 210:2 261:3 391:3 406:1 421:1 451:1 473:1 550:1 613:1 628:1 765:1 767:1 777:1 812:1 913:1 1508:1 1876:1 1926:1 1943:1 2976:1 3053:1 3309:1 3587:1 3694:2 4007:1 4091:1 4227:1 4608:1 4881:1 5640:1 6344:1 7023:1 7297:1 7632:1 8317:1 8625:1 10119:1 11083:1 12140:1 18448:1 18965:1 27202:1 31786:1 33381:1 
0.005478155422288195 1:9 10:1 13:1 49:2 52:1 74:1 84:2 87:1 112:2 155:1 166:1 189:1 229:1 234:1 235:1 249:1 317:1 320:1 355:1 393:1 757:1 908:1 992:1 1108:1 1474:1 1857:1 1883:1 1925:1 2184:2 2253:1 2255:1 2291:2 2523:2 2531:2 3232:1 3734:1 3849:1 3903:1 4052:1 5068:1 5613:3 6001:1 6594:2 7291:1 8484:1 8533:1 9156:1 9759:2 10818:1 10858:1 20063:1 20096:1 21693:1 23764:1 26368:1 31431:1 33047:1 36700:2 
0.001744099039443033 1:2 2:1 3:1 5:1 7:1 13:1 17:1 48:1 51:1 52:1 71:1 104:2 112:1 135:1 164:1 171:2 280:1 293:1 323:1 331:2 379:1 430:1 442:1 532:1 552:1 555:1 576:1 594:1 595:1 821:1 1055:2 1096:1 1334:1 1884:2 1914:1 2052:2 2083:1 2284:1 2332:1 2838:1 4852:1 5753:3 6121:1 7000:2 7034:2 7436:1 9060:1 9865:1 11097:1 12079:1 12513:1 20317:1 20444:1 31868:1 33910:1 36498:1 36951:1 37466:1 
0.004717588548194299 1:2 5:1 8:1 10:1 22:2 32:1 35:1 189:1 190:1 312:2 322:1 364:1 376:1 415:1 683:1 762:1 802:1 931:2 991:1 1143:1 1222:1 1407:1 1607:1 1774:1 1932:1 2272:1 2458:1 2523:1 3793:1 4717:1 5090:1 5415:1 6002:1 7780:2 7927:1 8854:1 8965:1 11627:1 13763:1 14396:1 16418:1 16632:2 17663:1 23511:1 23582:1 36963:1 38812:1 
0.0121577316942644 3:1 152:2 165:2 225:1 238:1 294:1 298:1 346:1 443:1 541:1 932:1 956:1 1076:1 1095:1 1213:1 1258:1 1298:1 1369:1 1578:1 1654:1 1721:1 2202:1 2792:1 3226:1 3624:1 3792:2 4414:1 5259:1 5571:1 5706:1 6314:1 6342:2 13846:1 14476:1 18445:1 19177:1 34072:1 35476:1 37337:1 42202:1 42284:1 
0.001276383675053893 1:1 22:1 25:1 49:2 57:1 59:1 106:1 210:2 248:1 407:3 443:1 588:1 689:1 769:5 885:1 936:1 1004:1 1178:1 1437:1 2066:1 2508:1 3048:1 4641:3 5836:3 6905:2 9349:1 13642:1 15826:1 17074:1 26381:1 30333:5 42716:1 
0.005934504590584727 1:1 5:1 7:1 32:1 37:1 43:3 74:2 108:2 331:1 371:1 436:2 526:1 857:1 893:1 991:1 1128:1 1156:1 1292:2 1758:1 2107:1 2160:2 2218:2 2738:1 2982:1 3176:1 3536:1 3659:1 4463:1 5657:1 7050:2 8876:1 9023:1 14461:1 14826:1 15724:1 19908:1 23217:3 32693:1 32957:1 37918:1 39030:1 
0.001384932454420335 1:5 2:2 3:1 5:1 9:1 24:1 26:1 30:1 45:1 108:1 117:1 125:1 165:2 287:1 302:1 320:1 331:1 338:2 397:1 405:1 451:3 539:1 577:1 582:1 596:2 648:1 655:1 673:1 733:1 864:1 870:1 941:1 1191:1 1292:1 1460:1 1467:1 1898:1 1902:1 2018:1 2586:1 2852:1 2875:1 2948:1 3321:1 3634:1 3760:1 3874:1 4208:1 4403:1 4547:1 4715:1 4853:1 5957:1 7587:1 7917:1 9684:2 10180:1 10565:1 12722:1 16135:4 30229:1 30403:1 31766:1 34206:1 34397:1 35175:1 
0.005620147689325617 1:3 2:2 3:1 22:1 23:2 33:3 35:1 63:1 66:2 75:1 119:1 127:2 146:1 151:1 154:1 372:1 462:1 579:1 711:2 836:1 999:1 1011:2 1042:1 1049:1 1110:1 1191:1 1215:2 1716:1 1816:1 1895:1 2038:1 2073:1 2488:1 2660:2 3132:2 3305:2 3392:1 4343:1 4814:1 5237:1 5337:2 5456:1 5690:1 7682:1 8659:1 11770:1 13461:1 13743:2 14497:1 15234:1 15579:1 16751:1 18021:1 19590:1 20714:1 21567:1 24280:1 26627:1 33580:2 40941:1 
0.005482451313056349 1:4 2:1 3:1 25:1 48:1 55:1 112:1 129:1 138:1 155:1 190:1 194:1 259:1 322:2 447:1 448:1 468:3 594:3 728:1 1170:2 1682:1 1983:1 2038:1 2093:1 2556:1 3619:2 5355:2 5827:1 6883:1 6945:2 7798:2 8462:1 8516:2 10435:1 10608:1 10715:1 13069:1 17970:1 24531:1 32916:1 
0.006562894080772846 1:2 2:1 13:1 35:1 38:1 59:2 63:1 100:1 103:2 146:1 203:1 248:1 415:1 769:3 800:1 1677:1 1792:1 2066:1 2080:1 2149:1 2660:2 2816:1 3370:1 3879:1 5280:1 7210:1 8130:1 9752:1 10654:1 13262:1 15311:2 18204:1 20616:2 21672:1 22825:2 25221:1 25647:1 27519:1 28126:2 31633:1 35075:1 39252:1 40066:1 40297:1 
0.008622057645012006 1:2 13:1 34:1 36:1 76:1 87:1 117:1 193:1 209:1 217:1 250:1 260:2 319:1 393:1 405:1 427:1 516:1 529:1 585:1 688:1 730:1 733:1 756:1 820:1 1110:2 1884:1 2341:1 2675:1 3012:2 3189:2 3623:3 3981:2 4047:1 4415:1 4890:1 5875:1 7452:1 9107:1 10049:1 12158:1 14004:1 15889:1 16832:1 20947:1 21893:1 34741:1 36013:1 36695:1 38791:1 
0.003111427165591261 1:1 3:1 8:2 36:1 56:1 76:1 106:1 112:1 162:1 212:1 230:1 266:1 272:1 342:1 405:1 517:1 683:1 733:1 917:1 946:1 1258:1 1545:1 1587:1 2075:1 2439:1 2770:1 3785:1 3928:1 4119:4 4317:1 4476:1 4716:1 5286:1 5460:1 6544:1 6807:1 6998:3 7052:1 8441:1 8960:1 12345:1 14526:1 15066:1 15131:1 16453:1 16738:1 16842:1 17928:1 18990:1 19619:1 21711:1 27247:1 34358:1 
0.01119110488150257 1:3 2:1 24:1 43:1 164:1 189:1 203:1 210:1 421:1 483:1 673:1 699:1 823:1 1857:2 2091:1 2388:1 2632:1 2772:1 2826:1 3427:1 3846:1 3897:1 4137:1 4150:1 4356:1 5448:2 5613:3 5820:1 6540:1 7204:1 7328:1 10845:1 15098:1 30829:1 
0.003149599963361308 1:1 3:1 5:1 19:1 46:4 60:1 81:1 87:1 89:1 106:3 112:1 155:1 210:3 268:1 298:1 393:1 607:1 642:2 678:2 825:1 842:1 845:1 851:1 901:1 936:1 1022:2 1046:1 1262:1 1279:2 1768:1 1771:1 1857:3 2037:1 2288:1 2411:1 2588:1 2839:1 3074:1 3333:1 3352:1 3496:1 4080:1 4295:1 4373:1 4532:1 5263:1 5448:2 5949:3 7128:1 7609:1 7846:1 8336:1 8435:1 8467:1 8808:1 8949:1 9082:1 10298:1 10718:1 10729:1 11618:1 12046:1 13120:1 13497:1 17547:1 20861:4 21579:1 26687:1 27673:1 33801:1 35718:1 36780:1 39268:1 
0.0002385471862854672 1:3 2:1 4:1 8:2 17:2 25:5 28:1 40:1 48:1 56:1 61:2 72:2 98:2 117:4 154:1 224:1 275:1 309:1 416:1 430:1 464:1 525:1 591:1 607:1 1131:1 1277:1 1282:1 1491:1 1549:5 1584:2 1721:1 1865:1 1955:1 2016:1 2593:1 2632:1 2990:1 3427:1 3508:1 3692:1 5390:1 6346:1 6377:1 6797:1 7915:1 8258:1 8785:1 9338:1 12119:1 14547:1 16332:1 22297:1 29554:1 32076:4 32379:1 
0.007152775404115824 1:5 2:1 19:3 24:1 32:1 35:1 57:2 70:1 78:1 97:1 99:1 125:1 136:1 161:1 202:1 205:1 212:1 237:1 241:1 306:1 356:2 377:1 394:1 424:1 436:1 466:1 478:1 489:2 555:2 619:2 648:1 686:1 740:1 889:1 942:1 1016:1 1050:1 1128:1 1217:2 1336:2 1446:1 1470:1 1598:1 1671:2 1776:1 1825:1 1894:1 2036:1 2065:1 2123:2 2159:1 2209:1 2230:1 2368:1 2393:1 2468:1 2506:1 2533:1 2543:1 2782:1 3046:1 3261:1 3330:1 3618:1 3774:1 3852:1 3976:1 3996:1 4037:2 4244:1 4272:1 4307:1 4714:1 4848:2 5325:1 5502:2 5752:1 5757:2 6037:1 6825:1 6921:4 7209:1 7411:1 8043:1 8856:3 9716:1 9855:2 9925:1 9928:2 10492:1 10497:1 11383:1 11701:1 12151:1 13104:1 13155:1 16292:1 18311:1 18576:1 19060:1 21005:1 22031:1 22968:2 23933:1 24692:1 25751:1 27633:1 28210:1 29921:1 31012:1 34392:4 37835:1 39955:1 
0.003087568352865599 5:1 45:1 51:1 52:1 63:1 68:1 71:1 112:1 143:3 154:1 155:1 159:2 162:2 169:1 202:1 230:1 282:1 339:1 342:3 471:1 498:1 502:1 529:1 603:1 644:1 814:1 825:1 1025:1 1082:1 1150:1 1283:1 1857:1 2041:2 2339:1 2663:1 3124:1 3813:1 3873:2 4623:1 5426:1 5448:1 5613:1 7650:3 8634:1 8797:1 9203:1 9373:6 10055:1 11736:1 12069:1 12902:1 14506:1 17045:1 20449:1 23762:1 30322:1 32008:1 
0.009117021426640004 1:1 2:1 11:3 20:1 25:1 55:1 56:1 79:1 112:1 155:1 164:1 236:2 413:1 508:1 568:1 1035:1 1229:1 1396:1 1477:2 1504:1 1523:1 1703:1 1796:2 2200:1 2849:2 2891:1 3113:1 3549:1 3640:1 4258:1 4309:3 4705:1 5072:1 5672:1 7170:1 8561:3 10836:1 11936:1 13380:1 14198:1 14280:1 18280:2 26099:1 29254:1 37224:1 
0.001872870662493077 1:2 14:1 32:1 35:1 38:1 92:2 113:1 116:1 210:1 320:1 342:1 348:1 349:1 357:2 403:1 436:1 521:1 529:1 683:1 768:1 936:1 997:1 1056:1 1107:1 1263:1 1661:1 1833:2 1857:1 1893:1 2358:1 2466:1 2546:1 3352:2 3363:4 3724:1 3749:1 4197:1 4352:1 4369:1 4501:1 4516:1 4963:1 5448:2 5613:1 6594:1 6669:3 7837:1 8336:1 8882:1 9189:1 9839:1 10603:1 10734:1 11598:1 12609:1 13262:1 13625:1 13736:1 15207:1 15600:1 18040:1 23677:1 24813:1 25840:1 28859:1 32059:1 33229:1 35434:1 40462:1 
0.0092240847407502 1:2 2:3 4:1 6:1 9:1 22:1 34:1 45:1 50:1 74:1 76:1 82:2 141:1 171:4 202:1 206:1 315:1 331:1 344:1 397:2 549:1 673:1 733:1 808:1 847:1 890:1 896:1 917:2 1026:1 1235:1 1469:1 1545:1 1578:1 1784:1 1833:1 2384:1 3295:1 3352:1 4208:1 4716:1 5559:2 5872:1 6659:1 6807:1 6884:1 7112:1 7180:1 8441:2 8677:1 8759:1 9529:1 10261:1 10290:1 10455:1 11005:1 14172:1 14473:1 16641:1 18396:3 19471:1 20567:1 21318:1 21434:1 24564:1 25360:1 35062:1 37076:1 
0.0007573628263047068 1:1 2:1 4:2 8:1 12:1 22:2 43:1 44:1 48:1 55:1 72:2 76:3 79:1 84:1 106:3 135:1 162:1 232:3 238:2 284:1 331:1 338:1 382:1 430:1 474:1 617:1 746:1 890:1 961:1 1069:1 1262:1 1327:1 1352:1 1446:1 1771:1 1796:1 1924:1 2348:1 2930:2 3081:1 3546:1 4052:1 4414:1 5272:1 5432:1 5909:2 5998:1 8034:1 10000:1 10076:1 13754:1 15629:1 15985:1 17304:1 18297:1 18624:1 21346:1 23437:1 26283:1 30046:1 31603:1 32408:1 35341:1 
0.002537536365905575 1:3 2:1 8:1 11:3 25:3 32:1 39:2 112:1 155:1 162:2 266:1 390:2 459:1 541:4 550:1 571:1 660:1 709:1 711:1 819:1 928:1 1073:1 1104:1 1504:1 1592:1 2002:1 2119:1 2260:1 2668:1 3215:1 3514:1 3535:1 3601:1 3931:2 4770:1 4801:1 5111:1 5191:4 5250:1 5589:1 5837:1 5907:1 6464:1 6506:1 6744:2 6813:1 7330:1 7540:1 9155:2 9427:1 10414:1 16029:1 19698:5 20157:1 21792:1 22685:1 24108:3 28695:1 36254:1 39861:1 40116:2 40624:1 
0.01578015612854222 1:10 2:2 45:1 56:1 63:1 100:1 188:2 202:1 204:1 225:1 284:1 480:1 487:1 521:2 766:1 891:1 1086:1 1093:1 1150:1 1598:2 1613:1 1697:1 1890:1 2233:1 2478:1 2519:1 2636:1 2708:1 2974:1 2986:1 2991:1 3132:2 3884:1 3903:2 4695:6 4716:1 5819:1 6648:1 6812:1 6884:1 7277:1 7411:1 7568:1 8069:1 9158:1 9299:1 10670:1 11311:1 17339:1 19137:1 21954:1 23454:1 24209:1 26024:1 26693:1 27975:1 28258:1 29068:1 
0.004335311550982691 1:6 2:3 4:1 7:5 17:1 26:1 40:1 49:1 54:1 78:1 89:1 91:1 92:3 97:1 99:1 100:1 112:1 121:1 127:1 133:3 155:1 157:1 164:1 212:1 220:1 236:3 301:1 305:1 311:1 316:1 354:1 412:1 432:1 435:1 506:2 512:1 622:1 642:1 683:1 825:1 828:1 901:1 930:1 982:1 984:1 1009:1 1036:1 1058:1 1197:1 1437:1 1574:1 1593:1 1956:1 1957:1 2632:1 2641:1 2674:1 2807:1 2935:1 3275:1 3357:1 3455:1 3526:1 3544:1 3589:1 3907:1 3915:3 4193:1 4383:1 4390:1 4598:2 5019:1 5091:3 5794:1 6286:1 6891:1 6892:1 6987:1 7169:1 7285:2 7649:1 8130:1 8388:1 9102:1 10318:1 10625:1 10940:1 11496:1 12059:1 12074:1 12506:1 13507:1 13563:1 14100:1 14614:1 15945:1 16699:1 17548:1 19756:1 20509:1 21419:1 24057:1 27719:1 28429:1 29267:1 29523:1 30736:1 33912:1 35260:1 36387:1 40221:1 41467:1 
0.002758087106138319 1:3 3:1 8:1 12:1 25:1 28:4 56:1 61:1 72:2 86:1 98:1 110:1 127:3 130:1 164:3 180:1 321:1 430:1 462:1 540:1 591:3 603:1 1028:1 1036:2 1175:1 1584:1 1704:1 1924:1 1931:1 1987:1 2976:2 3008:1 3047:1 3550:1 4054:1 4320:1 4406:1 5959:1 6355:1 6583:1 7472:1 8857:1 9284:1 9705:1 9775:1 10283:1 10651:1 11655:1 11657:1 11823:1 14533:1 15695:1 16622:1 17225:6 19015:1 19291:1 25528:1 26703:5 29198:1 30697:1 33445:1 42155:1 43254:1 
0.00727114232280133 1:2 8:1 11:1 15:1 17:1 22:1 25:3 40:4 45:1 49:4 56:2 84:1 108:1 136:1 140:2 160:1 164:3 178:1 188:1 214:6 222:1 229:1 232:2 234:2 249:1 255:1 299:1 352:1 362:1 370:4 390:1 517:1 520:1 541:1 561:1 567:2 709:1 811:1 836:1 862:3 868:1 885:2 1036:2 1078:1 1104:2 1325:1 1347:1 1351:2 1426:1 1479:1 1556:1 1580:1 1654:1 1975:2 1982:1 2252:1 2279:1 2666:1 2728:2 2860:2 3285:6 3499:1 3514:1 3715:1 3721:1 3758:1 3846:2 3861:1 3933:1 4529:2 4877:1 5249:1 5393:1 5590:1 5737:1 5800:2 6030:1 6772:1 7110:1 7858:1 8073:1 8188:1 8400:1 8642:2 9086:1 9381:1 10637:1 10656:1 10937:1 11020:2 11750:1 11775:1 11824:1 11926:1 13283:1 14232:1 15023:2 15495:2 15668:1 16561:1 20192:1 20553:1 20648:1 21826:1 23810:1 35468:1 37883:1 38706:1 41276:1 
0.004249853788882385 1:3 3:1 4:1 6:1 11:1 17:1 23:2 25:1 28:1 39:2 54:1 55:1 61:2 72:3 98:1 110:2 117:2 127:1 138:1 148:1 164:1 299:2 321:1 390:1 398:1 404:1 440:2 472:1 525:3 541:1 678:1 688:1 747:1 877:1 963:1 1036:6 1045:1 1281:1 1289:1 1320:1 1356:1 1359:1 1402:2 1721:1 1921:1 2033:1 2234:1 2249:1 2412:1 2552:2 2612:1 2663:1 2709:1 2838:1 3285:2 3784:1 3994:1 4448:1 4708:1 4858:1 4988:1 5861:1 5991:1 6171:1 7790:1 7809:2 7820:1 8438:2 8558:1 8926:1 9155:1 9237:1 9729:3 9886:1 11926:1 12626:1 13430:1 14149:1 15208:1 15320:1 15429:2 15788:1 16195:1 18008:1 19228:1 19555:1 20984:1 22889:1 24400:1 24409:1 27591:1 28027:1 28200:1 30268:1 41655:1 
0.01057100612663434 15:1 28:1 89:1 102:1 167:1 188:1 206:1 289:1 331:1 346:1 551:1 596:2 602:1 629:1 997:2 1011:2 1127:1 1215:1 1257:1 1824:1 2119:1 2397:1 2814:1 2843:1 2926:1 2983:1 3243:2 4403:1 4461:1 4934:2 4949:1 5014:1 5375:1 5716:1 6141:1 6938:2 8815:1 8821:1 9723:1 10415:1 10770:1 10872:1 11536:1 13365:1 15769:1 16415:1 17350:1 19778:1 23142:1 24807:1 25623:1 25836:1 28698:1 31944:1 32841:1 36299:1 36346:1 40597:1 42210:1 
0.002598117405874122 3:1 8:2 15:1 61:2 68:1 72:2 98:2 224:1 225:1 233:1 418:1 441:1 489:1 500:1 525:3 537:2 541:1 596:2 666:1 700:1 734:1 789:1 1036:1 1037:1 1129:1 1486:1 1729:2 1924:2 1955:3 2132:1 2422:1 2628:1 2767:1 3776:1 4056:1 4112:1 4230:1 5237:1 5772:1 7457:1 7632:1 7922:1 8974:1 10629:1 13351:1 16141:1 17887:1 22734:1 23409:1 24898:1 25565:1 29111:1 31573:1 33473:1 
0.004458581699439589 2:4 3:1 4:1 8:1 11:2 25:3 39:4 49:1 56:2 57:1 84:1 98:2 127:1 162:1 164:2 322:1 366:2 404:1 660:1 747:1 773:1 911:1 996:1 1171:1 2408:1 3309:4 4389:1 4477:3 5873:1 5899:1 7717:1 7780:2 8543:1 8611:1 9318:2 9828:3 13692:1 14933:1 16016:1 20712:1 22335:1 23727:1 28752:1 
0.01256322325947711 1:3 2:1 3:3 6:1 20:1 26:3 28:1 32:1 56:2 87:1 96:1 132:1 141:1 168:1 269:1 340:1 357:2 398:1 404:1 749:1 772:1 1031:1 1197:1 1258:1 1297:1 1459:1 1658:1 1949:1 2554:1 2660:2 3139:1 3551:1 3628:1 3879:1 4575:1 4807:1 5059:1 5545:1 6586:1 6691:1 7383:1 8390:1 11058:1 11964:2 12546:1 13234:1 13349:1 13737:1 15003:1 15311:1 15695:1 17555:1 17601:1 17978:1 18976:1 19967:1 23053:1 23108:1 23230:1 25010:1 27380:1 28126:1 32487:1 35055:2 38564:1 40297:1 40332:1 41045:1 42854:1 
0.004891061914070372 1:3 2:1 12:1 25:1 73:1 99:1 112:1 119:1 144:1 155:1 162:1 194:1 290:1 337:1 440:1 443:1 512:3 516:1 555:1 747:1 773:1 824:1 942:1 1104:2 1478:1 1625:1 1822:1 1928:3 1956:1 1992:1 2257:1 2360:1 2445:1 2465:1 2642:2 3278:1 3389:1 3634:1 4498:1 5989:1 6244:1 6582:2 8139:1 8389:1 9398:1 10677:1 11845:1 11953:1 12674:2 15798:1 16114:1 16904:1 21938:2 24890:1 26911:5 
0.004882179667902243 1:2 2:1 4:1 8:1 45:1 47:1 76:3 96:1 102:1 105:4 106:7 108:1 130:1 139:1 156:2 192:1 225:1 243:1 283:3 290:1 307:1 359:1 362:1 389:1 436:1 506:1 523:2 549:1 587:1 682:1 707:1 913:1 1038:1 1140:2 1168:1 1399:1 1444:2 1507:1 1629:1 1671:1 1945:2 1952:1 1953:1 2156:1 2288:1 2403:1 2510:1 2872:1 3006:1 3140:1 3163:1 3221:2 3240:1 3318:1 3632:1 4107:1 4243:1 4268:1 4293:1 4399:1 5265:2 5367:2 5665:1 6358:1 7061:1 7462:1 7981:1 11178:1 11681:1 11700:1 16778:1 17304:1 20065:1 38646:1 
0.003629432391437549 1:1 24:1 26:3 43:2 48:1 74:1 81:1 88:1 97:1 152:1 247:1 298:1 313:1 518:1 524:1 539:1 596:1 722:1 753:1 804:1 890:1 997:1 1027:1 1055:1 1143:1 1148:1 1232:1 1258:1 1292:1 1544:1 1613:1 2034:1 2325:1 2948:1 2982:1 3419:1 3690:1 4227:1 6643:1 6645:1 7387:1 7670:1 11444:4 11904:1 13984:1 19079:1 21410:1 21521:1 33538:2 
0.01392554921221957 1:3 5:1 47:1 81:1 91:1 101:1 102:2 107:1 110:1 124:1 132:1 188:4 229:1 232:1 238:1 274:1 287:1 296:1 335:1 337:1 360:1 382:2 441:1 491:1 519:1 598:2 659:1 686:1 706:1 717:1 844:5 998:1 1225:1 1694:3 1702:1 2141:1 2560:1 2590:2 2628:1 2861:1 3671:1 3861:2 5545:1 5587:1 6568:1 6899:1 6984:2 7576:1 7774:1 8708:1 8852:1 9287:1 10075:1 10845:1 11179:1 13328:1 13850:1 14614:1 14899:2 15755:1 16313:1 19556:1 19958:4 24255:1 26803:1 31245:1 31383:1 31988:3 37121:1 
0.00916306038810849 2:1 3:1 8:3 17:2 22:1 56:1 61:2 72:1 79:1 80:1 116:1 193:1 210:1 247:1 256:1 260:1 272:1 472:2 516:1 520:2 529:1 591:1 711:1 733:1 917:1 1061:1 1249:1 1292:1 1528:1 1742:1 1833:1 1865:1 1883:1 2709:1 2742:1 2845:1 3318:1 3352:1 3405:1 3431:1 3898:1 4861:1 5088:1 5143:1 6369:2 6620:1 7534:3 7568:1 7740:1 7871:1 8777:2 11803:1 13782:1 16029:1 19679:1 32012:1 40710:1 
0.0001886309865405788 1:5 3:1 4:2 38:1 74:2 112:1 155:1 182:1 189:1 195:1 298:1 405:1 653:1 931:1 936:1 1594:1 1602:1 1783:1 1833:1 2041:1 2797:1 2872:1 2932:1 3295:1 3352:2 3774:1 4651:1 5716:1 6594:1 8882:1 10718:1 13851:1 13947:1 14644:1 15845:1 17026:1 17958:2 18914:1 27179:1 28982:2 29265:1 
0.005862233842241235 1:6 3:1 8:2 25:2 35:1 56:1 72:3 98:1 110:1 114:1 131:1 135:1 299:1 300:1 345:1 365:1 417:1 445:1 462:1 470:1 519:1 541:4 586:1 591:4 624:3 636:1 659:1 709:1 770:1 777:1 990:1 992:1 1001:1 1166:1 1234:1 1276:1 1309:1 1411:1 1584:1 1589:2 1599:1 1826:1 1859:1 1879:3 1948:1 1989:1 2007:2 2080:3 2156:1 2660:1 2699:1 2865:1 3009:1 3076:1 3101:1 3767:1 3794:1 3871:1 4608:1 4815:1 4822:1 5044:1 5560:1 5894:1 6369:1 6687:1 7845:1 8405:1 8437:1 8848:1 9583:1 9725:2 10662:2 13884:1 14358:1 14457:1 15867:1 15941:1 18008:1 20585:1 24432:1 25115:1 26798:1 27158:1 27251:1 28081:1 28127:1 29497:1 32847:2 33812:1 34320:2 35388:1 39662:1 41678:1 
0.0001236104295780342 1:3 3:1 5:1 13:3 17:1 25:3 34:1 83:1 87:1 112:2 114:1 121:1 130:1 155:2 178:1 195:1 212:1 268:1 357:2 385:3 441:1 492:1 505:1 517:2 569:1 607:3 802:1 811:2 928:2 998:1 1073:1 1116:1 1328:1 1362:1 1557:1 1640:1 1686:1 1687:1 2016:1 2248:1 2701:4 2703:1 3050:1 3057:1 3175:1 3713:1 3717:1 4214:1 4399:1 5052:1 5132:1 5471:1 5797:1 6989:2 7020:1 7056:1 7451:1 7513:1 7933:1 8911:1 11158:1 20887:1 21051:1 36269:1 41111:1 
0.006174027706736458 1:10 2:4 3:3 7:1 28:3 38:3 39:1 49:1 56:1 57:1 94:1 114:1 117:1 126:1 127:1 150:1 162:1 180:1 188:1 309:1 321:1 390:1 497:1 519:1 522:1 541:1 588:1 599:1 696:1 872:3 879:1 880:1 896:1 901:3 905:1 997:1 1009:1 1069:1 1124:1 1213:2 1214:2 1274:1 1420:2 1463:1 1511:1 1598:3 1633:2 1862:1 2068:1 2252:1 2397:1 2440:1 2464:1 2539:1 2542:1 2660:1 2674:1 2762:1 2854:1 2951:1 3015:1 3249:1 3424:1 4083:1 4178:1 4222:1 4270:1 4320:1 4525:1 4928:1 5657:1 5946:1 7165:1 7238:1 7922:1 8084:1 11131:1 12129:1 12404:1 12677:1 14738:1 18018:1 18058:1 19103:1 19756:1 21779:3 24260:1 24413:1 26431:1 28892:1 29734:1 34337:1 36934:1 37677:4 41949:1 42624:1 
0.002958327216926632 1:1 3:2 8:1 17:1 21:1 28:3 38:1 50:1 56:1 71:1 72:1 99:1 102:2 105:2 124:3 232:1 236:1 238:1 261:1 266:1 354:1 524:1 567:3 636:1 717:1 824:1 1037:1 1062:1 1079:1 1172:1 1201:1 1514:1 1888:1 2066:1 2294:3 2441:2 2566:1 2660:2 3403:1 3700:1 4096:1 4725:1 4822:1 5583:1 6864:1 7050:1 7540:1 8084:2 8494:1 8859:1 9023:1 11577:1 12453:1 13626:1 14358:1 15983:1 19278:3 21043:1 21388:4 22166:1 22208:1 25880:1 30330:1 30956:1 35388:1 40110:1 
0.0001548760890287508 2:1 25:1 26:2 53:1 112:1 134:7 155:1 278:1 320:2 410:1 520:1 556:1 577:5 689:1 911:1 928:2 1004:1 1014:1 1032:1 1123:1 1159:1 1222:1 1298:1 1307:1 1341:1 1699:1 1932:1 1947:1 2427:1 2495:1 2717:1 4755:1 5202:1 5552:1 5649:3 5829:1 6150:1 10426:2 11742:1 12662:1 13542:1 13557:1 23162:1 23489:1 28655:4 41315:1 
0.001763342477908901 1:3 2:2 3:2 15:1 24:1 43:3 72:1 90:1 92:2 99:1 116:1 117:1 132:4 138:1 189:1 191:1 213:1 229:1 232:1 260:1 338:2 368:1 416:6 443:1 451:1 524:1 583:1 596:1 605:1 727:1 733:1 815:1 1162:1 1179:1 1218:1 1233:1 1440:1 1460:1 1550:1 1661:1 1948:1 2152:1 2305:3 2353:1 2416:2 2466:1 2604:2 2742:1 2898:1 3136:1 3502:3 3571:2 3633:1 3670:1 3786:1 3816:2 3826:1 3877:1 4219:1 4761:1 5729:1 5830:1 5939:1 5993:1 6623:1 7173:1 7381:1 7524:1 7864:1 8850:1 9065:1 9800:1 10597:1 13976:1 13984:1 14610:1 14625:1 15125:1 15221:1 15954:3 16135:1 16993:1 17009:2 17104:1 19084:1 20058:1 21960:1 22347:1 25087:1 25771:1 25840:1 27600:1 28303:1 29456:1 29753:3 34361:1 35085:1 35693:1 41200:1 
0.002236131628264239 1:3 2:1 4:1 6:1 15:2 24:1 25:2 28:1 54:1 57:1 79:2 89:1 99:1 117:2 135:1 139:2 159:1 193:1 268:1 282:1 336:1 489:1 506:1 596:1 626:1 650:1 710:1 864:1 981:2 1011:4 1127:1 1215:2 1260:1 1371:1 1695:1 1876:2 2094:1 2131:3 2157:2 2263:1 2841:1 2843:1 2926:1 2983:1 2993:1 3036:6 3231:3 3243:1 3333:1 3357:1 3584:1 3589:1 3874:1 3944:1 3946:1 4116:1 4229:1 4330:1 4542:1 4748:1 4949:1 5130:1 5546:1 6201:1 6528:1 6967:2 7063:1 7717:1 8279:1 9758:1 10748:1 10866:1 10872:1 12114:1 13699:1 19778:1 20541:1 21800:1 23849:1 25348:1 26384:1 28428:1 28698:1 36592:1 39084:1 39795:1 
0.0007508805476399857 1:4 7:1 8:1 24:1 34:1 65:1 74:1 105:1 106:1 117:1 125:1 141:1 162:1 206:1 210:1 247:1 399:2 405:1 418:1 478:1 685:1 696:1 828:1 864:1 885:1 894:1 901:1 959:1 981:1 986:1 1048:1 1132:1 1217:1 1273:1 1427:1 1689:1 1857:1 1930:1 2035:1 2037:1 2795:1 2890:1 3889:1 4217:1 5064:1 5103:1 5944:3 6643:1 7323:1 7412:5 7452:1 8090:1 8488:1 9103:1 11038:1 11706:1 11770:2 11781:1 11896:1 17211:1 17294:1 17439:1 19331:1 19644:1 21395:1 24082:1 24206:1 26571:1 30621:1 30801:1 32271:1 34005:1 35432:2 36524:1 38632:1 40661:1 
0.002624650332439807 1:3 5:1 36:1 43:1 52:1 108:1 112:1 122:1 155:1 159:2 175:1 192:2 194:1 200:1 235:1 317:1 322:1 325:2 386:1 472:1 512:2 644:1 666:1 677:1 683:1 720:1 756:1 814:1 890:1 1143:1 1150:1 1200:2 1425:1 1566:1 1915:1 2295:1 2333:1 2702:1 2784:1 2788:1 3042:1 3796:2 4011:1 4539:1 4590:1 5024:1 5805:1 7808:2 8341:1 8488:1 9104:1 10138:1 10424:1 11954:1 11997:1 12145:1 13432:1 15768:1 20117:1 20406:1 21011:1 25071:1 25854:1 26144:1 26790:1 28764:1 33377:1 40713:2 
0.001829469226039209 1:2 3:1 15:1 53:1 59:1 104:3 132:1 231:2 294:1 340:1 473:2 558:1 577:2 880:1 941:1 1251:2 1463:3 2284:2 2391:1 2396:1 2400:1 3270:1 3403:3 3565:1 3694:2 4060:2 4166:1 4373:1 4449:1 5035:2 5227:1 5434:1 6011:1 6143:1 7333:3 8490:1 8919:1 9512:1 9912:1 11107:2 14200:1 16183:1 19574:1 20995:1 22033:1 23764:1 23864:1 27933:1 31221:1 
0.008935036236951174 1:2 3:1 38:1 122:1 227:1 231:1 235:2 294:1 340:1 711:1 851:1 880:1 1155:3 1167:1 1170:2 1184:1 1189:2 1463:1 1955:1 2140:1 2295:1 2838:1 3231:2 3310:1 3856:2 4236:1 4852:2 6452:2 6616:1 8041:1 8268:1 8522:1 9512:1 12114:1 13894:1 15731:1 16766:1 28843:1 42420:3 
0.00150831893473174 1:4 5:1 7:1 52:1 61:2 63:1 104:1 152:1 206:3 219:1 248:1 272:1 364:1 461:2 473:1 512:1 516:1 529:2 552:1 747:1 864:2 1139:1 1171:1 1303:1 1407:2 1430:1 1534:1 1619:1 1741:1 1745:1 1853:1 2153:1 2293:3 2596:1 2894:1 3659:1 4236:1 4342:1 4590:1 5105:1 5164:3 6891:1 6936:1 6957:1 8024:1 9313:1 10690:1 13142:1 15415:1 15442:1 16854:1 18592:1 19467:1 19561:3 20117:1 20571:1 22625:1 24785:1 30290:1 41940:2 
0.002572291009003476 1:3 38:1 112:1 114:1 122:1 152:1 155:1 194:1 235:1 512:1 588:1 731:2 747:1 880:2 942:1 1251:1 1401:1 1576:3 1985:1 2295:1 2384:1 2495:1 3155:2 3449:2 3480:1 3973:2 4501:1 5243:1 5253:1 7464:3 7721:1 9453:1 10665:1 11761:1 12778:1 14578:1 17969:1 18188:1 20280:1 27848:1 29392:1 30377:1 
0.00227862801782695 1:2 5:1 8:1 20:1 32:1 35:1 60:2 96:1 112:1 119:1 125:1 155:1 206:1 283:2 290:2 320:1 344:1 345:1 348:1 534:1 541:1 568:1 579:1 696:1 976:1 1054:1 1159:1 1355:1 1571:1 1716:1 1857:1 2038:1 2255:1 2604:2 2633:2 2663:1 2760:1 3718:1 3724:2 3873:1 4083:1 4366:1 5124:1 5448:4 5613:1 6154:1 6748:1 8024:1 11736:1 13283:1 13591:1 13800:1 13843:1 16314:1 17408:1 17437:1 38000:3 43236:1 
0.002778533577773309 1:4 4:1 32:1 43:1 53:1 100:1 108:1 109:1 188:1 206:1 250:1 340:1 405:1 451:2 456:1 596:2 762:1 934:1 991:2 1233:1 1463:1 1734:2 1956:1 2160:1 2414:1 2604:1 2826:1 3106:1 3502:1 3718:2 3981:1 4083:1 4098:2 4356:2 4403:3 5466:1 5841:1 6114:1 6210:1 6666:1 6695:3 6748:1 7152:1 7514:1 7679:1 7813:1 7864:1 9684:2 10151:2 11736:1 11928:1 12080:1 14167:1 16447:1 19090:1 22458:1 25647:1 32227:1 34397:1 36677:1 38249:1 39957:1 
0.004700991332320894 1:2 2:1 3:3 4:1 8:1 12:1 22:1 24:1 32:1 61:1 72:1 74:1 79:1 108:1 117:1 171:1 206:1 212:1 231:2 261:1 424:1 435:1 472:1 520:2 524:1 555:1 591:1 731:1 917:1 963:1 978:1 991:2 1026:1 1054:1 1094:1 1161:1 1660:1 2243:1 2604:1 2742:1 3361:1 3996:1 4047:1 4286:1 4651:1 4861:2 5375:1 5817:1 7324:1 7852:1 8285:1 10420:1 11803:1 11828:1 13061:1 17002:1 17457:1 18829:1 21579:1 24355:1 36822:1 41296:2 42115:1 
0.004943051326369076 1:2 3:1 15:1 25:2 35:1 56:1 112:1 121:1 127:2 155:1 188:1 251:1 336:1 441:1 578:1 1127:1 1273:1 2413:1 2685:1 2820:1 3163:2 3637:1 3848:1 3979:1 4521:2 4913:1 5146:1 5737:1 5888:1 6415:1 6946:1 7152:1 7943:1 8097:1 8107:2 9697:1 9806:1 9817:1 12514:1 14070:1 17295:1 20284:1 20372:2 20558:1 20830:1 26581:1 33668:1 34717:2 35416:1 39271:2 
0.002569731076275868 1:5 5:1 38:1 47:1 53:2 64:1 99:3 103:1 104:2 191:1 219:1 293:1 312:3 323:1 330:1 415:1 529:1 586:1 673:1 690:1 696:1 747:1 870:1 1053:1 1203:1 1268:1 1282:1 1336:2 1438:1 1580:1 1605:1 1723:1 1983:1 2041:1 2116:1 2131:4 2150:1 3831:1 3850:1 4286:1 5434:1 5756:1 8522:1 8798:1 8984:1 9499:1 9785:1 10236:1 10607:1 12480:1 13588:1 14103:1 14633:1 15035:1 17516:1 21121:1 23610:1 24091:2 26844:1 28367:1 28932:1 29288:1 33843:1 36925:1 
0.005679329469122867 1:2 2:1 4:1 20:1 22:1 43:2 53:1 84:1 103:1 106:1 159:1 162:1 171:1 298:1 331:1 489:1 510:1 549:1 673:1 956:1 1026:1 1061:1 1076:1 1095:1 1488:1 1538:1 1541:1 1596:1 1912:1 2165:1 2388:1 2513:1 2738:1 4403:1 4900:1 6048:1 6114:1 7869:1 8403:1 8769:1 9203:1 9615:1 9684:2 11358:1 12237:1 13433:2 14354:1 15985:1 17780:1 18303:1 21584:1 24476:1 29707:1 32227:1 34243:1 34397:1 36677:1 
0.01732168272191071 2:1 8:1 31:1 33:1 36:1 119:1 174:1 261:1 322:2 490:1 501:1 549:1 705:1 890:1 988:1 1558:1 1607:1 1642:2 1873:1 2321:1 2523:2 2597:2 2929:1 3973:1 4133:2 4223:1 4268:1 5481:1 5708:1 5927:1 7780:1 7924:1 10634:2 13997:1 16278:1 21415:1 26293:1 30089:1 32508:1 33432:1 34951:2 38215:1 39066:1 
0.003940231526356096 1:2 2:1 4:1 38:1 39:2 77:1 104:2 174:1 189:1 205:1 247:2 320:2 393:1 441:1 541:1 570:1 596:1 644:1 653:1 731:1 968:1 1014:1 1114:2 1199:4 1235:1 1508:1 1532:1 1563:1 2838:1 3694:3 4393:1 4590:1 5528:1 5877:1 6126:1 6468:1 6559:1 6749:1 6897:1 7922:1 8813:1 8986:1 9575:1 9883:1 10582:1 13068:1 13909:1 14333:1 17958:1 25887:1 27770:1 38957:1 39364:1 39821:4 
0.01312260197732268 17:1 72:2 80:1 102:2 106:1 109:1 206:1 210:2 249:1 307:1 607:1 668:1 1549:1 1550:2 1706:3 1884:4 2481:1 2567:1 2598:1 2792:1 3553:1 4120:1 4545:4 6565:1 7568:1 8201:1 8221:1 8388:1 9890:1 11341:3 14149:1 16160:1 16952:1 20987:1 24218:2 27021:1 30956:1 41462:1 
0.01183276664884359 1:4 4:1 9:1 25:1 32:1 45:1 47:1 50:1 62:1 83:1 102:1 105:1 106:1 124:1 193:1 210:1 225:1 229:1 250:1 283:1 307:1 360:1 361:1 365:1 523:1 562:1 566:1 577:1 587:1 622:1 789:1 823:1 872:1 1070:1 1197:1 1559:1 1610:1 1629:2 2018:1 2108:1 2294:1 2594:3 3094:1 3221:1 3414:1 3790:1 4094:1 4229:1 4362:1 4371:1 4428:1 4563:1 4700:1 4708:1 5356:1 6513:1 6883:1 7382:1 7462:1 8306:1 10714:1 10772:2 13754:1 13890:2 14139:1 14490:1 17406:2 23383:1 24477:1 
0.00501033162741346 1:5 31:1 32:1 51:1 60:1 64:1 105:3 106:2 112:1 155:1 210:1 298:1 311:1 315:1 339:1 368:1 405:1 556:1 890:1 1046:1 1132:3 1198:1 1233:1 1355:1 1474:1 1592:1 1774:1 2176:1 2716:1 2960:1 3502:1 3836:1 4227:1 4343:1 4561:1 9192:1 10239:1 14091:3 15169:1 16235:1 20792:1 25674:1 26172:1 34543:1 
0.005085460701484169 1:3 2:1 3:3 10:2 14:1 19:1 64:1 91:1 99:2 166:1 200:1 244:1 291:1 473:1 504:1 567:1 576:1 872:1 958:1 1112:1 1201:1 1301:4 1353:1 1508:3 1909:1 2037:1 2038:2 2066:1 2079:2 2102:1 2601:1 2719:1 2838:1 2928:1 3007:1 3083:1 3231:3 3354:1 3701:1 3807:1 3878:1 4081:1 4312:2 5075:1 5237:1 5241:7 5766:1 6182:1 6860:1 6953:1 7735:2 8142:1 8616:2 8632:1 10119:1 11551:1 12126:1 12434:2 12451:1 14471:1 14707:1 15275:1 15724:1 15875:1 16592:1 16867:1 17074:1 20068:2 20702:1 22762:1 29244:1 32308:1 34766:1 37747:1 38717:1 39853:1 42121:1 43236:1 
0.001238316875814906 1:3 2:1 22:2 24:1 101:1 103:1 112:1 132:1 162:1 189:1 235:2 312:3 316:2 354:1 473:1 504:1 578:1 588:2 603:1 705:1 747:1 880:1 942:1 1105:1 1114:1 1117:1 1251:1 1401:1 1407:1 1576:1 1607:1 2495:1 2511:1 2641:1 2816:1 3449:2 4988:1 5253:1 7439:1 7464:1 9330:1 11761:1 12985:1 14863:1 16416:1 17969:1 27848:1 30377:1 34928:1 
0.01247482309423445 1:2 22:1 62:3 74:1 76:1 247:3 338:2 405:1 418:1 591:1 715:1 1026:1 1037:3 1214:2 1501:1 1690:1 2542:2 3106:1 3211:1 3232:2 3238:1 3760:1 4032:1 4072:1 4172:1 4318:1 4348:1 5174:1 5373:1 5841:1 6030:1 6572:2 7716:1 8459:1 8921:1 9059:1 12038:2 12679:2 16810:1 17965:1 27375:1 33438:1 34419:1 41945:1 
0.001992689560513841 1:2 38:1 53:1 103:1 168:1 189:1 235:2 312:1 316:4 354:4 504:1 588:2 614:1 695:4 705:2 747:1 880:2 1197:1 1203:1 1211:1 1251:3 1401:1 1508:1 1535:1 1550:1 1783:1 1928:1 2071:1 2293:3 2295:1 2495:1 3155:1 3310:1 3480:1 4738:1 4988:1 5098:1 5243:1 5253:1 9652:1 10253:1 12778:1 17601:1 17745:1 24748:1 27848:1 38688:1 40264:1 42531:1 
0.0008801492176732044 1:6 2:1 3:1 4:1 7:3 8:1 13:1 30:1 50:1 80:1 88:6 109:2 113:1 132:2 153:2 156:1 168:1 189:2 190:3 202:1 220:2 222:2 225:1 259:1 275:1 316:2 322:1 348:1 373:1 432:1 479:2 541:1 552:1 555:1 622:1 630:1 693:1 736:1 747:1 755:1 873:2 1014:1 1129:1 1297:2 1360:1 1369:4 1402:1 1424:1 1448:3 1610:1 1721:1 2001:1 2134:1 2635:1 2668:1 3023:1 3309:1 3485:2 3493:1 3639:1 3792:1 4180:2 5063:1 5253:1 5355:1 6314:1 6424:1 6637:2 6694:1 6961:5 7008:1 8000:1 8189:1 8922:1 11051:1 13385:1 14841:1 14882:1 16004:1 19318:1 19986:6 20168:1 22178:1 29279:1 36614:1 
0.005063210288246339 1:3 3:3 24:1 35:1 74:1 88:1 99:1 100:1 134:1 138:1 147:1 165:5 231:1 294:2 298:1 558:2 996:1 997:1 1478:1 1498:1 2112:3 2329:2 2342:1 2541:1 3295:1 3566:1 3801:1 4060:1 4508:2 4935:1 7632:1 7864:1 8554:1 11405:1 11567:1 14818:1 15731:1 16327:1 20247:1 21384:1 22114:1 25479:1 28147:1 33356:1 41482:1 
0.001218450700882707 1:6 9:1 15:1 22:1 24:1 36:1 43:2 74:1 76:4 88:1 99:1 147:1 162:1 175:1 206:1 294:1 298:1 340:1 360:1 397:1 442:2 552:1 683:1 766:1 917:1 997:1 1026:1 1033:1 1230:1 1292:1 1475:1 1734:1 1835:1 2425:1 2727:1 2730:1 3342:1 7317:1 7540:1 7669:1 8260:1 8554:1 10453:1 12781:1 16683:1 17153:1 17379:2 20340:1 22734:1 24627:1 25604:1 38704:1 41449:1 
0.01125769740616072 1:4 13:1 22:1 70:1 74:1 84:1 103:1 171:1 202:1 405:1 416:1 549:1 630:4 651:1 1026:1 2527:1 2686:1 2785:2 2921:1 3000:1 3189:2 3709:1 3717:1 3760:1 3785:1 4175:2 4366:1 5500:1 7452:2 8445:1 10049:1 13079:1 15840:2 15882:1 16185:2 17079:1 24165:2 27375:1 37066:1 
7.797335880517168e-005 1:3 15:1 20:1 24:1 25:1 26:1 35:1 39:1 57:1 76:2 88:1 106:1 203:1 206:1 231:1 243:1 261:2 294:1 298:1 338:1 596:2 864:1 991:2 997:1 1096:1 1259:1 1272:1 1371:1 1486:1 2132:1 2243:1 2909:3 2929:1 3266:1 3502:2 3623:1 5016:1 5311:1 7120:1 7161:1 7991:1 8337:1 8554:2 9006:1 9116:1 10514:2 10808:1 12679:1 15037:1 15469:2 16333:1 16584:1 16617:1 16693:1 16719:1 17199:1 17524:1 22442:1 
0.002770238185456331 4:1 7:1 8:2 39:1 54:1 99:1 112:1 155:1 162:2 260:1 261:1 313:1 331:2 473:3 491:1 552:2 773:1 901:1 976:1 1110:1 1128:1 1155:2 1243:2 1463:3 1624:2 1983:1 2284:1 2535:1 2557:1 2920:1 2970:1 3212:1 3856:1 4708:2 5253:1 5393:1 5537:1 7645:1 7798:1 11836:1 12655:1 18324:1 19719:1 20512:1 28814:1 32901:1 42450:1 43234:1 
0.008007544200249862 1:1 2:1 23:1 27:1 33:2 35:1 66:1 75:1 90:1 99:1 121:1 127:1 161:1 164:2 167:1 175:1 192:1 203:1 265:2 307:1 312:1 441:1 541:1 582:1 655:1 711:1 839:1 1020:1 1031:1 1127:1 1144:1 1185:1 1265:1 1422:1 1483:1 1537:1 1549:1 2642:2 2741:1 2838:6 2976:2 3049:1 3231:1 3390:2 3411:1 4098:1 4330:1 5550:1 5741:1 5926:1 5972:1 7657:1 8616:1 9133:1 10062:1 11008:1 13443:1 14769:1 16489:1 18940:1 21794:1 22360:1 22610:1 24923:1 25326:1 27385:2 28695:1 31369:2 34062:1 35657:1 42273:1 42861:1 
0.003381176123526533 1:1 2:1 7:1 13:1 15:1 20:1 26:2 56:1 89:1 104:2 167:1 193:1 209:1 331:1 357:1 449:1 493:1 522:2 596:1 607:1 666:1 861:1 947:1 997:1 1127:1 1143:1 1282:1 2119:1 2316:1 2349:1 2388:1 2441:1 2843:2 2926:1 2983:1 3243:1 3501:1 3680:1 4332:2 4634:1 4949:1 5213:1 5696:1 6141:1 6399:1 7436:1 7721:1 8190:1 9752:1 10872:3 14527:1 14680:1 16525:2 16986:2 18875:1 19344:1 19778:1 19967:1 22632:1 23974:1 27847:1 28428:1 28698:1 31281:1 31736:1 32289:1 40718:2 
0.001407320067536716 14:1 26:2 101:1 112:1 114:1 152:1 155:1 162:1 259:1 312:1 316:2 435:1 504:1 603:1 695:1 705:3 747:4 824:1 942:1 1407:1 1458:1 1575:1 1576:1 1607:1 2204:1 2293:1 2511:2 2641:1 3155:1 3220:2 3449:1 3743:1 4011:1 4696:1 5098:1 5253:1 5579:1 6302:1 8548:1 9330:1 10267:1 11761:1 19084:1 21102:1 22625:2 23143:1 23186:1 24748:1 30059:1 30377:1 33925:1 36041:1 37842:1 
2.000962460593545e-005 1:1 2:1 24:1 99:1 112:1 155:1 162:1 194:1 312:1 316:1 340:1 483:1 509:1 512:1 705:2 747:3 942:1 1105:1 1251:1 1295:1 1401:1 1458:1 1607:1 2293:3 2511:1 2641:1 3155:1 3220:1 3449:3 5253:1 6334:1 6521:1 9652:1 10267:1 11761:1 11837:1 11861:1 12778:1 14578:1 16011:1 16416:1 16498:2 16628:1 17601:1 22815:1 30377:1 34928:1 37842:1 
0.002542360408135048 1:3 3:1 56:1 77:1 81:1 84:2 138:1 165:4 210:2 212:1 247:1 339:1 506:1 514:1 801:1 1106:1 1352:1 2041:1 2288:1 2349:1 2517:1 3124:1 3370:1 3725:1 4667:1 4806:1 5194:1 7526:1 9732:1 10774:1 11159:1 15030:1 15546:1 20247:1 21215:1 21244:1 22107:1 22220:1 25710:1 26146:3 29317:1 39653:1 
0.000749705894212975 1:1 2:1 24:1 99:1 112:1 155:1 162:1 194:1 312:1 316:1 340:1 483:1 509:1 512:1 705:2 747:3 942:1 1105:1 1251:1 1295:1 1401:1 1458:1 1607:1 2293:3 2511:1 2641:1 3155:1 3220:1 3449:3 5253:1 6334:1 6521:1 9652:1 10267:1 11761:1 11837:1 11861:1 12778:1 14578:1 16011:1 16416:1 16498:2 16628:1 17601:1 22815:1 30377:1 34928:1 37842:1 
0.001274887594063797 1:1 2:2 4:1 5:1 12:1 26:1 32:1 36:4 37:1 59:3 60:1 75:4 116:1 190:2 312:2 322:2 349:1 364:1 415:1 485:1 890:1 949:1 1004:1 1031:1 1156:2 1341:1 1671:1 1716:1 1824:2 1845:1 2006:1 2207:1 2490:1 2545:1 2889:1 3294:1 3362:1 3536:1 3844:3 4160:1 4762:1 6002:1 7780:2 7945:1 8050:1 8854:2 11928:1 11941:1 13667:1 16632:2 16801:1 17775:2 18527:1 19149:1 20881:1 21115:2 22089:1 23582:1 26407:1 28262:1 29336:1 32103:1 34548:1 39404:1 39825:5 41635:1 43016:1 
0.0119214197812321 1:3 2:1 5:1 15:2 24:1 37:1 45:1 52:1 61:1 81:1 87:1 89:2 98:1 104:1 116:1 189:1 212:1 262:1 505:1 529:1 550:1 596:1 727:1 805:1 929:1 1054:1 1102:1 1180:1 1376:1 2140:1 2461:1 2582:1 2788:1 3905:1 4373:1 4465:1 5035:1 5434:1 5819:1 5872:1 5936:1 6413:1 7018:1 7455:1 8196:1 10746:1 11553:1 11730:1 13762:1 14096:2 14324:1 19199:1 23864:1 28284:1 29277:1 30800:1 31328:1 32871:1 34502:1 40123:1 
0.007886856558447397 1:1 3:1 5:1 9:1 17:1 22:1 24:2 25:2 26:1 39:2 43:1 103:1 171:1 210:1 212:1 272:1 415:1 503:1 1026:1 1055:2 1578:1 1921:1 2356:1 2410:2 2675:2 3172:1 3173:1 3189:1 3313:1 3448:1 3822:1 4059:1 4221:1 4648:1 4683:1 4926:1 9271:1 9996:1 13722:1 13739:1 14655:2 15985:1 20015:1 20549:1 21435:1 27389:1 40928:1 
0.0001731544731883692 1:2 2:1 3:1 5:2 12:1 13:1 17:1 21:2 37:1 44:1 48:1 49:1 51:2 54:1 68:1 82:1 86:1 102:1 112:3 121:1 129:1 144:1 155:2 162:1 164:2 220:1 247:2 260:2 336:1 347:1 366:1 385:1 390:1 404:1 447:3 513:1 582:1 610:1 659:1 773:1 811:2 901:1 926:1 1086:1 1126:1 1193:1 1274:1 1288:2 1448:1 1457:1 1624:3 2086:1 2225:1 2252:3 2284:2 2321:1 2406:1 2413:1 2454:1 2482:1 2569:1 2609:1 2735:1 2976:2 3549:1 5068:1 5374:1 5476:1 5571:1 5616:1 5814:1 7955:1 8912:1 9877:3 10198:1 12235:1 12262:1 14083:1 14390:2 14706:2 17039:1 17352:1 17592:2 17949:1 18752:1 19313:1 19809:1 21818:1 30143:1 30229:1 31353:1 38646:1 39308:1 39677:1 40231:1 42680:1 
0.0002191594978261069 1:4 3:2 7:1 9:2 25:1 51:1 56:1 57:1 71:1 76:1 92:4 104:1 112:1 117:1 146:1 155:1 157:1 195:1 259:1 316:1 320:4 322:1 513:1 549:1 744:1 778:2 1222:1 1355:2 1407:1 1698:1 2098:1 2222:1 2397:1 2426:1 2683:1 2914:1 3550:1 3910:4 3945:1 4179:1 4687:2 5794:1 6159:1 6955:1 6965:1 7109:1 8138:1 9778:1 10120:1 10275:1 13563:1 15057:1 17179:1 26725:1 27502:1 31861:1 33516:1 34718:1 35777:1 41533:1 42654:1 
0.005268630996780191 1:2 2:1 3:2 8:1 9:1 15:1 36:1 37:1 84:1 102:1 106:1 121:1 122:1 146:1 202:1 204:1 206:1 210:1 272:1 298:1 339:1 405:1 461:1 522:1 539:1 630:4 678:1 783:1 864:1 1393:1 1663:1 1749:1 1893:1 2103:1 2131:2 2205:1 2517:1 2747:1 3266:1 3282:1 3340:1 3582:1 3584:1 3602:1 4069:1 4258:1 4587:1 5036:1 5951:1 6867:1 6880:1 7570:1 9921:3 11105:1 12540:1 12925:1 18846:2 19023:1 21596:4 27152:1 28323:1 30535:1 31865:1 38107:1 
0.003535710327339358 1:3 3:1 4:1 5:1 8:2 17:1 25:2 44:1 48:1 52:1 56:1 64:1 72:3 99:2 109:1 116:1 136:1 155:1 162:1 179:1 299:2 315:1 330:1 331:1 344:2 357:1 362:2 470:2 568:1 607:2 617:1 658:1 701:1 715:1 732:2 815:1 862:2 1104:1 1213:1 1231:1 1311:1 1312:4 1351:2 1357:3 1599:1 1884:4 2248:1 2772:1 2860:1 2899:1 3379:1 3488:1 3739:1 3996:1 4054:1 4199:1 5146:1 5346:1 5926:1 6914:1 8721:2 8874:1 9427:1 9429:1 9588:1 11605:1 11660:1 14486:1 15060:1 18047:1 19019:1 27560:1 36607:1 
0.006232559289718062 1:3 5:1 7:1 24:1 63:3 125:1 144:1 189:1 212:2 291:1 403:2 415:1 441:1 579:1 618:1 757:1 814:1 857:1 884:1 946:3 1000:1 1239:1 1656:2 2325:1 2982:1 3519:1 3536:1 3766:1 3844:1 4557:1 4634:1 5217:1 5781:1 5806:1 6021:1 6879:2 7145:1 7672:2 9420:1 10372:1 12950:3 13974:1 14113:1 18494:1 18611:1 19261:1 22534:2 23335:4 23458:2 28245:1 29063:1 33761:1 35604:1 38528:1 39627:1 40518:1 
0.002008428547658126 1:3 19:1 24:1 32:1 35:1 112:1 155:1 189:1 203:1 237:1 312:1 405:1 705:1 731:1 809:1 1114:1 1171:1 1508:1 1550:1 1783:1 2107:2 2834:1 3155:1 3437:1 5126:4 5852:1 6002:1 6021:1 7176:1 8493:1 9458:1 9500:1 11177:1 11767:1 12708:1 14839:1 16770:3 18486:1 24805:1 30459:1 39098:1 39663:1 
0.002465279091157358 1:8 2:3 11:2 12:1 17:1 21:1 23:2 28:1 34:1 39:1 61:1 72:2 99:1 116:1 124:1 126:2 131:3 144:1 150:2 152:3 164:2 171:1 181:1 204:2 205:1 210:1 219:1 249:1 260:2 263:1 331:2 421:2 435:2 441:1 470:1 495:1 508:1 509:1 617:1 684:1 723:1 733:1 770:1 822:3 994:2 1014:3 1056:3 1063:1 1067:1 1152:1 1168:1 1243:1 1277:2 1318:1 1443:1 1562:1 1625:1 1635:1 1687:1 1766:1 1825:1 1862:1 2022:2 2105:1 2142:1 2277:1 2331:1 2373:2 2520:1 3103:1 3212:1 3238:1 3248:1 3309:2 3904:1 3983:2 4234:1 4730:1 4860:1 4881:1 4955:1 4971:1 5277:1 5381:1 5575:1 6021:1 6106:2 6540:1 6823:2 7117:1 7329:1 7585:1 8073:1 8708:1 9033:1 9124:1 9269:2 10294:1 10565:1 10783:1 11855:1 12021:2 12855:1 13353:1 13391:1 13672:1 14437:1 14487:1 15592:1 17494:1 18725:1 19964:1 27876:1 32167:1 33822:1 34651:1 36921:4 37477:1 41332:1 41899:1 
0.004483192987738417 1:3 4:1 5:1 17:2 22:1 26:1 28:1 35:1 59:1 72:3 83:1 102:1 188:1 203:1 210:1 236:1 237:1 266:1 290:1 311:1 340:2 379:1 405:1 416:1 451:3 493:1 555:1 630:1 733:2 769:1 815:4 842:1 1162:3 1231:1 1694:1 1883:1 1970:1 1981:1 2072:1 2416:1 2500:1 2932:1 2937:2 3480:1 3502:1 3985:1 4521:1 5407:1 5632:2 6258:2 7671:1 7871:1 8293:1 9065:1 11085:1 12704:1 14018:1 14872:1 15306:1 19534:1 22994:1 23262:1 24427:1 28886:1 37171:1 40772:2 41758:1 
0.0009348222734314964 1:1 2:1 3:2 32:1 35:1 52:1 53:1 59:1 75:3 96:3 103:1 109:1 113:1 122:1 134:6 141:1 146:2 150:1 198:1 230:1 239:1 259:1 290:2 298:1 320:2 342:1 415:1 454:1 689:1 733:2 796:1 871:1 919:1 960:1 1004:1 1201:1 1357:1 1660:1 1672:1 2072:3 2140:1 2333:1 2401:1 2481:1 2556:1 2578:1 2633:1 2640:1 2909:1 2993:1 3007:1 3103:1 3104:2 3155:2 3210:1 3477:1 3746:2 3766:1 4060:1 4243:1 4557:1 4711:6 5074:1 5394:1 5607:1 5667:1 5889:1 5920:1 7680:1 7837:1 8043:1 8181:1 9998:2 10127:1 10533:1 10718:1 11164:1 11459:1 12091:1 12489:1 12743:1 12864:1 12884:1 13907:3 14448:1 16333:1 16787:1 17213:3 18363:1 18514:1 19769:1 20708:1 21080:3 22385:2 25271:1 26217:1 30429:1 32067:1 32154:1 33239:1 34389:1 34757:1 36650:3 39144:1 40847:1 41120:1 43165:1 
0.0001504406390075367 1:1 2:2 4:1 17:2 25:1 35:1 88:3 90:1 99:1 112:2 117:1 139:1 155:2 164:2 232:1 236:2 340:1 509:1 537:1 747:1 901:1 947:1 1078:1 1079:2 1127:1 1162:1 1185:1 1426:2 1968:4 2963:1 3309:1 3662:1 3870:1 4988:1 5165:1 6902:1 7104:1 7152:1 7189:1 8107:1 8364:1 8390:1 8815:2 9767:1 10916:1 13127:1 13560:1 14221:1 17843:1 19422:1 24181:1 25546:1 31019:1 41880:1 42264:1 
0.0047507282460738 1:5 2:2 5:3 24:1 31:2 43:1 45:1 52:1 63:1 90:1 101:1 104:1 112:1 142:1 152:1 155:1 159:1 176:1 194:2 212:1 340:1 369:1 504:1 512:2 563:1 643:1 669:1 695:2 742:1 943:1 1070:2 1171:2 1218:3 1268:1 1335:1 1491:1 1576:3 1614:1 1644:1 2152:1 2563:1 2731:1 2823:2 3117:1 3426:2 3485:1 4353:1 4382:2 4683:1 4703:1 6021:1 6151:1 6703:3 6852:1 7554:1 7592:1 7851:1 8341:1 9235:1 10873:1 10923:1 12957:1 14022:1 14294:1 14483:1 14524:2 14720:1 16807:1 17344:1 19030:1 19626:1 19923:1 28737:1 40053:1 42691:2 
0.001269651113790546 1:8 2:1 6:1 8:1 9:2 12:1 28:2 32:1 34:1 35:1 56:1 62:1 105:1 109:1 110:1 111:1 124:1 127:1 136:2 155:1 165:1 168:1 170:1 188:3 203:1 234:1 251:1 255:1 266:1 277:1 295:1 299:2 309:1 357:1 362:4 470:4 473:2 474:1 536:1 541:1 562:1 582:1 607:4 609:1 658:2 673:1 707:1 727:1 753:1 780:1 811:1 819:2 862:3 926:1 998:2 1014:1 1100:1 1110:2 1230:1 1253:1 1351:2 1354:2 1357:9 1387:2 1506:1 1784:2 1888:1 1947:1 1948:1 1982:4 2176:1 2205:2 2669:1 2674:1 2757:2 2792:1 3035:1 3085:1 3272:1 3276:1 3457:1 3697:2 3709:1 3733:1 3747:1 3861:2 3871:1 4016:1 4122:1 4123:1 4701:1 4769:1 4770:1 4781:1 4874:1 5385:1 5693:1 5848:1 6016:1 6081:1 6170:1 6765:1 6899:1 7228:1 7389:1 7807:1 8542:1 11310:1 11693:1 12078:1 12339:1 12453:1 12546:1 12687:1 13068:1 13155:1 13796:1 14609:2 15018:1 15214:1 15429:1 15495:1 15553:1 16081:1 16778:1 18498:1 18686:1 20108:1 24004:1 25722:1 27957:1 28942:1 31794:1 32961:1 
0.005609184413167487 1:7 3:1 11:2 23:1 26:2 28:1 77:1 89:1 90:2 112:1 114:1 155:1 164:2 193:1 206:1 220:3 260:2 261:2 313:1 340:2 397:1 416:1 421:1 435:1 454:1 473:2 481:1 552:1 591:1 666:1 699:1 1155:1 1280:1 1463:1 1556:1 1901:1 2139:1 2157:1 2284:1 2371:1 2460:1 2557:1 3333:1 3378:1 3727:1 3861:1 4315:1 4414:1 5302:1 5499:1 5606:1 5659:1 6049:1 6297:1 6486:1 6661:1 6970:1 7034:1 7288:2 7754:1 7974:1 9299:1 9767:1 10119:1 10172:1 10260:1 11399:1 12262:1 12429:1 13756:1 13957:1 15054:1 15286:1 15334:1 18294:1 18392:1 24596:1 29139:1 34377:1 34474:1 34990:1 35021:1 35070:1 42210:1 
0.007942063338970608 1:1 2:1 4:1 24:1 43:1 53:1 57:1 88:1 124:1 151:1 165:1 189:1 213:2 247:2 266:1 298:1 342:1 435:1 572:1 622:1 733:1 775:1 896:1 997:1 1070:1 1185:1 1538:1 1706:1 2055:1 2093:1 2243:3 2495:1 3718:1 3806:1 4244:1 4691:1 5212:1 5311:1 5559:1 5980:1 6154:1 8043:1 8394:1 8429:1 8431:1 8441:1 9045:1 9057:1 10414:2 13516:1 14707:1 18952:1 20939:1 25444:1 27100:1 31629:1 38093:1 
0.009647454527594648 1:2 2:1 3:1 4:2 8:1 9:1 19:1 24:2 32:1 44:1 76:2 77:1 80:1 89:1 97:1 101:1 103:1 119:1 130:2 168:1 169:1 189:1 203:1 217:1 230:1 232:1 260:1 315:1 403:1 477:1 544:1 677:1 793:1 805:1 907:1 963:3 1091:1 1105:2 1121:1 1205:1 1217:1 1218:2 1282:1 1345:1 1359:1 1485:1 1686:2 1882:1 1900:1 1986:2 2230:1 2904:2 3065:1 3071:1 3163:1 3473:1 4476:1 4636:1 4691:1 5075:1 5264:1 5527:1 5772:1 5852:1 6038:1 6061:1 6807:1 6925:3 8410:1 8431:1 8491:1 10581:1 11636:1 12228:1 12407:1 13478:1 13500:1 15959:1 16780:1 19840:1 21348:1 23421:1 24177:1 24741:1 25899:1 31869:1 34536:1 35080:1 35528:1 
0.0008622593505689015 1:3 2:2 3:2 9:1 17:1 26:1 34:1 44:1 56:1 61:1 72:3 99:2 102:1 117:1 143:1 164:1 220:1 232:2 251:3 315:1 421:1 459:1 519:1 525:4 588:1 627:2 629:1 674:1 773:1 880:1 1036:1 1104:1 1207:1 1258:1 1268:1 1377:1 1420:2 1822:1 1859:1 1973:1 2007:1 2066:1 2350:1 2662:1 2757:1 2984:2 3015:1 3212:2 3267:1 3332:1 3532:1 3557:1 3598:1 3628:1 5013:1 5025:1 6718:1 7288:1 8255:1 8837:1 10114:2 11715:1 14248:1 14547:1 14563:1 14875:2 15813:1 18091:1 19571:1 22857:2 24343:1 26694:1 27420:1 28278:1 35468:1 
0.01522148283408936 1:2 2:2 4:1 8:1 12:1 48:1 50:1 61:1 72:1 98:2 110:1 143:1 144:2 202:1 203:1 209:1 225:1 289:1 328:1 449:1 505:1 591:1 607:2 648:1 1009:1 1316:1 1584:2 1589:1 1625:1 1787:1 1880:1 1968:2 2517:1 2552:1 2622:1 4177:2 4521:2 4667:1 4732:1 5146:1 7146:1 8082:2 8388:1 8494:1 8977:1 9289:1 9748:1 11558:1 12321:1 14838:1 15237:1 16306:1 18295:1 20455:1 20946:1 21078:1 21724:1 22793:1 23890:1 24958:1 26989:1 30321:1 30443:1 31655:1 35112:1 36249:1 41523:1 
0.0009178038379105401 1:7 2:1 8:2 15:1 17:2 28:3 32:1 47:1 51:2 57:1 72:4 98:1 110:1 114:1 130:3 149:1 154:1 164:7 179:4 193:1 232:2 236:5 238:1 301:1 328:1 338:1 404:1 418:1 470:1 503:7 525:1 591:1 674:1 737:1 777:4 819:2 844:1 992:1 1102:1 1162:1 1490:3 1556:1 1580:1 1584:1 1721:4 1903:1 2016:1 2022:1 2617:1 2661:1 2722:1 2755:1 2846:2 2865:1 2934:3 2963:1 3267:2 3334:1 3499:1 3514:1 3534:2 3841:1 3869:2 3924:4 3940:2 3955:1 4048:1 4451:1 4502:2 5015:2 5710:1 6261:1 6568:1 6984:1 7003:1 7372:1 7432:1 8119:1 9287:1 9745:1 9873:1 10010:1 10495:1 11122:1 12472:4 12840:5 14563:1 14751:1 15797:1 20977:1 21330:1 29694:4 32824:1 33473:1 
0.01067603898641042 1:2 3:2 8:1 19:1 25:2 61:1 72:2 98:3 106:1 139:1 168:1 175:1 210:1 242:2 345:1 585:1 589:1 591:2 825:1 1254:1 1318:1 1578:1 1584:1 2233:1 2410:1 2630:2 3506:1 4828:1 4919:1 6779:2 6852:1 8894:1 9153:1 10011:1 12845:1 17982:1 19239:1 22801:1 37067:1 37210:1 40887:1 
0.006115381374385811 1:2 4:1 17:1 32:1 48:1 76:1 81:1 106:3 131:1 229:1 230:1 342:1 416:1 541:1 794:3 896:1 932:1 1027:1 1190:1 1221:3 1556:1 1681:1 1705:1 1827:2 1835:1 1840:1 1851:1 1890:2 1900:1 1984:1 2048:1 2084:1 2110:1 2273:1 2508:1 2578:1 2632:2 2657:1 2750:1 2758:1 2807:1 2896:1 3163:1 3414:1 3554:1 3651:1 3697:1 4052:2 4839:1 5972:1 6047:1 7520:1 10241:1 11307:1 11311:2 12299:1 12477:1 15370:1 17944:1 18286:1 18460:1 19796:2 22699:1 27939:1 28412:1 37371:1 39095:1 
0.01430662676436226 26:1 50:1 99:1 101:1 143:1 188:1 190:1 193:1 269:1 322:3 345:1 436:1 441:1 541:1 552:1 668:1 900:1 1080:1 1249:1 2018:1 2295:1 2408:1 3309:1 4199:1 5375:3 9654:1 11504:1 12435:1 14973:2 17156:1 18578:2 18903:1 23996:1 24304:1 34745:1 41829:1 
0.003290572664925281 1:8 5:1 12:1 25:1 37:1 81:1 112:2 119:7 130:1 261:1 262:1 360:1 454:1 472:1 555:1 683:1 716:1 748:1 890:1 934:1 963:1 1159:1 1251:1 1427:1 2243:1 2597:2 3407:1 3638:4 4133:2 4368:1 5325:1 5502:1 5682:2 7059:1 7203:1 7358:1 7768:1 9758:1 14793:5 15502:1 17905:1 20680:1 21013:1 21616:1 23172:1 23209:1 32103:1 36985:1 37414:1 
0.009216772654915608 1:3 2:1 15:1 21:1 22:1 40:1 99:1 108:1 124:1 136:1 190:3 250:2 268:2 289:1 436:1 473:2 529:1 541:2 561:1 828:1 1145:1 1221:1 1251:1 1338:1 1982:2 2294:3 2325:1 2433:1 2593:1 2860:2 2970:1 3074:1 3144:1 3389:1 3394:1 3639:1 4685:1 4769:1 4911:1 5373:1 5659:1 6030:2 9752:1 10114:1 10415:1 10529:1 12544:1 18276:1 21379:1 
0.005708170818830233 1:3 2:1 5:2 7:2 11:1 13:1 15:1 17:1 21:1 25:1 27:1 30:1 37:1 39:1 54:2 64:1 98:1 112:1 153:2 155:1 169:2 212:1 220:1 221:2 227:1 260:3 472:1 473:2 476:1 494:1 550:1 594:2 595:1 642:1 796:1 889:1 913:1 946:1 1170:1 1185:1 1258:1 1382:1 1444:1 1721:1 1868:1 1950:1 2295:1 2413:1 2552:1 2553:1 2683:1 3084:1 3224:1 3271:1 3288:1 3303:1 3694:1 3727:2 3882:1 4363:1 4571:1 4598:1 4777:1 5149:1 5231:1 5704:1 6737:1 7569:1 8248:1 9223:1 9779:3 10120:1 10693:1 10761:1 10857:1 16778:1 31307:1 34442:1 38101:1 
0.007646632373919858 1:6 4:1 5:1 20:2 24:1 36:1 81:1 93:1 124:1 131:1 161:2 200:1 206:1 209:1 212:1 262:1 274:1 302:1 329:1 359:1 398:1 469:1 478:1 596:1 686:1 810:2 945:1 1544:2 1569:1 1610:1 1664:2 1802:1 1812:1 1987:1 2105:1 2174:1 2179:1 2353:1 2609:1 2826:1 3023:1 3554:1 3746:2 4084:1 4399:1 4462:1 4587:1 4753:1 4787:3 4812:1 4989:1 5023:1 6061:3 6369:3 7226:1 7340:1 8333:1 8368:1 9103:1 9449:1 9660:1 10002:1 10100:1 11029:1 11770:1 12500:1 12590:1 13020:2 13743:1 15810:1 19970:1 22230:1 23374:1 23842:1 25776:1 25885:2 26577:1 28460:1 32918:1 35432:3 40858:2 
0.0209883566044249 1:2 6:1 8:1 28:1 51:1 53:1 84:1 168:1 190:1 193:1 215:1 415:1 504:1 594:1 666:2 1083:1 1170:1 1310:1 1729:1 1734:1 3560:1 5076:1 5123:1 5237:1 5253:1 5297:1 5390:1 5690:1 5900:1 6106:2 10551:2 11478:1 11594:1 13241:1 14436:1 16623:1 17225:1 19638:2 20117:1 23965:1 27631:1 29111:1 31643:2 32582:1 33058:1 33168:1 33222:1 39372:1 
0.005644625503647851 1:2 2:1 15:1 19:1 22:1 35:1 38:3 63:1 70:1 92:1 109:1 117:1 152:2 157:1 189:2 198:1 237:2 278:1 298:1 301:1 311:1 379:1 481:1 495:1 555:1 573:2 719:2 769:1 890:1 912:1 1107:1 1203:2 1204:2 1460:1 1816:1 3258:1 3342:1 3823:1 4145:1 4650:1 4968:2 6706:1 7457:2 7557:1 8871:1 10369:1 10814:1 10978:1 11229:1 12314:1 12885:2 15246:1 20998:1 22617:1 24348:2 26584:1 37380:1 39386:1 39849:1 41994:1 
0.01234709071907902 1:2 4:1 5:1 8:1 33:4 36:2 141:1 170:1 310:1 371:1 435:1 453:1 541:1 696:1 968:1 976:2 999:1 1036:1 1585:3 1670:4 2009:1 2892:1 3413:1 3826:2 4054:1 4127:1 4229:1 4787:6 5900:1 5990:1 7146:1 7997:1 8243:2 8911:1 9042:1 9351:1 9417:2 10769:2 11818:2 13332:1 13743:1 14316:1 18138:1 30446:2 35480:1 37543:1 
0.002671762084448653 2:1 3:2 4:1 14:1 21:1 52:1 63:1 74:1 75:2 77:1 91:1 134:6 152:2 208:1 298:2 300:1 1252:1 1292:2 1357:2 1502:1 1981:1 2427:3 2465:1 3536:1 3711:1 3964:2 5027:4 5381:1 5667:1 5889:2 5898:1 6095:1 6544:2 7529:1 8169:2 8911:2 12446:1 14060:1 15547:1 15738:1 16333:1 18138:1 19544:2 19940:1 21080:1 21571:1 21727:1 23011:1 27095:1 28998:1 29404:1 29596:1 33648:1 34366:1 35057:1 39049:1 43274:2 
0.0005964377746505999 1:10 2:2 3:1 4:1 6:2 15:1 19:1 21:1 35:3 56:1 71:1 72:2 82:1 87:1 97:1 102:1 131:1 135:2 138:1 171:1 180:1 188:1 193:4 198:1 203:2 217:1 238:1 251:1 260:1 284:2 302:1 318:1 321:1 342:1 345:1 357:1 382:1 386:1 407:1 409:1 412:1 453:1 489:1 525:1 534:1 574:1 583:2 587:1 596:1 616:1 622:1 676:1 700:2 780:1 815:1 1069:1 1092:1 1150:1 1180:1 1379:1 1484:1 1613:1 1775:1 1811:1 1888:1 1949:1 2045:2 2080:1 2122:1 2137:1 2163:1 2238:1 2353:1 2424:1 2554:1 2583:1 2626:1 2904:1 2912:1 3046:1 3139:1 3684:1 4034:1 4068:1 4330:2 4807:4 5059:1 5102:1 5129:1 5545:5 5599:1 5643:1 6035:1 6488:1 6519:2 6586:1 6694:1 7045:1 7171:1 7234:1 8120:2 9092:1 9438:3 10088:1 10092:1 10263:1 11131:1 11559:1 11776:1 11920:3 12385:1 12707:1 13014:1 13156:1 13328:1 13666:1 13857:1 13950:1 14421:1 14469:1 17234:3 18619:1 18830:1 19831:1 19958:1 21804:1 22396:1 22825:3 24051:1 24306:1 27779:2 28714:1 29865:2 31705:1 32664:1 33142:1 37442:1 37494:1 41561:1 
0.001939972302198875 1:3 2:1 3:5 6:1 8:1 9:1 10:1 14:1 15:1 16:1 21:1 26:2 28:1 35:2 55:2 57:1 72:1 90:1 100:2 109:1 110:1 121:1 126:1 135:2 136:2 150:1 186:1 203:3 204:1 210:1 232:1 238:1 251:1 269:1 276:1 284:1 302:3 332:2 337:1 404:2 418:1 485:1 491:1 518:2 587:1 720:1 750:1 769:3 815:1 885:1 909:1 929:1 941:1 1054:1 1068:1 1069:1 1123:1 1143:1 1255:1 1330:1 1404:1 1825:1 1898:1 1946:1 2018:1 2066:1 2080:1 2139:1 2306:2 2477:1 2483:2 2542:1 2648:1 2660:1 2841:1 2845:1 2948:1 3080:1 3139:1 3313:1 3542:1 3551:1 3634:1 3981:2 4476:1 4575:1 4641:3 4765:1 4807:2 4901:1 5343:1 5587:1 5937:1 6133:1 6259:1 6519:1 7452:1 7719:1 7984:3 8020:1 8122:1 8509:2 9483:1 9608:1 9633:2 9923:1 10115:1 10279:1 10462:1 10601:1 11016:1 11480:1 11501:1 11956:1 12358:1 12424:1 13234:1 13559:1 13879:1 13997:1 14431:1 14486:1 14514:1 14516:1 14673:1 15059:1 15311:1 17074:1 17301:1 17448:1 17514:1 17727:1 18204:1 18461:1 19084:1 21373:1 22227:2 22825:1 26507:1 27711:1 27776:1 28126:1 29011:1 30081:1 30405:1 30518:1 30525:1 31245:1 32199:1 32230:1 32456:1 34640:1 
0.0005911975762343384 1:2 2:1 3:2 5:1 7:1 25:2 35:1 43:1 54:1 57:1 70:1 86:1 99:1 104:1 117:2 124:1 126:2 133:1 150:2 154:1 161:1 180:1 212:1 256:1 309:1 322:1 440:1 441:1 447:1 490:1 529:3 532:1 681:1 753:2 773:1 811:1 941:1 996:3 1036:1 1067:1 1082:1 1104:1 1211:1 1258:1 1273:1 1288:2 1295:1 1313:1 1340:1 1364:1 1486:1 1574:1 1606:1 1611:1 1635:1 1668:1 1931:1 2002:1 2112:2 2445:1 2563:1 3146:1 3638:1 3639:1 3897:1 3992:1 4098:1 4418:1 4498:1 4828:1 4934:1 5447:1 5728:1 12202:1 12525:1 12896:1 13774:1 15221:1 15346:1 15878:1 16390:1 17633:1 18140:1 19794:1 19939:1 19953:1 19996:3 23233:2 23335:2 28517:1 29871:1 30462:1 37214:1 37533:1 39463:1 
0.01432619689159067 1:3 3:1 17:1 25:3 28:1 74:1 112:1 155:1 249:1 265:2 323:1 443:1 564:1 780:1 891:1 911:2 919:1 928:1 992:1 1216:1 2044:1 3666:1 3680:1 3930:3 4637:1 7534:1 9153:1 11661:1 12590:1 21181:1 21813:1 22713:1 35305:1 
0.0008271419983705327 2:2 3:2 4:1 26:1 43:3 84:2 98:1 178:1 204:1 206:1 225:1 231:1 232:2 280:1 294:1 451:2 489:1 550:1 587:1 689:1 991:1 1068:1 1070:3 1811:1 1835:1 2103:1 2675:1 2937:2 3172:1 3391:2 3514:1 3647:1 4124:1 4372:1 4561:1 4683:1 5072:2 5155:1 6057:1 6756:1 7061:1 7362:1 8234:1 9187:1 9420:1 9770:1 10693:1 11201:1 11358:1 11436:1 12038:1 15364:1 15944:1 17405:1 19022:1 21352:1 21584:1 24312:1 25445:1 26162:1 37800:1 38565:1 
0.005691746479811062 1:2 3:1 5:1 17:1 43:1 52:1 61:1 74:1 106:1 113:1 125:1 175:1 210:1 288:1 342:1 343:1 396:1 520:3 522:1 537:2 582:1 1292:2 1475:1 1574:1 1721:1 2185:1 2332:1 2422:1 2532:1 3260:1 6468:1 6620:2 7452:1 9080:1 10500:1 15018:1 16073:1 16706:1 17780:1 21893:1 26019:1 26116:2 27674:1 27943:1 30567:1 31739:1 36837:1 40702:1 
0.002404234516860014 1:11 2:8 3:1 6:1 12:4 13:1 15:3 17:2 18:1 28:1 40:1 47:1 49:2 57:2 72:3 79:3 81:2 84:2 85:2 96:1 100:1 106:1 110:1 115:1 117:3 121:1 124:4 130:1 132:1 135:2 136:3 140:1 141:1 143:1 178:1 210:3 219:1 253:1 277:1 289:1 310:1 351:3 404:3 414:1 418:2 430:1 453:1 464:1 519:1 523:1 527:1 545:1 561:2 562:2 658:2 687:2 694:1 721:1 746:2 753:1 816:1 867:1 895:1 900:1 902:1 953:2 958:6 962:3 1001:2 1105:1 1139:1 1144:1 1161:2 1179:2 1225:1 1249:4 1258:1 1309:1 1318:2 1358:2 1359:1 1364:13 1426:1 1433:1 1448:1 1478:1 1494:1 1559:7 1589:1 1611:4 1626:2 1644:1 1729:1 1738:1 1775:1 1839:1 1861:1 1917:1 1924:4 2007:19 2022:2 2063:2 2096:1 2099:4 2132:2 2139:1 2268:1 2370:1 2411:1 2419:1 2425:1 2502:1 2557:1 2618:1 2665:1 2673:1 2755:2 2900:1 2952:2 3157:1 3187:1 3248:1 3283:1 3430:1 3486:1 3779:1 4066:1 4122:3 4173:1 4174:1 4214:1 4398:1 4536:1 4622:1 4765:1 4802:1 4833:1 4841:1 4872:1 4882:1 4925:1 4932:1 4944:1 5016:1 5118:1 5370:1 5505:1 5657:1 5932:1 6315:1 6413:1 6531:1 6860:1 6894:1 6971:1 7060:1 7087:2 7223:1 7239:1 7270:1 7302:1 7332:1 7372:3 7418:1 7429:1 7461:3 7487:1 7600:1 7635:1 7881:2 8094:1 8105:1 8386:2 8405:1 8496:1 8564:2 8631:2 8676:1 8759:2 8864:1 9454:1 9659:2 9758:2 9773:1 10007:1 10228:1 10733:2 10899:1 10907:1 11126:1 11515:3 11552:1 11918:1 11991:1 12093:1 12363:1 12527:1 12552:1 12599:1 13115:1 13155:1 13274:1 13589:1 14137:1 14394:1 14752:1 14957:1 15471:1 15589:1 16845:1 16943:1 17998:1 18162:2 18299:1 18306:1 19038:1 19094:1 19229:1 20367:1 21620:1 22041:1 22045:1 22200:1 22478:1 22729:1 23518:1 24057:1 24605:1 25115:3 28800:1 29205:1 30273:1 30814:1 33647:1 33652:1 33772:3 34099:1 35027:1 37402:1 38442:1 42646:1 42881:1 
0.03159095754212377 2:1 3:1 15:3 57:1 61:1 89:3 112:1 121:1 232:1 440:2 555:1 604:1 773:1 783:1 811:2 1104:1 1276:1 1556:1 2078:1 2248:1 2445:2 2513:1 3403:1 4000:3 4627:1 6271:1 6946:1 7038:1 7052:1 7362:1 8297:1 15307:1 20306:1 20351:1 24547:1 25284:1 30904:1 31138:1 
0.009130351083233101 1:3 2:1 3:2 5:1 9:1 12:1 28:1 32:1 117:2 135:1 151:2 224:1 237:3 246:1 260:1 295:1 325:1 470:1 541:1 842:1 1014:1 1023:1 1040:1 1079:1 1110:1 1259:1 1284:1 1369:1 1413:1 1627:1 1686:1 1721:1 1916:1 1968:4 2134:1 2143:1 2270:1 2310:1 2469:1 2767:1 2790:1 3116:3 3816:1 4151:1 4208:2 4217:1 4564:1 4707:1 4966:1 5990:1 6407:1 7479:3 8815:1 9644:1 10542:1 10776:1 11181:1 11481:1 11907:1 13269:1 15309:1 17381:1 17608:1 26757:1 28620:1 34037:1 34543:1 
0.000142843520305798 1:4 4:1 5:1 7:1 17:2 22:1 35:1 36:2 37:1 43:1 63:1 74:1 81:1 82:3 105:4 112:1 119:1 125:1 141:1 182:2 203:1 206:1 210:1 269:1 301:1 325:1 348:1 371:1 372:1 405:1 432:1 572:1 578:1 673:1 692:1 783:1 857:2 1066:1 1124:1 1132:5 1192:1 1436:1 1439:1 1774:1 1890:1 1900:1 2149:1 2183:1 2333:1 2398:3 2501:1 2554:1 2796:1 2957:1 2959:1 2975:1 3581:1 3659:2 3844:1 3991:1 4272:1 4516:1 5067:2 5608:1 5761:1 5822:1 5989:1 6243:1 6414:1 6419:1 6492:2 6866:1 7314:1 8145:1 8178:1 8431:1 8488:1 8937:1 9057:1 9575:1 9828:1 10765:1 11253:3 12373:1 13332:1 14448:1 15337:1 17651:7 19496:1 19908:1 21309:1 24488:1 26591:1 28355:1 33780:1 34222:1 35222:1 39040:1 39080:1 39706:1 
0.001122063902835102 1:9 2:2 3:5 4:2 5:2 7:3 10:1 14:1 15:1 19:1 20:1 24:2 32:2 34:1 35:2 38:1 45:1 60:1 63:1 69:1 73:1 87:1 103:1 113:2 115:1 119:3 122:1 125:2 127:1 152:3 153:2 154:1 185:1 189:2 202:1 231:1 261:1 268:1 273:1 283:1 284:1 290:1 366:1 408:2 493:3 509:1 518:1 522:1 648:1 673:1 697:1 727:1 736:1 756:1 808:1 894:1 917:1 984:1 994:2 1029:2 1084:1 1158:1 1228:1 1293:1 1335:1 1407:1 1502:1 1516:1 1551:1 1566:1 1733:1 1741:2 1816:1 1994:1 2025:1 2133:1 2160:1 2194:1 2196:1 2217:1 2570:1 2580:1 2634:1 2721:1 2743:2 2746:1 2960:1 3192:1 3354:1 3506:1 3536:1 3774:1 4039:1 4199:1 4327:1 4476:1 4711:2 5081:1 5632:1 6088:1 6230:1 6607:1 6838:1 6938:1 8158:2 8379:1 8428:1 8477:1 8769:1 8802:1 9398:1 9402:1 9444:1 9635:1 9770:1 10203:1 10530:1 10712:1 11806:1 11928:1 12158:1 12239:1 12277:1 12778:1 12950:2 12985:1 13050:2 14526:1 15003:1 15166:1 15893:1 15929:1 16543:1 17803:1 17928:1 18432:1 19640:1 21309:1 21611:1 22254:1 23458:2 24555:1 24884:1 25082:1 26085:1 26377:1 26577:1 26850:1 27179:1 28251:1 28419:1 31413:1 32979:11 33375:2 34757:1 35604:1 35755:1 37180:1 38652:1 38675:1 38717:1 39618:1 40568:1 
0.0009461010253482062 1:4 3:1 5:1 6:1 7:1 11:1 17:1 25:1 28:3 39:2 55:1 56:1 72:2 102:1 122:1 132:1 188:1 190:1 193:1 243:1 266:1 313:1 322:3 372:1 443:1 509:1 565:1 629:1 642:3 660:1 755:1 773:1 805:1 842:2 990:1 1036:1 1049:1 1104:1 1128:1 1331:1 1731:1 1773:1 1948:1 2066:1 2078:1 2279:2 2370:1 2454:2 2495:1 2657:1 2784:1 3027:1 3563:1 4304:1 4426:1 4524:1 4598:1 5242:3 5335:1 5390:1 5893:1 6871:1 6934:1 7702:1 8041:1 8502:1 9471:1 14875:3 20700:1 22610:1 22685:1 24833:1 27670:6 
0.0004950360540634638 1:4 23:1 38:2 66:1 96:1 122:1 146:1 152:2 153:1 190:1 235:3 248:1 290:1 300:1 322:1 372:1 415:1 456:1 540:1 588:1 633:1 785:1 849:1 886:1 1460:1 1779:1 1816:1 1939:3 2597:2 2753:2 3566:2 3973:2 4172:1 4547:1 5352:1 5833:1 6002:1 7780:2 7828:3 8048:2 9575:4 10606:1 10917:2 13688:1 16705:1 18293:1 18375:2 18847:1 21415:1 22424:1 25962:2 27593:1 33279:1 33432:1 35531:2 38947:1 41975:1 
0.01290574802589682 1:1 7:1 24:1 59:2 146:2 180:1 189:1 197:1 258:1 372:1 391:3 432:2 509:2 529:1 543:1 563:1 565:1 578:1 588:1 597:1 628:1 653:1 685:1 716:1 849:2 999:1 1108:1 1227:1 1436:1 1443:1 1585:1 1822:1 1827:1 2183:1 2253:1 2333:1 2455:1 2641:1 2886:2 2941:1 3374:1 3692:1 3856:1 3919:1 4978:1 5013:1 5451:1 5823:1 6199:1 6424:1 6637:1 7023:1 7859:1 9457:1 9809:1 11289:1 12066:1 12798:1 13059:1 13165:1 15567:1 16783:1 16807:1 17688:2 17820:1 22659:1 28814:1 36308:1 36482:4 
0.00350469228403815 1:2 3:2 22:1 24:2 25:1 26:2 90:1 146:1 189:1 225:1 234:1 247:1 318:1 396:1 583:1 602:1 630:2 1054:1 1179:1 1458:1 1492:1 1552:1 1574:1 1880:1 2090:1 2388:2 2466:1 2560:1 2594:1 2630:1 2730:1 3361:2 4083:1 5749:1 5839:1 5929:1 6648:1 6973:1 7990:1 8337:1 8890:2 8917:1 8932:1 8972:1 9181:1 9451:1 9996:1 10422:2 11215:1 11967:1 12350:1 12825:1 13899:1 15074:1 17880:1 18406:1 19789:1 21199:1 23062:1 23825:1 27389:1 32607:1 
0.003496132506757861 1:3 3:1 8:1 14:1 32:1 105:5 117:1 183:1 247:1 283:1 322:1 340:1 348:1 405:2 432:1 436:1 456:1 511:1 519:1 578:1 682:1 778:3 796:2 813:1 997:1 1014:1 1132:5 1159:1 1191:1 1297:1 1516:1 1741:1 1774:1 1805:1 1960:1 2035:2 2045:1 2058:1 2160:1 2288:1 2346:1 2693:1 2716:1 2921:1 3168:1 3238:1 3295:1 3443:2 5953:1 6126:2 7936:1 9126:1 9352:1 9627:1 10282:1 10679:1 12887:1 13383:1 14463:1 15621:1 19990:2 20362:1 22160:1 22993:1 23677:1 32673:1 37987:1 38135:6 
0.002983431329316338 2:3 3:1 7:2 12:1 15:1 35:1 56:3 83:1 190:1 322:2 448:1 818:2 824:1 942:1 1011:1 1272:1 1816:1 1820:1 2080:1 2350:1 2388:1 2408:1 2495:1 3214:1 3485:1 3816:2 4615:1 4667:1 5237:1 6041:1 6967:1 7163:1 9484:1 10099:1 15698:1 17949:1 18107:2 19103:1 20073:1 29111:1 30076:1 37108:1 37526:1 38466:3 
0.008141188504926126 1:2 14:1 20:1 24:1 133:3 189:1 194:2 280:2 311:1 316:1 323:2 339:1 340:1 372:1 443:1 512:2 564:1 647:1 898:1 931:1 949:1 992:1 1107:1 1315:1 1550:1 1610:1 1841:2 2152:2 2153:1 2254:1 2511:1 3179:1 4053:2 4738:1 5320:1 5415:1 7846:1 8522:2 9635:1 9689:1 10245:1 11003:1 11579:1 11676:1 12277:1 12346:1 12423:1 16867:3 18631:1 19345:1 20128:1 20916:1 23015:1 25381:1 26869:1 27265:1 31800:2 35850:3 
0.001430387641750248 1:4 5:2 18:1 52:1 88:1 90:1 94:1 104:1 133:1 138:1 146:1 166:1 235:3 248:1 289:2 316:5 323:1 340:1 354:5 359:1 364:1 372:1 443:1 449:1 501:1 509:1 516:1 518:1 529:3 546:1 560:1 567:1 577:1 582:1 588:1 613:1 673:1 683:1 689:1 696:1 703:1 733:1 747:4 757:1 800:1 803:1 864:1 906:1 960:1 981:1 1092:1 1114:1 1251:1 1336:2 1371:2 1393:1 1468:1 1543:1 1569:1 1852:1 1898:1 2041:1 2094:1 2152:1 2293:1 2394:1 3103:1 3344:1 3748:1 3828:1 3850:1 3860:1 4060:1 4738:1 5020:1 5205:1 5541:1 5579:1 5590:1 5749:1 5761:1 6102:2 6798:1 6942:1 7015:1 7244:1 7592:1 8229:1 9313:1 9320:1 9740:7 11003:1 11665:1 13356:1 13707:1 14792:1 16296:1 17006:1 17842:1 27798:1 36168:1 36630:1 38746:1 40929:1 
0.005139607213754636 7:2 53:1 112:1 155:1 168:1 311:1 372:1 493:1 564:4 633:2 683:2 1056:1 1682:1 1727:1 1815:1 2152:2 2295:1 3292:1 3724:1 3966:2 4405:1 5253:1 6738:4 8534:1 8652:1 9062:1 11227:4 15704:1 19662:1 19799:1 23494:1 36110:1 43262:1 
0.005860523968191866 1:5 2:1 3:2 4:2 14:1 44:1 47:1 50:2 106:1 108:1 190:2 218:1 233:2 242:1 283:1 307:1 322:2 492:1 533:1 534:1 540:1 683:1 755:1 909:1 951:1 1321:1 1504:1 1625:1 1642:1 1694:1 1738:1 1783:2 1994:1 2388:1 2650:1 3023:1 3724:1 3865:1 4048:1 4133:1 4192:1 4578:1 4717:1 5173:1 6120:1 7206:1 7311:1 7346:1 7780:2 8721:1 9158:1 9437:2 9547:1 12290:1 14239:1 15786:3 18811:1 19699:1 20068:1 30275:2 32508:1 33970:1 41899:1 
0.006291190055223195 3:1 53:1 112:1 133:2 155:1 194:1 231:1 237:1 311:1 316:1 371:1 372:1 495:1 512:1 529:1 647:3 666:1 690:1 1127:2 2069:1 2152:1 2384:1 2397:1 2511:1 2547:1 2641:1 3748:1 4224:1 5302:1 5307:1 6168:1 6415:1 6623:2 7046:1 8566:1 8660:1 8679:2 8893:1 10471:1 11871:1 15829:2 17790:1 18741:1 20420:1 21805:1 26555:1 26926:1 31743:1 35121:1 35850:1 
0.00224712492690878 43:2 53:1 112:1 133:1 155:1 194:1 235:1 316:1 372:1 443:1 512:1 529:2 588:1 605:1 884:1 1475:2 5537:1 5579:1 6415:2 6623:3 7291:1 8007:1 9313:3 9507:1 21102:2 26778:1 33380:1 36292:1 39422:1 
0.002844774821047664 1:3 2:2 7:2 56:1 190:2 220:1 227:1 261:1 282:1 322:2 397:1 441:1 521:1 722:1 790:1 1816:1 2066:1 2272:1 2678:1 3132:1 3598:1 4949:3 8542:1 17392:1 27531:2 28524:1 28698:2 
0.001508073874270498 4:1 5:1 7:1 8:2 36:1 37:1 45:1 59:1 125:1 141:1 146:3 183:1 248:2 284:1 289:1 318:1 369:1 372:1 405:1 456:1 501:3 534:1 666:1 736:7 748:1 1011:2 1263:1 1358:1 1774:1 1790:1 1851:1 1925:6 1962:1 2000:1 2066:3 2465:1 2495:1 2583:1 2693:1 2926:1 3155:2 3231:2 3694:1 3844:1 3984:1 4918:1 5253:1 5368:1 5415:1 5440:1 5725:5 5822:2 6967:1 7401:4 7825:2 10024:1 10130:1 10226:1 11896:1 12295:1 12434:1 12481:1 15038:1 15155:1 19429:1 20594:1 21617:1 22474:1 23427:3 23849:1 26475:1 29261:1 35284:1 41992:1 
0.003628766765128684 1:2 2:2 6:1 7:1 15:1 19:2 41:1 103:1 131:1 133:3 152:2 176:1 194:2 198:1 311:1 372:1 393:1 512:2 529:3 592:1 712:1 761:1 778:1 867:3 1171:2 1358:1 1579:1 1625:1 1892:1 2511:1 2641:1 2669:1 2721:1 3109:1 3258:2 3342:3 4053:1 4499:1 4802:1 5434:1 5637:1 6326:1 6951:1 7026:1 7040:1 7289:1 8328:1 8860:1 9573:2 10436:1 10997:1 14294:1 15354:1 20288:1 21096:1 26759:1 28427:1 33267:1 35577:1 39297:1 
0.0002819096300770089 1:1 22:1 23:1 59:2 63:1 75:2 87:1 96:1 127:1 153:1 190:3 259:1 290:1 312:2 322:2 372:1 456:1 683:1 743:1 1004:1 1824:1 2465:1 2702:1 3148:1 3566:2 4253:1 5222:1 5441:1 5827:1 6528:1 6616:1 7717:1 7780:2 8854:3 11928:1 13633:1 18293:1 29336:1 33065:3 35531:2 39783:3 
0.0001135733788752853 1:5 2:4 4:1 5:1 9:1 12:1 22:1 31:2 38:1 49:1 82:1 99:1 103:1 121:1 124:1 164:2 166:1 220:3 229:1 232:1 369:1 390:1 421:2 441:1 448:1 454:3 468:1 473:2 510:1 594:1 636:1 642:1 650:1 711:10 728:1 752:1 1085:1 1110:2 1113:1 1115:1 1117:1 1170:5 1192:2 1207:1 1251:1 1258:1 1425:1 1463:1 1484:1 1493:1 1514:1 1516:1 1534:1 1550:1 1656:1 1699:1 1852:1 1885:1 2004:1 2087:1 2252:1 2838:1 3355:5 3749:1 3818:5 3884:2 4200:1 4236:1 4323:1 4546:1 4769:1 5329:1 5399:1 5928:1 6560:1 6772:1 6871:1 7100:1 7446:1 7716:1 7985:1 8142:1 8333:1 8919:1 10119:1 10636:2 11627:1 12149:1 13637:1 15343:1 15898:1 16637:1 18391:1 19288:1 20432:3 20884:1 22292:1 22995:1 25773:1 27690:1 34488:1 39676:1 
0.001329787991605385 1:5 2:1 3:3 6:1 26:1 28:3 30:2 31:1 48:2 55:3 56:1 57:1 62:2 72:1 73:1 96:2 99:1 111:2 121:1 126:1 232:1 269:1 300:1 302:2 340:1 363:2 404:2 518:1 585:4 605:2 702:1 728:1 769:5 815:1 858:2 941:2 1054:1 1093:2 1161:2 1201:1 1222:2 1330:1 1337:1 1352:1 1353:1 1387:2 1388:1 1462:1 1551:1 1592:1 1790:1 1825:1 1949:1 2066:2 2139:2 2306:2 2423:1 2563:1 2668:1 2718:1 2730:1 2743:2 2764:1 2948:1 3007:1 3083:2 3139:1 3313:1 3426:1 3446:2 3538:1 3551:2 3553:1 3557:1 3767:1 3901:2 4120:1 4360:2 4365:1 4575:1 4641:2 4766:1 4807:2 4831:1 4863:1 4894:1 4972:1 5059:1 5394:1 5641:1 5657:1 5729:1 6519:5 7129:1 7427:1 7944:1 7984:1 8084:1 8235:1 8509:2 9178:1 9483:1 9633:1 9817:2 10462:1 10505:1 11583:2 13497:1 13879:1 14442:1 14712:1 14720:1 15059:2 15801:1 16933:1 17727:1 17856:1 18662:1 18946:1 20100:1 20163:1 21309:1 21539:1 22365:1 22728:1 23737:1 24222:1 25118:1 26294:1 26678:1 26969:2 27474:1 27993:1 30081:1 30518:2 32230:1 33346:1 33486:1 34630:1 34798:1 36262:1 41913:1 
0.002480764888935612 1:1 4:1 31:1 35:1 68:1 119:1 127:1 141:1 152:1 153:1 174:1 189:1 190:2 311:1 312:1 372:1 405:1 456:1 615:1 705:2 865:1 1014:1 1493:1 1607:1 1656:1 2458:1 2597:1 2923:4 3668:1 3973:1 4197:1 5208:1 5222:1 5328:1 5415:2 5481:1 7780:2 10634:1 12202:1 12830:1 13901:1 14705:1 19121:1 19452:1 20599:1 22020:2 24188:1 28177:1 28682:1 
0.00754467584132155 1:4 7:3 10:1 32:3 46:1 112:2 155:1 198:1 238:1 268:1 311:1 323:1 369:1 372:1 393:1 493:1 567:1 597:1 633:2 696:1 707:1 810:1 812:1 846:2 1056:1 1128:2 1172:3 1258:1 1277:1 1341:1 1394:1 1420:1 1425:2 1508:1 1815:1 1862:1 2280:1 2295:1 2414:3 2511:1 2716:1 2742:1 2901:1 2926:1 2950:1 3028:1 3388:1 3389:1 3778:2 3966:2 4534:1 4590:1 5900:1 7672:1 9006:1 9894:1 10845:1 11127:1 11241:1 12129:1 14679:1 14704:1 16379:1 20319:1 40076:1 
0.006414820284218167 1:3 5:1 19:1 31:1 37:1 63:1 104:1 105:1 112:1 119:1 310:1 325:1 343:1 372:1 393:1 483:1 579:1 618:1 622:1 698:1 714:2 906:1 961:1 968:1 1018:1 1132:1 1143:2 1587:1 1671:1 1716:1 1774:1 1857:2 1996:2 2394:1 2546:1 3060:1 3824:1 4443:2 4450:1 4487:1 5378:3 5394:1 5492:2 5674:1 7379:1 8953:1 10249:1 12077:1 12085:1 12704:1 13781:3 13997:1 16527:5 20159:1 20602:1 20774:1 21616:1 22156:1 31272:1 36417:3 41399:1 
9.772806964567811e-005 1:1 5:1 17:2 25:1 31:1 32:1 35:1 43:1 45:1 51:1 52:2 73:1 74:2 117:1 125:1 151:1 162:1 173:2 183:1 190:1 203:1 293:1 322:1 361:1 365:1 372:1 379:1 424:1 457:1 534:2 590:1 604:1 684:1 710:1 716:2 906:1 907:1 1003:1 1177:1 1214:3 1297:1 1532:1 1630:1 1790:2 1838:1 1862:2 2107:1 2334:1 2660:2 3218:1 3433:1 3455:1 3485:1 3665:1 4051:1 4198:1 4306:6 4944:1 5077:1 5154:2 5454:1 5657:2 5662:1 6257:1 6330:1 6561:1 7027:2 7050:1 7137:1 7210:1 7255:1 7558:1 7846:2 8303:1 8856:1 9162:1 9246:1 9354:1 9431:1 9883:3 9957:1 9964:1 10606:1 10864:1 11522:1 11859:1 12513:1 12839:1 12925:1 13207:1 16899:1 20132:1 21131:1 21954:3 22678:1 23217:1 23480:1 24801:1 24813:1 28017:4 37432:3 
0.004396545331964354 1:4 3:2 38:2 59:1 79:1 122:1 146:3 159:1 248:1 278:3 321:1 364:2 372:1 493:1 615:5 736:2 886:2 1004:1 1029:1 1125:3 1204:1 1407:1 1774:2 1960:1 2066:3 2306:1 2941:1 3211:1 3788:1 3793:1 4083:1 4196:1 4561:2 5090:1 5169:2 5833:2 6637:1 7042:1 7401:2 7608:1 9437:2 10848:2 11628:2 11729:1 12489:1 13626:2 14298:1 16338:1 16765:1 17839:1 18317:2 19769:1 21692:1 29261:1 31382:1 38036:2 39085:1 
0.002098621430269589 1:8 2:2 3:4 4:1 5:4 9:1 10:2 14:4 17:2 21:1 36:1 37:2 48:1 53:2 55:1 58:2 64:2 74:1 78:2 87:1 101:1 103:1 109:1 124:1 197:1 215:2 242:1 254:2 258:1 263:1 293:1 311:1 336:2 359:1 372:1 373:2 391:4 398:2 434:1 457:1 468:7 469:3 504:2 533:2 537:1 543:1 548:2 619:1 672:1 686:1 711:4 728:1 810:1 817:1 872:1 934:1 939:1 974:1 992:1 1030:1 1047:1 1110:5 1215:7 1256:1 1366:1 1414:1 1425:1 1436:1 1446:1 1496:1 1550:1 1569:1 1571:4 1628:1 1635:2 1670:1 1681:1 1782:1 1866:1 1971:1 1996:1 2023:1 2095:1 2339:1 2403:1 2506:1 2515:2 2526:1 2597:1 2634:1 2686:1 2704:1 2728:1 2735:1 2838:3 2886:2 2928:1 3035:1 3058:1 3213:1 3235:1 3331:1 3389:1 3416:1 3574:1 3586:1 3608:1 3701:10 3727:2 3777:1 4014:1 4098:1 4143:1 4223:2 4305:1 4306:1 4348:1 4509:1 4524:2 4565:1 4632:1 4659:1 5039:1 5066:1 5148:1 5433:1 5688:1 5951:1 6008:1 6102:1 6178:1 6302:1 6369:1 6541:1 6644:1 6664:1 6713:1 6815:1 6875:1 7036:1 7078:1 7210:1 7554:1 7579:1 7610:1 7722:1 7731:1 7812:1 7976:1 8092:1 8202:1 8219:1 8234:1 8243:1 8333:2 8616:1 8761:1 8889:1 8907:1 9122:1 9239:1 9243:1 9306:1 9597:1 9809:2 10119:1 10434:1 10489:1 10680:1 10758:1 10769:1 11252:1 11275:1 11495:1 11995:1 12092:1 12882:1 13040:1 14279:1 14595:1 14639:2 14682:1 14864:1 15187:1 15575:1 16108:1 16621:1 16933:1 17109:1 17125:1 17433:1 18272:1 18579:1 18928:1 19544:1 19619:2 20384:1 20401:1 20957:1 21576:1 21587:1 21894:1 22678:1 22966:1 23162:1 23453:1 23758:1 24245:1 24572:1 25314:1 25415:1 26305:1 26461:2 27268:1 27312:1 27328:1 28890:1 30465:1 31145:1 33472:1 33724:1 34531:1 34865:1 35655:1 36656:1 37778:1 40608:1 40787:1 41097:2 43202:1 
0.0003618558747795429 1:6 3:2 5:3 22:1 26:1 35:1 43:2 67:1 74:2 112:1 119:1 125:1 131:1 146:1 155:1 203:1 206:1 320:2 323:1 372:1 436:1 456:1 579:1 643:1 696:1 717:1 808:1 871:1 951:1 1056:1 1083:1 1148:1 1176:1 1292:1 1339:2 1716:1 1734:1 1758:1 2160:1 2218:1 2386:1 2513:1 2604:1 2717:1 2778:1 2952:1 3096:1 3160:1 3173:1 3251:1 4601:1 4827:1 5151:2 5534:1 5843:1 6108:1 6666:1 6918:1 6978:1 9675:1 11579:1 11630:1 11678:1 12085:1 13697:2 14069:1 16495:1 29010:1 33433:1 38812:2 
0.002947445825532027 1:2 3:2 5:1 8:2 30:1 32:1 35:1 43:1 63:1 64:1 65:2 67:1 74:1 99:2 105:3 106:2 117:1 125:1 154:1 162:1 210:1 243:1 247:1 248:1 279:1 296:1 311:1 326:1 335:1 339:3 364:1 393:1 504:1 526:1 630:1 890:1 1132:4 1191:1 1199:1 1215:1 1270:1 1297:1 1353:1 1516:1 1614:1 1774:1 1805:1 1883:1 1987:1 2097:1 2676:1 2879:2 2970:1 3168:2 4005:1 4505:1 4982:1 5934:1 5944:6 6588:1 6645:1 7381:1 7410:3 7681:1 9107:1 9506:1 10584:2 11288:1 12431:1 13249:1 17598:1 19346:2 25950:1 26726:1 37185:3 
0.008898964636252974 1:4 3:3 5:2 17:1 18:1 31:1 49:1 51:1 52:1 57:1 60:1 74:1 84:1 91:2 106:3 119:1 130:1 143:1 247:2 293:1 301:2 303:1 342:1 364:1 372:1 507:1 578:1 579:1 618:1 653:1 761:1 812:1 874:1 979:1 1056:1 1232:1 1239:1 1279:1 1352:1 1512:1 1647:1 1663:1 1716:1 1788:1 1815:1 1857:1 1876:1 2391:1 2981:1 3901:1 4052:1 4501:1 4587:1 4595:1 4792:1 5008:4 5949:1 6074:1 6139:1 6231:1 6669:4 8674:2 9651:1 11154:1 11260:1 11622:1 13587:1 14357:1 16921:1 18138:1 19461:1 21899:1 22558:1 22931:2 24166:1 32008:1 32375:1 37592:1 
6.048007696135971e-005 1:16 2:2 3:2 4:1 5:1 7:3 8:1 9:2 13:1 14:3 17:2 33:1 35:2 47:1 54:1 63:1 64:1 71:1 78:1 80:1 86:1 91:1 101:2 104:1 110:1 112:1 125:2 127:2 131:1 142:1 155:1 160:1 162:1 164:2 197:10 200:1 236:1 240:1 256:1 262:1 263:1 273:1 296:2 303:1 305:1 316:1 319:1 348:1 354:1 372:1 534:1 538:1 559:1 561:1 577:1 590:1 605:1 612:1 618:18 628:1 655:1 660:1 676:1 708:1 711:7 712:2 728:1 762:1 773:1 783:1 903:1 931:2 942:1 979:2 994:1 1000:1 1003:2 1009:1 1036:1 1041:1 1099:2 1110:2 1125:2 1132:1 1172:1 1211:1 1252:1 1326:1 1340:1 1374:1 1448:2 1493:1 1504:1 1508:1 1510:1 1521:2 1537:1 1543:1 1556:1 1559:1 1649:1 1682:1 1727:1 1733:1 1745:1 1793:1 1814:1 1857:1 1858:1 1862:1 1882:1 1892:1 1975:1 2038:1 2066:1 2213:1 2248:1 2316:1 2333:2 2337:1 2475:1 2505:1 2546:1 2548:1 2621:1 2639:1 2676:1 2823:1 2826:1 2838:7 2976:1 3137:1 3139:1 3177:1 3206:1 3424:1 3524:1 3555:1 3567:2 3609:1 3642:1 3727:1 3768:1 3791:1 3878:1 3964:1 4070:1 4086:1 4116:1 4480:1 4516:1 4598:4 4742:1 4746:1 4757:1 4799:2 4831:1 4851:1 5013:1 5149:1 5157:1 5160:1 5274:1 5344:1 5665:3 5773:1 6008:1 6088:1 6630:1 6832:1 6847:1 7023:1 7194:1 7285:5 7582:1 7585:1 7587:1 7652:1 7679:1 7811:1 7957:1 7996:1 8077:1 8119:1 8130:1 8202:1 8291:1 8319:1 8333:1 8409:1 8616:1 8914:1 9748:1 9863:1 9945:1 10428:1 10500:1 10542:1 10818:1 10872:1 11012:1 11096:1 11525:1 12085:1 12434:2 12612:1 13185:1 13357:1 13763:1 14598:1 14853:1 14886:1 15113:1 15466:1 15539:1 15737:1 15834:2 15847:1 16055:1 16105:1 16527:1 16637:1 16762:1 17321:1 17331:1 17558:1 17692:1 17744:1 18428:1 18787:3 18925:1 19520:1 20068:1 21109:1 21243:1 21533:1 21534:1 21655:1 22803:1 23043:1 23209:1 23598:1 25174:1 27227:1 27847:1 28670:2 29240:1 29699:1 30962:1 31978:1 32374:1 32414:1 33152:1 33823:1 33866:1 34746:1 35017:1 38509:1 38966:1 41619:1 42420:1 
0.01179768482878466 2:1 3:1 7:1 8:1 35:1 99:1 119:1 342:1 360:1 372:1 432:1 456:1 529:1 555:1 633:1 731:1 885:1 894:1 966:2 1366:1 1790:1 1862:1 2035:2 2041:1 2358:1 2455:1 3309:1 4172:1 4737:1 5237:2 5537:1 6528:1 7412:2 7592:1 8269:1 8488:1 10603:2 12373:1 16879:1 22277:1 29681:2 35567:2 
0.007032104434420105 1:2 2:3 4:2 8:1 9:2 28:1 47:1 49:1 62:3 91:1 99:1 103:2 105:1 106:3 111:1 135:1 188:1 225:2 251:2 274:2 289:1 331:2 342:1 375:1 397:2 441:1 470:1 489:1 548:1 576:1 602:1 659:1 728:2 800:3 900:1 926:1 1179:1 1207:1 1272:1 1295:1 1506:2 1538:1 1581:1 1582:1 1681:1 1724:1 1888:1 1995:1 2090:1 2410:1 2655:1 2740:1 2854:1 3481:1 3924:1 4021:1 4081:1 4317:1 4641:2 4720:2 5170:1 5589:1 5599:1 5657:2 6133:1 6231:1 6404:1 7211:2 7364:1 7383:1 7539:1 7996:1 8161:1 9260:1 10191:1 10922:1 11058:1 12059:1 12453:1 12576:1 13064:1 15068:2 17727:2 18091:1 20699:2 22728:1 28070:1 34072:1 37337:1 42539:1 
0.0006300810302696699 1:1 3:3 4:2 8:1 10:1 17:1 43:1 56:1 72:1 76:2 101:1 105:1 106:1 119:1 121:1 130:1 152:1 154:1 189:1 191:1 224:1 229:1 232:1 233:1 251:1 298:1 331:1 336:3 399:1 441:1 456:1 478:2 707:1 864:1 956:1 963:1 992:1 1076:1 1095:1 1105:1 1179:1 1218:2 1294:1 1527:3 1550:1 1731:1 1888:2 1912:1 1945:1 2009:1 2230:1 2262:1 2274:1 2511:1 2534:1 2630:1 2646:1 2855:1 2990:1 3315:1 3628:1 3652:1 4848:1 4882:2 5336:1 5341:1 5899:1 6061:1 6539:1 7582:1 8132:1 8331:3 9929:1 10493:1 10871:1 13590:1 13790:1 15370:1 18652:1 18958:1 23421:6 23971:1 29456:1 32087:1 40442:1 42681:1 
0.003553370539857391 1:4 2:1 3:1 4:1 8:1 26:1 30:1 63:1 75:3 110:1 146:2 153:1 162:1 272:1 278:2 282:1 289:1 321:1 615:3 736:2 1004:1 1029:1 1156:2 1203:1 1429:1 1733:1 1774:1 1981:1 2066:1 2350:1 2460:1 2640:1 2660:3 2816:2 3107:1 3734:1 4547:1 4591:1 6895:1 7719:1 9437:1 9964:1 10024:1 11514:1 12874:1 14875:1 16297:1 22474:1 24326:1 26583:1 32134:1 33506:5 36654:3 39085:3 
0.0151242878931729 1:1 28:2 36:1 56:1 71:1 74:1 94:1 112:1 130:1 142:1 155:1 217:1 260:1 303:1 379:1 385:1 390:2 454:1 565:1 899:1 1110:1 1502:1 1542:1 1624:1 1935:1 2052:2 2078:2 2094:1 2369:2 2460:1 3081:1 3562:1 3839:1 4447:1 4719:1 6982:1 7715:1 12215:1 15828:1 16571:1 20829:1 21743:1 22077:1 32270:1 37891:1 38077:1 41593:1 
0.0004223711759078393 3:1 4:1 5:1 14:2 22:1 24:1 25:1 26:3 30:1 55:1 74:1 87:1 109:1 152:2 208:1 294:2 298:1 329:1 397:1 422:1 451:1 716:1 858:1 906:1 956:1 1014:1 1026:1 1076:1 1095:1 1100:1 1104:1 1180:1 1385:1 1428:1 2131:1 2310:1 2422:1 2650:1 2965:2 3344:1 4219:2 4634:1 5326:1 7849:1 7927:1 9512:1 9564:2 10274:1 10537:1 10597:1 11370:1 12091:1 13710:1 19015:1 25771:3 28938:1 31377:1 38145:1 
0.0008682832620973211 1:8 3:1 5:2 21:1 24:1 32:1 35:1 36:1 37:1 43:1 74:2 96:1 101:2 112:1 114:1 119:1 132:1 154:1 155:1 174:1 183:3 206:2 210:1 298:1 329:3 345:1 349:4 354:1 382:1 405:1 406:1 434:2 436:1 443:1 453:1 461:3 501:2 636:1 681:1 707:1 720:1 728:1 799:1 864:5 910:1 936:1 955:1 1156:1 1175:1 1176:1 1217:2 1233:1 1427:3 1467:1 1562:1 1767:3 1771:1 1774:1 1787:1 1857:2 1960:5 1996:3 2092:1 2123:1 2243:1 2371:1 2420:1 2450:1 2693:1 2716:1 2915:1 3014:1 3168:3 3270:2 3295:1 3342:2 3400:2 3435:1 3502:1 3668:1 3795:1 3917:2 3936:1 3992:2 4048:1 4150:2 4153:1 4332:1 4343:1 4376:1 4424:1 4554:1 4660:4 4848:1 4963:1 5451:1 5918:1 6517:1 6594:6 6683:1 6919:3 7557:1 7837:1 7991:1 8156:2 8313:1 8336:1 10304:1 10718:1 11998:1 12092:1 13062:4 13407:1 13618:1 13707:1 13776:3 14401:2 14555:2 15165:1 15708:1 16004:1 16546:1 18709:1 19642:1 19731:1 20237:1 20261:1 23521:1 23890:1 24264:1 24857:7 25600:1 26029:1 27179:1 27404:1 29339:1 30306:1 34598:1 34676:1 35185:1 35639:2 35655:1 36258:1 36654:1 36911:1 37541:1 40817:1 
0.0001092941417008335 1:1 2:1 3:5 8:1 12:1 46:1 60:3 64:1 74:1 76:2 84:1 106:1 110:1 112:2 117:1 125:1 143:1 154:1 155:1 234:3 388:1 489:1 889:1 1104:1 1131:1 1379:1 1977:1 2160:1 2709:1 3167:1 3582:1 4052:1 4107:1 4361:1 5063:1 5183:1 5295:1 5794:2 6604:1 7796:1 8105:1 8437:1 8917:1 9045:3 9494:1 11220:1 11358:1 11708:1 13257:1 13560:1 15996:1 16617:1 19796:1 27315:1 34496:1 40150:1 
0.01736147373483683 1:2 4:1 15:1 28:1 38:1 44:1 56:1 62:2 99:2 121:2 203:1 342:1 373:1 592:1 716:1 811:1 818:1 833:2 893:1 1387:1 1511:2 1556:1 1729:2 1758:1 1813:1 2002:2 2176:2 2772:1 3021:1 3385:1 3481:1 3926:1 4093:1 4133:1 4451:1 5432:1 7008:1 7204:2 10814:1 15870:1 16130:1 17725:1 24466:1 35630:1 
0.0007056065325343037 1:3 3:1 6:2 8:2 15:1 17:2 21:1 34:1 40:1 49:1 57:1 61:1 90:2 101:1 110:1 164:1 190:2 193:1 210:1 238:3 255:1 309:1 322:2 328:1 338:2 360:1 388:1 421:3 487:1 538:1 578:1 614:2 624:1 668:1 766:1 815:1 817:1 842:1 899:1 935:1 1171:1 1235:1 1261:1 1556:6 1775:1 1783:1 1794:1 1948:1 2274:1 2371:1 2547:5 2669:1 2784:3 2897:1 2900:1 2903:1 2952:1 2969:1 2984:3 3248:1 3393:2 3485:1 3557:2 3582:1 3593:1 4154:1 4219:1 4414:2 4641:1 4717:1 4769:1 4861:1 4874:1 4935:1 5813:2 6312:1 6365:1 6732:1 7036:1 7079:2 7363:1 7429:1 7657:4 7852:1 8326:1 8383:5 8912:1 9529:1 10832:1 11703:1 12068:1 12101:1 13044:1 14656:1 15068:1 15429:1 16332:1 16505:1 16972:1 18180:1 18268:4 19773:2 20650:1 21486:1 24559:2 26020:1 26142:1 31253:1 31631:1 31825:1 33991:1 34364:1 35348:1 35447:1 35967:1 40889:1 
1.029197392607624e-005 1:7 2:1 3:3 4:1 8:1 11:1 12:1 15:1 17:3 26:1 39:1 50:2 100:1 102:1 107:1 109:1 132:2 142:2 160:1 164:9 179:1 180:1 190:1 192:1 229:1 260:1 261:1 301:1 303:1 307:1 313:2 331:1 421:3 422:1 459:1 473:4 525:2 540:1 555:1 660:3 732:1 745:1 773:2 777:1 861:2 899:9 1048:1 1064:1 1233:1 1387:1 1529:1 1556:1 1569:1 1610:1 1624:1 1721:1 1884:1 1985:1 2119:1 2264:1 2279:1 2284:1 2572:1 2669:2 2844:1 2976:1 3481:2 3488:1 3563:1 3715:1 3755:1 4234:2 4399:1 5278:1 5362:1 6486:1 6640:1 6772:4 6887:1 7594:1 7665:1 7980:1 8350:1 9086:1 9218:1 9237:1 10119:1 10211:1 10656:1 11478:2 11525:1 13270:1 13408:1 14182:1 14463:1 14533:1 14922:1 15426:1 17841:1 19886:1 20159:1 20177:1 22103:1 23196:1 26713:1 26777:1 33235:1 37296:1 37505:1 39555:1 40794:1 42871:1 
0.004137520246069171 1:6 2:2 3:1 5:1 17:1 25:3 31:1 43:1 52:1 74:1 92:1 96:1 190:1 201:1 208:1 210:1 212:1 320:1 410:1 522:1 568:1 571:1 596:1 637:1 733:2 928:2 941:1 1073:1 1107:1 1179:2 1198:1 1201:1 1333:3 1661:1 1708:2 1738:1 2264:1 2427:1 2488:1 2505:1 4547:1 4581:1 5632:1 5806:2 6544:1 6706:1 8883:1 9826:1 10236:1 10300:1 10426:1 10807:1 10902:1 11476:1 11901:1 13144:1 13542:1 14471:1 15985:1 17838:1 23313:1 28770:1 30618:1 30800:1 31471:1 32593:1 
0.0002237153663718945 1:4 8:1 10:1 15:1 17:1 22:2 25:1 26:4 53:1 56:1 61:1 62:1 86:1 98:1 124:3 134:3 188:1 206:1 247:3 338:1 353:1 629:2 1179:1 1249:1 1584:1 1644:1 1740:1 2132:1 2741:1 2784:1 3391:1 3485:1 3542:1 4905:1 5226:1 5237:1 5690:1 5915:1 6182:1 12145:1 12687:1 13999:1 14266:1 14471:1 14885:2 16631:2 18963:1 21163:1 24932:1 25838:1 28896:1 29111:2 30089:1 30135:1 35021:1 35429:2 40819:1 
0.0117222229399647 1:3 72:2 105:1 107:1 127:1 136:1 193:1 222:1 259:1 288:1 352:1 404:1 418:1 466:3 541:4 568:4 569:1 609:1 707:1 778:1 1246:1 1545:1 1924:2 1983:1 2022:1 2348:1 2652:1 2755:1 2758:2 3015:1 4107:1 4230:1 4979:1 5062:1 5311:2 8511:1 11478:1 11693:1 16160:3 33793:1 
0.005459260452841981 1:11 2:1 3:2 8:2 9:2 11:5 22:2 24:1 26:1 32:1 35:3 53:1 56:2 59:1 64:1 87:1 91:1 116:1 141:1 146:2 204:2 236:1 248:2 250:1 257:1 269:3 309:1 318:1 328:1 404:3 438:1 509:1 522:1 533:1 564:1 804:1 886:1 1074:1 1123:1 1148:1 1221:1 1233:1 1341:1 1387:2 1401:1 1514:1 1644:1 1921:1 2381:1 2397:1 2659:1 2708:1 2820:1 2825:1 2910:1 2970:1 3214:1 3393:1 3625:1 3808:1 4123:1 4305:1 4307:1 4356:1 4685:1 4775:1 5017:1 5041:1 5056:1 5059:1 5289:1 5366:1 5404:1 5545:2 5547:1 5578:1 6662:1 7657:2 7826:1 8195:1 8489:4 8880:1 9350:1 9427:1 10027:1 10869:3 11462:1 13539:1 14193:7 14412:1 14656:1 15603:4 17625:4 18154:1 18347:1 19147:1 20100:1 20531:1 22394:1 25167:1 37418:1 37549:1 
0.004235491563977099 1:4 25:1 45:1 48:1 56:2 70:1 162:1 210:1 212:1 266:1 313:1 328:1 441:1 477:1 489:2 570:1 582:1 594:1 610:1 936:1 1074:1 1149:5 1155:1 1204:1 1222:1 1592:1 1624:1 1673:1 1888:1 1987:1 2097:2 2160:2 2429:1 2676:2 3068:1 3176:1 3584:1 3609:1 4053:1 4054:1 4179:1 4546:1 6504:1 6588:1 6871:1 8336:1 9282:1 10699:1 11874:1 13649:1 13697:1 18027:4 28195:1 
2.428915715268311e-005 1:1 2:1 3:2 5:1 8:2 20:1 48:1 49:1 55:1 70:1 72:1 74:1 84:1 98:1 112:1 122:2 135:1 159:1 201:1 210:1 236:3 272:1 298:2 347:1 353:1 367:1 416:1 485:1 568:1 591:1 683:1 768:1 804:1 906:1 1035:1 1081:1 1108:1 1114:1 1335:1 1584:1 1784:1 1845:1 1968:3 2097:1 2300:1 2310:1 2534:1 2709:2 2956:1 3035:1 3417:1 3913:1 4052:1 4083:1 4521:1 4621:1 4800:1 5063:1 5383:1 5549:1 5908:1 6069:1 6220:1 7112:1 7425:1 10379:1 12404:1 13998:1 14197:1 14324:1 15441:1 18108:3 20248:1 24302:1 24417:2 24907:1 27416:1 28236:1 28638:1 29064:1 37806:1 37824:1 38937:1 41689:1 
0.0003227300276084999 1:1 2:1 3:2 5:1 8:2 20:1 48:1 49:1 55:1 70:1 72:1 74:1 84:1 98:1 112:1 122:2 135:1 159:1 201:1 210:1 236:3 272:1 298:2 347:1 353:1 367:1 416:1 485:1 568:1 591:1 683:1 768:1 804:1 906:1 1035:1 1081:1 1108:1 1114:1 1335:1 1584:1 1784:1 1845:1 1968:3 2097:1 2300:1 2310:1 2534:1 2709:2 2956:1 3035:1 3417:1 3913:1 4052:1 4083:1 4521:1 4621:1 4800:1 5063:1 5383:1 5549:1 5908:1 6069:1 6220:1 7112:1 7425:1 10379:1 12404:1 13998:1 14197:1 14324:1 15441:1 18108:3 20248:1 24302:1 24417:2 24907:1 27416:1 28236:1 28638:1 29064:1 37806:1 37824:1 38937:1 41689:1 
0.004631256435495578 1:2 2:1 3:1 9:1 38:1 43:1 53:1 97:1 98:2 106:1 153:1 162:1 178:1 188:2 210:1 238:1 298:1 318:1 322:1 342:1 502:1 551:1 568:1 587:1 813:1 977:1 1250:1 1312:1 1450:1 1644:1 1989:1 2117:1 2133:1 2255:1 2348:1 2469:1 2475:2 2611:1 2761:1 3223:1 4317:1 4486:1 5067:1 5350:1 5547:1 5607:1 6537:1 7466:1 9096:1 9455:1 9769:1 9815:1 10142:1 10393:1 12472:1 13411:1 13906:1 21565:1 22104:1 22640:1 24423:1 29577:1 33492:1 35974:1 38629:1 39116:1 41777:1 42428:1 
0.01029929444049116 1:1 22:1 24:1 25:3 26:1 87:1 188:2 312:1 451:1 583:1 602:1 669:1 705:1 1026:1 1074:1 2117:1 2330:1 2675:3 3967:1 3998:1 4592:1 4683:1 5740:1 6154:1 8234:1 13139:1 14246:1 22588:1 24541:1 25860:1 32797:1 33141:1 
0.0025914139784987 1:2 2:1 4:1 21:1 22:1 24:2 25:2 26:2 48:1 70:1 103:1 125:1 195:1 213:1 247:1 294:1 368:1 405:1 451:3 596:1 991:1 1082:1 1233:1 1456:1 1496:1 1669:1 1882:1 1943:1 2630:1 2793:1 2847:1 3119:1 3628:1 3760:1 3981:1 4007:1 4083:1 4124:1 4634:1 5075:1 6297:1 7346:1 8625:1 8688:1 8936:1 9129:1 9854:3 10422:3 14987:1 18270:1 22004:1 25604:1 29707:1 31748:1 37628:1 41431:1 
0.001690389250494189 1:11 3:2 9:1 11:9 14:1 22:1 53:1 63:2 79:1 105:5 119:1 144:3 146:2 153:1 193:1 204:2 248:3 251:1 259:1 267:1 269:5 297:1 309:1 321:1 387:3 404:5 524:1 536:1 562:1 566:1 579:1 720:1 728:1 785:1 812:6 1131:1 1246:1 1356:1 1381:1 1420:1 1467:1 1469:1 1498:1 1505:1 1672:1 1677:2 1823:1 1882:1 2217:2 2250:1 2430:1 2460:1 3024:1 3039:1 3167:1 3180:1 3625:1 4032:1 4217:2 4335:1 4524:1 4609:1 4638:1 4693:1 4807:1 4875:1 5284:2 5289:1 5545:2 6120:1 6264:1 6480:1 6519:5 6580:1 7227:1 7331:1 7366:1 7396:2 7487:1 7587:1 7941:1 8134:1 8350:1 8459:2 8489:9 8869:1 9021:1 9288:1 9301:1 9576:1 9814:1 10869:1 11540:1 12604:1 12908:3 13560:1 13879:1 14193:5 14879:1 15603:2 16078:1 17193:1 17351:1 17363:1 17437:1 17625:6 18154:1 19333:1 19457:1 22985:1 24198:2 25576:1 26508:1 30376:1 31178:1 40165:1 42086:2 42443:1 
0.00171945047153704 1:1 2:2 6:2 17:3 22:1 32:1 35:2 43:1 46:1 49:1 72:4 99:1 105:1 106:5 143:1 203:1 225:1 234:1 249:2 328:2 342:1 375:1 546:2 660:3 668:3 699:1 773:1 919:1 938:2 942:1 1015:1 1026:1 1038:1 1243:1 1285:1 1340:1 1580:2 1677:1 1748:1 2050:1 2388:1 2567:1 2578:1 2825:1 2970:1 2972:1 3281:3 3430:1 3611:1 4130:1 4467:1 4863:1 5353:2 6989:1 7234:1 8259:2 8963:1 9009:1 9094:1 15780:1 18362:1 21047:2 22036:1 22996:1 28183:1 29688:1 30058:1 30398:3 36661:1 40978:1 43140:1 
0.003474743964505354 1:6 2:2 3:1 4:1 8:1 15:1 17:1 40:1 72:1 74:1 81:1 84:1 102:3 116:2 130:1 135:1 146:1 156:1 162:1 164:1 229:1 236:2 238:1 295:1 321:1 329:1 369:1 383:1 404:2 416:1 421:1 474:2 519:1 533:1 567:2 587:1 629:6 753:1 773:1 913:1 967:1 1078:1 1166:1 1213:1 1221:2 1264:1 1288:1 1307:3 1318:1 1345:1 1459:1 1514:1 1591:1 1917:1 2066:2 2329:1 2397:1 2454:1 2487:1 2538:3 2660:2 2762:1 3273:2 3288:1 3378:1 3806:1 3898:1 3931:1 4206:3 4274:2 4406:1 4580:1 4592:1 4828:1 5215:1 5288:1 5510:1 5626:1 6640:1 6713:1 6720:1 9427:2 9531:1 10656:1 10861:1 10922:1 11228:1 11778:2 11869:1 12738:1 13904:1 14875:1 15023:1 15294:1 16948:1 17414:1 17681:3 18855:2 19408:1 20118:1 22306:1 23074:1 28854:1 29029:1 30639:1 35131:1 37556:1 
0.0009742664457261709 1:2 2:1 26:1 28:2 38:1 57:1 91:1 98:1 110:1 188:1 190:2 193:1 261:1 322:2 441:1 517:1 568:2 864:1 900:1 1044:1 1084:1 1203:1 1584:1 1589:1 1721:1 1852:1 2126:2 2157:3 2508:1 3179:1 3389:1 4915:1 4976:7 5007:1 5067:1 5146:1 6878:3 7424:1 7711:1 7988:1 8409:2 12731:1 14336:1 15548:1 19658:2 25113:5 32552:1 
0.001238691774625885 1:7 2:2 3:3 6:2 7:4 8:1 11:1 15:1 17:3 25:1 48:1 49:1 56:1 57:2 61:2 72:4 78:1 87:1 98:2 112:1 116:1 155:1 178:1 193:2 224:2 269:2 284:1 305:1 321:1 336:1 352:1 398:1 411:1 418:1 430:1 537:1 560:1 583:1 591:3 668:5 695:6 729:1 956:2 1076:2 1095:2 1130:1 1158:1 1166:2 1218:4 1252:1 1277:1 1282:1 1406:1 1420:2 1478:1 1545:1 1584:1 1593:1 1865:1 1888:1 1924:3 1957:1 2022:1 2067:1 2508:1 2641:1 2755:1 2823:2 2875:1 2976:1 3111:1 3339:1 3427:1 3560:1 3809:1 3891:1 3898:1 4053:1 4426:1 4498:1 5073:2 5201:1 5211:1 5421:1 5668:1 5848:1 5895:1 6094:1 6346:1 6823:1 6937:1 7160:1 7190:1 7248:1 7285:2 7307:1 7423:1 7993:1 8196:1 8979:1 9093:1 9202:2 10534:1 10899:1 11822:1 12119:1 12742:1 12870:1 13354:1 14017:1 14199:1 14457:1 14759:1 17076:1 17588:1 18263:1 18325:1 20159:1 23196:2 23510:1 23668:1 25138:1 25528:1 26532:1 26623:1 27365:1 28429:1 30550:1 35468:1 36957:1 37505:1 39045:1 40596:1 
0.0001815745595662578 1:7 3:1 4:2 8:2 11:1 17:1 19:1 25:5 26:1 39:4 57:1 72:4 88:1 98:1 125:1 133:1 155:1 164:2 171:1 303:1 373:2 398:1 409:1 435:1 440:1 472:1 525:2 541:3 569:1 591:1 610:1 627:1 641:1 660:2 709:2 771:1 819:1 926:1 932:1 942:1 1104:3 1124:1 1240:1 1357:1 1440:1 1556:1 1557:2 1566:1 1590:1 1626:1 1687:1 1745:1 1884:1 1955:2 2056:1 2445:1 2592:1 2963:1 3212:1 3215:1 3385:1 3405:1 3586:1 3614:1 3676:1 5168:1 5249:1 5523:1 5808:2 6171:1 6201:1 6607:1 7189:1 7593:1 7594:1 7673:1 8196:1 8827:1 9155:1 9957:1 10963:1 11708:1 11979:1 12041:1 13172:1 17586:1 18124:1 19058:1 20110:1 21103:1 22278:1 23691:1 23861:1 24861:1 26939:1 26991:1 28159:1 41904:1 
0.01361167334493803 1:1 8:1 11:1 25:1 40:1 60:1 72:2 127:1 142:1 303:1 423:1 441:1 470:2 525:3 536:1 541:2 862:2 885:1 911:1 928:1 953:1 990:1 1036:3 1042:1 1046:1 1078:1 1426:2 1431:1 1467:1 1721:2 1790:1 1913:1 2860:1 3464:1 4266:1 5586:1 5594:1 6898:1 7213:1 7223:1 7360:1 7489:1 7953:1 8031:1 9147:1 9985:1 10785:1 10986:1 11851:1 15022:1 16127:1 27399:1 29908:1 34747:2 
0.005201240573436911 1:2 8:1 14:3 22:1 23:1 33:5 35:1 55:1 59:1 60:1 66:1 75:1 127:1 192:1 283:1 289:1 312:2 364:1 368:1 454:1 473:1 588:1 615:1 681:1 736:1 953:1 1075:1 1110:2 1156:1 1558:2 1656:1 1716:1 1774:2 1824:1 1845:1 2014:1 2035:1 2217:1 2460:1 2495:1 2960:1 3165:1 3179:1 3362:1 3432:1 3633:1 3659:1 3844:1 4221:1 4711:1 4913:1 4963:1 5041:1 5224:1 5627:1 5874:1 6658:1 7456:1 7680:1 7717:1 7780:1 7786:1 7838:1 7873:1 8050:2 8220:1 8319:1 8666:2 9074:1 9289:1 9698:1 10175:1 11657:1 11928:1 12151:1 12689:1 13349:1 13530:1 13672:3 13697:1 14298:1 14578:1 14705:1 15044:1 16498:1 16536:1 17189:3 18292:2 18527:1 19572:1 19868:1 20301:1 22089:1 22100:1 22625:1 22672:1 23582:1 23617:1 25269:1 26075:1 26407:1 26462:1 27392:1 27780:1 28177:1 28752:1 28764:1 29261:1 29671:1 30320:3 33337:1 35463:1 37526:1 38215:1 38812:1 39226:1 40290:3 
0.000763215656330794 1:11 2:1 4:2 5:5 14:1 20:1 21:1 43:3 46:1 63:1 74:2 101:1 112:2 151:1 152:2 155:2 174:1 183:2 189:2 200:1 246:1 253:1 258:1 265:1 289:1 352:1 360:1 369:2 375:1 391:1 434:1 454:1 467:1 481:1 487:1 519:1 520:1 543:1 551:2 566:1 571:3 597:3 653:1 685:1 800:1 827:1 828:1 830:1 850:1 895:1 924:1 985:1 1073:1 1176:1 1363:1 1372:1 1391:2 1555:1 1666:1 1732:1 1743:1 1783:3 1807:1 1933:1 1946:1 2110:1 2133:1 2183:1 2219:1 2402:1 2501:1 2695:1 2787:1 3020:1 3021:1 3167:1 3185:1 3428:1 3429:1 3478:3 3525:1 3577:1 3664:1 3671:1 3734:1 3751:1 3852:1 3867:1 3890:1 3997:2 4018:1 4196:1 4259:1 4851:1 4937:1 5022:2 5131:1 5421:1 5760:1 5823:1 5824:1 5919:1 6071:1 6250:1 6451:1 6482:1 6554:1 6745:1 6827:1 6974:2 7257:1 7402:1 8862:1 8902:1 9047:2 9443:2 9950:1 10135:1 10436:1 10540:1 10904:1 11172:1 11485:1 11651:1 12092:1 12688:2 12768:1 13009:1 13737:1 14903:1 15086:1 15244:1 15262:1 15568:2 16015:4 16378:1 17545:1 17688:1 18379:1 20957:1 21006:1 21524:1 22806:1 22840:1 26755:2 27279:1 27808:1 28380:1 29641:1 29936:1 32895:1 34035:1 36712:1 37148:1 41836:1 42840:1 43019:1 43194:1 
0.01107585090108937 1:4 6:1 15:2 17:1 35:1 49:1 111:1 232:1 234:1 338:1 407:1 509:1 689:1 769:1 800:1 1252:1 1379:1 1490:1 1610:1 1740:1 1802:1 1825:1 1985:2 2066:1 2084:1 2139:4 2320:1 2641:1 2854:1 3139:1 3426:2 3481:1 3600:1 3859:1 3896:1 4307:1 4352:2 4374:1 4600:1 4641:1 5523:1 5657:1 5836:1 5900:1 6047:1 6519:2 8914:1 9558:1 9815:1 12237:1 13354:1 14913:1 16507:2 16712:1 17979:1 27729:1 30681:1 32487:1 33168:1 34654:4 41152:4 42716:2 
